-0.012023407,-0.012201681,-0.0144858975,-0.014896489,-0.017163385,-0.020066535,-0.020552952,-0.033152018,-0.05523949,-0.071879916,-0.092074774,-0.10949277,-0.11583039,-0.10099965,-0.103812054,-0.093513206,-0.07459884,-0.06610824,-0.06693588,-0.061923742,-0.050113164,-0.044931527,-0.024600329,-0.0177376,-0.014116802,-0.0040992047,-0.0014437052,-0.004032036,-0.009685672,-0.0078746425,-0.008177678,-0.00803207,-0.0064534433,0.001373701,-0.004358371,-0.004995765,-0.02199655,-0.041425444,-0.06270999,-0.085306324,-0.11253496,-0.115786925,-0.11407321,-0.09462017,-0.07203063,-0.0679933,-0.07062813,-0.07843665,-0.07089045,-0.0512185,-0.04122576,-0.01808353,-0.00047672336,0.0073474827,0.01335183,0.0024384328,-0.008099046,-0.0015781759,-0.00062328595,-0.0017927018,0.002195631,0.0016397014,0.007726648,-0.0075390134,0.0001517692,-0.019558014,-0.03931112,-0.048533373,-0.0558729,-0.05113265,-0.06586426,-0.05856116,-0.03870526,-0.045182105,-0.07224619,-0.08435869,-0.07124079,-0.048019607,-0.045875423,-0.021485217,-0.005225794,0.0027275635,0.012429017,0.01281144,-0.0014736704,0.005463597,-0.0035295642,-0.0023705128,0.003159847,0.008256083,0.004928087,0.0044661504,0.020255525,0.011602996,0.008485502,0.010986832,-0.0061315335,-0.044781875,-0.07682096,-0.06679084,-0.069484755,-0.036783215,-0.033861306,-0.04315099,-0.02939467,-0.024808096,-0.023854505,-0.024565967,-0.023161285,-0.0067030657,0.0066966717,0.013200323,0.001407507,0.002437492,-0.00814926,-0.0042386167,0.006100026,0.004386799,0.026038593,0.030732173,0.033423167,0.028296383,0.03071306,0.039777495,0.018498577,-0.0040166066,-0.043601904,-0.06749452,-0.07096822,-0.050144967,-0.026789043,-0.007446846,0.012211502,-0.005261422,-0.018482503,-0.018435908,-0.033891693,-0.037116814,-0.022970464,0.0026283374,-0.0020563353,-0.0037847613,-0.008977254,-0.008878504,0.010267747,0.035637084,0.059366066,0.06203031,0.051676583,0.0330644,0.04118973,0.048084334,0.05575248,0.0540141,0.024393715,-0.0075248512,0.0027798289,-0.012857142,-0.016277164,0.01344057,0.004171826,0.003297065,0.0037113372,-0.011099195,-0.04879463,-0.050586894,-0.031556036,-0.0008664893,-0.006967151,-0.011978836,-0.01255975,0.004733322,0.02633584,0.062477242,0.07433098,0.06775224,0.03977182,0.053589944,0.060224168,0.069860555,0.11221043,0.12970355,0.10129446,0.0808944,0.07905858,0.053613022,0.034387667,0.03980297,0.022598175,0.037063695,0.019752001,0.0012828034,-0.035890564,-0.05647299,-0.041229565,-0.03237657,-0.005140043,-0.0058052335,-0.0059337164,0.016392982,0.03483839,0.060280204,0.05487432,0.08213901,0.07735601,0.08834622,0.10778759,0.14028816,0.15149747,0.14804551,0.14217298,0.10772397,0.09224015,0.0865383,0.055085577,0.046531223,0.048545048,0.053625397,0.04097205,0.015494827,-0.01467231,-0.05423163,-0.056230243,-0.04839532,-0.0088059325,0.0018569352,0.0020560818,0.02586632,0.03696856,0.061764993,0.073104456,0.091378175,0.10758393,0.09333079,0.11401516,0.117444165,0.12613285,0.13846971,0.14192311,0.12614526,0.11120929,0.07949121,0.06677557,0.05461954,0.07015878,0.060177784,0.04538249,0.022364777,-0.027278688,-0.040382516,-0.041339383,-0.033621404,-0.008079955,-0.005097245,-0.00011889479,0.00069219567,0.034357417,0.043937653,0.06547118,0.070086196,0.068249404,0.04000174,0.047951948,0.059503153,0.080297485,0.07083606,0.08985108,0.07850212,0.038557895,0.023416363,0.014958085,0.04355344,0.04490206,0.06822514,0.05168165,0.020544909,0.018459583,-0.004463787,-0.012791029,-0.029223233,-0.002508376,-0.013349019,-0.008632411,-0.01431647,0.0064622336,0.0082048355,0.016185353,0.02767175,0.021971865,0.02972028,0.034207076,0.029255437,0.020915043,0.036008768,0.06742906,0.066794895,0.046692282,0.046054713,0.055357635,0.06411003,0.07749868,0.1130294,0.07369103,0.060387645,0.058119193,0.054125853,0.038865138,-0.009036243,-0.02310184,-0.020687038,-0.035210956,-0.022654425,0.001128927,0.003018261,0.008900066,0.037418976,0.04584857,0.052089628,0.048719533,0.041729476,0.04282636,0.061364233,0.087342165,0.08342352,0.060384873,0.06989881,0.0900311,0.089834526,0.10982386,0.11916171,0.094604924,0.08539365,0.079545915,0.06874793,0.05085954,0.010026241,-0.031663753,-0.031381644,-0.036054045,-0.0229741,0.0011105516,-0.0016055144,0.009107091,0.029573198,0.049937006,0.064868115,0.05859863,0.063503295,0.04937771,0.070488095,0.07670309,0.07980413,0.058474123,0.0699249,0.07844687,0.06917504,0.09118034,0.09104718,0.09364134,0.08317836,0.09020267,0.07976432,0.06713961,0.021961723,-0.035710674,-0.024928205,-0.028577356,-0.030241752,-0.018270124,-0.006648613,-0.00060206687,-0.019855833,-0.0040084003,0.04299816,0.038067468,0.049787197,0.039536547,0.024567766,0.04432076,0.050219346,0.03271626,0.032608543,0.034407027,0.033607967,0.06369993,0.08365934,0.10704609,0.07990182,0.08276201,0.0874682,0.07404649,0.024876475,-0.028531207,-0.029018207,-0.022614399,-0.040020544,-0.031056441,-0.015147541,-0.012801955,-0.03148808,-0.009105738,0.02483872,0.041633658,0.06895011,0.044043817,0.029461114,0.027235044,0.021973431,0.015220815,0.006768638,0.018203953,0.032473773,0.05254209,0.09156357,0.1007338,0.06853067,0.07307844,0.06968277,0.052750953,0.018718712,-0.018181872,-0.020816736,-0.032686938,-0.024005346,-0.014932176,-0.029258968,-0.03183287,-0.032862756,-0.008738993,0.022829806,0.061261054,0.06569808,0.060130797,0.031155957,0.025591249,0.0057436703,-0.0034984767,0.012423295,0.01145906,0.04097813,0.048494734,0.06851713,0.062415827,0.051123913,0.05111308,0.03552247,0.045344066,0.03326737,-0.01598628,-0.01688347,-0.017746912,-0.018282112,-0.023727193,-0.03436679,-0.032499928,-0.030005893,-0.019323615,0.017656755,0.056116812,0.05895756,0.04948927,0.03440136,0.013648088,-0.010034703,-0.0044577164,0.014208693,0.03547334,0.061229527,0.06133135,0.062556714,0.043620978,0.032482475,0.012679629,0.011261105,0.034017693,0.02351233,-0.019956475,-0.011103075,-0.023612648,-0.03089286,-0.03137683,-0.03198527,-0.029192738,-0.03148246,-0.02899969,0.027202817,0.03916991,0.05933596,0.044312455,0.02426483,0.012970567,0.0013747623,0.0059494954,0.023340149,0.0149672,0.0569027,0.07394278,0.050319098,0.027071433,0.019315926,0.010677374,0.009894804,0.0109224245,0.0019199846,-0.02162489,-0.031695947,-0.057734277,-0.044372268,-0.038507156,-0.044278644,-0.032866113,-0.03301612,-0.0109988535,0.030996984,0.04268591,0.04446039,0.052182384,0.054457728,0.020097472,-0.008414966,-0.004519992,0.008043798,0.008202251,0.03673699,0.048961736,0.023618821,0.009791166,1.3170194e-05,0.00072736666,0.00083831325,-0.007068474,0.00094484334,-0.01821907,-0.04040546,-0.068518646,-0.05512272,-0.064097546,-0.075281434,-0.057748582,-0.03424836,-0.0020781285,0.029808827,0.013838033,0.02644919,0.06550838,0.059706483,0.041206807,0.010611746,0.004363028,0.0060893237,0.008476355,0.025267992,0.05536947,0.03645768,0.0056680357,-0.0156462,-0.002655584,-0.0037703712,-0.0035022942,-0.010671002,-0.024873912,-0.046070833,-0.06362263,-0.056140114,-0.056165878,-0.06469467,-0.046985403,-0.02727277,-0.010273689,0.007776073,0.014323367,0.030797286,0.048219472,0.04219758,0.04260553,0.015968172,0.0065403576,-0.013255943,0.0014374425,0.0147067895,0.026458953,0.009695266,-0.015702052,-0.009125252,-0.009351002,-0.0008890247,-0.019153006,-0.016729258,-0.026471226,-0.037301585,-0.055617105,-0.047683973,-0.0656856,-0.075421184,-0.054940626,-0.046197917,-0.053699087,-0.039863747,-0.022834605,-0.015938723,0.011522438,0.0025546625,-0.0043012244,-0.031888597,-0.04357603,-0.03654371,-0.020111842,-0.008976443,-0.012678217,-0.009763389,-0.021423707,-0.024095656,0.007926225,-0.00042345776,-0.020326298,-0.02219346,-0.030391576,-0.044000883,-0.05931609,-0.057476245,-0.06371403,-0.053973794,-0.050124615,-0.06995028,-0.070159666,-0.04417507,-0.055609863,-0.036732644,-0.016473077,-0.027262064,-0.02900976,-0.026797514,-0.043987554,-0.037596542,-0.047177505,-0.051082246,-0.025576541,-0.032813728,-0.035644382,-0.0106080575,0.0054084454,-0.004243834,-0.017368268,-0.021723276,-0.034174103,-0.040352862,-0.04790296,-0.046105847,-0.038641747,-0.031588748,-0.028238876,-0.045215715,-0.04717372,-0.040641945,-0.039678738,-0.021416057,-0.031824093,-0.025011608,-0.02490495,-0.020177418,-0.03701442,-0.045628488,-0.045609146,-0.046487566,-0.030899916,-0.022736019,-0.009589603,0.00013053021,-0.0020818252,-0.014096714,-0.024167562,-0.028110353,-0.03906263,-0.038057324,-0.029329734,-0.02244763,-0.0017077134,0.00025647818,0.0034166723,-0.016938774,-0.019963296,-0.007032282,-0.0058236877,-0.014204311,-0.028872358,-0.010503128,0.005617074,-0.00646414,-0.03433834,-0.026590288,-0.025369402,-0.027065929,-0.026429854,-0.020363126,-0.004283385,-0.008677639,-0.009198493,-0.031757046,-0.030640395,-0.021402415,-0.03365883,-0.03438148,-0.029775739,-0.015832178,0.0073044547,0.016384462,0.0059807966,0.010914644,-0.014936079,-0.026689284,-0.024985822,-0.025846811,-0.013891502,-0.020189956,-0.028421905,-0.042852964,-0.033335377,-0.033212837,-0.04171427,-0.034562554,-0.044638146,-0.049269695,-0.02596903,-0.009046897,-0.021421049,-0.025535077,-0.021768922,-0.017597709,-0.029542526,-0.025239727,-0.029010557,-0.024423141,-0.0037698944,-0.00063102297,0.00021205533,-0.0043482278,-0.033471372,-0.03949868,-0.05374305,-0.027069245,-0.020092411,-0.029419642,-0.042280424,-0.033697482,-0.030032197,-0.043193966,-0.06094476,-0.040208455,-0.04257114,-0.039806068,-0.025465436,-0.020446375,-0.021245593,-0.012908229,-0.018492566,-0.014512663,-0.022196416,-0.026819846,-0.03535812,-0.044830967,-0.04330998,-0.038569544,-0.03726726,-0.05313482,-0.05597058,-0.059002876,-0.059092306,-0.025367182,-0.024962112,-0.029317081,-0.03235583,-0.020257536,-0.027480297,-0.046112545,-0.048867647,-0.02535017,-0.01909599,-0.016643934,-0.011975449,-0.007001171,-0.0029307646,-0.008564908,-0.010598689,-0.011585433
0.024988828,0.022736542,0.016983213,0.012771325,0.010564287,0.007056794,0.00015701665,-0.0031437103,-0.0013456516,0.009511107,0.02480125,0.034343638,0.036363173,0.043544985,0.03579927,0.029896684,0.026049642,-0.0029856567,-0.014508236,-0.0072111874,-0.00597796,-0.008070857,-0.00940866,-0.017014557,-0.006379167,0.0063778656,0.01782683,0.02038595,0.02434321,0.027209448,0.024958827,0.023440607,0.0096814325,0.01034048,0.019235225,0.028472345,0.039440904,0.04378642,0.059893694,0.06497084,0.057574496,0.055130813,0.054322973,0.0652798,0.07228333,0.04733436,0.04297194,0.016810164,0.015102632,-0.011467422,-0.022984661,-0.025695087,-0.016489362,-0.00074887753,0.0041788276,0.0019604685,0.028413393,0.035201572,0.029489862,0.021949284,0.015824556,0.015224698,0.027043916,0.02621147,0.04863747,0.065027624,0.0710049,0.08537309,0.090863034,0.08034607,0.075647675,0.093954004,0.10588537,0.081973754,0.088931374,0.049303655,0.012529266,-0.03255218,-0.03375232,-0.023754133,-0.0055647595,-0.0037110727,-0.014940952,-0.00862621,0.03586173,0.0399388,0.031395994,0.013627609,0.0036969485,0.018457726,0.023279207,0.012258986,0.032279972,0.04385356,0.05298173,0.060321175,0.05450556,0.042952698,0.033377774,0.026091097,0.04298643,0.05957435,0.05741413,0.032123856,-0.0057184617,-0.028179366,-0.03899954,-0.023613127,-0.020995617,-0.008583058,-0.0075448975,-0.019575946,0.037040174,0.032579903,0.0135043105,-0.0037422907,-0.008585332,-0.0032974638,-0.013587314,-0.02503057,-0.0104523795,-0.009421394,0.0046644625,0.010655733,-0.0036783097,-0.007693781,-0.0047772564,0.024045609,0.05881974,0.06909943,0.070155494,0.03645385,-0.0061366362,-0.04231631,-0.05206786,-0.048830915,-0.048726138,-0.038599283,-0.022917239,-0.03282269,0.03294255,0.020123143,-0.002190113,-0.026948407,-0.02998644,-0.021956386,-0.019811464,-0.038817443,-0.03180581,-0.027964426,-0.007961109,-0.012261005,-0.020287191,-0.010163632,-0.023254845,0.011270648,0.030532163,0.07435479,0.0820563,0.05738716,0.0010950279,-0.045871537,-0.064661205,-0.04543111,-0.051886044,-0.030412596,-0.030775478,-0.034236666,0.029229298,0.01344073,-0.0050170515,-0.015930494,-0.020310655,-0.015511427,-0.019184722,-0.026654653,-0.031938784,-0.006196205,-0.002565855,-0.02358239,-0.0063419547,-0.0124198245,-0.010097094,0.01136612,0.032412145,0.07176468,0.10492685,0.061230846,-0.004916823,-0.058969814,-0.06316996,-0.038826093,-0.044935968,-0.037875924,-0.028470457,-0.039809942,0.026115911,0.012451345,-0.0017758892,0.007587862,0.007821251,-0.015443614,-0.009367439,0.0092475545,0.015621771,0.008070542,0.012858467,0.00484444,0.008119665,0.007953384,0.009046269,0.022070019,0.038785826,0.09230975,0.09014111,0.06198995,-0.01888328,-0.06450256,-0.06791585,-0.054211743,-0.045912195,-0.043290276,-0.039643828,-0.04800467,0.020128755,0.010552008,0.0015932367,0.032200627,0.027346846,0.022721061,0.01878838,0.035855737,0.02833591,0.023840742,0.034578823,-0.00352881,0.024270276,0.006180891,-0.006222038,0.006695561,0.025821093,0.074857146,0.06890841,0.027962944,-0.031278387,-0.08970487,-0.07399025,-0.05631472,-0.07262178,-0.06349086,-0.058073834,-0.057470847,0.021038255,0.009037084,0.021920165,0.03840175,0.05097764,0.0465887,0.03019956,0.026862713,0.013766,0.01888239,0.008649665,0.006598758,0.014875652,0.022650708,0.017758671,0.026021414,0.052042056,0.09322466,0.08977018,0.05241011,-0.023567049,-0.07426036,-0.07961657,-0.084784605,-0.08745115,-0.10556563,-0.08280804,-0.053076662,0.029148014,0.018718416,0.02984401,0.03776238,0.03787132,0.014660246,0.0036122466,-0.005573615,-0.001052947,0.0008526048,0.025131729,0.002395,0.015990194,0.02074424,-0.011365966,0.021366538,0.06391738,0.0939308,0.09607674,0.05039599,-0.018681105,-0.07511202,-0.08898251,-0.08875174,-0.11455252,-0.12803946,-0.07915157,-0.04521289,0.020177478,0.011908056,0.012666919,0.02891889,0.030274872,0.014783299,0.00071659073,0.00321127,0.028467456,0.026094941,0.034004506,0.0315264,0.014265849,0.0031727634,-0.014399837,0.004335178,0.04530542,0.0819543,0.10071666,0.054677337,-0.02622095,-0.088467345,-0.09342109,-0.110983945,-0.123753175,-0.10365741,-0.079043366,-0.038389772,0.0075597903,-0.013670695,-0.0029273035,0.017782355,0.020792305,0.00822341,0.0039696414,0.037135094,0.05143432,0.05500219,0.04742211,0.036793776,0.01332601,0.006586402,-0.009802622,0.0060991845,0.04411967,0.071369305,0.081093125,0.045203667,-0.037026238,-0.12045098,-0.11253107,-0.1126961,-0.102163814,-0.08696095,-0.05462785,-0.030737149,-0.0043649706,-0.00974742,-0.00945142,-0.013454238,-0.021397417,0.0019062606,0.022456946,0.039674364,0.05256921,0.051434387,0.050104782,0.027466452,0.017281463,-0.01189958,-0.009139981,0.032319132,0.07003878,0.100066416,0.0697755,0.040951133,-0.05209757,-0.12004665,-0.10018441,-0.09557036,-0.08029354,-0.06956483,-0.046816323,-0.031097656,-0.006329224,-0.027865821,-0.025883649,-0.030272651,-0.012693992,0.0032800096,0.026945924,0.041321445,0.031553764,0.036515977,0.029000316,-0.009789312,-0.04685133,-0.04381984,-0.0024301212,0.037814133,0.08925674,0.093504086,0.09835605,0.0104995435,-0.09962261,-0.13986742,-0.09584024,-0.0612601,-0.07247703,-0.06019687,-0.03039782,-0.034661636,-0.0016291038,-0.035954267,-0.034994416,-0.02317267,0.00048104717,0.011586165,0.010385967,0.029419668,0.018442707,0.015676176,-0.008658936,-0.052331116,-0.064954996,-0.0370471,-0.0089921225,0.042263553,0.06727566,0.09187152,0.084214434,-0.032094974,-0.124497764,-0.1292091,-0.07872089,-0.052565303,-0.052968767,-0.053182483,-0.03396218,-0.01976583,-0.00074035703,-0.030131647,-0.041286927,-0.018485118,0.010893078,0.012281709,0.016574692,0.03495289,0.021995656,-0.016136434,-0.056347694,-0.04754572,-0.058717545,-0.006226164,0.03357787,0.051023044,0.041235086,0.058514353,0.054068826,-0.05633967,-0.1299096,-0.09185459,-0.048833355,-0.038205095,-0.051337503,-0.036941074,-0.019952364,-0.0045669135,-0.00928376,-0.019182293,-0.020185811,-0.013957715,0.012519281,0.0063497233,0.013647893,0.023460282,-0.02020885,-0.03266927,-0.050392624,-0.049789105,-0.037708636,0.02023756,0.055420358,0.047163684,0.05237413,0.0817483,0.013837618,-0.062171374,-0.11655732,-0.09722994,-0.06437205,-0.037128367,-0.04768213,-0.0329807,-0.014848565,0.008093827,-0.0049761264,-0.02419399,-0.009003215,0.004427124,0.015410424,-0.0030358862,0.0028500792,0.0051990724,-0.032679867,-0.03819508,-0.049341004,-0.03122013,-0.0007809955,0.06999272,0.09722755,0.06214441,0.070993885,0.062874265,-0.0022233834,-0.08565099,-0.09513616,-0.08929579,-0.07082192,-0.04283616,-0.04458407,-0.03296317,-0.010544242,0.0012953551,0.00092284766,-0.011224843,0.006770037,0.025106298,0.03230571,-0.0045966054,-0.021603147,-0.04156591,-0.025149824,-0.042036626,-0.032085538,-0.013322459,0.02095559,0.070482664,0.11582514,0.09498982,0.06655754,0.04137945,-0.0064183776,-0.07220933,-0.0538632,-0.06010544,-0.048626274,-0.03937147,-0.026609628,-0.019060949,-0.009551162,-0.0041577304,-0.010016418,-0.024927085,-0.0055537154,0.012857092,0.025882356,0.019685907,0.0041209045,0.0020066753,0.0024217672,-0.00019815155,-0.0011168857,0.01694051,0.018151173,0.066151574,0.08614744,0.062861376,0.035979915,-0.008900811,-0.04100262,-0.046167485,-0.04764248,-0.031976227,-0.03216494,-0.029883571,-0.034662023,-0.02175649,-0.012730494,-0.0035550552,-0.007266128,-0.03221168,-0.030175745,-0.0025045057,0.00024565725,-0.008002451,-0.0012650064,0.009278909,0.02451742,0.019293895,0.02052214,0.022323744,0.04263894,0.045746356,0.040995248,0.011706091,-0.020315772,-0.030349921,-0.042310204,-0.049135827,-0.06668528,-0.059017412,-0.03084719,-0.020639086,-0.012557768,-0.023249952,-0.013891494,-0.0033582086,-0.009209167,-0.03146008,-0.04938145,-0.049607605,-0.03632946,-0.034775525,-0.0332178,-0.019745702,0.0020715445,0.0009266822,0.017692769,0.022499135,0.037568897,0.056232363,0.025122277,-0.005755366,-0.015728813,-0.0026671162,-0.02579903,-0.07106276,-0.09474055,-0.06294194,-0.038098224,-0.022075111,-0.021739151,-0.01702975,-0.015677484,-0.0015431864,-0.011613572,-0.032275975,-0.044574257,-0.05501753,-0.045994893,-0.031783488,-0.018331103,-0.012675697,0.026604434,0.030361727,0.021144334,0.03300818,0.02933091,0.020996384,-0.0073720585,0.0082795685,0.0020988337,-0.018776488,-0.035528384,-0.06812237,-0.07282317,-0.04402109,-0.015221213,-0.018139109,-0.022093153,-0.020171015,-0.010615198,0.0012693731,-0.015530127,-0.03617588,-0.038452074,-0.033923235,-0.037315696,-0.021150552,0.008305783,0.021098077,0.016421445,0.027334765,0.006895261,0.011374804,-0.0015160333,-0.027978191,-0.016268212,0.011775665,0.026268385,0.020157969,-0.0122373635,-0.03686043,-0.055486776,-0.027172891,-0.025809443,-0.02507825,-0.027026834,-0.016554484,-0.0066848896,0.010944821,-0.0066119498,-0.028666921,-0.031176295,-0.02488562,-0.033515695,0.0058087423,0.017977484,0.03305309,0.043214016,0.027051536,0.00499104,0.0018103617,-0.00786803,0.005147536,-0.0069650454,0.020131271,0.037716694,0.028569018,-0.011314837,-0.041592814,-0.033748273,-0.033092335,-0.03578527,-0.02815399,-0.013554072,-0.009206493,0.0015305581,0.012561548,-0.0069349706,-0.014522549,-0.02358865,-0.022175727,-0.006811829,0.01260089,0.032289453,0.032999553,0.04250219,0.02281241,-0.0077003683,-0.015428606,0.003069413,0.0011951032,-0.0036224881,0.036215533,0.046985764,0.038231913,-0.010550868,-0.010013585,-0.012687837,-0.025853934,-0.025062822,-0.0140521405,-0.0095678205,0.0019137901,0.008827532,0.017382491,0.0062603643,-0.008316284,-0.022427829,-0.024375275,-0.009346273,0.0038110218,0.0073785046,-0.004062766,-0.004808004,-0.007708333,-0.033347387,-0.03761611,-0.010274547,0.0048219785,0.015779909,0.0443072,0.044732668,0.026250562,0.017164227,0.0067853862,-0.0026387156,-0.0092097195,-0.013201566,-0.005492625,0.001855506,0.007961862,0.017540349,0.019425541
-0.041717384,-0.039162103,-0.040308088,-0.040276803,-0.039817184,-0.032187223,-0.029506773,-0.021099031,-0.011214668,0.0074525587,0.016665675,0.03764192,0.04394284,0.030607762,0.017412283,-0.0048644184,-0.005777333,0.0022847233,0.015568415,0.026063362,0.032435797,0.022965351,0.018056922,0.0119127035,-0.005077913,-0.018912042,-0.022866212,-0.034945436,-0.039913498,-0.037193336,-0.037685227,-0.03883685,-0.033462636,-0.02609073,-0.0050066137,0.023976363,0.04040422,0.061926812,0.08440271,0.10108403,0.08720363,0.064558424,0.055898104,0.030748406,0.006600847,-0.0032282423,0.03039447,0.050222415,0.05762184,0.048644412,0.05557177,0.040209483,0.014775402,0.0030757394,-0.0044550747,-0.025674706,-0.038626306,-0.03709648,-0.03559003,-0.02202377,-0.008355822,0.010075005,0.03257215,0.051760368,0.0613973,0.06687451,0.085248634,0.09763213,0.08199499,0.07746103,0.06512662,0.03600199,0.024772441,0.022732958,0.034464438,0.052327245,0.040909708,0.038198695,0.030182902,0.033942547,0.015201278,0.006015446,0.004333667,-0.013427675,-0.037608907,-0.035108235,-0.024159947,-0.0121276425,0.017249832,0.033454012,0.046578165,0.049426693,0.050213225,0.050332423,0.054978337,0.062440574,0.07305081,0.07910886,0.06014685,0.048749,0.044160668,0.039739657,0.034200463,0.018832259,0.006400724,0.013472153,0.003651541,-0.017858963,-0.016875876,-0.0023840843,-0.008998051,-0.014108059,-0.03652635,-0.02934705,-0.016065883,-0.004753438,0.012808411,0.038382135,0.05000332,0.043252848,0.039617036,0.041720226,0.027133757,0.02950952,0.051655542,0.057048865,0.038440973,0.03838472,0.032555208,0.051209703,0.051165212,0.044796217,0.019842496,0.021313936,-0.008641962,-0.016717577,-0.023186801,-0.021129023,-0.019442748,-0.026800936,-0.03535373,-0.031152118,-0.022159347,6.494637e-05,0.009561335,0.016052904,0.035330378,0.03541837,0.028035784,0.006273491,0.03311142,0.0578413,0.07310747,0.06417991,0.061321616,0.055450566,0.06592714,0.07939015,0.09744839,0.072937645,0.041137595,0.022468107,-0.0009267716,-0.017550806,-0.010396783,-0.026694873,-0.035992887,-0.04344577,-0.033938725,-0.044859577,-0.022980249,0.010518919,0.027180355,0.032272823,0.050482333,0.050718907,0.046445042,0.024252817,0.05469933,0.08241803,0.087102234,0.09353081,0.09811006,0.0915585,0.08302061,0.08738788,0.072922505,0.055259027,0.03223454,0.00015146074,-0.023849465,-0.008887358,-0.0016158784,-0.03377342,-0.048457228,-0.057608884,-0.045195445,-0.057009455,-0.026350057,0.014869392,0.03163236,0.025800778,0.053024534,0.049616944,0.05475713,0.042891167,0.046974946,0.08768315,0.0752497,0.07113175,0.05102031,0.03714378,0.04985421,0.070404336,0.034962304,0.014871718,0.0002917559,-0.03436439,-0.026367012,-0.006905333,0.0004793684,-0.03006735,-0.0437086,-0.04202307,-0.06125362,-0.05909479,-0.03818148,-0.010427486,-0.008951802,-0.00849388,0.012270702,0.009749249,0.026119515,0.007783894,0.0073883072,0.0102905715,0.0220791,0.00759272,0.0017514662,0.013917939,0.038185604,0.03528011,0.013935792,-0.008849033,-0.035922784,-0.028510256,-0.040385097,-0.009367051,0.0070332424,-0.023712222,-0.028764198,-0.032469954,-0.06567127,-0.068354726,-0.058537897,-0.0492381,-0.056144487,-0.05366548,-0.043370415,-0.041552085,-0.04032844,-0.03643412,-0.012981149,0.020351915,0.0133604985,0.0053946725,-0.014995967,0.007902083,0.006002952,0.029774336,0.026090575,-0.015413909,-0.027201407,-0.0400352,-0.028648378,0.0077877073,0.011727075,-0.0065188548,-0.023260409,-0.03171732,-0.07154671,-0.08050586,-0.08333169,-0.08805502,-0.0975065,-0.076021284,-0.06861487,-0.050764352,-0.056709703,-0.049376473,0.008540957,0.029410305,0.011553852,0.00088603026,-0.010620467,0.014660994,0.029388264,0.035958916,0.027460113,-0.025576793,-0.026140584,-0.04833556,-0.034261573,-0.002352446,0.00036761997,-0.011246729,-0.034431085,-0.026820313,-0.07513404,-0.08827389,-0.095528044,-0.101849236,-0.09882829,-0.08489884,-0.07363131,-0.055855803,-0.071019836,-0.041092474,-0.008747808,0.022607472,-0.0019681617,-0.0132517945,-0.0470397,-0.014457151,0.013111582,0.00299427,-0.0005793368,-0.037575833,-0.06124715,-0.048902836,-0.0104116965,-0.010924519,-0.026305227,-0.026491908,-0.037418533,-0.042091355,-0.0798575,-0.098944366,-0.09462878,-0.09762649,-0.083148085,-0.06261378,-0.062401175,-0.094545335,-0.06954687,-0.038474683,0.004107834,0.042948447,0.022810156,-0.0035991566,-0.028261943,-0.005812012,-0.01491139,-0.010818208,-0.018113647,-0.0562181,-0.07415708,-0.04354738,-0.017949708,-0.010599839,-0.014741931,-0.022282746,-0.051895346,-0.043162365,-0.08327104,-0.097885355,-0.09074261,-0.081141226,-0.06596863,-0.06414218,-0.03879355,-0.04157508,-0.03845226,-0.014031705,0.009081317,0.033233084,0.015159229,-0.013193441,-0.02838258,-0.033725232,-0.02011554,-0.006755168,-0.006685118,-0.027347589,-0.042480875,-0.021982789,-0.013563163,-0.002288982,0.009134064,-0.020432668,-0.030288473,-0.020074133,-0.07835055,-0.08111107,-0.060740948,-0.04082868,-0.051448178,-0.05517714,-0.05229978,-0.046173044,-0.023840409,-0.0034719298,-0.023087984,0.010393051,0.0034148502,0.00017112715,-0.01352184,-0.008406598,-0.017328598,0.018495938,0.034853827,0.007424431,-0.0056759436,-0.0047163637,0.011272299,0.013425606,-0.008609348,-0.012178241,0.0019615344,0.008466797,-0.067139395,-0.06134609,-0.044848304,-0.039341927,-0.056106817,-0.059655916,-0.07091097,-0.06455663,-0.036079228,-0.02545559,-0.034926437,0.007968423,0.016144563,0.040881082,0.029009664,0.04283102,0.058199763,0.091217056,0.078174494,0.051096693,0.013454438,0.017128978,0.023868253,0.020680493,0.010365696,0.006518372,0.024319192,0.01153103,-0.049397036,-0.038733356,-0.03852415,-0.04107133,-0.05891736,-0.066688225,-0.07913583,-0.077547155,-0.09596405,-0.0803883,-0.024286155,0.0039058202,0.02327347,0.034034755,0.053783454,0.08356406,0.10323553,0.10315624,0.08327348,0.053666383,0.03145933,0.0375589,0.026167125,0.010895733,0.015410001,0.019585093,0.020782482,-0.008115697,-0.040385522,-0.037126414,-0.037006658,-0.0333428,-0.040408235,-0.05963905,-0.07269463,-0.089479595,-0.11108894,-0.09609882,-0.041165013,-0.0041030184,0.013263515,0.028249787,0.058940206,0.118723094,0.1404402,0.120841965,0.10859991,0.07016218,0.05630559,0.04762198,0.040484544,0.008833345,0.0025115258,0.021354573,-0.0032284325,-0.025595548,-0.037896,-0.0268814,-0.02832534,-0.013170706,-0.018776217,-0.03992435,-0.046183344,-0.04958017,-0.06367786,-0.05083589,-0.0052805296,0.01734936,0.02319569,0.04895776,0.06522634,0.11792954,0.12027205,0.1142237,0.112908095,0.084040105,0.05029105,0.04692924,0.024060095,0.0028770422,0.0014815482,0.005497834,-0.002744426,-0.013131913,-0.036961522,-0.028954424,-0.0114912335,-0.0065948763,-0.020379117,-0.028212097,-0.019972133,-0.0074143447,-0.027678812,-0.011973715,0.005446642,0.022966461,0.04844447,0.051568974,0.06853993,0.10520142,0.11317507,0.121741705,0.10893065,0.08762494,0.055532265,0.031048363,0.0072922595,0.0031244315,-0.01429857,-0.01619519,-0.0060291863,-0.008538876,-0.033069402,-0.024615617,-0.0011807276,0.0005343075,-0.017943893,-0.012647633,-0.0020453085,0.009711153,-0.0021598528,0.0050304765,0.021260656,0.046392262,0.071884006,0.083617985,0.08107798,0.084796675,0.08431738,0.09955619,0.08224425,0.07400321,0.06971021,0.041540984,0.031431377,0.0136452075,-0.0020912022,0.006271437,-0.00023919922,-0.013450094,-0.03584966,-0.031075506,-0.0064575053,0.014894918,-0.01246715,-0.010839147,-0.009093958,0.0051858947,0.015874255,0.031904276,0.068006426,0.090737686,0.09959825,0.08395916,0.08675886,0.0875744,0.082266584,0.087801434,0.075999744,0.07408197,0.056992825,0.06527211,0.06271445,0.0502196,0.036775257,0.035943,0.015724616,-0.011265551,-0.044695802,-0.03552973,-0.0063203503,0.0018730317,0.0025444776,0.00334992,-0.0053454014,0.0059343847,0.024319015,0.056887932,0.08531588,0.10405917,0.11846091,0.09243344,0.10650252,0.0773118,0.070529416,0.06487983,0.08828869,0.08202722,0.08816349,0.06511062,0.08660165,0.074016586,0.046692982,0.02797437,0.013357815,-0.013067631,-0.04441531,-0.032416645,-0.025600307,-0.03014475,-0.0040392415,0.005321358,0.0065784454,0.010369495,0.023486994,0.027736949,0.0451171,0.039931457,0.03708901,0.050812326,0.0515657,0.045463875,0.043310754,0.054952152,0.058062732,0.064641565,0.0781601,0.06748646,0.069438875,0.06801277,0.03669324,0.030932192,0.014771838,-0.015848627,-0.043287393,-0.033028793,-0.027503517,-0.043857772,-0.02956494,-0.013720641,-0.005471081,-0.0039149025,-0.009607694,-0.010674328,-0.004069175,-0.0054847198,0.0048288666,-0.022453664,-0.01076466,-0.002459699,0.010438917,0.03116771,0.04288813,0.06296365,0.06456456,0.057700668,0.06915271,0.0807455,0.066709936,0.047587965,0.011150445,-0.024521265,-0.03985134,-0.03508406,-0.033119842,-0.04066553,-0.03728846,-0.034289334,-0.040297624,-0.035149865,-0.052036624,-0.044366788,-0.024675751,-0.03804075,-0.021964636,-0.025446163,-0.01886196,-0.0013314009,0.004041898,0.006757961,0.016330177,0.049164817,0.06992157,0.06645889,0.074215695,0.08332856,0.07392929,0.03757702,-0.01031627,-0.038214635,-0.04085188,-0.03493495,-0.03207,-0.039193865,-0.042365145,-0.048472486,-0.03272396,-0.02482157,-0.025804572,-0.006438007,-5.6563124e-05,0.0030525315,-0.002071023,0.0052202656,0.01826971,0.025454547,0.027198741,0.025031572,0.04830106,0.069817446,0.07840657,0.07484356,0.09121217,0.074355766,0.042702064,-0.0005057262,-0.027695054,-0.043091793,-0.0409698,-0.04179766,-0.03956943,-0.038902197,-0.048973825,-0.05165598,-0.035757013,-0.01351508,0.003314412,0.0029063753,0.014677706,0.023095932,0.026599336,0.018250803,0.031556543,0.03091383,0.053513225,0.055839628,0.07924331,0.08672775,0.0828744,0.07568626,0.048778366,0.028340269,-0.0043243053,-0.022415306,-0.033015292,-0.041750077
0.016275095,0.015488589,0.0110274395,0.005295326,-0.00435402,-0.014118847,-0.014157366,-0.019730367,-0.022445766,-0.024585733,-0.023416702,-0.027796512,-0.03306459,-0.020966193,-0.01689417,-0.020639049,-0.0186279,-0.023975579,-0.030335587,-0.02647141,-0.0279031,-0.023411112,-0.0098688435,0.0012266436,0.00059078855,0.0009583893,0.0072790575,0.015059481,0.016281644,0.013575449,0.009458202,0.0023558438,-0.009996602,-0.018294869,-0.010874735,-0.01203671,-0.018403197,-0.020226652,-0.014735529,-0.025707105,-0.044377588,-0.026288122,-0.026054135,-0.021783588,-0.01639287,-0.041331295,-0.040579014,-0.04401244,-0.029296756,-0.024769919,-0.008963752,0.0003032426,0.007356554,0.003017133,0.0055705872,0.006389977,0.016651386,0.01107957,0.008801989,-0.0019805972,-0.008401568,-0.011209947,-0.0061619296,-0.011798768,-0.012770431,-0.012172974,-0.030607948,-0.04924055,-0.06293742,-0.034829732,-0.010315165,-0.01799566,-0.012888375,-0.038966734,-0.03302066,-0.03930035,-0.033235773,-0.027709045,-0.013679406,0.0028602623,0.011354772,0.01549935,0.008450647,0.0053643803,0.014368369,0.013523839,0.0028306185,-0.00095701753,-0.0035793367,-0.016852738,-0.018873254,-0.028603224,-0.019178107,-0.018158691,-0.030871782,-0.04003139,-0.054121777,-0.05576749,-0.05418691,-0.04513728,-0.03270254,-0.033523966,-0.028430162,-0.015878584,-0.01843799,-0.0047904546,-0.0008613539,-0.004537239,-0.010521229,0.0051627625,0.0040617227,0.0027716607,0.016941627,0.013720759,0.009090313,0.009822298,-0.004075397,-0.027642354,-0.026364295,-0.017877668,-0.018445948,-0.006282738,-0.0029593385,-0.0029882751,0.0039240597,-0.011339384,-0.016050024,0.009311461,0.0083738165,-0.008387617,-0.020868775,-0.029721752,-0.022867477,-0.018251998,-0.007829164,-0.002069148,-0.008921445,0.0017370608,-0.0013615004,0.0037143785,0.017225917,0.012887564,0.016514726,0.0090679405,-0.0094933165,-0.024645746,-0.01775629,-0.011599923,-0.009526892,-0.008741113,-0.020835098,-0.0047582714,-0.012589383,-0.010613769,0.0061901603,0.04052275,0.037132878,0.015785454,-0.00791884,-0.01959955,-0.014776245,0.004189915,0.008863502,0.014035249,0.0034776635,0.012425616,0.028839625,0.01999078,0.013399007,0.00971921,0.012851509,0.0040674186,-0.008598218,-0.0082608005,-0.014184513,-0.01560373,-0.013817815,-0.019542398,-0.025893651,-0.047870763,-0.025721127,0.01926944,0.04356849,0.052791484,0.05170194,0.027383454,0.0058371522,-0.016640678,-0.0026267434,0.018295249,0.00722624,0.034431227,0.05187548,0.058068052,0.05463893,0.024209505,0.015305548,0.012738391,0.011864251,0.007119712,0.0052076112,0.0010346873,-0.0061500277,-0.0140383,-0.02411464,-0.026320755,-0.034669332,-0.034887258,-0.047102008,0.011658134,0.063796386,0.05875755,0.061410956,0.05051113,0.021666104,0.026440876,0.04078517,0.04519405,0.041456595,0.05544522,0.08947961,0.08381521,0.063405305,0.027973406,0.0144105395,0.013172597,0.0070013017,0.0012113889,0.015359917,0.010171939,0.005853346,0.0078076515,-0.0084850155,-0.02182799,-0.004321527,-0.037207276,-0.010972037,0.05047312,0.06711041,0.055130363,0.06643621,0.07469471,0.060224712,0.08236395,0.06956339,0.05510311,0.03687975,0.051839516,0.07471209,0.07725691,0.07157003,0.03748476,0.012957367,0.0137306545,0.004062357,0.0033601683,0.030741496,0.03755642,0.019828044,0.02271107,0.009664396,0.017698819,-0.004601184,-0.03215413,-0.011465355,0.053693444,0.06783206,0.06618353,0.07141314,0.10274151,0.097861335,0.08136667,0.04247305,0.045710962,0.051708154,0.06838926,0.07455638,0.06762647,0.07060257,0.036370352,0.018443283,0.013056121,-0.0034047272,0.004297602,0.031274512,0.03557922,0.03182337,0.023297021,0.038092,0.025000867,-0.011158786,-0.053109244,-0.0098819705,0.030213749,0.05537614,0.057889692,0.08208815,0.0636096,0.04857119,0.025870861,0.021113249,0.052812062,0.07382206,0.08307137,0.07080102,0.065481246,0.056233462,0.02698693,0.011229556,0.0061062374,-0.010110215,-0.0052089514,0.008523216,0.016620545,0.0021313874,-0.0056706783,0.0060295076,-0.0075069754,-0.05002937,-0.034364093,0.025119727,0.031934127,0.03161015,0.04046318,0.035133917,0.038301546,0.009889827,0.007036701,0.020444045,0.046339057,0.06695096,0.057137325,0.033711746,0.045641348,0.019977462,0.0011587616,0.00060269923,-0.015584031,-0.02150862,-0.032467056,-0.04178169,-0.03494956,-0.049324293,-0.034278605,-0.044612013,-0.058254257,-0.048060354,-0.024083521,0.020801201,0.057862975,0.025188342,0.006945928,0.021461247,-0.0073988675,-0.015449918,-0.037383094,-0.0030062536,0.005531283,0.027651941,0.014999804,0.019731918,0.01848909,-0.003323343,-0.018205939,-0.012456093,-0.022368344,-0.034330595,-0.04663433,-0.06326055,-0.05445646,-0.055904116,-0.069248036,-0.087288424,-0.102659956,-0.07407142,-0.022095086,0.030338561,0.08645843,0.030527908,0.03654544,-0.0054728184,-0.020625837,-0.03489015,-0.027154494,-0.0017087882,-0.013392094,0.0009835652,-0.002864122,-0.005473229,-0.008769087,-0.014573055,-0.03380194,-0.015578641,-0.025996458,-0.032147307,-0.04639923,-0.04189119,-0.048297804,-0.045391455,-0.049860675,-0.0840112,-0.085422955,-0.07059051,-0.02141141,0.052556735,0.10571277,0.077052414,0.0893893,0.05657784,0.0031322956,-0.004293421,-0.008102379,0.013267121,-0.008530911,-0.007801621,-0.033884905,-0.037826486,-0.025805742,-0.025330294,-0.041417196,-0.017216636,-0.03754923,-0.042913992,-0.033898983,-0.028406767,-0.026466284,-0.03605824,-0.056133155,-0.06422022,-0.043223936,-0.03661982,-0.0020696241,0.06511332,0.1088171,0.12476735,0.12007627,0.104641594,0.07269004,0.032280207,0.01828598,0.0016968029,-0.00871548,-0.024244467,-0.03793743,-0.04748807,-0.053362027,-0.03995799,-0.05156041,-0.021543663,-0.048196718,-0.061867252,-0.04289528,-0.039828293,-0.03158513,-0.0285499,-0.03516494,-0.021189976,-0.0053747674,0.0012985383,0.0019077681,0.062204458,0.11768895,0.1473747,0.1412137,0.1379334,0.093208686,0.052658673,0.03698135,0.016602054,-0.017442001,-0.016347451,-0.03473879,-0.044672973,-0.04206837,-0.04325254,-0.05041963,-0.027790703,-0.074279,-0.08405026,-0.07581866,-0.08088484,-0.0753765,-0.054264862,-0.037591036,-0.025869237,-0.006973153,-0.032569963,-0.046615116,0.012574621,0.05731242,0.08432444,0.08521344,0.119659595,0.110710956,0.059441242,0.034388177,0.0059307325,0.00073006627,-0.012726271,-0.024072729,-0.02983015,-0.02613282,-0.03974756,-0.045287207,-0.03704621,-0.093459345,-0.10933801,-0.11453204,-0.118452966,-0.108115345,-0.07764016,-0.07136393,-0.05422615,-0.07240196,-0.113688424,-0.13867939,-0.09691864,-0.049219284,-0.01675088,0.0016896803,0.0540912,0.060871914,0.029575536,-0.0059675877,-4.8110483e-05,-0.0005064733,-0.012137675,-0.014112644,-0.016780423,-0.013804583,-0.021462211,-0.028186686,-0.0334461,-0.08504055,-0.11165299,-0.124681346,-0.10847473,-0.089461945,-0.058710035,-0.05164208,-0.051271565,-0.082211845,-0.13872968,-0.15693226,-0.14214909,-0.09993762,-0.08000448,-0.03698261,0.0035572213,0.05650832,0.025815444,0.01297523,0.031023035,0.0002317425,0.010155542,0.007414082,0.004782284,-0.008699706,-0.009791227,-0.016766155,-0.016610825,-0.055126473,-0.076924846,-0.08221374,-0.06339663,-0.038885035,-0.027983343,0.0029076908,-0.021522945,-0.03829749,-0.06524777,-0.105436355,-0.09374594,-0.089881755,-0.079670735,-0.046653286,-0.0054052155,0.011379274,0.019675162,0.02664929,0.027707018,0.020358102,0.026410948,0.026104141,0.007832045,0.013901101,-0.005106375,-0.003140094,0.0005808807,-0.018749645,-0.021040112,-0.0033633246,0.006881625,0.015322538,0.0054459074,0.011167027,0.002086726,-0.023365868,-0.033347677,-0.051975477,-0.047423966,-0.07361853,-0.08380724,-0.028857624,-0.023783803,-0.011605157,-0.0061416044,-0.00064418727,0.0011251654,0.0040405365,0.032364417,0.02462886,0.024222802,0.02865932,0.024610236,0.013955794,0.007714182,0.011989967,0.026104495,0.03424706,0.045335364,0.0398175,0.019719066,0.014850204,0.0029088794,-0.020818034,-0.029077794,-0.024667189,-0.02714781,-0.07707372,-0.05085506,-0.03952397,-0.01909634,-0.03769269,-0.014914379,-0.012655174,-0.013454145,-0.013754145,0.009208351,0.013938626,0.017969033,0.020122733,0.022154948,0.009898145,0.012339634,0.035341658,0.052190978,0.05584352,0.05513259,0.04240306,0.034135357,0.008001838,0.02278199,-0.01571605,-0.0009678499,-0.011090203,-0.0017023698,-0.017546238,-0.018152444,-0.026780387,-0.029668132,-0.037043467,-0.029378869,-0.03124655,-0.038380917,-0.008111064,0.0026935374,0.0045612226,-0.005853137,0.003987661,0.00753685,0.0025835822,0.009513887,0.029901339,0.048149757,0.04743442,0.04267957,0.030408211,0.0052616075,-0.00093005673,-0.01592641,-0.009139103,-0.0006504635,-0.008451562,-0.011710045,-0.027181532,-0.017090498,-0.04228109,-0.05153941,-0.056553375,-0.044203915,-0.044059753,-0.05104562,-0.025976568,-0.020900778,-0.011669193,-0.008220617,0.0029973385,-0.008263018,-0.0041724537,0.008778853,0.016958086,0.024303213,0.047495387,0.05235797,0.016771492,-0.012151424,-0.018492015,-0.0034401393,-0.009651743,-0.00036402748,-0.022357358,-0.017386267,-0.010064638,-0.038322452,-0.052646335,-0.08424401,-0.07779075,-0.06766046,-0.06329139,-0.057223488,-0.047183238,-0.029920306,-0.013309522,-0.0053795874,-0.0033637646,-0.01341816,-0.0032570935,0.007496711,0.009386285,0.012581264,0.025163453,0.035805035,0.013242585,-0.0049343905,-0.022404637,-0.032641932,-0.028736483,-0.01186238,-0.008019232,-0.009781885,-0.0057467967,-0.015834654,-0.02185777,-0.041687746,-0.032389887,-0.028025348,-0.029336588,-0.029534278,-0.02798323,-0.017993301,-0.015527338,-0.019240983,-0.016637074,-0.0146562075,0.002678467,0.01208794,0.001038442,-0.0034339707,0.011900012,0.020239403,0.01534949,0.01691177,0.010573489,0.016280029,0.0027890217,-0.0058548492,-0.001454383,0.017199116,0.028614689,0.024222359,0.021608217,0.0058014477,-0.0030405717,0.0039336495,0.0025696785,-0.0038282273,-0.019776246,-0.019254923,-0.02371271,-0.024607148,-0.010808193,-0.0014385188,0.0074010347
-0.05136404,-0.048686255,-0.043923184,-0.038166378,-0.0370725,-0.035003025,-0.032865074,-0.03529846,-0.031455994,-0.03532126,-0.025099158,-0.026122391,-0.034662254,-0.05088164,-0.053642087,-0.047493927,-0.051746674,-0.048347957,-0.053815637,-0.057853017,-0.059451934,-0.052784007,-0.048843425,-0.049983766,-0.050938107,-0.050153997,-0.051975038,-0.05065887,-0.054586213,-0.050479013,-0.049495414,-0.04099672,-0.03392213,-0.03205728,-0.041315433,-0.044629846,-0.045883916,-0.04356379,-0.044653893,-0.054743852,-0.06285958,-0.06291212,-0.050542984,-0.056422044,-0.0530453,-0.053625252,-0.06875317,-0.069523856,-0.070234284,-0.07163789,-0.06307669,-0.057806417,-0.054034244,-0.06127722,-0.06135809,-0.054274883,-0.048951235,-0.05129167,-0.04659382,-0.037223723,-0.031144997,-0.034283835,-0.03731033,-0.04249943,-0.04112198,-0.0462095,-0.04981611,-0.061131183,-0.0648394,-0.06876411,-0.056670725,-0.060342826,-0.07369865,-0.07952933,-0.09579607,-0.100330114,-0.10312399,-0.09289608,-0.09738447,-0.0909005,-0.07420299,-0.07792241,-0.080164,-0.06643614,-0.05013597,-0.051068913,-0.038862932,-0.032301124,-0.023557538,-0.029665595,-0.036289386,-0.041911487,-0.03564576,-0.03906125,-0.04187429,-0.078326076,-0.086894624,-0.09012961,-0.09577623,-0.09326254,-0.10151475,-0.11134576,-0.13067883,-0.13169067,-0.12662877,-0.12791076,-0.1177647,-0.108444355,-0.08233802,-0.07785885,-0.07986857,-0.05434743,-0.050358545,-0.050446816,-0.034537435,-0.028988786,-0.028958786,-0.038236346,-0.05380907,-0.0517974,-0.045680795,-0.045285583,-0.04699058,-0.07267732,-0.07736906,-0.076896206,-0.07607236,-0.092732534,-0.09059951,-0.09455745,-0.1079511,-0.0891646,-0.0693706,-0.07597175,-0.089248806,-0.0804258,-0.0690517,-0.055702563,-0.030650428,0.0014392175,-0.050986655,-0.043624617,-0.035375375,-0.033703472,-0.03584231,-0.054930598,-0.058038674,-0.057274483,-0.04995022,-0.05010734,-0.049271703,-0.075110085,-0.06196408,-0.03357299,-0.03955411,-0.048175097,-0.023955865,-0.053982615,-0.07221664,-0.048672788,-0.028231928,-0.02644138,-0.012837629,-0.0057531307,0.013429993,0.047252465,0.057737328,0.06601737,-0.05091898,-0.051136736,-0.040201195,-0.036364157,-0.026234323,-0.032182086,-0.0332239,-0.035811037,-0.009952712,-0.014433988,-0.020831523,-0.017498214,-0.010709495,0.0058918167,0.015426598,0.0069154203,0.047246825,0.025049718,0.039086673,0.06357702,0.053004947,0.06549006,0.07445615,0.07353504,0.093608074,0.10604849,0.101441436,0.10524822,-0.048595965,-0.04823441,-0.03441919,-0.039311346,-0.014780035,0.003049815,-0.008163479,-0.003773065,0.019401185,0.009115284,0.023958748,0.02689022,0.06598966,0.09197102,0.07219733,0.09700711,0.116870366,0.12899354,0.12769535,0.1503766,0.14470157,0.09367538,0.108287945,0.111407906,0.10809083,0.10571708,0.10188874,0.1007823,-0.03946832,-0.028790437,-0.021359595,-0.034930874,-0.00042333352,0.011142289,3.6948266e-05,-0.0017893275,-0.0050506582,0.029391322,0.029995007,0.053638246,0.06997464,0.09641956,0.09599463,0.0944054,0.085803255,0.09092431,0.09806751,0.0856566,0.10005458,0.08351431,0.07959738,0.050102867,0.07968549,0.046210654,0.052164223,0.063834995,-0.03585911,-0.010950595,-0.0011464382,0.006864944,0.00882065,0.010459494,-0.0067131254,0.00017876644,0.008487402,0.028065959,0.021322757,0.02748432,0.04157288,0.04367542,0.041540597,0.026622364,0.009262862,0.011646815,0.031586453,0.015462467,0.021242347,0.028796721,0.028377406,0.017452808,0.010331328,0.014711416,0.0010310832,0.036149897,-0.03600801,-0.0065915845,0.019784423,0.023569874,0.029163582,0.027542466,0.006383478,0.008535224,0.000704944,-0.005073812,-0.0033956568,0.025838938,0.002256457,0.008327468,0.010366419,0.018652154,-0.01723392,-0.028788958,-0.02499891,-0.016421376,0.003671377,0.0054783057,0.018313983,0.0027392164,-0.0052260086,-0.017517881,-0.01554514,0.029749157,-0.028493486,0.007868894,0.040293626,0.039917566,0.048098512,0.015700953,0.019728528,0.0046590474,0.014951382,-0.008643029,0.002544881,-0.02278638,-0.037146397,-0.007389511,-0.003340323,-0.02231502,-0.04243119,-0.037560225,-0.021122744,0.00085928495,0.01026501,0.033900257,0.0071637155,0.013280145,0.005483598,-0.027613455,-0.006525447,0.026884627,-0.038665365,0.0028328765,0.046928875,0.03260588,0.029373903,0.042194035,0.031085286,0.023973577,0.009997839,0.0046846354,-0.009792134,-0.035493013,-0.055094566,-0.023792865,-0.0329393,-0.04641405,-0.057256103,-0.035039026,-0.010771893,-0.008712705,0.019924022,0.0044882135,0.007288159,0.021002946,-0.0056911753,-0.009272938,-0.0075848694,0.022771444,-0.03268614,-0.011471052,0.030155394,0.03470715,0.029511578,0.025542667,0.012627728,-5.263631e-05,0.020996971,-0.015955508,-0.0028696007,-0.02381214,-0.06217779,-0.06612348,-0.07946919,-0.04399545,-0.036206026,-0.017244117,0.0031560943,-0.021056732,-0.02097335,-0.02399528,-0.0054599913,-0.0019260154,-0.01241141,-0.01883447,-0.0017321343,0.032473825,-0.038474463,-0.019934332,0.00030351133,0.02258793,0.020226086,0.018996026,0.008660985,0.010419363,0.0045568775,0.015438882,-0.0014934012,-0.0031099035,-0.037916448,-0.04040661,-0.048841413,-0.031272054,-0.006905229,-0.024446314,-0.013197028,-0.029446168,-0.017619753,-0.0410345,-0.027644658,-0.04460377,-0.061534796,-0.065808065,-0.04651602,-0.007035677,-0.050514687,-0.03052594,-0.025765186,-0.016359476,-0.0014696012,0.0014734014,-0.0077419304,-0.0053226873,0.0055323816,0.0059286766,-0.008645695,0.010042182,0.0028433257,0.0019716213,0.0034249772,0.013868988,-0.012215879,-0.015198238,-0.011935395,-0.04685015,-0.04640621,-0.03958891,-0.05778059,-0.07519119,-0.08328132,-0.06540975,-0.054383144,-0.034043673,-0.048551306,-0.05017381,-0.04330724,-0.03677424,-0.021975571,-0.024521876,-0.01255379,-0.00013948033,-0.0076059424,0.031786952,0.019941412,0.01824626,0.028024998,0.030114708,0.036307808,0.012876027,-0.006663857,0.011843545,0.008586507,-0.019307418,-0.04154517,-0.047148384,-0.062095813,-0.08719706,-0.07338716,-0.047915142,-0.05138042,-0.013604093,-0.040080264,-0.055221934,-0.034837347,-0.041038718,-0.056296404,-0.034628455,-0.03623676,-0.032424036,-0.025360286,0.01942907,-0.00843349,0.021076994,0.023786109,0.031821653,0.031464335,0.029520024,0.021058664,0.012127259,0.0017612972,-0.024820836,-0.044035424,-0.041546993,-0.06877403,-0.0850291,-0.077424444,-0.027493887,-0.025774287,-0.008401632,-0.04319682,-0.0326772,-0.0068879197,-0.037393603,-0.026154522,-0.038629524,-0.051825482,-0.023219284,-0.023281973,-0.0138943475,-0.021726346,0.009441027,0.0045025055,-0.005296015,0.007318878,0.03582911,-0.0010742105,0.0021551703,-0.012461395,-0.019709868,-0.048522312,-0.041175313,-0.037163604,-0.033551153,-0.0036611164,0.0016443873,-0.008765853,-0.017952807,-0.034703948,-0.023610074,-0.004917989,-0.009173915,-0.016014135,-0.012216016,-0.0089434115,-0.017926075,-0.01721095,-0.01956644,-0.028461784,-0.006194765,-0.015086555,-0.012179793,-0.010557644,0.017825533,0.0003938371,-0.0085879825,-0.02247274,-0.016401727,-0.025022538,-0.008027711,-0.008113904,0.0179047,0.014319497,0.0109486375,0.012568349,-0.009881652,-0.023605663,-0.009044118,0.00020765228,-0.006569255,-0.013855088,-0.04349673,-0.005888319,-0.010689973,-0.036645867,-0.023477316,-0.034563206,-0.04478569,-0.023723,-0.030212842,-0.02991946,-0.024334969,-0.04314422,-0.02572681,-0.047474194,-0.03287975,-0.014723099,0.017404854,0.032593407,0.043223858,0.037976258,0.05770889,0.04649363,0.0134369945,-0.010314515,0.009370808,0.024360584,0.007248723,0.013010511,0.010743579,0.0109768715,0.0047982815,-0.013273596,-0.018285101,-0.053791605,-0.030719403,-0.0742446,-0.06566548,-0.05362538,-0.06520993,-0.06412671,-0.053708285,-0.042688597,-0.040954765,-0.0059586787,0.010923852,0.04494281,0.057787865,0.04469375,0.08596697,0.056564186,0.010359341,0.0043390035,0.014691517,0.026800971,0.026326265,0.02243189,0.00022154345,0.016361307,-0.0038622227,-0.016081454,-0.012025644,-0.026093936,-0.054758124,-0.050736334,-0.034021668,-0.048240904,-0.06651422,-0.02592889,-0.004041638,0.009966403,0.03134128,0.0626957,0.06526595,0.07948427,0.09723924,0.092203826,0.09927988,0.06690334,0.006719245,0.0093239,0.024551664,0.015615108,0.029020352,0.031804956,0.016399793,0.008035059,-0.0047974386,0.014024837,0.028999235,0.0071764453,0.009389042,-0.0054876045,-0.002259495,0.014475172,0.013191701,0.06331735,0.088984266,0.09567016,0.108413555,0.12577423,0.11667298,0.10530921,0.12076208,0.116239235,0.10403078,0.06876031,0.0073010116,0.013502549,0.03732767,0.025894858,0.022179587,0.034531247,0.030535012,0.034989785,0.058165204,0.051290385,0.050618418,0.057661064,0.07626836,0.08134563,0.11434243,0.10876186,0.13241608,0.14898297,0.15815185,0.13668986,0.14014336,0.12875082,0.12195248,0.098263115,0.09221802,0.10099198,0.096549354,0.05864898,-0.0100127375,0.0068558855,0.030986179,0.04542343,0.05479856,0.081180036,0.069971055,0.08076871,0.103188135,0.11754636,0.1436486,0.15707126,0.15546675,0.15444477,0.15386422,0.15478842,0.14348708,0.14405891,0.113302715,0.10215166,0.11291347,0.12948416,0.1095949,0.09784367,0.08854905,0.08607408,0.06381844,0.024899404,-0.029819382,-0.0020129345,0.028012296,0.05314911,0.069548614,0.091052815,0.11182027,0.09664055,0.10711735,0.11768541,0.12838458,0.12957229,0.11873053,0.11185807,0.12847577,0.12821674,0.10976095,0.112592846,0.095932886,0.092770964,0.08191649,0.11798633,0.10869492,0.10497528,0.09138468,0.076557264,0.034081914,-0.000121341895,-0.036639355,-0.020547055,0.013375887,0.05884513,0.075984634,0.091487885,0.11762934,0.13089558,0.139413,0.13118096,0.12243806,0.13400638,0.11131183,0.117826104,0.12696959,0.112906404,0.10955727,0.11007338,0.09763452,0.08284839,0.098050445,0.0908155,0.08641487,0.06278501,0.05658331,0.027640041,0.0031222259,-0.021808943,-0.043002624
-0.06835234,-0.067297265,-0.061373264,-0.047391005,-0.024228597,-0.0080332635,0.015557906,0.039103813,0.043576136,0.041062705,0.042689342,0.05268149,0.071836926,0.08137362,0.07501749,0.06518255,0.05118162,0.029991413,0.013309832,-0.012773849,-0.04353047,-0.06278466,-0.07342496,-0.07240883,-0.066616796,-0.06565846,-0.06686416,-0.06940736,-0.06775231,-0.067262195,-0.056417476,-0.030183323,-0.0059321285,0.016483167,0.040585015,0.041546132,0.038173754,0.023740351,0.03538526,0.045216564,0.06440724,0.070046164,0.08541832,0.070441134,0.06234088,0.025386462,-0.010558368,-0.033681244,-0.06194405,-0.08437382,-0.09046328,-0.085907266,-0.07631764,-0.06606758,-0.065516874,-0.06702842,-0.06781255,-0.065829016,-0.047755037,-0.021198152,0.003268191,0.0332574,0.033229627,0.018742578,0.015236968,0.013825743,0.0155487275,0.024463793,0.041519836,0.029863397,0.030712066,0.03695796,0.03765324,0.014896399,-0.027500985,-0.06375574,-0.06750404,-0.080569685,-0.0976085,-0.091630176,-0.079507,-0.06464703,-0.0639345,-0.06510282,-0.0709847,-0.06335261,-0.044723988,-0.0134813,0.0050820895,0.020942919,0.01912058,0.0103942435,0.012926544,-0.006765009,-0.008688932,-0.015853133,-0.008166833,-0.038542684,-0.051497772,-0.057688333,-0.04978756,-0.045817215,-0.06642896,-0.076084435,-0.07219804,-0.08043991,-0.085657954,-0.09209727,-0.08681897,-0.071611546,-0.062444698,-0.061961204,-0.06903811,-0.05736009,-0.025049714,0.017146558,0.04006123,0.049223315,0.042895313,0.032387584,0.025126234,-0.0061733234,-0.027428575,-0.036557693,-0.03900333,-0.07472114,-0.08511682,-0.08869889,-0.07732966,-0.09832323,-0.09435631,-0.0644364,-0.06113532,-0.04625301,-0.052252922,-0.076864846,-0.07673656,-0.05963936,-0.054123577,-0.0545566,-0.067024656,-0.04217835,0.0020964697,0.046901014,0.051203236,0.054383446,0.03884157,0.04323682,0.03697813,-0.011116872,-0.04319561,-0.051015068,-0.041624937,-0.061703913,-0.07870416,-0.066509746,-0.04984719,-0.040562924,-0.03567629,-0.02069167,0.0037791503,0.01903853,-0.0035497474,-0.039656874,-0.035794705,-0.03950668,-0.04375348,-0.04339844,-0.06139836,-0.02061888,0.023234056,0.054694593,0.051023137,0.049894236,0.048039407,0.041755404,0.036772706,0.02279663,-0.006523933,-0.012564846,-0.0622877,-0.07766285,-0.06384267,-0.033581857,-0.048239082,-0.016092189,-0.019987328,-0.000164024,0.03661039,0.054069933,0.0049247243,0.0033304365,0.001232552,-0.020147838,-0.023853159,-0.0304362,-0.050593324,-0.012093591,0.038257316,0.04297222,0.026367923,0.026889758,0.05231524,0.046580322,0.033769123,0.047815986,0.012509859,-0.038316738,-0.09724384,-0.10452759,-0.0705088,-0.02781297,-0.03180743,0.0055446713,0.020149564,0.047435686,0.05488958,0.054722156,0.023313291,0.011562971,0.023544079,0.0037724439,-0.010452189,-0.021589013,-0.037933983,0.0101995,0.049588524,0.05189419,0.05130146,0.041896306,0.060270924,0.0536654,0.05224772,0.050587967,0.022415474,-0.026318964,-0.10338723,-0.12965558,-0.08707339,-0.037787005,-0.0125555415,-0.0036614905,0.0199608,0.05239194,0.040219083,0.06766233,0.03516501,0.0027025167,0.023601757,0.013429109,-0.012146684,-0.022562299,-0.025072316,0.04089807,0.066706456,0.085450925,0.0776685,0.08834217,0.083573945,0.05650279,0.04821368,0.061799515,0.060597353,-0.036444142,-0.14865118,-0.16628891,-0.087340854,-0.046004944,-0.019406836,0.018335685,0.035924528,0.067089014,0.0719966,0.07515512,0.06160176,0.036926266,0.016718183,0.015024521,-0.0135973785,-0.024013447,-0.027009957,0.04717,0.07827956,0.084296845,0.07632479,0.08757423,0.07029053,0.043420624,0.063832596,0.060675144,0.070317976,-0.03341252,-0.15273933,-0.18473862,-0.10363089,-0.05785779,-0.010059183,0.0029986657,0.02988117,0.06274959,0.08421862,0.0740511,0.061992727,0.03450545,0.015045428,0.009345154,-0.0029930137,0.010654319,-0.020223625,0.037101693,0.07231656,0.054588005,0.043311916,0.044066835,0.03299897,0.033354104,0.057953976,0.0688119,0.07495704,-0.015002391,-0.1244482,-0.18125287,-0.13346462,-0.070977114,-0.0114665115,0.008020464,0.0439379,0.05448106,0.06386874,0.042339854,0.06001625,0.025687173,0.017168695,0.040394872,0.038569544,0.025700226,-0.020724792,0.025139634,0.031455565,0.033842705,0.020397041,0.031161962,0.04842593,0.055253204,0.082552776,0.09330631,0.113575794,0.05279755,-0.055261347,-0.15448417,-0.15946686,-0.1125983,-0.093666375,-0.041452456,0.009402466,0.030564168,0.047628134,0.028419394,0.016919075,0.013116407,0.043258496,0.051433608,0.029634105,0.028425366,-0.020782176,0.014628853,-0.0041376394,0.0014132337,0.010795634,0.031841245,0.07663206,0.07903666,0.09041217,0.11004837,0.12613133,0.107307866,0.015632788,-0.07424732,-0.13330764,-0.13705099,-0.107895054,-0.074896865,-0.04512849,-0.014993212,0.02890397,0.020601103,0.0034481792,0.043675236,0.06345653,0.047883824,0.034331586,0.0292552,-0.02049352,0.010420912,0.0010254899,-0.012687091,-0.00051337783,0.03803793,0.052277215,0.066398986,0.084035054,0.114796914,0.116441816,0.11446569,0.066328235,-0.00042863414,-0.058627795,-0.08112124,-0.084295765,-0.073391706,-0.053603746,-0.03406507,-0.0056244903,-0.008001139,0.018127229,0.061763994,0.047144197,0.0501708,0.032977145,0.0074698552,-0.027749201,0.0024971098,0.019467596,-0.008684859,0.011576828,0.023063658,0.018306205,0.037383553,0.058835898,0.08978141,0.11157964,0.12502415,0.07878069,0.023051506,0.0014155137,-0.04327649,-0.04023533,-0.038219064,-0.036094654,-0.034265935,-0.037223604,-0.023692923,0.015997866,0.03291574,0.016567735,0.021293897,0.0030490635,-0.025053065,-0.03684972,-0.0040025744,0.029135253,0.028276572,0.028270321,0.02745383,0.031518225,0.0301286,0.052724063,0.046038236,0.07196885,0.060945854,0.046454757,0.032827437,0.024864355,-0.017963583,-0.041884974,-0.02041555,-0.0021371958,-0.027105633,-0.038150743,-0.019133482,-0.0146297,0.006387142,-0.020986779,-0.027386962,-0.03331008,-0.03869696,-0.039818324,-0.023064444,-0.001138089,0.03236691,0.02968999,0.027932841,0.019825608,0.033496875,0.036809728,0.051538568,0.043730717,0.041288454,0.018120866,-0.012923036,-0.017112637,-0.034989923,-0.050643027,-0.011207092,-0.004281872,-0.011749459,-0.012860609,-0.014890735,-0.033847336,-0.05810079,-0.07541436,-0.059548486,-0.06818546,-0.06443706,-0.045297906,-0.025641363,-0.0013279933,0.024313748,0.031791214,0.04811919,0.0356916,0.057406165,0.071716666,0.056458704,0.046249293,0.05197431,0.016353035,-0.015014037,-0.029738948,-0.041792203,-0.052412897,-0.008137057,0.004062353,-0.022629326,-0.016793044,-0.019198216,-0.042921104,-0.109105445,-0.099975616,-0.09299797,-0.08550399,-0.066629186,-0.04843961,-0.026262257,-0.010153765,0.015073913,0.041893892,0.034718975,0.033835746,0.06424435,0.08261498,0.090021946,0.07737977,0.06791338,0.040499374,0.015176603,-0.019247068,-0.047227822,-0.044786315,-0.034610372,-0.034853194,-0.04594904,-0.031229554,-0.052110303,-0.08914764,-0.10834961,-0.10988704,-0.09755031,-0.085619114,-0.05940859,-0.0542172,-0.022814814,-0.021456389,-0.01526327,0.0031268657,-0.0018993239,0.0007261534,0.028671656,0.041578747,0.07783624,0.06276086,0.07863637,0.0887863,0.05493047,0.0056332396,-0.033093356,-0.04509489,-0.040930804,-0.04557695,-0.05004025,-0.048770092,-0.06913985,-0.0902211,-0.0904749,-0.07572039,-0.07526371,-0.06687771,-0.055653475,-0.0580534,-0.03171192,-0.025731025,-0.027958238,-0.021847105,-0.0037759112,-0.008876895,-0.0005552303,0.023928212,0.037130326,0.031181261,0.066532955,0.09123239,0.07257668,0.040800344,-0.0075488337,-0.023159036,-0.035286486,-0.048881017,-0.065902844,-0.081782535,-0.06760324,-0.08045668,-0.051833488,-0.046730805,-0.04730847,-0.056933712,-0.05678529,-0.056708917,-0.03138036,-0.009241208,-0.0058657625,0.00093011616,0.0045207627,0.032807462,0.011307977,0.006664237,0.009583077,0.038132418,0.04504325,0.058954053,0.045837402,0.049691718,0.0124292085,-0.0040888526,-0.042157337,-0.032494586,-0.06637026,-0.059897386,-0.039763324,-0.02222627,-0.034581445,-0.031584315,-0.03672928,-0.047369506,-0.054945637,-0.046896636,-0.026349435,-0.0012755115,0.009749058,0.019916378,0.026478019,0.022398282,-0.008161458,0.008210999,0.0130064795,0.028929105,0.043834914,0.03743032,0.078796886,0.08198949,0.0666711,0.025724158,-0.002572953,-0.0018224637,-0.010325884,-0.015689395,-0.00055934495,-0.013717318,-0.033959042,-0.025638422,-0.025457932,-0.03448298,-0.046260804,-0.03775021,-0.017538156,0.0006296631,0.04015592,0.038778435,0.03870279,0.03631551,0.015432684,0.017952058,0.011795731,0.034764744,0.03985895,0.04394835,0.06554977,0.07595114,0.06825056,0.06574997,0.054786287,0.049165267,0.027728474,0.029885475,0.027622925,0.0025223568,0.0038750016,-0.0039012602,-0.01620991,-0.025408916,-0.047117047,-0.0374386,-0.013550159,0.007988159,0.04871278,0.07239121,0.043488763,0.040626448,0.030859886,0.030993411,0.0360537,0.032984786,0.02668867,0.034671508,0.0660996,0.058041885,0.080380864,0.09404017,0.07257279,0.07375527,0.055805612,0.073111534,0.04054162,0.035837382,0.011777038,-0.0048521715,-0.008735066,-0.034981515,-0.05464756,-0.044288788,-0.027932802,-4.364866e-05,0.026701946,0.03852306,0.046542984,0.059912372,0.049605377,0.057221074,0.05605505,0.06259604,0.039826162,0.008120003,0.03020444,0.06380383,0.053676322,0.08515799,0.090453655,0.09010999,0.09836044,0.09300266,0.06795527,0.03986815,0.0070949667,-0.010345711,-0.0265108,-0.046690278,-0.06308317,-0.05550109,-0.043506697,-0.021004336,0.0030591688,0.018193765,0.042605523,0.06691734,0.06183461,0.085173614,0.073187925,0.07102324,0.044749577,0.05247607,0.05018907,0.07859541,0.07808228,0.10518718,0.115729354,0.11478338,0.11479723,0.08053789,0.032875184,0.009486417,-0.015733944,-0.043950785,-0.055087253,-0.061213546,-0.066304855
0.04017687,0.035758115,0.03812377,0.03130706,0.028422615,0.028516531,0.017799271,0.021270406,0.032834902,0.04103379,0.041539878,0.037972346,0.033315502,0.023074705,0.030652042,0.03193746,0.025034443,0.01406801,0.013566399,0.006575075,-0.009339571,-0.0049215914,-0.007499019,-0.01714275,-0.013522873,0.0019094438,0.01318334,0.023701007,0.034804735,0.034788776,0.022206051,0.01345563,0.006724458,0.002188297,-0.00013811603,0.01198286,0.040938098,0.05838872,0.055827744,0.05628366,0.052351244,0.050469764,0.03402753,0.03160233,0.029313825,0.03887999,0.038211122,0.01173116,-0.0015144233,-0.012936285,-0.022743132,-0.028393166,-0.018364094,-0.019568946,-0.012442625,0.0077555026,0.039584704,0.031584665,0.020447386,0.011884669,-0.0017200661,-0.007841515,-0.013610696,0.015653087,0.02944113,0.022988126,0.029666308,0.019569341,-0.01076976,-0.0035178147,0.0015509758,-0.024049183,-0.019531144,-0.023890931,-0.008484347,-0.016099636,-0.01521487,0.0010848508,-0.010761672,-0.01016999,-0.0013209225,-0.0039145136,-0.020634882,-0.007303226,0.038661472,0.027983677,0.017821897,0.0047042505,-0.0018863967,-0.0102138845,-0.026079012,-0.030409677,-0.035870697,-0.030923797,-0.03838462,-0.033281058,-0.030306825,-0.03777036,-0.03359971,-0.04154241,-0.012569409,0.006370201,0.0061659156,-0.010376168,-0.011424808,0.012990175,0.00011687788,0.0037911572,-0.004973443,0.0051475563,0.004597422,-0.005793221,0.033879478,0.021107653,0.008674532,-0.019415008,-0.033743475,-0.045675896,-0.061578434,-0.071319684,-0.06895263,-0.054551296,-0.054289326,-0.04618473,-0.016446225,0.008192385,0.02003937,-0.005854803,0.0066963616,0.017529486,0.013951293,0.005630543,-0.0038170845,0.012250389,0.009847687,-0.02215252,-0.001476479,0.0210711,0.017654588,-0.0037229294,0.025155284,0.018547336,-0.006025226,-0.033763926,-0.049813617,-0.06866342,-0.07304263,-0.074438915,-0.0688246,-0.044024844,-0.0025487242,-0.0043187416,-0.012990985,0.012717913,0.0029916074,-0.0011802608,-0.016094217,-0.0038665885,0.009514977,0.025452293,0.015575143,0.002669781,0.011526413,-0.012782902,-0.004564546,-0.010499335,-0.0029664112,-0.019099263,0.031673487,0.01424977,0.0015615681,-0.023553243,-0.034975074,-0.033406965,-0.018790893,-0.03043039,-0.020016981,2.8251594e-05,0.0043309256,-0.0022303995,0.011307591,0.0027828128,0.0031972758,0.0008687221,0.011819438,-0.0010412675,-0.006423007,-0.014996331,-0.027646085,-0.01711654,0.0076308483,0.015856327,0.00046096006,-0.005726312,-0.011209699,-0.013594131,0.034510177,0.019957487,0.022718647,0.03410881,0.061483447,0.079173535,0.07251601,0.05428657,0.07080441,0.068561934,0.06419848,0.057087347,0.06389077,0.04146552,0.05197694,0.03807966,0.031029692,0.010144208,0.026948137,0.012688027,0.0016408286,-0.0005652998,0.02244644,0.017530644,-0.0023814407,0.016779505,0.008438263,-0.02187091,0.03278421,0.027076969,0.059864584,0.09075664,0.1314985,0.16030791,0.1670297,0.15976551,0.12259776,0.10817193,0.10381421,0.08822619,0.058358394,0.038631536,0.03703603,0.032131102,0.009982678,0.027552072,0.028038327,0.025917554,0.020164628,0.0045915623,-0.0014143189,0.021621339,-0.0072156386,-0.006163258,-0.03148449,-0.060718227,0.033232268,0.033035237,0.07728076,0.114694014,0.14617103,0.1502455,0.14115924,0.13405535,0.12966837,0.09635431,0.07629846,0.04598017,0.0096700955,-0.018671066,-0.038341947,-0.026981192,-0.03523465,-0.056826957,-0.043515183,-0.052615423,-0.022585355,-0.03520128,-0.030374166,-0.031626966,-0.039760597,-0.016225336,-0.04947333,-0.040604576,0.022427026,0.004939324,0.02538927,0.06864106,0.068371035,0.07679491,0.07054933,0.037921015,0.010544553,-0.0070320177,-0.05056719,-0.07678306,-0.09365294,-0.0974533,-0.080475606,-0.06987501,-0.086736314,-0.08032587,-0.066876516,-0.058433715,-0.032997966,-0.056014817,-0.033603534,-0.03540724,-0.057012953,-0.033329286,-0.035806518,0.0028680684,-0.007740679,-0.037084695,-0.052461978,-0.05333904,-0.058591694,-0.054951172,-0.09857767,-0.117251985,-0.14935519,-0.20131698,-0.22452284,-0.18124755,-0.14423288,-0.113651745,-0.07579067,-0.08518994,-0.04751626,-0.024392784,-0.01629029,-0.015943887,-0.02190337,-0.024567807,0.0007859636,0.0063529545,-0.023383558,-0.005977762,-0.0003729443,0.0122471275,-0.0330675,-0.11188047,-0.14795296,-0.19035493,-0.23621142,-0.2771865,-0.37862667,-0.3960212,-0.36214808,-0.3063141,-0.19012038,-0.12784657,-0.06845,-0.045251478,-0.007977838,-0.016313327,-0.008105539,0.023402438,0.013324263,0.022344438,0.022904953,0.025799358,0.0017213525,0.01692196,-0.01439752,-0.006973555,0.011733201,0.030154133,-0.04922742,-0.12948291,-0.17458828,-0.24118638,-0.33171383,-0.36281165,-0.34290642,-0.25905478,-0.13742101,-0.06135132,-0.02323851,-0.010040496,-0.01321417,0.004480788,0.019990493,0.013794836,0.02896391,0.026711503,0.019940548,0.030731246,0.014250182,0.004577879,0.007813445,0.016664095,0.009552005,0.011752002,0.00053616276,0.019247504,-0.04011372,-0.11088751,-0.11953862,-0.14710508,-0.16102873,-0.094307564,0.0011125366,0.034154244,0.02939877,0.029084025,0.03568906,0.03423718,0.051134236,0.06092274,0.044901844,0.028400334,0.04121362,0.04774811,0.021152107,0.0202415,0.008997862,0.0038423412,0.020787545,0.02122509,0.016895927,0.01891883,0.0077885427,0.016418843,-0.01102534,-0.061243497,-0.041875787,-0.03271445,0.01873298,0.07965854,0.11905293,0.09516213,0.07294286,0.07307682,0.068330154,0.05974675,0.061072126,0.045957305,0.041491427,0.037433702,0.024444977,0.017611109,0.015885022,0.012163059,0.0048847524,-0.002197129,0.013110155,-0.0037638647,-0.0007354727,0.0015317143,0.0077028647,0.011028263,0.015872149,-0.00636291,0.019933436,0.052147277,0.113660984,0.10669926,0.07898157,0.043181617,0.049132477,0.056802697,0.04157423,0.033540543,0.026203584,0.038310073,0.0085667875,0.013030254,0.009378047,-0.0008725219,0.010432102,0.00779345,0.00432356,0.0012839528,-0.0028871559,0.00026604199,0.012163454,0.002823326,0.008530142,0.017720945,0.03865657,0.02603933,0.053779095,0.053436376,0.072169565,0.07687141,0.046545975,0.03957495,0.03923338,0.023608672,0.0150597375,0.025081975,0.014703468,0.017194245,0.0016641131,0.014807827,0.012297322,0.0118754525,0.008476911,0.0087342085,-0.02470928,-0.011387181,-0.0087184245,0.004867588,0.003433806,0.009420388,0.017786888,0.02388341,0.037405103,0.039364852,0.037894364,0.023053542,0.011263931,0.0269123,0.026355054,0.021566775,0.026801934,-0.00011703766,0.01230219,-0.0020810075,0.012567312,-0.0097901635,-0.008760007,-0.013234643,-0.019518526,-0.014399199,-0.02551203,-0.0058998577,-0.0068775397,-0.0029022112,0.00021284325,-0.0015163866,0.0005897305,0.014099598,0.009853862,0.0042357654,0.04530577,0.04567047,0.03787765,0.01617025,0.009067461,0.010439104,-0.008849788,0.0024802687,0.012143894,0.0036671504,0.012688429,-0.0074813557,-0.015278206,-0.020687193,-0.025070565,-0.006797824,-0.011063616,-0.005640962,-0.0041272817,-0.0035303575,0.004483658,0.0062427805,-0.009015107,-0.01647322,-0.008630049,-0.013590618,-0.011445298,0.0048813922,0.052778576,0.032314736,0.022703042,0.0007402532,-0.0082000755,-0.018235948,-0.007358999,-0.0068000737,0.027998015,-0.014372235,-0.011679021,0.013470105,-0.004673199,-0.0075189588,-0.002365697,-0.02073015,-0.014030537,-0.017107284,-0.0065437593,0.003062696,-0.00059522776,0.0009771358,-0.00012432603,-0.002100218,0.010339173,0.0035133795,-0.0062277457,0.015193871,0.0390011,0.01201127,-0.014553297,-0.01953739,-0.03290994,-0.031143486,-0.015404754,-0.0014955186,-0.0077712745,0.0020144235,0.0045976304,0.012273877,0.007896239,-0.013495688,0.0030921462,0.011996985,0.004026807,0.006029718,0.008211104,0.012284487,0.012943323,0.009606863,-0.010226638,-0.007949031,0.007000726,-0.016309256,-0.007412567,0.01727334,0.02692956,0.0070936163,-0.011276051,-0.019630976,-0.014234623,0.009057766,-0.002159882,0.004168507,0.00046999202,0.0005215108,-0.01688273,-0.01591557,0.0034449196,-0.0092010535,-0.019108038,0.0017875191,0.00073212525,-0.0028785225,-0.022078754,-0.022316426,-0.0043970128,0.020082021,-0.0034142437,-0.009475765,-0.02038696,-0.033248715,-0.017216107,0.011535808,0.028648403,0.004646404,-0.0019213763,-0.0016330295,0.0038610566,0.008679667,-0.011498538,-0.014718093,-0.042053197,-0.017438792,-0.02082714,-0.017704906,-0.012694262,-0.0054551815,-0.009813599,-0.0088618845,-0.004047802,-0.01945437,-0.015494741,0.0011233932,-0.011765783,-0.015167032,-0.023443835,-0.018038044,-0.023261746,-0.026308818,-0.0042052274,0.019495655,0.029520012,0.00559828,0.002243914,0.0061180214,0.0009361749,0.014585781,0.0067263236,-0.0009897696,-0.019293495,-0.001958901,-0.0016184323,0.004591952,-0.008066944,-0.007246994,-0.001249865,-0.0032023524,-0.00471952,-0.002037857,-0.011106216,0.007547647,-0.020448517,-0.028870067,-0.03128631,-0.025794402,-0.009123916,-0.007141658,0.004046227,0.024135826,0.032836884,0.009270687,-0.00362624,0.0024131632,0.014753607,0.016733404,0.03696649,0.025616165,0.009368336,0.0037465948,0.02591304,0.03974566,0.015382771,0.023182519,0.020596359,0.023978934,-0.008035354,0.009677951,-0.0051221186,0.007144089,-0.025810232,-0.025907345,-0.021718241,-0.012168378,-0.0030320045,0.0045439745,0.020249218,0.02657392,0.039295606,0.024265269,0.011688386,0.008136621,0.018460792,0.023319047,0.033009678,0.036991894,0.036248844,0.023270853,0.031716764,0.016770428,-0.009460406,0.00015214641,-0.0034755168,0.016326256,0.00872254,0.014047526,0.009781052,0.016560417,-0.007254018,-0.004011569,0.0074057914,0.007167519,0.005607021,0.012634287,0.020820526,0.037662517,0.042824052,0.034838613,0.026004298,0.02706123,0.032444205,0.041423824,0.051601905,0.04661796,0.042358514,0.024152199,0.022451865,0.020788893,0.008851533,-0.008125134,0.014795386,0.02123029,0.017434608,0.05255831,0.053895373,0.054168075,0.038007736,0.037920002,0.04213842,0.031545673,0.030026484,0.02867485,0.030246653,0.03445638
0.076207645,0.07071486,0.066965714,0.06395536,0.057679757,0.047159977,0.03341885,0.03183076,0.018418033,0.007823568,-0.00042321283,-0.021967737,-0.022913108,-0.020975767,-0.012984928,-0.0078061153,-0.009044309,0.00015814115,0.021656714,0.025090575,0.034552056,0.04245257,0.03981444,0.04928703,0.061738912,0.059133444,0.05618027,0.06323978,0.06932284,0.059493437,0.04602723,0.036152236,0.023916746,0.003596048,-0.014203184,-0.016013842,-0.020501584,-0.013441015,-0.024988672,-0.031679813,-0.021283014,-0.021530034,-0.018500675,0.012950067,0.025528142,0.047497056,0.04571877,0.052516986,0.035807922,0.0397077,0.048815917,0.064648084,0.06939612,0.05354653,0.049211137,0.064669244,0.06358087,0.045966398,0.029335292,0.015439178,-0.0078953635,-0.02447219,-0.027533382,-0.008927343,-0.027559467,-0.0057788864,0.01627874,0.008927462,-0.014428113,-0.012383859,-0.0037814938,0.01428929,0.031690516,0.036340535,0.009778416,0.013429475,0.03404734,0.027740667,0.027466387,0.038450316,0.053385865,0.0565701,0.058503024,0.0723972,0.052141488,0.022564365,0.008120008,-0.0056176917,-0.018706717,-0.02737437,-0.011353447,-0.0046381666,-0.015439525,0.0058215926,0.011380848,0.030865602,0.017414292,0.033768874,0.040486988,0.053490795,0.055499274,0.04587486,0.021502843,0.028221687,0.017328065,0.0045138486,0.0032062563,0.008405001,0.028314216,0.02397468,0.045803275,0.06517201,0.04520364,0.018927718,0.010481702,-0.012000926,-0.02571051,-0.009501043,0.0007829001,0.013160483,0.0063954084,0.017693996,0.007267602,0.013152274,0.021898305,0.02313024,0.018759064,0.013706711,0.014122654,0.010440556,0.012810187,-0.009100563,0.019237766,0.005039419,-0.0036013606,-0.008994551,-0.0041160355,0.0036695495,0.020334989,0.05688159,0.04427839,0.026233599,0.006471335,-0.011878657,-0.02534258,-0.015538574,-0.016815279,0.0026701586,0.009380708,-0.010268081,-0.01095424,-0.0043781437,0.0123965815,0.003497121,0.0047865054,-0.0009850771,-0.009256804,0.0004550224,-0.0036608921,-0.0072565093,0.02396646,0.0005239438,-0.006310616,-0.011176534,-0.021810314,-0.016114512,-0.010099748,0.03030054,0.05063715,0.019900197,-0.005453429,-0.03264572,-0.04094941,-0.04505675,-0.039803773,-0.03467707,0.0019158144,-0.001815099,0.00082219945,0.009021067,-0.0047400445,-0.00010294476,0.010906015,0.009559196,0.0025379972,0.023201426,0.003923832,0.0009488031,0.032614212,0.008626946,0.015056649,0.0041469913,-0.0021617566,-0.0127726095,-0.012733867,0.027456272,0.04580216,0.0059165778,-0.0104097035,-0.03705566,-0.03636015,-0.03425051,-0.026554927,-0.023065431,0.0009814346,0.012912811,0.025918424,0.023680301,0.034580536,0.023944033,0.023658402,0.024681294,0.0087637175,-0.01418636,-0.00308959,0.012630529,0.006473803,0.0016848532,0.00675681,-0.0024336735,-0.0071718628,0.004134839,6.5443106e-05,0.044175956,0.043931235,0.007005063,-0.005730143,-0.018913604,-0.019813437,-0.0025392452,0.015454516,0.014999271,0.033550996,0.04255686,0.03825345,0.031146526,0.021896191,0.021562377,0.016879268,-0.010130595,-0.015981514,-0.022120137,-0.017611781,-0.012404765,-0.010270528,-0.021594374,-0.01087724,-0.015549891,-0.0067573376,0.017202947,0.012631713,0.06578264,0.04277489,0.01894631,-0.0038488007,0.003240554,-0.00071395346,0.003412327,0.009884,-0.006788046,-0.0052824523,0.008595478,-0.0015820605,-0.0073264325,0.0012161781,-0.011600221,-0.009351079,-0.028755637,-0.026016545,-0.044115525,-0.037822716,-0.0152950445,-0.03103078,-0.021256687,-0.025270374,-0.025234183,-0.03405012,-0.019395713,-0.0007376155,0.031335894,0.036093306,0.026292581,-0.009437687,0.009130786,0.013059352,0.009679628,-0.014842982,-0.024057187,-0.029087888,-0.022182245,-0.03783112,-0.026406387,-0.035358038,-0.0230825,-0.027778715,-0.047266725,-0.065177545,-0.060653526,-0.05529243,-0.038623717,-0.055355474,-0.049456835,-0.050288446,-0.06941458,-0.048026703,-0.054072633,-0.026683714,0.004034056,0.04115139,0.03501096,0.0073800795,0.013017745,0.024167998,0.0010429326,-0.0013874107,-0.018195363,-0.0075086723,-0.022784121,-0.026725233,-0.020639982,-0.03518021,-0.03538346,-0.037056867,-0.046727832,-0.06271804,-0.06337122,-0.058886908,-0.06824913,-0.06647534,-0.055815905,-0.06305031,-0.069869116,-0.051681034,-0.06674718,-0.048612535,-0.015655182,0.04094661,0.02426403,-0.0030133012,0.01010131,0.01916832,0.00091926876,0.004569039,0.0048814924,-0.016485041,-0.02742189,-0.0032233,-0.020961428,-0.022641411,-0.03265265,-0.044649485,-0.04448966,-0.06113212,-0.07826161,-0.06546404,-0.06570988,-0.06096569,-0.047459807,-0.05795788,-0.049353335,-0.04369959,-0.0497975,-0.04041019,-0.025003215,0.046814594,0.0031194072,-0.012246183,0.004551619,0.0071907057,-0.0023442283,-0.0018435967,-0.0071591535,0.01301103,0.018598143,0.00025810636,-0.01710936,-0.030869404,-0.050326828,-0.046942852,-0.046820574,-0.046934124,-0.044801768,-0.043785203,-0.026498891,-0.019280087,-0.01449954,-0.027640859,-0.025830198,-0.021007814,-0.023716617,-0.03634497,-0.01619359,0.044581287,0.00464862,-0.0079916185,0.0018417238,-0.021164812,-0.0024646842,-0.0051835016,-0.002601249,-0.0026750136,0.00091809017,-0.0016850707,-0.030549202,-0.037644282,-0.045351107,-0.056413233,-0.039034992,-0.041136026,-0.017641565,-0.016783776,0.007812438,-0.0100894645,-0.010099809,-0.02006019,-0.010743998,-0.010439325,-0.01986575,-0.019322643,0.00022452246,0.042818144,0.010610968,-0.012807924,-0.0074597397,-0.017242856,0.009272337,-0.019666523,-0.004872122,-0.014483764,-0.02321875,-0.033635385,-0.030146943,-0.03455065,-0.022856297,-0.03868586,-0.036491975,-0.011928846,0.014206825,0.031994555,0.011639637,0.0023125487,0.012854248,0.0013579729,-0.0056928657,-0.014854216,-0.008230596,-0.014652477,0.011381839,0.054362714,0.024306476,-0.0048664534,-0.014496874,-0.010379566,-0.01346341,-0.02985213,-0.04970734,-0.02872354,-0.024760973,-0.022436325,-0.017700432,-0.0035910797,0.0042642825,-0.008482562,0.0022101188,0.029256094,0.05620165,0.055063933,0.04637354,0.015300336,0.014318302,0.0023715512,0.004052439,-0.007299788,0.022982124,0.025157528,0.043111403,0.06401556,0.033727273,0.011791028,0.007823308,-0.023530379,-0.029869992,-0.05580948,-0.062476236,-0.0520244,-0.038864996,-0.010866571,0.017700253,0.027219675,0.05498463,0.025469603,0.045524783,0.0763678,0.08255298,0.07944032,0.06174261,0.02599122,0.028197866,0.011451182,-0.0007316541,0.011662303,0.050931655,0.04987471,0.064902395,0.06936451,0.051412832,0.039451364,0.029467056,0.011277569,0.0077350866,-0.011119139,-0.020755745,-0.0022250484,0.019459326,0.03868969,0.049765255,0.07988594,0.08514096,0.056951705,0.058925,0.08132969,0.10413558,0.09432054,0.065569066,0.045979276,0.02977458,0.014337258,0.015085974,0.03972546,0.051257428,0.05854686,0.075625144,0.071636565,0.05635498,0.048403814,0.063819736,0.051702537,0.06486946,0.050924618,0.062947646,0.06855223,0.06510189,0.08846939,0.07412676,0.0904948,0.08418695,0.0796713,0.06531625,0.07799584,0.09048032,0.06545763,0.049001426,0.012282875,0.013218882,0.014058737,0.022593226,0.045448128,0.03975505,0.06294407,0.095530964,0.09496822,0.07349539,0.05962671,0.073323496,0.096773624,0.0976171,0.09544843,0.09875537,0.119080774,0.10128981,0.097470485,0.09930925,0.09332449,0.10620923,0.114830285,0.080853775,0.081777886,0.075062215,0.018589515,0.022435544,0.02843348,0.01912427,0.030455645,0.02955834,0.025319923,0.043306004,0.08532464,0.09332346,0.101801835,0.07298159,0.07407125,0.073364325,0.09389952,0.11551086,0.095916875,0.1161519,0.12689911,0.11038598,0.099370696,0.10566426,0.089225985,0.08478749,0.09117067,0.052900493,0.03184831,-0.0016059354,-0.02946826,-0.013822209,0.018879,0.026713286,0.040451657,0.034922965,0.0041760467,0.036062058,0.062989876,0.08188853,0.097375154,0.079514116,0.071900345,0.068978496,0.08412822,0.092967376,0.08771714,0.0913573,0.10012729,0.08939477,0.08255136,0.070583075,0.04615764,0.016920347,0.0057943934,-0.021916756,-0.04110667,-0.05321297,-0.0351137,-0.034916393,-0.013684564,0.021685304,0.020478522,0.0015749829,-0.014698929,0.005716367,0.036490574,0.062311385,0.09347507,0.07678037,0.059155345,0.044372134,0.039656542,0.04404514,0.023026602,0.01890832,-0.0016194149,-0.013558293,-0.027887763,-0.031983398,-0.04607037,-0.06603407,-0.07139138,-0.072989546,-0.059686653,-0.060550995,-0.041568417,-0.05298252,-0.06230341,-0.046711367,-0.039988197,-0.04784512,-0.044377856,-0.011466144,0.009646593,0.04679521,0.09348707,0.068589024,0.030999852,0.0018610003,-0.022211533,-0.026690003,-0.052872755,-0.06809878,-0.06035158,-0.0788604,-0.08543769,-0.09343292,-0.10593327,-0.11286233,-0.10688493,-0.10548977,-0.11668444,-0.115989424,-0.09198799,-0.10515884,-0.10376797,-0.10524306,-0.092489906,-0.08700909,-0.068679266,-0.032706738,0.0022809296,0.037340757,0.07873488,0.054332152,0.008013837,-0.036381565,-0.08779197,-0.12095694,-0.14081894,-0.15325287,-0.15868805,-0.17163451,-0.19500242,-0.21720468,-0.22685891,-0.22568128,-0.21351035,-0.18380378,-0.17772806,-0.14831926,-0.1322937,-0.13413523,-0.11868331,-0.10218414,-0.09462664,-0.09614356,-0.06528766,-0.021295862,0.010491295,0.045259975,0.07361097,0.042710736,0.003122476,-0.03948059,-0.08556528,-0.11173183,-0.14043027,-0.14768915,-0.16030042,-0.19149753,-0.22889024,-0.22964899,-0.2258823,-0.20867057,-0.1823091,-0.16477317,-0.14776991,-0.116324455,-0.095292,-0.08474631,-0.07434867,-0.058753878,-0.045040537,-0.04656386,-0.034547947,-0.0056412704,0.022370463,0.049143005,0.06940303,0.04961247,0.025389591,-0.005039604,-0.035465233,-0.059559852,-0.067752644,-0.08547421,-0.09706673,-0.115786895,-0.12269035,-0.11660879,-0.10938626,-0.0999129,-0.08655116,-0.06860832,-0.055478256,-0.0393811,-0.03947222,-0.025446992,-0.01962205,-0.011783938,0.002478804,0.0018919928,0.010706004,0.026748281,0.03928579,0.05883584
0.029906379,0.033672463,0.032590263,0.032162968,0.030563543,0.018900827,0.009329446,0.0014842898,-0.007861952,0.013830706,0.022407508,0.020175146,0.009659076,0.014520644,-0.0010324629,0.0035320139,0.011576205,0.012605432,0.016116949,0.030009637,0.026673662,0.034841266,0.028395282,0.020542,0.022962065,0.023683568,0.02657677,0.03223868,0.038872246,0.033660002,0.02920424,0.028734626,0.018151684,0.013837885,0.0073820753,0.017784312,0.022786114,0.03293283,0.03020506,0.052547026,0.034333836,0.039523806,0.024834715,0.025155973,0.052147035,0.042346675,0.049518652,0.05745729,0.067303754,0.06588633,0.053412598,0.04014749,0.026604546,0.029359149,0.027189171,0.024294518,0.03520458,0.031334914,0.028270325,0.017448565,0.011655689,0.012969743,0.006250814,0.016087336,0.01862694,0.02770767,0.03154227,0.0480092,0.039809804,0.040924422,0.0010457998,0.015964743,0.02136034,0.038128685,0.05943503,0.074127845,0.0542053,0.04297089,0.043440986,0.05138599,0.037830293,0.02447699,0.012196284,0.025207821,0.032766413,0.033180345,0.02221309,0.011078838,0.008661273,0.0094545735,0.016006382,0.017694028,0.012675956,0.020343576,0.027872939,0.03334496,0.03694372,0.019038403,-0.014189011,-0.01578966,-0.017456649,-0.009021942,0.03430436,0.032388087,0.029370083,0.035620116,0.03513311,0.023724938,0.01844336,0.0051231533,-0.0013065551,0.013989317,0.032863915,0.016793577,0.0063426434,0.0062650144,0.0050377483,-0.0033737684,0.0078014224,0.01033058,0.025029235,0.031207303,0.056171156,0.04579534,0.026260698,0.014062918,-0.009357302,-0.004930642,-0.015450771,-0.008199689,0.050648782,0.025286617,0.04091018,0.045790788,0.03422899,0.017267464,0.007915444,-0.009618977,-0.01717592,0.0074959495,0.026551418,0.0053293137,0.0047734133,-0.0020693599,0.0072216457,0.003188502,0.015389037,0.03574828,0.021813486,0.047837067,0.070387565,0.053238444,0.037526086,0.02262238,-0.0069938265,-0.043732062,-0.040203404,-0.0034069996,0.026607882,0.013010878,0.025389781,0.04746026,0.032638952,0.00486246,0.0025918204,-0.01847982,-0.028219141,-0.009286826,0.027244262,0.017981691,0.0028670926,0.008738957,-0.0012010254,-0.0022990652,0.010431772,0.017906686,0.009858927,0.048760455,0.038693253,0.040475022,0.051458105,0.015328253,-0.00945306,-0.01757988,-0.025612261,0.011747293,0.026423428,-0.012269337,-0.0010845055,0.031805854,0.023673791,-0.00087590556,-0.013188995,-0.026455304,-0.04088742,-0.022457121,0.025912957,0.019654773,0.0007474063,0.014017115,0.009171988,-0.007560996,-0.010116081,0.0087454235,0.0017675959,0.02221071,0.033609606,0.018605562,0.033362374,0.020603672,0.0024109168,-0.027703596,-0.00658788,0.028456097,0.02864307,0.008677415,0.021798162,0.016921716,0.03791774,-0.009310723,-0.037355423,-0.044874467,-0.04478837,-0.024002973,0.0140763335,0.006325263,0.0014399729,0.019420708,0.013683954,0.0023857174,-0.012371128,-0.0102448845,0.00012625598,0.0090099415,0.04440823,0.048542935,0.062396728,0.063375786,0.0020295144,-0.0035002006,0.00075855,0.024200523,0.021118175,-0.0030622184,0.035337087,0.04148606,0.003873984,-0.017293904,-0.06569056,-0.05763704,-0.038185187,-0.011326317,0.011413866,-0.007523596,0.0029674917,0.011240611,0.01192699,0.003054866,-0.0163149,-0.0124566,0.011400375,0.026230335,0.010256686,0.04103644,0.05843547,0.052178234,0.028932115,-0.033010844,-0.018377902,0.029131101,-0.0069176424,-0.0073182187,0.030115366,0.018117825,-0.051603377,-0.071421474,-0.063254096,-0.060354467,-0.04193231,-0.010204373,0.019203579,-0.012723983,-0.01541046,-0.003613923,-0.0016191623,-0.0076044938,-0.022932943,-0.045216642,-0.015628997,-0.0086721275,0.0013771949,0.0031771949,0.032730695,0.069098815,0.03195629,-0.021229895,0.0054157837,-0.0025254723,-0.0042297123,-0.010630614,0.0014224361,-0.027924258,-0.06230188,-0.06896323,-0.048218578,-0.04469793,-0.03874634,-0.011721857,0.01317167,-0.029702047,-0.028212804,-0.009941017,0.0040390324,-0.009739242,-0.007338682,-0.020374624,-0.0033174995,-0.021192985,-0.011403825,0.029383648,0.07796733,0.06959095,0.032155383,-0.017399741,1.8442372e-05,-0.028567405,-0.01192151,-0.027924921,-0.06318557,-0.06594334,-0.05222443,-0.05143269,-0.04006644,-0.038160156,-0.030846234,-0.020904724,-0.009351011,-0.04445607,-0.039534044,-0.023545565,0.0051585706,-0.005708356,-0.019157803,0.004155921,-0.00686926,0.0033767351,0.014909738,0.028891759,0.08424814,0.08531885,0.05431724,0.016173823,-0.012586879,-0.04216775,-0.0424863,-0.067096174,-0.09453306,-0.071776606,-0.04924287,-0.054393165,-0.06427809,-0.059053816,-0.037486315,-0.024723498,-0.0155382585,-0.04449697,-0.056109294,-0.034283157,-0.014463161,-0.013273112,0.014588222,-0.009648003,-0.017442128,0.0027689394,0.015223494,0.045002807,0.09887417,0.092412755,0.036743514,-0.03135533,-0.045625158,-0.060839366,-0.08594451,-0.09597999,-0.07034561,-0.05439092,-0.061984673,-0.08363226,-0.08840821,-0.08021385,-0.04731547,-0.02358144,-0.014278732,-0.047961716,-0.04953447,-0.032702934,-0.014087859,-0.016843436,-0.021499373,-0.011459161,-0.019548947,-0.0023989729,0.017179051,0.05635054,0.09258234,0.07216845,0.007079142,-0.060866535,-0.07312137,-0.086052544,-0.10871769,-0.090834126,-0.07505149,-0.06309743,-0.073928796,-0.09886659,-0.09580183,-0.072777085,-0.046132892,-0.022172805,-0.0069887983,-0.030900925,-0.03803579,-0.0255945,-0.020693745,-0.029881474,-0.03218647,-0.04644852,-0.026413865,-0.0019899153,0.009974984,0.028114725,0.06731406,0.06689602,-0.042236913,-0.09600291,-0.10115836,-0.08519001,-0.08031182,-0.05611864,-0.045443058,-0.04660553,-0.05714793,-0.08060628,-0.07293903,-0.058733262,-0.037838668,-0.021263123,-0.0036992438,-0.02052336,-0.048923664,-0.019760353,-0.029568473,-0.036373638,-0.04444982,-0.03471253,-0.0018059212,0.0017826641,0.0060014203,-0.0006850521,0.03751077,0.021759532,-0.06903657,-0.15631399,-0.113568634,-0.07019095,-0.08981707,-0.031150926,-0.025418958,-0.038758293,-0.030692862,-0.053537793,-0.046594996,-0.0384362,-0.03531101,-0.019041115,-0.005731686,-0.019734245,-0.024914848,-0.010470524,-0.024475317,-0.028573388,-0.0355276,-0.015673494,0.0105471,0.00059217744,-0.009057636,0.002052025,0.04399471,-0.00511408,-0.112309754,-0.16023229,-0.050274502,-0.0652352,-0.061024845,-0.0038654918,-0.019069202,-0.008278282,-0.0027580124,-0.027876558,-0.025673894,-0.024270698,-0.018436918,-0.011241046,0.008165647,-0.014224436,-0.001364635,0.01515616,0.008921496,-0.008814188,-0.00893436,0.013530667,0.016378216,0.016669624,0.026930308,0.041819412,0.036559775,-0.028200055,-0.0850095,-0.066592455,-0.03545179,-0.067347676,-0.049324006,-0.024335995,-0.015813077,0.01971246,0.01598653,0.0057786987,-0.016468307,-0.019685362,-0.011539932,-0.009121018,0.016430318,0.020226564,0.052062288,0.05369515,0.04422124,0.021278735,0.015127476,0.040863473,0.03092035,0.042806707,0.06738386,0.06477298,0.03170355,-0.0050753905,-0.055508506,-0.031397376,-0.04325747,-0.031028662,-0.023585789,-0.034639288,-0.0057628285,0.052774,0.05658724,0.01859771,-0.004951054,-0.0102875605,-0.0078102318,-0.00424173,0.023803897,0.04653105,0.06413585,0.067480095,0.031669095,0.024531314,0.04687199,0.04777357,0.052942514,0.030627292,0.043150544,0.024258062,0.0023016466,-0.048611473,-0.047774404,-0.055122353,-0.04227533,-0.022844553,-0.043768685,-0.051737837,-0.008655295,0.03868397,0.04138437,0.021529531,0.00045340965,-0.0038562606,-0.010025795,0.000990411,0.031739347,0.059076443,0.07473675,0.07682201,0.05686231,0.025069797,0.037711587,0.056345735,0.054276634,0.050935823,0.06595578,0.024703015,0.029410053,-0.017903708,-0.041412592,-0.04259943,-0.04285174,-0.02855216,-0.050066087,-0.076466456,-0.03437806,0.008546189,0.023538854,0.008300737,-0.002438619,-0.005510271,-0.0054347822,0.0061587193,0.02532784,0.049383525,0.059024062,0.056105856,0.041264907,0.016219374,0.010131581,0.020329168,0.031318914,0.03819802,0.038701493,0.031976514,0.06259456,0.010983976,-0.012770938,-0.020967567,-0.0025391267,-0.0014604009,-0.04370728,-0.07809095,-0.048241377,-0.02606123,-0.00742023,-0.0063443775,-0.012637967,-0.017869396,-0.007217007,0.010335635,0.02621328,0.04655865,0.055439234,0.06747966,0.05799203,0.027002903,0.025933985,0.006807775,0.041307125,0.03091005,0.03878722,0.017811855,0.02494533,0.0034076732,-0.021572884,-0.025734792,-0.029768975,-0.06958915,-0.10892647,-0.08923588,-0.06496486,-0.029179838,-0.018635018,-0.012753531,-0.017285056,-0.013181756,-0.0011345147,0.018083425,0.009553538,0.018528918,0.038318697,0.05307229,0.015997265,-0.0051568733,0.015872194,0.009566294,-0.010063716,-0.01547297,-0.022021502,-0.032101166,-0.012721937,-0.020875292,-0.038388997,-0.04179226,-0.043725982,-0.096217714,-0.10877945,-0.08170869,-0.061744638,-0.04435649,-0.024671428,-0.011668313,-0.011386844,-0.009037306,0.015625903,0.026509697,0.015928373,0.009010173,0.015737234,0.026159683,-0.00024751024,-0.024632761,-0.028427042,-0.019637268,-0.009135559,-0.010266348,-0.010806383,-0.013953186,-0.0067105982,0.0034881302,-0.007800955,-0.016659733,-0.03243252,-0.093908615,-0.09856772,-0.079477765,-0.062368434,-0.031578712,-0.012662092,0.00042675246,0.006845721,0.007434295,0.025242146,0.0302369,0.008439747,0.00035585967,-0.007503213,-0.015783591,-0.01698794,-0.031489808,-0.014518271,-0.011011726,-0.01739888,-0.015696676,-0.0073116343,-0.018555205,-0.0066496553,-0.002972885,0.005037022,-0.00084747234,-0.04060971,-0.07960349,-0.08378171,-0.06421711,-0.039619394,-0.019801034,0.004403915,0.012336376,0.012955425,0.02115683,0.03148217,0.031633865,0.020836402,-0.0042637107,-0.02605456,-0.032741215,-0.035808384,-0.04120314,-0.04347075,-0.040211003,-0.050342515,-0.041902464,-0.018129403,-0.024855161,-0.041040793,-0.016700454,0.008937682,0.010944751,-0.027270444,-0.062060684,-0.050834306,-0.038649343,-0.01999293,-0.0025692356,0.018184878,0.023198077,0.025928011,0.02892625,0.031381097,0.035749216
-0.04192452,-0.038753945,-0.036766626,-0.028981093,-0.022450067,-0.0086178975,0.0004685325,-0.0020804848,-0.01043011,-0.01646219,-0.018789945,-0.026212046,-0.03948242,-0.0398318,-0.036984764,-0.017197957,0.00054285786,-0.0018819551,-0.010782718,-0.021127844,-0.010967567,-0.0002267987,0.010615506,0.016256036,0.011885694,0.0033352626,-0.0053542415,-0.019921487,-0.039655976,-0.033339318,-0.026291858,-0.016503133,-0.010394948,-0.005820543,-0.015765516,-0.028376374,-0.047317665,-0.051799677,-0.06384158,-0.05593024,-0.0759012,-0.06776915,-0.050868187,-0.03399968,-0.00799032,-0.030706912,-0.055256266,-0.081171595,-0.066838436,-0.031611845,-0.012021508,0.0065645105,0.026428238,0.031605046,0.03941886,0.021767046,-0.03545453,-0.026280168,-0.019344704,-0.01641002,-0.014988889,-0.016664311,-0.045832068,-0.092131354,-0.120190114,-0.129541,-0.1438389,-0.12289436,-0.12625138,-0.096739605,-0.055008452,-0.036576144,-0.023589496,-0.044195764,-0.08409268,-0.07576159,-0.07629051,-0.0526299,-0.041765448,-0.019501973,0.0101190135,0.028766792,0.049947422,0.04890861,-0.030736351,-0.025232492,-0.02139383,-0.025434358,-0.026037918,-0.040271115,-0.08766276,-0.13449942,-0.15256767,-0.16280708,-0.1545257,-0.15093428,-0.15505555,-0.1232959,-0.082733855,-0.049849253,-0.039004505,-0.031714715,-0.060862105,-0.072685964,-0.05460265,-0.054815173,-0.0358124,-0.022351429,0.0061219935,0.018334482,0.04059641,0.054861154,-0.03234849,-0.023442954,-0.02268768,-0.025647053,-0.03810776,-0.06313789,-0.11051921,-0.14156857,-0.13743086,-0.13546313,-0.11436677,-0.12294219,-0.120851256,-0.08865516,-0.04985581,0.0016766967,-0.029390201,-0.02371213,-0.0343603,-0.024141436,-0.011411862,-0.00151554,-0.0033161389,0.0008858296,0.036094286,0.019525452,0.039816055,0.066735476,-0.029881945,-0.02351558,-0.022883348,-0.031149253,-0.05243678,-0.07413195,-0.10910926,-0.11422099,-0.09738469,-0.086365834,-0.06846306,-0.082859084,-0.076261476,-0.049515612,0.0014972814,0.042057972,0.033684622,-0.010323122,0.0046160533,0.035470232,0.041595325,0.03315299,0.023841036,0.015607504,0.039964423,0.018212374,0.021369226,0.05230309,-0.030690659,-0.030266253,-0.030676808,-0.05193381,-0.076652125,-0.08812863,-0.10378787,-0.083194084,-0.061516438,-0.044169314,-0.059073366,-0.052375518,-0.051328357,-0.019626092,0.03209638,0.04305275,0.030894103,0.017570663,0.02329597,0.023720905,0.015597884,0.0016469775,0.010043378,-0.010099502,-0.0055140164,-0.030763475,-0.028278872,0.023247486,-0.037488423,-0.038941376,-0.05277211,-0.077157915,-0.096557036,-0.101320006,-0.104760006,-0.058719207,-0.028838329,-0.020839306,-0.044367664,-0.03497288,-0.03633165,-0.027490063,0.011326858,0.0069762697,-0.010413765,-0.014330568,-0.03355254,-0.049380522,-0.065498576,-0.042675197,-0.053893138,-0.06612334,-0.056355264,-0.06647825,-0.049151912,-0.0030333584,-0.03597872,-0.037919253,-0.060297493,-0.08779039,-0.10576742,-0.10483359,-0.09821809,-0.06887087,-0.039956804,-0.0413421,-0.06278438,-0.07621794,-0.0675482,-0.051616266,0.0019026373,0.0149779515,-0.011956703,-0.026556443,-0.028109543,-0.06391495,-0.05937542,-0.0204398,-0.014588175,-0.02896669,-0.024394862,-0.034935974,-0.023204327,0.011188464,-0.03001714,-0.03838547,-0.059874434,-0.0885998,-0.097683765,-0.10085118,-0.108209446,-0.07513978,-0.052350324,-0.057667386,-0.032114815,-0.035678033,-0.03949559,-0.008757421,0.00691324,0.03031253,0.0045420593,0.015053824,0.021638442,0.008034243,0.016852515,0.041651964,0.041376997,0.03552864,0.013108879,0.009254367,0.018642602,0.06413167,-0.028630387,-0.03178177,-0.051112123,-0.08428828,-0.093646854,-0.09026776,-0.09901981,-0.066981,-0.051710695,-0.021245187,-0.009213629,-0.022653183,-0.006036937,0.012000994,0.038169432,0.040802926,0.04357797,0.05506068,0.061342523,0.071211115,0.077492416,0.070277095,0.046078913,-0.004136921,0.014987845,0.024475114,0.030859584,0.07560653,-0.028139273,-0.022195334,-0.049778722,-0.073816985,-0.06473645,-0.059166707,-0.073317364,-0.05448073,-0.044878624,-0.05493391,-0.033296667,-0.0092875585,0.0031875726,0.029325083,0.04219588,-0.0015788996,0.03663413,0.036299407,0.048512276,0.08467593,0.057912823,0.06874198,0.025622332,-0.008332798,0.0013670556,0.0052629123,0.041275248,0.08374146,-0.025192479,-0.017577037,-0.030666007,-0.048053104,-0.0200231,-0.00898232,-0.02956958,-0.052359816,-0.07695479,-0.098532,-0.06706048,-0.040741928,-0.018311515,0.0037310598,0.008458076,-0.010593965,-0.0019018464,0.020861862,0.026257107,0.06013474,0.044798665,0.050099302,0.018312715,-0.0023027211,-0.023995804,-0.01597651,0.024027187,0.06635911,-0.02404075,-0.005772966,0.014276014,0.028544907,0.035009097,-0.0040390017,-0.018225724,-0.05062494,-0.070749015,-0.10608094,-0.10596638,-0.0859734,-0.058741383,-0.035138436,-0.017678596,-0.018591298,-0.027352035,-0.033614207,-0.005074574,0.02278877,-0.009776259,0.002162301,-0.002335229,0.007243759,-0.030124752,-0.034653656,0.0031881195,0.027378913,-0.0084862765,0.02773549,0.055579804,0.07218913,0.06192562,0.041141592,0.02278938,0.0019856356,-0.014804767,-0.036586292,-0.073797844,-0.09205753,-0.08109472,-0.06468179,-0.054930143,-0.034428883,-0.0660341,-0.077614956,-0.043421555,-0.046702426,-0.06740915,-0.061189774,-0.03856121,-0.039532337,-0.05766481,-0.061787214,-0.035233542,-0.02010544,0.0065424317,0.052063745,0.08256522,0.091090605,0.09510475,0.086927764,0.071891055,0.08523896,0.084667,0.059417415,0.036334913,-0.0059267455,-0.029328952,-0.039821755,-0.04302741,-0.03546992,-0.065264046,-0.09196961,-0.093452826,-0.08407102,-0.112820394,-0.11215385,-0.0824013,-0.06511271,-0.08375068,-0.076649226,-0.0639737,-0.046146758,0.01950406,0.06530227,0.11517423,0.11542329,0.10619493,0.1044941,0.10508624,0.08846852,0.09139201,0.100129046,0.09233676,0.036691565,-0.0011745162,-0.016603595,-0.010516241,-0.019725801,-0.039969184,-0.049224064,-0.05936906,-0.0805761,-0.1071771,-0.10922036,-0.09637016,-0.06993536,-0.07895961,-0.079187945,-0.07530227,-0.057531517,0.029514447,0.06240174,0.10085727,0.11096731,0.09561859,0.07665575,0.07473774,0.08441884,0.07355258,0.10542553,0.075094864,0.061085775,0.052422564,0.016032856,0.0031350984,0.00878545,-0.014694676,-0.014757079,-0.03214654,-0.03328766,-0.04841644,-0.058601316,-0.054132026,-0.066738375,-0.0683722,-0.076773256,-0.07586822,-0.06252071,0.01990762,0.054558378,0.07433141,0.09135197,0.07393355,0.05327564,0.05517889,0.08281247,0.09213178,0.09950246,0.088680185,0.092336744,0.09664566,0.051028185,0.047603674,0.04420232,0.020288216,0.0041816705,0.0051549063,7.0436574e-05,-0.024572188,-0.033908803,-0.04569288,-0.07723921,-0.06121462,-0.06896637,-0.060698334,-0.053860616,0.00929019,0.047386028,0.056903914,0.043065522,0.025379129,0.00558225,0.01061502,0.02460891,0.042945743,0.03221402,0.046837077,0.07619182,0.079441115,0.05122709,0.04539003,0.054406352,0.05060133,0.0059364163,0.009121387,0.01348624,-0.010604129,-0.03827569,-0.07584445,-0.08957415,-0.07698704,-0.071849115,-0.059891824,-0.047184385,-0.0027711869,0.029102536,0.03779338,0.015765281,-0.007772609,-0.010280546,-0.0019856356,0.0015877275,0.029242946,0.01031038,0.012251311,0.046633746,0.048958216,0.062212016,0.04576702,0.040518317,0.01655451,0.01737105,0.00082617917,-0.025760451,-0.05045895,-0.0729436,-0.07772919,-0.075244375,-0.0807635,-0.07767471,-0.06991855,-0.05695972,-0.009434198,0.007171006,0.004379833,-0.0014690361,-0.02527735,-0.027250675,0.0023450425,0.00676388,-0.011365281,-0.02437367,-0.019576615,-0.014610053,-0.015217138,0.008996947,0.03025508,0.019882781,0.030530818,-0.004031238,0.001784694,-0.03579786,-0.048469245,-0.059215616,-0.051098228,-0.058694907,-0.06660738,-0.06949535,-0.06363534,-0.050727118,-0.010305242,-0.014579679,-0.015137603,-0.024277864,-0.04986843,-0.042851176,-0.025313381,-0.033877775,-0.0465602,-0.042395003,-0.054975193,-0.02204669,-0.026633728,-0.023263894,0.0055794087,0.00067921414,-0.0042870445,-0.018388487,-0.012241367,-0.03207957,-0.037180316,-0.05627961,-0.05605615,-0.050622728,-0.05681103,-0.055629354,-0.04860898,-0.044952344,-0.009142332,-0.012339113,-0.029495623,-0.051999938,-0.052311353,-0.04122094,-0.053071804,-0.075106524,-0.07784984,-0.059934225,-0.033105142,-0.035923082,-0.057449583,-0.038010184,-0.023713402,-0.015914055,-0.012061722,-0.030351963,-0.026178956,-0.031818517,-0.03604736,-0.038619824,-0.06536404,-0.05775558,-0.0424491,-0.037685376,-0.03355165,-0.038951132,-0.014788494,-0.00996045,-0.021775998,-0.033936538,-0.03343236,-0.029151546,-0.048756186,-0.05544912,-0.06298453,-0.06352672,-0.044575185,-0.04137057,-0.053549908,-0.028263554,-0.035165213,-0.022314603,-0.007978004,-0.019297672,-0.03672037,-0.030137323,-0.04149284,-0.049094357,-0.052818585,-0.043408792,-0.020968016,-0.015551429,-0.026517127,-0.0430231,-0.01708439,-0.004232748,0.0050719557,-0.00065405015,0.013687993,0.0074623483,-0.0210104,-0.034468308,-0.044571716,-0.047181297,-0.059526134,-0.05093085,-0.03635606,-0.03504459,-0.0414062,-0.042428255,-0.027573347,-0.05412614,-0.042355552,-0.025815044,-0.037193418,-0.033061046,-0.025515711,-0.009301271,-0.004547089,-0.008918516,-0.030274425,-0.045599785,-0.023815839,-0.002445175,0.021240203,0.021266177,0.03247814,0.03889465,0.012598476,0.0033528102,-0.014518893,-0.0041135824,-0.014778833,-0.007233587,0.0076929354,-0.010268467,-0.02156078,-0.019125564,-0.0026366846,-0.020754976,-0.014805111,0.00024415908,-0.014022006,-0.001064163,0.015955266,0.023090132,0.011601167,-0.0071852366,-0.03085153,-0.045180313,-0.03274452,-0.017555336,0.0011931866,0.009165652,0.027364843,0.044928126,0.041864645,0.027916946,0.034780584,0.048099935,0.053943783,0.05392552,0.047913536,0.0314513,0.039973296,0.05979467,0.07185767,0.05148864,0.05029018,0.0661656,0.06246624,0.07487084,0.06400465,0.03859624,0.014628618,-0.01380884,-0.036583472,-0.043721758
