0.0004368373,-0.031669058,0.014118656,0.00469919,-0.0072245398,-0.01079624,0.007821986,-0.013971567,0.012074075,0.005397802,0.017413897,-0.025991479,-0.016714202,-0.010427815,-0.01936768,-0.017063554,-0.0033121468,0.0090756975,0.009837024,0.012927029,-0.0011278244,-0.024695188,-0.005993712,0.029235037,-9.604194e-05,-0.013906156,-0.012066053,-0.0012958564,-0.014796839,3.8792852e-05,-0.012273036,-0.0037903448,-0.009834119,0.0016758452,-0.019133985,-0.0023097256,-0.02936436,-0.02114384,0.005016204,0.015769837,0.013343538,0.0128507055,-0.024821162,-0.02218741,0.0010499567,0.017267624,-0.026290817,0.006771515,-0.029390546,0.0037719032,0.011129967,0.018184228,0.0047239573,0.025319062,0.0078955,0.013962612,-0.0013125854,0.004899532,-0.0073196455,0.01790406,-0.0074306754,0.012621002,-0.016234215,0.026176654,0.027522134,0.008490762,-0.0020931798,-0.0028010223,-0.023042351,0.023281064,0.011863458,-0.022032743,0.012582228,-0.018100187,-0.022531185,-0.02866269,-0.029087862,-0.007358261,0.0072752545,-0.016851077,-0.027237706,-0.0036484147,0.026204016,-0.02119977,0.019010467,0.0006941987,0.014361629,0.011063384,0.0038417273,0.006286436,-0.016736604,-0.019098263,-0.029017296,0.005677115,0.020134227,-0.0032090035,0.018997658,-0.015745537,-0.0072104954,-0.016450461,0.012248961,-0.01255314,0.011108548,-0.00076032,0.0012045512,0.013385551,-0.024968341,0.0033137694,-0.014495118,0.013507932,-0.020556886,0.0014236236,-0.015102827,-0.007058326,-0.013639737,0.02441571,-0.023990452,0.0015420642,-0.0034545488,0.004422038,-0.02772755,0.014267171,-0.007301306,0.011658885,-0.01613027,-0.007830649,0.0113496985,-0.019927204,-0.0058002016,-0.01170575,0.00043721136,0.0067175105,0.0022064834,-0.030309057,0.00673884,-0.0051388736,0.004726987,-0.029208057,0.0073029194,-0.0073212027,-0.018343901,-0.01509918,-0.0009269294,-0.022252973,0.011150709,0.008917834,0.018213404,0.018895809,-0.029819759,-0.00056593935,-0.01845527,-0.0069128717,0.019904552,-0.0142275775,-0.018666102,0.028567296,0.0052790586,-0.0118208425,-0.00020106754,-0.013798457,-0.012259683,0.0045091575,-0.009869822,0.0270336,-0.018578349,0.0049064825,0.03035881,0.02822502,0.006407716,-0.00032293407,0.01746097,-0.007705464,0.00026619915,-0.02654717,0.0025986813,0.015992446,-0.0033863715,0.010655298,-0.017106473,0.0014721397,-0.0092977695,-0.0052370215,0.0051540853,0.001955375,-0.005909948,-0.011986346,-0.026027057,0.0020870643,-0.013360992,-0.02133506,-0.017793866,-0.01213632,-0.007261066,-0.01255355,0.0021275464,-0.0074271215,0.0071941963,0.020802816,0.009285583,-0.013674904,-0.02321004,0.008604851,-0.019481406,-0.017675351,-0.0033534341,-0.004723872,-0.01718898,0.0062967762,-0.004060267,0.019415831,-0.002499478,0.010177131,0.009166921,-0.015317035,0.0068984344,0.020970892,0.0147969965,0.025027921,-0.021560324,0.029473454,0.0006925699,-0.009986602,0.012797028,-0.013825533,-0.005496084,0.017407108,-0.027466562,0.026624344,-0.023402374,0.022557497,0.017027594,-0.0062000924,-0.027491597,-0.014493735,-0.00023389532,0.0154629685,0.01727696,0.025094682,0.0029881313,-0.0074405554,-0.032192364,-0.01808289,-0.005966217,-0.0024410654,-0.009512192,-0.01899987,0.00943231,-0.0004584302,0.0026994436,0.00086704496,-0.009199377,-0.018731676,-0.009913396,-0.0052642575,0.006216772,0.016943121,0.00849902,-0.016466282,0.02172181,0.021423006,-0.021043835,-0.002642975,-0.0074239615,-0.00195296,-0.013611573,-0.02058424,-0.0060600904,-0.009126994,-0.019553712,0.0003546013,0.017254272,-0.012969534,-0.023521915,-0.004277176,0.015110883,-0.025257831,-0.0037842442,0.0104716,-0.023737881,0.021304203,0.0001082903,0.019036647,-0.018831853,0.0028306455,-0.0034023796,-0.024463987,-0.0012486395,0.005192856,-0.008830313,-0.014039506,0.009548059,-0.024998287,0.0075533353,0.005488971,0.0043195947,-0.014433071,0.0046336195,-0.025390146,-0.014066086,-0.029862458,0.0031507604,0.014747013,0.0049744304,-0.016428962,-0.01350682,-0.0120163895,0.025373422,-0.0122794,-0.020389136,-0.006963679,0.005116546,-0.0005343951,-0.031166414,0.014857555,0.022059457,0.010878671,-0.0038414297,0.015511958,0.002427581,-0.0017397795,0.013756879,-0.0016036261,0.0006900631,0.0032376607,-0.015961625,0.01124813,-0.0065759164,-0.025547124,-0.0003483725,0.006534134,0.013227293,0.005459993,-0.00044041025,-0.017856635,-0.001338459,-0.0155216865,-0.030449634,-0.004844484,0.003848719,-0.025789589,-0.003891751,0.01829026,-0.003947237,-0.024868801,-0.029369151,-0.0024782405,0.016325345,0.0109706605,0.0056113927,-0.01104371,-0.029782854,-0.028910045,-0.013506079,-0.024208209,-0.022772916,-0.009529228,-0.002316739,0.016841875,-0.009795411,0.016407454,-0.013379477,-0.01441736,0.0013041222,-0.009862129,0.0029156613,-0.021330662,0.005842118,-0.023737187,-0.022217333,0.012692166,0.009668662,0.011054375,-0.010368935,-0.0055934233,-0.030988213,-0.018028753,-0.031292345,0.0038142782,0.01398343,-0.024460755,-0.020894421,-0.0025610833,-0.018435244,-0.02085615,-0.011839312,0.0061248946,0.010512105,-0.015547509,-0.029864624,0.012431989,-0.027917506,-0.008571064,-0.030324632,0.004490459,-0.0011711485,-0.006838261,-0.0018467654,-0.01823051,0.013672038,-0.01575267,-0.010122159,0.0054720645,-0.015647838,0.03249648,-0.024597446,-0.024334447,-0.025878936,0.029989233,0.016293839,-0.0050880327,-0.021993276,-0.016300488,0.00028970814,-0.009676468,-0.0033987113,-0.0028051739,-0.007689076,0.011835763,-0.026567787,-0.0019477678,-0.0138910655,0.0045348215,0.0004625648,0.008155452,-0.00043718462,-0.0039125355,-0.013802409,-0.01132101,0.010573663,-0.0025025718,0.015901593,0.00037404953,0.002725474,-0.013963629,0.0064458307,-0.02461032,-0.021289414,-0.012795022,-0.009766376,-0.027720764,-0.013970071,-0.022662768,0.0037029502,0.029849358,0.002846417,0.008610104,-0.031162076,0.010639526,0.009737971,0.0069024283,-0.013856702,-0.00908723,-0.024793267,0.0076548336,0.0017719975,-0.018834075,0.028963966,-0.019603506,-0.0154406475,-0.009244472,-0.015769072,0.01324915,0.012984169,0.0032094128,-0.0017621921,-0.013651551,-0.027949084,-0.0006813713,0.013971732,0.020925496,-0.015901607,0.032755002,-0.006371603,-0.017359069,-0.029442377,-0.030813837,-0.026778204,0.023297872,-0.024545424,-0.0142042665,0.013719769,0.0073674414,0.013258342,0.009424868,-0.015353772,-0.027436992,-0.016599508,-0.0047506737,-0.019261545,-0.0017257034,-0.019069852,-0.011390448,0.009042188,-0.0023250037,0.015786374,0.008068195,-0.005391369,0.008326056,-0.027217574,-0.029415457,-0.020626038,0.013176528,-0.011401831,0.0007697619,-0.012176555,-0.000953214,-0.010891023,-0.023305744,0.015169963,0.001956402,0.014628424,-0.012989714,-0.014725973,0.017618055,0.0019074804,-0.00022986147,-0.021202425,-0.003460642,-0.00925743,0.013258043,0.009559083,-0.027246008,0.006128679,-0.03101052,0.0074121263,0.0068808584,-0.024061415,0.0020368774,-0.016033787,-0.023256142,0.007198666,-0.013860748,0.004812732,-0.011020316,-0.03055456,-0.002846849,0.0002612672,0.013651326,-0.027501743,0.0033668864,-0.005096377,-0.019098025,-0.00096621335,-0.008383624,-0.021761276,-0.026394162,-0.012367738,-0.022618277,0.01685096,0.017205805,0.01130746,0.0018811557,0.023195555,-0.030191515,-0.012362154,-0.01916893,0.026662301,0.0003242812,-0.0023618403,0.02494065,-0.012963367,0.0029170837,-0.02794801,0.0050184866,0.005389641,-0.013833445,-0.0064078127,0.015651133,-0.011215411,0.015773134,-0.023192333,-0.021573849,0.010908985,0.004236984,-0.0105905775,-0.0035934094,-0.017955888,-0.027324932,-0.024498349,-0.023487426,0.009109371,-0.016488966,0.004043797,-0.01704229,-0.02323683,0.008577881,-0.020202117,0.0016083758,0.018038532,-0.020746496,-0.009339758,-0.002340923,0.0066693644,-0.0024331845,0.008010955,-0.0032062826,0.003377665,-0.02174353,-0.018707465,-0.011229449,-0.010069837,0.0030060296,-0.02325972,-0.009978376,-0.019307995,0.014986559,-0.005205152,-0.013498078,0.0038304587,-0.024834543,0.0036690307,0.0102411,-0.0016921617,-0.029237486,0.009951988,-0.0070003695,-0.00114679,-0.017020704,-0.015025379,-0.010169495,-0.0075293123,-0.0051766606,-0.02433176,-0.019992845,-0.024144746,-0.0031640613,0.012017198,0.0070372154,-0.0060272096,-0.0007278614,-0.026427656,0.00025338805,-0.00662467,-0.014032378,0.008397685,-0.0077563664,0.00050754374,0.0064742817,0.012682441,0.012519278,-0.028742515,-0.01648893,0.0076716626,-0.0035432018,-0.02832367,0.016331736,-0.013631889,0.0096577015,-0.00037124913,0.0008273847,-0.030617634,-0.0022292612,-0.0059003565,-0.02452319,-0.028116632,-0.0016209079,0.0028142328,-0.020267194,-0.0036702766,-0.030527214,0.0049880045,0.006256903,0.015703702,0.0105097545,-0.027909487,0.011663297,-0.027245186,-0.017315993,-0.0040241936,0.00085382495,-0.009478864,-0.009677184,0.008809148,-0.0031648648,-0.031696185,-0.025722357,-0.01900843,0.002977867,-0.020367898,-0.0068762386,-0.003245789,0.012781537,-0.0102761,-0.03278465,0.0009485095,0.0012154606,-0.026285885,0.020700995,-0.010627658,0.0035402097,-0.017147506,0.016675847,0.026407747,-0.02338305,-0.02798925,0.008456382,0.009299752,0.009849826,0.011313121,-0.0023210512,-0.022169411,-0.022097778,-0.00429426,0.02931988,-0.018844139,-0.014332976,-0.020663435,-0.020882383,0.008194735,-0.01349394,0.023628475,-0.026208075,0.008091902,-0.029861532,-0.01046589,-0.017963415,0.0072346497,0.021469872,0.009235794,0.018731296,-0.02197516,-0.0068782223,-0.004372627,0.015821954,-0.0036851838,-0.01488628,-0.018198863,0.0087489495,0.0017528051,-0.018968668,0.015608462,-0.02651867,0.0025392442,0.012356042,0.01874463,-0.014048372,-0.006714636,-0.02512703,-0.007886873,-0.0058593284,-0.015277295,0.017913537,-0.015158372,-0.0077532595,-0.021240814,-0.011626036,-0.01287351,0.015665743,-0.0064060087,-0.02974599,0.011646826,-0.013890256,-0.0021257033,-0.026630415,-0.024473863,-0.004861008,0.0109263575,-0.018787894,-0.0012075546,0.004048349,0.002471198,0.0124234175,-0.020492673,-0.018890373,0.01652044,-0.021730458,-0.01986984,0.01081875,-0.0021893636,-0.02580505,0.017937269,-0.015528914,0.014360279,-0.020004403,-0.029166367,-0.019007217,-0.02715437,-0.025801225,-0.01441763,-0.010051161,-0.0020612828,0.008547391,-0.0014276445,-0.00078330474,-0.011901432,-0.010052887,-0.0059924647,-0.011466573,0.005695657,0.010731888,0.0013407875,0.012954062,-0.014665171,-0.012449389,-0.013382723,0.01672852,0.00021719618,-0.0066664903,-0.0024041669,-0.0062117446,-0.030332932,-0.017709715,0.008956026,0.014768933,-0.0034575553,0.009046453,-0.026909836,0.017707031,0.01569218,-0.027316358,-0.016835373,-0.028046481,0.011915518,0.02245347,0.003343203,-0.030732725,-0.01944541,-0.0070782304,-0.026590595,0.012790132,-0.024417656,0.0018078085,0.010745662,-0.012978285,-0.019389298,0.015273701,-0.0039057503,0.007347987,-0.0015853236,-0.0038788747,0.0152155,-0.0035343303,0.0033069733,-0.015100659,-0.008114906,-0.004982628,-0.019347614,-0.006162559,0.01511793,0.0003996224,0.012498959,-0.025704045,-0.02541282,-0.009887669,-0.01909411,-0.029276637,0.0074333805,0.0149943,-0.016805092,-0.0100558745,-0.026452102,0.013725943,-0.020357145,-0.020848585,-0.01343849,-0.0041799466,0.023473147,-0.0022387197,-0.026274778,0.01513702,-0.026123699,-0.015718892,0.020461224,-0.015475559,0.021301828,0.019697376,-0.026635434,0.017713284,-0.00010836274,-0.015252093,0.01441961,0.006282026,-0.007996456,-0.015658913,-0.0023499357,0.0098709585,0.019274352,0.008692204,-0.027963676,-0.013692689,-0.027049538,-0.03249904,-0.00096572854,0.011057632,-0.008766532,-0.01855993,0.010835182,0.0032918649,0.007513837,-0.0011504698,-0.013955144,-0.007717456,-0.012740927,-0.018243173,0.006298602,-0.011502795,0.006241108,0.0021899012,-0.008235314,-0.0066902325,-0.0041655987,-0.012573061,0.006611194,0.015764704,0.0041943584,-0.00717786,0.002816015,0.0009341181,-0.020335928,-0.030943898,-0.021989923,-0.025554774,-0.0062238257,0.013808996,0.010780246,-0.014693294,-0.023625825,-0.018424843,0.00044098517,-0.021103146,0.0025791768,-0.018624112,-0.017433764,0.01635272,-0.0023876405,-0.007192732,-0.0067357207,-0.024894599,0.0025818523,-0.0038183655,-0.022573002,-0.028503377,0.006768051,-0.0037219916,-0.007148698,-0.018623518,-0.0064421794,-0.019289948,-0.025992868,0.001542312,-0.014553486,0.00026058702,-0.021579465,-0.012995675,0.00060238224,-0.009747357,-0.0094988765,-0.010084816,-0.023079384,-0.015627202,-0.01450241,-0.02087991,0.016676445,-0.011051866,0.0073893573,0.017054472,-0.024754554,0.01766532,-0.020853769,-0.0018977782,-0.025473062,-0.02916029,-0.01991994,-0.0056917,-0.016281782,-0.021174284,-0.019057173,0.003475793,-0.018055787,0.009720222,0.0016675763,-0.002895029,-0.021225275,-0.016814163,-0.005637675,0.005239126,-0.018919064,-0.009374573,-0.009724875,0.0059522702,0.00047927475,-0.007361364,-0.015088537,-0.026769966,-0.0013198493,-0.008391495,-0.02116228,-0.022392474,0.013628378,-0.018463086,-0.008322803,-0.021426296,-0.012418737,0.006580884,-0.027550094,-0.021095617,0.016042348,-0.01053969,0.0063449056,-0.022678483,-0.024902474,0.011424402,-0.017774947,9.6932155e-05,0.014778341,-0.014445353,0.012841574,0.0045750495,0.015766462,-0.0021394354,-0.011889542,-0.010249893,-0.010409112,0.01933649,0.013091246,-0.020184811,0.011279515,0.006097648,-0.015282231,0.007934476,-0.0013876052,-0.009875765,-0.00365168,-0.0038513902,0.004659893,0.0014645276,-0.013281744,-0.02638948,-0.009083093,0.013573269,0.009952679,-0.008449897,-0.018579006,0.0149211595,0.014454907,0.015940044,-0.014780689,0.010837538,0.011135297,0.010314774,-0.0031093815,-0.011220456,-0.028898166,-0.0073547107,0.0009954508,0.011020828,-0.007647932,0.0036017208,0.0144345155,0.0044216714,-0.0015346891,-0.027590519,-0.01347817,0.0058025694,0.018477365,-0.030467976,0.0044345045,0.016434595,0.007184092,-0.001113477,-0.011356639,0.003801311,-0.020470832,-0.004408206,0.009904616,-0.014165637,0.009413452,6.70251e-05,0.02223984,0.015638828,-0.022316514,-0.012579407,0.0102319345,0.020421926,0.007785078,0.01653613,-0.01140763,-0.030392727,-0.007921528,-0.022660699,-0.00808399,0.015135475,0.0007606202,-0.031549312,-0.015668467,-0.008462388,-0.01695729,0.012748415,-0.026953926,-0.021545965,0.0045764493,-0.02633398,-0.028055899,0.009761311,-0.011051585,0.00013936573,-0.008560943,0.008930935,-0.009266829,-0.009186428,-0.02316446,0.00022037534,-0.022528531,0.01744865,0.009719455,0.008862919,0.0045452025,-0.004721878,0.009715026,0.009340259,-0.032522537,-0.0042094914,-0.0042721936,-0.024109391,0.016129253,-0.011347167,-0.023695324,-0.02966896,-0.02840205,0.010198452,-0.028672663,-0.0072099324,0.012072989,-0.017062778,-0.023095632,-0.02426347,-0.00486738,-0.012628692,-0.013796892,0.013606395,-0.012004765,-0.02380085,-0.02447128,0.017732233,-0.022159921,-0.006612921,-0.0075342082,-0.004104506,0.0003890252,-0.0056270096,0.0019909425,-0.006104423,-0.010283695,0.029131463,-0.02108466,-0.0010342113,-0.011323443,0.017453816,0.0074758995,-0.012523206,-0.02457784,0.006356753,-0.009274273,0.010901575,-0.011075463,0.022899542,-0.017684378,0.007861814,-0.007350664,-0.014200146,-0.01432002,0.0043916944,0.011347057,-0.013099895,0.012642594,-0.017952925,-0.008326278,0.020545047,-0.009060236,-0.0016093565,-0.023311054,-0.02224065,-0.019624315,-0.008121556,-0.0055802674,-0.016607398,0.016931104,-0.02255962,-0.023584453,-0.014530724,0.019285273,-0.021070918,-0.015160423,0.0036484927,0.010170603,-0.00034116008,0.006432156,-0.011454612,0.0029884325,-0.0033432147,-0.022132238,-0.009289743,-0.011267512,-0.0033109125,0.01884647,-0.02404861,-0.0020419597,-0.0041216374,0.026961168,-0.022934979,0.017783716,0.019255394,0.0006154725,0.017364182,-0.0022796213,0.01748534,0.002021644,0.019363066,0.016496679,0.013979097,-0.016975667,-0.024157127,0.016891131,0.026994713,0.0110236965,0.0032450533,-0.017723007,0.00484626,-0.028543051,0.0071030883,-0.0021313098,0.014406229,-0.013762432,-0.0074133906,0.004405046,0.016986772,-0.007953304,0.011577815,0.013730271,0.015405489,0.008531609,-0.0219868,-0.009154061,-0.023034178,0.009829437,-0.02461081,0.011163446,-0.013426756,0.014921224,0.0129758725,-0.009354261,0.0021273012,-0.026919916,0.008096046,0.002276963,-0.00601814,-0.017018925,0.012533518,-0.014326935,-0.009953909,-0.0149219865,-0.028988993,0.016831394,-0.01816545,0.009591488,0.010509049,-0.008573521,-0.012852179,0.0018837933,-0.0025810166,0.004252767,0.0026871555,-0.020000799,-0.023527775,-0.030355208,0.013198523,0.018149314,-0.029219305,-0.025583332,-0.00026120283,0.0076203505,0.016358394,-0.011942734,-0.024921544,0.008079888,-0.01686365,-0.025750646,-0.0060378057,-0.0004897138,0.0046142465,0.018977026,0.023878526,0.026448129,-0.017521817,0.005158284,-0.023671174,0.00070649636,0.0019729757,-0.019241286,-0.018510336,-0.0114221275,-0.0051931604,-0.014344134,0.018419063,-0.008081001,-0.030199416,0.005033781,0.0032528553,0.012396155,-0.018088205,0.013106375,-0.01120124,-0.01485129,-0.025958912,-0.021737985,0.011634858,-0.029442541,0.000320499,0.016066002,-0.02089926,0.014739415,-0.02364653,0.0012498957,-0.009154899,-0.005707705,-0.00812964,-0.02718235,0.011065787,-0.028007748,-0.0243527,-0.023492672,-0.030412946,0.019206285,0.0016159923,-0.00060365396,-0.0022966834,-0.018898614,-0.015895838,-0.027538417,0.008771406,-0.02338889,0.0140568195,-0.017694438,0.009515083,0.0068059503,-0.0297805,-0.029494768,-0.009436913,0.016411249,-0.007868035,-0.03181138,0.0073423013,0.009215747,-0.0018957856,-0.017112425,-0.0093315495,-0.010319172,-0.011121351,-0.003278673,-0.00010928719,0.005991486,-0.018123573,0.011516158,0.012402106,0.001569884,-0.029161131,0.016962562,0.015275313,-0.00833747,-0.009725191,-0.023736635,0.008170781,0.008329915,-0.025991,-0.020920716,0.013777194,0.009786997,0.01632434,0.0034482146,0.015627835,-0.031310063,-0.019763572,-0.013786617,-0.011613288,0.023410883,0.008534401,-0.021571789,-0.020060664,0.03062692,-0.020030389,0.023345932,0.0067610955,-0.030577509,-0.010272606,-0.027295372,-0.016549699,-0.0009573858,-0.0014026712,0.014781353,-0.027124468,0.0029986792,-0.012003645,0.010973744,-0.021738969,0.014685958,0.017419048,0.006841598,0.0061982637,0.01576706,-0.026408058,0.004500598,-0.016255137,-0.022112118,-0.018106392,-0.015306618,-0.024343077,-0.022301402,0.015462016,0.011814913,-0.002888519,0.021474805,-0.018196633,0.017733635,-0.010694966,-0.020347191,-0.025220314,-0.0035140486,-0.0045076017,-0.01993986,0.00022893348,0.009727146,-0.014227878,-0.008244964,-0.01319675,-0.0105017945,-0.0017820774,-0.0013631528,-0.0037966424,0.010757345,-0.023209397,0.012616421,0.013205567,-0.010549694,-0.017031364,-0.024956001,-0.01790765,-0.0024460796,0.016081024,0.018461585,0.0118430145,-0.0068466715,-0.005003728,-0.012702749,0.016164487,-0.010066347,-0.024575055,0.017057119,0.010651235,-0.015461195,-0.002522799,0.010245413,0.0034864866,0.030409621,0.0015733031,0.020836148,0.019511845,0.01963573,0.013921303,-0.001091164,0.011340686,0.012451948,-0.021981657,-0.021127759,-0.00795731,-0.0041499385,0.0033449936,-0.0021592872,0.016051538,-0.024048151,-0.025043687,-0.018545467,0.0124756945,0.017973263,0.009362434,-0.015263276,0.008892614,-0.030840375,0.007923214,-0.012137499,-0.000787816,-0.007848409,-0.029427044,0.007569853,-0.017890101,0.0010440999,0.0147575075,0.014435535,-0.02358316,-0.020710085,0.009546612,-0.015339061,-0.015530408,-0.015525888,-0.019616049,0.006946361,-0.0019107156,0.015397802,0.0013290755,-0.017884929,-0.010607527,0.01850273,0.010567445,-0.028750379,-0.0021028349,0.013366016,0.0032044637,-0.025690032,0.00392037,-0.0049208845,-0.027516132,0.0027804119,-0.026233021,-0.012234516,-0.0079465555,0.026280172,0.01314716,-0.01782582,0.013957726,-0.024380181,0.01051869,0.0009385079,-0.008927287,-0.024276951,0.015769964,0.010304667,-0.0062884786,-0.0053169774,-0.023671653,-0.011173032,0.008864725,-0.027031962,-0.028423939,-0.010184318,-0.014488881,-0.015981473,-0.012055952,0.015495627,0.0033323856,-0.004612704,-0.031222919,-0.016483458,-0.015332285,-0.00011945234,-0.013979243,0.009282641,-0.0028863375,-0.018407794,0.0008904243,-0.026253648,-0.022436855,0.0072989883,-0.031214835,-0.019216835,-0.014843627,0.016905759,-0.0127598755,-0.021270957,0.016873157,-0.018050374,-0.011935132,0.003607797,-0.02915282,-0.011080095,0.001713797,0.0143203195,-0.030002443,0.0027951635,-0.0058562593
0.03199844,0.052285854,0.027833743,0.011184092,-0.010084454,-0.004405887,0.022392951,0.054428935,0.04189448,0.052924044,0.06517284,0.041921236,0.04878169,0.044912543,0.098616205,0.14040294,0.10394189,0.044844598,0.04388456,0.010132015,0.028063525,0.057419136,0.077999696,0.030057088,0.0389216,0.07333537,-0.012856585,0.016355073,0.053406328,-0.009909965,-0.015394925,-0.060531266,-0.00015512641,-0.039654564,-0.009578783,0.012554772,-0.037796218,-0.03014273,-0.07330156,-0.063816436,-0.00784126,-4.734531e-05,-0.0022657893,-0.007061541,-0.021325694,-0.05901707,-0.038240157,-0.028910607,-0.008556691,0.013338491,0.04922483,0.000567595,0.005347738,3.182745e-05,-0.0035857954,-0.0021884975,0.008623639,-0.031864766,-0.04377394,-0.00193825,-0.027107112,-0.029039841,0.0045589963,-0.036728546,-0.021184959,-0.04232216,-0.029244568,0.0211873,0.0028785942,-0.003607549,-0.060448952,-0.005622859,-0.00012772834,0.029676648,0.009743217,0.008497061,0.0044932896,-0.02556486,-0.022046732,-0.013982083,0.0036362417,0.050112553,0.0043015596,-0.0071367742,0.017022641,0.011447218,0.032682315,0.031514946,0.028235922,0.021504132,0.054082382,0.00625075,-0.022795668,0.0020156757,-0.011074171,0.005313214,0.005335311,-0.023127018,0.054461416,0.03223504,0.054571483,0.012474906,0.007322198,0.018208757,0.018042635,0.08324818,0.012039034,0.018131437,0.012932406,0.029868688,0.0329661,0.012939028,0.014858119,-0.009321058,-0.012485156,-0.007531546,0.035601597,-0.031172004,-0.024394218,-0.01879201,-0.054095346,-0.020169366,0.013952907,0.028801411,0.033249956,-0.027776055,-0.02868814,-0.032320958,-0.007872493,-0.021660762,0.04582861,0.0114607345,-0.004558157,0.02788342,-0.0444116,-0.009411709,0.016761946,0.014007989,0.031996507,0.016921444,0.015567287,-0.03639811,-0.011418469,-0.005252791,-0.06411515,-0.041178662,-0.0781725,0.07080209,0.0330646,0.021899294,0.08953818,0.08370115,-0.0076933512,0.003296063,0.050041743,0.09691345,0.09704821,0.043893907,0.050225865,-0.04643022,-0.11902538,0.029307643,0.051211834,0.02877918,0.06195671,0.027197722,-0.03021036,-0.09550673,-0.03460464,0.03579544,0.013824375,0.020292928,0.025350977,-0.015871491,-0.08814061,-0.047739897,-0.018461382,0.013588951,0.019492527,0.015249882,-0.006220278,-0.0867494,-0.03228324,0.0033554765,0.013930262,0.035610583,0.0071858964,-0.061582197,-0.1233263,-0.010020225,0.034589835,0.027206313,0.015200815,0.018769154,-0.031450693,-0.028072195,0.052541293,0.022083124,0.050410047,0.018724767,0.02873233,0.049563985,-0.016227432,0.07412221,0.047972165,0.05802593,0.013585022,0.022611316,-0.005614947,-0.08583943,0.016487116,-0.026830357,0.03026689,0.021721208,-0.02648155,-0.028176617,-0.074258015,-0.054662947,-0.041349273,-0.01736791,-0.025398377,-0.0481164,-0.04245613,-0.06378285,-0.062110227,-0.013032558,-0.020230232,-0.011052532,0.031358186,0.06601984,-0.011174315,-0.010162988,0.00075457944,0.018976873,-0.009852057,-0.013111359,0.01738333,-0.059282307,0.023864457,0.009979792,0.01698449,-0.022527643,-0.05567661,-0.027821917,-0.029786563,0.0434271,0.047915794,0.027018461,0.037774887,0.05980974,0.02173991,0.010402711,0.027698016,0.009984129,0.0065603275,0.027817436,-0.0030572596,-0.031945284,-0.11839455,0.0057884073,-0.011328223,0.021254059,-0.004231204,-0.03239903,-0.09746413,-0.12349092,-0.0038412693,-0.0152404895,-0.009658815,0.008350465,-0.0270485,-0.059687495,-0.10689513,-0.013231995,-0.0052533206,0.0038832736,0.0072686463,0.036897548,-0.027658828,-0.086311355,-0.01978006,-0.00500647,0.047267787,0.03766882,0.006253964,-0.08009412,-0.16459145,-0.0070281154,-0.021317858,0.028913103,0.024347987,0.03276131,-0.059290074,-0.07205552,0.015396871,0.007852672,-0.005844495,-0.041891806,-0.024571823,-0.043290123,-0.02161364,0.09859642,-0.016636891,-0.0362834,-0.05747906,-0.007044826,0.031574484,-0.015612596,0.014822589,-0.02846413,-0.039942566,-0.020415837,0.041626297,0.11661709,0.06811166,0.026628148,-0.061676554,-0.028200421,-0.036207587,0.023489263,0.09294505,0.031533662,-0.03434263,-0.02919569,-0.004156139,-0.026262078,0.05298138,0.039822444,0.02184585,-0.06207172,-0.022604013,0.0011466579,0.008407613,0.02412225,0.023054713,0.025731334,-0.007047872,0.025325747,0.008494499,0.035170045,0.018173726,0.04755242,0.025883578,-0.0005223261,-0.03199324,-0.009147588,0.0035461364,0.011582814,0.05490589,0.014569847,-0.018234631,-0.041217376,0.0032477875,-0.010429871,-0.0013086625,0.013776092,0.0273411,-0.07463841,-0.04949937,0.012758085,0.04163783,0.009732001,-0.010952905,0.04672399,-0.08313525,-0.034720622,0.053468626,0.036336634,0.028687323,-0.006333786,-0.011111013,-0.032325603,0.03305587,0.026175292,0.05706989,0.01658793,-0.039933067,-0.017073547,-0.0028232834,0.006543818,0.049571898,0.03832376,0.019921515,0.029762497,0.041658293,-0.03706601,-0.004570895,0.023814432,0.017492881,0.00636529,0.053776566,0.052214146,0.005676106,-0.08450392,-0.09297579,-0.011934139,0.07732466,0.07200559,0.03905047,-0.041643165,-0.07231616,-0.092849314,-0.0015295949,0.08225209,0.048481684,0.045526043,-0.06909585,-0.12634587,-0.040500022,0.050868437,0.031362563,0.021225002,0.060933594,-0.05147396,-0.045681223,-0.031278543,0.0016650872,-0.032282304,0.0113344565,0.025986249,0.0076952465,-0.022150535,-0.011546626,-0.015461401,0.020086799,0.016807416,-0.0009606379,0.012333548,-0.07235237,-0.026851425,0.01497029,0.029439645,0.0174461,0.03442241,0.021953434,0.028142303,0.02027728,0.043835666,0.031288058,0.03854813,0.05258763,-0.00029103615,0.028970225,0.021121752,0.030463768,0.02213213,0.0030764125,0.04647557,-0.003191571,-0.011953943,-0.005319589,0.05089921,0.03570104,0.010181728,0.079023376,0.011074211,0.14796786,0.090269595,0.026311785,0.029417723,0.04040872,0.039709732,0.02614617,0.16181374,0.18360797,0.031877685,0.016731236,0.015791476,-0.00744154,-0.0075365035,0.163782,0.1276869,0.076332286,0.021083273,-0.016948506,0.020652218,0.011009837,0.089086235,0.0547175,0.04272159,0.039798114,0.030791644,0.03106815,-0.009809329,-0.012867026,0.06079809,0.046270132,0.08728353,0.0665045,0.058114514,0.007202488,0.005757667,0.012527074,0.0494701,0.05716716,0.06739686,0.038921468,-0.037261304,-0.09736835,-0.019797387,0.09935374,0.060514364,0.049449965,0.031242656,-0.07935914,0.06126519,0.023297366,0.04640698,0.030692086,0.03671599,0.024707314,0.016930569,0.052054916,0.03700286,-0.0192726,0.0027760752,0.0002258627,0.020512499,0.009016939,0.081219494,0.030308466,-0.00719954,-0.0049919696,-0.020649739,0.03474609,-0.013688048,-0.0061580134,0.010397677,0.01163588,-0.0018273353,0.048632465,0.06408245,-0.030993862,-0.006997752,0.047715336,0.06491555,0.06724544,0.10669944,0.119393535,0.06629015,0.050717045,0.037230395,-0.017590713,-0.026769867,-0.053316984,-0.0016822513,0.10783429,0.07577908,0.035321627,-0.009887851,-0.022697534,-0.062738754,0.027458051,0.022339873,-0.040983655,-0.06353775,-0.0065638134,-0.030782606,-0.036865376,-0.0051676747,-0.049981155,-0.0639615,-0.08728556,-0.013844053,0.025950128,0.016506864,0.01130709,-0.02796209,-0.05725741,-0.045447882,-0.020787306,0.007932933,-0.035787337,-0.054355424,-0.008776602,-0.029430658,-0.04130863,-0.015418304,0.013445365,-0.022054564,0.008752792,-0.00021180963,0.00918611,0.030809624,0.02725781,0.0012231964,-0.028374264,-0.010996099,-0.00717777,-0.075443715,-0.12826474,-0.027535101,0.08391452,0.08585309,0.032176215,-0.03484864,-0.06466119,-0.08772876,0.009143241,0.09078698,0.08250735,0.041987382,-0.074279316,-0.028204266,-0.008040966,0.05576794,0.02315937,0.043078125,0.034744337,0.007688146,0.013438981,0.033375505,0.010074284,-0.031736225,0.05842984,0.029982056,0.016971985,0.05394802,0.04407936,-0.019002046,0.0069614346,-0.009110351,0.003964248,0.029382735,0.021449957,0.02702075,0.0035718814,0.021987498,0.047519624,0.026395911,0.023163926,0.017654417,0.018215325,0.07905393,0.08065956,0.073167585,0.06578629,-0.012561422,-0.0694332,-0.04895115,-0.050047956,-0.0037510227,0.05451044,0.025873426,-0.04222739,-0.08583076,-0.032067087,-0.016127849,-0.019028937,0.014734669,0.07681819,-0.02130907,-0.039797377,-0.045498077,-0.031521548,-0.058868393,-0.04680007,0.037882123,-0.042650197,-0.03983837,-0.06918672,-0.017752185,-0.06140642,-0.021443253,0.048107572,-0.004150035,-0.018172722,-0.018859483,0.009362157,-0.02498106,0.003499473,0.017284978,-0.010016567,0.021476278,-0.02855348,-0.006539076,0.024280323,0.024014141,0.030501297,-3.5693032e-05,-0.015039146,0.015630431,0.053689227,0.05863793,0.0829415,0.036908504,0.014817123,-0.008324357,-0.0060222945,0.08413041,0.09891207,0.06616143,0.05384418,-0.025902675,0.019073736,0.03609028,0.122564405,0.12749366,0.040146258,0.050387647,-0.044007912,0.0015199449,0.10007288,0.07826443,0.04990669,0.05453544,0.060046893,0.007497636,0.102001086,0.10209551,0.06691219,-0.0036581582,0.020693472,0.0003509315,-0.013866556,0.08614443,0.065531366,0.02136389,-0.005200965,0.02320556,-0.020828076,0.02189161,0.011575322,0.067324094,0.017300854,0.035812195,0.0035730198,0.00010292568,0.0043006176,0.017539399,0.05206839,0.07107623,0.05725425,0.04466184,0.04295486,0.03622733,-0.0077660647,-0.00083908683,0.023521474,0.026088344,0.050478958,0.006578292,0.098786816,0.061354183,0.048954062,0.006691536,-0.012173862,-0.019187048,0.032536674,0.037855092,0.021174995,-0.018989405,0.014879327,-0.02854991,-0.0073642726,0.029543795,0.059428167,0.0065531405,-0.049571704,-0.035199486,-0.021774573,0.03243587,0.039401785,0.018911373,-0.041149613,-0.0518134,-0.031215504,0.048612554,0.0021580553,0.0022131808,0.007912551,-0.043962605,-0.003033506,0.0100280475,0.031269643,0.0033428306,0.011579256,0.020294327,0.0042207334,0.008154948,-0.019138968,0.009357271,0.0018649474,0.0007107418,0.0552611,0.039649297,0.026119128,0.016675781,0.0028022544,0.00453662,-0.019080603,0.025039403,0.00036253827,0.017424112,0.02076354,-0.00039681554,0.03524645,-0.0061349813,-0.008672299,-0.031599183,-0.021381129,-0.013723222,0.01368237,0.03313932,0.037332416,-0.037142657,-0.049682956,0.0040107123,0.04156094,0.051870342,0.055574086,0.004038251,-0.06384623,-0.01763356,-0.008498011,0.017045977,0.050888162,0.03284477,0.009813803,-0.021533838,0.0123756165,0.02236763,0.014950384,0.0642539,0.03410068,0.023026772,-0.0015713153,-0.008517162,0.0066278675,0.027559275,0.017649304,-0.0036598241,0.005292889,0.0034762172,-0.01944562,-0.071089685,-0.045364954,-0.05282348,0.04096838,0.019716237,-0.02876293,-0.06142714,-0.05991946,-0.06963456,-0.0008596371,0.010669921,0.009396008,-0.032817863,-0.08053337,-0.11068199,-0.12064284,0.036779936,0.010481994,0.030888312,-0.0334019,-0.0064045945,-0.007957499,-0.0034440055,0.007350646,-0.048485078,0.029944196,0.01551892,0.032046873,0.01835459,0.032336604,-0.025305608,-0.007149712,0.047435287,0.019541567,0.0067005693,0.026404005,-0.049764216,0.020883689,0.021787137,0.014894733,0.0291341,-0.0029681667,-0.02132253,-0.048501305,-0.017701395,0.023860868,0.014214245,0.054761983,0.02164752,0.0030545914,0.03138926,0.034436066,0.028318895,0.020581419,0.07036982,0.070999235,0.03540894,0.091776274,0.0792038,0.074949846,0.07365639,0.1100424,0.08650046,0.07393403,0.014237786,0.0456555,0.04103985,0.04772085,0.046026863,-0.010100057,0.005949551,-0.034400024,-0.02749216,-0.02612979,0.017335849,0.012646216,-0.03188649,-0.094353646,-0.069879174,-0.019354008,-0.024519317,-0.018755263,-0.0037765063,0.0019009243,-0.010320735,-0.047966115,-0.036437158,-0.039961863,-0.027362524,0.05840309,-0.005616666,0.000835632,-0.04777887,-0.04036793,0.014322645,0.002725861,0.02694035,0.021095121,-0.008976668,0.030270878,-0.0049615265,0.033152424,0.0040861955,0.020240722,-0.023896223,-0.029349145,-0.014222366,0.012292861,-0.00704749,0.016535914,-0.042917427,-0.035262544,-0.004513622,0.015121873,-0.00079445454,0.03553832,0.009342899,-0.05402983,-0.048723597,-0.014036094,0.022423616,0.048707996,0.031886254,0.031657834,-0.054619167,-0.033258304,0.025574494,0.026158562,0.031213185,0.023504337,0.027641656,-0.007409777,-0.0179429,0.010055388,0.03534551,0.01992112,0.044620086,0.00961698,-0.0017507616,0.013825947,-0.004755034,0.011884945,0.0044866055,0.023037849,-0.02733979,0.0011629215,-0.01270227,0.019446643,-0.010236397,0.009261598,0.019290378,-0.0063495613,-0.0068486133,-0.0044519105,0.022529062,0.014935931,0.051219147,0.08462892,0.04122071,-0.06977598,-0.038172513,0.017865062,0.023945196,0.07777431,0.095433414,0.03111618,-0.060045023,-0.014603126,0.0039846855,0.02643956,0.024794232,0.0521732,0.04838393,-0.017320015,0.01528117,-0.03388385,0.010131584,-0.026958661,0.019097194,0.072004505,-0.00057331857,-0.023046589,-0.04095645,-0.042586233,-0.032286353,0.027647175,0.05325282,0.04142784,0.03490535,-0.0028673597,0.023492437,0.07384465,0.060626235,0.010215271,0.032070912,-0.03918528,0.0047168545,0.078413926,0.028462237,0.01846199,-0.027022526,0.00035878184,-0.0065245684,-0.03415736,0.024079282,0.052641574,0.012646025,0.0060776174,0.0047054575,0.01414075,0.03425947,-0.023129132,-0.023761725,-0.03411547,-0.01989576,0.0014454246,0.038721498,0.0030665593,-0.0886588,-0.0398071,-0.081874676,-0.0113580655,-0.018141974,0.04289082,0.02724424,-0.008561079,-0.02995424,-0.06890797,0.027941624,0.0014807897,-0.02879303,-0.021464765,-0.02145261,0.014335638,0.013774403,0.046618324,-0.013273568,-0.011647248,-0.004757573,0.027478639,0.010511368,0.04524107,0.041688997,0.010704699,0.013865845,0.07108459,0.0932802,0.06504982,-0.0037451163,0.0497561,-0.0068915226,0.10557189,0.07681493,0.062445786,0.0438729,-0.012349539,0.041430086,0.034006912,0.116489805,0.13245009,-0.015767574,-0.025511937,0.01072285,-0.01603897,0.031475402,0.10834924,0.09330543,-0.10803458,-0.07704701,-0.016999101,-0.028238798,0.0038904457,0.09305181,0.095091954,-0.02286625,-0.013708033,-0.02105991,-0.02476435,0.019251319,0.035827804,0.056018256,0.020154834,0.040034685,0.036313336,0.04042728,0.021805406,-0.019443598,0.051274493,0.040740397,0.08278992,0.06389935,0.035176322,0.0011477893,0.037029784,-0.0076769507,-0.032232717,-0.027554022,-0.039381117,-0.032693524,0.05550589,0.06594732,0.058808576,0.07717242,0.04990794,-0.010464249,0.027913995,0.05445953,0.038967542,0.041085552,0.037777826,0.021838002,0.0420434,-0.029429736,0.047589008,0.0660326,0.029050699,0.035969697,0.052090764,0.046347797,0.0027816421,0.047603004,0.031964157,0.033897698,0.0150070675,-0.0044747056,-0.02399944,-0.027051808,0.022208765,0.00069018995,-0.027670644,-0.025311459,-0.0064043007,0.060446605,-0.03285443,0.026349291,0.03499156,0.03587338,-0.027403446,0.0040565757,0.01747022,-0.032419458,0.023380836,0.0049566645,-0.0058034565,0.090657905,0.05720967,0.03212053,0.001018083,-0.008173274,-0.008541386,-0.045570094,0.062428422,0.109876856,0.07221719,0.0034688977,-0.009828631,0.06363953,-0.0019398942,0.011598779,0.030980993,0.072552286,0.0067981468,0.029254224,0.085009746,0.06691422,-0.002556178,-0.026192816,-0.034577098,-0.03220194,0.03811247,0.051134318,0.012946006,-0.043951906,-0.038037583,-0.04481281,-0.022797832,-0.02859623,-0.025124889,0.036641944,0.0009807256,-0.0040424587,0.020920953,0.019104822,-0.0005853281,0.007728621,-0.007785869,0.04272443,0.07465953,0.08340454,0.035809938,-0.020154994,-0.016846763,-0.013360872,0.045780163,0.025077512,0.031766403,0.0036521133,0.039609894,0.08105426,0.056402344,-0.0039296146,-0.02993404,-0.018461216,0.01782044,0.080379985,0.12131377,0.09065931,0.02963717,-0.060179178,0.0020731783,-0.0031655137,0.07989773,0.11109878,0.0947854,-0.023114508,-0.08269344,-0.017081901,0.0065665236,0.055750865,0.05004041,0.0125984065,-0.054263365,-0.018075634,-0.021034194,0.04163548,0.02793777,-0.010489201,-0.008704712,8.144963e-05,-0.013239104,0.040956497,0.0360066,0.01175582,0.031404216,0.0071506808,0.001404968,0.040447026,0.02490384,0.039264254,0.04418138,0.041872058,0.028900178,0.04404273,0.038793106,0.02163921,0.0026944217,0.017803043,-0.005671641,0.015232077,0.024376258,0.025185158,0.026350088,0.020690398,-0.037827466,-0.038653366,0.0023768432,-0.0049083172,-0.0029888994,0.0015397851,-0.005600473,-0.014899692,-0.029950678,-0.009205249,0.024970898,0.023944462,0.026615454,0.038398612,-0.017481735,0.00555173,0.023241358,0.0023441825,0.036763247,0.008970047,0.013098922,0.0029721744,0.0021087779,0.031853404,0.04235755,0.013581109,0.019834079,0.016283678,0.0022963886,0.034281615,0.023163663,0.02144467,0.001213583,0.0070020007,-0.010199646,-0.055378426,-0.03523323,-0.0762881,-0.11184427,-0.08691635,-0.022112608,0.008042199,-0.03528613,-0.045014467,-0.1183977,-0.14349113,-0.091828756,-0.059388082,0.011184825,-0.0477127,-0.099356234,-0.06961829,-0.045421906,-0.035338614,-0.073900744,0.0095891375,-0.048724055,-0.024594508,-0.056863997,-0.028294167,0.026428115,-0.049443033,0.018028816,-0.02339513,-0.05073411,-0.0055282637,0.031910636,0.04764353,-0.009453299,0.019220741,-0.011376762,-0.00020085755,-0.042489782,-0.024336219,0.042719133,0.013985471,0.046595205,0.016948681,0.014737221,-0.0076630446,0.045430243,0.09054362,0.07491699,0.039639335,0.029858869,0.041423798,0.0013719522,-0.026642015,-0.09702237,-0.062482983,-0.060189895,0.0829234,0.101079755,0.04604184,-0.0020469255,-0.016882503,-0.0004598307,0.03373467,0.12263573,0.07595705,0.016399052,0.026948739,0.026219383,0.061866846,0.035877958,0.06335678,0.057269406,0.040734697,-0.013979537,0.062160123,0.024707768,-0.017316993,0.07246673,0.054859918,-0.02688578,-0.015960068,-0.012766884,0.021193352,-0.02955491,0.020929782,0.042784072,0.02825019,-0.027113348,-0.006017047,0.041916326,0.013199916,0.006098413,0.010290291,-0.006459308,-0.006067993,0.019041384,-0.007192078,-0.07232827,0.07635612,0.06518491,0.040217295,0.00750505,-0.011479144,-0.050137136,0.0005916023,0.10675958,0.058793906,0.031399976,0.035380386,0.014720383,0.014459287,-0.035211127,0.1464099,0.028589994,0.047043584,0.033943255,-0.018803552,-0.045706104,-0.019264938,0.12575765,0.07036849,0.010411094,-0.07681509,-0.0120685,-0.016362537,-0.03654175,0.02024303,0.0028986228,-0.033561025,-0.037362847,-0.0056791995,-0.027371064,0.013997743,-0.01845267,-0.010281882,-0.00015386936,-0.010709309,-0.027526012,0.012468258,0.0011218352,0.028090885,0.035957817,0.0055982717,-0.02669065,-0.04910336,-0.06332529,-0.0857048,0.001020867,0.02665085,0.012223255,0.02561117,0.022356665,0.0012452023,0.039942194,0.01581761,0.008893343,0.0057389187,-0.020279884,0.040471062,0.023639694,0.073584944,-0.019850567,-0.012638302,-0.0072514922,0.037308794,0.03926071,0.024034426,0.025868455,-0.04151997,0.013304423,-0.011653128,0.029850783,0.0007340974,-0.031836376,0.0034090707,0.034299772,-0.010655827,-0.038026165,-0.012089489,-0.035131488,-0.053542003,-0.00046242986,-0.0023558005,-0.0074315597,-0.063225105,-0.07999091,-0.076158635,-0.029203665,0.008562045,0.050858933,0.026601681,-0.023386478,-0.01838871,-0.011887375,-0.0048373677,-0.008561126,-0.00210033,-0.05615133,-0.06662954,-0.04471152,-0.04392649,-5.8029513e-05,-0.043819964,-0.024075681,-0.03106565,-0.032298207,0.02734942,0.025495559,0.025901796,-0.051403735,-0.060600895,-0.018033754,-0.026167369,0.016676791,0.02042503,-0.013052567,-0.030547408,-0.07937489,-0.015430833,0.0021602816,0.022316072,0.038887996,-0.033819884,-0.04304254,-0.07807577,-0.015652522,0.04902821,0.044537786,0.007847894,-0.009534001,0.036869608,-0.010450084,-0.012803687,0.018515762,0.0523486,0.024282537,0.010761178,0.085830934,-0.015978664,0.013604875,0.046686467,0.022299191,0.049197905,0.08158805,0.05971655
-0.0056589474,0.006407287,-0.024338687,0.016317703,-0.033298254,-0.021494254,0.0010958781,-0.025819061,-0.027945656,-0.036798894,-0.01754073,-0.030416848,-0.051178984,-0.04647341,-0.040504046,-0.005916858,-0.031740062,-0.078606956,-0.00020428498,-0.009300679,-0.039753545,-0.00044638375,0.020735526,0.0011828948,-0.024815576,0.016473465,-0.032491982,-0.01570267,-0.012845862,0.03473026,0.011028179,-0.04006551,-0.0738453,-0.003897938,-0.037218884,-0.0028441364,-0.011193885,-0.0035019838,0.022313606,-0.042994406,-0.0056370967,-0.003975407,0.0031182535,-0.0053929538,-0.004601297,-0.023053158,-2.0358642e-05,0.008732516,-0.028152797,-0.020050606,0.002398493,0.010448137,-0.028085029,0.020157196,0.0069908625,0.008859849,0.02227431,0.010837091,-0.0064890604,0.023279265,0.004060988,-0.0050511085,-0.019603714,-0.023971254,0.0104969805,0.020328902,-0.021746803,-0.039435856,-0.023005208,0.0037292165,0.01764518,0.007827244,-0.0011674647,-0.03142873,-0.016018072,-0.0065068495,-0.0050348323,-0.032497063,0.0017590593,-0.012107952,-0.02202571,0.0055903355,0.0023974462,-0.02989385,0.011287885,0.020801805,0.01804455,0.016872162,-0.024435442,-0.052261755,-0.040366996,0.00821218,-0.00626648,-0.026829543,-0.0031469862,-0.023282485,-0.01735728,-0.011606942,-0.009858491,0.004183094,-0.024675673,-0.027098825,0.012553556,0.045640796,0.02842006,0.007930229,-0.0254137,0.021978723,-0.019389337,-0.0038261174,-0.011250382,-0.011255261,-0.0009990097,-0.03965691,-0.02999695,-0.02159894,-0.038941875,0.0028818417,0.0027713496,0.00456347,0.005313807,0.0018010228,-0.0070446106,0.0066469186,-0.013327602,-0.018045088,-0.0480756,-0.02693927,-0.021367257,-0.014438939,-0.032919534,-0.049664382,-0.009966102,0.0016117439,-0.0034467753,-0.016421283,-0.0188477,-0.04092534,-0.068128735,-0.044241894,-0.013220213,0.044794824,-0.019795045,-0.022381868,-0.015612366,-0.037573077,-0.020309152,-0.005479387,-0.001319855,-0.0050252047,0.015995348,-0.011047834,0.008895471,-0.023775177,0.020180102,-0.02331277,-0.005616568,-0.03015777,0.013727688,0.06354728,0.0023578012,0.009182693,0.003537082,0.0154717285,0.037194088,-0.03083711,0.029117,-0.018680304,-0.020270858,0.0053209634,-0.017596478,-0.011323688,-0.022881974,-0.045081593,-0.053623404,-0.013433732,0.011579601,0.0101645,-0.00786559,-0.03121539,0.015219563,-0.012148685,-0.010163904,0.015788099,0.012876931,-0.01811432,-0.016312884,-0.031134343,-0.012785531,-0.032788076,0.005133287,-0.0060588685,-0.04892883,-0.030837994,-0.019001074,-0.01685132,0.022565372,0.014532319,0.013967474,-0.009052932,-0.0018044882,-0.018604094,0.004532518,0.03810337,0.011933409,-0.018481037,-0.033970322,-0.009246297,0.011206432,0.014273139,-0.021682005,-0.0020134917,0.004108589,-0.022104416,0.004643432,-0.0030004128,-0.009113027,0.016007215,0.0054494175,0.0062413933,-0.010239849,-0.002503522,-0.0014499625,-0.00044927603,-0.037331928,-0.011604797,0.03024013,-0.009909386,-0.0017023877,-0.020197565,-0.022516722,-0.006548462,-0.01582297,-0.010953392,-0.0016418432,-0.04287558,-0.029323628,-0.029211693,-0.010659118,0.0126658045,-0.02709358,-0.0048601544,-0.046424083,-0.036233105,-0.027500382,-0.012502878,-0.00472907,0.00509903,0.038514648,0.022960326,0.00721347,-0.013352691,-0.0071502505,-0.00725565,0.0064072474,-0.0020219765,-0.009176522,0.023189934,0.0071730767,0.00078480947,-0.00012256464,0.015550678,0.0052983933,-0.03229569,0.028580831,-0.015887296,0.009947798,-0.024595987,0.009747781,0.0080183605,-0.00954167,-0.017296981,-0.031856716,0.008466428,0.02054713,0.017368147,-0.0072216005,-0.029142564,-0.03442623,2.1221958e-05,-0.012648913,0.023854412,0.024069145,-0.045155525,-0.05218666,-0.019126404,-0.0030509396,-0.015768599,-0.023018628,0.020928657,-0.011657781,-0.03898017,-0.041253418,-0.03269957,0.015643656,-0.0082865665,-0.044805497,-0.027876677,0.007224853,0.029599253,0.012308278,-0.009601648,-0.016147966,-0.026953142,-0.02726481,-0.023077296,0.013995727,0.011430334,0.00406173,0.00045276008,-0.01795184,-0.00238692,-0.017691126,-0.039470013,-0.0072471765,0.038750354,-0.013049418,-0.020374725,0.0033782697,-0.018399356,-0.004577977,0.02195901,-0.0071655405,-0.00015055599,-0.006533127,-0.0096483845,0.031056095,-0.028101828,-0.011843082,-0.039786898,-0.030213932,0.023403365,-0.0072194887,-0.01358952,-0.022946956,-0.032558326,-0.027346998,-0.00015107561,-0.022541992,-0.021003239,-0.06483124,-0.029057119,-0.03762089,0.023165401,-0.019934883,0.013953203,-0.026027687,0.020318024,0.05756958,0.044793077,-0.004378705,-0.010620785,-0.004519929,0.0039624246,-0.036067583,0.011859351,0.012330252,0.00762791,-0.04822419,0.021345694,-0.00633614,-0.0055695293,0.029728692,0.03156327,-0.02829933,-0.035544284,0.0051006908,-0.0049925,0.013962421,-0.010524581,0.038863957,-0.034867905,-0.03872432,0.0018196942,-0.018296301,-0.010242624,0.011804192,0.026537498,-0.037794087,0.018747268,-0.00995075,-0.043645542,-0.022189196,-0.034016367,0.0147641525,-0.028962621,0.0019064568,0.0006268274,-0.010730704,-0.029943274,-0.0034200915,-0.014328358,0.0021800695,0.007432873,0.019343542,0.00989968,0.0015921074,-0.026796065,0.023728222,-0.024818253,-0.007183216,-0.015171425,0.005730052,-0.005821341,-0.036797978,-0.010299173,-0.008112119,0.0034122688,-0.018679122,0.015568106,-0.00854418,-0.011458758,0.009505621,-0.012278739,-0.041344468,-0.03515496,0.0077251745,0.0056474376,-0.029233046,-0.0061287335,-0.017593103,-0.025421578,-0.05106509,-0.02387662,0.0373602,-0.031459626,0.007894755,-0.016760841,-0.061813537,-0.019237895,0.007098851,0.020061713,-0.033452857,-0.007579685,-0.04418647,-0.035102695,-0.012442964,0.013036771,-0.026299786,-0.032305453,-0.013933122,-0.021808198,-0.044040866,-0.016285883,0.035020847,-0.004675931,0.024485871,0.010383653,-0.0009646248,-0.01435158,-0.038110238,-0.0100397365,-0.020830527,-0.006578256,-0.017442668,-0.023027329,0.016742334,-0.0303579,0.016696997,-0.007350478,-0.009371862,0.002411051,-0.030822719,-0.041724026,-0.041131534,-0.0144319255,0.00087776734,-0.022005595,0.012026546,-0.0030235713,-0.056070704,-0.051737055,0.022581087,0.019029224,-0.00967833,0.009778387,0.015116253,-0.038785793,0.003822964,0.01132545,0.018782254,-0.01560819,-0.00059960387,-0.036655135,-0.0021012395,-0.008126606,-0.0084518185,-0.01851461,-0.011541234,-0.03723127,-0.028734738,0.014092091,0.009151519,0.029430844,-0.009363648,0.024506008,0.003750896,-0.025649888,0.015790405,-0.014528093,0.006333833,-0.0053976807,0.009891667,-0.029569948,-0.02928771,9.880586e-05,-0.02969138,0.01499338,-0.02079029,-0.005444941,0.0078408625,-0.0056550973,0.016135348,-0.04387079,0.023085313,-0.004508267,-0.016493255,0.020868842,0.013859506,-0.022561084,0.011106558,0.011156981,0.0022059197,-0.011643775,0.019939816,0.0075278967,-0.06673144,0.021379413,-0.0007280501,-0.012938856,-0.016828246,-0.0056946264,0.0064526405,-0.005272694,-0.008948928,0.0008202953,-0.027233446,-0.0387997,-0.0147260735,0.036478918,-0.022569006,-0.055832382,-0.008224019,0.011542434,-0.013952291,0.0047758925,-0.009578049,0.013670308,-0.006414762,-0.03556549,-0.030305255,-0.025223535,0.0036498657,-0.031650186,-0.02633536,-0.0026456527,-0.026433146,-0.020508384,-0.03165393,-0.011105537,0.016295316,0.0055939797,-0.04735057,-0.034071624,-0.026531534,-0.04403136,-0.015432659,0.020484524,-0.0032076035,0.020654539,0.022523865,-0.010923566,-0.025875153,-0.013364348,-0.021652086,0.0160528,-0.0059095626,0.015680248,-0.008797011,-0.05225906,0.026327789,-0.033485144,0.005508027,-0.005427163,-0.021675335,-0.04854577,-0.0473372,-0.035205964,-0.008966277,0.020448174,0.024297526,-0.0034534717,-0.019897602,0.0020234073,0.024986424,-0.02380433,-0.034559883,-0.03300902,0.020605432,-0.014026436,-0.029196613,-0.006533918,-0.029746631,-0.038909927,-0.020522447,0.034944642,-0.00958989,-0.0323607,0.0038369512,-0.051346112,-0.028758518,-0.040143967,0.009445607,-4.0684765e-05,-0.018734835,-0.005927705,0.018120581,-0.017671213,-0.023157634,-0.033840276,0.05311373,-0.006313321,-0.010448643,-0.022063334,-0.060889345,-0.020426417,0.008558028,-0.0119630555,-0.011955561,-0.0032029657,0.003013215,-0.03357318,-0.014233002,-0.010562722,-0.030746885,-0.04811801,-0.041016053,0.018326912,-0.0024353012,-0.014665214,-0.00199626,-0.013372683,-0.00067450805,0.0016001171,-0.0025247685,-0.036274884,-0.006569558,0.0033308002,-0.025261328,-0.031998817,0.025577027,0.0041830083,-0.0072383345,0.027991168,-0.014559761,-0.004007801,0.0035604173,-0.020120623,-0.014844393,-0.027149761,-0.003581442,-0.051254213,-0.030931486,0.0040374785,0.018978681,-0.030372951,0.006900784,-0.0140222795,0.0036839359,-0.03680427,-0.016969083,-0.010253671,-0.048572343,0.0057821325,-0.043731675,0.011667584,-0.013711321,-0.013221142,-0.025459625,-0.027302979,-0.026003579,-0.012286466,-0.030685384,-0.0032230916,-0.03366789,-0.015035972,-0.015257571,-0.005891869,0.0008585861,0.020598395,0.012291251,-0.033214726,-0.003878493,-0.021049717,-0.028429702,-0.018396255,0.0072803306,0.011528522,-0.03175189,-0.0033908242,-0.03890026,-0.0013544641,-0.05861412,0.01070384,0.022479568,-0.042748794,0.002075071,-0.0041656275,-0.008550267,-0.017812693,0.030858267,0.023108557,0.007294328,-0.0017436648,-0.015610496,-0.0068515423,-0.046472214,0.014443939,0.0025190152,-0.012374232,0.0014347557,-0.022160407,-0.054235846,-0.021321237,-0.01652786,0.01175559,-0.04998239,-0.003898765,-0.003425274,-0.05587187,0.004826378,-0.013749984,-0.029127004,-0.030748403,0.0043885363,-0.031698693,-0.006689923,0.0012309003,-0.03484289,-0.026126022,-0.025922254,-0.009990766,-0.0036919955,0.00554778,-0.028544983,-0.05807905,-0.0003239834,-0.022216335,-0.0045918105,0.0011371945,-0.0059967614,0.021532515,-0.043650795,-0.0136608295,0.028047977,-0.028381491,0.002795374,-0.024147272,-0.032669883,-0.011315763,-0.009604906,-0.022124536,-0.008137762,-0.0070526055,0.005496086,-0.011422215,-0.02530184,0.014315067,-0.00010734045,0.018783115,-0.038325217,0.0069647143,-0.011820648,0.004345266,0.0027730016,-0.028451249,-0.0031596438,-0.02905753,-0.028616792,-0.030217191,-0.013230558,-0.044913016,-0.04348086,-0.009437153,0.02436603,-0.027568294,-0.04944447,-0.018901084,0.028989121,-0.012441914,0.01669782,-0.022262618,-0.0072834725,-0.010888046,0.0016505953,-0.027261684,-0.01335595,0.0016913925,-0.017527942,0.0048096785,-0.011832034,-0.020333061,-0.007798215,0.011329451,-0.02053928,-0.021487,-0.00047147792,0.014072118,-0.0071382415,0.009079748,-0.012676171,0.01702567,-0.030654488,-0.017061528,-0.0010605489,-0.022638163,-0.023378111,-0.038668394,-0.035530988,-0.02081941,-0.0043338165,-0.0084696505,-0.012120195,-0.037840605,-0.06957725,-0.035806227,0.0026172344,0.009905335,-0.027352614,-0.019288173,-0.068377376,-0.0394714,-0.03911871,0.0043622577,-0.0024227689,-0.012133893,-0.017229624,-0.019226054,-0.008817199,0.0027869707,-0.010774416,-0.0034883143,0.016657246,-0.021319853,-0.022467408,0.0065169255,-0.020738285,-0.03707803,-0.026564723,0.003910835,-0.012996081,0.007886319,0.016205745,-0.016691739,-0.007454147,-0.020256687,-0.028907351,-0.0032485165,-0.01014307,-0.021291146,-0.009566207,-0.003814856,-0.031766273,-0.03464407,-0.030974038,-0.0074144895,0.018557543,-0.023269974,-0.020137623,-0.025179291,-0.04568864,-0.03276707,0.024720266,-0.006333574,-0.019348787,-0.03697729,-0.021689124,-0.004999419,0.029675094,0.02798833,0.008112653,-0.029449912,0.009622951,-0.033094186,-0.027712584,0.011106294,-0.016965214,-0.012975401,-0.023201806,-0.044373754,-0.035609875,-0.01651236,0.010030455,-0.0026453587,0.016528223,0.028268054,-0.029472236,-0.027795669,0.017659795,0.022071023,0.014450029,0.025703527,0.020843362,-0.022381764,-0.024715887,0.011343487,-0.027144348,0.022009432,-0.026572643,-0.015075415,-0.00070160994,0.023151884,-0.017124794,-0.004551967,-0.017357303,0.036146913,0.014956708,-0.027160188,0.0038113082,-0.0032119618,-0.014806598,0.035033036,0.004781289,0.04469867,-0.02493625,-0.002050586,0.0046822075,-0.016288575,-0.041159086,-0.03554058,-0.021648888,0.018189149,-0.017019667,-0.015599387,-0.005883836,0.012605532,0.02332874,0.014197347,-0.020634877,-0.010464493,0.010631343,-0.0110094305,0.007916615,-0.016987756,-0.010623259,-0.005675559,0.0028408605,0.002389163,0.008215879,-0.0027085594,-0.037813306,0.025252366,-0.013355132,-0.030454975,-0.017357742,-0.014048254,-0.022551209,-0.02990506,-0.030850967,-0.038907688,-0.018773714,0.0185993,-0.015949035,-0.03832938,-0.027527187,0.028660517,-0.035206717,0.014902699,0.012997253,-0.044257466,-0.038021687,-0.050130565,-0.012344344,-0.036311895,-0.016480241,-0.028436987,-0.046506282,-0.033483967,-0.05688849,-0.011914307,-0.008449183,-0.016883539,0.0044360925,-0.040239185,0.011876702,0.040465277,-0.025875788,0.022155482,-0.010538424,0.024295356,0.0049116043,-0.035860147,-0.0018927068,0.007841937,0.007363865,-0.0022715705,-0.031721503,-0.010080024,0.010955105,0.0015844703,0.0121301655,-0.029601173,-0.012427627,0.008515631,0.020876653,0.0053306464,0.026615825,-0.0026384718,-0.035964884,0.0068526794,-0.02533136,-0.0082551725,0.0006723882,-0.04125897,-0.026720693,-0.011356423,-0.014530642,0.0125025315,-0.005850119,-0.03736147,-0.05418999,-0.022746447,-0.038734563,-0.010420057,0.009961554,0.006050596,-0.01191401,-0.025709264,-0.0026078238,0.0071664248,0.0069675487,-0.0037512966,0.0006805034,0.012085501,-0.009951284,-0.011616411,-0.03481397,-0.03152598,-0.025809187,-0.0048247674,-0.020437928,-0.028551355,0.001121222,-0.017852923,0.0051092347,-0.011329614,0.004502119,-0.01811559,0.027532151,0.027047805,-0.029882316,-0.022656512,0.009628485,-0.030486768,-0.011369387,0.012386889,-0.009853001,-0.01971238,-0.052528236,-0.023749165,-0.02121812,0.0016940705,-0.019970091,0.011398923,-0.048981305,-0.013710992,-0.03954681,-0.030120438,-0.040025048,-0.0154225705,-0.012118527,-0.00061219506,-0.029389419,-0.0419432,-0.039693758,-0.008631095,0.005034471,-0.027991919,-0.01718511,0.005774217,-0.0070598805,0.028576823,0.0009488038,0.004813309,0.03015187,-0.03225407,-0.035106532,-0.059017383,-0.011525138,-0.012583481,-0.040920775,-0.006454087,-0.018688751,0.014297027,-0.06084433,-0.022746759,0.010969159,0.0011545651,0.019404838,0.010594218,-0.034873903,-0.017063713,-0.0021372312,-0.013066248,-0.002557644,-0.008343783,-0.027107297,-0.031467162,0.007902544,-0.02172276,-0.020905823,-0.021584742,-0.002419554,-0.02375139,-0.057521187,0.011110862,0.0060193804,0.016675683,-0.021712992,-0.043294325,-0.025480298,-0.0353042,-0.020107297,-0.011742585,-0.022153787,0.0061796363,-0.040654477,0.026277894,-0.024209354,-0.008003826,-0.02205854,-0.02081189,0.002969063,0.007228509,-0.023879433,-0.020091135,-0.016894642,-0.020893544,-0.005293461,-0.0026696739,-0.019697458,-0.016237136,-0.015264266,-0.028293334,0.014386631,-0.035998665,0.022492768,0.0092092445,0.022078788,0.00018839173,0.012086167,0.019915843,-0.013842179,-0.00421129,-0.011850253,-0.020461677,0.0071033696,0.004257219,-0.016590351,-0.014133159,-0.042279344,-0.0074603893,0.049149822,-0.0012663383,-0.004788787,-0.03229826,-0.043832757,-0.025007796,-0.027442021,0.0057397075,-0.020283425,0.03666998,0.031294987,-0.027473798,-0.022815589,-0.0029956293,0.0035231872,-0.006613528,-0.021333938,0.0033991702,-0.05519031,-0.019617094,-0.0064084763,-0.017688353,-0.016487524,-0.0068527716,0.035902455,-0.009858915,-0.016443467,0.0016962254,-0.03594814,-0.0098739285,0.0053977733,0.0016032552,-0.025203958,0.0100773685,-0.0038465804,-0.034044344,-0.047384303,-0.013479639,-0.019878926,0.0032051362,0.016923824,-0.0021004188,-0.023113465,-0.025183965,0.009039242,0.0010771477,-0.015545005,-0.007492798,0.023699544,-0.02595055,-0.031124284,0.013390169,-0.036444448,-0.014831382,0.021385742,-0.009534765,-0.026672948,-0.016658673,-0.00796358,-0.008940121,-0.026376145,-0.008504262,-0.010263939,-0.023085779,-0.03107075,-0.032670654,-0.012129586,-0.039509892,-0.037290003,-0.0021462392,-0.024829386,-0.021934547,-0.019135337,-0.03157636,-0.012393542,-0.027087592,-0.0070940387,-0.041407306,0.020500613,0.012307316,-0.03556751,-0.023557,-0.013676745,-0.012050571,-0.009498708,-0.03659743,-0.049966358,-0.01151933,-0.039058257,-0.002295377,-0.02017938,-0.021104975,-0.009405381,-0.013716742,-0.032047126,0.017898086,-0.013789687,0.007375806,-0.045609448,-0.016422475,0.0056829886,-0.013054664,0.0077218246,-0.033526227,-0.012691403,0.0021219703,-0.0013594177,-0.034659818,-0.017347626,-0.02525257,-0.038427684,-0.019192694,-0.005034797,0.0025584046,-0.014358443,0.010673262,-0.0073495302,-0.028730515,0.031616315,0.010837019,-0.0132905,-0.0010021481,-0.010835651,-0.0020936108,0.0038140982,-0.01322708,0.0014249736,0.013254173,0.010282721,0.009570425,-0.02998786,-0.021621687,-0.00013441507,-0.029264325,-0.042487085,0.018553311,0.004429572,-0.016522909,-0.017985044,0.014319518,-0.043380994,-0.030282978,0.018167656,-0.026797887,-0.021226006,-0.026488444,0.0069110338,-0.028222103,0.006483534,-0.008093447,-0.009466546,-0.06495215,-0.06407569,-0.05230828,-0.016417144,0.01228568,-0.0274152,-0.027704718,-0.030261304,-0.018183341,-0.01624999,0.028908068,-0.00058166677,-0.009140036,-0.0016091405,0.03455032,-0.0066628354,-0.011958497,0.0071580643,0.009448346,-0.0132748345,0.0010074631,-0.041098956,-0.0022398657,-0.015207209,-0.029609136,-0.034876544,0.007014485,-0.0010886227,-0.00022033941,0.026952503,-0.011490571,-0.01994091,-0.0066649164,0.011332332,-0.011280922,-0.010744918,-0.025238981,-0.024999758,-0.030996911,-0.028121028,-0.0130442865,-0.0025550297,-0.011034931,-0.0027513718,0.007394012,-0.047205925,-0.021456685,-0.019937063,-0.042232297,0.0068647014,-0.011015282,-0.0043320097,-0.011852104,-0.04097655,-0.018849395,-0.0060089473,-0.019724943,-0.014853729,-0.019652514,0.017617872,-0.04268262,-0.022725245,0.015386384,-0.006956408,0.018504214,-0.004353603,0.0028731013,-0.025048625,-0.03348846,0.02783486,0.0014307988,0.0062534744,-0.00090605806,0.020440327,-0.025008613,-0.011024452,0.013340444,-0.011027699,-0.025391461,0.015024667,-0.04189903,-0.017696133,-0.03405075,0.0068024937,0.0023992716,0.015666671,-0.0021226325,0.029977785,-0.028708354,-0.004722996,0.015232879,-0.00037354944,-0.03943497,0.0032598884,-0.043145902,0.035529956,0.0326832,-0.0058231167,-0.058310896,-0.03028189,-0.03199708,-0.0019172053,-0.03898075,-0.045166463,-0.029255405,0.038533986,0.00021891737,0.0013032967,0.009691325,-0.035591014,-0.038652785,-0.015998947,0.025167234,0.027742714,-0.0097287325,-0.0094783595,-0.033857953,-0.005099032,-0.024210509,0.00044331147,-0.025468936,-0.0022483047,-0.020425228,-0.019591361,0.012753814,-0.017392239,-0.03976248,-0.015841173,-0.02691367,0.0063877734,0.022418687,0.0070035784,-0.052262716,-0.02156385,-0.0013307165,-0.02587988,-0.016421247,0.022544838,-0.029168433,-0.0036798776,-0.020649023,-0.032039464,-0.030241435,0.006876431,0.032526493,0.038411506,-0.037868164,-0.07188365,-0.065095305,-0.037338905,-0.014908623,0.031125113,0.016428012,-0.00172042,-0.006970723,0.004696085,-0.011752271,0.01160233,-0.019265743,0.014065842,-0.009369456,0.003527641,0.019699812,-0.013800159,-0.025120571,0.0049758027,0.0019866936,-0.00580124,-0.043474156,-0.033797767,-0.010732763,-0.035654303,-0.02418417,0.00871692,-0.019606607,-0.025725441,-0.040747218,0.028175568,-0.044595476,-0.042828266,-0.008041273,0.020040547,-0.0060056862,-0.034604266,0.0030704534,-0.039967157,-0.019388707,0.0007731413,-0.03468017,-0.023481453,-0.034372788,-0.015635278,-0.0055653146,-0.0055340063,-0.051286202,-0.026013525,-0.034503486,-0.022334615,-0.044407606,-0.037080754,-0.03390871,-0.004193756,0.02028194,0.012904393,0.019347923,-0.0103012845,0.008707088,-0.0015876621,0.022776613,-0.018160377,0.013258423,-0.013250621,-0.027693765,0.0018704087,-0.0065587373,-0.017425356,-0.016865553,-0.016897043,-0.022994932,-0.008020317,0.006233702,0.0067336457,-0.02240567,-0.02336645,-0.013312002,-0.018856563,0.0155416345,0.0058681616,-0.007925551,-0.022072973,-0.03644028,-0.018088704,0.017097715,-0.0086468235,-0.0129502695,-0.035465296,-0.0026558337,-0.009051492,0.002853146,-0.016047187,-0.0060500787,-0.057582624,0.0037175457,-0.010235844,-0.044969574,-0.0037948904,-0.0037466849,-0.04215424,-0.020116968,-0.012790023,0.0035325356,-0.028910091,-0.046423715,-0.035237305,-0.010445366
-0.039443254,-0.012997428,0.009891599,0.0375204,0.04418718,-0.000157407,0.0065027536,0.007412486,-0.02164158,-0.014914892,-0.07922138,-0.058330316,0.0039979555,-0.020461306,-0.026258877,-0.043842386,-0.07370399,-0.09070677,-0.018830154,0.0244744,0.05445238,-0.014166405,0.00042359793,0.0052721906,0.0641018,0.041023403,0.053178344,-0.0036666975,-0.010748579,0.035858456,0.015328,0.084789656,0.052105557,-0.027459746,-0.045325607,-0.006487147,0.036404572,0.033184104,0.021057967,0.019250419,0.007850116,-0.0083462,0.021957755,0.06911237,0.033037078,0.041824613,0.018643394,0.01988029,-0.02504912,-0.0027626357,-0.007452427,-0.00358854,-0.04571535,-0.044100117,-0.059011925,-0.06358423,-0.060317673,-0.03099839,-0.059922405,-0.020281702,-0.005132912,0.036777962,0.00068445003,-0.012322776,-0.04666124,-0.02104227,0.003763705,0.038404018,0.016494047,-0.01105117,-0.0032261258,0.03096583,0.007010654,0.03446214,-0.029585714,-0.013642327,-0.01448121,0.00015330059,0.010634481,-0.012575394,-0.021313664,-0.044716414,-0.038215157,-0.0015839122,0.00016611251,-0.008859372,-0.003789025,-0.03607871,-0.038237885,-0.08028458,-0.049419127,-0.064647645,-0.08765694,-0.06695992,-0.04055673,-0.046339367,-0.05074492,-0.05354765,-0.004716816,-0.029977199,-0.0049133156,-0.018881379,-0.044505674,-0.024538903,-0.0015648247,-0.0097426,-0.033212647,-0.005843147,-0.005572185,-0.01911437,0.024635598,-0.010010212,0.03155621,-0.011420187,-0.016228575,0.0019994823,0.0012386912,0.036444213,0.03833387,0.06556998,0.02644765,0.027531767,0.032931175,0.003260258,-0.03632249,0.021507904,0.13378848,0.08389735,0.017777242,-3.8139824e-05,-0.058851548,-0.051348243,-0.03218987,0.06892434,0.09251795,-0.0064271153,-0.04640745,-0.115593836,-0.082516216,-0.104470074,-0.042185403,-0.042276233,-0.06421689,-0.09563604,-0.046054352,-0.04269918,-0.08689437,-0.0013641331,-0.010199415,0.018463755,-0.0079925135,0.054261487,0.035225764,-0.034222096,-0.007756545,-0.021573171,-0.038274933,-0.063157484,-0.028076021,-0.07046204,0.017425448,-0.047120683,-0.019351354,-0.054658048,-0.059476104,0.021980759,0.03957676,0.023861011,0.021603199,0.016061837,0.042595398,0.010805937,0.024940753,0.044280645,0.019830287,0.07061932,0.08822886,0.08082982,0.027821772,-0.029275581,-0.09168404,-0.10265199,0.10361758,0.082194544,-0.009293228,-0.05150739,-0.069705635,-0.035430443,-0.069429345,0.020664066,-0.016596803,-0.020032393,-0.07983539,-0.07920356,-0.104312345,-0.07394663,-0.06599699,-0.041272253,-0.02825811,-0.013693386,-0.017855262,-0.03770545,-0.010357028,-0.036909506,0.007121082,0.037742827,0.021821765,-0.067841,-0.09161164,-0.025354538,-0.02111289,-0.05119395,-0.0068893638,-0.020225912,-0.025846211,0.09054972,0.1332779,0.0484275,0.03281132,0.031090686,0.036227267,0.0030431347,0.07192816,0.08452892,0.023146227,0.022035806,0.02219473,0.080751784,0.027233735,0.03820551,0.01002753,0.036579702,0.017169362,0.018226335,0.01934521,0.052678578,0.03944542,-0.055752918,0.03152579,0.036321945,0.028415328,-0.0012335505,-0.0070826528,0.005430118,-0.015375846,0.023107208,-0.010021194,0.036147486,0.013106244,0.0010943114,0.016870232,-0.004956478,-0.014453792,-0.012392558,-0.03196205,-0.06291349,-0.08417818,-0.04984974,-0.08551187,-0.0481799,-0.024216263,-0.09023144,-0.071255505,-0.0012551286,0.068199694,0.09322299,0.023471644,0.046604834,0.023483483,0.09907942,0.05482227,0.07378885,0.049572993,0.078037456,0.06294372,0.070190884,0.010732901,-0.11869196,-0.22487375,-0.1420265,0.07460873,0.05204923,-0.0036952808,-0.059886005,-0.18698159,-0.21423216,-0.17250578,0.0049850233,-0.08069333,-0.095786855,-0.11445087,-0.13383012,-0.19874479,-0.14520115,-0.016891643,-0.023794444,-0.05895423,0.055755407,0.0631347,0.023618741,0.014762809,-0.036328252,-0.08394177,-0.054565802,0.03570794,0.056864616,0.08776682,0.033989068,-0.08439392,-0.03863655,0.060976077,0.055607572,-0.027348055,-0.055994555,-0.031275027,-0.0032727353,-0.005673981,0.034944225,-0.02247216,-0.0519666,-0.07961533,-0.01785729,0.0056696516,-0.0171993,-0.01659472,0.006645839,0.040103346,0.011573031,0.077152774,0.0071757305,0.05401293,0.060046565,0.037526343,-0.009753099,-0.009961924,-0.05420723,0.02540927,-0.013882946,0.0042388234,-0.031867962,-0.06587148,-0.08761376,-0.07452613,-0.00011673079,-0.023568468,-0.024041083,-0.018198172,-0.05673278,0.014264814,0.048530888,-0.040731218,-0.011424067,0.005044043,0.0302501,0.02342569,-0.014340345,-0.018286558,-0.01020116,0.07228481,0.042467296,0.04701903,0.039158624,-0.001534406,-0.0048632277,0.008333013,0.03756258,0.06310169,0.006493196,-0.007444553,0.024534293,0.04329389,0.08688144,0.055660374,0.028981857,-0.007080368,-0.03127559,-0.0588186,0.0057143755,0.04818445,0.041457042,0.02823545,-0.03237859,-0.053674,-0.11482502,-0.06168577,0.011695359,-0.0565512,-0.06720735,-0.06979796,-0.08295968,-0.09684891,-0.10273521,-0.04386823,-0.028763426,0.03371105,0.07847773,0.1413286,0.04387215,0.019498952,-0.011028391,0.04210914,0.042463917,0.04166244,0.0597986,0.042803925,-0.049266122,-0.004895845,0.059890445,0.031933825,-0.010703209,0.009567937,-0.018379366,-0.03034872,0.02284532,-0.07433416,-0.06471057,-0.027105255,0.05393893,0.015105216,0.009235518,-0.004865098,-0.11459197,-0.02005671,0.0054726438,0.041503318,0.03735457,-0.0050795693,-0.079155765,-0.07809084,-0.051027447,0.018523874,0.04185989,-0.0018987876,-0.025694579,-0.026557202,-0.10106473,-0.13840775,-0.0043511204,-0.03497471,-0.0263555,-0.04213597,0.016982723,0.06950587,0.11448801,0.073438205,0.0866452,0.088413484,0.03108149,-0.0119781615,0.076628916,0.123969935,0.0610057,0.042375248,0.016148893,-0.033016857,0.028491706,0.028548596,0.049017265,-0.0293593,-0.040802322,-0.036135126,0.01890035,-0.015714101,0.04083254,-0.045507263,-0.037824392,0.014603314,0.016900368,-0.0038188985,0.024353106,0.033844255,-0.022238368,0.00077382213,0.032186,-0.04805245,0.021431025,0.0033061716,-0.09103159,-0.108126335,-0.04428071,-0.051782206,-0.078602396,-0.061905522,-0.025611548,-0.16912414,-0.13175786,-0.07348567,-0.09603782,-0.06370689,-0.01640405,-0.024148641,-0.0003004922,0.0857459,0.074326485,0.08615503,0.06466914,0.046474673,0.020020792,0.048847415,0.071081705,0.06744952,0.044837635,0.0437742,0.010839575,0.003800505,0.035654485,0.012143393,0.0020267663,-0.034116544,-0.058755323,-0.0147527,0.0254754,-0.015773604,-0.01724864,-0.017507989,0.050794765,0.02957345,-0.014408381,-0.021728583,0.0020123401,-0.010894723,-0.0196625,0.039653856,0.007833108,0.038040064,0.019473923,-0.101530455,-0.103945024,-0.006923232,-0.020362267,-0.034356486,-0.064409,-0.047001075,-0.24077517,-0.1465374,-0.059725363,-0.05416286,-0.03063203,-0.042785086,0.020474609,-0.036964104,-0.056120947,-0.017025784,-0.003011949,0.057777304,0.040945273,-0.05759077,-0.060966164,-0.023552826,-0.020563584,-0.004354893,-0.0065425686,0.0070376624,-0.061168503,-0.086710654,-0.04675317,-0.0153304,0.000340982,0.0046258736,-0.031056419,0.022508055,-0.025336387,0.04500377,0.0293903,-0.00784599,-0.022883207,0.027334606,0.08721092,0.039397344,0.0365574,0.042943895,0.017538277,0.040447824,0.024006985,0.0879774,0.08446737,0.022890832,0.014002,-0.021710511,-0.07600852,-0.044396956,0.029976314,-0.008758063,-0.051021487,-0.06453809,-0.08901339,-0.05447307,-0.084905274,-0.012886164,-0.041859575,0.0035718316,0.12692344,0.11649306,0.074416965,0.07248134,0.018188374,0.01987073,0.118059225,0.05437984,0.040646546,0.023107186,-0.029848961,-0.0033349292,0.07488438,-0.04644009,-0.12082917,-0.036327254,-0.04067971,-0.040098127,-0.042175554,-0.0983288,-0.1406813,-0.055824894,0.023214735,0.011353307,0.018971978,-0.06385855,-0.06841418,0.00053799315,0.112800635,0.106704846,0.05326603,0.03516389,-0.071438596,-0.101475134,-0.053465355,0.031974226,0.00015173647,-0.06528748,-0.030581161,-0.0009670659,-0.16347831,-0.17083377,-0.045873675,-0.09945266,-0.05926428,-0.075898424,0.030182905,-0.021051724,0.07418058,0.080987684,0.09384047,0.064954296,0.038308185,-0.0023024394,-0.02568926,-0.04227599,-0.048425205,-0.05049652,-0.033341374,0.007623755,0.0038081023,0.02413001,-0.08225609,-0.08775734,-0.02458074,-0.085598275,-0.031128913,2.8614313e-05,0.003954163,-0.034355883,0.035144914,0.034408126,0.040261634,0.040859584,0.03410066,0.015028607,-0.054911308,-0.039046135,-0.05352982,0.013517997,-0.0029437786,-0.0047423095,-0.05327898,-0.16701022,-0.18642615,-0.1327284,-0.090660274,-0.0453354,-0.09596365,-0.10359889,-0.19464892,-0.16521682,-0.117584586,-0.09183199,-0.03391048,0.009959756,-0.00037592417,0.05381755,0.11056392,0.10605825,0.035523858,0.034184348,-0.008450488,0.020060144,0.10204596,0.059270218,0.09118046,0.034118902,-0.04027936,0.018050652,0.032926463,-0.012594887,-0.04402016,0.0034227371,-0.014208225,-0.037038337,-0.003641224,0.031639203,-0.055806916,-0.099809825,0.031708293,0.029191792,0.012753778,-0.01335118,0.059829764,0.007949544,-0.010611901,0.046187293,0.018131282,-0.043689147,-0.015775103,-0.060481895,-0.12762055,-0.0517005,-0.022206696,-0.062472682,-0.0604641,-0.024181195,-0.109492324,-0.15390307,-0.09089537,-0.07207797,-0.034393962,-0.04694796,-0.031061579,-0.055715322,-0.025811588,-0.030938279,-0.02155346,0.01965727,0.016741905,0.01662193,-0.06292129,-0.043225817,0.027349953,0.009352956,0.031015642,0.015851356,-0.056799192,-0.027791992,0.043642834,0.045389812,-0.008086927,0.003958559,0.0046053217,-0.0024543658,0.00999107,0.015213023,-0.0023105266,0.0033250847,-0.05878889,-0.006032452,0.025403883,0.066404015,0.061162747,0.05339638,0.060565405,0.07589493,0.06880336,0.01067516,0.0878692,0.09183718,0.05541154,0.027745238,-0.004066915,-0.019580532,0.038394336,0.06797651,0.0058904164,-0.07041922,-0.091895305,-0.07448597,-0.07702458,0.027124668,-0.028763507,0.006460553,-0.014153197,0.018842524,0.032895055,-0.008583929,-0.009279869,-0.0029048354,0.036060214,0.06961476,0.02927159,0.019356607,-0.0122126425,-0.050243933,-0.0072766636,0.04123144,-0.012848504,0.01798736,-0.020094525,-0.0020574022,-0.014913521,-0.006856597,-0.0030999775,-0.03162689,-0.011835712,0.006841075,0.036605667,0.03639595,0.013996474,0.012247214,0.02156458,-0.019244509,0.020863708,0.027597979,0.046507962,-0.011337892,-0.016804503,-0.02576167,-0.050200704,-0.05263693,-0.06725049,0.021959461,-0.04252267,-0.045006223,-0.01348521,-0.057590842,-0.06790759,-0.053469397,-0.050489362,-0.047423065,-0.0031856108,8.631116e-05,0.028246913,-0.00798097,0.0017126169,0.01729786,0.03084587,0.038612958,0.017777797,-0.033437002,-0.05079599,0.014401014,0.005999531,0.043694176,0.061141733,-0.01764552,-0.10771751,0.038565278,0.0012926882,-0.027745144,-0.035845023,-0.10393828,-0.050466344,-0.08509517,0.018680718,-0.029160317,-0.04574286,-0.06865769,-0.111333065,-0.0778954,-0.037448686,0.02910281,-0.01438449,-0.07802392,-0.039752934,0.052399848,0.08655808,0.1502149,0.08598905,0.027438842,-0.0365855,-0.028609514,-0.012099309,0.08017275,0.12592615,0.09843122,0.016376503,-0.012573827,-0.02241615,-0.004251763,0.011603436,0.06793348,0.021935467,-0.017500283,0.049875792,0.055800308,-0.008069191,0.027093966,0.07129208,0.013640202,0.045704458,-0.08353309,-0.045385245,-0.03178159,-0.03323629,-0.06294529,-0.050990783,0.00394728,-0.032139085,-0.040587377,0.011926777,-0.06532724,-0.054888032,-0.03203306,-0.02460174,0.01353134,0.012485034,0.03675037,0.010826775,0.0682887,0.025747757,0.043760337,0.062092524,0.074711934,0.035763092,0.07094201,0.11905039,0.10841736,0.056254804,0.06579361,0.103431925,0.042113032,0.017366221,-0.031805046,-0.090987846,-0.06972897,0.010090133,-0.046440378,0.00027658322,-0.026473183,-0.019576428,-0.016471902,0.004557275,-0.027519496,-0.041569583,-0.0021278404,0.014738487,0.028857408,0.0029072294,0.022965204,-0.011744317,0.009241113,0.043610074,0.012273489,-0.008583316,0.007927405,0.009738524,0.03592724,0.05261676,0.03474675,-0.010063332,0.012467221,-0.012743081,0.013671905,0.02983242,0.0153488945,0.017876094,0.017745545,-0.016443746,0.010868933,-0.025359947,0.08108797,0.002829947,0.0058135106,-0.0195883,-0.02596969,-0.060601603,-0.04849477,0.016682219,-0.026623024,-0.05330093,-0.07172986,-0.033954352,-0.055323076,-0.08449982,-0.04938152,-0.04292795,0.015487477,0.048610758,0.039614398,0.021484753,0.048098616,0.005891931,0.05133301,0.080617525,0.0940591,0.039810915,0.045917835,0.004702782,0.036483046,0.06630813,0.09011851,0.033679854,-0.0016537345,-0.0331585,-0.027732331,0.023375997,0.005160671,-0.020938005,-0.03320766,-0.044728912,-0.01309039,-0.021192096,0.01177357,-0.029463334,-0.08050411,-0.017900912,0.015877247,0.031005638,0.05219903,-0.017321082,-0.051498186,-0.028128358,0.0018705914,0.0058057425,0.0016936256,1.0708156e-05,-0.060968537,-0.06681082,-0.013770529,0.013979268,-0.02564638,-0.04102921,-0.04046257,0.03474735,0.038610127,0.070097215,0.13451318,0.100162424,0.055747878,0.015258069,-0.011971799,-0.009162046,0.012751563,-0.008060746,-0.0699749,-0.048521034,-0.001604787,0.034507558,-0.014609984,-0.061144162,-0.099206656,-0.108604826,-0.11363295,-0.045835122,0.032043025,-0.0062348875,-0.04103067,-0.025976744,0.05969791,-0.021833776,0.027159935,-0.0025569561,-0.05411784,-0.12499194,-0.028756913,0.027281247,0.002832917,-0.021468513,-0.06722801,-0.06107822,-0.18920693,-0.10931766,-0.10191652,-0.14135818,-0.057796188,-0.08272514,-0.104919456,-0.15939893,-0.121890515,-0.04375522,-0.04426847,-0.0069767875,0.004985276,0.060539093,0.05567489,0.06496229,0.024884127,0.05156305,-0.019472923,-0.0071065747,0.06475921,0.02040578,-0.0013384185,-0.03060583,-0.025961272,-0.01628074,-0.0019689028,0.08246175,0.030242544,-0.05688759,-0.001024416,0.02400378,-0.025558174,0.006641574,0.19676349,0.20369405,0.10877501,0.13531321,0.02917954,-0.0152086,-0.011497889,0.1760548,0.15085903,-0.0053702914,0.04046222,-0.03509895,-0.061000355,-0.02593108,0.01629992,-0.0301376,-0.040122174,-0.021515116,-0.035800662,-0.034233052,-0.038441736,-0.0024437727,-0.061248694,-0.058061995,-0.045232553,-0.027933225,-0.027646488,-0.009325731,-0.063359365,-0.044484273,0.02223447,0.023595676,-0.00039593643,0.00030281598,0.004089052,0.0038580855,0.011247866,0.027842462,0.007546406,0.001885701,0.0623466,0.078820586,0.0148415845,0.005020509,-0.011438506,-0.016048573,-0.01147044,0.008675539,0.020377373,-0.00016032628,0.0022693293,-0.032985244,-0.06979371,-0.032672126,-0.0068586157,-0.019579774,-0.08617006,-0.02527252,-0.019577285,0.02325459,0.07521112,0.019404678,-0.022280179,-0.0024839123,-0.0070894253,0.013545828,0.009562144,0.07576667,0.07885361,-9.43457e-05,0.031710938,0.025120284,0.042521138,0.022007449,-0.016076175,-0.018543873,0.024641765,0.0031307947,0.020534508,0.032824785,0.050753582,0.092191644,0.014974289,0.025753815,0.027294127,-0.011394623,0.028469091,-0.021674778,0.052265603,-0.018257828,-0.019598298,-0.010818951,0.01158525,-0.031305537,-0.061207533,-0.08471086,-0.08883791,-0.009285394,-0.008961314,-0.065748535,-0.027671307,-0.023592861,-0.044778224,-0.036460318,0.0038511003,-0.04913706,-0.11811385,0.015492263,0.00749606,0.014449659,-0.019256577,-0.03377422,-0.055002328,-0.07596654,-0.042101067,-0.080119886,-0.08709056,-0.027874881,-0.041948844,-0.116328634,-0.08715098,-0.07077377,-0.06144478,0.00070313143,0.002016781,-0.03415852,-0.014758931,-0.02297426,-0.04933406,-0.07018553,0.0023542615,0.009076229,-0.010310808,0.04484637,0.07447832,0.09318662,-0.00089204573,0.01295107,0.010626425,-0.04954917,0.09273072,0.082820304,-0.013879136,-0.071983874,-0.029465776,-0.07761174,-0.029318547,0.04106276,0.078003325,-0.016677676,0.01885855,0.0054366826,-0.012495071,-0.035535984,0.02112043,0.067609236,0.12369706,0.16188718,0.086487345,0.09239658,-0.011585105,0.021634914,0.056289025,0.0636869,0.07864729,0.021111282,-0.010899078,0.01226486,-0.028941981,-0.020476077,-0.022752767,-0.08542914,-0.111058675,-0.04621815,-0.010097845,0.004050372,-0.0069866446,0.036159378,0.020535171,0.026833633,0.04456918,-0.0044222507,-0.013613019,0.027255122,0.03664819,0.052161593,0.037585292,0.0088500185,-0.023206046,0.018539576,0.041390818,0.02295549,-0.020455392,0.007629388,-0.018965889,0.048511725,0.030514972,0.011458288,-0.017496392,-0.0048272857,0.02981887,0.025182541,0.03438309,0.009289106,0.024041891,-0.0010438445,-0.0009610985,-0.009195928,0.0041745366,0.020702815,-0.0022590195,0.0014598784,-0.03550485,-0.029723547,-0.050219174,-0.042146735,-0.028073136,-0.015100841,-0.035071213,-0.045848098,-0.042488202,-0.037031025,-0.050070517,0.005159837,-0.034786493,-0.0061869887,0.029463476,0.13041215,0.08599104,-0.0037961104,0.006686541,0.018546343,0.06474811,0.055146106,0.13190918,-0.011904113,0.021396402,0.02972822,0.07562141,0.059456732,-0.037887953,-0.037226096,-0.0846342,-0.010326311,0.0484347,0.006568436,0.0019158246,0.005766123,0.061217494,-0.0382249,-0.022668874,0.038019307,0.02065777,-0.023500362,-0.019010896,-0.037223835,-0.041787673,0.0126530025,-0.029760463,-0.11878173,-0.057564136,-0.07540753,-0.07341528,0.003615223,0.026151802,-0.106360175,-0.110256866,-0.099436924,-0.062035203,-0.06677549,-0.027920166,0.029256059,0.017061476,-0.036893643,-0.03315759,0.017514944,0.07240942,0.07342709,0.045247782,-0.02493258,0.027984846,0.021676885,0.03400328,0.020856908,0.043503266,0.10030089,0.019269308,0.10532827,-0.019021988,-0.05941141,-0.031993575,-0.11388738,-0.08732417,-0.040526055,-0.03659208,-0.040899877,-0.070569016,-0.12629032,-0.14508316,-0.022927804,-0.023143593,-0.077523455,0.0031886203,0.0036939813,0.028114906,0.11302498,0.11248115,-0.006212846,0.010155377,0.05009798,0.072720885,0.033690576,0.004887385,-0.012009535,-0.120811135,-0.085803814,-0.015468223,-0.045361586,-0.05283013,-0.017268596,0.029015128,0.01733094,-0.010959596,-0.057057504,-0.05299763,-0.030780984,-0.07831583,-0.025583023,0.024886694,-0.009018817,-0.051093627,-0.022095533,0.014852415,-0.013229963,-0.024989646,0.037612215,-0.14457615,-0.2384691,-0.06382491,0.03054934,0.041304447,0.038564805,0.09060285,-0.033664543,0.055405088,0.14337483,0.07232853,-0.07787376,-0.012551511,0.124827005,0.01767748,-0.043642156,-0.025365151,-0.17256762,-0.22921027,-0.049734104,0.09878652,-0.01962687,-0.04871938,-0.14041412,-0.16730416,-0.264341,-0.14553708,0.018276723,-0.033119135,-0.07017203,-0.07154818,-0.052365404,-0.038374998,-0.040048257,0.001422984,-0.016653288,-0.0036482138,0.009580906,0.033510208,0.022286747,-0.0028317468,-0.027905937,0.022201488,0.06463396,0.05166478,0.013463504,0.01815994,0.00018452185,0.00060024904,0.063523285,0.07195019,-0.038311295,-0.06818333,-0.046173353,0.01634529,0.05487635,0.042045455,-0.013877471,-0.03734462,0.009916176,-0.02415844,0.04951322,0.048400033,0.027729971,0.010399454,0.025788289,0.029887997,0.011698165,-0.082161486,-0.04137469,-0.0075943195,0.05110574,0.018606555,-0.0030008436,0.0113480035,-0.005117897,-0.09668859,-0.049783736,-0.004976837,-0.0066304947,0.029062806,0.037107766,0.016678005,0.04988801,-0.07071786,-0.020190552,0.02075716,0.024169138,0.10696966,0.10873393,-0.065275,-0.021918317,0.016551595,0.023275971,0.004124161,0.029232433,-0.0053623887,-0.002127263,0.04619303,0.05946409,0.035668816,-0.0579682,-0.036322955,-0.057786163,0.02054618,0.02814085,0.021948665,-0.014154793,-0.024948591,0.0015539789,0.04966148,0.037772164,0.018219484,0.0024880595,-0.028390696,-0.019829566,-0.005402677,-0.03281593,0.03016652,0.0043807835,-0.009710896,-0.046431754,-0.06718451,-0.09343884,-0.06780556,-0.02601707,-0.025930278,-0.033034332,-0.07955656,-0.05050249,-0.04963552,-0.037249047
0.06673782,0.05052472,0.0175547,0.022360427,0.063520424,0.0326951,0.04446773,0.024085915,0.010802997,0.022613931,0.00013569741,-0.006504533,-0.06502449,-0.025685191,0.046489034,0.017169302,-0.018749706,-0.006361371,-0.04606261,-0.051251624,0.0048938054,0.07295371,0.07641974,0.026401946,-0.019398326,-0.027800059,-0.06563979,-0.015870376,0.11764277,0.10995218,0.07688244,0.047614466,-0.009992814,-0.03372117,0.013609152,0.0792092,0.05042573,0.034289263,0.01825837,-0.011551139,-0.0017676238,0.032990083,0.07143241,0.06866712,0.075114705,0.019942623,-0.003357752,-0.026209574,0.0498853,0.031152587,0.014520308,0.027739393,0.02721897,0.02508763,0.051551044,0.054051597,0.0006362848,0.0011195488,-0.0218248,-0.015771098,-0.02309035,0.018367775,0.01111373,0.006027498,0.0023631747,0.016650813,0.026609115,0.023810398,-0.015340853,-0.014284576,-0.0014582863,0.022139434,0.013343943,0.024107043,0.027940143,0.02158241,0.009169551,-0.003955117,0.047015402,0.025806716,0.027754948,0.015081378,0.033608533,0.025127564,0.03389506,0.046325028,0.017369151,0.010234422,0.049588643,0.037815597,0.056254186,0.021961147,0.009003415,0.025233952,-0.004344044,0.05296682,0.044723053,0.043399483,-0.01941911,-0.011293691,0.0070902673,0.026858002,0.03198806,0.07520422,0.064359464,0.001763117,-0.03305344,-0.021979475,-0.011013366,0.025898913,0.026876725,-0.019500246,0.047495604,-0.013241252,0.018658089,0.010697074,-0.016496722,0.008737466,-0.031967063,0.017940667,0.0003172519,0.04204356,0.0020703343,0.026117815,0.020504203,-0.013768776,-0.030407174,-0.03476851,-0.0039275438,0.02136647,-0.008725663,0.03796276,0.01576224,0.076473534,-0.037087165,-0.025959756,-0.014589283,0.012153538,0.02415281,0.01698089,0.026858354,-0.023214884,-0.036626168,-0.051368516,0.010355175,0.055983752,0.065608874,0.09278563,0.1047351,0.08718349,0.067206725,0.07626097,-0.025155136,0.07773619,-0.031737484,0.03376415,0.0076090633,0.0014903835,-0.028209865,-0.05897116,-0.077777684,-0.011678489,0.048773844,0.027029209,0.04016585,-0.023850162,-0.107481405,-0.12416634,-0.036508933,0.026295858,0.04650503,0.066367164,0.036758713,-0.026222803,-0.010776292,-0.037221976,-0.011755757,-0.011961024,0.013890496,0.050836306,0.022518048,0.06288778,-0.05493382,0.0017692676,0.00033832795,0.01630824,-0.0051492364,0.050978314,0.10780722,-0.041065693,-0.03109845,-0.01748875,0.008125156,0.020588687,0.015913472,0.0058944807,0.0031970982,0.07479846,0.048363745,0.019362135,0.029228587,0.0058020437,0.058393985,-0.019821798,0.016056806,0.020636411,0.0062194844,-0.006487373,-0.02348345,-0.05635899,0.004915749,0.044512283,0.017299153,0.018695183,0.01496518,-0.016219972,-0.09561201,-0.024014965,0.021106133,0.04394676,0.055641565,0.04532866,0.03430066,-0.021071892,-0.03330556,0.011527308,0.023738468,0.020457327,0.010565613,0.009274596,0.011586373,0.03806478,0.01200969,0.016903698,-0.031988643,-0.017508307,-0.020203432,0.016201774,0.028544506,0.03788488,-0.01612815,-0.020980619,-0.03636147,-0.054172475,-0.016744386,-0.035684723,0.050762918,0.0023229532,0.03373842,0.07167736,0.007797735,0.053611945,-0.059288975,0.0323575,0.014770931,-0.011963042,-0.010466046,-0.03171132,-0.094047226,-0.015580797,0.053223662,0.04639574,0.015061673,-0.02632977,-0.10380569,-0.17036296,0.00940002,0.06222197,0.050933655,0.004404363,-0.00893561,0.017803198,0.01832577,-0.01127934,0.027439686,0.009481486,-0.038999006,-0.0033299301,0.06425283,0.10364219,-0.004441451,0.035334397,-0.046324495,-0.06846479,0.021913208,0.05216854,0.17110857,-0.0057232217,0.0027799078,-0.025781956,-0.030314628,0.020993354,0.07203875,0.07004226,0.06989251,0.07274333,-0.012387489,-0.10597241,-0.081533484,-0.03759093,-0.0064291023,0.073937416,-0.006389107,-0.041633807,-0.043570623,-0.028266806,-0.040505126,0.014677138,0.062825516,-0.049962327,0.030197714,0.03420254,0.05859528,0.049771495,0.055917084,0.009377607,0.017206142,0.0587167,0.043500904,0.05674464,0.057014603,0.055431124,-0.014413591,-0.010966756,0.05608,0.025050422,0.04295102,0.038925406,-0.019936996,0.005527512,0.024325702,0.004867178,0.0052453936,0.03116022,-0.013346264,-0.053501576,-0.0042074868,-0.00826126,0.026837975,0.014920295,0.009923341,-0.033219203,-0.03819944,-0.052385885,0.013755035,0.04701657,0.029983653,0.04257605,0.042663783,0.001124115,-0.065157875,-0.048681445,-0.019053482,-0.022269327,-0.0050131367,0.02653027,0.038803197,-0.06748444,-0.042761087,-0.04393158,-0.032788333,-0.0011984748,0.014803314,-0.030229608,-0.052454628,-0.03175869,0.0075245015,0.0077448366,0.022134827,-0.021144409,-0.053853188,-0.08099813,-0.011671734,-0.02606798,0.011324485,0.042453006,-0.017572787,-0.0312659,-0.02642773,-0.031087799,-0.03287988,-0.0022499824,0.011253987,0.026615685,-0.0101229055,-0.052924547,-0.020354005,-0.019350082,-0.014570779,0.026560081,0.027410783,0.021945262,0.03864472,0.031760253,-0.04294414,-0.04601409,-0.040589582,0.040417414,0.021094723,0.0126208635,-0.013096662,-0.02529091,-0.03439551,0.029170906,0.0011904802,0.026657376,0.046695918,0.022978876,-0.022439584,-0.022840904,-0.02794034,-0.00291875,0.00030007813,0.030680602,-0.031954914,-0.018415984,-0.026822072,-0.02110454,-0.00931705,-0.010166928,0.023175523,-0.071753524,-0.03829062,-0.041871544,-0.027197152,0.009821307,-0.009800393,0.035823442,-0.038116228,0.0013935708,-0.038879424,-0.022285972,-0.0048505333,-0.014775034,0.066653475,0.018637167,0.03714001,0.03217561,0.016700815,0.035325725,-0.012011951,0.006050325,0.0014775281,-0.0131624425,-0.03298858,-0.007119476,0.010284531,0.042308833,0.021319628,-0.08679515,-0.011767413,0.018056441,0.0087707415,0.062613085,0.050865587,-0.013528805,-0.119374365,-0.05555003,-0.0036348286,-0.0095871035,0.029112354,0.027371705,-0.0017081411,-0.12701316,-0.024564506,-0.023910917,-0.0062078014,-0.00946815,0.0033369206,0.010164347,-0.12526734,-0.030599253,-0.03281396,0.020316588,0.013767698,-0.011484657,0.013973438,-0.08408005,0.03572237,0.00020113285,0.007470811,0.03315682,-0.0008062564,-0.00024610088,-0.052748412,0.0095179565,0.042458892,0.06180615,0.018354919,0.015301904,0.032967575,-0.0019083844,-0.027314449,-0.0021968645,0.004332975,0.0438566,0.006349514,0.045409203,-0.03159372,0.020222576,-0.0022137503,0.0043585068,0.041002426,0.06536912,0.017096434,-0.060630813,-0.009674906,0.011074532,-0.0066483296,0.01689884,0.015112497,-0.092425615,-0.04437683,-0.0076062754,-0.03086736,-0.018500896,0.014615123,-0.0026753163,-0.025903318,-0.063616216,-0.002947044,-0.03180388,-0.012981709,0.017460002,-0.0074499715,0.009276318,-0.08244935,-0.008980873,-0.0013513103,0.016721895,0.041955072,-0.05045023,0.016709682,-0.016891025,0.060441736,0.08514627,0.08308619,0.06776495,-0.008459517,0.06513636,0.016281392,-0.042205274,-0.16178356,-0.1272454,-0.04959353,0.022825208,0.071905255,-0.0630178,-0.13292037,-0.13014941,-0.10984101,-0.0954773,0.0050217346,0.101879515,0.034626413,-0.013508656,-0.06796971,-0.035639297,-0.05943994,0.014027327,0.011469897,0.02970795,0.00979161,-0.033884514,-0.0077353707,-0.014962274,-0.017035259,-0.022459976,-0.041870784,-0.05601353,-0.033139527,-0.0014003932,-0.0031288217,0.011740171,-0.02988595,0.011951312,0.014701765,-0.0007516931,-0.009606585,-0.022681737,0.0020972951,-0.009516154,-0.014117771,0.0070458213,-0.009285131,-0.01976004,-0.017259203,-0.005411896,0.04526086,0.03911791,0.036745854,-0.0415572,-0.04921401,-0.001874252,-0.0037038394,0.03637773,0.022895364,0.0073612616,-0.002891774,0.02230218,0.03745862,0.06214484,0.028287733,-0.028343892,-0.008117619,0.014413296,0.007236588,0.02715372,-0.0046118046,-0.0021346912,-0.051708754,0.0058815577,0.007499883,-0.031742863,0.01667562,-0.007002051,0.06563887,-0.020252353,-0.016869426,-0.0046697333,0.005359195,-0.018575829,-0.0016801975,0.067788325,-0.025137322,-0.004534291,-0.04016395,-0.0032698098,0.013381204,0.0020558916,0.045233965,-0.016359856,0.019097816,0.0077928235,0.03998618,0.030811682,0.006317577,-0.019343514,-0.019607095,-0.017580487,-0.008799101,0.027496658,0.0014939642,0.038444933,-0.025897814,-0.00852517,0.00026643532,0.02794677,0.01018853,0.044887938,0.020176457,-0.009133474,-0.008188115,-0.009093671,0.0127108805,-0.04505967,-0.01890606,0.0155401835,0.025679523,0.0019513307,-0.046101794,-0.014624493,-0.056062263,-0.011126176,0.016762698,0.024137033,-0.022856807,-0.03958789,-0.014493723,-0.01711877,0.0025461148,0.04056651,-0.0069274683,-0.024129877,-0.013556153,0.006475518,-0.0032650041,0.041335024,0.044354144,-0.0074852873,0.0056383642,0.020209229,0.09841486,0.12992902,0.071465865,0.019032594,0.0063952086,-0.019447245,-0.04506525,0.021515064,-0.0026239802,0.017548965,0.016712133,0.03055905,0.0034692246,-0.028957654,-0.016484108,0.03734696,0.028845746,0.03016199,0.023522334,0.006479151,-0.04661445,-0.007896492,0.01785736,0.019272976,0.007737868,0.050077457,-0.06463369,0.009767448,-0.006925577,0.0022202842,0.015380069,-0.004984526,0.06012128,-0.073758565,0.011872472,0.0023563348,0.03295025,0.019805599,0.01271981,0.061937414,-0.035365652,0.0025501796,0.008852188,0.0436643,0.038980965,-0.0022264686,0.023359304,-0.018669317,0.03760851,0.022360267,0.064399995,0.06403949,0.030425115,0.09923315,0.089603215,0.040933244,-0.033341933,-0.058342002,0.028174223,0.044427674,0.0599125,-0.037048016,-0.10011239,-0.110075146,-0.09889951,-0.07129856,-0.013062465,0.003413348,-0.021377668,-0.06055657,-0.026990436,-0.014488408,-0.0012766807,0.007922783,0.08731202,0.07704683,0.040951498,0.019998252,0.02971443,-0.021495363,-0.010608443,0.029375222,0.023025999,-0.02128828,-0.012777295,-0.0024967864,-0.007954339,-0.03925789,-0.0048645693,-0.003417441,0.015392941,-0.027703904,-0.02663325,-0.032867935,0.0048770886,-0.010356321,-0.010663862,-0.026021874,-0.016796926,-0.03851419,-0.06026547,-0.041572157,0.015398587,0.07180705,0.059138983,0.03716229,0.03021404,0.042385314,0.028351758,0.010259836,0.030030208,0.036297113,0.04261573,0.035986554,0.02267869,0.022547906,-0.0007828298,0.027794274,0.05418443,0.06439108,0.039063882,0.052890006,0.035567913,0.00088624493,0.0336651,0.07605975,0.045509037,0.03823828,0.016315445,0.0340002,-0.060792677,-0.011717052,0.05238374,0.022161392,0.049898885,0.034454077,-0.0028583654,-0.00048731925,-0.004467288,0.037689283,0.03331876,0.047639955,0.014138462,0.008109686,-0.032723024,0.013842119,0.033832185,-0.00942385,0.02319992,0.008513403,-0.013999984,0.052931976,0.033489205,0.019780265,-0.0040472387,-0.052426785,0.028283084,0.07480052,0.0302029,0.030349704,-0.0439034,-0.14441054,-0.12626742,0.018103775,0.047975883,0.066540495,0.018304946,-0.062717296,-0.1509771,-0.18024692,-0.03946885,0.021005355,0.028635582,0.0076258997,-0.085584424,-0.10034183,-0.050179638,0.04602492,0.06111607,0.037161734,0.07239578,0.05265607,0.004648379,0.08044524,0.09377061,0.074486755,0.08641,0.07756569,0.033927806,-0.1037175,-0.07151329,0.015864337,0.071139954,0.055690087,0.03459056,0.018229822,-0.012681073,0.0044452148,0.023688305,0.06936444,0.008076603,0.026315656,0.03542032,0.019469466,-0.0069243824,-0.008912826,-0.0013684303,0.015464581,-0.01295401,0.009967373,-0.0155785475,-0.0470348,-0.06631703,-0.054305155,0.07727859,0.03790737,-0.023480253,-0.05743791,-0.014480716,-0.09497331,-0.03266174,0.10815475,0.06598043,0.069452785,0.05251489,-0.00032293674,-0.025934806,-0.00064426084,0.07081844,0.06914148,0.06837802,0.018095626,-0.006066593,-0.07469192,-0.065404736,0.0060816305,0.037913878,0.020792251,0.006475733,-0.05469711,-0.06813091,0.0009462978,0.015578596,0.0076170336,-0.011914166,-0.020932393,-0.036221456,-0.055005386,-0.057328086,-0.0051236055,-0.015388941,0.029685955,0.04901423,0.026393352,0.020688714,0.025282083,-0.017547756,-0.030463452,0.019416127,0.026958045,0.003571072,0.03643251,0.0022788113,0.0046311677,0.015962524,0.010942071,0.03674606,0.028355232,0.004142561,-0.004082414,-0.056314155,0.021899978,0.04792844,0.027157374,0.013445449,0.019082887,-0.020235846,-0.059742182,-0.009755667,0.013333543,0.008502505,0.04708909,0.028591976,0.025743302,-0.0040855478,0.0019204406,0.010980475,0.020660372,0.03618089,-0.0032600407,0.0073886393,-0.0018227673,0.0010896984,0.0048678047,-0.019638792,0.040880296,0.015445667,0.056944538,-0.0063619646,0.0559411,0.023295775,0.06828355,0.045067918,0.03498796,-0.013506884,0.0071559977,0.019335782,0.04924024,0.053886123,0.051885195,0.026536211,0.049449053,-0.026176186,-0.00502066,0.031330522,0.071249954,0.058363803,0.060586434,0.02959302,-0.026498364,0.03308091,0.054802228,0.04851702,0.018864831,0.012553983,0.0012247859,-0.024743816,-0.018664,0.0013774335,0.0025058917,0.03548247,0.019224096,-0.008458066,0.0030501434,0.012887401,0.005432449,-0.01081965,0.012501085,0.013128345,-0.025199862,0.014025872,0.007472206,0.062358204,0.06530101,0.034866445,0.012552043,0.03130085,0.0146045815,-0.006001719,-0.009902155,-0.044442594,-0.0039440547,0.028867874,0.029660983,-0.027717818,-0.009273861,-0.05089637,-0.0305931,0.009063872,0.023330016,0.008627169,-0.036748644,-0.045495763,-0.054140314,-0.07245607,-0.025723439,-0.019715989,0.026723398,-0.084657624,-0.013606949,-0.03715786,-0.050200935,-0.06843549,-0.054905996,-0.0533947,-0.06132313,0.03314905,-0.009932388,-0.024534978,-0.05420884,0.0011218212,0.025343025,-0.0031597863,-0.01762166,0.024821421,0.020148665,0.02232903,0.017268967,0.012533077,0.03907837,-0.0044687907,7.295659e-05,0.09297093,0.11418097,0.046235383,0.051654845,0.003789263,-0.038272135,-0.0053673238,-0.018028522,0.015184781,0.049380638,0.09883826,0.051763155,-0.034491125,-0.0010867775,0.03661545,0.036344457,0.031168213,0.028309086,0.036137246,0.010493906,0.00817643,-0.0061291694,0.022662738,0.01882208,-0.037987012,0.009858117,-0.007443061,-0.04965155,-0.065445416,-0.01082104,0.007851741,-0.021651879,0.05819931,-0.035694636,-0.08085919,-0.013778599,0.023509385,0.038981553,0.0019786044,0.059527792,-0.028950356,-0.04814742,0.06336389,0.07848909,0.071428,0.031093435,0.010192597,0.008418848,-0.0031968255,0.105571486,0.117684044,0.09562636,0.033588666,0.04375745,0.0773888,0.03773099,0.014788315,0.053287014,0.042666085,0.041667882,0.0022907474,0.06574412,0.038649097,0.013183711,0.0029481044,-0.012724992,-0.039194293,-0.0072043682,0.010745294,0.018575609,0.037481688,0.009389987,-0.018121038,0.007022599,0.049048852,-0.0039412794,-6.7697692e-06,-0.030271914,0.044128127,0.039407663,-0.011926758,0.029436804,0.049853355,0.0472865,0.071899325,0.0047956267,0.0066699143,0.039132815,0.052769925,0.07255106,0.069760494,0.026638513,0.058390833,-0.024575608,-0.022772864,0.029882316,0.057868242,0.071009204,0.07340541,-0.013932368,0.007042668,0.062034972,0.032174304,0.029867845,-0.010670818,-0.013206276,-0.06039304,-0.01362031,0.01007674,0.016196119,-0.013281858,-0.036387835,-0.08425561,-0.12040223,-0.080096774,0.008853129,-0.0444221,0.02506436,-0.028094428,-0.047828488,-0.0867652,-0.09110009,0.00778009,-0.012698645,-0.0007136729,0.018274583,-0.057438508,-0.086555704,-0.09649968,-0.004843204,0.012812163,0.0027333414,0.036280323,-0.017871136,-0.009006507,0.006067618,0.04058319,0.004823078,0.027839098,0.03152944,0.029108409,0.027332904,0.021086158,0.011413839,0.024630575,0.032799497,0.06617632,0.07007096,0.07026788,-0.012936287,0.037672997,0.05650583,0.051471166,0.025816511,0.012614066,-0.03261859,-0.010582686,0.051232107,0.07229853,0.04742637,-0.05007977,-0.09018459,-0.05438748,-0.031804517,0.0051440033,0.084231816,-0.023521693,-0.108930185,-0.08576319,-0.049325563,-0.068672866,0.019462094,0.0666062,0.0023882622,-0.041614965,-0.093219705,-0.1603813,-0.06494273,0.009039896,0.06860835,-0.021601485,-0.058418762,-0.051590975,-0.060075395,-0.041308224,-0.019082598,0.0070407907,0.022300657,0.019641079,0.00863506,0.016146094,0.0137032885,0.031807393,0.03394707,0.06083683,0.016857754,0.071953654,0.0607078,0.073624834,0.0057686213,0.048206486,0.025463067,0.041108694,0.044879764,0.019607559,0.03726128,0.009319409,-0.0062690647,0.02399987,0.023320789,0.018763237,0.033083677,0.011121057,-0.0015951991,-0.016331736,0.03035107,0.009297483,0.018394945,0.055128917,0.0049036862,0.01828955,-0.021802777,0.0233869,0.026158111,0.036638822,0.033552647,-0.00027467395,4.3702934e-05,-0.0076868967,-0.0067445673,0.007355982,0.017552393,0.030783027,0.032273613,-0.010920592,0.007902498,-0.0002689484,0.010643657,0.015254907,-0.0031588185,0.016639782,-0.022440428,-0.009430029,-0.0016193952,0.021404244,-0.0010691576,0.021205436,0.012912632,0.037265707,0.014299414,0.024813479,-0.020923557,-0.06330604,0.0009083193,-0.0022930237,0.006782228,-0.020905763,-0.008327313,-0.030039614,-0.04712721,-0.09307576,-0.05135266,0.014300251,-0.03879831,-0.02936455,-0.038700696,-0.071439676,-0.13714442,-0.06589194,0.051551126,-0.018376207,-0.009601597,-0.058763836,-0.064032845,-0.09730988,-0.036570758,0.020146279,-0.02413908,-0.00032221613,-0.036985345,-0.0153444605,-0.07789632,-0.038381476,0.050529316,0.021052064,-0.0038182149,-0.026482414,-0.06641272,-0.11474486,-0.06803304,0.018613618,0.013924369,0.0053376677,0.03186342,0.037865166,0.011474507,0.016960971,0.031278837,0.12485213,0.13588476,-0.031681564,-0.012503694,-0.04242749,-0.010403846,-0.06887514,0.064488344,0.029771904,0.014339788,-0.0025898041,-0.026468243,-0.08311965,-0.03546208,0.03482997,0.048212387,0.0051342677,0.01246841,-0.028287768,-0.024657743,0.013333077,0.047657233,0.02039169,0.013731197,-0.020730015,0.018434811,0.048374813,0.068969265,-0.006878331,-0.021028114,-0.02930193,0.011093054,-0.008716935,0.002443705,-0.038974058,0.045028027,0.027925853,0.03761063,0.042578403,-0.003363021,0.0019160502,-0.05700192,-0.015211096,0.0102777295,0.023104714,0.016533257,-0.046087556,-0.094888926,0.05707316,0.0071479487,0.045579933,0.038544606,0.062790304,0.09890513,0.059168797,0.07330575,-0.019157525,-0.04100287,0.01161963,0.06980268,0.054548148,0.049407363,0.051326305,0.07699907,-0.015992781,0.03961961,0.024375828,0.060679942,0.03322528,0.036122356,0.013671687,-0.041682985,-0.07950482,-0.119801275,-0.06023075,0.019903598,0.072196595,-0.055722006,-0.045621905,-0.06217482,-0.09492122,-0.09932914,0.016864674,0.0377867,-0.011547725,-0.012361882,0.0020144857,0.03717561,-0.02855565,0.06054363,0.055110928,0.0023576322,-0.0334683,-0.0066640484,0.02287987,0.075374216,0.06971508,0.07227177,0.010519508,0.026269993,0.051875602,0.04826667,0.04733978,0.062364962,0.024188085,-0.018074477,0.016558373,0.009619272,0.0440142,0.021606388,0.030938847,0.028420988,-0.016496995,0.00031991216,0.025255209,0.023474438,0.021433767,0.02855083,-0.018088253,-0.0029140965,0.045052823,0.011040362,-0.00055667287,0.012919133,0.002506586,-0.03983732,0.023861527,0.032084595,-0.033832002,-0.03313564,-0.040721476,-0.07640728,-0.02371429,0.071853116,0.05754916,-0.04592499,-0.07504337,-0.11105596,-0.1282098,-0.039084837,0.049207613,0.06313583,0.04369653,0.039109077,-0.105105445,-0.044943742,0.058661796,-0.022366192,0.011509716,0.016242964,-0.022807073,-0.0037023923,-0.02303642,0.013955636,-0.013725754,0.017988576,0.017176222,-0.004738473,-0.023414042,-0.00017554245,0.01869968,-0.04328071,-0.0133756725,0.023058074,-0.015520153,0.013483412,-0.05100684,-0.0132224485,-0.10200244,-0.004524775,0.00035037956,0.01788305,0.02404919,-0.053243183,-0.053946413,-0.07086658,0.027185565,0.019903118,0.014196076,0.031060105,0.008287727,-0.021041237,-0.045537364,-0.0073679434,-0.010774339,-0.013211762,0.06404349,0.030454146,0.05439502,-0.017397024,-0.0026902456,0.015722219,0.041730467,0.076619685,0.05408544,0.06265461
