-0.0074586943,0.04485273,-0.04330143,0.0032893792,0.068023376,-0.024580661,0.03596899,-0.023677597,-0.07926631,-0.01872079,0.00050773256,0.021385413,0.004568724,0.076788254,-0.012859731,-0.031639703,-0.025737792,0.03437551,0.005655624,0.019735776,-0.027565734,0.07960846,-0.002606551,-0.007810327,-0.009873211,0.0033459773,-0.004718956,-0.012176997,-0.004529084,-0.023437392,-0.052879665,0.014697227,0.042703293,-0.027087234,-0.01759883,0.01691273,0.014435348,0.011784211,0.01625758,-0.024042604,0.017431714,0.0026035255,-0.01558526,0.01007201,0.009667374,0.026900833,-0.03691515,0.047015864,-0.00910266,-0.022030445,0.049510226,-0.05332177,0.042301897,-0.011514106,-0.025681255,-0.019631825,0.023714522,0.0063163266,-0.0041271583,-0.034592673,-0.057924878,0.03880684,-0.06012033,-0.032837037,0.037775844,0.04564713,-0.02769653,-0.034717944,0.055438012,0.012191451,-0.039818726,0.023505475,0.008413385,-0.0052822195,0.011607707,0.01608269,-0.025008896,-0.03247282,0.027957426,-0.017022034,0.03828927,0.06357385,0.038974673,-0.037605517,-0.021367533,-0.004353319,0.0054970095,-0.010033819,0.033000596,0.0367797,0.07593928,0.043550663,0.0045305444,-0.02184663,0.06641834,0.0005656152,0.018697482,0.038267408,-0.027702956,0.005672602
