-0.097431436,-0.09909361,-0.09558234,-0.08488352,-0.07180647,-0.062216073,-0.055844173,-0.041396383,-0.032151047,-0.028197123,-0.03437207,-0.04548793,-0.05530598,-0.066636845,-0.0822753,-0.0772048,-0.0861248,-0.08315133,-0.0851917,-0.08405881,-0.07620916,-0.08288813,-0.07842445,-0.08494431,-0.09394772,-0.09281512,-0.098215625,-0.09676256,-0.09757768,-0.098910086,-0.08886923,-0.072962485,-0.059411827,-0.043653708,-0.047005225,-0.027805567,-0.007359818,-0.015413089,-0.013405263,-0.022965979,-0.028123016,-0.024052037,-0.027030384,-0.038781624,-0.03529411,-0.053712636,-0.06459183,-0.064374335,-0.06737978,-0.079875484,-0.068415426,-0.049060572,-0.05659297,-0.069942676,-0.072857976,-0.08983703,-0.0955231,-0.09049477,-0.07563068,-0.06491494,-0.050472222,-0.033070132,-0.02106931,0.0047261734,0.003519743,0.019682724,0.02428383,0.03507869,0.047267713,0.058285154,0.048647027,0.029694287,0.019443814,0.0041179173,-0.023106314,-0.04115362,-0.046985433,-0.039408557,-0.039015394,-0.037051134,-0.04733117,-0.05524352,-0.06397142,-0.08059144,-0.09224742,-0.077232584,-0.06265627,-0.048882492,-0.023343408,-0.009460042,-0.00806262,0.002499118,0.02307045,0.053603187,0.07313698,0.105682984,0.10556119,0.09515568,0.0862143,0.06323255,0.039396305,0.041703958,0.020164609,0.0037882756,0.00056305766,-0.017824586,-0.0029572058,-0.014371011,-0.025405588,-0.04050208,-0.052430194,-0.07919093,-0.08416588,-0.06914282,-0.052517403,-0.039341062,-0.03294809,-0.015789358,-0.0047769677,0.009814985,0.010924312,0.03222176,0.093893416,0.09991397,0.08270736,0.05318265,0.065530725,0.03146595,0.012118153,0.0124167325,0.020720812,0.018161882,0.023953488,0.012440379,0.014964755,-0.010298455,-0.010415953,-0.033706177,-0.054472234,-0.07723783,-0.08540216,-0.07076083,-0.06393493,-0.022223756,-0.019120086,-0.015308613,-0.021418782,-0.02056199,-0.0055972436,0.004046038,0.06603941,0.09273792,0.07307885,0.059105556,0.06121842,0.039457392,0.024186064,0.020423127,0.0067789447,0.00064021064,-0.00946052,-0.0082744155,-0.014456455,-0.002259126,-0.02397925,-0.0339795,-0.04696635,-0.07026332,-0.08708554,-0.07141416,-0.046482626,-0.016377447,-0.0034799527,-0.045904264,-0.023677196,-0.026177611,-0.020810265,0.025858039,0.10543052,0.12900698,0.09185599,0.061608907,0.069180414,0.036243584,0.047577407,0.05060873,0.021765565,0.0022276829,-0.025622873,-0.03157357,-0.041903816,-0.030222666,-0.03686716,-0.039128218,-0.038946398,-0.052306183,-0.087378755,-0.063806035,-0.025167318,-0.007994621,-0.01838998,-0.028657252,-0.0055092867,-0.023720028,-0.0068513225,0.06240873,0.11333611,0.13484427,0.07699691,0.031044135,0.035068523,0.038853385,0.037287463,0.03957629,0.02204708,-0.021975424,-0.03805757,-0.04950362,-0.0531094,-0.05218766,-0.031009471,-0.05363736,-0.03682694,-0.057700444,-0.084254816,-0.052470412,-0.018247548,-0.008979572,-0.016336674,-0.03489272,-0.017611971,-0.02809004,-0.024778133,0.03965844,0.10475797,0.13716307,0.063374154,0.033117898,0.022216309,0.035492245,0.057186943,0.031446323,-0.011135025,-0.041885365,-0.079209216,-0.074887976,-0.08089029,-0.08377267,-0.06793044,-0.06609443,-0.046929773,-0.059942815,-0.078025505,-0.030699523,-0.015429373,-0.012481471,-0.01899981,-0.034459576,-0.036792975,-0.043045603,-0.029061772,0.021235663,0.078266874,0.068309955,0.031570006,-0.032380454,-0.03769376,0.007535009,0.056054473,0.04505301,0.010101523,-0.052241497,-0.061240904,-0.05438736,-0.04840469,-0.071915254,-0.08447083,-0.08021903,-0.063380435,-0.06181717,-0.06144424,0.0010926257,-0.007604267,-0.009785383,0.0010867978,-0.008931771,-0.02785472,0.002239979,-0.034324914,-0.008426742,0.03284289,0.017758228,0.0013690054,-0.058807738,-0.05171519,0.0049746763,0.037639305,0.03365063,0.021883804,-0.027854826,-0.04630961,-0.072155885,-0.039757658,-0.047721416,-0.057392128,-0.06420283,-0.056874465,-0.060309477,-0.051155657,0.0153934825,0.024056535,0.03925511,0.04492356,0.047575362,0.031879023,0.020615878,-0.0017950741,0.031501833,0.042645678,0.018900828,-0.018984564,-0.041632846,-0.043906644,-0.009552124,0.04796341,0.07854942,0.041870616,-0.015362628,-0.05531432,-0.04569256,-0.038720194,-0.05573072,-0.04828909,-0.05226382,-0.03655035,-0.05437012,-0.03791355,0.030875372,0.060968533,0.09185745,0.09157077,0.092113115,0.1071087,0.08460307,0.047737744,0.090236135,0.10885962,0.07685978,0.06411288,0.010718181,0.033827536,0.06651746,0.12076627,0.1149362,0.070824996,0.0048221555,-0.015974537,-0.022999255,-0.02824222,-0.038966518,-0.042924434,-0.018820133,-0.0075947773,-0.008234023,-0.034762412,0.052070305,0.080545045,0.085000135,0.08925503,0.10423575,0.10893451,0.10278762,0.106182985,0.13924307,0.15985642,0.14744958,0.09562864,0.07661772,0.09025028,0.13186029,0.14737551,0.14086919,0.09271764,0.046864435,-0.009926501,0.0063073128,0.0026269103,-0.014516564,-0.008142227,0.013707451,0.032352462,0.022858746,-0.035303712,0.05253485,0.07446701,0.046955135,0.06433104,0.08285109,0.09529887,0.11842484,0.13767314,0.12876523,0.15019993,0.13449682,0.11204282,0.103626,0.104881875,0.12235677,0.15514097,0.12807499,0.08535905,0.05607781,0.041403595,0.02867196,0.021773618,0.037981395,0.036030423,0.04076676,0.033011302,0.042214166,-0.037531786,0.036850967,0.033306148,0.020208899,0.04640649,0.045500565,0.04196844,0.065740235,0.087637246,0.062150516,0.07359916,0.05949264,0.06168632,0.05549006,0.062066197,0.10086824,0.10363363,0.0812167,0.06457228,0.052042767,0.04982727,0.05759576,0.04509812,0.08346906,0.05718001,0.056789305,0.05825448,0.057107877,-0.03903932,0.019269118,0.0051851873,0.011525767,0.016829636,0.008015205,0.017361794,0.009200693,-0.012831692,-0.01521191,-0.031319138,-0.02353789,-0.0030057142,-0.00043229925,0.027157031,0.067772366,0.059007403,0.061875377,0.069130175,0.069254644,0.050203905,0.05661885,0.036984812,0.041660156,0.050964378,0.04467093,0.04944394,0.05601669,-0.04407171,-0.0015025691,-0.017503865,-8.727043e-06,0.006301052,0.00029903164,-0.010395136,-0.029775752,-0.054829825,-0.047890212,-0.05047786,-0.040549275,-0.051082946,-0.04369738,0.0065198974,0.027873382,0.025334097,0.022435969,0.05996777,0.057859156,0.02667041,0.031739574,-0.0069781407,0.0046430426,0.008392557,-0.00089440146,0.01914171,0.034984615,-0.048673045,-0.0031470698,-0.016026834,-0.012196295,-0.00095618464,-0.005679814,-0.01150392,-0.04661447,-0.04246527,-0.035924647,-0.04953786,-0.01107329,-0.011921396,-0.0040849214,-0.015932139,-0.0024547481,0.0057191425,0.012198593,0.015813347,0.021789597,-0.0019485598,0.0030181573,-0.0076871677,0.0075008916,-0.015383013,-0.014215423,-0.009199594,0.01409221,-0.044282865,-0.01133328,-0.008601257,0.0020477606,0.015834996,0.0073855016,-0.0063816793,0.005641676,0.017092006,0.025198754,0.019017074,0.008851215,0.020942602,0.024003617,0.022107337,0.03076835,0.01868995,0.023906237,-0.00583106,-0.023695245,-0.011291038,-0.020837922,-0.010650472,-0.016494568,-0.023298452,-0.02350441,-0.028566543,-0.013439065,-0.04617234,-0.032522816,-0.025592154,-0.0020004972,0.033533197,0.04978282,0.05525259,0.06476758,0.051184073,0.066559516,0.073518135,0.07615673,0.056611337,0.066135675,0.059055004,0.036288027,0.02626632,-0.02180178,-0.0300117,-0.03045899,-0.029406833,-0.006035919,0.0031691375,-0.013581865,-0.029300164,-0.011585942,-0.017229173,-0.029906847,-0.05698123,-0.048292592,-0.055723947,-0.043762833,-0.01634124,0.003403677,0.061859,0.06609262,0.08434394,0.052539162,0.06875042,0.062575154,0.076375015,0.06677907,0.052962545,0.024526054,0.005527664,-0.0085187685,-0.015946256,-0.014987348,-0.009331162,0.022774441,0.021069355,0.0041690017,-0.011645829,-0.00496693,-0.007360334,-0.031240357,-0.054527998,-0.048500303,-0.05012763,-0.057813402,-0.042927142,-0.04724466,-0.017365556,-0.004530149,0.022283437,0.02106281,0.027789759,0.017495438,0.01857456,0.019034835,-0.00067962625,0.018310672,0.011955261,-0.002181891,0.0146018565,0.012268043,0.032083496,0.039905403,0.051423304,0.038783528,0.024535535,0.013802519,0.0004974301,-0.02899391,-0.063043326,-0.04497051,-0.04238271,-0.033921883,-0.025582455,-0.025542025,-0.035888802,-0.00953728,0.010558941,0.016218457,0.022782102,0.007710423,0.016828958,0.010393153,0.0057309633,0.019892052,0.020553248,0.009660265,0.0193324,0.028483812,0.0446841,0.040120654,0.062522806,0.052450605,0.03392591,0.021476803,-0.0033768185,-0.04999727,-0.0656828,-0.03944455,-0.024977684,-0.013204267,-0.00076839176,-0.005858953,0.0018162255,0.0009882093,0.02668038,0.036016915,0.041229058,0.0062307343,0.014396485,0.004324681,-0.0032457795,0.024947772,0.0073733428,0.01719532,0.01199664,0.030012358,0.037903283,0.044527374,0.04811586,0.041877817,0.046149198,0.019730223,-0.016789563,-0.06532367,-0.06277534,-0.041458163,-0.019056885,-0.0016913675,0.0073307967,0.010403396,0.007549876,0.024801549,0.03785913,0.030588605,0.027281232,0.028868457,0.022504527,0.023065863,0.033361636,0.026355842,0.036436286,0.048840106,0.037483588,0.040266123,0.042172663,0.049903926,0.042065375,0.040802818,0.034948435,0.0004914403,-0.030546976,-0.06697233,-0.077039056,-0.048580635,-0.022125775,-0.007997544,0.017013727,0.02026109,0.011283103,0.0047832676,0.016619764,0.01939651,0.032959957,0.029437184,0.020222843,0.012286478,0.018688444,0.026938612,0.025936935,0.03923433,0.03759552,0.02852891,0.043279503,0.04053598,0.03174386,0.03331661,0.0106215235,-0.019709622,-0.05394366,-0.081722766,-0.085534975,-0.067826435,-0.04970849,-0.034576315,-0.01273004,0.0077734557,0.0060600317,0.010943171,0.022820543,0.04578014,0.03908986,0.050040543,0.04037224,0.04150405,0.06165564,0.0501647,0.05804031,0.04544647,0.048833407,0.03234228,0.039252676,0.021677915,-0.006203357,-0.014084168,-0.03858446,-0.056087043,-0.07592072,-0.09390839
0.059955586,0.061157767,0.055749256,0.05018672,0.053236965,0.059417363,0.049985677,0.03282326,0.014444507,-0.008834322,-0.05067406,-0.09531526,-0.122096494,-0.1329986,-0.1306517,-0.109739885,-0.09232788,-0.057286296,-0.025339188,-0.0021264122,0.017889677,0.032335974,0.04205975,0.04903715,0.054354217,0.051960405,0.05456244,0.056694575,0.061934087,0.05965287,0.051994104,0.040005617,0.046046007,0.042920902,0.014626188,-0.013664709,-0.02816267,-0.040664993,-0.070077084,-0.09640514,-0.1291809,-0.15186995,-0.17985864,-0.19530551,-0.190178,-0.16313185,-0.11283007,-0.06874889,-0.039938796,-0.010978532,0.011029793,0.033172514,0.04387501,0.044327483,0.049020294,0.053205706,0.061138667,0.05792207,0.05071141,0.041822344,0.038697958,0.03923114,0.01566758,-0.00806727,-0.019277588,-0.027275559,-0.040283326,-0.06463542,-0.07043141,-0.116907254,-0.16803287,-0.22578579,-0.23978722,-0.25037512,-0.20781034,-0.15104285,-0.09886178,-0.05443828,-0.025815405,0.0025111297,0.02047028,0.029928418,0.03573415,0.048672546,0.06416215,0.06608506,0.06198344,0.05316133,0.057755522,0.056584243,0.024618614,0.024252446,0.0083501665,0.0054060444,-0.0044117593,-0.018024167,-0.037373535,-0.061024543,-0.10890172,-0.13327436,-0.19746256,-0.21538775,-0.22247924,-0.17302519,-0.12984918,-0.084256336,-0.061040804,-0.026122492,-0.0039807833,0.01165913,0.024090031,0.036473695,0.064365186,0.07794114,0.07069946,0.081658825,0.082306005,0.0737557,0.045959998,0.050497174,0.03309292,0.048013527,0.0187312,0.023249988,0.0028766247,-0.004827909,-0.029393723,-0.06772635,-0.115237735,-0.14107308,-0.16990787,-0.17551844,-0.15676002,-0.110428475,-0.07751672,-0.05659262,-0.01924089,-0.0021193104,0.014678484,0.029667798,0.0701195,0.073417656,0.064946316,0.08021916,0.07090957,0.06815652,0.06641545,0.057315864,0.07809616,0.078238964,0.0751538,0.105053656,0.10120057,0.076622225,0.05080724,0.01044387,-0.04706978,-0.107075945,-0.16451849,-0.18783893,-0.18674251,-0.14825347,-0.108915605,-0.06649155,-0.0315841,-0.009543231,6.646663e-05,0.016118724,0.06359445,0.059166703,0.04919403,0.043797135,0.04942412,0.051724315,0.047777943,0.05513004,0.084293544,0.11629032,0.140824,0.15671678,0.15556115,0.12435942,0.085854545,0.035159923,0.0033317378,-0.06702586,-0.109140426,-0.12134789,-0.13312653,-0.13563678,-0.10654681,-0.076803006,-0.046169426,-0.02621803,-0.0057208207,0.008085663,0.06164617,0.036243487,0.03230213,0.023202805,0.0032006893,-0.008065823,0.001669421,-0.0010012588,0.028300269,0.07268902,0.08506802,0.12772045,0.119199656,0.11442566,0.06692529,0.04138149,0.0010529511,-0.020506576,-0.0571824,-0.08383876,-0.09390249,-0.10616741,-0.11416444,-0.08913971,-0.06389761,-0.029195255,-0.009194061,0.011188476,0.045750014,0.022503123,0.01899653,0.0019550186,-0.01870574,-0.002919646,-0.0064854478,-0.011971228,-0.019050825,0.027663676,0.03139846,0.08175625,0.09268565,0.08192109,0.07955705,0.060275286,0.043266136,0.02139576,0.019292222,-0.025855972,-0.048438422,-0.0454313,-0.06916205,-0.07711465,-0.05346619,-0.031181341,-0.008289568,0.0045585833,0.033060227,0.026652277,0.012820723,-0.018413695,-0.023573501,-0.0129413055,0.014761849,-0.0051544625,-0.0071713454,-0.007920862,0.0045724767,0.05363715,0.0880391,0.098927535,0.10935748,0.09846584,0.04735205,0.030636067,0.012367042,-0.009081457,-0.010739308,-0.007144247,-0.044702962,-0.085231304,-0.092546195,-0.067027554,-0.038809367,-0.011167556,0.018017797,0.0042496547,-0.029621452,-0.03586584,-0.027855495,-0.0129230805,0.012426869,0.016665012,0.0006656327,-0.041092213,-0.04624787,0.008999878,0.050686054,0.07098483,0.0942749,0.083845384,0.065877594,0.044880066,0.031940702,0.025651598,0.023663456,0.005102884,-0.019682763,-0.058217235,-0.081970096,-0.06855171,-0.046264764,-0.016100457,0.012260237,-0.022524634,-0.050176308,-0.034192782,-0.057450507,-0.016769357,-0.004011898,-0.013186153,-0.0428266,-0.066446885,-0.042070795,-0.014785551,0.019144574,0.029939745,0.07821116,0.10190807,0.056966905,0.05141409,0.057748497,0.037942503,0.05243992,0.031184593,0.0018758634,-0.0271127,-0.058371283,-0.064936355,-0.04244754,-0.024838135,0.018270154,-0.023028761,-0.05263888,-0.011462457,-0.026051126,-0.01564297,-0.03867131,-0.037744164,-0.05264969,-0.0602964,-0.045676533,-0.012181152,-0.0057719112,0.019179272,0.071273714,0.08267329,0.0562766,0.051767234,0.032464936,0.058940243,0.06618331,0.05707449,0.03240511,0.0027706234,-0.06890946,-0.10684326,-0.07064838,-0.047950346,0.026684761,0.0011806117,-0.017775092,-0.0043263477,-0.008749777,-0.023959547,-0.027253117,-0.04969088,-0.06024118,-0.05348084,-0.0510406,-0.01641774,-0.02116003,-0.0042798375,0.013675515,0.046008084,0.040948145,0.030939203,0.0337292,0.027728854,0.04104798,0.047212094,0.05171333,0.0013838724,-0.058404773,-0.10059555,-0.06574682,-0.044666544,0.033999827,0.030370586,0.004101628,-0.011735614,0.0012716443,0.0101688355,-0.014855009,-0.028577734,-0.024268229,-0.011217732,-0.024585452,-0.039848976,-0.027717143,-1.2508817e-05,-0.0025768536,-0.008940323,0.0037495845,0.03282054,0.027015379,0.043042716,0.03399155,0.035781935,0.054498304,0.007843,-0.045747485,-0.05417938,-0.027823173,-0.0017911898,0.0401498,0.025301868,0.019500326,0.0023371575,0.026175937,0.01265571,0.013063837,0.0039814874,-0.012705782,0.0010537562,0.0027627067,-0.011264924,-0.019595783,0.015321004,-0.021816181,-0.011511987,0.0043360824,0.03202692,0.055006698,0.064988144,0.038546942,0.05167645,0.053589623,0.017861208,-0.01258417,0.0037182947,0.020819604,0.056915533,0.04237181,0.02003915,0.0006019463,0.010305522,0.020181593,0.015577297,-0.003634631,0.0064300126,-0.0024593654,-0.004555429,0.009132936,0.007032188,0.028727354,5.205892e-05,-0.010950644,-0.0012874771,0.023538763,0.022638451,0.039415877,0.035103295,0.048342537,0.04439588,0.059931193,0.027767006,0.0025812683,0.0011709784,0.029041704,0.07237194,0.050954808,0.022979707,0.0037003644,0.022626787,0.0039555575,0.008593455,-0.0010887624,-0.00500446,-0.018431725,0.005404647,0.010274884,0.0129141975,-0.007587061,-0.0070577883,-0.025759516,-0.012271287,0.0020503893,0.006782371,0.039362144,0.056923956,0.052342895,0.06109782,0.057736035,0.036413703,-0.0092489235,-0.006111225,0.02132347,0.05849012,0.057508696,0.05100778,0.03578497,0.027996903,0.017332776,0.00207833,-0.018863194,-0.007932787,-0.019339753,6.824176e-06,-0.012121907,-0.018399043,-0.004990575,-0.0075261546,-0.042703703,-0.034861073,-0.003757144,0.0024886944,0.027413718,0.02310337,0.039024156,0.06311087,0.03267792,0.022792676,-0.022680784,-0.008069861,0.01801395,0.052012965,0.06748801,0.06208301,0.040151235,0.026567966,0.016474538,0.0166416,0.010740709,0.0036785936,0.008053945,0.013206314,-0.014658709,-0.009867776,-0.038481425,-0.03502026,-0.013259426,-0.026407303,-0.0013376173,0.014107449,0.02806203,0.043679085,0.04864633,0.01968978,0.00397103,-0.0038545562,-0.028797595,-0.020531205,0.0031357524,0.042266693,0.07335849,0.046778332,0.023487484,0.012702844,0.019153617,0.027517656,0.022199696,0.032966092,0.028129457,0.016834442,-0.00075496413,-0.029409723,-0.026734764,-0.015172697,-0.012166884,-0.0047073504,-0.012397864,0.0073503572,0.024480173,0.037531335,0.01946454,0.016589489,-0.020253384,-0.03238755,-0.040566966,-0.03420176,-0.010368853,0.029560635,0.055314332,0.04615312,0.0128135,0.00916882,0.0068320753,0.0014595706,0.006880637,0.007981161,0.020250041,0.0010199234,-0.02696956,-0.035390683,-0.0136041315,-0.0218636,-0.016458632,0.0006604499,-0.018246721,-0.008580749,0.01554944,0.0026253513,0.0086653745,-0.0034990406,-0.03917916,-0.04166278,-0.043841075,-0.03385275,-0.012921906,0.033343103,0.063848324,0.04176479,0.0062174937,0.0068158824,-0.0025632852,-0.00708018,-0.014259798,-0.012994621,-0.023984514,-0.036757894,-0.042613536,-0.04278388,-0.034566075,-0.021322679,-0.031327862,-0.017070131,-0.02376822,-0.004669529,-0.022687022,-0.009201784,-0.008110704,-0.010728693,-0.031118866,-0.026488205,-0.033238813,-0.031746637,-0.010853212,0.039427843,0.051094577,0.043358978,0.025148146,0.012161671,-0.000246657,-0.019534668,-0.019514663,-0.023716295,-0.037284773,-0.03746296,-0.018813485,-0.023988059,-0.030934231,-0.020509535,-0.023887191,-0.041111905,-0.022698903,-0.017397033,-0.045668043,-0.047358725,-0.023083866,-0.024242701,-0.031152641,-0.032620188,-0.037682623,-0.034335192,0.0006467192,0.028815039,0.051176168,0.036110546,0.026641587,0.024756003,0.0014352369,-0.013317599,-0.024216088,-0.023273889,-0.021901606,-0.016402107,-0.03075173,-0.039007004,-0.016300907,-0.012897629,-0.003887877,-0.0067522987,-0.033933513,-0.014651182,-0.024180444,-0.03632369,-0.04267655,-0.041111767,-0.048183564,-0.03093114,-0.035068244,-0.026999518,0.00065742125,0.032674555,0.05495934,0.03667201,0.01834677,0.023169935,0.0077134403,-0.007449516,-0.029908461,-0.025682025,-0.03456624,-0.02358085,-0.02834436,-0.012208251,-0.02240958,-0.02268057,-0.010147874,-0.014483981,-0.02402142,-0.037880067,-0.030868163,-0.02754256,-0.034049377,-0.053756922,-0.0319323,-0.024005275,-0.017669722,-0.0065293694,0.014833906,0.043012332,0.04632116,0.034964114,0.029926507,0.029921453,0.020988924,0.0075158086,-0.015527351,-0.0281969,-0.03628625,-0.03310266,-0.028931694,-0.038858015,-0.0361647,-0.024403451,-0.014171691,0.00072308874,-0.00057618454,-0.022952033,-0.007872368,-0.011371376,-0.012370583,-0.02886489,-0.0174456,0.0017270962,0.004365349,0.012495987,0.027364032,0.051762145,0.052090287,0.040464412,0.029345796,0.020507721,0.0076636,0.0066000316,0.022864252,0.002822575,-0.027966179,-0.021200163,-0.01803991,-0.009347613,-0.019933771,-0.02756822,-0.015509367,-0.02857615,-0.022046888,-0.014710208,0.004303006,-0.0068399166,-0.0014332271,-0.003561501,-0.0021112126,0.015908862,0.022387642,0.03771533,0.044921525,0.054427028
-0.026842797,-0.034749534,-0.037615035,-0.043004874,-0.06332882,-0.080572255,-0.100695804,-0.10369586,-0.105347075,-0.07116489,-0.055174924,-0.021024052,-0.012665228,-0.016335221,-0.03265371,-0.047256615,-0.037121035,-0.027922405,-0.017263774,-0.026356606,-0.013773282,-0.008786087,-0.005191674,0.013741004,0.019156806,0.008644574,-0.0129004195,-0.017255917,-0.0320053,-0.035474744,-0.046682037,-0.05855449,-0.06409241,-0.07732298,-0.058128517,-0.036298484,-0.027322022,0.013982963,0.026628623,0.024714308,0.045172874,0.0416682,0.030234912,0.026970215,0.011770344,0.037043124,0.024214529,0.016502684,0.0326023,0.045376975,0.04995391,0.032127243,0.034212254,0.029296752,0.018026225,0.009754224,-0.031920508,-0.040356383,-0.045496147,-0.036880888,-0.013408199,0.005816779,0.007264605,0.024590312,0.042449336,0.07039262,0.089141786,0.1036005,0.09784943,0.120367266,0.112767786,0.1030411,0.11450652,0.11157398,0.093658574,0.09754949,0.1127602,0.09859353,0.091417715,0.078551196,0.07359175,0.062219303,0.033527285,0.012386978,-0.032761667,-0.03275373,-0.029063566,0.0023396525,0.028113833,0.049510177,0.06597343,0.08488254,0.08512517,0.093094155,0.10940554,0.120889775,0.13396734,0.13927926,0.1279313,0.14849916,0.1427351,0.14294423,0.11880611,0.10786188,0.09366681,0.08182586,0.072998986,0.061758015,0.06274831,0.07039156,0.054415774,0.036802176,-0.031481307,-0.016721869,0.008635826,0.04347637,0.057535205,0.07609817,0.090040036,0.10883358,0.109917045,0.109415695,0.11981651,0.10834969,0.11027232,0.11861364,0.122010425,0.105655745,0.11704578,0.09742186,0.08850096,0.08765969,0.07721447,0.039684284,0.03891433,0.03798572,0.038976073,0.060632333,0.06068992,0.04623828,-0.031398077,-0.010651038,0.037134256,0.042426,0.069303356,0.09646831,0.102861874,0.12441003,0.12014114,0.12049128,0.12735902,0.109388486,0.09752185,0.11547062,0.105261534,0.12355347,0.1112147,0.1278383,0.09627063,0.11987607,0.091294415,0.08878965,0.051404625,0.057833657,0.05142645,0.041385192,0.04528473,0.040676404,-0.02810691,0.0043132743,0.044944167,0.05104866,0.055546958,0.10839964,0.09877802,0.098652996,0.10658817,0.11310968,0.092760384,0.12692241,0.10232464,0.116309784,0.11334444,0.104239374,0.122867316,0.11590836,0.091887705,0.1109458,0.08842099,0.072051086,0.04609835,0.066574074,0.057106946,0.026618853,0.03712242,0.03358042,-0.03171674,0.012448281,0.038890548,0.054449167,0.07910291,0.090262026,0.08512908,0.114843905,0.120093405,0.11488628,0.09201445,0.105876155,0.078172185,0.098157026,0.104433544,0.1403544,0.12299622,0.08096,0.050940957,0.027815273,0.025447879,0.012213566,0.02656449,0.035817932,0.045544475,0.01331975,0.010857764,0.010520311,-0.02918683,0.021296939,0.05033328,0.07698332,0.08251345,0.09870983,0.08639935,0.10451313,0.08543145,0.08091235,0.049665738,0.07482622,0.07737816,0.038591668,0.06104396,0.095348686,0.080525875,0.042363454,0.041101888,0.029461613,0.021683438,-0.008268381,-0.013549197,0.010766773,0.024838215,0.0043240744,0.0049614264,-0.004195143,-0.021539884,0.03491446,0.069911264,0.10100345,0.094383135,0.08118082,0.08290012,0.083801374,0.09442316,0.059667658,0.021688003,0.013651485,0.020803265,0.026872298,0.00087511603,0.01484661,0.0023214726,-0.0018708974,-0.00721266,0.0031392865,0.0050407886,-0.0033178492,-0.02721477,-0.023343632,0.014848419,0.02333778,-0.011561717,-0.027116522,-0.004896357,0.061268732,0.09812186,0.10184095,0.094583765,0.08575706,0.08594056,0.09304853,0.07921937,0.057502028,-0.008262843,0.009884015,-0.013184598,-0.028526912,-0.018762488,-0.022466052,-0.031079313,-0.040292062,-0.02683727,-0.029379912,-0.007040654,-0.0039719376,-0.0142941205,-0.0058431737,-0.015307634,0.00523387,-0.031539924,-0.03713537,0.015159542,0.07879059,0.101589516,0.09347244,0.10225332,0.08924827,0.08629485,0.07730324,0.05303697,0.004024044,-0.010366579,-0.01393332,-0.018882416,-0.03898324,-0.023364611,-0.025007246,-0.042558216,-0.009192586,-0.017774822,-0.00797825,0.005693059,0.009373269,-0.009097313,-0.020960188,-0.023496935,-0.022690283,-0.031112898,-0.030001929,0.010368516,0.065453544,0.08209618,0.09571194,0.092189685,0.10120622,0.07547174,0.056107502,0.03532167,0.021033281,0.026184428,0.024666797,-0.010588106,-0.019717157,-0.05769984,-0.07122012,-0.058251962,-0.030054474,-0.03430849,-0.002393742,-0.004639294,0.00062467053,-0.009692012,-0.032161523,-0.0047719865,-0.014818666,-0.042301103,-0.0294588,-0.01145016,0.03298176,0.04056714,0.051639043,0.07107496,0.056729574,0.040107958,0.04208436,0.005785579,0.028293034,0.011556121,-0.00311546,-0.0055759526,-0.013930483,-0.038303066,-0.06507084,-0.053379532,-0.050677136,-0.05005441,-0.013497579,0.016815199,-0.003555767,-0.0010048612,0.001515102,0.006449668,-0.020384554,-0.04169843,-0.055102028,-0.026317187,0.007301075,0.021908,0.01150776,0.010319896,0.007960411,-0.010270736,0.014701372,-0.010242924,-0.007265252,-0.026733482,-0.0036364335,-0.00498304,-0.0043190923,-0.030758595,-0.07161428,-0.0557268,-0.052842926,-0.056185722,0.009999567,0.006691565,0.014036831,-0.00090361026,0.0019827427,-0.012372059,-0.014948596,-0.049673535,-0.06986987,-0.04711219,7.41721e-05,0.00706536,-0.024166316,-0.037539847,-0.016874043,-0.023217844,-0.042213924,-0.03895443,-0.042657033,-0.020861091,-0.02674223,-0.016502528,-0.013514806,-0.046569478,-0.06350429,-0.050955493,-0.04473425,-0.030223066,-0.029466266,-0.04007189,-0.040546317,-0.031610865,-0.038460948,-0.04762018,-0.064763375,-0.08296571,-0.07949445,-0.05578977,-0.02352377,-0.0546616,-0.06403705,-0.068480834,-0.061392833,-0.068171114,-0.06997279,-0.067209266,-0.048781198,-0.05004471,-0.03549386,-0.056447297,-0.052662816,-0.054154463,-0.033427663,-0.049739957,-0.05785535,-0.05448817,-0.048887476,-0.06673275,-0.0743239,-0.074422486,-0.07600248,-0.06360171,-0.078775935,-0.084592246,-0.077045254,-0.058373958,-0.048828173,-0.081959315,-0.1012585,-0.10592434,-0.10112051,-0.09511829,-0.08126387,-0.07598154,-0.060120653,-0.054622915,-0.057022415,-0.058350608,-0.035349064,-0.031208985,-0.025334602,-0.052460223,-0.06292291,-0.06536665,-0.055721413,-0.06564009,-0.05714216,-0.039232556,-0.06612684,-0.0621263,-0.07100117,-0.07721519,-0.07787749,-0.053492364,-0.066333875,-0.08312665,-0.08480463,-0.09307412,-0.091526546,-0.0729074,-0.06315683,-0.042103965,-0.033420928,-0.01903567,-0.030157192,-0.02442898,-0.003225936,-0.01828266,0.020862658,-0.012418658,-0.03718264,-0.0286528,-0.040806644,-0.03871771,-0.057935927,-0.026152633,-0.045547754,-0.060368747,-0.080048926,-0.06943785,-0.06074377,-0.05668958,-0.058710642,-0.0795122,-0.08755242,-0.07067395,-0.07700961,-0.062165532,-0.038479596,-0.046935353,-0.031350374,-0.014480287,0.017093282,0.009608035,0.019444551,0.016625712,0.023084598,0.004269714,-0.018314065,-0.030020991,-0.02722735,-0.041932993,-0.022417609,-0.052791867,-0.058578774,-0.07467246,-0.075897254,-0.07797344,-0.05494687,-0.042212773,-0.04720147,-0.0545111,-0.05618816,-0.040986612,-0.045108385,-0.05624154,-0.041081563,-0.025394235,-0.055109467,-0.02827055,-0.036684915,-0.0038628075,-0.01317306,0.006263348,0.009194452,-0.020338427,-0.031136787,-0.028424624,-0.02825316,-0.049746387,-0.050860062,-0.064501405,-0.052610222,-0.066753544,-0.064415514,-0.07116606,-0.05334591,-0.02322212,-0.027549736,-0.019330556,-0.0037286736,0.005347803,0.009087795,-0.020192917,-0.040617734,2.5711697e-05,0.0056884545,-0.005210336,-0.003318228,0.002485864,0.016232142,0.03278021,0.020750385,0.010730773,-0.004939781,-0.0042088614,-0.008120765,-0.040493537,-0.05307546,-0.042810243,-0.07641688,-0.0712506,-0.06000347,-0.052646633,-0.042175557,-0.02599278,-0.032896083,-0.040516682,-0.013055268,-0.008391542,-0.027492847,-0.03241613,-0.019687254,0.0015666377,-0.012150546,0.029452028,-0.0026839294,0.005395248,-0.007757175,0.015033962,0.0016674767,-0.0070968047,-0.017169753,-0.0069659,-0.013075082,-0.010442726,-0.049991768,-0.05707264,-0.06904701,-0.054326463,-0.041350402,-0.04201215,-0.03589033,-0.030055348,-0.0244538,-0.023090893,-0.011440013,-0.014167858,-0.023595076,-0.021310002,-0.028084142,-0.022962403,-0.0059281164,-0.008464089,0.0062890328,-0.012635405,-0.010528938,-0.0027468265,-0.026529146,-0.017457755,0.0028173174,-0.0043056146,0.008699407,-0.00022101693,-0.026548883,-0.034987833,-0.051137213,-0.045756686,-0.045173645,-0.036442686,-0.0300363,-0.030997002,-0.018611569,-0.021992322,-0.019166289,0.0040219645,0.004910709,-0.0051255804,-0.0036089607,-0.003181892,0.00047269792,-0.0018795489,-0.00048326526,-0.01600231,-0.015510505,-0.026859358,-0.04244301,-0.023727827,-0.021995341,-0.023732703,-0.04914251,-0.070413366,-0.063705735,-0.060230833,-0.05867645,-0.046306908,-0.041572053,-0.037925225,-0.02930641,-0.03370747,-0.02802662,-0.027740236,-0.027216025,-0.012528973,-0.009469947,-0.011757371,-0.022056725,-0.021804424,-0.005846857,0.00070440036,-0.004406382,-0.0030976057,-0.0109811695,-0.026257623,-0.042455368,-0.03308327,-0.031024182,-0.04079288,-0.063494995,-0.060059443,-0.04688957,-0.047197398,-0.0414068,-0.0333924,-0.034797538,-0.035285693,-0.027354315,-0.026991589,-0.030518904,-0.030648008,-0.041343722,-0.037780408,-0.021787792,-0.015983788,-0.024092115,-0.020626852,-0.015756276,-0.0031955712,0.005543747,-0.01596617,-0.033903424,-0.05149632,-0.04883889,-0.03993178,-0.04664187,-0.060241282,-0.048995692,-0.03411637,-0.03124557,-0.029915508,-0.030958613,-0.031113103,-0.02542636,-0.026032155,-0.029478852,-0.02994761,-0.024191434,-0.02660335,-0.028903512,-0.023605816,-0.02536471,-0.019003944,-0.022359284,-0.02487611,-0.027995903,-0.031241922,-0.030383972,-0.03567786,-0.043074697,-0.044691164,-0.045812666,-0.035768323,-0.044366866,-0.04151986,-0.032347195,-0.028379662,-0.023808574,-0.02271174,-0.022923952,-0.022741675,-0.026153242,-0.024739284,-0.029361652
0.022303002,0.019524947,0.020461356,0.0208973,0.023481322,0.020133782,0.016689854,0.0111234505,0.011466631,-0.0002665202,-0.010749515,-0.018014466,-0.021750621,-0.022060096,-0.03138214,-0.032480963,-0.049142927,-0.054301262,-0.056207087,-0.03728129,-0.02076243,-0.010654987,-0.004895499,0.0006464467,0.006514407,0.01172815,0.015423487,0.022682961,0.018159637,0.019081973,0.019515252,0.01770235,0.019243237,0.016897626,0.003453999,-0.0010380333,-0.014422375,-0.031826086,-0.044128027,-0.049371332,-0.04900147,-0.06205491,-0.07222178,-0.09608429,-0.12217183,-0.10531322,-0.08189804,-0.067521244,-0.07845343,-0.06881951,-0.06752022,-0.05966879,-0.039306797,-0.015171604,0.00843678,0.025445286,0.016073545,0.01427031,0.013630353,0.0062717604,0.0024987413,-0.0024974353,-0.016021755,-0.026314728,-0.0389074,-0.046094738,-0.033660576,-0.036413766,-0.05929009,-0.068344176,-0.04591633,-0.06898339,-0.092160136,-0.08659145,-0.09114603,-0.08100579,-0.083185844,-0.09257517,-0.07671784,-0.056596477,-0.03463651,-0.004038495,0.022786383,0.05169047,0.013160375,0.017994376,0.008717196,0.0023655503,0.00032684527,-0.006111057,-0.016197706,-0.01831555,-0.010318891,-0.0077850055,-0.0060081147,-0.0062796366,-0.026401909,-0.013240334,-0.033436086,-0.042405333,-0.025343329,-0.0421204,-0.038598366,-0.029551474,-0.015088035,0.0019496573,0.00658161,0.019032704,0.041590486,0.040032227,0.058334116,0.08162695,0.01572481,0.012291323,0.0050618844,0.0029405693,0.009916261,0.005484868,0.00033510287,0.00469947,0.0017361068,0.0042454996,-0.00086586684,0.013854302,0.0147379,0.018942509,0.03290425,0.036586978,0.040277183,0.06674962,0.06747749,0.08668944,0.09025804,0.10835761,0.09291595,0.109464765,0.098819435,0.10746815,0.09015144,0.12639844,0.01199974,0.0068977457,0.011844567,-0.0024496652,-0.0047061467,-0.0022505035,0.025838321,0.010433318,0.014623524,0.010010151,0.013616952,0.06476152,0.061773002,0.07651417,0.08029552,0.10273537,0.09753889,0.101354584,0.1519998,0.17819683,0.16880244,0.15406586,0.15160254,0.13136251,0.1265499,0.121769525,0.119939186,0.140102,0.0115948,0.0021938337,-0.0029312747,-0.009776909,0.007087846,0.004079526,0.0026719691,0.009499529,0.0072208894,0.00050511194,0.005498272,0.051806908,0.08296854,0.09919689,0.111913785,0.120499626,0.12872835,0.12900423,0.17284442,0.15962638,0.16669472,0.16304201,0.14614797,0.118104555,0.09264196,0.06322723,0.05742927,0.05462677,0.004664985,-0.016800273,-0.024251569,-0.032218132,-0.023066139,-0.019706495,-0.012444287,-0.026844872,-0.027630206,-0.033948973,-0.013927618,0.009259187,0.010989899,0.02709895,0.056832436,0.068649516,0.07541336,0.07188655,0.071720004,0.06958423,0.04832876,0.03851244,0.04155565,0.013136469,-0.0064743757,-0.03777032,-0.050798915,-0.04331229,0.0015774033,-0.023455001,-0.037162438,-0.04949444,-0.041666705,-0.030696189,-0.03734016,-0.046579998,-0.027339954,-0.006747714,-0.01087129,-0.0020954148,-0.018843004,-0.00084944954,0.00060202833,0.008119906,-0.020781266,-0.041117974,-0.060713492,-0.09002445,-0.12124583,-0.12736902,-0.11192373,-0.12889168,-0.13839644,-0.1415619,-0.14898603,-0.111727364,-0.002158179,-0.019351197,-0.024522966,-0.02771682,-0.031562544,-0.011984393,-0.023794556,-0.013417795,-0.0065220688,0.012036497,0.0013209283,0.012136057,0.016803382,-0.024809081,-0.04894526,-0.088302776,-0.11099024,-0.14706403,-0.18006025,-0.22021508,-0.24607055,-0.2521952,-0.24730054,-0.23683164,-0.22345577,-0.21208344,-0.19534937,-0.14499913,-0.001116715,-0.009991914,-0.0162264,-0.01159675,0.0033868381,0.017713081,0.010575053,0.0118828025,0.035687204,0.012489639,0.0051555918,-0.014637931,-0.0041074427,-0.042072676,-0.08360778,-0.07770353,-0.08689385,-0.09615055,-0.06960533,-0.08195737,-0.09353007,-0.10656564,-0.123159595,-0.17750485,-0.23043619,-0.2297916,-0.1917642,-0.13090482,0.0028469854,0.0016004519,-0.0016635334,0.010216466,0.014813155,0.03558662,0.020011585,0.04245663,0.02990898,0.01896099,-0.005949901,-0.0058097146,-0.017170325,-0.010376442,-0.04772258,-0.035314254,-0.010925222,-0.044381335,-0.03283883,-0.029915366,-0.01716632,5.992449e-05,-0.040394716,-0.079986446,-0.13724971,-0.14853966,-0.1268294,-0.0877887,0.017070968,0.018054076,0.03355486,0.032551616,0.039657068,0.050198704,0.03863649,0.03770774,0.038033236,0.024707988,0.0062403185,0.004587509,0.0017054357,-0.019629097,-0.042237166,-0.021887446,-0.013050547,-0.009953528,-0.011474365,-0.033201694,-0.0153119685,0.0075318795,-0.000112216476,0.025318135,-0.0075136814,-0.0290266,-0.023982964,0.00035761175,0.033011023,0.031314958,0.041344456,0.03296745,0.039874323,0.022776552,0.009413686,-0.015474508,0.020238804,-0.012414296,-0.028593618,-0.019953514,-0.019870145,-0.0063262354,-0.008166923,0.0080986535,0.02624782,0.01653515,0.0548605,0.053262353,0.05913492,0.06846234,0.0948044,0.09518519,0.088855125,0.07705238,0.021349797,0.03326107,0.031725723,0.025931625,0.025686208,0.023448013,0.012388352,-0.00037483056,-0.039823525,-0.017082818,-0.026531883,-0.045686793,-0.057969384,-0.05184367,-0.043449868,-0.01823785,-0.0063180462,0.012706097,0.00411905,0.027826663,0.053610884,0.06146214,0.07684529,0.08853632,0.108011164,0.10107827,0.115336314,0.09721652,0.0660619,0.04482706,0.027552202,0.016985018,0.006593765,-0.021070154,-0.020862255,-0.024753466,-0.035649035,-0.013335732,-0.012017244,-0.030106569,-0.024241352,-0.031681754,-0.035080496,-0.016877418,-0.024737759,-0.0028448564,0.0072339373,0.025555497,0.02979859,0.039966714,0.054890677,0.049993597,0.08171826,0.05635615,0.087539956,0.07076401,0.05342125,0.031322513,0.032828536,0.021522345,0.019839387,-0.014478366,-0.023876581,-0.026159521,-0.023718767,-0.028123073,-0.010894336,-0.0082408935,-0.015462758,0.0009585902,-0.024982965,-0.017397221,-0.010600352,0.015521672,-0.017837828,0.009902513,0.018403973,0.022029229,0.049038604,0.036983375,0.025172716,0.030473266,0.03729578,0.045903962,0.04536847,0.043156955,0.051435612,0.03540494,0.042396195,0.0042974553,-0.015801774,-0.021824658,-0.013578293,0.0019441248,-0.0067379926,0.0247502,0.02226457,-0.00067186845,0.011436295,-0.009883109,0.0016357787,-0.008435369,-0.014237184,0.0033121742,0.02505879,0.016200539,0.024883376,0.0082610715,0.028050844,0.012644086,0.014437285,0.0328922,0.046155054,0.05591165,0.050780006,0.0255075,0.032709815,0.021526909,-0.0037571776,0.011326077,0.01897397,0.010227777,-0.00033547613,0.02706355,0.04505052,0.035343714,0.011132222,-1.3321108e-05,0.011509507,0.024251387,0.026686355,0.010785851,0.0037006298,0.009555662,-0.008806636,-0.0108704,-0.012675862,-0.008459369,-0.0018290434,0.011449416,0.03957149,0.04553017,0.0519211,0.030839888,0.018414449,0.008038575,-0.0059021553,0.0047517875,0.014543566,0.008183024,-0.0006029044,-0.0010626643,0.019147547,0.035130218,0.044281133,0.014963648,0.028443187,0.02977638,0.009374609,0.014084894,-0.0035433758,-0.021541277,-0.017363556,-0.013913742,-0.04815871,-0.025628578,-0.02246648,-0.011989999,0.024945324,0.044001784,0.050263748,0.028356535,-0.003070902,-0.01758002,-0.014149021,-0.0072895256,-0.0371045,-0.027168415,-0.012246153,-0.00010677235,-0.018166266,-0.015913093,0.014205342,0.01927109,0.0053028977,-0.0039055515,-0.022171484,-0.0015182237,-0.007257983,-0.028812215,-0.011425873,-0.02346369,-0.04044382,-0.019855391,-0.03349298,-0.028031418,0.017616965,0.042521015,0.04768409,0.01952706,-0.005143621,-0.02129437,-0.007625766,-0.018581843,-0.030142406,-0.016739901,0.0016871231,0.014636403,0.016957287,0.025875878,0.040712293,0.050373714,0.023808794,0.0023893132,0.007406724,0.011648208,-0.018659147,-0.041339457,-0.030644907,-0.024744373,-0.013513192,-0.01488831,-0.04142092,-0.02631739,0.007377471,0.03176859,0.040614747,0.03268652,0.0026331302,-0.014833366,-0.024570605,-0.018712696,-0.011471144,0.012952399,0.009450828,0.017119974,0.00546548,0.012723328,0.012872949,0.019076724,0.00761333,0.019098995,-0.00035210836,0.026511425,0.0015663807,-0.014388711,-0.016811615,-0.00276604,-0.013441037,-0.031784613,-0.03942698,-0.02351589,-0.005226889,0.015364056,0.05221115,0.05227074,0.026810218,0.0038279947,0.0207921,0.025368929,-0.0060044643,0.0013742523,-0.0033663935,-0.005944678,-0.010710028,0.006332882,-0.0045378907,0.0031374134,-0.002401111,0.014283926,0.0074506155,0.026108485,0.0098375715,0.0030841006,-0.02090039,-0.027931446,-0.04027565,-0.044822637,-0.034134492,-0.023409326,-0.009855653,0.010623298,0.04804464,0.06841594,0.059992183,0.036049005,0.0365304,0.030510817,0.014199103,0.0148643125,-0.0021290805,-0.006493047,-0.010986701,0.0117016,0.01918093,-0.005536742,-0.007763773,-0.0104813455,0.014318527,0.006246943,-0.00093234336,0.009869786,0.014558505,0.019967426,0.0079264045,-0.0060025165,-0.010964569,-0.012228665,0.00048134263,0.015713183,0.042776633,0.06171288,0.0737481,0.049919784,0.04407984,0.048110444,0.048882324,0.03371211,0.034308888,0.0470139,0.057865366,0.029069275,0.018424582,0.011747951,0.013486498,0.008140559,0.0048372503,0.028963676,0.032666333,0.025109563,0.0218841,0.027194606,0.0027426933,-0.009285924,-0.013831003,-0.008202222,0.0047439537,0.012531841,0.036894068,0.04504937,0.04229763,0.02712985,0.014554724,0.011906218,0.020397991,0.025369678,0.03193917,0.037828248,0.03681488,0.032460228,0.01608731,0.010935935,-0.007003757,-0.01193597,-0.014369085,-0.014089495,-0.017730128,-0.009326285,-0.006461663,-0.0054080877,-0.017596027,-0.018168762,-0.012615316,-0.0070567834,0.0070565846,0.01199994,0.030205907,0.029374188,0.018519256,-0.0011745597,-0.012885776,-0.024225583,-0.031696428,-0.031816788,-0.039663564,-0.054793146,-0.07707173,-0.08202002,-0.07514546,-0.06165778,-0.047108073,-0.03528138,-0.020743042,-0.011197426,-0.01571919,-0.016574688,-0.016371332,-0.015134085,-0.013211564,-0.012294644,-0.0040145675,0.0009890673,0.0097959405,0.016119763
0.034252707,0.0333646,0.03032551,0.024293968,0.017991712,0.012267638,0.0115304,0.0035450822,-0.0023277733,-0.028447263,-0.045005888,-0.052572213,-0.06465471,-0.06884283,-0.060623452,-0.04815031,-0.040588822,-0.0259596,-0.008208833,-0.01506746,-0.011466014,-0.0026185745,-0.0054501654,-0.008032366,-0.0047682305,0.007339462,0.023787614,0.033995897,0.03412015,0.03033207,0.024359632,0.012256662,0.002114033,-0.0110508315,-0.020621073,-0.038697094,-0.05248026,-0.05488073,-0.047659714,-0.03690187,-0.034380294,-0.037404455,-0.03200385,-0.028630193,-0.0077370196,-0.008982169,0.0022359008,0.0071303113,0.0022241238,-0.016172653,-0.020477561,-0.014188339,-0.0003929329,0.010189341,0.02282123,0.031934164,0.032514744,0.02686405,0.015994893,-0.0001239919,-0.0130862435,-0.026657522,-0.034959808,-0.043581266,-0.0405513,-0.036856677,-0.035633016,-0.00496196,-0.0073167197,-0.020245912,-0.017162664,-0.013953709,-0.022099901,-0.012906877,-0.017679526,-0.007405864,-0.013881098,-0.030059075,-0.008231181,0.00721308,0.0093140835,0.011909046,0.021687832,0.029352676,0.03282748,0.022031732,0.008448726,-0.015646776,-0.021562304,-0.027785588,-0.03265453,-0.039310757,-0.033323754,-0.030969493,-0.01052878,-0.0041127414,-0.00094863045,-0.0018269705,-0.0116911875,-0.028296487,-0.025791163,-0.031296246,-0.029029423,-0.018713327,-0.027894711,-0.032483187,-0.028506719,0.011894959,0.030869003,0.009753424,0.013524267,0.030467156,0.031902663,0.009765413,-0.015219751,-0.0329062,-0.024966693,-0.03039555,-0.027759416,-0.036211748,-0.021880101,-0.027732588,-0.03748907,-0.03219367,-0.010834821,-0.03274145,-0.021529175,-0.01470326,-0.04325486,-0.045383297,-0.030934889,-0.020385278,-0.013498273,-0.031960405,-0.024429705,-0.0035970225,0.0037088841,-0.0003400385,0.010212367,0.026770614,0.02377753,-0.007231843,-0.030987512,-0.04189199,-0.023033008,-0.015292139,-0.002970829,-0.0020063042,-0.0033960291,-0.0028377948,-0.009059731,-0.024614867,-0.010946295,-0.040546287,-0.008467231,-0.030756,-0.039304815,-0.022273907,-0.024857704,-0.03930569,-0.04140213,-0.04863677,-0.03103341,-0.023194632,-0.0068278476,-0.009411746,0.003699545,0.012923004,0.015694147,-0.021450333,-0.034489572,-0.038867973,-0.030169344,-0.022447634,-0.024347251,-0.020808265,-0.017121967,0.0015704657,0.0060291807,0.0014248901,0.008070618,-0.0056750644,-0.004174851,-0.016832182,0.00053599925,-0.009187665,-0.011834307,-0.009877083,-0.024453053,-0.029192569,-0.024838302,-0.027418515,-0.02009413,-0.016562702,-0.008643237,-0.005702683,0.0036150576,-0.03097119,-0.042287108,-0.04709795,-0.04529295,-0.047893487,-0.050828476,-0.033284787,-0.015808787,-0.006197953,-0.011146058,-0.008859273,-0.0050345655,-0.011749393,-0.004462814,-0.016346265,0.0026507855,-0.020200325,-0.009237743,0.012332382,0.0039050505,-0.017839532,-0.023013059,-0.022675658,-0.028010389,-0.034033366,-0.017689055,-0.02090003,-0.007962082,-0.044591293,-0.07111077,-0.08071458,-0.07460725,-0.064295374,-0.055104468,-0.038472828,-0.023751045,-0.01031673,0.0146783525,-0.020573817,-0.01738959,0.006422054,-0.018407159,-0.0068675913,-0.0059283003,-0.01065833,-0.017202811,-0.017812856,-0.018249268,-0.001240284,0.004295512,0.020984894,0.021298356,-0.0065403213,-0.016125623,-0.015377387,-0.017733792,-0.06438626,-0.09248272,-0.10075515,-0.0986468,-0.077216044,-0.06912469,-0.08555382,-0.07402413,-0.05201206,-0.025779815,-0.058712345,-0.02463397,-0.009509366,-0.01342179,-0.010320615,-0.0203617,-0.0043084174,0.008635964,0.0069765616,0.008510228,0.020913828,0.027696937,0.04366018,0.059242945,0.03975056,0.015093025,-0.005215594,-0.014426117,-0.05401309,-0.07278094,-0.07963836,-0.07612576,-0.08141455,-0.0986144,-0.116805024,-0.10737325,-0.096850805,-0.05858572,-0.062634975,-0.05123154,-0.03209515,-0.029781517,-0.018575195,-0.026406262,-0.027775595,-0.015443793,-0.0032176194,-0.003184146,0.010377883,0.01710589,0.031512093,0.033773575,0.0279698,0.0073659956,-0.043706574,0.005056704,-0.019929407,-0.01877694,-0.03974964,-0.048702344,-0.04435174,-0.06709938,-0.11039737,-0.11029045,-0.10122638,-0.12092092,-0.12778409,-0.10536718,-0.11505413,-0.10999716,-0.075753465,-0.06922644,-0.075444065,-0.07152269,-0.07316104,-0.0647217,-0.053112738,-0.060427252,-0.048325308,-0.0524995,-0.048998933,-0.07497534,-0.08200818,0.03207338,0.02756661,0.03397514,0.0117882565,0.021403808,0.024122732,-0.015325814,-0.03612342,-0.0815253,-0.08569408,-0.12468633,-0.13103448,-0.14223701,-0.1488367,-0.14023857,-0.146497,-0.12557516,-0.13583353,-0.13851942,-0.13457145,-0.12073181,-0.13465083,-0.12246584,-0.13011181,-0.123302974,-0.09459087,-0.102849126,-0.09983571,0.047845807,0.065272935,0.09552201,0.08754537,0.09785534,0.09350334,0.07286354,0.051751003,0.042805232,0.031324435,0.023519129,0.018944753,-0.013171827,-0.05914964,-0.085691996,-0.0831654,-0.06433617,-0.09801783,-0.10745772,-0.10421983,-0.0829315,-0.088827424,-0.102553785,-0.11090683,-0.09333286,-0.08873763,-0.09537491,-0.0737858,0.05344522,0.07398845,0.11332632,0.15242223,0.15034164,0.15799798,0.16503258,0.17406605,0.17864782,0.19408779,0.17655715,0.13886507,0.116609745,0.07082014,0.051084224,0.03295989,0.0084207,-0.011510241,-0.015700478,-0.0012363847,-0.02412107,-0.027934847,-0.025906948,-0.05106603,-0.0626188,-0.07473903,-0.04857338,-0.041911803,0.05306673,0.06838877,0.108140185,0.14766045,0.15315753,0.17317913,0.17009205,0.19326001,0.20004153,0.20868869,0.19360864,0.19957978,0.19443053,0.17570819,0.14786825,0.12463355,0.08162491,0.0591494,0.052179966,0.050701875,0.042080976,0.028460097,0.0042918795,-0.021886205,-0.02995681,-0.026947157,-0.01128869,-0.01485338,0.04310079,0.07233562,0.10069215,0.10924683,0.09376951,0.09517007,0.09278519,0.09203979,0.10554934,0.13289478,0.13704117,0.15409517,0.17061153,0.17183676,0.15973434,0.116463184,0.118789695,0.071120836,0.05844735,0.0574552,0.045101743,0.03086169,0.033016,0.0019940762,0.000114989714,-0.0014759357,0.0067126793,0.0072080013,0.029249096,0.05764105,0.067391664,0.0543806,0.012401775,0.0083566345,-0.0038793602,-0.032994434,-0.028745197,-0.024615385,0.013810982,0.041908983,0.06988356,0.07620254,0.11297432,0.105549455,0.0931763,0.06580983,0.0635959,0.05715477,0.03862073,0.024835447,0.047069646,0.031064427,0.024943108,-0.0040688263,0.011073224,0.023251707,0.02339204,0.019968245,0.03371,-6.2733816e-05,-0.04556041,-0.06201811,-0.09654649,-0.082808256,-0.08377996,-0.08772109,-0.07128112,-0.052291416,-0.0075604725,-0.017297972,0.036036123,0.051558223,0.073083036,0.07614133,0.053578522,0.06012818,0.06378412,0.038228437,0.040606752,0.030484246,0.02449541,-0.0037132972,0.021902468,0.031250693,0.025542585,0.0065223505,-0.0014116535,-0.023166277,-0.054801214,-0.0877603,-0.10164663,-0.08407866,-0.094148,-0.10967538,-0.10152576,-0.08302675,-0.0488575,-0.033726476,-0.009523927,0.025027895,0.039202116,0.038348056,0.061847057,0.052963294,0.037361752,0.032246016,0.033388454,0.006980761,0.026515178,0.034008447,0.046947386,0.049103945,0.017208332,0.010556857,-0.008956181,-0.008746627,-0.018132482,-0.034881413,-0.041093197,-0.026528744,-0.053483654,-0.0621362,-0.0722322,-0.066430025,-0.045024734,-0.058063094,-0.037733827,-0.025456969,-0.003871985,0.019183367,0.02459917,0.02537876,0.04393805,0.032179583,0.049947906,0.026747445,0.049172204,0.039382443,0.05301265,0.045525935,0.023658937,-0.0010074483,-0.024787229,-0.0012522272,0.0071890485,0.027596617,0.038374055,0.023253316,0.0037181072,0.0011758911,-0.0013804781,0.003320702,0.016554808,-0.014255616,-0.011635079,-0.0017043425,0.013634261,0.005340684,0.017178398,0.033333853,0.033292387,0.02661595,0.021026159,0.01584818,0.036201686,0.033644143,0.037844516,0.03619802,0.017961962,-0.006468781,-0.026103783,-0.0066712312,0.012846449,0.04786931,0.059433725,0.056460675,0.0477386,0.033502333,0.043981344,0.052538663,0.0402107,0.0306918,0.035773847,0.033935856,0.026735839,0.012364273,0.006850092,0.020806605,0.00993367,0.0029002137,-0.012786387,-0.011519478,0.0059443456,0.013004303,0.041386098,0.03092099,0.010844286,-0.013521412,-0.027038557,-0.018603552,-0.021099782,0.0095057385,0.021142332,0.022448353,0.03565495,0.06044305,0.043049023,0.020357579,0.0095654465,-0.006457612,0.003907152,0.013255602,0.01624056,0.0007640398,0.007973353,0.004303365,-0.0055483105,-0.007897459,-0.007837145,0.001175442,0.009605036,0.01710331,0.036532924,0.025881857,0.015691275,-0.011807,-0.032543436,-0.03840668,-0.03297766,-0.027777195,-0.019564195,-0.030138014,-0.03139478,-0.018400125,0.0055315867,0.008414956,0.00010583358,-0.012695061,0.0039170305,0.0103635555,0.032032646,-0.003604956,-0.0027383515,0.0038341533,0.008912546,0.0056074546,0.005883978,0.018861022,0.013029912,0.016901417,0.014959575,0.025176799,0.018677665,-0.0031696733,-0.028687289,-0.051758207,-0.056120727,-0.05984183,-0.05028611,-0.026079988,-0.023372423,-0.027298028,0.001671597,0.0080347285,0.004418677,0.004872921,0.0048407926,0.019596461,0.02490368,0.0122031,0.00042876616,0.007134466,0.0045262496,-0.00016617637,-0.0019380852,0.016847232,0.024169343,0.01835792,0.011397028,0.025164964,0.032834746,0.010590991,-0.009500971,-0.031294048,-0.03837246,-0.04332283,-0.029233575,-0.008796239,0.00045260103,0.007977114,0.0020203963,-0.00027967212,0.0017186201,-0.009668961,0.018459536,0.013227679,0.0141223855,0.0040922468,0.00038343252,0.00966579,0.0019177918,-0.015071331,-0.0014470987,0.011884792,0.020717138,0.022814814,0.0226636,0.035408925,0.03377085,0.024882818,0.013279246,0.0014185094,0.0036497575,-0.0070054866,-0.00045773163,0.013607321,0.0065022344,0.010233606,0.0013040542,-0.005241384,0.012230966,-0.0078025935,-0.0068302182,0.009926365,0.0060462723,0.0072361086,-0.0044732983,-0.020722436,-0.018556163,-0.0002256775,0.019221913,0.025492955,0.031177377,0.027976144,0.025775615,0.030797975
0.08806645,0.09345735,0.07895133,0.053466175,0.030256078,0.0069376663,-0.016896252,-0.034718953,-0.034602355,-0.018919269,-0.010193639,-0.0027047512,0.027126804,0.053580422,0.080621794,0.08313858,0.07172685,0.043831132,0.049525492,0.049040247,0.030485002,0.032336324,0.025871588,0.04500411,0.05334827,0.052532036,0.06406174,0.08153024,0.09009023,0.08612276,0.055451047,0.022065071,0.0028744563,-0.031735975,-0.06406324,-0.076060474,-0.07062172,-0.042033944,-0.02382409,-0.011838418,0.004958076,0.019577188,0.044517506,0.06428306,0.059603445,0.055470895,0.05862882,0.06293616,0.062013596,0.050847568,0.04976142,0.03774409,0.039099675,0.033550035,0.04337859,0.06416322,0.08847015,0.07077102,0.042280443,-0.010019398,-0.047700893,-0.07755772,-0.10218762,-0.1275746,-0.114777744,-0.103353396,-0.084215604,-0.069003984,-0.061727647,-0.05112364,-0.03071698,-0.012186701,0.011888126,0.042710815,0.020141354,0.032884635,0.050004214,0.05693263,0.027574288,0.012381718,0.020145766,0.017064597,0.017112445,0.049631685,0.083715305,0.06681097,0.030074816,-0.026318926,-0.062088404,-0.1000375,-0.13188742,-0.1571583,-0.17508835,-0.19391924,-0.1881407,-0.1796271,-0.18223813,-0.18062374,-0.1539725,-0.119321294,-0.10315315,-0.08126982,-0.0771229,-0.056409165,-0.050960448,-0.053666193,-0.04704137,-0.046081774,-0.03556527,-0.025893588,-0.005647648,0.033561777,0.087410346,0.06658139,0.032100007,-0.025610678,-0.057857294,-0.0876453,-0.12093193,-0.1461062,-0.17644782,-0.20350029,-0.22031549,-0.21166915,-0.20666921,-0.1930395,-0.16684714,-0.14690503,-0.14721902,-0.1496372,-0.12335973,-0.11715762,-0.09865614,-0.092987694,-0.09398126,-0.097283214,-0.080907755,-0.05795754,-0.041494373,0.02262402,0.09545805,0.07399182,0.039565593,0.0035471166,-0.020752719,-0.015889332,-0.021013482,-0.030718226,-0.072079085,-0.09938498,-0.113155045,-0.13464996,-0.13737978,-0.13367225,-0.13339506,-0.09093114,-0.0868589,-0.1148799,-0.08641273,-0.069502085,-0.06361239,-0.06216946,-0.052408233,-0.07443648,-0.08238775,-0.058274817,-0.027703842,0.031952817,0.09119769,0.06885329,0.04195117,0.052339092,0.047620334,0.08273588,0.07483348,0.0623293,0.023321912,0.008654188,0.017937547,0.03181199,-0.006253889,0.0019280877,-0.011820077,-0.020049177,-0.027024241,-0.0053551565,-0.016223706,0.0023926678,0.040478423,0.026547857,0.012540567,0.00077572267,-0.01997238,-0.008688665,0.009075606,0.06077796,0.0895125,0.055575028,0.04747165,0.07552023,0.07841474,0.089515604,0.10575993,0.13550164,0.14099652,0.13902608,0.13495173,0.14790307,0.13463147,0.11746761,0.106477074,0.10391398,0.10072261,0.09414049,0.07747226,0.05558373,0.07494528,0.081092656,0.066138946,0.050855618,0.034617394,0.027737811,0.012015776,0.05925565,0.06656843,0.028629344,0.039333154,0.05706924,0.060797404,0.09867238,0.11829386,0.13812824,0.14075628,0.16745111,0.14723061,0.1342196,0.13560808,0.12730046,0.096419774,0.112011395,0.106029704,0.09023958,0.06959596,0.068724304,0.04757232,0.03991798,0.05527589,0.04774966,0.039341547,0.013858078,0.025357375,0.07562592,0.037093647,-0.0001726261,-0.005669206,0.00746784,0.016738554,0.06581792,0.08667084,0.07974748,0.09010587,0.113933764,0.097741686,0.09995037,0.09406954,0.09967365,0.08766899,0.097034596,0.06758535,0.043568652,0.018646263,0.01903661,-0.0045099338,-0.004440142,0.0114368275,0.0030961782,0.025207954,0.007099949,0.014218139,0.04011019,0.014944795,-0.033099033,-0.062103853,-0.040260572,-0.031161673,-0.03824347,-0.028378408,-0.0407958,-0.05345009,-0.03846928,-0.051786527,-0.034273397,-0.046289776,-0.036649343,-0.024174435,-0.030548465,-0.016005611,-0.050956976,-0.04169824,-0.045430098,-0.044354938,-0.02750087,-0.030689811,-0.0259332,-0.027785556,-0.029832395,-0.015820349,-0.0073145065,-0.0040092287,-0.07081452,-0.09506039,-0.092880026,-0.1173127,-0.08681839,-0.08794755,-0.113922775,-0.13155554,-0.13864833,-0.127998,-0.12125696,-0.11034243,-0.11246189,-0.08279563,-0.075098336,-0.061628267,-0.03170795,-0.012992411,-0.019936284,-0.0047154604,-0.017116535,-0.021540178,-0.021944227,-0.020339213,-0.015216245,-0.00845634,0.009142133,-0.00026216992,-0.07811497,-0.0972965,-0.07802321,-0.09720476,-0.09483685,-0.09933765,-0.06723435,-0.07979185,-0.08593145,-0.06714348,-0.037439596,-0.033429593,-0.035339814,-0.0483957,-0.033486415,-0.005444432,0.023552245,-0.012048072,0.0042270194,0.006198878,0.001198783,0.021180328,0.0173594,0.0153735345,-0.020046143,-0.014499095,0.0062667504,0.016354885,-0.045041133,-0.057223864,-0.030263085,-0.043697927,-0.023383938,-0.007155451,-0.00651369,0.011549341,-0.011611884,0.010628407,0.021088324,0.0078149615,0.0052348212,0.007396882,0.014858426,0.01809151,0.02626848,0.009341338,0.024713384,0.023533389,0.02310121,0.0015889145,0.014324722,-0.0048707505,-0.013094255,-0.0017863928,0.010107661,0.040186204,-0.017821329,-0.003153085,0.027651533,0.03664749,0.047886543,0.03580765,0.034470286,0.042493798,0.04487589,0.059091818,0.03128477,0.008355896,0.018754298,0.014631681,0.007781274,0.010217545,0.0035511279,-0.002595265,0.011462108,0.01653012,0.024144609,0.031288955,0.04485478,0.019990752,0.03005907,0.03022162,0.02855317,0.044196196,0.0060684867,0.020239914,0.04519772,0.072773375,0.09362572,0.09122835,0.079776205,0.0846336,0.05890101,0.052873783,0.026914347,0.0175548,0.024978414,-0.011822452,0.0008066118,0.0031553325,-0.0024155201,0.005828593,0.020598305,0.0177146,0.031258013,0.031127375,0.031797595,0.03277254,0.018771509,0.0048567355,-0.007770334,0.050963987,0.02251566,0.056490034,0.06751518,0.068431616,0.07298617,0.0632157,0.09112817,0.08356591,0.040740475,0.03192056,0.015052198,-0.003948326,-0.0036723397,-0.006951835,-0.00626969,-0.015770404,-0.017511679,-0.013302747,0.0079230135,0.018726181,0.019588903,0.01862239,0.024214348,0.023563007,0.013159652,-0.014806638,-0.0077808406,0.055553947,0.023731915,0.060475424,0.07365375,0.050948188,0.023272905,0.032261327,0.021520225,0.0064736665,-0.011037142,-0.004525557,-0.011994644,-0.011000872,-0.013214122,-0.041442335,-0.016376257,-0.008390227,-0.014766928,0.0020440756,-0.0059201554,0.0055521554,0.011417199,0.04237093,0.03515466,0.011358206,0.006822444,0.0070148436,0.0043126466,0.050691064,0.011845263,0.03159252,0.048780672,0.033605937,0.0060647973,0.0005844889,-0.004592348,0.003273339,0.010974306,0.015242359,0.025828704,-0.004316588,0.00077591283,-0.023104481,-0.02653753,-0.022704381,-0.0059787394,-0.01410563,0.025177518,0.021795783,0.010053314,0.01464243,-0.003177392,-0.005738666,0.0039694533,0.015365624,0.016187102,0.04425105,0.010855966,0.0011275724,-0.0020489744,-0.009089574,-0.04133953,-0.027248338,-0.010879969,0.00093970983,0.0060752654,0.0116558885,0.026032183,0.0016824006,0.017764622,-0.012784932,-0.006563099,0.0013068008,0.004287501,-0.0016780361,0.014662763,0.0065659084,-0.001826224,0.0068074223,0.011431683,0.01378479,0.004148983,0.015312938,0.010464397,0.044094205,-0.011397972,-0.048243422,-0.04088346,-0.046493337,-0.042825118,-0.058382526,-0.03715238,-0.029254213,-0.015188087,-0.019745415,-0.00620869,-0.0016110919,0.012463874,-0.004651024,0.017132016,-0.00025456495,0.002292146,0.0018626755,-0.0042234925,0.009610056,0.005518616,-0.00081855647,0.016258528,0.02086969,0.017053587,0.007620539,0.02187544,0.04045521,-0.014365271,-0.04345957,-0.050627224,-0.046276417,-0.04241421,-0.040019806,-0.042767737,-0.024973756,-0.017519657,0.0035632092,-0.014233293,0.019423382,0.009152491,0.021671208,0.021311853,-0.0073371977,0.0018693842,-0.008438603,-0.00037615688,0.0048420057,-0.026117612,0.0014259589,0.012275552,0.011499026,0.0009665115,-0.004218041,0.025143323,0.048553076,-0.002257769,-0.051467504,-0.059721045,-0.046442345,-0.03279602,-0.03121703,-0.01580615,-0.0043639583,0.006199876,0.0035455863,0.010616037,0.00087846746,0.0053638103,-0.0076152915,-0.01691847,-0.011725805,-0.01843724,-0.038980618,-0.021865256,-0.022101015,-0.02663994,-0.010669823,-0.020624889,-0.030479794,-0.014359985,-0.008523029,0.024461238,0.057031505,0.009533104,-0.026278194,-0.040834334,-0.034951072,-0.033525784,-0.04575106,-0.016725663,-0.04984505,-0.050921995,-0.02403093,-0.031191012,-0.025387237,-0.034851313,-0.03360571,-0.028066654,-0.03332065,-0.04218789,-0.045732755,-0.03261301,-0.03008563,-0.030190498,-0.05131334,-0.057839166,-0.06064206,-0.054129213,-0.010908358,0.026543962,0.054957964,0.0077197473,-0.015401813,-0.016046066,0.0016500384,0.0015278544,-0.01267365,0.008698864,-0.016339267,-0.030972973,-0.045405444,-0.022534488,-0.02816738,-0.040054496,-0.04563305,-0.05775972,-0.020818647,-0.038449757,-0.033401605,-0.026158376,-0.055571016,-0.042824082,-0.054863594,-0.058918953,-0.06346614,-0.040413667,0.0051705427,0.03800622,0.060419064,0.025324717,-0.0044523175,0.00041031782,0.019740174,0.03514628,0.022470348,0.03498329,0.02396385,0.011640088,0.005420208,0.006900339,0.002105308,-0.0011990201,-0.025515983,-0.009638302,0.011103248,-0.0047269245,0.0057457974,-0.013550458,-0.028484264,-0.032592133,-0.035659414,-0.03869672,-0.043627173,-0.0186709,0.0118974345,0.054809477,0.07763047,0.05189666,0.028431503,0.022872845,0.024925813,0.022800326,0.022568539,0.039216336,0.010657208,0.0065699467,0.0028873936,0.018225735,0.00541797,0.0066225296,-0.008049061,0.0062625087,0.028800424,0.016336111,0.012529478,0.0052961563,0.01535307,0.015885798,0.008048371,0.0029238446,0.005967365,0.018027488,0.03708416,0.06292298,0.09127444,0.07531823,0.061341,0.04918291,0.051204775,0.03883139,0.037717044,0.05111506,0.03232092,0.02763039,0.041864038,0.04406759,0.02183258,0.02477628,0.04234024,0.04486374,0.059776343,0.05816688,0.05632063,0.04781661,0.064799316,0.05927773,0.05859905,0.050072193,0.05387404,0.060450196,0.06333578,0.07997439
0.06240698,0.060954373,0.059662938,0.054011416,0.056227326,0.06309061,0.06450945,0.07257326,0.07315779,0.07687735,0.090459764,0.102273986,0.092871524,0.090073206,0.097851954,0.10548515,0.1004899,0.096654736,0.080114104,0.07410882,0.07224829,0.064552024,0.067014,0.058932014,0.053225793,0.044842783,0.040121276,0.04379327,0.059880525,0.06063143,0.048868686,0.041371394,0.048350543,0.04918525,0.039909117,0.04990371,0.052483305,0.073361784,0.09481879,0.10725047,0.1040153,0.09943379,0.074858636,0.07006437,0.07383285,0.06435544,0.05849495,0.067008406,0.042140156,0.040263064,0.04798422,0.037644364,0.027314661,0.029074503,0.02842001,0.03883693,0.050906606,0.04436795,0.029068384,0.020707384,0.020722447,0.011865884,0.010695214,0.021359265,0.034009654,0.059614714,0.07947845,0.09101932,0.09629022,0.10345001,0.095693894,0.07182746,0.057925723,0.044615947,0.043579318,0.02639446,0.022235818,0.021395726,0.020943457,0.014949138,0.030347433,0.031566475,0.032628488,0.035209827,0.046507306,0.029549133,0.0040106573,-0.019279253,-0.014408575,-0.026236592,-0.03815223,-0.030602165,-0.006465319,0.012156797,0.010048068,0.022160193,0.055119015,0.071093306,0.07333185,0.061664436,0.03599857,0.021575011,0.025123965,0.013713037,0.010825066,0.024446288,0.036570553,0.01775882,0.024788933,0.03626854,0.032042988,0.04092025,0.041447196,0.01325913,-0.035234846,-0.07091224,-0.081907265,-0.105830625,-0.12156938,-0.1289191,-0.12498228,-0.12144082,-0.10861642,-0.10143081,-0.07424785,-0.055837553,-0.03852413,-0.021948256,-0.019439716,0.0009856836,-0.01295021,-0.0023758379,-0.010286558,-0.0021799349,0.01476868,-0.0016995821,0.0011700043,0.022570746,0.021830088,0.042848084,0.032335356,-0.014037043,-0.06760963,-0.11367295,-0.15053058,-0.18145934,-0.2103945,-0.23795478,-0.25547528,-0.27524734,-0.26629046,-0.2523818,-0.22386366,-0.20820399,-0.15874037,-0.13648984,-0.12327623,-0.11043343,-0.08241986,-0.06171938,-0.033513717,-0.040584102,-0.032127123,-0.02610432,-0.033400346,-0.005197567,0.0020401173,0.02252288,0.02314205,-0.03221669,-0.09453755,-0.13690433,-0.1827816,-0.2348075,-0.26094612,-0.27344033,-0.31488603,-0.3211903,-0.30352306,-0.25234362,-0.22808738,-0.21314816,-0.19413024,-0.16362175,-0.14571747,-0.11535166,-0.09048998,-0.066686206,-0.053929966,-0.05199525,-0.027524179,-0.033271745,-0.031014657,-0.031731807,-0.007404258,0.020469258,0.022965683,-0.029241355,-0.08907985,-0.11312289,-0.13365595,-0.17201476,-0.20201297,-0.21251889,-0.21654385,-0.21699442,-0.19092785,-0.16418205,-0.17231154,-0.16804126,-0.13919856,-0.13879097,-0.11782538,-0.10336669,-0.09543194,-0.11411476,-0.08538932,-0.06811005,-0.044539213,-0.029746214,-0.025662692,-0.005431847,-0.0053034527,0.019459773,0.028487815,-0.020348536,-0.04896291,-0.030424729,-0.03569109,-0.045455225,-0.034995344,-0.025379574,-0.046241283,-0.058701947,-0.02801997,-0.040143337,-0.06838994,-0.06822763,-0.056966078,-0.034542445,-0.04624431,-0.04341151,-0.043980442,-0.04408039,-0.012855313,-0.020710785,-0.016102051,-0.013735498,-0.0015479537,0.008299286,-0.0062053055,0.021540321,0.043526113,0.024113188,0.03193172,0.04910005,0.049308624,0.04877313,0.10009349,0.084499046,0.07787244,0.07575661,0.08675108,0.07832919,0.058064867,0.025906848,0.022528837,0.024739178,0.038640782,0.022462515,0.0032733525,0.008661639,0.02302301,0.0065932614,0.008813154,-0.0019353055,0.006285261,0.01241911,-0.016273543,0.010183186,0.04627629,0.05364572,0.08121456,0.10635029,0.1278904,0.11681265,0.15167843,0.14893809,0.14123999,0.16022386,0.17985737,0.15934591,0.1485332,0.108943164,0.10459809,0.09184267,0.09720154,0.06232211,0.026586534,0.023561643,0.028427169,0.019164108,0.024135537,0.017992724,0.023042765,0.0007205562,-0.0021036288,0.014541357,0.05970573,0.058260474,0.10403766,0.112308346,0.109805815,0.11211713,0.15000103,0.14888571,0.15152943,0.1494167,0.17273647,0.1790596,0.15480973,0.118582495,0.09777166,0.096036255,0.090268716,0.056239545,0.034609605,0.029113282,0.018028656,0.008341988,-0.0060790293,0.0031538089,0.0031058295,0.019365203,-0.0038056886,0.017741133,0.06021563,0.07149202,0.08041006,0.07519225,0.08237833,0.089253105,0.09810354,0.10678557,0.102878004,0.11243284,0.13584591,0.10702349,0.12864019,0.09037454,0.056564216,0.03637281,0.046067577,0.05242804,0.02152403,0.02340217,0.009787149,-0.0065351073,-0.01599082,-0.0056722066,0.0040310416,0.0016319936,-0.014310276,-0.0061702444,0.050153166,0.060762506,0.06711593,0.057880342,0.045969404,0.04345283,0.045810144,0.053568944,0.05167818,0.075166434,0.05756825,0.057697732,0.048360385,0.03984924,0.01749284,-0.0048779976,-0.0063095605,-0.0028104074,-0.0035584194,-0.008991779,0.0024473998,-0.013479084,-0.015842808,-0.017793644,-0.017620644,-0.032726776,-0.026436018,-0.0044217864,0.02634116,0.017274164,0.011479375,0.012682285,0.019447453,0.00023809224,0.017009502,-0.007964344,0.0012304632,-0.018936597,-0.026071977,-0.026472023,-0.036154304,-0.022611937,-0.040558472,-0.057838336,-0.023576804,-0.008646452,-0.0025662133,-0.0008197913,-0.016843425,-0.008334661,0.008507328,0.008740866,-0.0035547146,-0.0011316176,-0.0013847928,0.011714253,0.00259751,-0.045173272,-0.042346243,-0.018037537,-0.013052552,-0.029547537,-0.03896552,-0.042323194,-0.035322234,-0.048089948,-0.05365672,-0.056695793,-0.060963135,-0.057028536,-0.06723657,-0.04559889,-0.028083833,-0.018367345,-0.005731347,0.028776709,0.015882118,0.01235201,0.0129589485,0.0027481518,-0.012787388,-0.012036701,-0.018831005,-0.012586394,-0.015011378,-0.06307765,-0.06122818,-0.046585396,-0.020724984,-0.03008012,-0.04275856,-0.038968943,-0.03614902,-0.03016448,-0.025223436,-0.0526022,-0.06858667,-0.03296011,-0.04313048,-0.05118777,-0.031728525,-0.00828879,-0.0013646303,0.024865344,0.0098145045,0.010931923,0.011893303,-0.01448658,-0.021400621,-0.02908255,-0.029325003,-0.023280567,-0.008423061,-0.07330634,-0.0805947,-0.045956578,-0.038248576,-0.011602791,-0.009750258,0.0066040484,-0.025962258,-0.030407961,-0.036358792,-0.033192426,-0.025275772,-0.022378275,-0.026130164,-0.03498029,-0.0028269084,0.0057748407,-0.0005751171,0.012746211,0.01730007,0.03840272,0.040445395,0.017857468,0.0037427447,-0.005225554,-0.0019676506,-0.0068897237,-0.0020975536,-0.058002107,-0.04201109,-0.02229812,-0.013434856,-0.017485943,-0.020467157,-0.032505725,-0.025929127,-0.044148244,-0.028452503,-0.03317602,-0.0075278594,-0.012488508,0.0086732255,-0.0065327818,0.017722335,0.006532738,0.013183954,0.012874779,0.022685802,0.049754355,0.035025224,0.023996264,0.0060977777,0.02244012,0.008216348,0.011295336,0.0008897405,-0.050541084,-0.01849293,-0.0040057143,0.007063185,-0.005535805,-0.028210333,-0.032898188,-0.031764977,-0.004408465,-0.027066737,-0.024525238,-0.014533542,-0.0037499655,0.010452237,0.015997127,-0.0010656639,0.0021577114,0.006584243,0.011283934,0.013067854,0.022124786,0.015071462,0.0354946,0.012887801,0.020912517,-0.008029642,0.014635123,0.0043299543,-0.04686439,-0.021708779,-0.0020124225,-0.00017521463,0.006029146,-0.0018452549,0.0054626856,-7.6284628e-06,0.007265534,0.008974758,0.0143694,-0.004343308,0.022761388,0.024331447,0.0062234,0.0023986755,-0.0020508259,0.016958548,0.025704948,0.008689104,0.01799607,0.006921407,0.025583355,0.023825977,0.008169872,-0.010400376,0.01131808,0.0063393684,-0.02445302,0.006794569,0.009385362,-0.0018136482,-0.006502555,-0.005647989,-0.014642542,-0.019979404,0.006369202,0.0125629,0.005283525,0.0045098998,-0.0022611516,0.0059533366,-0.0040544076,0.004371305,0.0019900615,-0.0024508068,0.012683877,0.017966561,0.018741228,0.021397376,0.021716466,0.013804588,0.00052623264,-0.007929171,0.024091242,0.02293074,-0.00024279646,0.016614275,0.009936029,0.00068175857,-0.023599738,-0.022167152,-0.011507981,0.002566593,0.028804123,0.038803443,0.00737268,0.0056834053,0.013869378,0.018255066,0.021763835,0.00803932,0.024036806,0.011233959,0.012451632,0.006197611,0.010863667,-0.008757407,-0.0014836149,0.030530445,0.008389681,0.0122767165,0.052223593,0.027075386,0.011673135,0.008342218,-0.0036280272,-0.011645851,-0.020698695,-0.0070638163,-0.0017013381,-0.0022776134,0.029825935,0.03549385,0.026233941,0.020361599,0.02720985,0.011414094,0.0051005343,0.012148873,0.014927375,0.006011644,0.0040766834,-0.0011773672,-0.009906351,-0.021372207,0.0017305755,0.0003833931,-0.017218346,0.00059634994,0.041968435,0.02538071,0.00395216,0.002529316,0.0014283679,-0.022234522,-0.02146024,-0.01834824,-0.0178066,-0.010187983,-0.0018950001,0.01115058,0.013115043,9.088191e-05,0.01742944,-0.0014014227,-0.012426952,-0.0012658283,0.0013047913,0.009708447,-0.003863623,-0.017536972,-0.026518231,-0.0222234,0.0031207898,-0.019965028,-0.01965113,-0.005203366,0.038430914,0.033125885,0.001593887,-0.011965782,-0.0049347635,-0.025644228,-0.020051507,-0.028348219,-0.0033702455,0.006121922,0.012168165,0.019416042,0.0058437698,-0.009870339,-0.014423878,-0.025422167,-0.04074812,-0.034348853,-0.03928695,-0.018487962,-0.019723123,-0.011098093,-0.028898837,-0.019793797,0.0020883183,-0.013335546,-0.018057296,-0.0029103525,0.027767463,0.030345958,0.0048465896,-0.004238177,-0.02051595,-0.031436034,-0.04501847,-0.051761825,-0.013340606,-0.017889233,-0.016072117,-0.01559123,-0.022734454,-0.025567103,-0.030731877,-0.047450762,-0.030811893,-0.048178118,-0.05119609,-0.037102684,-0.03530896,-0.052657776,-0.06333987,-0.049289737,-0.03005904,-0.044215884,-0.028089274,-0.0003330796,0.02719586,0.046445444,0.026184969,0.0037458856,-0.013390624,-0.01663961,-0.04492196,-0.017066387,0.008182554,0.0046639387,0.011498964,0.0090208,-0.0011689797,-0.008028953,-0.017678864,-0.021098405,-0.017347176,-0.04229024,-0.04253456,-0.050828494,-0.05672571,-0.08357545,-0.08544808,-0.07352086,-0.038044605,-0.04201199,-0.010159526,0.01650007,0.03936442
0.02658867,0.022260671,0.020589989,0.022675533,0.015789408,0.0076750447,0.009071984,0.012255502,0.010253403,0.02939172,0.031947162,0.04233611,0.06323085,0.06590137,0.05695456,0.068161346,0.053455487,0.057473924,0.045151405,0.035063528,0.029557562,0.023319175,0.03342333,0.03420817,0.036782634,0.028112072,0.024084589,0.026370576,0.025144208,0.01697783,0.003541517,-0.0017320011,-0.013826012,-0.013241231,-0.0059801424,-0.0007632375,0.0011902063,-0.0027400127,0.00078070204,0.026299333,0.039477076,0.043964505,0.0386404,0.045849074,0.031026976,-0.0026516987,-0.0047484576,-0.0073010516,-0.009015413,-0.0033659327,0.021055188,0.016585931,0.016527727,0.013557197,0.0067046448,0.013170262,0.016432503,0.005248456,-0.013217533,-0.014854666,-0.024022903,-0.027404811,-0.019089803,0.0011487204,-0.004482789,-0.006829823,-0.0006571126,0.0120541975,0.0072702034,0.012147718,0.005649046,0.011716401,-0.019395154,-0.023722248,-0.029414393,-0.043605253,-0.04702433,-0.023226801,-0.014989347,0.0020703226,0.019050779,0.012313055,0.008387471,0.008190122,0.0071326094,-0.0075104698,-0.0010603903,0.0022385193,-0.00018018215,-0.010340775,-0.0018289214,0.010526831,0.0072510755,-0.0050786203,-0.003033862,-0.009942903,0.0015516961,0.010634371,0.0150409555,0.008328169,9.801534e-05,-0.010873634,-0.0143257305,-0.021418445,-0.030038116,-0.02400171,-0.0013383651,0.005583018,0.0225282,0.027508594,0.016157305,0.011504661,-0.000990434,0.0047518965,0.010571075,0.015673824,0.010752482,0.004636822,0.004543121,0.030562688,0.029798528,0.0007658192,-0.0026039237,-0.00048022167,0.0053317407,0.024723994,0.028804261,0.0304424,0.05235235,0.062544845,0.058088534,0.0426766,0.01581508,0.031040814,0.022112139,0.0143524995,0.02816458,0.020801185,0.042039935,0.02739544,0.0038063158,-0.005631022,-0.007200418,-0.0038192985,-0.0025445041,-0.009415928,0.0054158047,0.01919568,0.0041491683,-0.034314144,-0.040499277,-0.04358787,-0.016412612,0.017743757,0.023459189,0.046505842,0.06313446,0.06787333,0.09549171,0.084525876,0.06623691,0.041238096,0.018475577,0.04572139,0.045047015,0.051155582,0.06253687,0.04989116,0.015485926,-0.0067709093,-0.0040048854,0.008254892,-0.011816532,-0.012278083,0.021073833,0.025285697,0.027358506,-0.020421414,-0.05339605,-0.057872266,-0.036562845,-0.008568103,0.018602535,0.03881383,0.05347409,0.058591757,0.0771903,0.06942722,0.058685794,0.052730817,0.039258976,0.020498594,0.049670897,0.050796036,0.064556,0.06172001,0.009395512,-0.0028208818,0.00694256,0.013459158,-0.0009136714,0.0091187395,0.027454438,0.03441958,0.0074681886,-0.015633825,-0.035122007,-0.05886747,-0.03238302,-0.003533174,-0.0011471561,0.02901569,0.03570739,0.035776608,0.040688235,0.0222359,0.043805927,0.02183244,0.0265926,0.017250247,0.047139324,0.05629546,0.077906296,0.07770274,0.01167436,-2.1474154e-05,-0.0074824532,-0.01392623,0.0067175725,0.012580326,0.042641982,0.02103258,0.006261347,-0.006267825,-0.06671782,-0.08703577,-0.05250148,-0.035195526,-0.020936567,0.009355595,0.028845947,0.011042729,-0.023746673,-0.02103839,0.010706974,0.003092828,0.020254584,0.038208026,0.051477812,0.06755048,0.078756645,0.06144298,0.001663312,-0.01875756,-0.020024326,-0.027007513,0.0024549107,0.006559052,0.022986516,0.033745997,0.0180653,-0.020492334,-0.063362435,-0.08326258,-0.066883795,-0.025004126,-0.020391455,-0.009259935,-0.0020676462,-0.02538976,-0.04414156,-0.012193905,0.024352364,0.034418654,0.03776503,0.05210748,0.036075458,0.06312227,0.06865808,0.054343693,-0.0019363259,-0.027295899,-0.0106241945,-0.019895503,-0.010228048,0.0006222107,-0.0053061894,0.0028232206,0.004546956,0.006844233,-0.047380213,-0.07980782,-0.035327245,-0.028160717,-0.021790953,-0.01848079,0.0096608335,-0.0025435481,-0.028449535,0.0006766934,0.04372863,0.03171239,0.042720273,0.050833095,0.05494844,0.06177104,0.055324193,0.049347732,-0.0013121868,-0.00044982217,0.005671213,0.012861793,0.027289698,0.0035301375,0.026391897,0.015081487,0.0063016247,-0.02462977,-0.058416635,-0.07713058,-0.042906824,-0.046749778,-0.042576496,-0.034665264,-0.0023432425,-0.029417744,-0.03669368,0.0011589968,0.038560204,0.014410548,0.025145467,0.029056933,0.045933906,0.0329221,0.046569653,0.049766783,-0.003900205,0.009723012,0.030094616,0.036577195,0.059018005,0.05012008,0.045908414,0.025797809,0.004039936,0.0008708366,-0.047494534,-0.07599986,-0.06619478,-0.050987452,-0.041332778,-0.042204235,-0.05175027,-0.044728924,-0.029128019,0.0006777964,0.02041206,0.016910821,-0.008507895,0.022766266,0.00060957053,0.0014723632,0.021261452,0.061277553,-0.006573398,0.010924663,0.025541032,0.038682673,0.06184934,0.06893252,0.070403166,0.077801734,0.058211837,0.035829574,0.019456409,0.010605781,0.0009490049,0.00810627,-0.0062096785,-0.024686988,-0.018165324,-0.025988575,-0.02708442,-0.014571427,-0.002923584,0.0006930641,-0.012916128,0.012915825,-0.020165801,-0.03023127,0.00461416,0.055963352,-0.014399322,0.0035145965,-0.005406287,0.008029411,0.033723254,0.06767938,0.082494736,0.11170478,0.1148507,0.11349455,0.084310696,0.11550889,0.115916654,0.09356388,0.06944267,0.03146386,0.023000343,0.022011893,0.031121792,0.012935301,0.0048716543,-0.014068172,0.011805704,0.00048924534,-0.026613139,-0.009530582,-0.0126134455,0.059218574,-0.0123373475,-0.005551483,-0.009619806,-0.003935492,0.036918934,0.072074234,0.07286044,0.10039702,0.10376685,0.12740749,0.14673916,0.15804851,0.16250268,0.15597546,0.12348176,0.09392447,0.07273599,0.06655359,0.057649378,0.046495736,0.036562968,0.035479262,0.04120115,0.0072412887,-0.009999625,-0.010343489,0.0060304604,0.07321897,-0.008532885,-0.011378118,0.00687533,0.016367085,0.054504976,0.05477964,0.061682463,0.089631766,0.10642374,0.11937332,0.10991053,0.13424061,0.118222885,0.118713856,0.12863648,0.09052732,0.09081309,0.07954262,0.07949873,0.07182514,0.09186565,0.05965559,0.058840867,0.027640106,0.014173183,0.0042568147,0.019504072,0.08817071,-0.0025818888,-0.0014289068,-0.013466558,-9.654791e-05,0.031411078,0.006058064,0.029349662,0.049041558,0.07858637,0.08513694,0.06711154,0.07877554,0.099582925,0.09827271,0.09856333,0.08736402,0.07536981,0.08475834,0.08691334,0.07085585,0.0834131,0.07141799,0.0404231,0.032147586,0.027986897,0.026233466,0.043149266,0.0913855,0.00240956,0.0019004086,-0.0031030087,8.0838596e-05,0.0010533546,-0.0029575678,-0.0021730335,0.008308819,0.008347968,0.005227338,0.0076328986,0.033431146,0.059855793,0.053048152,0.07541187,0.062147588,0.06203577,0.05977312,0.047392547,0.06562853,0.02537518,0.03768006,0.02761382,0.018460816,0.021904897,0.03655234,0.049670056,0.08403159,0.009046987,0.0017119739,-0.021609465,-0.051444266,-0.07926756,-0.06595354,-0.03202393,-0.023000907,0.0010079005,-0.01662253,-0.01934276,-0.008283127,0.0051113837,0.002667722,0.012799667,0.035186574,0.04801166,0.042873453,0.045364983,0.04840287,0.030191245,0.028412577,0.048467286,0.035905655,0.030313516,0.031942934,0.053646486,0.07422244,0.009300414,-0.0032279345,-0.030146271,-0.060234517,-0.09596481,-0.09053131,-0.076381594,-0.08082506,-0.08211564,-0.061595142,-0.06734997,-0.04711308,-0.034371253,-0.021229636,-0.028437193,-0.0016033769,-0.0067014666,-0.010067603,0.012491823,0.015348928,0.025877062,0.03206954,0.022499222,0.044216137,0.032286882,0.050113507,0.049096324,0.05556407,0.011728861,-0.004390035,-0.043319896,-0.06280916,-0.08480209,-0.09830698,-0.111663215,-0.10502153,-0.09582082,-0.082088366,-0.095014945,-0.09364458,-0.09584279,-0.07459336,-0.073619,-0.061233547,-0.04641509,-0.0724283,-0.03303598,-0.0066029658,-0.02354462,-0.019284861,0.0098444335,0.020300245,0.0055052605,0.03049959,0.034601048,0.04498254,0.015061476,-0.005973932,-0.02618787,-0.073015794,-0.09896879,-0.11365054,-0.13016713,-0.115459494,-0.08662504,-0.09542474,-0.1229706,-0.104252465,-0.09256219,-0.101502314,-0.115272574,-0.092984304,-0.10675188,-0.1136964,-0.075658314,-0.05574463,-0.052489806,-0.04432786,-0.027404305,-0.02175135,-0.011343899,-0.0067139333,0.0039398246,0.021294625,0.016457908,-0.004316398,-0.020886263,-0.061453987,-0.09361361,-0.10919942,-0.11323167,-0.103406206,-0.098417625,-0.09121209,-0.112071946,-0.1115872,-0.09569091,-0.09987987,-0.115891896,-0.09626527,-0.09106431,-0.0924557,-0.081404954,-0.07452694,-0.07527527,-0.087194555,-0.08956731,-0.07503164,-0.053753432,-0.037480373,-0.03327615,-0.007107759,0.013588032,0.0077077886,-0.010751698,-0.033316903,-0.06694755,-0.07249522,-0.09180954,-0.10005654,-0.0786464,-0.070822135,-0.07317142,-0.09248904,-0.10720274,-0.105761774,-0.11059148,-0.09311279,-0.07989839,-0.09564082,-0.10092992,-0.08219386,-0.07611859,-0.114411004,-0.12057105,-0.10589677,-0.09287071,-0.06763824,-0.04679675,-0.0144491345,0.0172113,0.012739936,-0.0017857146,-0.014733681,-0.037138853,-0.06625329,-0.08187349,-0.097055234,-0.08984893,-0.07583192,-0.047841102,-0.07291507,-0.08984751,-0.111827195,-0.108364016,-0.10281545,-0.098696634,-0.08027546,-0.10127407,-0.09223816,-0.0975261,-0.10568302,-0.09118912,-0.09999229,-0.09047901,-0.06076787,-0.034559257,-0.015827058,0.018783685,0.015474094,0.0061879507,0.001500499,-0.021546705,-0.038883477,-0.05548874,-0.06946301,-0.07763239,-0.09070391,-0.08841367,-0.095544465,-0.10976927,-0.104395434,-0.09920368,-0.10854655,-0.119190484,-0.10388263,-0.09769041,-0.09768611,-0.11228189,-0.09468284,-0.077875584,-0.083552696,-0.061103858,-0.037353538,-0.0141575085,0.0027655275,0.023761477,0.020450424,0.016656011,0.008596396,-0.008815222,-0.03707799,-0.05755399,-0.07487225,-0.08229239,-0.09386883,-0.10536427,-0.11451844,-0.13338272,-0.13437799,-0.11883032,-0.13736364,-0.13261108,-0.109050296,-0.10309932,-0.09732594,-0.09474263,-0.078418694,-0.06643827,-0.056039512,-0.029982025,-0.01314935,-0.0010872949,0.008637486
-0.016043419,-0.018133342,-0.023307748,-0.031085508,-0.037807655,-0.051118523,-0.062309105,-0.066746384,-0.073804155,-0.06990388,-0.0721489,-0.0761645,-0.08708397,-0.10180645,-0.09469241,-0.09435959,-0.08736931,-0.074353285,-0.059579,-0.057577092,-0.054159068,-0.05159457,-0.0495003,-0.054390006,-0.04443844,-0.04210774,-0.029590178,-0.02129388,-0.015419235,-0.019208672,-0.024232484,-0.031683784,-0.038903516,-0.04858314,-0.049601234,-0.04929674,-0.039227802,-0.041536096,-0.046800584,-0.039269067,-0.037388325,-0.02688349,-0.02233219,-0.022964302,-0.019975062,-0.016994772,-0.012374625,-0.016833408,-0.016109405,-0.017519703,-0.01925664,-0.023833845,-0.033660144,-0.03673282,-0.02155011,-0.0146171115,-0.012379059,-0.017223218,-0.024845932,-0.028211454,-0.03029639,-0.02786017,-0.027213959,-0.018750744,-0.006749137,-0.013947747,-0.014959729,-0.013883976,-0.008335364,-0.012872127,-0.020280974,-0.018461479,0.008647691,0.024853176,0.012579187,0.013262774,0.0026334117,0.008298219,-0.004026877,-0.009512221,-0.028668663,-0.034076456,-0.02202794,-0.016027324,-0.0136036705,-0.011022568,-0.019957807,-0.028821832,-0.026169809,-0.022006817,-0.02320995,-0.01593939,-0.015405442,-0.023024192,-0.0069893827,-0.027521912,-0.025142377,-0.03800739,-0.029651986,-0.028176215,-0.0076067317,0.006349602,0.0159651,-0.004200891,-0.02080671,-0.01207851,-0.02401992,-0.014548079,-0.021908095,-0.023934131,-0.01589587,-0.014444095,-0.009285791,-0.012806732,-0.021535588,-0.032039516,-0.031398624,-0.026955284,-0.031382132,-0.022900674,-0.02485407,-0.024758479,-0.032374978,-0.043138027,-0.041697036,-0.04300243,-0.042733863,-0.035071846,-0.018711882,-0.025591454,-0.0068086474,-0.004476219,-0.0006619839,-0.019931346,-0.017949644,-0.016991958,-0.020548584,-0.02114598,-0.016105244,-0.023396159,-0.0123616755,-0.020722156,-0.023540033,-0.028105654,-0.029759416,-0.025933878,-0.040153947,-0.05012487,-0.045399573,-0.03218114,-0.03803405,-0.06618362,-0.089550324,-0.072993234,-0.07236679,-0.068469346,-0.04916899,-0.04409395,-0.015678955,0.007443232,0.025310738,0.013026013,0.009929627,-0.0068068444,-0.006969218,-0.02698525,-0.0340679,-0.039242476,-0.012211888,-0.0146193495,-0.025226954,-0.03171209,-0.043606278,-0.05041441,-0.07060239,-0.07847134,-0.04847173,-0.014852613,-0.027958333,-0.040944386,-0.054764524,-0.049704965,-0.04660283,-0.037902914,-0.021851951,-0.015233467,0.027981538,0.030757317,0.022274097,0.024585273,0.021302402,-0.0034004166,-0.0012826186,-0.022362476,-0.019756055,-0.026310263,-0.022052126,-0.023192251,-0.041749783,-0.043564305,-0.069013625,-0.08893795,-0.099481046,-0.08902947,-0.06981661,-0.044845935,-0.03554398,-0.03201415,-0.058462285,-0.054392945,-0.040329393,-0.032778896,-0.011827593,-0.036483377,-0.035662737,-0.0019700995,-0.02343912,-0.024572413,-0.024690421,-0.02776254,-0.028134255,-0.027333,-0.016343007,-0.021623364,-0.028888071,-0.032770067,-0.05396088,-0.058844972,-0.06407259,-0.0867562,-0.10350878,-0.10097875,-0.07834629,-0.08089427,-0.07507491,-0.108572215,-0.09426779,-0.057439987,-0.05692365,-0.037688453,-0.042152908,-0.051544387,-0.063037634,-0.058033485,-0.0777947,-0.088999666,-0.07482708,-0.037297174,-0.034456477,-0.045332056,-0.027517114,-0.023446819,-0.023569997,-0.029162323,-0.034738723,-0.026559053,-0.035705764,-0.051723458,-0.06635675,-0.076302834,-0.069230825,-0.069539465,-0.11241551,-0.1531234,-0.11884182,-0.092398085,-0.0853979,-0.08531365,-0.09752038,-0.09197655,-0.082638316,-0.09756683,-0.102084,-0.11328004,-0.08940233,-0.05065613,-0.033460543,-0.023722745,-0.020976607,-0.013657676,-0.012133812,-0.016742159,0.009562573,0.018339444,0.025111036,0.0024051443,-0.027844494,-0.04544445,-0.06069279,-0.0990506,-0.1262605,-0.14816903,-0.12402857,-0.119151115,-0.12726085,-0.10060683,-0.11734806,-0.08372709,-0.074759886,-0.069874465,-0.08728256,-0.07003053,-0.0886766,-0.06799962,-0.04114731,-0.005584083,0.010667631,0.01941451,0.0058159432,0.011976835,0.050800472,0.06446647,0.07758025,0.06713596,0.059985027,0.03667406,0.040587064,0.0014508895,-0.044001907,-0.04408188,-0.077107705,-0.05838832,-0.04847359,-0.060870044,-0.045440134,-0.023506498,-0.0028017622,0.0036731656,-0.017537594,-0.027476301,-0.023749575,-0.0090818945,-0.0009849714,0.021630691,0.029994665,0.03237661,0.021087425,0.04051343,0.07961089,0.08177108,0.10770612,0.115014605,0.13761759,0.14035065,0.1460759,0.123645596,0.12090284,0.11343077,0.07314647,0.08591362,0.08447017,0.06329807,0.07557721,0.083143234,0.06933179,0.06424049,0.07944166,0.063376345,0.0606547,0.05446552,0.058767796,0.06185204,0.056990277,0.04171439,0.026160654,0.06381632,0.09233549,0.09228036,0.11925526,0.11717524,0.13532151,0.17617288,0.19491424,0.20132817,0.18758664,0.17780124,0.1833646,0.18624276,0.164924,0.16280398,0.1370562,0.13730082,0.11617635,0.14015867,0.13901383,0.13305563,0.11602337,0.10678918,0.10742146,0.09810843,0.08078635,0.05237356,0.018698104,0.067663506,0.08959934,0.09613242,0.09318376,0.08903985,0.10376427,0.10433836,0.123142846,0.108570695,0.11916526,0.13184217,0.11222308,0.12084285,0.12646061,0.10628723,0.09497836,0.071633816,0.09428262,0.106763996,0.106724314,0.12105661,0.110083185,0.08935276,0.09330093,0.068871416,0.05771907,0.022957591,0.01529015,0.06265239,0.08869187,0.108943924,0.09493965,0.072767235,0.059758388,0.045119397,0.040384345,0.06634032,0.08159914,0.072635435,0.05998763,0.06556362,0.052407395,0.047059447,0.021236999,0.024443725,0.048210703,0.027531637,0.056502678,0.049630977,0.030997248,0.037993707,0.03357033,0.032759096,0.0245489,0.006867337,0.0105971,0.061728463,0.07465415,0.08689144,0.08845403,0.072082065,0.044352636,0.04808856,0.04753171,0.036887374,0.046183977,0.026228234,0.024949858,0.00073817756,0.018130893,0.0024631997,-0.009562964,-0.015115136,0.022167156,0.010635556,0.031028202,0.016212042,0.017325401,0.024534656,0.030774282,0.03012285,0.03196949,-0.00048037228,-0.0009604531,0.043495372,0.038702015,0.05027818,0.038445327,0.039263774,0.03378348,0.0352537,0.043199662,0.05226674,0.04789227,0.03680815,0.024913125,0.017291902,0.009442262,0.01111103,0.0066112443,0.0120511595,6.814087e-05,0.031220376,0.038942408,0.031689137,0.045578968,0.049135778,0.05521059,0.035360757,0.027599728,-0.017839847,-0.0064815665,-0.0014395996,-0.0034884554,-0.007947925,-0.00933334,0.002949605,0.0077639217,0.017941862,0.041413862,0.05048283,0.06084162,0.06578115,0.031405874,0.02169064,0.011899043,0.03471769,0.02298729,0.05266229,0.05062693,0.045824453,0.06627624,0.065221384,0.07220026,0.06310408,0.0617956,0.024695074,0.0021310565,-0.034219034,-0.009435029,-0.023192426,-0.032247253,-0.042758048,-0.041468885,-0.023325006,0.0043244525,0.01897433,0.034533743,0.057100378,0.06469523,0.05453508,0.057571076,0.038653307,0.048381448,0.06394108,0.061778594,0.07542367,0.07409576,0.09115783,0.0930456,0.0748798,0.061497167,0.042642225,0.030320179,0.016336577,-0.010537592,-0.031430233,-0.027242225,-0.015095659,-0.029742192,-0.025034558,-0.021012742,-0.009811982,0.0047866143,0.00848174,0.02841722,0.013219677,0.0277941,0.02229469,0.047539324,0.03858841,0.042682525,0.040346555,0.03956102,0.045257382,0.07957893,0.074465245,0.06895047,0.03662186,0.054902267,0.025157612,0.018992191,0.00057493,-0.018871816,-0.032590717,-0.031217713,-0.02740793,-0.036395617,-0.027774991,-0.021707125,-0.00028220864,-0.01757979,-0.009478698,0.0071031875,-0.0056130593,0.012943439,0.030706622,0.03996036,0.053947415,0.059951894,0.048051134,0.057733253,0.05653764,0.076541,0.07064894,0.06460359,0.05120177,0.021045048,0.01208073,-0.014472127,-0.031835847,-0.032595046,-0.049704425,-0.04157262,-0.047037434,-0.038242698,-0.022914134,-0.015335421,-0.02276292,-0.023731537,-0.014714018,-0.019906659,0.0040465216,0.03371459,0.04105791,0.028465567,0.050858885,0.057166528,0.066359885,0.057611533,0.06398762,0.068727076,0.049840014,0.051725276,0.030278075,-0.0058315448,-0.0128974235,-0.029947,-0.045083225,-0.052876502,-0.065854445,-0.039668277,-0.049981028,-0.048455473,-0.025114285,-0.027567424,-0.027391383,-0.015902918,-0.0064809355,-0.0042771325,0.004649886,0.02358971,0.03642589,0.04847119,0.05514061,0.05439584,0.054491527,0.04881088,0.03197492,0.032563627,0.021661824,0.0026761482,-0.019681852,-0.020004023,-0.017088864,-0.03661215,-0.05134822,-0.049466148,-0.05174537,-0.038146913,-0.051853903,-0.044791047,-0.015453514,-0.003597193,-0.014089295,0.0051506637,0.010988656,0.012356283,0.019485816,0.04110933,0.049318336,0.068224646,0.075356476,0.050299287,0.037489768,0.029866464,0.0014891097,0.0058614505,0.005386856,0.009560658,-0.00847426,-0.020928785,-0.032523323,-0.046252586,-0.061145443,-0.050641,-0.036721993,-0.03684664,-0.03857229,-0.036463916,-0.015093443,0.0051947427,0.017937163,0.022766832,0.038062364,0.04667784,0.027812984,0.027860692,0.046622567,0.061665237,0.06223406,0.03881617,0.016697498,0.0093216,0.009743426,0.012416912,0.008803971,0.022391144,0.026567504,0.00072231237,-0.021989636,-0.03207337,-0.04818351,-0.038061216,-0.02638871,-0.028812638,-0.029519066,-0.030351365,-0.01889281,-0.006845086,0.0060116947,0.025004536,0.028433464,0.036599617,0.034789413,0.025303204,0.026632093,0.039352864,0.031315226,0.016736664,0.0064480747,0.032063257,0.038022496,0.02540589,0.019569961,0.022290858,0.0220523,-0.019176967,-0.043241125,-0.03543138,-0.027493566,-0.017876726,-0.012954229,-0.024864865,-0.026746077,-0.028422294,-0.018287038,-0.013928559,-0.017049763,-0.004138855,-0.005408364,-0.009229704,0.005715259,-0.0015767653,0.0018185504,0.015949296,0.0022495845,0.0056576235,-0.0047452874,-0.006186848,0.0035671394,0.011755262,0.00216894,-0.0016402378,-0.003217772,-0.015544231,-0.020981666,-0.011175489,-0.0034573793,-0.009664465,-0.011708027
-0.019886581,-0.02291503,-0.022091163,-0.017525716,-0.017411701,-0.007736707,-0.0050594704,-0.00095283566,-0.004774332,0.0052549755,0.038520027,0.04309656,0.038697843,0.026752817,0.0143778715,0.009319201,-0.0071350546,-0.032353837,-0.05322014,-0.06789993,-0.087385274,-0.088620834,-0.08635397,-0.08148518,-0.07728007,-0.0707653,-0.063630715,-0.04633535,-0.022720724,-0.017497133,-0.016215026,-0.012339826,-0.005407935,-0.010603791,-0.022539174,-0.029660946,-0.018815435,-0.0060278815,0.023515409,0.049950574,0.06112628,0.064757146,0.06373355,0.04191682,0.038359117,-0.0025748357,-0.019919498,-0.03401277,-0.06362358,-0.088461116,-0.08450242,-0.070998475,-0.076037414,-0.07413969,-0.07781036,-0.0634806,-0.019323263,-0.012915987,-0.009082755,-0.01262206,-0.01719181,-0.018715153,-0.009263735,-0.00083885266,0.006961906,0.028302062,0.057870142,0.0746756,0.111733384,0.122173265,0.12487208,0.12250968,0.10288165,0.06159343,0.014420485,0.010898173,0.009411245,-0.026240584,-0.025666537,-0.036121037,-0.060294874,-0.07861683,-0.07044877,-0.07426376,-0.027055055,-0.019079227,-0.016620599,-0.023973254,-0.01667943,0.0004911374,0.017571958,0.006699737,0.0083025135,0.04366621,0.043396503,0.096939474,0.13000329,0.16159074,0.1843898,0.17792973,0.16559166,0.14798304,0.08667751,0.062928855,0.05804002,0.04421905,0.01990228,0.0030308357,-0.008706634,-0.0360961,-0.05724812,-0.067980506,-0.02161933,-0.027814964,-0.027654845,-0.029434895,-0.0134331575,0.0013697939,0.0046396432,-0.010613132,-0.012768818,0.00063031167,0.011203459,0.03176702,0.061816357,0.10871759,0.16530174,0.17160098,0.17567159,0.15596804,0.119612984,0.09369631,0.07656086,0.029972252,0.028797852,0.0130092595,0.0218572,-0.012399374,-0.041820277,-0.06865579,-0.033345107,-0.036829308,-0.04138028,-0.042850044,-0.027177555,-0.0062176543,-0.0015509797,-0.02049762,-0.02226277,-0.01980065,-2.3818018e-06,-0.0074592554,0.020742035,0.07664522,0.14516625,0.13711356,0.17641827,0.17051612,0.16378537,0.117339045,0.07351177,0.05388066,0.025431346,0.0062583177,-0.0027141233,-0.023111628,-0.051724546,-0.07722805,-0.039924327,-0.054134533,-0.05680595,-0.046982694,-0.030130867,-0.0078008627,0.0036071918,-0.020465514,-0.055291116,-0.02719749,0.017735973,0.00024520207,0.00427014,0.054811284,0.108693905,0.11252551,0.14194608,0.1427387,0.16296239,0.114937164,0.06684098,0.033206135,0.008478938,-0.009044269,-0.013883684,-0.033204697,-0.04886885,-0.0881031,-0.04643443,-0.07241538,-0.06959808,-0.059169818,-0.03880088,-0.028314522,-0.020958705,-0.044173863,-0.04951132,-0.047120545,-0.015583508,-0.0488189,-0.041257616,0.019408427,0.063948594,0.09831326,0.09677038,0.11403018,0.101728216,0.056666672,0.049611736,0.011326914,-0.027198866,-0.029415011,-0.04493075,-0.063880235,-0.08294252,-0.11193288,-0.046828333,-0.075429276,-0.09101614,-0.07672786,-0.06586378,-0.03686154,-0.035338316,-0.06225783,-0.05162634,-0.03716914,-0.030774469,-0.05222833,-0.048972126,-0.0063344706,0.0360288,0.09383244,0.12444216,0.11464452,0.10733268,0.07650039,0.052297074,0.019323774,-0.018548403,-0.041360956,-0.054499984,-0.09022594,-0.10050162,-0.11910259,-0.05215169,-0.08538344,-0.09836797,-0.09406151,-0.06004544,-0.04633915,-0.028330117,-0.031742204,-0.030902904,-0.00033501728,-0.011224206,-0.044188082,-0.05169151,-0.02555177,0.01808897,0.09379254,0.13217868,0.14009352,0.11837679,0.10627315,0.088938326,0.052583847,0.020478278,-0.017173687,-0.046855815,-0.061077002,-0.08647645,-0.11900356,-0.056620736,-0.09613665,-0.108542934,-0.09082612,-0.047468994,-0.035348073,-0.01488722,-0.012944052,-0.014701539,0.00043074938,0.015596613,-0.031627607,-0.04867025,-0.035787217,0.016508428,0.049419586,0.08579984,0.1180637,0.12625085,0.116116494,0.11680023,0.098280564,0.08676827,0.059311423,0.016243188,-0.0100305965,-0.039366353,-0.09392862,-0.05981668,-0.09917794,-0.086934194,-0.066098474,-0.049611107,-0.016442435,-0.03174684,-0.004806603,0.00093307754,0.015657194,-0.015203724,-0.041536197,-0.041245695,-0.030826163,-0.00068234984,0.009249527,0.04246887,0.09978569,0.1079327,0.13557711,0.13330564,0.13000062,0.11662291,0.09385688,0.07162388,0.043628845,-0.007292211,-0.062228423,-0.058296483,-0.08011288,-0.0716374,-0.04889595,-0.023566589,-0.005832786,-0.017558955,-0.030086143,-0.011186744,-0.013050124,-0.04818304,-0.08043521,-0.08560057,-0.050406888,-0.03856316,-0.02840848,0.0047594924,0.08092692,0.10151466,0.14464253,0.13694967,0.12412514,0.13147542,0.10663314,0.09480273,0.06473283,0.010703404,-0.059063695,-0.042248767,-0.055896122,-0.031730007,-0.029815817,-0.030900717,-0.0067188884,-0.00030808992,-0.033907406,-0.04651682,-0.049705595,-0.073150344,-0.0756259,-0.09151761,-0.07677598,-0.07499509,-0.022790188,0.04493565,0.056675024,0.09516541,0.095834374,0.08171203,0.09841919,0.088360816,0.09950775,0.10631031,0.08089656,0.027555741,-0.053283684,-0.024723358,-0.028140921,0.0029064745,0.0024588315,-0.012156469,-0.0063515073,-0.02178977,-0.0488117,-0.042290162,-0.03286852,-0.0458704,-0.064873904,-0.08290723,-0.081406176,-0.058596794,-0.009495652,0.029619055,0.04249112,0.04451747,0.07502385,0.07417676,0.08033647,0.08473955,0.084442884,0.09487842,0.04803094,0.024419334,-0.02739472,-0.01174354,-0.008805322,0.015400499,-0.009684172,-0.018229987,-0.015446643,-0.03238713,-0.03584424,-0.035388473,-0.033321116,-0.053155854,-0.053129267,-0.057430115,-0.04274924,-0.047158975,-0.0002000896,0.024542179,0.041405827,0.06042077,0.06416196,0.068033844,0.06703208,0.08048563,0.06130164,0.05645741,0.03728641,0.018090889,-0.012039822,0.0077297203,-0.0015935446,0.019203033,-0.010328331,-0.019990066,-0.012177873,-0.03208858,-0.014281489,-0.042828403,-0.018815989,-0.036374968,-0.041251406,-0.020843273,-0.04148662,-0.039075468,-0.0041271984,0.013185207,0.039814506,0.045082785,0.055235814,0.042593893,0.017467473,0.038649596,0.038500432,0.03140332,0.011370358,-0.0014919675,-0.024886062,0.0063975207,0.0006040908,0.0055730436,0.003059836,-0.019599747,-0.02886115,-0.035057377,-0.021191599,-0.016614977,-0.008613269,-0.010302434,-0.023546869,-0.02668582,-0.014149556,-0.016708467,-0.010341204,0.014717745,0.03437035,0.024490673,0.029708022,0.027216917,0.031877477,0.012651558,0.018164387,0.0019352017,-0.0075089,-0.022938378,-0.028818049,-0.0046934695,0.004331745,0.0016748778,-0.023609614,-0.032994255,-0.031255137,-0.012466893,0.005993,0.029244699,0.015224902,-0.0005444063,-0.021254256,-0.009418996,-0.027808342,-0.041519396,-0.009019728,0.013598531,0.029554935,0.018982468,0.014503764,0.0019181089,0.006015873,-0.004750296,-0.0024784822,-0.012769736,0.00090270065,-0.01485459,-0.018011723,-0.010075859,0.0023367498,0.0068517528,-0.024764802,-0.022552978,-0.02893816,-0.015131565,0.00092462444,-0.0016124786,0.00022617544,-0.018397229,-0.026739497,-0.04703658,-0.028766604,-0.015983373,-0.029702857,0.0117487945,0.017704977,-0.0009207423,0.0013039147,-0.0046429513,-0.009769771,-0.01939842,-0.02297104,-0.028251039,0.00417278,0.0009569217,-0.017413666,-0.010505707,-0.0059294826,-0.008380716,0.0039974377,-0.009610935,-0.005577144,-0.010019543,-0.021826763,-0.013666742,-0.02915762,-0.021498898,-0.018557452,-0.035955295,-0.04184439,-0.032918848,-0.0365531,-0.030010767,-0.007837843,0.008407456,-0.02221094,-0.015196998,-0.013539858,-0.022061346,-0.011430989,-0.003809795,0.005206416,-0.008618665,-0.028220078,-0.029246664,-0.011935787,-0.0066701192,-0.010302888,-0.009386839,0.009193828,0.017404988,0.016490089,0.0020000427,-0.0017384158,-0.030903745,-0.027035242,-0.010375216,-0.027152061,-0.041176394,-0.04080808,-0.048681904,-0.043312795,-0.02559275,-0.02352364,-0.0129962,-0.0017203909,-0.01745736,-0.008844718,0.016666604,-0.0028099904,-0.016768184,-0.03557092,-0.021372799,-0.016887756,-0.0070664985,-0.0042995615,0.004484364,0.03492595,0.023495931,-0.009598626,-0.008566187,0.010230684,-0.0035655976,-0.005544372,0.0124986665,0.005247875,-0.028930105,-0.024780001,-0.029327782,-0.05145675,-0.039720442,-0.043139234,-0.019142916,-0.008170867,-0.004552004,-0.024948923,0.0059817918,0.00090072426,-0.030752972,-0.043155074,-0.020488843,-0.023660967,-0.002159834,0.003545144,0.0038323835,0.010675456,0.02042293,0.021115305,0.028356606,0.025364002,0.022171319,-0.0014888449,-0.009170294,-0.0218384,-0.011259465,-0.011530609,-0.033526026,-0.025329212,-0.014468393,-0.021135034,-0.00510387,0.0021034756,-0.023014065,-0.02279526,-0.012069547,-0.019924855,-0.04725874,-0.04378827,-0.02703089,-0.029001571,-0.009621996,0.0027820775,-0.003341621,0.0036924635,0.01657482,0.031299572,0.017936697,0.021294635,0.015827265,0.0116371075,0.0069335788,-0.00038247457,-0.0092314305,0.005382053,-0.0077306363,-0.013294365,0.005835409,-0.011036726,-0.0154289575,-0.003977663,-0.013081488,-0.016153794,-0.018979266,-0.030970167,-0.04733946,-0.044117253,-0.034090836,-0.031655226,-0.022491178,-0.0062878993,-0.015194517,0.004648217,0.0065280017,0.009711153,-0.011378432,-0.0130349435,-0.00340116,0.00075391115,-0.0068435306,0.01185709,0.00047312002,0.0060476507,-0.01422549,-0.026297856,-0.022085395,-0.00276561,0.0024879912,0.014760515,0.01838153,-0.0012798796,-0.025020389,-0.04046306,-0.05103169,-0.032625627,-0.028017376,-0.035676893,-0.029149543,-0.020238165,-0.015495162,-0.02007408,-0.011925293,-0.003566501,-0.005538565,0.0008914178,0.009715674,0.0022567487,0.021528922,0.02482404,0.022074053,0.042361803,0.019738201,-0.009304758,0.0015065784,0.0046373573,0.026254676,0.011494946,0.009453776,-0.0045339344,-0.030313259,-0.03748146,-0.029643072,-0.030193733,-0.025691519,-0.026400158,-0.022856906,-0.019855363,-0.022726662,-0.028983591,-0.02358917,-0.038477477,-0.025905458,-0.013968158,0.0020948148,0.017551264,0.027411435,0.0153623335,0.010428943,0.008134921,0.004111205,-0.008594359,0.0049758614,-0.026148384,-0.024785515,-0.018482102,-0.024702147,-0.015099875,-0.025173657,-0.025751464,-0.029264918,-0.029622443
