0.027303547,-0.07007695,0.1833106,-0.29651526,-0.47165677,-0.23503555,0.07323441,-0.19426446,-0.004083678,0.18534535,0.051788386,-0.07494383,-0.21438113,0.023614591,-0.010812953,0.1988084,0.113875516,0.14513224,-0.014409225,0.08126862,-0.5515858,0.25739998,0.10756319,0.06466019,0.31038183,-0.23290403,0.03568725,-0.12718256,0.2642371,-0.1407425
0.0776129,0.41358817,0.0005188104,-0.026907407,-0.16336082,0.09309652,0.09008393,-0.2918969,-0.1248797,0.2686789,-0.05782819,0.095169865,-0.0968441,-0.19804627,0.024732992,-0.10548551,0.20589183,-0.13023865,0.05084554,-0.15370189,-0.023636954,0.09517616,0.102309376,0.2025118,0.15467963,-0.0015305929,-0.02231968,0.14379287,-0.14583929,0.18571003
0.18312621,0.12350878,-0.11859742,-0.08328772,-0.41665763,-0.06747929,0.27415,0.13613391,-0.20614718,0.11039423,0.023822546,-0.20054922,-0.048484296,-0.19735064,-0.079278275,-0.16201782,-0.10278719,0.14072184,0.33468756,0.25830656,-0.068900555,0.1151745,-0.12671787,0.07816569,0.15731652,-0.24378033,0.058655657,-0.11716658,0.15922675,-0.011902239
-0.24872677,0.09235093,0.09249055,0.17026804,-0.09787315,0.13294703,-0.054457646,-0.009381495,-0.52942836,-0.014235502,0.28227025,-0.0925744,0.11966773,0.18525173,0.15607537,0.058550566,-0.13335484,-0.1632854,-0.14899085,0.18333161,0.057993196,0.15107884,-0.22223601,0.06369459,-0.19500186,0.16776028,-0.24754436,-0.18970655,0.104444824,0.23002227
-0.041446835,-0.15710947,-0.079448104,0.03375922,0.25185362,-0.05154263,0.13516423,-0.018392144,0.20548983,-0.032687854,0.22755668,0.0018110822,0.06802122,0.2480468,0.30952105,0.17937732,-0.012348332,0.28961718,-0.053741287,-0.19839177,0.10066062,0.1508882,0.1333362,0.0075468053,-0.26357052,0.052025266,-0.21595438,-0.054444563,-0.046668384,-0.020640882
0.19553466,0.026376367,-0.19598402,0.07043004,0.06313704,-0.1087312,-0.2941067,0.2517095,-0.18613432,-0.10659157,-0.04080351,-0.05864436,-0.15843327,-0.032486785,-0.06345901,0.111007795,-0.19031237,0.06027201,0.3234314,0.17619242,0.11980456,0.07937834,-0.08911129,0.122128144,0.24339311,0.081798725,0.28157946,-0.12775818,0.06632923,0.24454501
-0.17885663,-0.0041489727,0.14198641,0.21746013,0.04609114,0.24557544,-0.1585958,-0.11589567,-0.13023311,0.18796025,0.09272826,0.49533105,-0.30183947,0.13190919,0.057182513,-0.0003479846,0.04933679,-0.19408536,0.2599273,0.06122592,-0.09628652,0.18102363,-0.23195043,0.048847727,0.18339358,0.27970722,-0.033819035,0.3317046,-0.059863683,0.008036157
0.20858766,0.26455155,-0.19121449,-0.13386573,0.14039001,0.14281505,0.1792064,-0.061654754,0.06968978,0.2031416,-0.23461728,0.13062395,-0.13012318,-0.29519552,0.103590064,-0.11273785,0.29996976,-0.12433698,-0.0070987768,-0.06723608,-0.10500157,0.18364772,-0.11929701,0.07987006,0.24239023,-0.13970807,0.09292566,0.06687914,-0.064639956,0.21529198
-0.1441602,0.06940043,0.3541965,0.2581674,0.121092424,0.20023514,0.34361428,-0.12252262,0.23607981,-0.054419294,0.13294584,0.19035064,-0.059272423,-0.03933846,0.08949672,0.17288463,-0.17266497,0.1425807,-0.18937495,-0.43784055,-0.036523767,0.08251335,-0.09594983,0.07247528,0.034799743,0.15242667,-0.5513912,0.20246425,-0.05695156,-0.051845305
0.16993308,-0.295117,-0.08947854,0.044102535,0.13946617,-0.2625112,0.48900434,-0.040122516,0.13022006,0.071061105,-0.25757182,-0.13496245,-0.12237751,-0.23461697,-0.19748396,-0.0139832655,-0.08653699,0.31107605,-0.08730754,0.008183129,0.08109123,-0.14839923,0.2137193,-0.16188763,-0.0117574865,-0.20482129,0.06615579,-0.070936024,-0.05991828,-0.011541439
-0.05042483,0.12301516,0.40915582,-0.37040082,-0.048958298,-0.21296543,-0.07415693,0.1795859,0.100854926,0.08028605,-0.16648331,-0.034934994,0.100581594,0.13838443,0.09211204,-0.017494716,0.08371977,0.15860507,-0.027886814,-0.014357476,0.16284496,0.11214283,-0.14968018,-0.2774795,0.13313517,0.061025552,-0.082963295,0.06290236,-0.033264413,0.056266613
-0.052685827,-0.034506325,-0.3879985,-0.17425205,0.029984457,0.3830639,0.33813992,0.11445534,-0.25299895,0.11877992,0.07767087,0.42684838,-0.18961851,-0.23510896,0.0007816197,-0.05717958,-0.073847614,-0.15004544,0.30116525,0.26785344,0.21857846,0.094449945,0.10740524,0.03478566,0.03648774,-0.18623939,0.12983558,-0.09055044,0.29304364,0.07934464
-0.19152132,-0.069211885,-0.10903415,0.32665882,-0.13964348,0.037517935,0.30563363,-0.11193859,-0.2459635,0.046178117,-0.19996753,0.21991697,-0.03909089,0.094621554,-0.11193915,0.19134708,0.17510563,0.19963503,0.38035402,0.2792701,-0.014379423,-0.044503573,0.30357757,0.18046272,0.081916526,0.45494822,0.3891928,-0.08277859,0.22919188,-0.02400111
0.10731483,0.035597548,-0.12512498,-0.002034266,0.3626353,0.5420736,-0.17900954,0.079449914,0.0958227,0.25598317,-0.3344876,0.20676892,0.04367791,-0.09465251,-0.12101166,-0.11196569,0.2585013,0.2842524,-0.22797224,0.15428002,-0.022698883,-0.11783119,-0.0138647575,-0.06764248,0.26623827,-0.101033,-0.04854819,-0.0013100267,-0.017907362,-0.0020746826
-0.03472657,0.18191282,-0.22408701,0.06565468,0.011594379,-0.19226426,-0.016896153,0.06985719,0.2499615,0.10927094,-0.036576044,0.22432692,-0.3036833,0.11354364,-0.03541414,0.32303485,-0.15582854,0.007275497,-0.29805166,-0.20775858,-0.039516818,-0.016957838,-0.2556047,0.2864984,-0.027539322,-0.00129845,0.17926806,-0.06200232,-0.39223117,-0.30356398
0.20892622,-0.026668021,-0.022745533,-0.16083515,0.08459766,-0.1601529,-0.36213186,-0.17983419,-0.038040034,0.037871607,0.10698269,0.0068175397,-0.386608,-0.1668106,-0.11236333,0.27470788,0.0048588975,0.09440577,-0.1055734,0.10389173,0.056498043,-0.0036234676,0.06812253,0.23786281,0.17926647,-0.092775226,-0.040291093,0.06784517,0.14611427,0.18093427
0.007709834,-0.27117574,-0.018105399,0.08986939,0.13978574,-0.22398642,-0.07656649,-0.12378368,0.14627543,-0.054611128,0.17671533,-0.055199564,0.097427785,0.13837607,0.22671445,-0.16504693,0.063509434,0.020113783,0.36213058,0.40927684,0.10603567,0.23161298,0.060213156,-0.136065,0.0493368,0.2448432,-0.02207549,0.0028396116,-0.18955448,0.12330274
0.1885142,-0.004844536,-0.2016951,0.1665402,0.018948568,0.123857334,0.028956039,-0.082245335,0.048532236,0.2701318,-0.14261559,0.16555382,-0.129668,-0.2545812,-0.31774056,0.034450017,0.012359318,0.04437069,0.20056292,0.18397754,-0.11437934,-0.035086516,-0.034885254,0.14509237,0.17225085,0.08610804,-0.017773636,0.1515771,0.07036659,0.18595447
0.037227407,0.14777443,-0.179538,-0.070431255,-0.09114628,-0.14101198,0.07687486,0.3375095,-0.090965755,-0.019470882,0.13861127,-0.12630808,0.2299822,0.033282697,0.17363754,-0.14189714,0.009792873,-0.11330623,0.09153975,0.02751717,0.30668727,0.21336013,-0.18520278,-0.16747414,0.22058402,-0.033697356,-0.41932616,-0.14018834,0.012458328,0.32912558
0.16661988,-0.058499776,0.31659082,0.014707885,-0.23485626,0.15005049,-0.18487497,-0.09671256,0.19379753,-0.16052873,0.15588744,-0.18801193,0.07595053,0.006661225,-0.025003284,0.1932001,0.003638895,-0.13305037,0.14591695,0.15397666,0.13504764,-0.044053435,0.060942363,0.12642868,-0.057938267,-0.14972411,0.03805166,0.34752473,0.16819215,-0.18861048
-0.027359175,-0.1234913,0.07789982,-0.406923,-0.09811519,-0.13478817,-0.25052756,0.16218588,0.124277994,0.026274825,0.20911923,-0.3230643,0.030193834,0.44980365,0.2714449,0.07692384,0.17457189,0.16041465,-0.08221211,-0.031147031,-0.1406271,0.24769674,-0.009757807,0.19286573,0.41967928,-0.38045642,-0.08051783,-0.14478998,-0.21554397,-0.08325208
0.18415761,-0.06824968,0.21475494,0.12057128,0.073236324,-0.026076365,-0.23797493,0.3848283,-0.109790504,-0.2669478,0.106041245,-0.113744356,0.3465983,-0.17285389,0.024143001,0.23927976,-0.0046143793,0.0605643,-0.17739269,0.09808436,0.15065883,-0.23239453,0.001634116,0.13803984,-0.20289376,0.25052252,0.13790192,0.05546881,-0.084750466,0.024547277
-0.005466528,0.27843612,0.16604625,0.10337354,-0.31469032,0.22461608,0.29398805,0.27577245,-0.09106788,-0.033942442,-0.16321917,-0.30487138,0.18231486,0.13370413,0.051941123,-0.14629008,0.055571727,0.24736188,0.22726713,0.1332781,-0.03102749,-0.06488797,-0.097891465,-0.04412209,0.004268676,0.16780174,0.13501331,0.062150855,0.07667711,-0.24074022
-0.07772627,-0.22415802,0.12527634,-0.16395241,-0.10145824,0.034411706,-0.09103557,0.14186352,-0.097674176,0.21912482,0.07224238,0.15823573,0.061274804,0.08661956,-0.030112827,0.0008135495,-0.28578275,0.06144536,-0.011288007,0.12192533,0.19026014,-0.07931031,-0.04474649,-0.042921353,-0.26375446,-0.06205772,0.19916044,0.18209429,0.23446332,-0.31106064
-0.13625692,0.054152355,-0.27591825,-0.30035487,0.11062654,-0.24056336,-0.11035208,-0.12871154,-0.021193989,0.28689888,0.26217267,0.13082846,-0.15402207,-0.07982419,0.27772167,-0.06712201,0.38990048,0.023054972,0.01888837,-0.07369534,0.024896266,0.22490594,0.22058164,-0.09758362,0.21965125,-0.29308596,0.06328808,-0.043603074,0.09056252,-0.09012253
0.10129816,-0.17205454,-0.052581705,-0.016099852,-0.08828036,0.09615215,-0.2888452,-0.19250996,0.029640347,0.07465848,0.0016986696,0.1130685,0.10513539,-0.13700464,-0.30926532,0.04166785,-0.07831891,0.056427546,-0.06356266,0.12576531,0.34404677,-0.24368905,0.1898316,0.17849632,-0.15231468,-0.038402688,-0.22760718,0.2853258,0.10760345,0.095135584
-0.11711262,-0.23850721,0.12031088,-0.006668885,0.0011039365,0.1449728,-0.004303067,-0.06461834,0.05812133,-0.25303167,-0.13922027,-0.07796665,0.4343139,0.036185425,0.004680129,-0.25667748,-0.060535956,0.109166406,-0.044591315,-0.18404709,0.078756355,0.13948603,0.055110306,0.3641292,0.30343893,-0.17986482,-0.24305122,-0.2488376,-0.021611417,-0.033668812
0.19137402,0.16348249,-0.084897615,-0.0850083,0.01947851,0.16768593,0.17286688,-0.326587,0.029515259,0.2340878,0.22786164,-0.1776811,0.071565755,-0.15980326,0.025141848,-0.118789814,-0.44452113,0.102803044,-0.1625051,-0.31477073,0.07332965,0.1813556,-0.28042352,0.15226385,-0.36100245,0.028150974,-0.43370026,0.016602045,0.14417706,-0.04771946
-0.15309103,0.00723086,0.051112458,0.113970734,0.3403622,0.051134534,0.18587889,-0.16609842,0.22075352,-0.017758265,0.04675864,0.24238916,0.086201064,0.2364479,0.14563282,-0.05223053,0.20444833,0.22187504,-0.124699645,-0.16253719,-0.091648765,0.060927194,0.28059217,0.14765231,-0.040729526,0.26452717,-0.21622507,-0.1349069,-0.24060841,0.22344008
0.17234214,-0.101545446,0.10595405,0.18827125,-0.12198544,0.013049043,0.06688878,-0.12098389,-0.11764708,-0.2704679,-0.13325988,-0.07256997,0.19511798,0.04185374,-0.28873238,0.010944143,-0.15100428,-0.06583951,0.33217004,0.12857081,-0.013806451,-0.22495726,-0.18167517,0.06885083,-0.18369053,0.34673348,0.18060108,0.23926502,0.2571705,0.08358221
