-0.03626265,-0.04711261,-0.012444137,0.0079808645,-0.0025196308,-0.04831025,-0.015057429,-0.012871884,-0.018922247,0.018739955,0.0067651155,-0.053718228,-0.002501438,-0.05397394,0.026404964,-0.052587055,-0.01918012,-0.044797078,-0.015042319,-0.0059151286,-0.070593454,-0.07109902,-0.01897444,0.028760253,-0.013533624,-0.026196493,-0.056104094,0.013668918,-0.05859417,-0.008252506,-0.05183197,-0.05885716,-0.058437362,0.0028789327,-0.085277066,-0.03775191,0.023525776,-0.00948561,-0.013734402,-0.010529596,-0.05292171,0.003004652,0.0012191217,0.036800455,-0.02411019,-0.014586581,-0.045081224,-0.0068572247,-0.004678244,0.007227334,-0.032732483,0.024734935,-0.030382836,-0.015826581,-0.04941488,-0.01521239,-0.034770805,-0.035584435,-0.027503815,-0.010614702,-0.069398694,-0.030070545,-0.033614498,0.047553312,-0.025827054,-0.0155093325,-0.064883895,0.0012592879,-0.02214274,-0.0427279,-0.019535042,-0.02697374,0.0046096896,-0.059829492,-0.03475163,-0.10351401,-0.010055079,-0.03152498,-0.04720491,-0.041607827,-0.07206341,-0.05582204,-0.053241093,-0.009251154,-0.015107026,0.003934524,-0.028644849,-0.0093921125,-0.05649554,-0.023743177,-0.034018684,-0.050500527,-0.063391365,-0.02826156,-0.033869766,-0.032660935,-0.0153983375,-0.016717182,-0.0141002005,-0.06297933,0.0047752536,-0.02308638,-0.050679605,0.008137522,-0.0034675696,-0.0033583154,-0.023828812,-0.0069066826,0.0036845035,-0.0016475308,0.015037306,0.016734097,-0.034782466,0.029425152,0.009881717,-0.020237861,-0.008007342,-0.027403008,-0.07081632,-0.017716777,-0.05281955,-0.022273662,0.0024342518,-0.024197748,-0.015540642,-0.008822035,0.0013164707,-0.044133227,-0.05992202,-0.027554674,-0.028413692,-0.026082728,-0.03060897,-0.029823348,-0.049573433,-0.045077503,0.02343464,-0.016266225,-0.038016535,-0.020414064,0.0059168763,0.03028175,-0.007954861,0.008071886,-0.008022167,0.016214322,0.03703319,-0.03782346,-0.048597675,-0.01648011,-0.030033562,-0.06185685,-0.06813357,-0.035400555,-0.054195624,-0.034667842,-0.044080395,-0.02244512,-0.032301713,0.0065069306,3.958887e-06,-0.01392477,-0.020239012,-0.047600664,0.017268756,0.011177492,-0.0058133104,-0.033321913,0.005410844,-0.025920555,-0.009119578,-0.04103476,-0.00019129239,0.018221367,-0.05166265,0.054837707,-0.05377082,0.0006388074,-0.042161185,-0.026410062,0.0022412727,-0.023489797,-0.02052074,-0.042255368,-0.039128058,-0.047310274,0.0022513473,0.016690215,-0.017914072,-0.003884343,0.013589804,-0.04514467,-0.038278095,-0.008481247,-0.014385979,-0.036124732,-0.009744327,-0.028169144,0.031437412,0.009684794,-0.007959326,0.019709473,-0.017225446,0.002127876,-0.04109983,-0.01822863,-0.022219565,-0.0073569263,-0.006817579,-0.0025278917,-0.0150554525,-0.026429461,-0.037344508,-0.06274836,-0.0015466365,-0.05991149,0.019178387,-0.043532077,-0.0020897933,-0.03444693,-0.069725186,-0.034044474,0.0016739315,-0.013902926,0.010851828,-0.034399148,0.019551469,-0.044890426,0.034603447,-0.0423691,0.012451444,0.02256305,-0.013442528,-0.03950229,-0.007197719,0.00421033,-0.040456798,0.007886551,0.019344436,-0.010020684,-0.024184523,-0.03620012,-0.011696054,-0.058404583,0.01458635,-0.043982666,-0.017311629,-0.007608445,-0.031752348,0.013293227,-0.0032500178,-0.005727381,-0.00845489,0.06677993,-0.012899684,0.017334674,0.003192427,-0.023634316,-0.016184185,-0.029648725,0.023530168,-0.016401533,0.017616512,-0.003361443,-0.05457773,0.017572572,-0.0012951511,-0.0034181196,-0.06340233,-0.008034395,-0.024217471,-0.023602827,-0.02402925,-0.017040657,-0.0064480565,-0.009058987,-0.04042843,0.013513987,0.005704038,-0.054641593,0.02685783,-0.017450586,0.00928297,0.0030344112,-0.065763205,-0.038325906,0.016808555,-0.05213593,-0.038969208,-0.02669144,0.0140066035,-0.050027113,-0.02305192,-0.0017107304,-0.042301685,-0.05248045,-0.013405596,-0.010757219,-0.03982706,-0.030461285,-0.035549045,0.024763964,0.029386641,0.007188638,-0.06172754,-0.013297057,-0.046559036,-0.040489394,-0.008811359,0.01217917,-0.042856894,-0.043156482,0.010165467,-0.06185377,-0.035720058,-0.023613576,-0.019705512,-0.04739313,0.0015655063,-0.020598982,-0.0078016575,0.004591682,-0.005454516,0.03554717,-0.020464057,0.016032776,0.0045979833,0.009587116,-0.048404694,-0.02090471,-0.017884338,-0.045719124,-0.011600394,-0.024049547,-0.047996216,-0.033180714,-0.004190958,-0.044663034,-0.057350744,-0.02847708,0.03979572,-0.0032991548,0.01251726,-0.048518233,-0.00786491,-0.010844865,-0.0009030977,-0.017397396,-0.017996725,-0.05311243,-0.050936583,-0.024990086,0.008342384,-0.045857444,0.011839287,-0.061851118,-0.0074086967,0.019021342,0.001800226,-0.09299485,-0.063539654,-0.038663447,-0.01520393,-0.016396808,-0.021298751,0.015373447,-0.013662508,0.009109283,-0.041908152,0.0118061425,0.01887059,-0.026417142,-0.06470257,-0.033421647,-0.02714117,-0.023037368,-0.01222007,-0.07658202,0.017484423,-0.0320516,0.028909678,0.0074811084,-0.058348052,-0.008887984,-0.036477335,-0.02444965,-0.023702662,0.010572722,0.0025775696,0.016940488,-0.0070999945,-0.019756613,-0.050073218,-0.051105883,-0.031922653,0.016080057,-0.056856934,-0.028751627,-0.009304434,-0.049012337,0.014909692,-0.016155744,-0.004386281,0.0038966183,-0.033370048,-0.0087097315,-0.0065928223,-0.0068354714,0.02350073,-0.07604869,-0.015316435,0.008264074,-0.020476922,0.014597155,-0.031290986,-0.054634806,-0.0039196494,0.02279171,-0.039346106,-0.039178208,-0.0401898,0.00831626,-0.045972977,-0.0040495726,-0.024035508,0.009482835,-0.04268991,-0.0595039,-0.019608138,0.006054091,-0.030890698,-0.01625244,-0.05157239,0.013229503,-0.017766548,-0.026879506,-0.03229603,-0.055300105,-0.04441059,-0.009938226,0.0033133184,-0.04461927,-0.06393915,0.0049123554,-0.06699076,0.00039789596,-0.008241947,-0.013447502,0.034494065,-0.03425844,0.030700337,-0.03546477,-0.06419968,-0.00674383,-0.0048267036,0.0146111,-0.024990292,0.028848233,-0.01753554,-0.045764662,-0.03561321,0.012637946,-0.026361274,0.026439084,0.012511585,0.02318398,-0.025785627,-0.013790016,0.005538242,-0.057295416,0.023633704,-0.010097206,-0.044417273,-0.028441247,-0.05713301,-0.03559279,-0.026118863,-0.043348055,-0.0543399,-0.0121207265,-0.008929123,-0.017138228,-0.024808845,-0.0077667637,-0.0008373816,0.00028825324,-0.058878623,-0.048703283,-0.0015976904,-0.021110283,0.008670963,-0.035591684,-0.04141223,-0.04927131,-0.028523292,-0.017124113,-0.005917641,-0.036196083,-0.012382922,-0.016497388,-0.016424606,-0.0030085687,-0.06641183,-0.00649253,-0.03527626,-0.004195164,0.011840532,-0.061332863,-0.047175243,-0.015841803,-0.02471443,-0.04791698,-0.010402636,-0.050680354,-0.07361941,-0.046937976,-0.049203586,-0.020658894,0.032545753,-0.0042302073,-0.045978896,-0.040567897,-0.002780574,-0.014411308,0.053749707,0.0008643641,0.013807605,-0.05505472,0.0071689943,-0.031772394,-0.05972502,-0.052516844,-0.05436437,-0.026537905,0.0048050643,-0.04514058,-0.056510318,0.023213372,0.014451018,0.004325416,-0.024336513,-0.006471376,-0.058587637,-0.051524706,0.012548803,-0.0022568894,-0.020462325,-0.026937636,-0.03625967,-0.018185116,-0.022007272,0.0025098638,-0.04883451,0.0067878026,0.010840685,-0.026812248,-0.04378419,-0.019615201,-0.0045492267,-0.033271328,-0.042057365,-0.0023680588,0.0009407965,-0.030826341,-0.05222312,-0.043655977,-0.010508534,-0.008866497,-0.0010189378,-0.023544215,0.02993422,-0.02991387,0.0035223265,0.005167474,0.014282696,-0.017192645,-0.01633888,-0.03745921,-0.00028777355,0.01564995,-0.030626155,-0.036446244,0.008609059,0.0053762523,-0.038147036,-0.031286266,0.018296022,-0.030131228,-0.04635008,-0.0076160524,0.005465995,0.0163428,-0.005841821,-0.06787917,-0.018399553,-0.02119603,-0.035634603,-0.029705985,-0.04083927,0.00019779513,-0.0434768,0.014603747,-0.0029076396,-0.05014606,-0.049443185,-0.02329372,-0.01095569,-0.047213275,-0.06605983,-0.03785675,-0.060787495,-0.04131848,-0.025540203,0.018044397,0.016060246,0.0055010025,-0.02412645,-0.031793173,-0.04549507,-0.0034213825,-0.010519844,-0.04609376,-0.02791299,0.01144938,-0.024972184,-0.029120844,-0.017451541,-0.042961158,0.014806528,0.00622472,-0.021199021,-0.045736186,-0.032699298,-0.008236753,-0.026292743,-0.012672029,-0.05701611,-0.03349333,-0.029855771,0.014789226,-0.027951311,-0.020438338,-0.048460234,-0.025831198,-0.023739234,-0.009381683,-0.05199835,-0.050498534,-0.038618155,-0.04822005,-0.030028587,0.022669336,-0.019754019,-0.0120191695,0.020749193,-0.03233066,-0.034913115,0.0014836211,-0.011247786,-0.050706904,-0.008406767,0.0016653076,-0.022120599,0.0077998554,0.021459723,-0.09385072,-0.005637015,-0.023349997,-0.015581684,-0.027169248,-0.010363171,-0.010850041,-0.030311083,-0.011667089,-0.0610115,0.026159767,-0.014385309,-0.0047726575,-0.0051474725,-0.024429442,-0.065194614,-0.0058900137,-0.02817134,0.004356428,-0.04027356,0.008972152,-0.037370317,-0.013151238,-0.019374948,0.040434603,-0.039600875,-0.056784432,-0.030434357,-0.0014939244,-0.011628939,-0.033984855,-0.039616402,0.01788522,-0.047171872,-0.05309372,-0.043303847,-0.02959353,-0.01199751,-0.016836908,-0.0065559456,0.009535628,-0.034084924,-0.031192817,-0.03159106,-0.038671285,0.0183307,-0.013285171,-0.020989304,-0.07202404,-0.037026666,0.0013172794,-0.06583019,-0.0012172038,0.0003602706,0.022155747,-0.03483162,-0.036711846,-0.05592006,-0.01649785,0.009063708,0.00989581,0.021127595,-0.0394982,-0.0010299636,-0.042894676,-0.057305843,0.019007819,-0.009823645,-0.0048617367,-0.038004838,-0.04731897,-0.021148046,0.011344956,-0.018951239,-0.038963046,0.00013348345,0.0020468954,-0.020726012,0.008167402,0.0053360076,0.0062488727,0.015350626,-0.016557567,-0.032147128,-0.04590712,-0.08074141,0.03331241,0.029196655,0.019109657,-0.057007365,0.0017220256,-0.050575584,-0.037344653,-0.005951884,-0.01590792,-0.029069306,-0.009420393,0.013269067,0.010927403,0.00090141303,0.001845128,-0.033697825,-0.006571333,-0.037760843,-0.016267933,-0.009140811,-0.0011061731,0.0011321801,-0.029104672,-0.021580536,0.026484126,-0.008020884,0.008998708,0.025220107,-0.08217098,-0.034633987,-0.02164944,-0.004076,-0.02351963,0.0070124217,-0.019473955,-0.009730296,-0.04192684,0.0023282145,0.021624966,0.019531481,0.011044309,-0.043397643,-0.060621023,0.031137522,0.017244706,-0.019711383,0.018077547,-0.006217433,-0.010063281,-0.015983298,0.021969689,-0.020233592,-0.000991475,0.04220532,-0.033776112,-0.032164846,-0.013299316,-0.056158,-0.060138352,-0.02507008,-0.008461761,-0.02418285,-0.026432294,0.0074673966,-0.030929387,0.013120015,-0.009797846,-0.0134839285,-0.009881564,-0.0152092315,-0.03448824,-0.04354517,-0.011440412,-0.023328252,-0.0031562678,0.019516233,-0.03818792,-6.428668e-05,-0.036725294,0.0113008665,-0.047334827,-0.018395692,-0.020342467,-0.01583351,-0.028982017,0.029969277,-0.0023091352,-0.07114753,-0.037473693,0.0062312526,-0.03531035,-0.023082163,0.020657338,-0.03895641,-0.07839896,-0.048670426,-0.03739943,0.026057813,-0.0222321,-0.01104352,-0.066227295,-0.02295383,-0.018384917,-0.016386801,-0.062756844,-0.03640549,0.011126062,-0.0002873416,-0.04385099,0.003257067,-0.007566465,-0.0053237746,-0.03280909,-0.017144019,-0.041650776,0.019160723,-0.036586925,-0.044356212,0.0023423391,-0.032422855,0.017789263,-0.02262557,-0.060052693,0.020364968,0.014343838,-0.034269083,-0.02472051,-0.04424397,-0.07262056,0.012902381,0.009062067,-0.015413734,-0.023948794,0.0025715607,-0.026413396,0.010585923,-0.02959673,0.014360736,-0.0072231935,0.002105726,-0.03176535,0.009016524,-0.004371837,0.0041897837,-0.018989513,-0.02269412,0.017486231,-0.030677456,-0.03986907,0.0059409244,-0.030498894,0.012565907,0.003907877,-0.027237268,0.016313978,-0.007975631,-0.038518876,-0.060812455,-0.06896803,-0.03630495,-0.029883381,-0.043051165,-0.011779527,-0.02787889,-0.077506155,-0.0059471894,-0.0066406135,0.01253982,-0.033935424,0.0010511642,-0.039813936,0.00053894107,-0.05689573,-0.030718962,0.02768724,-0.0027445906,0.009700311,0.0022245513,-0.04728488,-0.0025878807,0.011280006,-0.02969115,0.023297306,-0.032512408,-0.051590964,0.04455338,-0.031637687,0.0013117893,-0.038197614,-0.005684004,-0.04746818,-0.0014191221,-0.03371802,0.0059313127,-0.015772115,0.024889097,-0.032442097,-0.026760526,-0.009692587,0.007869577,-0.022127489,-0.017613102,-0.04636372,-0.04255189,-0.036840912,-0.055264045,-0.061245948,-0.012870779,-0.041551046,0.023156406,-0.08309141,-0.04005837,0.0116187455,0.018619277,-0.060674265,0.0114528,-0.01197874,0.007223736,-0.057276674,-0.052866638,0.0045963153,-0.07020813,-0.06614044,-0.039586008,0.0064209457,-0.019803371,-0.00095003675,-0.008786035,-0.0468583,-0.014972272,-0.0015430647,0.012619903,-0.02103082,-0.025126629,-0.056014083,0.014834151,-0.053162564,-0.02221101,0.007615068,-0.020924864,0.00013463877,-0.0026176237,-0.051568337,-0.014293488,-0.0064919516,-0.0158228,-0.032684322,0.0133708855,0.042110644,0.018862624,-0.016321188,0.021824544,0.0011109996,0.036596484,-0.028708551,-0.0018756699,0.011120711,-0.020180782,-0.07481456,0.011149175,0.009577975,-0.048324794,-0.038128242,-0.017407542,-0.0010830034,0.007244733,0.026855614,-0.04940696,0.016331414,-0.015602649,0.015527269,-0.05793765,-0.02190716
