0.002706421,0.06589192,-0.049556255,0.037961982,0.09099493,-0.05042803,-0.031261966,0.01639664,0.023024516,-0.006910766,0.0736136,-0.06961115,0.066903085,-0.057696596,-0.018425904,0.013433391,0.030433401,0.026587881,-0.02745165,0.0145728225,0.11932872,0.045262404,0.04931512,0.113154724,0.08205976,0.11731994,-0.025176868,0.062414832,0.046743624,-0.027700342,0.015654542,-0.009687815,0.036026344,0.072937734,0.002136422,0.04812107,0.01754353,0.05078921,-0.031380028,-0.0027304143,-0.118474185,-0.018940127,-0.040946443,0.13954127,0.079179786,0.024208393,0.0019047818,0.05735678,-0.008586913,0.082191944,0.05021784,0.014759626,-0.028529366,0.09583628,0.034174748,-0.058795962,-0.08178095,-0.035808664,-0.007854093,0.025646124,0.02707406,-0.01929101,0.01058446,0.020070847,0.042202152,0.08043306,-0.026340405,0.16789998,0.037987757,0.06867184,0.06581806,0.015458932,0.021181231,0.012158791,0.027691511,-0.0037534032,-0.08326926,0.0102812,-0.010377587,-0.041978218,-0.019688286,-0.039625086,0.08855093,0.06372331,0.013196158,-0.015661856,0.071436726,-0.016783562,-0.058015354,0.0127989175,0.07808344,0.04981431,-0.0077128457,0.09624199,0.07291295,-0.053727183,0.052047078,0.0037854463,0.012065329,-0.04437132,-0.009102238,-0.0383572,-0.06628068,0.052229296,0.03673957,-0.03680111,0.06200452,0.07644134,0.025262984,0.0043812143,-0.035776466,-0.098762624,-0.014153443,0.0940249,-0.06386633,-0.018207645,-0.07692032,-0.006894198,0.0036992969,-0.025984423,0.12408691,0.07076001,-0.069416836,0.028027464,0.00056078925,-0.046307568,-0.06513673,-0.033348504,0.009187743,0.05007433,0.10399634,0.009971144,0.06449591,0.02996627,0.1344185,-0.019626057,0.0332463,0.0833183,0.097503535,-0.01886451,0.063548595,0.043943197,0.011444361,-0.02533781,0.1275026,0.15999234,-0.007978864,0.010077272,-0.0640828,-0.022241227,0.039033867,-0.118764855,0.008440515,0.020984998,-0.065354444,0.0300335,-0.01281381,-0.028261736,0.06131752,0.06650465,-0.08163599,0.0778241,0.00023440513,0.17831416,0.14430696,0.0043406035,-0.07975109,0.09682257,0.08343733,0.028934557,0.071435176,0.009819439,-0.051311478,-0.061915133,-0.045605306,-0.0027440062,-0.038402658,0.16566876,0.031950947,0.07270862,0.010993772,0.011641378,-0.024562066,-0.03510519,-0.0091552865,0.046452504,-0.005921579,-0.015996154,-0.00721641,0.010514466,-0.031169184,0.014975264,0.03738115,-0.03547122,-0.015742335,0.06515578,-0.10967309,0.08148329,0.13420843,-0.034669496,0.017213209,-0.0012558191,0.05556659,-0.062488582,-0.040147543,-0.02469772,0.038856663,0.041128453,0.032083444,-0.035102572,0.03244988,-0.030925898,-0.020937467,0.10808763,0.012245706,0.09995036,0.034014277,-0.029414857,-0.022641413,-0.05423621,0.067437224,-0.015507191,0.09004158,0.14546385,-0.089077696,-0.00972686,0.029305251,0.0072604963,0.011396548,0.036010128,-0.013971794,0.024513667,0.082360454,0.04384509,-0.043056857,0.0042284913,0.010260917,0.043257058,0.1525455,0.0038947468,-0.010373269,-0.031860486,-0.050024506,0.0031611032,0.05176486,-0.009095247,-0.02356658,-0.0151149575,-0.032351926,0.046790328,-0.08510445,0.059895046,-0.018653018,0.100862585,-0.017278695,0.11625518
