-0.06254248,-0.04784794,0.04730195,-0.10178179,0.033323277,0.06547447,0.1439477,-0.03947848,0.0032797712,0.037676334,-0.056291595,-0.012510835,-0.025641901,0.062013216,-0.027816873,0.04404878,-0.032614473,-0.016008293,-0.116838194,0.116805226,0.022378055,0.08171171,0.069193415,-0.03132727,0.1587751,-0.072366744,0.07460474,0.038017835,0.09408575,-0.004934894,0.08607209,0.059080165,0.039400343,-0.022042412,0.07243474,0.06914963,-0.05215198,0.02509082,-0.025904913,-0.104926586,0.037267696,-0.023378273,-0.060035467,-0.045085207,0.15034643,0.016730463,0.10303767,-0.030311044,-0.026698824,0.05553094,0.03611207,0.016349548,0.019085096,0.12411415,-0.021211233,0.054747034,0.03237371,0.05391702,0.05696898,0.051205628,0.013368342,0.08187997,0.0008199418,0.057450224,-0.0063618077,0.042157818,-0.014938097,-0.067401566,0.08217366,0.12250154,-0.060369864,0.045234095,-0.024976067,-0.06414446,0.04935114,-0.013814861,-0.0058256397,-0.032385916,0.09788252,0.00020756059,0.010891631,0.006619949,0.0014231104,0.028767345,0.046280786,0.041632116,0.05462006,0.14295848,-0.008664373,0.055785615,0.021877553,-0.029536972,0.05535294,0.032407627,0.046222094,-0.029324347,0.05836734,0.011630544,0.08011021,0.02877791,-0.0035257936,-0.05456405,0.05022686,0.05366684,-0.088041775,-0.056673575,-0.027427634,-0.0046946476,0.12547284,-0.027004715,0.03054817,0.09461285,0.047236856,-0.07701109,-0.010177838,0.080622196,0.053361647,0.038598057,0.021100458,0.08506962,-0.018522706,0.07257398,-0.025896493,-0.06561825,-0.06847632,0.061520867,-0.07964452,-0.07543015
