0.009026472,-0.06538312,0.12071665,0.054065038,0.059337232,0.019650944,-0.0049404986,-0.009191004,0.083670594,-0.015947513,-0.0846664,-0.008731066,0.11521771,0.103342205,-0.06325907,0.046723384,0.109343745,0.07530872,-0.049358625,-0.018582784,-0.09925316,0.034332205,0.0067751105,0.09192318,0.09728245,-0.078967415,0.052194193,0.00585481,-0.049448024,-0.10059856,-0.03633822,0.061182544,-0.024349183,-0.08951912,-0.041210607,-0.0061906544,0.05875747,0.032064825,0.013242492,0.025431817,0.092734635,-0.014988361,0.021051805,-0.09134883,-0.046810444,0.06170099,-0.030045204,-0.054223746,-0.044817418,-0.03349477,-0.05632119,0.01452397,0.08001333,-0.0539574,-0.011001758,-0.0472854,0.052539963,0.048815653,-0.030752143,-0.010129405,0.02896263,-0.06810227,0.061256547,0.06444031,-0.10544524,-0.012205243,-0.10705677,0.11015106,0.09311469,0.018730072,0.059998203,0.026073389,-0.015690355,0.091700695,-0.048761692,-0.103172705,0.0424914,-0.093747996,-0.007486116,0.038210027,-0.07475719,-0.05927647,0.0026840088,0.01027172,0.024728402,-0.021100024,0.09780668,0.06392224,0.020566246,0.012692213,0.065228224,0.04899534,-0.007142842,0.02731851,0.063260086,-0.007599757,0.0045430413,0.09645779,-0.049581617,-0.024005495,0.037715245,0.008250666,-0.0639972,-0.057270013,0.009601665,0.048846867,-0.013648025,0.08310893,-0.0046451967,-0.033965234,0.013493997,-0.007953346,-0.095725365,0.06813761,-0.047883444,0.053283073,-0.07991638,0.035463497,-0.004192483,0.095228925,-0.040468004,-0.0018450794,-0.049730748,-0.028753852,0.06443476,0.023383137,-0.0419909,-0.019413665
0.067533694,-0.048483595,0.09672194,0.16912974,0.02184,-0.063617304,-0.0032425858,0.0073685804,-0.06373818,-0.077068776,0.03760612,0.18107639,-0.012211493,-0.07687873,-0.003682818,0.10930266,0.01920761,-0.06567835,0.12649114,0.02187825,0.08352686,-0.09375761,-0.005819585,-0.0077677583,-0.0013005006,0.041054185,-0.026496226,-0.03751275,-0.14865924,0.008938858,-0.10471462,0.24719939,0.011212319,0.11909599,-0.062844396,0.01872986,0.05981529,0.013459981,0.05140083,0.12709068,-0.039964534,-0.032725766,-0.059305776,-0.011795229,0.09294521,-0.04680163,0.07291201,0.04423609,-0.02464433,0.05630312,0.07070093,0.054484494,0.0015718911,0.1366536,0.07015381,0.025402974,0.08974598,-0.040705334,0.0038693997,0.047231127,0.10108726,0.11541442,-0.03691817,-0.05622311,-0.073914886,0.05093653,0.08928741,0.017249148,0.05138462,-0.0167031,-0.040847853,0.0319446,-0.040822584,0.0117672905,-0.040328365,0.03367791,-0.09095698,-0.061899938,-0.089962125,0.021927388,0.03783598,0.08504909,0.010037559,-0.06535005,0.02270173,0.043742273,0.009027361,-0.010628305,0.037693065,-0.009413094,-0.06378926,-0.042120125,0.03542462,0.058564857,0.11847293,0.040843517,0.04335224,-0.011127026,-0.033712182,-0.067662105,0.07465795,-0.0836986,0.033192847,0.08042465,0.060059838,0.021455888,-0.057887442,-0.060644016,0.08289683,-0.048973765,-0.075970635,0.052081015,0.07649993,0.08344479,0.118876845,0.10417901,-0.116728164,-0.108251415,0.023974897,-0.039184354,-0.028984947,-0.007778834,-0.061284203,0.0051824297,0.030547328,-0.099062376,0.0121408915,-0.2100471
0.043242794,-0.04544923,0.07221385,-0.075531386,-0.0601174,0.043823898,-0.070316955,-0.10650946,-0.015379332,-0.0758522,-0.016821807,-0.06921326,-0.04429237,0.07976776,-0.08023812,0.007889035,0.051390894,-0.062359896,-0.0216493,0.023464762,0.041297473,-0.096263036,-0.038864873,-0.0064530075,-0.0813754,-0.10145719,-0.06344935,-0.062683806,-0.09723876,-0.063665695,-0.05943536,-0.08413558,0.06277991,-0.0140805645,0.06018423,0.078137085,-0.03280933,0.057952385,0.04683377,0.014099989,0.06876559,0.064680144,0.06390674,-0.04158425,-0.07734482,0.08367851,0.055657215,0.024587765,-0.06333484,0.043519683,-0.0153236715,0.0012330516,-0.02417657,-0.040052623,0.066711344,-0.05189012,0.06197164,-0.022819873,-0.039725676,-0.084743015,-0.011137907,-0.085266516,0.030470222,-0.03708288,-0.024170406,-0.024325296,-0.084046304,0.049195923,-0.007582154,-0.0026113412,-0.049576167,-0.015280961,0.010350492,0.07604759,-0.0186137,-0.082999766,-0.055308517,-0.06212163,0.021710293,-0.06802719,0.05212878,0.008165162,-0.078162625,-0.08669407,-0.01655601,-0.010761906,0.070567146,-0.041706014,0.0137858335,0.049231954,-0.019095156,-0.015389437,-0.049178153,0.013554701,-0.060944986,0.06750331,-0.03959928,0.06381255,-0.0679261,0.07473152,-0.080042645,-0.021757668,-0.07742107,0.052910995,-0.06267178,-0.07378244,0.019778315,-0.08389676,0.04576784,-0.06917021,-0.073220395,0.014363899,-0.029701423,0.045930393,-0.017699966,-0.07822555,-0.04177269,0.049238328,-0.026315343,-0.054048523,0.075753644,-0.037273105,0.05395319,0.06630194,-0.0014475498,-0.07381449,0.048430372,0.03551742
0.020635461,0.08301681,-0.056207523,0.014632697,-0.046689812,-0.091871254,-0.014745299,-0.013812159,0.0035375154,-0.015754826,-0.095744595,0.07221311,0.031826973,0.011964715,0.11163013,-0.12950617,0.092524044,0.0014644664,0.061837252,-0.11985836,-0.10476466,0.07820254,-0.08055858,-0.11743755,0.07937751,0.12134135,-0.054159563,0.082783476,-0.038831174,0.06913144,-0.02541264,0.031467184,0.14584312,0.06327234,0.034945313,-0.09764068,-0.0711273,0.032688398,0.096018665,-0.051772967,0.10893466,0.06720807,0.010785934,-0.010810852,0.060441334,0.0035269966,-0.0553798,-0.010933415,-0.0046917205,0.1361035,-0.073005356,0.07532817,-0.003193863,0.056997452,0.037735693,-0.055027787,-0.10738518,0.07183407,0.10015971,0.040260777,-0.11399697,0.105610214,-0.035940558,-0.044329338,-0.07915617,-0.03172836,0.057536673,-0.14467469,-0.05331607,-0.065296166,0.08640925,0.008623402,-0.017740605,-0.019230079,-0.031019576,0.037554454,0.0025673225,0.04551287,0.052600436,-0.07756619,-0.008280235,-0.05532752,-0.056053378,0.08747748,0.0078635,-0.061439626,-0.08477654,0.07312981,0.039844096,0.081427254,-0.012937265,0.018183852,-0.050550386,0.053314455,0.090960085,-0.06951972,-0.001989838,-0.010661003,-0.018075347,0.064325936,0.1067193,0.07482262,-0.051434305,0.010115816,-0.08792303,0.029644255,-0.015196626,-0.024098745,-0.02255768,-0.06340684,0.06739801,0.117598526,0.04852343,0.048741367,-0.120521374,0.04472763,0.013910708,-0.014137073,-0.03144544,0.054496985,-0.10861566,0.028642481,-0.101910904,-0.029547246,-0.028534135,-0.022671439,-0.093851775,0.014383552
-0.009908462,-0.0032069501,-0.022306917,-0.042415798,0.052163962,0.021029042,0.08919357,-0.10068366,-0.060917895,0.032357585,-0.0028579128,0.02857916,0.053276375,0.07075697,0.04097387,0.02219084,0.06289059,-0.022984315,-0.077323176,0.07228069,0.09196805,0.036528885,0.05532306,0.020731503,-0.008720389,0.081820674,0.04629919,0.013619654,-0.055066727,0.019131968,0.005325903,-5.7999077e-05,0.07269043,-0.013652091,-0.023606898,0.01901574,0.077076696,-0.024908492,-0.005782455,-0.009265876,0.028590761,0.0654472,-0.0017892871,0.008002608,0.09442607,0.045223482,0.11472782,-0.002122349,0.018058432,-0.05749653,0.027894994,0.10941641,0.08413177,0.08032027,0.047190957,0.113333575,-0.07400776,0.06458642,-0.08296832,-0.040689096,-0.10029862,-0.0047976845,-0.05529303,0.12149148,-0.077474795,0.06870299,-0.03162024,-0.09546729,-0.012926788,0.05579879,0.0052702134,0.055989284,0.09387012,-0.027605934,-0.094584815,0.0065027676,0.07173418,0.06283464,0.10411383,0.057704173,-0.0017906154,0.030147,0.034790162,0.064200535,-0.053775784,0.040942606,0.025115566,0.022742666,0.06054086,-0.019403161,0.011407192,0.0603494,-0.03181074,0.077426724,-0.05040273,0.04787079,-0.053012952,-0.02171675,-0.07307889,0.07281108,-0.008906443,-0.07398234,0.064097345,0.04968295,0.028482664,0.0049340837,0.036372826,-0.112874016,-0.049173675,0.077555135,-0.069507614,-0.0040957206,-0.061589215,0.032191217,-0.058533903,0.113804765,-0.020074222,0.060556203,-0.060832623,-0.015421028,0.01452848,0.060730297,-0.04446111,0.08253153,-0.064103626,0.00736489,0.011979105,-0.048880126
-0.057322234,-0.034986533,-0.08838776,0.13174686,-0.05752353,-0.05122072,-0.018927658,0.14205538,0.02017394,0.10282225,-0.07834292,0.122810796,-0.01467459,0.10048892,-0.009238968,0.09812377,0.06318963,0.08396406,0.15887347,0.11881942,-0.09532302,-0.045190997,-0.0026496928,-0.00076782214,-0.0749449,0.0728896,-0.055387516,0.09569307,0.036703918,0.09539935,-0.09557085,0.04714841,-0.10102276,0.05307986,-0.03847466,0.1097037,-0.015373955,0.036826774,-0.04626393,-0.022874722,0.045219067,-0.0082084015,-0.09093197,-0.0055776243,0.002123061,-0.040321607,0.018094156,-0.084999405,-0.08064705,0.15994264,-0.06055632,-0.07172636,-0.05373806,-0.03346949,-0.07951374,-0.056771602,-0.051268168,-0.006799709,-0.061787505,0.051894125,0.03238699,0.024686845,-0.07805696,-0.022712203,-0.06987802,0.10395925,0.009687249,0.138605,0.032397464,-0.044048425,0.0789929,-0.07280441,0.036501903,0.06538156,0.10611027,0.072426416,0.093885094,-0.019315679,-0.07085347,-0.042890742,-0.08957751,0.08478172,0.082446,0.020532573,0.045118287,0.029577339,0.02071137,-0.044819705,-0.03136404,0.010652722,0.038530633,-0.017814703,0.06435166,0.04511161,-0.060866818,-0.07410842,0.074957766,-0.03989478,0.10673492,0.06352004,-0.04241493,-0.0756542,-0.12469443,-0.016501548,0.070888825,0.08270556,0.034843292,0.0025765568,-0.017769426,0.061009552,-0.053023044,0.016024128,0.08873724,0.09149261,0.012947,-0.10926772,0.029696489,-0.03484719,0.15294497,-0.023165474,0.06845643,0.101898886,-0.040317494,0.06916625,-0.007216035,-0.032411635,-0.005380694,-0.084444456
-0.047355045,-0.03373772,0.06555406,-0.015516085,-0.039564926,-0.017236734,0.026510812,-0.105117574,0.032355063,0.07589918,-0.06641459,0.09933185,0.084752075,-0.060700595,-0.041300487,-0.02928893,0.11204998,-0.023217736,-0.0624081,0.09759603,-0.018510671,0.028112397,0.098740704,-0.04181792,-0.050352808,-0.07847809,0.040812932,0.005899577,0.082035035,0.030904388,0.00042455667,-0.08308887,-0.015750898,-0.05469659,0.07333079,0.07368201,0.059641823,0.0065649585,0.05603429,0.03221222,-0.07009772,0.03635496,-0.0007142979,0.062171653,0.031667896,-0.07316066,0.07080081,-0.039410982,0.118000925,-0.10689907,0.076830566,-0.07550837,-0.07570767,-0.026276525,0.07228583,-0.046197925,0.07879226,-0.07171011,-0.004349731,0.0066156792,0.1144399,-0.0884178,-0.06733357,0.08468139,-0.07001931,-0.102467455,-0.0045317328,-0.02250348,0.08312048,0.10059636,0.07608151,0.029030217,-0.039922025,0.031654418,-0.08615496,-0.05993059,-0.00075664546,-0.009295382,-0.008049739,0.070829086,-0.010941956,0.012823936,0.09705133,0.08062483,-0.07153199,0.070171885,0.123672776,0.04747213,0.0019623644,-0.056267027,-0.049909953,-0.060407225,0.07794705,0.05854564,-0.06301913,-0.021148486,-0.06936284,-0.038436852,-0.08348443,-0.033829838,0.030636163,-0.05114758,-0.059981767,-0.063439995,0.008127722,0.04086313,-0.06997377,0.06560903,0.029451197,-0.09088119,0.077901125,0.0030465561,-0.017752461,-0.008396313,-0.020451972,0.06263417,-0.08241757,0.038662296,-0.041874204,0.042343084,0.102123015,-0.012445537,0.09670487,0.024079055,0.083789974,0.0287784,0.07715729,0.14556108
-0.0602398,-0.062075257,-0.006651672,0.13394915,-0.0063611306,-0.06738931,0.022534793,0.03934203,-0.037209243,0.09039079,-0.08860448,-0.065433845,0.00052961963,0.07043181,0.098632686,0.057584684,-0.028561216,0.054695293,0.06917478,0.030796573,-0.0013849413,-0.077650174,0.008287725,0.047359955,0.06889598,0.08881071,0.053371776,-0.030822802,0.0041371905,-0.05059316,-0.047160856,0.003988695,-0.051187787,-0.0005216588,-0.07607024,-0.008842837,-0.07111384,0.0029507743,-0.04505259,-0.09275243,-0.021028664,0.09574702,-0.06144561,0.027935732,-0.064837396,-0.056361858,-0.05931727,0.044148944,0.022839712,0.036275208,0.02441874,0.040587608,0.020441195,0.01679526,0.0070187785,0.06897751,0.001512746,0.018723965,0.0020215677,0.040583964,0.016141905,-0.037243694,-0.08134305,0.084656775,0.09165356,0.08088267,0.089914836,-0.017149739,-0.071478054,0.07427555,0.027409833,0.022399597,0.00915323,-0.049345393,-0.020973742,0.04713326,0.057587765,0.056211915,0.0042913533,-0.072130784,-0.040391915,-0.054034866,0.098426566,0.053553224,0.013444889,0.06782689,-0.027551483,0.08267143,-0.06733194,-0.06931507,-0.03544866,-0.06872473,-0.033307005,-0.077641174,-0.06558221,0.08261131,-0.024006343,0.06650316,0.043898463,-0.091022916,-0.030208725,-0.002511145,0.06224609,0.09852923,0.010314362,-0.104446694,0.055602428,-0.09872924,-0.01636255,-0.031154275,-0.07574648,-0.00031688387,-0.023789845,-0.0796126,0.048741084,0.0370895,-0.03135181,-0.01923782,-0.05651608,-0.00246755,-0.06786945,0.010814818,0.14325884,0.058394,-0.00054418464,0.046196718,-0.045495026,-0.06814926
0.01568788,0.05311015,0.0120307375,-0.08328979,-0.10098222,0.02497816,-0.068381876,0.053798053,0.087073445,-0.03147796,0.0401203,0.060904514,0.0057432246,0.028694363,-0.0031027773,-0.085254215,-0.07226038,0.028873878,-0.0064675338,0.009077868,-0.042674508,-0.005921285,-0.08874319,0.04182633,0.04944681,0.019769603,-0.06783447,0.01147177,0.03010147,-0.09316704,-0.02038742,-0.047071025,-0.08557035,-0.05430866,0.06732724,0.086239405,-0.048464756,-0.007879448,0.00096803054,-0.05328345,0.019547548,0.024935393,0.05982115,0.08355403,-0.04860023,-0.033169273,-0.10210746,0.079322435,-0.02447281,-0.050974607,-0.005415398,-0.091117986,0.04560823,-0.066048965,-0.027435698,0.029097266,-0.026456423,-0.042043842,-0.048913173,-0.022394294,-0.044689823,-0.026815202,-0.04923951,0.021290706,-0.075856715,-0.043205574,0.045419253,-0.09309714,-0.07650977,-0.07749571,0.046580907,-0.0023455678,0.06119693,-0.015850576,0.06304124,-0.06572038,-0.03553048,0.022229448,0.0021120813,-0.078252375,-0.018326292,-0.030751094,-0.10459052,0.052961044,-0.07132389,0.059374675,-0.06812657,-0.081404254,-0.09897069,0.03273099,0.06745994,-0.033673562,-0.050255585,-0.0131821325,-0.016206637,0.06404523,0.05488494,0.029671129,-0.03112946,0.0011201894,-0.09391101,0.013625244,-0.015257297,0.04822213,0.039725784,-0.048158895,0.014403422,-0.084148966,-0.034387864,0.04385642,0.06308165,-0.013158329,0.064593695,-0.016233517,-0.012572345,-0.08725324,-0.0683865,0.012087295,-0.100931,0.018392062,-0.08354812,0.07382471,-0.032598782,-0.084864594,0.06598221,-0.010167119,-0.016154908,0.04512681
0.059416577,0.041341543,0.09596533,0.031936295,-0.0040086373,0.04206183,-0.003913322,0.006435483,-0.011179094,0.09393136,-0.054128278,0.06527563,-0.06276028,0.06283917,-0.0763264,-0.012766717,0.030964062,-0.069721445,-0.15653867,-0.04736235,0.019105365,0.11993693,0.09864122,0.08736602,-0.04971573,0.08121604,-0.06687607,0.09847177,0.010375814,0.042185586,0.06977494,0.023259116,0.06856842,0.049273282,0.03644073,0.022533715,0.012198021,0.05685101,0.036850296,0.04461696,-0.019496704,0.067844786,0.027953995,-0.07359326,0.030166855,-0.07474644,0.013092099,0.05238891,0.0031757078,0.028805349,-0.02918429,-0.047011137,0.020775247,0.16982116,0.03752541,-0.08813454,0.014229901,0.040560972,0.053388257,-0.040294707,0.066163,0.016711332,0.03845512,-0.08913902,-0.08975813,0.049436457,-0.024712687,-0.059884626,-0.066312976,0.09564854,0.01905011,0.007242296,-0.022292336,-0.011857922,-0.03150781,-0.05932338,0.008695077,-0.042908944,0.0799321,0.05685044,-0.083198234,0.0016631624,0.03438901,-0.07993917,-0.016726248,-0.0626567,0.0043921852,0.08609655,-0.07963922,0.086274944,-0.003687612,0.012146547,0.0952487,-0.07954952,-0.0070853815,0.07154111,0.08469821,0.096403114,0.08384174,-0.06889593,0.0066549643,0.036207743,0.045749336,-0.051926076,-0.02433863,-0.07407016,0.0647592,0.07940379,0.055388376,0.0698443,0.05679079,-0.061580222,0.15938501,0.028601848,-0.0018579573,-0.05487182,0.09843893,-0.026890954,0.13851975,0.04738936,-0.044838347,0.10587692,-0.109947205,-0.0013131839,-0.043502126,0.06799688,-0.05218655,0.10002368
0.006862672,-0.109073915,-0.046778165,-0.03388954,0.028314147,0.088582754,-0.059425876,0.10604163,0.07160177,0.04200118,-0.00936383,0.05999778,-0.11306715,-0.064247586,-0.036267895,-0.14295954,0.032669228,0.01752461,0.06792434,-0.011255602,0.02733647,0.09228771,0.035227124,0.037788358,0.11207537,-0.0005368857,0.078908734,0.08266894,0.084085904,0.04295301,0.089046925,0.014745718,0.049881157,-0.0031919759,-0.049709845,0.023497023,-0.08515262,-0.015565239,0.018131645,0.03498044,0.03241515,0.037052277,0.048544995,-0.013184176,0.08429173,0.043108344,-0.073058054,0.017139364,0.001436458,0.048372548,-0.083325125,-0.0071998346,-0.12262815,0.14637233,0.06186548,-0.081223056,-0.123403825,0.01568108,0.004661002,0.04342897,0.0008799442,0.034835353,0.085680366,-0.0069274167,-0.046651803,-0.020517115,0.08830262,0.16071609,-0.010000748,-0.1356349,0.07937106,0.007698011,0.079497926,0.062131673,-0.03431493,-0.0624945,-0.056386515,0.0339769,0.09487515,-0.057010088,-0.019140566,-0.02747053,-0.05050609,-0.0015066541,0.056444637,-0.14455274,0.03206606,-0.08824708,0.06268977,-0.04428359,0.008560596,-0.04473999,0.020852758,-0.082580745,0.08697804,-0.071332,0.10202744,-0.118414976,-0.06487134,0.049369223,0.011060501,-0.008726161,-0.088885576,-0.009880569,-0.014158004,0.087958336,0.087144084,-0.06836858,-0.018855117,0.06367212,-0.06722594,0.019433169,0.0115758795,0.11940934,0.02169065,0.010835119,-0.017709289,-0.11063012,0.005770533,0.046178494,0.0322334,0.07058556,-0.036827467,-0.036522873,0.0008562745,0.089622416,-0.062964,0.009502774
-0.03456456,-0.051841736,-0.0791555,-0.034048025,-0.03409424,0.06917537,0.08587086,0.045434553,-0.060515262,0.014166852,0.010539251,-0.11677809,0.06370043,0.08077235,0.021962278,-0.055822466,0.006759758,-0.040165965,-0.23600183,0.1628367,-0.010111477,0.08835179,-0.0331419,0.032698356,-0.050905917,-0.026379788,0.009767186,-0.05970833,0.05219633,-0.040459044,-0.045800984,0.076420896,-0.02740067,0.042437766,0.07029894,0.12542802,-0.012297789,-0.05665895,0.03752658,-0.014931997,-0.01693815,0.06604735,-0.056267854,0.05114361,0.07937053,-0.079586364,0.0650417,0.013996241,-0.083702594,0.07926781,0.030746521,-0.00067603454,0.028417638,0.2124185,0.030455317,-0.11052439,-0.050894193,-0.03535628,-0.0022554824,0.086832404,-0.10223228,-0.09485147,0.035428137,-0.03278188,-0.037265055,0.03155115,-0.12007245,-0.081812054,-0.0094529865,-0.014013093,0.010254686,0.039440963,-0.04919192,0.06573517,-0.011907118,0.0293237,0.03139994,0.08082106,-0.059685044,-0.027756205,0.011501016,-0.04139263,-0.005839541,0.0845775,0.0053320187,-0.013501427,0.08058366,0.050054252,0.048163313,-0.06534399,0.03741431,0.0034112611,0.0665543,-0.008067296,-0.08832181,0.07775917,-0.13759193,-0.051553562,0.03530239,0.059501182,-0.039472215,0.06641865,-0.031198189,-0.04171822,0.076666445,0.07872814,0.06615396,0.06699219,-0.03505837,0.048711613,0.025563912,-0.11363273,-0.022623878,-0.16210388,-0.12109053,-0.013869581,-0.026593471,-0.077353485,-0.1647559,-0.014204729,0.08844115,0.0021736429,0.0473861,0.0063223033,0.008272795,0.0014013994,0.0065086926,0.011892782
0.025541,0.03459266,0.04402589,-0.05253704,-0.07152834,0.03959682,-0.0075974255,0.024373356,0.010631922,-0.047018684,0.006957665,0.09416228,-0.061046578,-0.014717615,-0.049522594,-0.079867244,0.04253061,-0.08832908,-0.014097215,-0.030680679,-0.0031259682,-0.05342837,-0.059232082,0.022183746,-0.0077906023,0.024554903,0.016813982,0.006365601,-0.07504807,0.04060026,0.022070955,-0.043493174,-0.04257108,0.05615961,0.071429834,0.068780474,0.013866208,0.049024213,-0.013436349,0.03289067,0.0335554,0.07668201,-0.034943014,-0.04409302,-0.07906437,0.042646814,-0.07970667,-0.07401145,-0.03472841,0.07092702,0.008946425,-0.0481109,0.0445891,-0.0024834543,-0.01783983,-0.032784466,-0.038225178,-0.015423755,0.0887304,0.041170515,-0.050081607,-0.093883425,-0.050292738,-0.101887874,0.033470962,0.0001682296,-0.0741869,-0.06520815,-0.05500333,0.032585427,0.009363818,-0.08505192,-0.084279925,0.00012522882,-0.0062478706,-0.07628649,0.039367262,-0.023543788,0.018634459,-0.023536738,-0.04250089,0.041661505,-0.09249954,-0.010210826,0.034282394,0.016188966,0.009263856,-0.029028744,0.031125143,-0.087317005,-0.029653795,0.011601942,-0.03722833,0.07468276,-0.064205505,-0.053296946,0.025696788,-0.043130893,-0.07886207,-0.059396964,0.026694428,-0.07332838,-0.09240904,-0.03341244,-0.0862851,-0.085943304,-0.09274065,-0.036625557,-0.06097524,-0.04450802,0.04522305,0.03611613,-0.087694034,-0.052759416,-0.002297435,-0.08024769,0.013321282,-0.0058880937,-0.04899696,0.050424088,-0.09176466,-0.10526065,-0.04132141,-0.04383484,0.057471417,-0.100247264,0.08192689,0.071286164
0.06402477,-0.036984783,-0.07443716,-0.013371905,0.100182086,0.060266294,0.012723175,0.010839765,-0.11206185,0.04507097,-0.024180712,-0.061333913,-0.08025847,-0.04302064,0.015801478,-0.020817405,-0.05935598,-0.030752067,-0.023874173,0.14079827,0.1250769,0.07900074,0.101259634,-0.079813376,-0.033737697,-0.078120835,0.059124142,0.095920645,0.11945839,-0.04594412,-0.055418897,-0.0010595021,0.041836485,-0.04632929,-0.08910015,0.052637376,-0.052596044,0.0061314614,0.014833539,-0.12174345,0.12146095,-0.07024347,-0.038498584,-0.07709154,0.048008323,0.010000315,0.09418265,0.063608035,-0.06454005,0.13088077,0.07944503,0.111260675,-0.10016084,-0.018534802,-0.0155367,-0.020178339,-0.04416583,-0.044219226,-0.0042880243,0.081718795,-0.06099922,0.034574497,0.068338916,-0.022742793,0.12204179,-0.027047228,-0.08636709,-0.034664534,-0.06909265,-0.0043421816,0.07317903,-0.024909427,0.09413923,0.017616708,0.09141069,-0.060759217,0.037565038,-0.043011095,0.09424521,0.06083747,-0.03717798,0.09243,-0.006015148,0.052278798,-0.02154379,-0.049679995,-0.0134756435,-0.042988718,0.0734176,-0.018793592,0.1052874,-0.07747164,0.071142845,0.071948506,0.044921964,-0.014842689,0.0031439904,-0.0015031316,0.06979103,0.09175216,0.058015164,-0.03619607,0.065558836,0.05108403,2.1536445e-05,-0.0028851782,0.07035795,-0.040671606,0.05752733,-0.05204546,0.03419301,0.030806877,0.015318326,0.04898685,-0.009000714,-0.013025577,0.0473949,-0.015412322,-0.08353046,-0.0036061746,0.0261658,0.053918187,-0.038282372,-0.065209314,-0.038172305,-0.075471975,0.018793667,0.03590242
-0.057494696,0.06884506,-0.0435757,-0.020821033,-0.011958031,-0.08874769,0.05639996,0.08350769,-0.015296286,-0.07333564,-0.017529523,0.049204443,-0.08249589,-0.051088758,0.03719903,-0.070802875,-0.02106806,-0.053512912,-0.0656874,-0.09286562,-0.011435005,0.084950395,-0.069699205,-0.029691404,-0.0011441378,0.098153435,0.08506969,-0.036432587,0.012629918,0.10074118,0.06002256,-0.058971766,0.005025943,0.09735881,-0.06119351,-0.04184485,-0.056573223,-0.0519658,0.06718274,-0.015790688,0.0128548695,-0.042140096,-0.021789476,0.03364627,0.036966894,-0.03363159,-0.0030537301,0.025180893,0.07679101,-0.08548401,0.108556256,0.10012163,-0.026102794,0.093739025,0.03551637,0.07907498,-0.022686403,0.07081461,-0.09439312,-0.056651343,-0.013381455,-0.030643247,-0.024506027,0.03998915,0.032335147,0.004852896,0.12189147,-0.08404971,-0.056351487,0.026620576,0.03683624,0.06825285,0.09684768,-0.07081307,0.07968907,0.10413621,0.0143778995,0.028178472,-0.034346968,-0.042295486,-0.07329972,-0.056995694,0.06796081,0.10544674,0.02525861,-0.0140093975,-0.029561777,0.051491916,-0.001643436,-0.03229091,-0.023568742,0.021290435,0.020895123,0.05474846,0.0406823,0.0055351174,0.0186677,-0.11040894,-0.017841082,-0.008743813,0.08983086,0.08745016,0.06985426,0.07243614,0.043253493,0.0052209473,0.017867425,-0.020612141,0.09318878,-0.047699355,-0.06293525,0.061379146,-0.013267296,0.07843152,-0.0014313217,0.118646316,0.03951943,-0.07167043,-0.09896686,-0.022407193,0.033932053,-0.04796535,0.03176607,-0.049844917,-0.06851827,-0.07546183,-0.026369767,-0.11941204
0.027746268,0.016302638,0.13476753,0.06370716,0.10103444,0.036608927,0.10214847,0.04830668,-0.049191,0.02904694,0.07706335,-0.046388913,-0.013911337,-0.02157452,-0.028295405,0.11188429,0.024158485,-0.058546696,0.10798402,0.039835393,0.07787024,-0.008417568,-0.046946313,-0.009819331,0.100901835,-0.12163447,0.02251284,0.08162864,-0.056638997,-0.11545945,0.12017988,-0.008241815,-0.0051141395,0.008303962,-0.08154629,0.032460712,-0.06181145,-0.058264636,0.009452958,-0.10170156,0.015354736,0.03430314,-0.07636274,0.06330223,0.03663117,0.013090357,-0.05024532,-0.052164037,-0.035508946,0.10145826,-0.047844123,-0.059729766,-0.046162374,0.14179057,0.0119180055,0.07103763,0.04622863,0.015360333,0.04383282,0.008699427,-0.05245507,-0.09364154,-0.072666116,0.07161508,0.09094679,0.0636299,-0.012128122,-0.048768897,0.07430837,0.08810383,0.040620886,-0.02343453,-0.07586728,-0.084775776,-0.024004553,-0.07372659,0.017133286,0.012713446,0.067577474,-0.0604597,-0.046287622,-0.0007855595,0.018626813,0.043649226,-0.08542627,0.06285394,-0.033227194,0.0943436,0.09909899,-0.038770586,-0.044277422,-0.012413292,0.008440552,0.072590075,0.007257353,-0.06484331,0.08997555,0.025647145,0.102618575,0.06541895,-0.07366318,-0.07221941,0.05149089,-0.09301829,-0.012806191,0.011838219,-0.07488986,0.06015418,0.024770645,-0.026958533,-0.03253249,-0.017619487,0.0013748661,-0.009169019,0.013239847,-0.06581258,0.035572562,-0.001138376,-0.04184101,0.03591117,-0.017087365,0.077411704,-0.07210261,-0.016078163,0.044388346,0.1263899,0.017855037,-0.055117648
-0.07377033,-0.0014963181,-0.06263324,0.057260323,-0.05834494,-0.02855018,0.01880021,-0.06848022,-0.058749136,0.12613432,-0.01312523,0.07148271,0.057005644,-0.024238516,-0.08244375,-0.038349457,0.0718391,0.018062308,-0.083135165,0.03983288,-0.052012533,0.019702358,0.103158034,0.055958055,0.04030633,0.032211594,0.05179171,-0.014260981,-0.008048826,-0.008897002,-0.02703792,0.010854945,0.11826311,-0.05254463,0.06564956,0.0018877921,0.037517667,0.09332405,0.041689396,0.056594513,0.022198385,0.027464807,0.00010808384,-0.046644654,0.02716396,-0.07293963,-0.0072217835,0.028707715,-0.11154398,0.027980713,0.052999564,0.026868746,-0.07340737,-0.027118629,-0.040631514,0.077986896,-0.064235225,0.08306292,0.063927114,0.04772372,0.0873693,0.09652787,0.06013237,-0.019801585,-0.060118683,0.04390767,-0.08532987,-0.027052807,0.07446643,-0.050519627,-0.071423285,-0.04276691,0.054381553,0.046827838,-0.041830167,-0.044497125,0.09600961,0.020767312,0.104101874,0.06571834,-0.067251995,-0.020910267,0.0739228,0.09789406,-0.05363082,-0.080776274,-0.0021542648,0.057010483,-0.042694256,0.030280678,-0.022997027,0.054205514,0.08812961,-0.0039814017,0.08475894,-0.05880176,-0.0077284398,0.09542641,-0.042617932,0.057644937,0.057688214,-0.06575459,-0.055574775,0.012576581,-0.040463317,-0.013604365,0.057896867,-0.026019664,-0.070677556,0.062147927,-0.014314837,-0.018329201,-0.040426217,0.06711196,-0.04701088,-0.018263714,0.007454158,0.04430292,0.112708285,0.0736791,-0.01601357,0.04628787,-0.038918756,-0.0072593805,-0.0936156,0.0734543,0.070669636,-0.08478942
-0.02084454,0.06260415,0.049673818,-0.079364054,-0.0063857646,-0.02597407,0.06443182,-0.113234274,0.049553864,-0.051647533,-0.06337165,-0.10278578,-0.06601737,-0.042948756,-0.018114945,0.036475435,-0.03660179,-0.061362803,-0.01020738,-0.091748655,-0.028060894,0.012934989,0.048093423,0.040537193,0.076272,-0.03288611,0.10691197,0.11012003,-0.031701863,0.013919772,-0.0069672368,0.0749137,0.066383995,-0.09280471,0.10333808,-0.04041789,0.028939174,0.11375696,0.018002497,-0.056847263,0.04441311,0.040320832,0.05175074,0.05407903,-0.0033869275,0.082675606,0.09244848,0.045689438,-0.032392982,0.037322696,-0.08003952,-0.06504048,-0.032961126,-0.05555334,-0.00051092636,0.07355369,0.011054527,0.020063108,0.03372667,-0.037989568,-0.077801265,0.039566536,-0.06454583,-0.0077051735,-0.048840567,0.035706688,0.06416747,-0.023898879,-0.07239998,0.04524243,0.002795953,0.012610115,-0.031154804,-0.044254508,0.019413741,-0.07147451,0.105463274,-0.05460004,0.03345465,0.014509191,0.0010198763,0.07470395,-0.07393338,0.08641303,-0.03389741,0.08350773,0.061075095,0.109411284,0.09897047,0.0750181,0.044745933,-0.0029853242,0.09329876,-0.046123967,-0.037250996,-0.0035453336,0.115510054,-0.02804126,0.004643415,-0.03600418,-0.064331435,0.047857564,-0.01821981,-0.0043018274,-0.05580543,0.07780746,0.07295959,-0.04612841,-0.017183999,0.10070523,0.07034277,0.0342694,-0.09311823,-0.017641565,0.05772364,0.11325715,0.016022269,-0.005431603,0.021851785,-0.004871003,0.03901645,0.09194943,-0.12098578,0.06536103,-0.0026253643,0.07666339,0.044567693,-0.07871449
0.07586189,0.017916633,0.060879942,-0.02816725,-0.022738766,0.022370512,-0.041505143,-0.0016539721,-0.012755461,0.015311735,-0.046329875,0.06638847,0.08818737,-0.03274183,0.045767613,0.0020638152,0.10546018,-0.0056256056,-0.08125117,-0.050706483,0.083874494,0.058871306,-0.003875807,0.08851986,0.012928648,-0.03970636,0.029053228,-0.027493853,0.09360625,0.0620974,0.06010805,0.040461052,0.05267826,0.07015534,0.067868546,0.07609847,0.08104094,-0.15592118,-0.004052216,-0.034173314,-0.055147655,-0.024722897,0.020069312,-0.021217067,-0.027214147,0.022469083,-0.015864888,0.04082701,0.06047807,-0.08055422,0.03866398,-0.021428682,0.019523388,0.009182147,0.046496276,-0.027254343,-0.041091632,-0.075114205,0.071991056,0.016609337,0.102515,-0.036382906,0.05408212,-0.01874989,-0.0469599,-0.099132776,0.09459491,0.10077344,0.041967057,0.04051173,-0.038672514,0.08722244,0.0047069737,-0.0106686,-0.08091165,0.015063809,0.086302124,-0.03447023,0.009187758,-0.041648082,0.029792946,0.010168994,-0.051242102,0.03862422,0.050194673,0.07407199,-0.033435024,0.03502973,0.041458104,0.046451498,-0.09683608,0.04151273,0.052888248,0.02717745,-0.061603345,-0.036165897,-0.10346709,0.0031909726,-0.045204025,-0.047584817,0.055588495,0.06559007,-0.06682652,0.09525036,0.0060218233,0.016775826,0.025669634,-0.03884594,-0.07361503,-0.0004810545,0.024089916,-0.05245615,0.08975837,-0.070009544,-0.008343784,-0.03343282,0.009289223,-0.0013675495,0.03749021,0.00013167849,0.01907755,-0.0251479,0.063168906,0.08911141,0.10842489,0.039069563,-0.06192575,0.092866115
0.04324277,-0.009014273,0.058639433,0.020001374,-0.02013778,-0.079317376,-0.055370808,-0.10971346,0.07944036,0.027722478,-0.060258023,-0.041145433,0.14300865,-0.04315646,0.14255531,-0.031560566,-0.047442634,-0.04848999,0.08220708,0.06389487,-0.0032112894,-0.105372444,-0.049549244,-0.0762153,-0.039186943,0.01991667,0.033271775,0.016641786,-0.01671974,0.052650973,0.0044225845,-0.082923956,0.032268904,-0.12122176,-0.017112006,-0.057279613,0.036231484,-0.07363204,-0.056479793,-0.059101626,-0.059709497,-0.021091284,-0.07285249,-0.030468863,0.01845584,0.06653563,-0.121545166,0.0065954337,-0.003939729,-0.04415848,-0.057030965,-0.077837385,0.007001403,-0.0005417181,-0.02129124,-0.006350691,-0.10229453,0.014075446,-0.08894327,-0.10724754,-0.071276344,0.0050566117,0.08258754,-0.104806215,0.028864477,-0.045306493,-0.067529574,-0.034481753,-0.047097843,-0.10404232,0.05534333,-0.032412138,0.006235898,-0.08524211,-0.04739452,-0.07690721,0.025734674,0.087415636,-0.07057268,-0.03045094,-0.0414427,-0.10927477,-0.042080678,-0.094197586,-0.06593536,-0.07939368,-0.045833793,-0.1386735,-0.069836184,-0.0062097395,0.00059315364,0.0636291,0.007774241,-0.02160517,-0.005594173,-0.08757914,-0.047467705,0.12858814,-0.12845863,0.031837583,0.05394248,0.067120545,0.026949205,0.025449991,-0.10773505,-0.0781332,-0.047609575,-0.07396202,-0.105554506,-0.059363563,0.064098716,-0.059673928,-0.005188323,0.048005823,-0.06429605,0.009034723,-0.0068100663,0.04490498,0.04978301,-0.042670812,0.023254724,0.041467726,0.002423274,-0.032493472,0.0007027972,-0.049181648,0.043704785,0.041068107
0.010827776,-0.076835,0.14313743,-0.024630476,-0.009122602,0.14361304,0.073432125,-0.116937295,0.029345574,-0.036057465,-0.06910294,0.06752024,-0.13004187,0.0034612475,0.059390046,-0.029093578,-0.028777638,0.072892785,-0.03574939,0.062486596,-0.057599902,-0.03586784,0.09090905,0.013205909,0.10177908,-0.13596095,0.020622386,-0.01160158,0.06826182,-0.14869303,0.07804424,-0.021036016,0.050461423,-0.048154958,0.06224224,-0.033206023,0.0042859055,-0.018566659,0.031253096,-0.08452314,0.030717572,0.07742662,-0.052592847,0.0776539,0.09350798,-0.004332589,0.07443149,-0.054527164,-0.02455936,-0.0048945625,0.059572328,0.06748957,-0.014389124,0.08788593,-0.009062193,0.09822218,-0.0103829745,-0.018905187,-0.014526895,0.08630652,0.015308586,-0.11343194,-0.0065952265,0.09875911,-0.02719643,0.13204844,0.029360572,-0.008918678,-0.0062804716,0.046542864,0.08196027,0.088801056,0.07931207,0.07356439,0.0983919,-0.0075839926,-0.08352268,-0.0060070455,-0.07180651,-0.038886026,-0.0012208137,-0.024350693,0.04685213,0.04821796,0.07168968,-0.00888503,-0.10469477,0.05279644,-0.055926055,0.01860596,0.07627782,-0.08005586,0.049798694,-0.021101994,-0.056392107,0.067651756,0.029706534,-0.024395712,-0.023588452,-0.084278524,0.04515357,-0.04075226,-0.001163622,-0.017403161,-0.08286126,-0.029427607,-0.085531436,0.0077205338,0.094118014,-0.059070967,-0.0012774605,0.0950773,-0.12516645,-0.030679055,0.018408693,0.06859821,0.017907793,0.03940994,0.013841847,0.031363346,-0.047877956,-0.06248271,-0.10019974,-0.08094704,-0.07096494,0.15433004,0.060383864,0.07977873
0.00832574,0.024397392,-0.017898602,-0.03007344,-0.06985427,-0.080012776,0.059755556,0.0475788,0.017151443,-0.10596997,0.06134481,0.104992196,-0.050815415,-0.011238051,-0.0074301627,-0.032092948,-0.08836362,0.004962272,0.033117287,-0.08728275,-0.0077780443,-0.059559833,-0.05192194,-0.009983695,0.010077482,0.10209471,-0.051252056,-0.0646504,-0.09789109,-0.05668894,-0.074639276,-0.0830374,-0.034617707,0.03793326,-0.033501804,-0.095768385,-0.01951269,-0.10181832,0.03169876,-0.015892688,-0.023704331,0.0011609956,0.061492357,-0.07765948,0.038033564,0.08566862,0.03360463,0.08608215,-0.009113905,-0.08085096,0.0061237984,-0.015928818,0.02151706,-0.04212437,0.06984511,0.081917256,0.07655895,0.017310413,0.0010779109,-0.05114918,0.117594704,0.07216129,0.0665864,-0.033075515,0.10332376,0.09667611,0.040049,0.010222247,-0.0042960346,0.07554317,0.062205374,0.016460193,0.006509682,0.06514006,0.034527082,0.044285543,0.0065292316,-0.044341937,0.0016394291,0.081649855,-0.06983166,-0.05113338,-0.07193184,0.059949044,0.07327928,0.030779306,-0.004938045,0.034336913,0.0048370184,0.057846986,0.058007594,-0.06428735,-0.06594954,-0.01536586,-0.0058816522,-0.070227616,0.044247862,0.04484027,0.023548229,-0.020502312,-0.025777468,0.052352916,0.07918437,-0.081942536,0.095259726,0.007170969,-0.05318763,0.048441242,0.053142007,-0.028090319,0.0034879846,-2.0146705e-05,0.042393956,-0.009706297,0.027961744,-0.02138348,0.06824249,-0.050719988,0.03338059,0.03644478,0.07217266,-0.067704365,-0.07909222,-0.04606074,0.08528453,-0.06793456,-0.013044725,0.06548296
0.047187548,-0.011616518,-0.06100955,0.06317721,0.01984155,0.04908579,0.0778804,-0.07508545,0.05966995,-0.05767802,0.101729885,-0.02512962,-0.07642615,0.016448118,0.036107253,0.024090463,-0.0813429,-0.03341592,-0.13784479,-0.056721713,0.008821907,0.08394196,-0.10188855,0.07401815,0.027502522,-0.040264677,-0.100233816,0.031080993,-0.067993544,0.06950779,0.0023114204,-0.006616274,0.06718695,-0.14230315,0.04811323,-0.050885715,0.025336724,0.010889459,-0.019993335,-0.017395014,-0.03208816,-0.002197637,-0.011568393,-0.043607216,0.023589788,0.016885942,-0.042845044,0.02928719,0.12002847,-0.1272041,-0.043323047,-0.019669682,0.07524646,-0.21486695,0.02901652,-0.10317416,-0.00600199,-0.06171704,-0.060303155,0.043732274,0.080505766,-0.021018196,0.014934821,-0.01071694,-0.05128543,-0.064299904,-0.051330656,-0.0046464815,-0.04411693,0.075144015,0.08190485,-0.068318345,-0.041396394,-0.073936395,-0.067720905,-0.055255696,-0.07200619,-0.075514704,-0.055011548,-0.08263804,-0.008247461,-0.0520669,-0.017827589,-0.111103095,-0.08319381,-0.05072454,-0.08000299,-0.026305448,-0.048915286,0.06441681,0.061880402,-0.010743659,-0.026398733,-0.070484325,0.014881386,0.06802614,0.045446705,-0.030428309,-0.017648375,-0.051598594,0.03985634,0.020696538,-0.1331534,-0.08299945,-0.047897995,-0.014290468,-0.031364966,-0.008592405,-0.03286252,9.913718e-05,0.09537955,-0.06942863,-0.007067237,0.073508106,-0.026660495,0.033456203,0.024496637,-0.049412884,-0.12577273,-0.05457691,0.01714759,0.00882397,0.027496155,0.009152246,0.09152718,0.0017177262,-0.06304662,-0.017402772
-0.032344297,0.0023114723,-0.03451256,0.11321326,-0.044043966,-0.08133404,-0.0051395814,0.02828566,0.017925283,-0.09801207,-0.039877404,-0.0966541,0.049549118,-0.05330703,0.023970304,-0.024115037,-0.0733019,0.076037265,0.013465971,-0.08715934,-0.070850715,0.09841815,-0.061837755,0.0002461411,0.009781154,0.08268152,0.09672735,0.03979415,-0.052502796,0.041948117,0.0014821708,-0.12293678,-0.03302295,-0.08329552,0.012845812,-0.009266116,0.060006894,0.0016944369,-0.058218755,0.030940153,0.055903424,-0.05040587,-0.089285605,-0.0636911,-0.035838462,-0.08678983,-0.006247466,-0.045448337,-0.011004624,0.06659929,0.01946245,0.067959644,-0.034015767,0.022134243,-0.089417085,0.09629464,0.0020092514,-0.0066632936,0.098801106,0.036153153,0.049095336,-0.07983588,0.046600185,0.09321252,0.083221175,0.11860187,0.011540468,0.09831356,0.06596108,0.03671403,-0.05928532,-0.01131586,-0.07753022,-0.06500021,0.034543373,-0.05048182,0.014026808,0.07739768,0.020345103,-0.038457893,0.041260645,-0.009431985,0.060760543,-0.008744459,-0.031007428,0.06652557,-0.0046429513,0.052332666,-0.01702835,-0.054734744,0.042233095,-0.09866126,-0.05063234,0.034698255,0.09135832,0.0022845084,0.089359075,-0.07334573,0.063329205,-0.07880039,0.075086705,0.07490357,-0.008174082,0.10053888,0.006579541,-0.060113035,-0.008310054,-0.08289755,-0.02499774,-0.061601125,0.016499572,-0.021404153,-0.11964035,-0.0010479186,0.053151377,0.01819654,0.07779244,0.049824577,-0.12994201,-0.022655807,-0.06720552,0.0807451,0.07667751,-0.06812552,-0.055336107,0.026459955,-0.094417214,0.09368258
0.0046139187,-0.06337749,-0.012341668,-0.015763076,0.12468377,0.1113307,-0.00030147133,-0.022760037,-0.028061153,-0.057954274,-0.08454251,0.013377375,0.058690697,-0.0093278345,0.052689828,0.055159163,0.054991264,0.020708755,0.023842169,0.10728119,-0.052810583,0.09289864,-0.061732177,0.08524058,0.068288065,-0.06678695,-0.0076982747,-0.04074786,0.10510923,-0.12572242,0.11247164,-0.052483484,-0.0043032845,-0.031650208,-0.091521315,0.14094687,0.025586696,0.08166501,-0.016560826,0.059788868,0.019500403,0.05414799,0.02295837,-0.0117225805,0.026570842,0.053357624,0.09995224,-0.008209524,0.096924886,0.062609814,0.0984657,0.05559852,0.0626543,-0.055953227,0.08083599,-0.03629418,0.057456233,-0.019457303,0.13246739,0.030112876,-0.045881465,0.01383711,-0.07793221,0.10935687,-0.00054242194,0.064261466,0.023173023,-0.025097357,0.08719916,0.09569831,0.08672451,-0.0406367,0.07138622,-0.059091184,-0.070712015,0.030565955,0.04772302,-0.023083534,0.05549177,-0.047500413,-0.04030844,-0.01968479,0.06892185,-0.023095643,0.014535789,0.09871299,0.09187221,-0.07835952,-0.04329147,0.046612453,-0.025361964,-0.043145195,-0.054553974,-0.021755882,-0.03217497,0.09196241,-0.023194136,0.036426365,-0.028372277,-0.086151674,-0.04842915,0.023699133,0.08045593,-0.0038107415,-0.03613952,-0.041879423,0.09458594,-0.061925393,-0.04242601,0.020557156,-0.024713019,-0.05475608,-0.019255895,0.0049005956,0.08138307,-0.024824008,-0.068552375,0.052809127,-0.09093588,0.13187735,0.098663576,-0.039498877,0.09572999,-0.048739377,-0.013352543,0.009692368,-0.048588112,-0.048240956
-0.023965767,0.040846504,0.015024684,-0.072974466,-0.048936218,0.10478789,0.08753909,-0.05653322,0.08015029,0.09733261,-0.043156363,0.040136635,-0.1108594,-0.038650393,0.05427271,0.04078831,-0.059614073,0.06825974,-0.057592757,0.09286376,-0.008101088,0.0275585,0.05719192,0.08510464,0.057389777,-0.025711292,0.024814878,-0.015934907,-0.027487012,-0.0010514477,0.041096143,0.019888341,-0.06409947,-0.10202693,0.014993293,0.023099873,0.07527409,-0.018359972,0.047164783,-0.042709377,0.04666051,0.042529136,0.006137925,-0.015188938,0.052106652,-0.09149506,-0.002514601,-0.027818657,0.0039642784,-0.06574082,0.08946632,-0.04013792,-0.119296126,0.12347115,-0.02349631,0.041540187,0.04557507,0.03260293,-0.002544384,0.028981633,-0.004903845,-0.08533563,-0.057614073,-0.0057828026,-0.07683548,-0.04202069,-0.017390609,-0.15622726,0.11365456,0.010586425,-0.04751751,0.046054013,-0.055946328,0.027998153,-0.081630826,-0.014752088,0.04118606,-0.046768524,0.08872346,-0.013053953,-0.01624527,-0.069015235,-0.018291045,-0.055614695,-0.054788675,0.07810161,0.11421923,0.072826214,-0.005095862,-0.007556792,-0.060988326,0.006135173,0.09413764,0.048092008,-0.011993497,0.007986432,0.0076722256,-0.032817386,0.048329428,0.0530612,-0.027732313,0.05826386,-0.04092189,-0.033883344,-0.04068411,0.050951563,-0.0840593,0.007098804,0.06707471,-0.0043597613,-0.020459877,-0.0776635,-0.06875123,-0.08940003,0.031397246,0.022891678,0.024577832,0.06123148,-0.01761283,0.11262492,0.043901883,0.06398661,-0.14336583,0.08626587,-0.025695203,0.011973104,0.004648914,-0.075407766
0.04342419,0.028708259,-0.053108726,-0.062130507,0.0037301937,0.014311533,0.022437057,-0.09666537,0.035875313,0.048509993,0.08925174,-0.108999595,0.0026655607,-0.051867906,-0.009660804,-0.015381562,0.013146018,-0.04614862,-0.0905195,-0.14112651,0.059143696,0.08883154,0.004944749,-0.051409975,0.106199324,-0.0037405386,-0.052788876,0.020690843,-0.05785823,0.07373265,-0.028474275,-0.034748673,0.003249888,-0.004321611,0.12534381,0.0124809425,0.052444916,0.010554044,0.011813033,-0.081781216,0.010922412,0.033741802,0.07534637,0.038367257,0.11452506,0.07577287,0.031375933,-0.038917262,0.047457505,0.0337143,-0.04607986,0.05307192,-0.048258103,-0.1058355,-0.0900793,0.035966095,0.039295297,-0.07247773,-0.051723782,0.060606956,0.0775866,-0.039360218,-0.073024794,-0.06274385,-0.0700654,-0.05925502,-0.04180704,0.0016979448,-0.0005700755,0.06216525,-0.050851423,-0.005890879,-0.0140389595,0.058484394,-0.017818458,-0.0314625,-0.05902657,-0.09392086,-0.011016042,0.085453264,-0.068287134,0.08318564,0.02423925,-0.057035323,0.073649205,0.06835916,0.031581666,0.091599114,-0.07286265,0.033366267,0.052496046,-0.045844626,0.110844426,-0.032587014,0.041902993,0.045407783,0.062328156,-0.013602062,0.100020155,0.0015428693,0.077749185,0.0051170764,-0.06284612,0.03796357,0.03706271,-0.032039106,-0.074907474,-0.058717072,-0.016517574,-0.06265462,-0.03008623,0.012098767,-0.04735462,0.098191,0.032812458,-0.043046948,-0.05260242,-0.055615727,-0.063090995,0.016807018,-0.0995421,0.011809972,0.02572111,0.077116504,-0.017527794,0.02804687,-0.067586586,0.048881404
0.013536618,0.034371845,-0.015540838,-0.034943957,-0.040736537,-0.04408962,0.026111642,0.011832109,-0.008229928,-0.002251138,-0.056044057,0.03329837,-0.030634481,0.053168014,0.05766666,0.074387364,0.019726593,0.030172795,0.003342385,-0.013600498,0.039940394,0.0021193733,-0.067170456,-0.0796886,0.06461155,0.024308369,-0.112931974,-0.08011569,-0.0076939263,0.026345382,-0.028297616,-0.015401605,0.034692287,-0.13071847,0.00834186,-0.12537554,-0.0501976,0.0354664,0.069449544,-0.045968767,0.009311729,0.034657646,0.030293487,0.024069143,-0.01776251,0.06944372,-0.080973856,0.064394906,-0.010732086,-0.028044516,0.053989228,-0.047708254,-0.048789002,-0.074308604,-0.08614436,-0.07694719,0.04234868,-0.08286792,0.0041119987,-0.08732833,0.084545255,-0.1609952,0.06743977,0.041051663,-0.15605897,0.025880545,-0.0038958043,-0.029614378,-0.015624621,0.025948977,-0.038256716,0.02843029,0.00017388295,-0.0074495133,-0.07627583,0.030295523,0.064208746,0.080484346,-0.0095119765,-0.04739157,0.025505563,0.028242009,-0.019602528,-0.061787434,-0.07468632,0.022854626,0.04510989,-0.046493478,0.058206175,0.028149365,0.00851714,0.041517004,-0.022631513,-0.05111951,-0.091690704,-0.07556172,-0.004367594,-0.09477683,-0.0047165756,0.01786542,0.075004,0.015528117,4.7229893e-05,-0.020771755,-0.0396187,-0.07956122,-0.022155918,0.032613758,-0.04637253,-0.034943555,0.040338498,-0.09684409,0.05903654,0.03493446,0.019038178,-0.09086998,-0.06272839,-0.097120985,-0.009277858,-0.03025114,-0.027304478,0.05327374,-0.070545755,-0.05691631,0.009160133,0.07329606,-0.039083526,0.10633301
-0.07322183,0.02435552,-0.07751778,0.12036781,0.0955148,-0.103309505,0.088368505,0.11687206,0.036282048,-0.06000975,0.04868897,-0.047679823,0.06388018,0.06702737,0.06848444,0.037364405,0.10783767,0.024313688,0.04050683,0.032233916,0.046017606,0.003100941,0.052095532,0.045621995,-0.027952282,0.053698443,0.030716231,-0.07361589,0.06837177,0.059221428,-0.02824642,-0.12641576,0.039972845,0.05545242,-0.05884631,0.07631296,-0.07317464,-0.030654585,-0.0076307557,0.04714356,0.033397857,0.047238097,-0.08620764,0.014622593,0.034160007,-0.08020052,0.087071866,0.020660592,0.06328248,-0.005408753,0.06574904,-0.06442071,-0.03051639,-0.101187766,0.059823632,0.056735393,0.09686556,0.027788727,0.09943932,0.023661468,-0.018944435,0.076619394,0.060362034,0.022749014,-0.023922615,0.095985405,-0.013634359,0.12699264,0.01968017,0.0017484865,-0.070423506,0.04713764,0.042527974,-0.058549736,0.0753951,0.04669484,-0.10198637,0.056189224,-0.069065034,0.081741475,0.023353867,-0.09648255,0.023098845,-0.08035933,0.005227898,-0.068000056,0.05571462,0.02443357,0.06081509,0.04702282,-0.053777758,-0.011678739,0.011256018,-0.06308703,0.076808654,0.014464993,-0.021641688,0.069785625,-0.09214809,0.041332774,-0.065056436,-0.0944456,0.08990044,-0.08134235,0.09681874,0.050797526,0.010718219,0.03711346,-0.070346095,-0.046861142,0.012039278,-0.088557646,0.0012940327,-0.046209853,0.0886366,-0.08752298,-0.09374234,-0.012104793,-0.015417841,-0.00015679767,-0.006127643,0.0036609652,0.11242142,0.081286006,0.1058985,-0.12324241,-0.0451342,-0.0034375063
-0.04935113,-0.06849787,-0.04223013,0.08346848,0.0027357575,-0.04747083,0.08492919,0.11145826,-0.057870075,-0.006132087,-0.016484184,-0.006909528,0.12095236,0.0978807,-0.030671703,-0.010292638,0.15394436,0.068770096,-0.020833008,0.05424956,0.099200316,0.053845502,-0.029667106,0.120902784,-0.11449622,-0.039194237,-0.015668437,-0.04210289,0.09661645,-0.04926801,-0.10467096,0.09457675,-0.054152187,-0.011766,-0.027293371,0.13093792,0.0064517925,0.0027899335,0.08874777,0.098188706,0.0026550742,0.045327526,-0.08710137,0.031471558,-0.046720132,0.054661017,0.087299965,-0.03699023,-0.04064414,0.10394791,-0.03587467,0.033917274,0.039614495,0.15588517,0.11201809,-0.055476904,0.06797733,-0.025870819,-0.04983049,0.1037755,0.028480656,0.092468716,-0.053469524,0.097250186,-0.012964271,0.001235354,-0.073087074,0.13955483,0.09434104,0.060408875,-0.007828588,0.0031167872,0.08039879,-0.04171247,0.12742989,-0.025494328,0.061654232,-0.06882548,0.010515045,-0.03754597,-0.067024045,0.009690338,0.11665783,-0.03936939,-0.021236924,-0.031095702,-0.03156286,0.06456772,0.11566056,0.08069222,0.09306015,-0.025755959,-0.010848574,-0.010132347,0.0012540863,-0.0087337345,-0.020813376,0.107661575,0.08339673,0.040842067,-0.00973188,-0.012327752,0.07417302,0.03556874,0.10945863,-0.025639972,0.03379335,0.04079956,-0.024062559,-0.04884478,-0.07835595,-0.066842176,-0.019174313,-0.05776005,-0.0030628704,-0.018878192,0.10494178,0.06285027,0.095907494,-0.033781305,0.008200269,0.01274496,0.027764013,0.056821927,0.14370376,-0.047276665,-0.052050643,-0.032333564
0.021897083,-0.041630957,-0.065326795,0.09493521,-0.025950883,0.051722407,-0.09861856,0.086037286,-0.079441115,0.04920056,-0.07794518,-0.07366577,-0.055644255,-0.07947228,-0.009138363,-0.066646494,-0.05473468,-0.00020396517,-0.026709327,0.06093386,-0.008264256,0.019933965,-0.0372756,0.058623917,-0.02730782,0.010235301,-0.03248203,0.01650774,0.016070949,-0.049225062,-0.07814246,0.005299498,-0.0704934,0.0431608,0.03643877,-0.063798815,0.03161301,-0.06442098,-0.057920635,0.030433493,-0.029795866,-0.07250051,0.042799663,0.07228424,-0.07956748,0.00069907925,-0.057170242,-0.04076629,-0.06431049,-0.026738236,-0.083331674,0.016738148,-0.04292411,-0.008984503,-0.093850166,-0.035107423,-0.050216265,-0.007598908,0.06460602,0.054764073,-0.07993137,0.0010001215,-0.046171512,0.026607495,0.024130804,-0.038083106,-0.011744261,0.013689799,-0.053773016,0.004805605,0.083513476,-0.04806615,-0.10281109,0.01629277,-0.052187294,0.043541435,-0.068977945,0.08616707,-0.029301,-0.03615852,-0.03541755,-0.024264624,0.029428737,-0.06141948,0.0013737449,0.018240856,0.060707986,-0.10468262,-0.03564684,-0.07006628,0.08114563,-0.070181206,0.05268127,-0.005372775,-0.035637267,-0.05262571,-0.00073926104,-0.048595905,0.008269216,0.071751915,-0.06948148,0.0033702024,-0.0975866,-0.0033652552,-0.05268254,0.19124706,-0.10814027,-0.01476162,-0.12058813,0.07732169,-0.046460636,-0.042497694,-0.08761708,-0.07177399,-0.059121504,-0.08777242,0.03034758,0.050726682,0.00032016533,-0.07720319,0.03815633,-0.011195374,-0.084973514,0.03788047,-0.07501883,-0.088870935,0.077857144,-0.022948481
0.026619641,0.032808047,-0.064697556,0.12466461,-0.0001665676,-0.010435488,0.011016252,0.09674926,0.0027223052,0.021576365,0.025952976,0.06954746,-0.0042511607,0.028296312,0.067459375,0.086029865,0.083349265,-0.021182215,-0.035262372,-0.017525064,0.04951136,0.025562208,-0.064425685,0.053515464,-0.095194474,0.08536769,-0.03713048,0.027824147,0.035718102,-0.031525258,0.06957326,0.097437255,-0.078990825,0.05585587,-0.05862921,0.08439685,0.07698157,0.08980929,0.059464846,0.0350055,-0.0660446,-0.044318,0.023098713,-0.040932663,-0.00621361,0.06976612,-0.081029594,-0.037385736,-0.009849071,0.10547496,0.068941556,-0.078548215,0.09764707,0.26614052,-0.039135214,-0.13759764,-0.02976588,-0.0070687975,0.041679397,0.071969114,0.089269824,-0.07504416,0.054874785,-0.01947544,-0.05112927,0.10005542,0.1226893,-0.0821491,0.025815064,-0.07290926,0.065706275,-0.0010892161,-0.07882473,-0.07237054,-0.13674888,-0.046924785,0.064031795,-0.021868767,0.014305954,-0.018963078,0.0762791,0.058620926,-0.051273234,-0.10443594,0.029308947,-0.09602967,0.031396754,-0.008598343,0.0023574922,3.647995e-05,-0.04366253,-0.037085444,-0.026702365,0.04596278,-0.112168305,0.05506456,-0.073367104,0.050102834,0.03298709,0.06825758,0.018743739,-0.011858416,-0.12446734,0.056628566,-0.008335482,0.080732465,0.05659835,0.10777302,0.023229187,-0.054968555,-0.022946268,-0.12014273,0.0076108747,-0.08039522,0.05622667,-0.062333446,0.014610768,0.07993335,-0.036170553,-0.08861576,0.07681249,0.022441763,0.043426692,-0.0025967238,0.061565686,-0.055380285,0.010837933,-0.22011602
-0.10036686,-0.026204184,-0.031913526,0.018429887,0.07117532,0.025685254,0.064096905,0.11694071,-0.00381628,-0.058512382,0.0288039,0.08199753,-0.049730092,-0.09082784,-0.01739936,0.07205008,0.05125741,-0.07634891,0.1747747,-0.06326794,-0.07118992,-0.11766216,-0.039404314,-0.08272742,0.057081614,-0.007997473,-0.025498286,0.068408206,-0.029865341,0.09593915,-0.019718641,0.18596368,-0.052810933,0.100149676,-0.11019795,-0.05222374,-0.012193912,0.00034682313,-0.02055541,-0.019538838,-0.12487817,0.0062533594,-0.07345698,0.021903044,-0.040954705,-0.07818884,0.0050765034,-0.038821276,0.00890104,0.01446861,-0.030898461,-0.015171328,-0.005277079,0.18851675,0.013917373,0.052046686,0.11630299,0.091537334,0.06750906,-0.010057043,0.08388682,0.18475087,-0.075965814,-0.049447853,-0.028917806,0.0064116963,-0.07176737,-0.056779433,0.06876644,-0.0821057,-0.055755973,0.06424662,0.010280384,0.0013741946,0.010017743,-0.0026008626,-0.119908586,0.081574015,-0.09839642,0.044727556,0.022879299,0.07262871,0.03981762,0.032509297,0.1107353,0.0322874,-0.050381564,-0.027141264,0.025890986,0.080564514,0.023508726,-0.037043944,0.031123111,0.08430837,-0.027237413,0.08880877,0.047805104,0.090909,0.07739592,0.08933836,0.07178564,-0.07580438,-0.065702766,-0.059826937,0.058320705,0.0230729,-0.043303423,0.0044368547,0.03541372,-0.03740166,0.016049959,-0.03369007,0.11697459,-0.0046393634,0.13172361,0.09549762,0.017902503,-0.027856154,0.026603555,0.066628836,-0.015379089,0.032789476,-0.094827265,-0.0102902725,0.013423185,0.070254155,0.07928539,0.0064948206
0.07054796,0.029928083,-0.022273567,0.0640844,0.117434114,-0.029638547,-0.06282013,-0.13963562,0.0018602409,-0.04215653,0.035287645,-0.03561532,0.06419658,0.118652515,-0.051611472,-0.028993713,-0.039920054,-0.07247805,0.07350496,-0.09226218,-0.10948476,0.10856141,0.045721985,0.05747916,-0.047975127,0.023507642,-0.061821345,0.104470655,0.041159585,-0.10749727,0.014272904,-0.15811884,-0.083372585,-0.039422836,-0.06150032,-0.026759291,-0.06726152,-0.11446891,-0.044884108,-0.007290701,0.014363421,-0.0183092,0.04335154,0.012032278,0.013444069,-0.0778801,-0.045388598,-0.06116864,0.03368656,-0.082455456,0.04558221,0.082541086,-0.06403773,0.011368978,0.06780373,-0.060031164,0.05235387,-0.0079593165,0.13179933,0.1014968,0.03661644,-0.02614302,0.032126028,0.0702875,0.045227442,-0.03222103,-0.00908158,-0.05011435,-0.06554663,0.12807047,-0.075352125,-0.07927786,-0.02929563,-0.062066596,0.025745844,-0.004179275,0.032490365,-0.024460522,-0.041590083,0.035963777,0.08296844,-0.048491143,0.07249731,-0.086190596,-0.01891556,-0.004934333,0.0690446,-0.0367236,0.089327216,0.06656989,-0.06335016,-0.055455472,-0.08439826,0.07307647,-0.058869064,-0.034635786,-0.057760064,-0.039241698,0.019019028,-0.030436657,0.05398629,-0.069073096,0.034571134,0.041499067,0.055532806,0.07022355,0.010795386,0.077751264,-0.041630752,-0.010037105,-0.0334583,0.08868282,-0.08389042,0.03853034,0.09930573,0.07124161,-0.0397638,-0.0116358865,-0.06731981,-0.049200874,-0.049899258,0.08101854,0.022880955,0.06055133,0.046613153,0.12723504,0.07185016,0.15391327
0.01452211,0.008176345,-0.09275292,-0.0773753,0.012916267,0.074546434,-0.019187694,-0.07193129,0.0001393775,-0.022337016,-0.047912713,0.060484637,-0.0411658,0.035724565,-0.04372174,-0.009753865,-0.12895902,-0.012890886,0.016194724,-0.01750667,0.04517872,-0.061291404,0.011438924,-0.09254844,-0.058432374,-0.032681916,-0.09355749,0.047858655,0.019404078,-0.043080356,0.012118596,0.086673245,0.01319045,-0.014279641,0.0042524342,-0.00058870134,-0.0046234354,-0.031230628,0.0039969496,0.06355087,0.0016056551,0.04954038,0.022346089,-0.05324118,-0.07410738,0.05149865,0.057775263,-0.052218545,-0.026277017,-0.04401085,0.0036169218,-0.068464234,-0.04756846,0.043815598,-0.05481382,0.031995628,-0.08612696,0.036626574,-0.08919168,0.01037494,-0.04432687,0.09018386,0.004022647,0.059866965,-0.052148085,-0.07067533,0.030871635,-0.001441944,0.02506263,-0.10133326,-0.08060336,0.0011137591,0.044274315,0.010678283,0.042966504,-0.041205235,-0.0776184,-0.046919055,-0.048599258,0.054456916,-0.004982916,-0.054444615,-0.08320452,0.061696224,0.021334885,-0.052323755,-0.13541105,-0.0076149595,0.026102759,0.08857397,0.06573419,0.06975869,-0.05815106,-0.013879591,-0.023373365,0.043719914,-0.006666375,-0.019913362,-0.06450755,-0.066476844,-0.058929935,0.08383696,-0.0733155,-0.060589068,-0.028209465,-0.021454787,0.055604264,0.015058112,-0.021711104,0.021512523,-0.06667389,0.020455923,-0.03223143,0.111215025,0.022394808,-0.03195838,0.03769345,0.079797454,0.06772332,-0.06260408,-0.030707205,-0.056498658,-0.06418782,0.015289963,-0.0021632786,0.026441675,0.049993906,-0.08324457
0.025794845,0.024322977,-0.0036420736,-0.064344704,0.065180056,0.047280066,-0.032308467,-0.036791373,-0.06042627,0.07346105,-0.035939887,-0.053603806,-0.093427,0.05654661,-0.05786178,0.022029871,0.0728116,-0.012483311,0.061777722,0.0051837107,0.06068599,0.011660096,-0.023535877,-0.0038824345,-0.056243073,-0.07455418,-0.017487828,-0.09793397,-0.051761664,-0.08152758,-0.06955511,0.0011835898,0.058955774,0.06985055,0.03985408,0.05510963,-0.047956046,-0.039671686,0.047883913,0.0228783,-0.024441408,-0.08755483,-0.07241989,-0.057055503,0.038089346,0.031040028,-0.05009245,0.08287444,0.06911708,-0.058745503,-0.08710166,0.007725043,0.05234629,-9.7380325e-05,-0.08156904,-0.105745666,0.036222737,0.06910659,-0.03381078,-0.037624676,-0.057731,0.031666134,0.05508826,-0.08203871,-0.027618673,-0.04588194,-0.00016394198,-0.03921973,0.018996418,0.0014503201,0.08902782,-0.07997956,0.04065831,0.06801084,-0.02068836,-0.056664992,0.07602491,0.08677414,0.019364523,-0.018323397,0.048268754,0.075548306,0.014054959,-0.071102515,-0.032760616,-0.012296302,-0.004028048,0.044448867,-0.06951753,-0.009875346,-0.049742356,-0.033203855,-0.10165041,-0.06444107,-0.097642414,-0.048927147,0.047264613,-0.08601122,0.038675625,-0.018330822,-0.11581041,0.029710362,0.047709916,-0.065757,-0.038630333,-0.08387152,-0.07220107,-0.08027741,0.029915294,-0.062381025,0.040428583,-0.07775737,0.020851418,0.05823345,-0.102129355,-0.003532183,-0.04484341,0.0394994,-0.02272542,0.004284656,-0.02199953,-0.07576773,0.032234844,0.039584916,-0.027574763,-0.020995842,-0.0583607,-0.027317412
0.030261144,0.04818277,0.028624922,-5.6373647e-05,-0.08669651,0.049676552,-0.07622741,-0.01389752,0.008409188,0.033900738,0.044743188,-0.0636677,0.053670492,0.025815286,0.03238468,0.01854197,-0.06843923,0.029296845,0.070443265,0.047982436,0.07138947,-0.046377707,-0.027764115,-0.08721198,0.0654119,0.022432568,0.012397293,-0.02165362,0.002763792,0.053772446,0.02476501,-0.09296005,-0.037163246,0.058714323,-0.00022348054,0.07541788,0.0057233837,0.0057001165,-0.09802508,-0.032114126,-0.051341686,0.03352349,-0.013514175,0.053547196,0.052813116,-0.09129945,0.0386365,-0.017933307,0.0014680261,0.04090805,-0.02953565,0.00607164,0.012613888,-0.088387325,-0.055004116,-0.02608563,-0.041863717,0.012820869,-0.0021880274,0.039299216,-0.047744352,-0.017761398,-0.017499968,0.027932437,-0.033769358,0.033529464,-0.024958417,0.02320182,0.040145777,-0.030759163,0.01473184,0.015970571,0.03358574,0.003917191,-0.05583412,-0.019666236,-0.05440749,0.070440456,0.04024675,-0.00108282,0.03167757,0.0034100842,0.024358224,-0.08319118,0.039474607,-0.02788145,0.032981675,-0.08164463,-0.002946563,-0.07922878,0.07785152,0.043630246,-0.055201508,-0.06715038,-0.008512964,-0.060731634,-0.044920918,-0.07860807,-0.030564232,0.01678926,-0.080547355,0.022662671,-0.040919445,-0.07446049,-0.0017570258,-0.064855695,0.025137542,-0.09187955,0.052913275,-0.06743482,0.046661798,-0.0350174,-0.06974483,0.008346246,0.017788947,0.04256636,-0.015551606,0.036095884,-0.09112034,-0.041247424,-0.06504372,-0.07979463,-0.08124682,-0.034708716,-0.08964508,-0.01830269,-0.078764595,-0.073514946
-0.03330216,-0.037677165,0.01850254,0.031324606,-0.036149845,-0.022355778,-0.0689709,-0.03556759,0.06948862,-0.06860222,-0.07843309,0.0668158,0.06249942,0.022094144,-0.016026549,-0.035338167,-0.040417757,-0.058717776,-0.05561403,0.04142147,-0.068545565,0.045246243,0.030092418,-0.060020473,8.7560074e-05,-0.013412983,0.010372365,-0.007925494,-0.09795572,-0.021713622,-0.048685066,-0.035497587,-0.058825713,0.043493494,-0.014303863,0.031646572,0.048811074,-0.08348885,0.001965317,-0.027446063,0.05386091,-0.05008169,0.01631318,-0.06540749,0.024492348,0.017546555,0.025856942,0.0032906889,-0.057841882,-0.08756398,-0.07425402,0.051500067,0.06711896,-0.04866028,0.044685114,-0.0343779,0.050838437,0.081741154,-0.04375322,-0.007452267,-0.039488304,-0.063179895,-0.045412164,-0.10866184,0.010705131,0.022729868,-0.031853873,0.059932463,0.03197681,-0.022633959,0.02743722,-0.03796841,-0.096949704,0.006171352,0.058602568,-0.021302018,-0.092599,0.050267324,-0.04245577,-0.042923436,-0.038115207,-0.08431921,0.051344186,-0.012510835,-0.04324372,-0.043046217,-0.03666804,-0.04188797,-0.06498823,0.06865076,0.024402477,0.016734542,-0.075472094,0.040521044,-0.064613126,0.038586102,-0.04526971,-0.076433815,-0.0522766,-0.08114433,-0.07491506,0.052402534,0.035518747,-0.108020246,-0.07732582,0.010343026,-0.020472279,-0.06312097,0.06209281,0.01144995,-0.06558041,0.079808846,0.0149983885,-0.027621642,-0.053961348,-0.07094972,-0.056199055,0.037702177,-0.05048009,-0.065395504,0.057179272,-0.054074734,0.050271403,0.03829153,-0.012833641,-0.034030396,-0.011699849,0.037390314
0.058889072,0.08189464,-0.07405303,0.044663474,-0.1143076,0.055574335,-0.09492992,0.13465722,0.02657244,-0.13167956,0.034160253,0.016168315,0.04530716,-0.076778084,-0.057650924,0.08043124,-0.069900304,0.072933726,-0.064276375,-0.012842675,-0.05026006,-0.029416936,-0.09200719,0.059546974,-0.0391303,0.06045903,-0.032935333,0.006014245,-0.05385302,0.03197165,0.0697807,0.18035552,0.005861884,0.017066944,-0.032276534,0.04198795,0.07092519,-0.015175483,0.029618789,0.03418414,-0.08197512,0.08802738,0.07204952,-0.059983633,-0.12987047,0.040765032,-0.070626,-0.029586118,0.11772494,-0.07280688,-0.09107434,-0.04180775,-0.08464454,0.06557801,-0.013944003,-0.10715482,0.020360278,-0.029344717,-0.08785365,0.05826814,0.09847782,-0.050131682,-0.015607294,-0.046664372,0.026408095,0.0038267383,0.09441456,0.04937605,-0.021725958,-0.05862856,0.05576062,-0.04258184,0.038547844,-0.024470638,0.008358065,0.056883894,0.059466112,-0.06964671,0.02161474,0.039813094,0.024537357,-0.034606688,-0.035794917,-0.034072425,-0.035869308,-0.12487684,0.06946903,0.0334483,-6.885502e-05,-0.048359618,0.022249637,0.013131293,-0.10147227,0.08587008,0.0710492,0.006858078,-0.12063469,0.0036469863,-0.010602644,0.10258478,0.022129875,0.017312808,0.04092065,-0.09109466,0.006206896,0.06885031,-0.0707493,0.031746563,0.058170695,-0.029111143,-0.032632302,-0.09631701,0.1396947,-0.08199445,0.05074311,-0.014457731,-0.022961482,-0.06271126,0.13344672,-0.06933365,0.035859223,-0.083889164,-0.14633426,-0.07341401,0.021338087,0.029274167,-0.03351239,0.09027953
-0.03238266,0.0707873,0.11087523,-0.021261029,-0.060448907,0.028731627,0.11456093,0.0075650145,-0.021417292,-0.089707896,-0.06060619,0.006745331,-0.034424875,-0.013956814,0.082587376,0.09877253,-0.023846027,0.0011968302,-0.06692309,-0.12716904,-0.07364799,-0.035515603,-0.08601381,0.08920212,0.03146983,-0.014365683,0.04859185,0.06359373,-0.1451363,0.078330465,0.033291325,-0.030210765,-0.052267693,-0.0296988,0.08214669,0.00042230095,-0.011766051,-0.02920034,0.03862063,0.071375504,-0.05618863,-0.07673613,-0.04594376,-0.023097169,0.0009804633,0.03569894,0.07436204,0.062181823,-0.03704108,-0.15367058,-0.008054007,-0.05065196,0.0406928,-0.06666972,-0.016738812,-0.04040401,0.03524057,0.04471289,0.09207516,0.1001803,0.13645421,0.04131475,0.031971045,-0.058963165,-0.020982925,0.1131448,0.14711954,0.10077952,0.0982707,0.11363216,-0.02125055,-0.063977495,-0.032527603,-0.027607549,0.0077723144,-0.07960619,-0.025119724,0.0794414,-0.04279616,0.020916073,-0.078347996,-0.067661375,-0.084743954,-0.039830048,-0.06114553,0.004042139,0.05517977,-0.026733693,-0.058498062,0.122771874,-0.042622004,0.05759159,-0.042351138,0.07500988,0.006415028,0.07602288,-0.019211022,-0.09373479,0.0710621,0.068357736,-7.5755665e-06,0.0040456867,0.012761041,0.061843656,0.11109649,-0.05513466,0.01679602,0.0555525,0.058574412,0.0765304,-0.06551933,0.088103324,0.04743874,0.044796996,0.012322347,-0.0038624613,0.096207,-0.05215478,0.06398405,-0.055718474,-0.034614492,-0.031517744,-0.044482984,-0.062496178,-0.058986817,0.008079013,-0.021129936,0.13879658
-0.07948492,0.031181179,0.06996408,0.07169726,-0.110130034,-0.00443519,0.018603187,0.08528929,0.018094577,-0.041089732,-0.07399625,0.09248277,0.09800613,0.07914553,-0.03147195,0.043179303,0.088293456,-0.053437732,-0.031250205,0.018517444,-0.09240851,0.046630993,-0.042628314,-0.05923482,-0.01138956,0.06685216,-0.07830674,0.10772002,0.00059876917,0.08294746,-0.03337289,0.11297132,0.07950445,-0.09155894,0.06497763,0.04377596,-0.09921646,0.09214185,0.073758,0.04519199,0.07032846,0.08168247,0.049786236,-0.078106485,0.09122099,-0.05564819,0.018806737,-0.015244278,-0.021184498,0.13469103,0.054594763,0.017528186,0.02422956,0.015012325,0.07162471,-0.06443767,-0.06755985,0.0072076228,0.016114488,0.06774368,0.0068007037,0.11282143,0.035613675,-0.014067632,0.032831598,-0.06498652,0.023557266,0.04708119,0.05916248,0.04880629,0.06794554,-0.0713638,-0.0065450864,-0.025039118,-0.07460803,0.06207081,0.094313435,-0.08603134,0.037297145,-0.060404163,-0.08503748,-0.039784137,-0.019463345,-0.04782487,-0.018570766,-0.10094943,0.07520002,0.005863745,0.07844157,-0.018037207,0.046246517,-0.045248758,0.061573327,-0.018819187,0.011913272,-0.035436224,0.048543017,-0.051340476,0.1336346,-0.05104619,-0.02052168,-0.0348587,0.01865056,0.09737879,-0.031003535,0.0038295742,0.023697775,0.07884257,0.09056619,-0.061227106,-0.050955277,-0.0092184525,0.14498441,0.017457217,-0.020656396,0.008304522,0.037457727,-0.0054155923,0.05835824,-0.013663264,0.011687731,0.09807872,-0.13314217,-0.018675188,0.020572675,0.093055755,0.045596518,-0.05483991
-0.027002983,-0.06430182,-0.07921909,0.021196408,0.06530287,0.04823298,-0.04303659,-0.03327731,-0.08521641,0.002789936,-0.00089053425,0.12512568,0.0025906146,-0.07418595,-0.015080684,0.07088628,0.06525976,-0.033667684,0.07627052,0.05437685,0.06682166,-0.010763601,-0.05048836,-0.04882059,-0.004812858,0.03573209,-0.02354234,0.050856158,0.0073479847,0.018260006,-0.07248061,-0.049927965,-0.00671265,0.02758254,-0.1015812,-0.025191534,0.06993578,-0.10301851,0.013963462,0.046170298,0.037360016,0.0048717894,0.025289578,0.04849947,-0.050841276,-0.007185004,0.01808313,0.0759761,0.080731586,-0.14023328,0.072939746,-0.009459423,0.0050812676,-0.035471708,0.050278712,0.06713358,0.10295702,0.03822438,0.056138843,-0.09795034,-0.07159453,0.06746983,0.0042507164,0.028850041,-0.047341265,0.12986624,-0.07096808,0.03805177,-0.01731393,-0.06419589,0.016908597,0.1082214,-0.01470081,-0.041928902,-0.024552785,0.050986838,-0.0016504225,-0.013220567,0.011686204,0.0024768356,-0.074493535,0.07080239,0.0706436,-0.0051590716,0.092489995,0.07475803,-0.05163985,0.014466499,0.078261696,-0.021404887,-0.0008366276,-0.074524514,0.047159288,0.06634131,0.05707161,0.03309915,-0.055314012,0.07368125,-0.13263991,0.032378487,0.070049025,-0.0689519,0.038048256,0.060818356,-0.08745957,-0.0059886854,-0.081094794,0.029806228,-0.007851143,-0.07984293,0.009342766,-0.037706837,0.0036351166,-0.06636247,0.046859797,0.06708874,-0.12868565,0.0086776605,0.08154656,0.03932672,-0.053598765,0.028898975,0.071026765,-0.07861316,-0.06278917,-0.03003861,-0.072918706,-0.054823294
-0.094404966,-0.08402019,0.074565835,-0.008969693,0.07067168,0.07116659,-0.005369639,0.09793015,-0.049545728,-0.04095442,-0.019118745,-0.09774624,0.06941019,0.09808535,-0.12153764,0.036349166,-0.009878659,-0.043597102,-0.18929066,0.0970684,-0.013587563,0.083747424,0.08993305,0.07637734,-0.04909062,-0.07285979,-0.035782594,0.014141342,0.12685624,-0.111411884,0.13681486,-0.06832796,0.00864827,0.030832738,0.023099355,0.118564405,-0.035675883,0.07245674,-0.022805171,0.040300593,0.041718684,-0.0739659,-0.08600273,-0.0072950223,-0.05811434,-0.044322163,0.08593418,-0.063950114,-0.022338135,0.066744365,-0.05480009,0.024684494,-0.11472957,-0.08432193,0.08113761,-0.084359296,-0.075887546,0.077273026,-0.022138568,0.09242693,0.09426017,0.072035156,-0.07117215,-0.050626982,0.09106365,-0.083072625,-0.04317392,-0.0947341,-0.08361131,0.08061773,-0.057054,-0.0574667,-0.046210345,-0.093725085,0.079660274,-0.08155661,0.036364358,0.07974012,0.090054765,-0.067630164,-0.009692962,0.034465913,-0.0043582683,0.074813135,-0.11289706,-0.03577112,0.083484136,-0.044623204,-0.059626322,-0.08754291,-0.07848991,-0.040394314,-0.064836174,0.032235984,-0.008591388,-0.024243528,-0.087163605,0.11162381,0.020989126,0.040365,-0.08402797,-0.03191616,-0.038899485,-0.082505144,0.033044245,-0.07293171,-0.030654663,0.13260813,-0.1555461,0.031837165,0.06868535,-0.031270493,0.1097843,0.0574928,-0.12128219,-0.0722164,0.044522002,0.022493027,-0.0067783995,-0.009551602,0.072406985,0.005498739,0.07005184,0.08241843,0.1220189,0.042248804,-0.007874783,0.06781869
0.031272337,0.026930697,0.07331483,0.034832217,-0.041462425,0.070554815,-0.04862417,-0.02083246,0.00947322,0.08541714,0.09624323,-0.15323529,0.018951362,-0.04100937,0.0035718963,-0.01031703,0.097146355,0.04964786,-0.06758623,0.017164232,-0.030013496,0.07530156,-0.021040952,-0.08091472,0.018063612,0.045195796,0.045130163,0.02523924,0.11644183,0.11560865,-0.060396206,0.10214485,-0.035755843,0.008453712,0.062487893,0.12184429,0.07646459,0.05787964,0.09898498,-0.011078223,-0.036050957,-0.022082537,0.032617,0.0054727513,0.06290574,0.058263443,-0.084904335,0.05375929,-0.068768226,0.01845761,0.07661307,-0.05782736,-0.12991752,-0.019764885,0.017998885,0.030827045,0.028425658,-0.02495266,0.05416238,-0.059454143,0.06522738,-0.10483121,-0.06611495,-0.010121148,0.030838583,-0.15772079,0.011395965,-0.08279024,0.08640152,-0.04237236,0.03576035,0.07090383,0.068165526,-0.07721274,-0.06800407,-0.03239451,-0.06351463,0.06981579,0.06557123,-0.039820645,0.025515608,0.034740776,0.042173374,-0.023146281,0.009290472,0.0692009,0.019675476,-0.087753564,0.058959674,-0.029588945,0.007979744,-0.059791826,0.017583,0.040137336,-0.06998338,0.02480508,-0.054739896,0.12681474,0.081004284,0.005917029,-0.0056022434,0.101628564,-0.050876554,0.10662987,-0.07967875,-0.06839721,0.13005932,0.104589716,-0.06965988,-0.07376916,0.05141062,-0.0945733,-0.013316294,-0.053286966,-0.10868394,0.051702518,0.020418487,-0.06338198,-0.16636929,0.0095908865,0.042822372,0.09039634,-0.05935024,-0.021896632,0.113685414,0.07732975,-0.0011652963,-0.03046921
-0.07854535,0.0022081682,-0.003233611,-0.030694472,-0.04748034,-0.0391434,-0.04577363,0.020728836,-0.07168555,-0.08096854,0.07845786,-0.03737358,0.07664771,0.043813407,-0.037913788,-0.10110602,0.052040044,-0.045499872,-0.089727454,-0.036519308,-0.024158852,0.051727254,-0.059518013,0.023828905,-0.05615574,0.005849851,0.013691317,-0.08285478,-0.05939223,-0.0769886,-0.06341721,0.04378812,-0.05050003,-0.09902286,0.028995132,0.058084976,-0.06254164,-0.0030788118,-0.03114663,-0.01782917,-0.051942963,-0.054371256,0.06742922,0.014933956,0.030273208,0.017142989,-0.04037118,0.02922672,0.028003177,-0.009656421,0.0649896,-0.030869223,-0.06057774,0.045665786,-0.054047253,-0.052365314,0.027338106,-0.072932065,0.059143074,-0.10524854,0.073013835,-0.004426492,-0.0857742,-0.02880581,0.047854044,-0.022257553,-0.06691374,-0.037178963,-0.032122184,0.0012129238,-0.05259757,0.013716401,0.010794827,0.011795912,-0.02672818,-0.060593028,0.046857253,0.054688096,0.04423819,0.015289928,-0.062267594,-0.085170574,-0.0683009,-0.0063375854,0.079078004,-0.054491255,-0.07547757,0.049141154,-0.07541534,0.029484013,0.031552393,0.002625675,-0.09469725,-0.0036942977,0.06079059,-0.039649155,-0.07070636,0.036975127,-0.09682141,0.06240802,0.057511546,-0.011392936,-0.049826574,0.07733688,-0.093014985,-0.06330479,0.0344395,0.07563718,-0.10307444,-0.037275158,-0.08436842,-0.0556943,-0.07348173,-0.0020319521,0.050385673,0.0062472373,-0.017525751,-0.007138464,0.08730879,-0.07866795,0.019496126,-0.0653207,0.060568452,-0.076474026,-0.08198158,-0.022001488,-0.017910661,-0.07281854
0.03131493,-0.04821931,-0.07569454,0.13270606,0.045646265,-0.03566765,-0.06261545,0.10621991,0.066605836,-0.04412934,0.008819205,-0.0143338395,0.055990264,0.0064750337,0.013307632,0.033431422,-0.038491413,-0.026249,0.011220031,0.025416994,0.030574836,0.08939836,0.026889043,-0.05583879,-0.033506285,0.121336155,0.0006422025,0.09534971,-0.08870273,0.034480218,0.02659709,-0.01984717,-0.06955282,0.031544693,0.10254765,0.032797407,0.012930384,-0.0023883372,0.08296766,-0.032227978,0.0647731,0.019099902,-0.09700283,-0.07486079,0.06452245,0.053920917,-0.026140546,-0.06393956,-0.015336572,0.066841975,0.03412298,0.025383923,0.10252721,-0.10635346,0.0059038764,-0.067266755,-0.068384096,0.0388467,-0.09304587,-0.06887783,0.118213564,-0.05908535,0.058053557,0.051876526,0.043693632,-0.09087062,0.10132551,0.07326636,-0.09743839,-0.072647266,-0.04695499,0.087840535,-0.07670469,0.038890254,0.080373146,-0.042855952,0.106259435,0.040257584,-0.06382196,-0.06912061,0.033534545,-0.022662671,0.074672624,-0.055853747,-0.08619954,0.025436625,-0.0049801683,0.060405932,-0.06187036,-0.042526975,0.03611386,0.017281227,0.04215848,-0.012733636,-0.061286103,0.08155327,0.08857289,-0.035996407,-0.07949287,0.035916276,0.09389854,-0.03908083,0.087676756,0.09781317,-0.08611089,-0.041608814,0.11512449,0.034687713,0.070628814,0.052806377,-0.03658246,0.024145441,0.008982898,-0.05140961,-0.00408037,0.03652133,-2.1232738e-05,-0.027764523,0.002988089,-0.023932623,-0.02870267,0.019245854,-0.010251526,0.08038071,0.07683205,-0.07789997,0.07455765,0.14637728
-0.006271565,0.069348745,-0.002933176,0.21008693,0.014439856,-0.05044128,0.07253756,0.055925936,0.036490105,0.03811644,0.023041928,-0.006927912,0.0812785,0.11354218,0.043749444,0.08757638,0.03655927,0.07508527,0.019108761,0.023004787,-0.020882642,-0.019085838,-0.09310066,0.112013675,0.0768836,0.07219626,0.039511442,-0.018481977,-0.12982793,0.055617675,-0.03496448,-0.013979982,0.048640344,-0.034096096,0.10046069,0.0020945426,0.053847603,-0.015756255,-0.029512083,0.028798843,-0.06508329,-0.05385197,-0.010387166,-0.06029279,-0.041991085,0.08147017,0.01580451,0.015336134,-0.03722604,-0.020566773,0.057419136,-0.07666695,-0.016349949,-0.11155839,0.01713334,-0.05730072,0.07944091,-0.03856234,0.02711164,0.10512459,0.16819231,-0.13659875,-0.0069220546,0.12876788,0.059041325,0.07415816,0.13511501,0.10584914,0.14240704,0.06413901,-0.012975357,0.04527783,-0.08091968,-0.024009466,0.02312729,0.04229998,-0.0170563,-0.037360117,-0.041759033,0.022223294,0.005546401,-0.07460711,-0.060160663,-0.07294295,-0.089103304,0.10812914,0.019326631,0.06303423,0.1082975,0.032684833,-0.052090332,-0.0016472725,0.0683204,-0.08469585,0.09382781,-0.0074073486,0.042340267,0.004687808,-0.035045445,-0.06955345,0.10487065,-0.08516679,-0.07093636,0.02685363,0.031227259,-0.04776716,-0.006775107,0.05786911,-0.052924912,0.006516615,0.0023223213,-0.050294284,0.023927614,-0.09766869,-0.011758829,0.05933724,-0.01799082,0.0829349,-0.11023046,0.046352275,0.057691384,0.06107843,0.06478501,-0.06778645,0.11614252,-0.04447077,0.14073059,0.12555596
0.05210498,0.015461561,-0.05685544,-0.12278395,-0.036000006,0.0071196505,0.00042130213,-0.07260321,-0.030970844,-0.07241535,-0.0844185,-0.14357813,-0.057213996,0.022795396,0.018751,-0.13665566,0.010081003,0.059686076,-0.06603285,0.06520127,0.083804205,0.071311235,-0.056262184,-0.034008972,0.10743297,0.028022574,0.038553048,0.028383369,0.010974582,0.12416041,-0.04824882,-0.0015515919,0.11971827,0.10345993,0.08306999,0.0116917025,-0.06449898,0.040271062,-0.0063688722,-0.0799315,0.019323353,-0.037112538,-0.045569226,0.061922815,0.043581348,0.07489297,-0.10728908,0.039365575,0.018023895,-0.15623645,0.050724376,-0.015403612,-0.024244212,0.036674898,0.044562843,-0.024276083,-0.12717691,-0.040820625,-0.015310919,-0.115901895,0.105700344,-0.04926328,0.052351,0.009925257,-0.047581743,0.06660868,-0.042777274,-0.18170424,-0.06078024,-0.10668162,-0.039438844,0.039513886,-0.050467696,-0.0065924306,0.0073628924,0.061933096,-0.06817869,0.0192713,-0.0050404933,-0.026076477,-0.052983228,-0.06315557,-0.08615542,-0.0060185497,-0.050319035,-0.12255147,0.1449715,-0.05077287,0.022887198,-0.12625788,-0.020588472,0.06853996,0.10487447,-0.075875245,0.065951526,-0.027363475,0.027800614,-0.018293003,0.03861667,0.0489707,0.012441273,0.020773776,0.040033117,0.073357545,-0.10690114,0.037065525,0.096514575,0.22585985,0.05394174,0.06446766,0.01072641,0.06325672,-0.020659534,0.09533997,-0.11750499,0.080649905,-0.118840024,0.015637511,-0.12627146,-0.032018114,-0.026151462,-0.011964047,-0.16930217,-0.040591937,-0.01824661,0.04354848,-0.07945708,0.105052195
0.048708476,-0.058913294,-0.029227078,0.018419413,0.10482515,-0.025266677,0.08610302,0.08786682,-0.00014340179,-0.036985338,0.004137262,0.075422466,0.109904215,0.03032019,-0.05543999,0.0032931208,0.04910607,0.040581368,-0.021463532,0.08775042,0.06715709,0.048928738,0.04797954,0.09580799,0.08208813,-0.062544465,0.034949508,-0.052603375,0.091868006,0.00797336,0.13749185,-0.056017928,0.08774584,-0.03998915,-0.06834787,-0.046176832,-0.01631786,-0.09022156,-0.0044007762,0.099386126,0.083945036,-0.012364804,-0.022212613,-0.0069858837,-0.067819856,-0.06861279,-0.058757946,-0.043961287,-0.027330106,-0.1077421,0.045496292,0.09038449,-0.020690989,0.0040888805,0.0011906986,0.029781695,0.10551952,-0.0077188956,0.081733234,0.07483341,-0.0038968243,0.030672137,0.060402144,0.10421635,-0.026417984,-0.07945455,-0.049427602,0.04387396,0.07127703,0.06061521,0.043387327,0.022346213,0.0062840353,0.036858995,-0.05883428,0.068565115,0.017326906,-0.027218625,-0.013680298,0.03205269,-0.08043563,0.013842265,0.033501793,0.053574447,0.046975404,0.06614873,0.09753177,-0.0056609856,-0.080208555,-0.063598625,0.07687173,0.0144865,-0.060638968,-0.06970871,0.034389723,0.04703124,-0.053500503,0.011306737,-0.07829962,0.05928525,0.105395496,0.0016569181,0.081239514,0.047712024,-0.026380256,-0.044427,0.04574587,-0.043796275,0.040825672,0.06596146,0.014766645,-0.04340085,0.08774869,-0.013547039,0.07421168,0.006513045,-0.02663167,-0.019900836,0.052358363,0.040748376,0.09522591,-0.07593786,0.11781467,-0.02708502,0.053688478,-0.015156206,-0.004052955,0.19995983
-0.044742532,-0.062353067,-0.09975328,0.030881375,0.015009874,0.070085734,-0.10581659,0.058416735,-0.08601973,-0.022248955,-0.00860417,-0.08373693,0.0051617846,-0.013902628,-0.07059733,-0.013072814,0.0026302468,0.06783238,-0.10137373,-0.057651684,0.037473455,-0.032340717,-0.074993856,-0.07142912,-0.05528571,0.011475343,-0.060637098,-0.031878836,-0.075753964,-0.054139823,-0.03845628,0.049862154,-0.039559912,-0.02015763,-0.017738458,0.0005173213,-0.013396017,-0.025609512,0.03027991,0.059850696,0.0012358852,0.07604171,0.03467789,0.051123347,-0.053196322,0.04533554,0.06278487,0.0730355,0.06674069,-0.021065617,0.045316253,-0.098935716,-0.010511966,-0.014470654,-0.0029642223,-0.013367932,-0.07941878,-0.038634904,-0.08900522,0.0047957753,0.05213781,-0.09798913,0.05567033,0.026219094,0.023655046,-0.056557696,0.06344624,-0.0027777383,-0.100297585,0.03981119,0.012314961,0.029630153,-0.062469363,-0.05447101,0.060966413,-0.070638716,-0.060227703,-0.030067256,0.029461013,-0.071263395,-0.08510948,-0.022561468,0.021212276,0.03460826,0.07831268,0.01549816,0.069099315,-0.06162334,-0.09606621,0.018103972,-0.046969473,0.068035476,0.027401458,0.027636204,0.029697623,-0.013865548,0.011527628,-0.054784685,0.033971425,-0.086797655,-0.079811744,0.027421651,-0.08950744,0.025756486,-0.108187705,0.037971765,-0.06140572,0.0080085,0.0517516,0.044065334,0.010308353,-0.07121189,-0.040121607,0.059584916,0.07166314,0.041493062,-0.07176844,-0.01312814,-0.0041863727,0.023361994,-0.008695041,0.06731205,0.012639585,-0.035244428,-0.012633249,0.063724734,0.00997462,-0.022375867
-0.0038962816,0.071191795,0.09039989,-0.05978712,-0.0029484667,-0.10491658,0.05021195,-0.050537705,0.07772029,0.09532408,0.04605049,0.0077319974,0.030323306,0.10024032,-0.036248427,0.12458534,-0.06260147,0.0076561114,0.013668545,-0.11021476,0.0056559765,-0.033168115,-0.065344274,0.02806285,-0.053360466,0.023935467,-0.08080012,0.096498355,-0.14979552,-0.050594922,-0.061361253,0.024520326,0.050953284,0.020945108,0.07414543,-0.109276645,0.016833225,-0.02354668,-0.019468004,0.10403504,-0.06789146,0.061042,0.058129784,0.06654074,0.018582039,0.0326775,0.026614161,-0.062171143,0.025690416,0.0766735,0.07929329,-0.014806798,0.035754915,-0.00029892792,0.04770384,0.0025778885,-0.03014349,-0.011071256,0.09897423,0.014709695,0.05865955,0.021399444,0.036818318,0.025168499,0.08829651,0.026295846,0.08368841,-0.0020006727,0.06711552,0.06627338,0.07346421,-0.07137568,0.0069639,-0.034081273,0.06823002,-0.0136401765,0.012506427,0.05609283,0.046664424,-0.025062528,-0.08983647,0.03378708,-0.04519479,-0.05475955,-0.049569964,0.06419146,-0.074055634,-0.0047855093,0.113129124,0.13230726,-0.078176044,-0.062154066,0.09784293,-0.087843,0.09461806,0.08697681,0.029424032,-0.08335019,-0.0007018229,0.072961405,-0.0629491,0.043318793,-0.05729626,-0.067376934,0.06345192,0.019077085,-0.0859245,-0.08294748,0.10817458,0.04324359,0.055567343,0.026270729,-0.04186138,-0.0035563353,0.0050916313,-0.037412386,0.09142244,-0.039694898,0.049162265,0.004120426,-0.027987966,0.010728471,-0.01715645,-0.08376958,0.03212757,0.035857566,0.07646575,-0.00988458
0.012600584,-0.045024566,0.08799817,-0.052082814,0.08178352,-0.090666406,0.02526168,-0.0700295,-0.0181648,0.012391167,-0.02304553,0.08553023,0.07003954,-0.016906781,0.052016094,0.062406596,-0.0966471,0.06663919,0.033805672,-0.07233799,-0.039723102,-0.042510428,-0.047671404,-0.046531923,0.14538091,-0.083465084,-0.04821351,0.052683692,-0.030382479,-0.04481396,0.03596371,0.00472715,0.06259028,0.08214129,-0.07453838,-0.090793185,-0.07168744,-0.112268254,-0.06483831,-0.025771944,-0.09439791,0.056212932,-0.034593042,-0.045073286,0.013729892,-0.041465856,0.04961846,0.027438305,-0.023648111,-0.045716554,0.11332887,-0.03702088,0.003257187,0.025322758,0.058097973,0.08316234,-0.036973707,0.054134317,-0.032271087,-0.046031937,0.04362831,-0.082326904,0.05360103,0.10153262,0.0044136043,0.051598307,0.0093141785,0.007859386,0.10120717,0.045511976,0.05680542,-0.0064875656,-0.019370442,-0.06416509,0.019578787,-0.03672057,0.045398872,0.01471593,-0.08166716,0.036299143,-0.025522098,0.08245593,0.013593561,0.10759107,-0.03759465,0.08215247,0.07967122,0.07624647,0.056720793,-0.079121776,0.0064298385,-0.07769406,0.090351634,0.0007051305,0.14548898,0.042577486,0.054407123,-0.08232414,0.026955502,-0.00090882904,0.08505538,0.0002619283,0.098489866,0.059384048,-0.058058765,0.0030650569,-0.020879246,-0.050296046,0.06082616,0.044790104,0.023411082,-0.025310606,0.12864433,-0.05953458,0.059389655,0.07109059,-0.10874458,-0.06029005,0.080959745,0.027945755,0.0038620583,0.018851213,0.016206415,-0.010881414,-0.06301945,-0.047057506,0.04988848,0.020331584
-0.0819285,-0.009603054,-0.002408401,-0.03800338,-0.083346695,-0.06836876,0.0399929,0.012581329,0.060296133,-0.009093159,-0.0077089537,-0.078784965,0.007823088,-0.07029299,-0.035574056,-0.099096574,-0.00035737926,0.015917905,-0.05696728,0.021606509,0.040540285,-0.060653564,-0.0015802521,0.0006331248,0.065527216,0.01239027,-0.011427423,-0.08915254,0.03982494,-0.052657574,-0.012415724,-0.008618861,0.0010889465,-0.0649389,-0.034910027,0.005864138,0.086500704,-0.07447423,0.070520334,-0.08296721,-0.0750537,0.01805553,-0.07644415,0.03679048,0.020672066,-0.004498238,-0.04831682,0.026641622,-0.01164548,-0.05689187,-0.09069618,-0.061844785,-0.014488969,0.08375641,0.036569413,-0.10055938,-0.08185593,-0.046166476,0.014140146,-0.082948394,-0.099061444,-0.027282707,-0.005626383,0.031866197,0.06359552,0.009190805,-0.0026549594,-0.10004333,0.03942069,0.06594217,-0.027150968,0.046613876,-0.025238933,0.045966785,-0.06234305,0.085219316,-0.049990695,0.055861957,0.008896736,0.058957823,-0.05124399,-0.013403172,-0.0551871,-0.089173265,-0.035822924,-0.0014654761,-0.043566227,0.008372408,-0.09648841,0.060326144,-0.0510808,-0.043296054,-0.093453154,-0.03900435,-0.010610554,-0.07647143,-0.004103016,-0.10571135,0.043176066,0.029717617,0.04386427,0.06341163,-0.09514828,-0.015070681,-0.09894759,-0.07428249,0.051947348,0.039572716,-0.06872149,0.012805467,-0.055324957,-0.03996763,0.06817216,-0.060962792,0.035893142,-0.1013725,-0.08406951,-0.08342799,0.014076394,-9.468048e-05,-0.10029871,-0.06724034,0.046921376,-0.040847577,0.012792945,0.06379317,-0.05439392,0.0764879
-0.06118675,0.07004044,0.008962631,-0.012812973,0.007779724,0.03683936,0.0122103635,0.073078,0.10042525,-0.022086602,0.017954139,0.15630314,-0.10102238,-0.08495976,-0.07463143,-0.03844172,-0.037391927,-0.06494596,0.044023883,0.00078175566,0.061311048,-0.00971626,-0.004050377,-0.0024270033,-0.032674268,-0.07034837,0.07669558,0.028644243,-0.050083116,0.052807745,0.06839656,0.08651473,0.09811461,0.022869993,0.034725536,-0.062838234,0.009545737,0.065491855,0.07820875,-0.07701388,0.057212573,0.054691654,0.015440493,0.039401118,0.013966819,0.062228806,0.06580922,-0.039536852,0.018727988,-0.030678818,0.0853412,0.07533121,0.08662649,0.16922548,0.016941518,0.0075369924,0.044702772,0.05788821,-0.08586869,-0.04605523,-0.030580092,0.097149506,0.04985414,0.027021145,0.08570147,0.10592951,-0.0016824671,-0.04192043,0.07487477,-0.047164854,0.039955866,0.08692341,-0.050282516,0.07684015,0.07004903,-0.051618982,0.035274137,-0.07922364,0.07838337,-0.07978685,-0.06467258,0.1011985,-0.042909384,0.026132602,0.010885447,-0.020025901,0.022841167,0.018893225,-0.025695903,-0.033471573,-0.06928265,0.071257435,0.09644575,-0.067183465,-0.01763201,-0.06282692,-0.056663252,-0.027957737,-0.03143519,-0.07925885,0.08872122,0.07278308,-0.054699816,0.056131493,0.06056795,-0.080115475,-0.039168954,-0.05027566,0.022460543,0.043706357,-0.057063155,0.067899525,0.07918187,-0.04963526,0.0472613,-0.05003221,-0.11866619,-0.055475656,-0.08217598,-0.078459084,0.05254618,-0.008938317,-0.032511383,0.02157358,-0.07954934,-0.10126369,0.019221526,-0.02789752
-0.06341294,-0.05281772,0.05163019,0.0106983455,-0.15752849,-0.08180832,0.019623999,-0.0015231366,0.096787564,-0.05807798,0.06331143,0.12751938,-0.0018230263,-0.04968637,-0.05698454,-0.07150289,-0.11620886,-0.079885386,-0.07708012,0.079605706,0.029754575,-0.084071524,-0.117271386,-0.09403249,0.05036935,0.021141475,0.033447593,0.008808709,0.07754759,-0.044297688,0.016371962,-0.0513188,-0.050717514,0.028579824,0.091864705,-0.092171796,-0.07044923,0.10286382,-0.09356574,0.022754319,-0.04909745,0.040868275,-0.0324695,-0.05326308,-0.037544664,0.007705708,-0.022752121,0.03684897,-0.03282752,0.0883404,0.097690254,-0.09359475,-0.06880703,0.06765906,0.08375896,0.07432314,0.0387673,-0.058073822,-0.082759,-0.060630906,0.16377199,0.06944395,0.010680095,0.014845984,0.019332293,0.04446049,-0.012586594,0.02723125,0.07974166,0.012346177,0.04155003,-0.0047936575,0.0051450706,0.011589192,-0.075136326,0.00069671136,-0.15353471,0.085130714,0.019649323,-0.04052469,-0.07521765,0.05865876,0.007406742,-0.07614612,0.03905924,-0.10948662,-0.04758437,0.024228405,-0.0485204,-0.05975693,0.076895095,0.033703282,-0.028069695,0.0007499821,-0.043585196,-0.04000021,0.06723908,-0.081981145,0.042707246,-0.008968604,-0.06640198,-0.031721603,-0.08498679,-0.021441858,-0.0038250731,0.012172487,0.032290097,-0.061413426,0.11427315,-0.046116844,-0.014523835,-0.075151086,0.12984142,0.1497996,0.069327235,0.020753255,-0.0020050728,-0.046399046,0.1082196,0.0055795154,-0.067729644,-0.020709809,-0.02716883,-0.08469018,-0.060434055,-0.07223979,-0.013787655,-0.14374734
0.09564495,0.02476344,-0.13166322,-0.16715196,-0.0025220162,-0.020090768,-0.07124191,0.007944473,-0.012956746,-0.010992588,-0.009698348,0.0027292739,-0.041452948,0.05551817,-0.058685128,0.032286778,-0.0075962907,0.08569886,-0.065752335,0.06894016,0.073183805,0.012712138,0.092030026,0.04732858,-0.113894455,-0.021951772,-0.045653254,-0.027605206,0.102335006,0.004024964,-0.1022015,0.10342261,0.06471999,0.09475306,0.09497514,-0.027651481,-0.027659819,-0.018738529,0.0640145,-0.0076657566,0.07024147,-0.008040897,0.088918194,0.054993797,0.0954417,-0.06012803,0.035227317,-0.10053259,-0.04057057,0.06952292,0.02677114,0.09817592,0.01992215,0.10159445,0.04408082,0.014978432,-0.04140181,0.02714809,-0.12043586,0.10149084,-0.14979583,-0.034445725,0.07317124,-0.004029757,0.0732891,-0.090940684,0.064569324,-0.1246733,-0.11017821,0.03089119,-0.022756962,-0.014005973,0.03477094,-0.07934618,-0.028367976,0.027758727,0.13882104,-0.065476015,0.12752178,0.065685086,-0.0072134426,-0.0008166655,0.11600165,0.101416044,-0.019012744,0.053234592,0.08218994,0.095272124,-0.10257271,0.05167743,-0.057237897,-0.048150085,0.0006409567,-0.06639069,-0.089358434,-0.029041385,-0.009996264,-0.0073424703,0.026272051,0.03760745,0.03984392,-0.01012994,-0.032354422,0.069797255,0.0802381,0.068845406,0.06131759,0.05993894,-0.043206643,0.042812183,-0.017928427,0.011687228,-0.07099399,8.904181e-05,-0.026634265,-0.05202857,0.12861842,-0.05785768,-0.08125362,-0.02029576,0.021335602,0.0011604982,-0.10008372,0.0767068,-0.087404884,-0.012666801,0.008067701,0.017984625
0.06259152,-0.080030456,0.035650495,0.124430075,-0.062580094,-0.06884742,0.040414114,-0.09661354,-0.015300293,-0.009264368,-0.0041016615,-0.042272538,-0.08798432,-0.018418133,-0.082683176,-0.04935813,0.021563431,-0.047759697,-0.09858789,0.03428858,-0.008818003,-0.056997396,-0.061385363,0.07392303,0.05940977,0.029902268,-0.06275417,0.114452176,-0.012561581,0.23679921,0.029347798,0.17197552,-0.0843687,-0.0592286,-0.0334506,0.0648701,-0.045783248,0.13342401,-0.017300878,0.06452139,-0.09986576,-0.077705,0.062181443,0.012068558,-0.029734323,-0.09298296,-0.04298523,-0.026904989,0.06863197,0.008207405,0.03166862,-0.015534023,-0.066775315,0.15169962,0.06086819,-0.06729387,-0.0997015,-0.022859296,0.04560423,-0.040807113,0.0016853012,-0.07923635,0.057632435,-0.004067158,-0.018266313,-0.02497161,0.050501276,0.0060802195,0.06337662,-0.104220785,-0.018630043,-0.060863424,-0.0012697113,-0.06179567,0.009267686,-0.046328794,-0.03272253,-0.027824678,-0.09611654,0.034968715,0.0046342793,-0.01469047,0.025166977,-0.08930449,-0.056181695,-0.106626704,0.050995007,-0.00078440097,0.031023396,-0.03942031,-0.043153502,0.051371854,-0.050359696,-0.007045589,-0.10060725,0.032088123,-0.086632885,0.01353116,0.08088613,0.033579126,-0.08349739,-0.0153405545,-0.12910211,0.05901622,-0.0896795,-0.007859442,-0.018520625,0.08960713,-0.025143385,-0.028396461,-0.0815728,-0.040408693,0.04319516,0.014461031,0.012889979,-0.119072,0.1070188,0.01353647,-0.019053442,-0.03815283,-0.05551978,-0.03610328,-0.06269676,0.020308841,0.04270556,-0.010011398,-0.010778195,0.09254777
0.033029515,0.0012252015,-0.07200113,-0.06531704,-0.07094849,-0.08765702,0.018763186,-0.021619039,0.049889572,0.04691143,0.02694034,0.007690009,0.051979665,-0.03115266,0.004689151,-0.010010792,0.09646917,0.057290602,-0.03720716,0.076072276,0.07370719,-0.058950935,-0.04160161,0.013864395,-0.00026480615,0.072573625,-0.07686592,-0.08007416,-0.06464315,-0.020467192,-0.011337332,-0.01774669,0.106474176,0.0388353,-0.0005398529,0.021026064,-0.02946188,-0.033090867,0.0120853605,0.13964264,-0.015245593,0.07207215,-0.02928105,-0.045746464,0.08001573,-0.036495358,0.024045145,-0.019647501,-0.012149324,0.018003786,0.04762826,0.07974685,0.043897405,0.16088237,0.046587758,0.021049617,-0.07060579,0.03951381,-0.07081796,0.015495906,0.10955658,-0.06094598,0.029864512,0.090143606,-0.04483678,-0.06855364,-0.009364084,0.06747453,0.11625518,-0.041512813,0.07624533,0.07630223,0.023134472,-0.06554317,-0.017421212,-0.017008351,-0.07109211,-0.062363554,0.08309492,0.08058943,-0.0012429676,-0.017559636,0.004008763,0.0074994564,-0.0055987844,-0.017632106,0.04753775,-0.019020265,0.0030761322,-0.020753404,-0.05751474,-0.07664557,0.008644884,0.0066621886,0.10835951,-0.053984217,-0.05256311,0.08383661,-0.06614458,0.0117443185,0.056795333,-0.09785922,-0.094538294,0.0585137,0.08694682,0.051109854,0.03198752,-0.08124354,0.107604265,0.038152322,-0.08272285,0.022235472,-0.060093824,0.014423192,-0.04110123,0.017138708,-0.12353019,0.03675185,0.014288665,0.09878643,0.0075667873,-0.04951189,0.084968,0.018094106,-0.0697525,0.0060619796,-0.06383267,0.026586551
-0.09537384,0.070247814,0.055964064,0.18677072,-0.047669183,0.03758103,-0.026331555,0.08953033,-0.0061869267,-0.012729361,0.06561607,0.10124647,0.118171304,-0.02229471,0.005873266,0.030584907,0.031956885,-0.055621333,0.13254029,-0.059630856,-0.020506324,-0.09468147,-0.07338893,0.04125317,-0.05672012,-0.015838033,-0.031302784,-0.026146498,0.014804535,0.07260592,0.07239922,-0.0153412605,0.05516966,0.088935845,-0.03600312,0.048764233,-0.012662966,-0.09738256,-0.014244488,0.045675177,-0.08964182,0.013353535,-0.012141057,0.0271353,0.03280812,-0.014502175,0.0732633,0.030719152,-0.052901916,0.055709977,-0.046987344,-0.08419904,0.019585539,0.0384016,-0.059916515,0.10142582,-0.046608265,0.04834141,-0.04252961,-0.06746748,-0.03790917,-0.050802246,0.056397405,0.0038076537,0.072565,0.1338516,-0.007403119,0.12893833,0.048807207,0.0537823,0.048178248,0.07661493,0.040372826,0.048765004,-0.054154314,-0.024680343,-0.081115305,-0.06464164,-0.02845105,0.07562144,-0.04099291,-0.09427177,0.03815051,-0.0087353755,-0.041193064,0.02799274,0.045218863,0.063201584,-0.0041621625,-0.061379492,-0.008157896,0.09862353,-0.008218396,-0.07570912,0.059866946,0.065429986,-0.025123142,0.10605563,-0.029938629,-0.08789636,-0.0021461826,-0.05284753,-0.03093671,-0.040603727,0.07641255,0.042969245,-0.054991193,0.028690737,-0.034473155,-0.0245524,-0.037672535,-0.014993672,0.017515693,-0.090879984,0.1343914,-0.045253538,-0.01911983,0.02901136,-0.02041571,0.016668284,0.032783024,-0.07035837,0.09696931,-0.05831598,0.06299881,-0.009408473,-0.029467352,-0.03091981
-0.0560892,-0.061611976,-0.030232618,-0.034487225,0.039129093,0.05900058,-0.053582385,0.03153599,0.07919805,-0.007125164,0.0022673511,-0.06330159,0.017208409,-0.093851715,-0.02854658,-0.09742991,0.038469356,0.03303308,0.0035134538,0.007226741,-0.091025226,-0.0034115354,0.011308306,0.038698826,-0.06157183,-0.009870753,-0.018549135,-0.059264123,0.0224709,0.013428452,0.011266006,-0.03826569,0.029269176,-0.058363304,0.0550917,-0.10439478,-0.009326929,-0.024550622,-1.0793916e-05,-0.06672924,-0.0027026227,0.06579165,0.047226228,0.034880955,-0.09676142,-0.08534236,0.037938327,-0.07504938,-0.04239265,-0.044496708,-0.07207296,-0.08234765,-0.04261598,0.060346127,-0.09630624,-0.059320778,-0.028838607,-0.009029967,-0.09572888,0.022893865,-0.023275942,-0.007670176,-0.063588955,-0.10500611,0.020438557,-0.10407418,-0.045745317,-0.09017642,-0.07219323,0.025424693,-0.00899304,-0.05608541,-0.0530627,0.04658155,-0.014181658,0.07975707,0.030319568,0.084178075,-0.054858636,-0.044792954,-0.009941528,-0.088349886,-0.037628625,-0.029674387,-0.0065147127,-0.012823043,-0.022725878,0.0068045384,0.038586024,-0.02551628,-0.0009186724,0.043683995,-0.104034804,-0.021492353,-0.016810529,-0.06928095,0.034615133,-0.03323968,-0.060745206,0.033841763,-0.04542902,-0.01799489,-0.003687395,-0.065246336,-0.02826566,-0.073032185,0.012176529,-0.0392327,-0.019119734,-0.024037397,-0.07384845,0.03404648,-0.092420876,0.00428274,0.030662619,-0.04792471,0.024969652,-0.005630319,-0.081746094,-0.04852816,0.0063909115,0.045084428,0.05749467,0.02143674,-0.088002644,-0.045745194,0.05244355,0.05209109
-0.057148345,-0.05408503,0.021372044,-0.068107374,0.010288537,-0.06047211,0.05461762,-0.068471156,0.049772657,-0.029397141,-0.027981779,-0.055358686,0.010903278,-0.05753891,-0.08859392,0.0043505323,0.036231287,0.054232594,-0.06986643,0.048594408,0.012326132,0.033502873,-0.033348374,-0.025082698,-0.051492423,-0.042048175,0.037641283,-0.0024306045,-0.01260328,-0.07967707,0.08096727,-0.106184505,-0.05450636,0.013344439,0.061109945,0.03867455,-0.029331509,0.044043653,0.06276654,0.022544332,-0.0798728,0.062152334,0.036342137,0.074526064,-0.06497178,-0.06372494,-0.020393975,-0.029606873,0.07513408,0.054817185,0.0009897974,-0.06205738,-0.029926073,-0.00845982,-0.09123794,0.028740251,-0.06955097,-0.03346032,-0.026791552,-0.050427403,0.0021788683,0.028833663,-0.030352002,0.06203452,-0.03415043,0.051242735,0.041558433,-0.04636978,0.044110678,0.04196962,0.06493209,0.05942011,0.03968346,0.08969458,0.012394273,0.048184153,-0.06270604,0.0024835598,-0.06595933,0.077239566,0.06916229,-0.00235492,0.074969046,-0.09153362,-0.026819276,-0.07405222,0.06875647,0.038558774,-0.037044145,-0.08516989,-0.017377418,-0.028755544,0.013164969,0.044324845,-0.018643724,-0.09478915,0.030856872,0.055611413,0.020311343,-0.038313452,-0.07568281,0.0046917605,-0.05705883,0.05334421,-0.0058899303,0.012318593,-0.098620065,-0.001231022,-0.081889495,-0.02473785,0.030168394,-0.07986672,-0.040262837,0.027170207,-0.032269664,0.02601681,0.047183506,-0.09128992,-0.026247436,-0.06610322,-0.082170226,-0.03433468,-0.11658197,-0.061942566,-0.062161345,-0.04883051,-0.083712064,0.036292817
-0.09398713,0.034749333,-0.0076817344,-0.013694051,0.003362282,-0.05134318,-0.028445983,0.110858195,0.0723989,0.03667217,0.06204053,-0.08163099,-0.05873453,-0.019583488,-0.028751735,-0.09191183,-0.005434399,-0.054520734,-0.046857305,-0.0041672336,0.049278643,0.06874908,0.13176073,0.08740724,-0.014715663,-0.09789111,0.0765746,0.011498193,0.08019119,-0.120653525,0.0723527,0.02040638,-0.05358582,-0.03810743,0.018354489,0.05214014,0.027484352,0.03786375,0.041378193,-0.052984674,-0.041390475,0.027803816,0.024752807,-0.042395245,-0.027021846,0.020456588,-0.009113589,-0.041640982,0.048419107,-0.033056144,0.06608531,0.10112979,0.052950304,0.08544492,0.046200898,0.048155542,0.04213438,-0.039340932,-0.035909638,0.07261603,-0.053305227,0.025484687,0.005554338,-0.027810093,0.11807006,0.119427696,-0.06243747,-0.15138735,-0.06280909,0.1009098,0.02234908,0.060843114,0.11022634,-0.07996119,0.12950961,0.0028126189,0.042240966,-0.07437795,-0.046725452,0.03381364,0.04483636,-0.014439886,-0.051900063,0.12683953,0.06377519,0.022951446,-0.029937744,0.059949785,0.09655085,0.033073142,0.037793975,-0.050407365,-0.0068193753,0.023990197,0.04331026,-0.07035199,0.07804433,-0.071664385,0.09987342,0.081238,0.009547869,-0.019509502,0.07461881,-0.069066085,0.07081591,-0.00084552466,-0.07260791,0.031579915,0.038445126,0.023952756,-0.079682,0.102099106,0.05284296,0.06844743,-0.04879483,-0.08357284,0.16059545,-0.026582131,0.096985236,-0.027605364,0.034762967,0.028348682,-0.04534698,0.013665196,-0.09226943,0.09363592,-0.015994612,0.063703954
-0.007426521,-0.03689935,-0.09347339,0.11366506,-0.15298021,0.007500287,-0.09127541,0.078816295,-0.10357634,-0.08499025,0.008649534,-0.00865349,0.06791343,0.030132428,-0.06850715,-0.1381957,0.17377687,-0.07400541,-0.042619787,0.02951653,-0.024053534,-0.06829974,-0.07065682,-0.08857991,-0.031913266,0.013205236,-0.014317342,-0.06945064,-0.093224935,0.121986054,0.02677475,0.020385886,0.07823306,0.067728505,0.09139625,0.055594053,-0.019556168,0.040264916,0.08194218,-0.049370326,0.024857024,0.07577194,0.05686342,-0.041295588,0.02695561,0.0040869885,-0.09173091,0.058051784,-0.06738695,0.051922504,0.003595558,0.022263257,-0.0035791057,0.10616614,-0.053963784,-0.03932025,-0.054602675,0.06622537,0.07621845,-0.076946646,0.0152800055,0.052465666,-0.0055390443,-0.091658495,-0.032976467,-0.046005588,0.09975772,0.070734106,-0.044333816,-0.0693582,0.07094125,0.0153798945,-0.071188666,0.01929646,0.062016938,-0.017237904,0.04051166,-0.051015712,-0.049865298,0.016708752,-0.037641913,0.07734799,0.0073734177,-0.0247763,0.005091976,-0.17941524,-0.019993896,0.017620623,-0.10834454,-0.031255566,-0.07342897,-0.010084992,-0.017910587,-0.073152,0.06417031,0.06536877,-0.08140169,0.13698812,-0.07942259,-0.012005356,0.0832836,0.018928453,-0.026179476,-0.02433836,-0.034981273,0.05350263,0.09701668,0.043304544,-0.0075093135,0.07303492,0.07152713,-0.066534035,-0.012182662,0.14507829,-0.01291278,0.010935968,-0.10352517,-0.04001928,0.043503255,-0.06989574,0.042546906,0.06597958,-0.032581054,-0.07469785,0.018359954,-0.0977978,0.023761665,-7.788957e-05
0.017734371,-0.03854054,0.067008436,-0.0023107575,-0.075395584,0.030575454,-0.05514288,0.002658174,-0.044898216,0.05771017,0.048769876,0.06060914,-0.068358,-0.05919423,0.04921316,0.0695051,-0.067901894,-0.03542059,-0.121451855,-0.053054903,0.014417389,0.050208934,0.0056410693,0.0064547774,-0.045052312,0.08125893,0.048942972,0.060311906,-0.103269756,0.05528875,-0.021371095,0.008260061,-0.013525856,-0.064496264,0.06960238,-0.030785287,-0.07825849,-0.026238298,0.052952074,0.13652784,-0.00708867,0.061143536,-0.06150044,0.0012622329,-0.06554507,0.033960633,0.030419696,-0.057539143,-0.035199244,-0.026935615,0.015343,0.05928899,-0.046186857,-0.04144148,-0.07610966,0.08477822,-0.063549735,-0.051862955,-0.08988967,0.085938275,0.1418578,0.06423508,-0.04322331,0.09443135,0.07755953,-0.10597329,-0.012228118,0.027332485,0.010572367,0.04403312,0.012966671,0.08953971,-0.053115115,-0.015971359,-0.04005838,0.0753465,-0.018480364,0.0775138,-0.048034366,-0.06977713,-0.057433274,0.07140395,-0.057765298,0.0047130003,0.006990684,-0.059248958,-0.09123713,0.045605324,-0.024364885,-0.026701175,-0.0017694776,0.03715226,-0.014408476,0.026581736,-0.07919438,0.00731934,0.033075936,-0.058163114,0.0926943,-0.008413876,0.071651936,-0.07273497,-0.06994483,0.032126576,0.064253196,0.058093037,0.068414055,0.053343434,-0.03679393,-0.04749492,-0.09370317,0.089775346,0.09884584,0.011627039,-0.08534566,0.050033048,0.063442945,-0.0074962755,0.080590606,0.045059904,0.058616,0.06694001,0.10048347,0.043469355,0.07242275,0.053699832,0.061732702,0.11906391
