0.020677483,-0.1792987,0.18153013,0.103547275,-0.03582416,-0.10100711,0.26168388,-0.028842412,0.05203828,-0.053375375,0.048865147,0.09636074,-0.101949304,-0.017081821,-0.09255436,-0.07425209,0.08955469,0.0042013787,-0.11385344,-0.06735476,0.06342166,0.115093686,0.10723369,-0.10644812,-0.05303673,0.04161662,0.09116007,0.013046251,-0.06493404,0.03571597
0.2265588,0.12331619,-0.26464862,-0.02453469,0.07872758,-0.17424199,-0.16728404,-0.02726427,0.043005046,-0.02811733,-0.1910771,-0.12450554,-0.20411925,0.19470339,-0.036456704,-0.16886118,0.142909,-0.23339398,-0.33312562,0.067287885,0.14680253,0.19483338,0.20474909,-0.020511592,0.054211624,-0.20797999,0.26216528,-0.035240546,0.056683443,0.16603217
-0.021709343,0.12145033,0.105772026,-0.06402886,0.07410963,0.063228376,-0.07620873,0.0437923,-0.1545671,-0.10124731,0.2475384,-0.048095766,-0.12324977,0.03219187,0.071292415,-0.011011148,0.011374854,0.15500209,0.13083044,0.06523166,0.11392668,0.0123702455,-0.16560085,-0.010460947,0.05736181,0.08764552,0.00029198013,-0.005656137,0.016019873,0.07781099
-0.10486423,0.009493742,-0.09959631,0.010397483,0.023592891,-0.012876142,0.13190578,0.04090665,0.0031955908,0.08484573,-0.11048559,-0.032706037,-0.053474255,0.07807285,0.0076317377,0.018675536,0.21675217,0.32600382,-0.032171484,-0.030987676,0.003342259,0.0590219,-0.15428464,0.048182137,0.038366664,-0.0170198,-0.3061963,-0.0079040695,0.006132701,0.0009166191
-0.3151717,0.22035052,0.023992088,0.04194688,-0.27161625,0.018770628,0.12577373,0.0628802,0.15508865,0.028186115,-0.031770695,0.09049754,-0.11439465,0.122248225,-0.058826063,-0.036584284,0.16027682,-0.14883517,-0.17283943,-0.17643222,0.23591235,0.21959083,-0.27705786,0.02947681,-0.219708,0.066351414,-0.27363408,0.06381977,-0.25472426,-0.13178137
-0.05667729,0.061424818,-0.090038344,0.11029777,0.13092941,0.124343686,-0.11362839,0.18680954,-0.14070113,0.03292254,-0.15177496,0.018430155,0.016520953,-0.07849793,0.12519501,0.06106354,0.18747802,-0.13016318,0.10106151,0.03239315,-0.2008568,-0.14729078,-0.27496573,0.011986964,0.18389688,0.1275832,-0.013100117,-0.024712149,0.066371664,0.06620226
0.17718215,0.039115008,0.06841586,-0.026688352,-0.06362502,-0.06652753,0.19567189,-0.036302954,0.0733668,0.0056968746,0.33614674,-0.04229546,-0.01302772,0.07655881,0.0027767632,-0.048377287,-0.13400707,-0.041780517,0.0020445036,-0.03519431,0.030041704,-0.09221771,0.0771582,-0.009644016,0.041375834,0.113892525,-0.021261204,0.15652098,0.06418495,-0.060942266
0.15497392,0.13663673,0.119047076,0.10683613,-0.073674046,0.073768705,0.009566625,0.13761103,-0.003735055,0.017214343,0.06035347,-0.08397073,-0.022005476,0.28268608,0.10400502,0.20206873,0.05282559,-0.066132136,-0.076224566,-0.0095730545,-0.11427474,-0.04981095,-0.24554707,-0.09730549,0.0045791725,0.03298111,-0.010359662,-0.05269598,0.032313704,0.124690756
0.0056906985,-0.154207,-0.010433535,0.12704666,0.045075513,0.18401326,-0.036957048,0.20580898,-0.030824676,0.012946935,-0.15716392,0.025546031,-0.17115225,0.039037537,0.14386109,-0.06604961,0.121526234,-0.2374833,-0.014819051,-0.10621013,0.015968952,0.016157735,-0.20173432,-0.057979576,0.14918795,0.11056789,-0.07756579,-0.015369579,0.11759326,0.05769902
-0.0024111106,-0.010648869,-0.0026985793,0.00080150634,-0.000999735,-0.004813164,-0.0030907996,0.0025799598,-0.010107354,-0.0035160594,-0.0011362492,-0.005211419,-0.0033151559,-0.0046706283,-0.0038236,-0.0077447263,-0.00026129995,-0.0032836313,-0.0047543575,-0.0015996658,-0.007026361,0.0003404491,-0.007924273,-0.0045992057,-0.0061085895,-0.0006071785,-0.004275635,-0.0022055614,-0.002512348,-0.00039926017
-0.3313485,-0.04576452,-0.03006515,0.12116052,-0.09535101,0.037325952,-0.009814872,-0.06204631,-0.00378159,-0.2699693,-0.09757253,0.038027663,-0.11068093,0.049356878,0.03410865,-0.17523023,-0.011457714,-0.014876841,0.044350937,0.10773769,0.17261575,0.1587203,0.010451393,-0.23582216,-0.0044248207,0.037646074,0.00039608314,-0.007135483,-0.029866735,0.07546518
-0.14996327,-0.073684976,0.0053512855,0.06292848,-0.06868899,0.0292524,0.062474634,0.072819464,0.06278248,0.05525689,0.07767257,-0.054242365,0.11099312,0.17215346,0.013115809,0.04590334,-0.037434414,-0.07592942,0.014538973,0.068048246,-0.08346386,0.11313986,0.015001255,0.017570445,0.013959556,0.004424133,-0.212952,0.06812469,0.022982145,0.011712815
-0.06348596,-0.029216874,-0.019955292,-0.0982779,0.0023323183,-0.10521893,-0.029783435,0.058821764,0.00790126,0.047689993,0.13412921,-0.01510795,-0.1458119,0.20843653,0.0701098,-0.11588248,-0.03209408,0.13381489,-0.17817315,0.14238814,0.0706349,0.13375708,0.12145031,-0.21456707,0.14698887,0.023176584,0.120622784,-0.20513526,0.025138624,0.036129177
-0.24619998,-0.07073567,0.083572984,-0.020920973,-0.13262029,0.13626796,0.22880001,-0.1935745,0.09343906,0.1256945,0.25320518,0.12255197,0.14929909,-0.04662464,-0.10393741,-0.0738914,-0.086431794,0.22489813,-0.11437662,-0.17683867,0.050081022,0.10375722,-0.09637748,-0.019308086,-0.07877154,0.07866765,-0.37087056,0.16955665,-0.28218633,-0.117301926
-0.13158992,0.24596721,0.14140937,-0.025149526,-0.09118751,-0.09335872,-0.09684645,-0.11497209,-0.09059201,-0.026566152,0.05241991,0.051673107,0.018450001,-0.07264964,-0.1607229,0.08312127,-0.30517063,0.26506597,-0.04154831,0.03216109,0.05479777,0.030716559,0.060157236,-0.036927126,-0.056105066,0.009042204,0.03567841,0.10986868,-0.1206594,-0.08476971
-0.19068831,-0.048207052,0.054286987,0.11629708,-0.015560804,-0.0017418126,-0.020384282,-0.049310222,0.16497771,0.12723169,0.15061991,-0.0072834096,-0.10148474,-0.15118763,-0.06935617,-0.03706841,-0.047577012,0.25800455,0.005533037,-0.06697639,-0.07656171,-0.13284568,-0.10748517,0.060091194,-0.036099587,0.0811154,-0.03684814,0.10317221,-0.06469382,-0.17435864
0.026264928,-0.06948835,-0.10429064,-0.049636476,0.16812801,0.06738329,-0.034016848,0.14791796,-0.0040583448,-0.067248724,-0.012744974,-0.11483179,-0.070987724,0.060447894,0.15577428,0.06404935,-0.0026865534,0.05399916,0.030226793,0.1493094,0.2218839,0.21410854,-0.11737008,-0.15528248,-0.06987699,0.103264324,-0.086618945,0.13534482,-0.10103354,0.1142674
0.07791098,0.06740676,-0.025420817,0.12621687,0.11093263,0.112694375,-0.1956869,0.08200961,-0.00201542,0.014255394,-0.06710516,-0.049938023,-0.39014652,0.1827502,0.07448134,-0.02921683,0.052686956,-0.15456736,-0.013719832,0.17745589,-0.063085586,-0.10901685,0.07224318,-0.040830083,0.20192274,0.045616716,-0.118645504,0.10457916,0.17669848,0.1831146
-0.066527955,0.11919823,0.1639484,-0.2709215,0.09435362,-0.062430415,0.004060796,-0.056771252,-0.060030926,0.032837044,-0.23379101,-0.07868868,0.13207667,-0.033824116,0.034673795,-0.048550844,-0.06302505,0.07410013,0.064253986,0.076825105,-0.11371558,0.07056163,-0.019432163,0.016791577,0.100611344,0.007725331,-0.10755699,0.05714458,0.028148862,0.015841
0.014764146,-0.105755694,-0.012575386,0.11054052,-0.042100903,-0.13902737,-0.009809858,-0.09461411,0.1179268,-0.2360384,-0.21716611,0.13274778,-0.04635737,0.025353307,-0.1913156,-0.10041633,0.029163834,-0.026212849,-0.07205258,-0.03968241,0.0032371914,0.097786866,0.007872306,-0.1107555,-0.009678015,-0.012947609,0.19817482,0.091893695,0.012178341,-0.04755431
0.0945048,0.062327337,-0.099718556,-0.010540295,0.16715366,0.025283722,0.108758576,0.04562428,-0.13072643,0.069868125,0.17353545,-0.0040346244,0.082911104,-0.20124936,0.059745807,0.0008207539,-0.017932514,0.16093655,0.22180888,0.17708716,0.17554912,0.13222842,-0.07460228,0.046128623,0.082679205,0.032964874,-0.07641227,-0.07602308,0.14915411,0.11663607
0.010029769,0.08935316,0.2720613,0.14720412,-0.09966,-0.028362695,0.2390285,-0.05912576,0.32501823,0.20139022,0.21989973,-0.057627648,0.033029053,-0.07573809,-0.034782063,-0.054007303,-0.15686433,0.1500685,-0.003206509,-0.38811707,0.08485311,-0.16771862,-0.17493232,-0.28920862,-0.2523219,0.15891242,-0.15631409,0.26675445,-0.4648287,-0.45091477
-0.03551506,-0.015754132,-0.072909996,0.06366609,-0.044784315,-0.07175831,-0.1113852,-0.19909573,0.013899994,0.09946482,-0.024155188,0.21604526,-0.084352165,-0.14404537,-0.08857255,0.005213369,-0.008723301,-0.014207585,0.011115692,-0.16899627,-0.0020051082,-0.18812256,-0.139667,-0.07351464,0.09698195,0.031650793,0.020585168,0.20247014,-0.05187428,-0.16364074
-0.31799072,-0.08843697,-0.17173387,0.06374882,0.09893471,-0.15815818,-0.19349588,0.024360616,-0.019131495,0.0010336817,-0.20095208,0.2349318,-0.073632605,0.038300857,0.01728419,-0.16656485,-0.08956644,-0.017200038,-0.041147817,-0.063220784,0.06439542,0.099849254,-0.089602664,-0.0630868,0.098708265,0.12923467,-0.013007789,0.04325557,0.002230458,0.0062865377
0.060835294,0.023398645,-0.09402749,0.16105975,0.0376826,-0.1338913,-0.12599063,-0.08823837,0.07567852,-0.055684607,-0.30072948,0.04287838,-0.15594159,0.14284158,-0.052643996,-0.4028135,-0.09369162,-0.21736445,-0.38635153,-0.07181803,0.2015966,0.086979866,0.0075643235,-0.033892862,-0.03449877,-0.19194864,0.12906921,0.006771919,0.03969676,0.15834613
0.040766213,0.19532108,-0.14309402,-0.13053368,0.23959513,0.12558772,-0.07772953,0.2563128,0.00048327193,-0.1887412,-0.1035743,-0.14895529,0.012456961,0.11347229,0.26266465,-0.19266406,0.079094045,-0.016203202,-0.009673139,0.19348612,0.12459178,0.08908601,-0.29567394,0.018205207,0.12397184,0.08876401,-0.2039503,-0.076622516,0.14816467,0.10884444
-0.08432402,0.043146178,0.0065599014,0.13673674,0.17282614,0.049327012,-0.04007893,-0.050633326,0.12692405,-0.09477262,0.07428576,-0.056094687,-0.0070723044,-0.1202497,0.039182827,-0.09719292,0.078069136,-0.057178948,-0.016040811,-0.11068691,0.14486171,0.026656048,0.004762607,-0.18518038,-0.26290172,0.03199206,0.2677481,-0.025726536,-0.28883827,-0.036086556
0.05262335,0.031803515,-0.063240804,-0.056467403,-0.17424314,0.04957438,-0.20368277,-0.07873648,-0.03454902,0.10621839,-0.23268116,0.060092043,-0.0033553117,-0.041220672,-0.08924229,0.046403985,0.016393218,-0.11381958,-0.23081604,0.06964825,-0.120675065,-0.12256493,-0.1134677,0.15056273,0.1825547,-0.028382678,0.08020718,0.031517316,0.117479704,-0.024752062
-0.35876647,-0.0050031776,0.19788617,0.060026515,-0.0100683095,-0.009699903,0.02975569,-0.028685808,0.071393944,0.024745274,0.050630208,0.16356362,0.082841635,-0.14518775,-0.002554018,-0.019594375,-0.19630584,0.22978167,0.08235161,-0.08463735,0.11555846,-0.02662791,-0.2039177,-0.12621234,-0.15348855,0.08538538,-0.24158838,0.13483958,-0.16044535,-0.06287831
-0.05081725,-0.076011255,-0.03160529,-0.13029417,0.20402378,0.14823495,-0.033873834,0.27939317,-0.015561458,-0.20049816,-0.13830991,-0.01736135,0.03484575,0.073027946,0.23461866,0.06664204,0.11971306,-0.087771855,0.06013328,0.016901668,0.010117844,0.06738673,-0.56488055,0.059868485,0.08540794,0.15567505,-0.18441255,-0.035947435,0.12340354,0.12491685
