-0.04457575,0.0002590017,-0.029823216,-0.050484605,0.0546627,-0.05072918,-2.3787168e-05,-0.03237356,-0.011665465,-0.022943584,0.01730386,0.05781336,0.12887028,-0.032105874,0.047307976,-0.02720654,0.010738406,-0.040233508,5.6792874e-06,0.0023828533,0.17907448,0.008431897,-0.011644306,0.016154153,0.0104166195,-0.00989203,2.9508014e-05,-9.4379e-05,-0.016837966,-0.0070687244
-0.0035698279,1.0886153e-07,-0.0034447752,-0.0039910884,8.527576e-05,-0.0038116933,-1.0656423e-05,-0.0035779788,-0.0019117711,-0.0033507477,2.384838e-06,0.00012187809,-0.0029593226,-0.0033616768,2.5066767e-05,-0.0029944219,-0.0031633165,-0.0042470964,1.4911143e-06,-7.941314e-07,-0.0019904152,-0.0029477007,-0.0028292525,-3.1905016e-05,-0.0035148019,-0.00069571275,-2.1096395e-05,-9.192425e-06,-0.0024413848,-0.0028319547
0.0043503456,0.0011460959,-0.045160912,-0.04939743,-0.00661769,0.07946235,-0.0021086927,0.025167573,0.09317196,0.17403093,-0.03355878,-0.03352448,0.33252293,0.019948222,0.027236817,-0.016985534,0.14242703,0.02968792,-2.1582957e-05,-0.010581659,0.37203625,0.17768128,-0.05236337,-0.07721912,0.17918384,0.09435022,0.0020525563,-0.002125355,0.11086778,0.074754454
-0.015720926,0.0029938468,-0.08141002,-0.07165761,-0.08557448,0.2007546,-0.0018595777,0.039586257,0.22715174,0.15369563,-0.029112259,-0.108262934,0.13533163,0.066921,-0.05490367,0.061709415,0.21167548,0.13864285,3.114422e-05,-0.00895089,0.17865121,0.2540516,-0.061908867,-0.019422472,0.27273586,0.15250985,0.00025692454,0.0004447176,0.18650806,0.21843961
0.27520478,-0.0009460657,0.24899109,0.26923734,0.029049192,0.036913242,0.0012185192,0.2627187,-0.017934343,0.037536506,-0.012734508,0.006248661,0.037245613,0.24181667,0.028761977,0.22348985,0.05420672,0.10951466,2.7483768e-05,0.0042658374,-0.06597671,-0.012937703,0.2723679,-0.09042197,-0.001300037,0.0029804036,-0.00014030858,3.501752e-05,0.029695082,-0.019540451
0.21136664,-0.0011386729,0.2635875,0.27561077,0.049893208,-0.01498178,0.0012639384,0.2587695,-0.034055714,0.0036178136,-0.012072967,0.016588908,0.055873845,0.26318118,0.03835693,0.17164116,-0.0017512753,0.021392092,-5.704156e-06,0.005403845,-0.029482918,0.026767606,0.18527408,-0.09340747,-0.021221787,-0.010141066,-7.480254e-05,-3.7960646e-05,0.0164081,-0.0128252525
-0.12300084,0.001361529,-0.17384157,-0.19776878,-0.050260007,0.092952594,-0.00043334923,-0.182539,0.14591631,0.15922682,0.00821929,-0.03784129,0.022724131,-0.14976282,-0.042901773,-0.10837177,0.038373318,0.12928592,-1.50989035e-05,0.005117774,0.12894624,0.19303387,-0.13518532,0.15032093,0.029746985,0.081268825,5.6787377e-07,0.00015315467,0.056188148,0.14344338
0.13697515,0.00041688656,0.108973585,0.14639926,-0.086172104,0.2446434,0.0015522292,0.13810715,0.07135023,0.12936704,0.020632403,-0.07649176,-0.3380238,0.12872575,-0.0796471,0.09306025,0.0746306,0.25943798,-1.3056588e-05,0.0019384073,-0.50255215,0.06726761,0.09202435,0.044059444,0.096356735,0.098336235,-0.0021006807,0.0036813992,0.075934626,0.08482194
-0.0019397958,-3.7345297e-05,-0.0019760723,-0.0023610059,-0.00042745986,-0.0012013514,-6.9276655e-07,-0.0018748129,-0.0012074175,-0.0013756072,-2.5437046e-05,-0.0002977201,-0.002267578,-0.0017370803,-0.00060238654,-0.0016271384,-0.0013764863,-0.0005331028,-9.095432e-07,-3.9367177e-07,-0.0017914588,-0.0013895475,-0.0015437718,-0.00046991452,-0.0013101334,-0.0009251965,-1.3187316e-06,-9.688716e-07,-0.0011726806,-0.0012502131
0.032019317,-0.0010429078,0.061488178,0.02926591,0.16885266,-0.11590355,-0.00068301655,0.05325642,-0.015188302,-0.0014452356,-0.00014624391,0.18442601,0.4431153,0.042255558,0.17875051,0.07742931,-0.024326133,-0.14961046,-3.6697622e-06,0.0048672142,0.57908976,-0.02292438,0.06471753,-0.08632094,-0.041629937,-0.044091564,0.0020773262,-0.0039747483,0.057307493,-0.013132541
-0.08650893,0.00086732535,-0.15971063,-0.13611957,-0.09877412,0.13862035,-0.0019286184,-0.09757641,0.18534386,0.20374146,-0.022285705,-0.10838143,0.11385445,-0.07959776,-0.061852545,-0.0717327,0.26280725,0.13518927,1.9036423e-05,-0.0072563193,0.23617417,0.24470282,-0.13205096,0.018239954,0.24219505,0.07187459,0.00071018486,-0.00011563414,0.10974151,0.2469428
-0.00872801,0.0011936806,-0.03786398,-0.07783571,-4.345126e-06,0.11943135,-0.0020346183,-0.0048369053,0.16137026,0.064873405,-0.029357582,-0.0255971,0.22768503,-0.0025307697,0.031999383,-0.010936575,0.22290367,0.14522809,-2.9469657e-05,-0.00949582,0.2873444,0.16845848,-0.01469903,-0.03433433,0.14745384,0.11155746,0.0013326545,-0.0007948919,0.12975909,0.1409796
0.3337896,-0.00081054965,0.32228526,0.37690967,0.02537609,0.10279574,0.0016468277,0.2478695,-0.0026420464,0.04398419,-0.011322919,-0.0012079038,0.0067493045,0.3033534,0.019842636,0.31854987,0.0022968901,0.15673772,-1.5416175e-05,0.0043822895,-0.13760257,-0.028743483,0.27775854,-0.094614856,-0.041464712,-0.01685783,-0.00092018896,0.000443031,0.07513756,0.009186095
-0.0020549647,2.99364e-06,-0.0017049923,-0.0027860254,-2.0419457e-05,-0.00407887,5.202221e-07,-0.002106016,-0.0021835782,-0.0033438862,-5.3622516e-05,-8.14678e-05,-0.0013990715,-0.0017432052,0.00014565811,-0.0012643883,-0.0036005925,-0.0049306876,-1.2236032e-06,1.2497549e-06,-0.0012508435,-0.0033127805,-0.0007469299,-9.8571036e-05,-0.0039660274,-0.0006920341,-1.5329736e-06,-3.977758e-07,-0.001968898,-0.0031226515
0.072333805,-0.0016404937,0.11225145,0.075830564,0.23817784,-0.14948586,-0.0002682221,0.06245735,-0.043683626,0.011587372,0.00436909,0.23139822,0.40226477,0.06947054,0.20839944,0.108181484,-0.064121336,-0.13133578,-2.1818014e-06,0.006485504,0.46892297,-0.061092407,0.087581284,-0.07946335,-0.08573937,-0.058130547,0.0014111747,-0.0036344873,0.072133884,-0.03987549
0.109388046,0.0018565943,0.07228779,0.1540489,-0.073411554,0.23547049,0.0006510979,0.10976028,0.19725531,0.14378275,0.007384847,-0.09923249,-0.26131734,0.03514502,-0.09138517,0.031014312,0.2523301,0.3179414,1.6813694e-06,-0.0039288276,-0.3615567,0.23477185,-0.048255183,0.037036788,0.26413208,0.20964909,-0.0017197374,0.0036996615,0.13866132,0.22415936
-0.0026557972,-3.822894e-06,-0.0024490508,-0.0040635224,0.00019259752,-0.004046157,2.963277e-07,-0.002605497,-0.0019745724,-0.003019468,-8.592656e-08,0.00028917962,-0.0048408923,-0.0021450655,-3.787059e-05,-0.0017541681,-0.0028329566,-0.0057351626,-2.26e-42,-5.439202e-07,-0.005384639,-0.0025491952,-0.0014232049,1.3028674e-05,-0.0033034566,-0.0023332331,2.6796502e-07,1.1559242e-06,-0.0020882562,-0.0023678264
0.27957687,-0.0019621816,0.27199787,0.29532248,0.074857116,0.0007413794,0.0013883798,0.29817107,-0.03146238,0.00426373,-0.0113057615,0.04342601,0.073299944,0.22734559,0.064008676,0.23276381,-0.03396693,0.03175022,-3.3828608e-05,0.0057047424,-0.0045540594,-0.030414728,0.28750253,-0.12537423,-0.034490623,-0.020350304,-8.176789e-05,-0.00031963532,-0.013171916,-0.0652097
0.004941808,0.0013188262,0.01750516,0.0055255406,-0.019973798,0.14668043,-0.0023021768,-0.073172264,0.12144463,0.2199279,-0.034037046,-0.051226955,0.2689941,-0.0401855,0.016270654,-0.02694069,0.25372547,0.08830555,2.5374293e-06,-0.009578042,0.33689335,0.16737752,-0.0955224,-0.039642,0.22442596,0.15902828,0.0014607314,-0.0007396265,0.16874087,0.26387295
0.053863868,-0.0013041855,0.117420256,0.077872284,0.16070199,-0.14071739,-0.00051399594,-0.012125013,-0.019510752,0.0060054823,-3.1336007e-05,0.17249589,0.37790146,0.05702204,0.14091057,0.09989011,-0.029388169,-0.1975111,-8.72553e-06,0.0059672,0.4691454,-0.025673008,0.08488012,-0.09132602,-0.051634192,-0.044090692,0.0014629161,-0.0035222631,0.051023476,-0.0205795
-0.10269091,-9.771543e-05,-0.12959647,-0.18180577,-0.0032845694,0.0045710444,2.5126503e-05,-0.15058964,0.10853577,0.027087808,0.016294796,0.01077589,0.019942477,-0.08920621,-0.008757343,-0.09249684,0.0733605,-0.006270708,-7.437265e-06,0.0020596464,0.16682312,0.058021005,-0.09670239,0.07175025,0.0045388034,0.029063845,5.6392537e-06,-3.8800186e-05,-0.0022177768,0.07286519
-0.08544788,0.0012649292,-0.080633715,-0.083862565,-0.09205667,0.1467927,-0.00076969725,-0.02526018,0.12568636,0.09544989,-0.013654471,-0.09834257,0.05390991,-0.07726588,-0.06556146,-0.07048801,0.20238517,0.11632288,-2.6498126e-05,-0.008709738,0.14030191,0.17027873,-0.11935459,0.013696353,0.16048671,0.10558716,-0.00011083613,-3.4872974e-05,0.08838901,0.14371686
0.09139789,-0.0014738764,0.10142042,0.09793018,0.20175713,-0.12815423,-0.00040000895,0.019204326,-0.033675816,0.02473951,0.0026584687,0.20645155,0.4182561,0.07559688,0.17587934,0.08544243,-0.051077463,-0.19733544,-2.1873684e-06,0.0066833105,0.4918737,-0.047736704,0.09253767,-0.08700347,-0.06771196,-0.05277295,0.0016276878,-0.0037116583,0.078503475,-0.026871707
-0.003443922,1.8207907e-06,-0.0027395962,-0.0037418283,0.000107568485,-0.0052975384,6.3587646e-07,-0.0035906874,-0.0029719986,-0.0048886794,6.740502e-05,0.00020108809,-0.00041091067,-0.0032975224,-6.532197e-05,-0.0029154893,-0.0039657396,-0.0057294387,-1.7035486e-06,-7.713494e-06,0.00073031284,-0.0038163345,-0.0016721047,-0.00010507517,-0.004421279,-0.0022413346,1.8635303e-07,-1.7408871e-06,-0.004215032,-0.0038302625
-0.003380217,-2.0818355e-08,-0.0032645955,-0.0038236522,0.00010721935,-0.0035036192,1.1569461e-05,-0.0033882463,-0.0015225097,-0.0029656163,1.4309632e-06,0.00012137472,-0.0026183373,-0.003164948,7.436902e-05,-0.0027856599,-0.0027221804,-0.0039738044,8.89556e-07,5.335532e-07,-0.0016520293,-0.0025124985,-0.002646306,-3.080449e-05,-0.0030713363,-0.00042857276,-9.12745e-06,-5.460488e-06,-0.002040809,-0.002396436
-0.037164044,-0.00012760265,-0.029306933,-0.052140836,0.07116801,0.01998606,-0.0016032505,-0.023749484,0.0613493,0.07780553,-0.03258812,0.057630118,0.3656931,-0.02913081,0.1049736,-0.008959968,0.088134535,0.009961909,1.356957e-05,-0.0085091945,0.56691545,0.089999296,-0.018485842,-0.12099522,0.08987804,0.026888223,0.0026853224,-0.004133348,0.07138857,0.07517979
-0.0023525264,1.5680084e-06,-0.0022818171,-0.0029109688,7.838314e-05,-0.0025527973,-2.0844029e-05,-0.0023525176,-0.0011818444,-0.0020634483,-8.33133e-06,-1.5330852e-05,-0.0020390402,-0.0021018952,0.00013107358,-0.0017212784,-0.0020751175,-0.0030209713,-4.618214e-08,-8.467027e-07,-0.0017736634,-0.0019200871,-0.0015959468,2.3558869e-05,-0.002280879,-0.00023603687,-6.3093453e-06,4.908399e-06,-0.0011789225,-0.0017787298
-0.00043773343,-1.4567826e-06,-0.00040756317,-0.000805301,-6.520897e-05,-0.0003557114,-9.987986e-06,-0.00043787167,8.875175e-05,-0.00016546105,-6.991207e-06,-1.9325516e-05,-0.0003803863,-0.0003066953,-6.679818e-05,-0.00013282464,-0.00012900333,-0.00064460543,4.4744795e-07,-5.5499856e-07,-0.00028462816,-7.354174e-05,-9.7803306e-05,2.749056e-05,-0.0002183474,6.4567585e-06,-1.0047315e-06,3.4564966e-06,6.225857e-05,-2.5101066e-05
0.06755694,0.002393888,0.013628522,0.15932353,-0.07614815,0.22596763,0.00046365915,0.0953584,0.2159948,0.20125277,0.0023648064,-0.11352668,-0.1971346,0.0528787,-0.081405215,0.030203762,0.27997786,0.28491127,2.2956833e-06,-0.0055144685,-0.25970238,0.2713894,-0.0065015685,0.018671704,0.28876513,0.19188428,-0.0013758754,0.0035420528,0.09041758,0.17791346
0.3546915,-0.0007712112,0.33505192,0.381766,0.012031399,0.064677104,0.0009886719,0.32099098,0.015309068,0.03621962,-0.021616384,-0.017878799,0.035000715,0.35073858,0.016194556,0.28028095,-0.01945027,0.04278593,1.4466808e-05,0.0010512988,-0.08509994,0.01661838,0.28110656,-0.14158472,0.013549838,-0.011338466,1.789379e-05,-2.481779e-06,0.037826173,0.007660217
