-0.04402422,0.0010766867,0.1900981,0.25273475,0.06698353,0.022815913,0.065261856,0.08009071,-0.0021321748,-0.054327875,0.24531238,0.19665821,0.069114365,-2.9948307e-05,-0.08832183,0.20235735,0.00040076097,-0.017645096,0.22209789,-0.054827027,0.0027795837,0.15512876,-0.05862199,0.0012860266,0.0009957752,0.13969189,1.7066828e-05,-8.815897e-05,0.20610307,0.06851052
0.10965686,-0.00013718106,0.09960555,0.056165382,-0.11067753,-0.08114905,0.070210665,-0.15409908,0.0019204826,0.1880086,0.11515477,0.07159256,-0.13432968,-0.00022249752,0.11671451,-0.063151434,-0.0010975298,-0.083473526,0.11711506,0.1473803,0.03561044,0.05544824,0.12825286,0.0011143431,-0.00013853154,0.16616523,-0.00013351245,-4.9485505e-05,-0.021176647,-0.13676336
0.047480635,-0.0031073971,-0.03192726,-0.072610594,0.08999077,0.09760889,-0.07446625,0.020432347,0.0027076837,0.21376503,-0.07675065,-0.057820555,0.122544475,-0.0001446296,0.25175735,-0.10809997,-0.000118127515,0.14488049,-0.06579365,0.20139678,-0.019337496,-0.069725074,0.21263343,-0.0005599363,-0.0030710597,0.08040908,0.00067870575,0.00031957414,-0.129593,0.091798745
0.0070907646,-0.0010793657,-0.056454465,-0.094603,0.136201,0.13793382,-0.11539989,0.07796848,-0.0012999739,0.12477904,-0.07131479,-0.045805477,0.17452452,0.00066498696,0.17393388,-0.0126786865,0.000781716,0.19608045,-0.0429161,0.120155334,-0.015032791,-0.067126706,0.16966127,-0.000927714,-0.0009604835,-0.0018689685,-0.00041877897,-4.1786378e-05,0.014105569,0.13565005
-0.027637579,0.00085765513,-0.07051361,0.043408543,0.29788882,0.29898632,-0.085849196,0.1881769,-8.414616e-06,0.0017779025,-0.046687286,-0.07829136,0.34228316,0.002364968,0.044440106,0.16531208,-0.00060104503,0.2735022,0.042495422,0.047032066,0.011257113,0.025437215,0.053603727,-0.00034727002,0.0010679519,-0.016878745,-0.003989132,-0.003480894,0.054668795,0.34519383
-0.06159664,0.0008533954,0.17455891,0.18034032,0.047072172,0.058579877,-0.015273186,0.06796769,-0.0029701183,-0.054666143,0.20801656,0.17502868,0.058562394,-6.162159e-05,-0.062189583,0.17382875,0.0012386256,-0.055416077,0.2448279,-0.026090378,-0.02262555,0.12934338,-0.060100246,5.8075355e-05,0.0007555277,0.110030875,6.0236143e-05,-0.00012612806,0.21784517,0.08434418
0.11442558,-0.0043770107,0.21196648,0.011684563,0.09595254,0.11831019,-0.06198003,-0.13699257,0.0011537621,0.37700078,0.14371677,0.17004319,0.091567285,0.0005106434,0.38695318,-0.2827979,0.0012629231,0.05426587,0.16367982,0.28985095,-0.0044102413,0.05566557,0.35697964,9.0522204e-05,-0.0045424527,0.38653186,0.004771288,0.0045065675,-0.28413272,0.06768988
-0.05285331,-0.00042093694,-0.028487796,-0.053500034,0.2473384,0.28500554,-0.1263145,0.1573199,-0.0017482835,0.06507079,-0.01939091,-0.04438887,0.36842138,0.002063908,0.10211582,0.06981486,0.002661773,0.33556625,-0.011897374,0.09154046,-0.080306016,-0.011031195,0.08629778,-0.001856858,-0.00028157182,-0.015040217,-0.0021567037,-0.001587325,0.08302275,0.28720924
0.13626038,-0.0014747041,0.07225248,0.039644722,-0.15026568,-0.095750734,0.089898825,-0.19056357,0.002263237,0.288528,0.13692763,0.0880919,-0.18945664,-0.00027930408,0.168316,-0.06792452,-0.001515685,-0.1120194,0.12023925,0.21325405,0.091394395,0.049862906,0.18022735,0.00182003,-0.0015041785,0.19369975,0.0008921112,0.00034430568,0.016922241,-0.13310705
-0.0041705705,-0.0015105903,-0.031140737,-0.062042113,0.14807248,0.19426888,-0.1353461,0.026509214,-0.0018929773,0.15928645,-0.09254992,-0.043839566,0.253202,0.0010131957,0.15881911,-0.011749016,0.0021024274,0.246671,-0.08095851,0.15127924,-0.06308502,-0.053666838,0.16632076,-0.0027952672,-0.0013953444,0.0128910635,-0.00019878552,8.8831184e-05,-0.0034109352,0.10545107
0.050471988,3.685618e-05,0.13164087,0.18506062,-0.07283256,-0.07896457,0.1374041,-0.029986456,0.0009229086,0.11013178,0.16261545,0.13232684,-0.08784501,-0.0016927093,0.08895254,-0.013277806,-0.0012861752,-0.08679404,0.15611792,0.09313555,0.036169343,0.11982813,0.09473133,0.002256406,1.4918716e-05,0.10852353,0.0012886235,0.0006254265,0.09099329,-0.049551353
0.08787322,6.9255446e-05,0.08936993,0.04949705,-0.09452367,-0.07381762,0.0719523,-0.13106191,0.001953785,0.14357513,0.06868831,0.08467347,-0.11954004,7.5445365e-05,0.09178317,-0.03084682,-0.0009295508,-0.07711188,0.10692164,0.11652263,0.028806297,0.05047902,0.1012428,0.00061195646,7.070288e-05,0.14055261,5.5373275e-05,3.96342e-05,-0.022475092,-0.11673456
-0.019308481,0.0008811976,0.1237506,0.12899037,-0.0421108,0.012323653,0.0872477,-0.0006544751,-0.00085371453,-0.019229168,0.20628482,0.11980193,0.039082866,0.00011886703,-0.038195588,0.08910312,0.00036758234,-0.03942069,0.15857975,-0.052090347,0.008147245,0.12933865,-0.049228016,0.0016061664,0.0007914416,0.090083934,4.249524e-05,-0.0001208927,0.17313007,0.050655138
3.3938664e-05,-9.898876e-06,-0.0029233892,-0.0035628607,-0.0037343104,-0.0033702934,9.507089e-05,-0.0023981233,-8.660478e-07,-0.0017430302,-0.00274949,-0.0029784327,-0.004121453,3.426393e-07,-0.0014703454,-0.0036486767,1.2099531e-06,-0.003584117,-0.0035308625,-0.0012913682,4.4007542e-05,-0.0018161681,-0.0015184849,-4.6736704e-07,-6.4975684e-06,-0.0024474852,-2.2350318e-05,2.0559712e-05,-0.003784155,-0.004131218
-1.7008635e-05,2.5254832e-07,-0.00021993935,-0.0006411006,-0.0010469006,-0.00071469106,9.443637e-06,5.4122615e-05,1.6281438e-06,7.830702e-05,-4.309287e-05,-0.00019990969,-0.0015409422,1.4187666e-06,9.582684e-05,-0.000510654,-1.7988184e-06,-0.00097360846,-0.0007185414,0.000115453724,-1.1149389e-05,0.000121424055,9.64256e-05,-1.4158704e-07,-4.2937095e-06,-5.8722584e-05,5.9369945e-06,3.6437664e-06,-0.0006718395,-0.0015923791
0.0002394559,-1.0817083e-06,-0.0015449047,-0.0015176932,-0.004148987,-0.003655964,0.00033444242,-0.002881195,-1.5818347e-06,-0.0027524224,-0.00051562133,-0.0010438705,-0.004583688,9.795517e-07,-0.0025863412,-0.0026512595,4.328598e-07,-0.0036337606,-0.0019602752,-0.0026113328,6.338732e-05,0.0007231304,-0.002679307,3.1993073e-05,1.1682323e-06,-0.0019673435,-1.1057473e-06,-1.694531e-06,-0.002821871,-0.0046395077
-0.057390854,0.0022314535,-0.038322523,0.046829388,0.17075248,0.10431151,0.027319685,0.40751117,-0.00033459757,-0.21375766,0.021697419,0.008455054,0.1952075,0.0017935571,-0.15187332,0.38693905,-0.0011215936,0.16934942,0.0022033097,-0.16370536,0.054341048,0.05873643,-0.19882697,0.001540199,0.002441373,-0.11240555,-0.0037641318,-0.0033361868,0.392767,0.10997799
3.461399e-05,-8.45619e-07,-6.8410814e-06,-8.584614e-05,-5.34457e-05,0.00014971197,-7.291519e-05,0.00019822751,5.945126e-07,-8.244479e-05,-3.759068e-05,-1.0907894e-05,-0.0003034295,-8.469029e-07,-0.00014952345,-0.00019144635,1.8334423e-07,7.707342e-05,-6.145109e-05,-0.00014902004,4.021793e-05,5.2404823e-05,-0.00013802909,-2.725288e-07,-8.4199763e-07,4.0031115e-05,7.642677e-07,-1.07127505e-07,-0.00021703077,-0.00029711178
-0.051614404,0.0033029679,-0.066948816,0.023670169,0.16248518,0.13773334,0.0010539421,0.3799943,-0.0022648156,-0.24462396,-0.043718476,-0.015052769,0.1656262,0.0022920303,-0.15152882,0.2683407,0.00021625905,0.057784192,-0.040614597,-0.15886907,0.009262293,0.019985974,-0.1854604,0.0008439243,0.003529165,-0.17138036,-0.004431538,-0.004103378,0.26101327,0.15260044
0.10586135,-0.0043491907,0.19598629,0.002457113,0.08229535,0.044263326,-0.0652474,-0.12998651,0.0010144977,0.3903503,0.11805294,0.15151156,-0.01761101,0.0006093172,0.3293788,-0.21532899,0.0014860247,0.118885115,0.14161737,0.3402612,-0.007868686,0.040977452,0.3773046,-0.00035355863,-0.004519541,0.37007794,0.004734276,0.0044491882,-0.22654851,0.09533148
-0.06529253,0.0018675381,0.123053215,0.23909578,0.07768742,-0.02122684,0.051117998,0.14314577,-0.003531145,-0.06761291,0.1706005,0.12756646,0.10756272,-0.00013332511,-0.089537464,0.2007226,0.0005559814,0.061795596,0.1183616,-0.045081753,-0.036884815,0.14422102,-0.08777993,0.0017695489,0.0018597683,0.068369456,-0.0005062036,-0.00018329365,0.28014717,0.16436148
-1.609807e-05,6.28638e-06,-0.00046371308,-0.0010454556,-0.0010996931,-0.0007225436,-4.9762024e-05,-9.05139e-05,-1.1651423e-06,7.682713e-05,-0.00039556518,-0.00051314017,-0.0015837,6.54846e-07,0.00010914403,-0.0010662659,1.409737e-06,-0.00093897857,-0.0010225656,0.00011391664,3.395733e-06,4.0758474e-05,0.00010407571,1.1930794e-06,2.424678e-06,-0.00016238436,-6.5104773e-06,1.0027228e-05,-0.0012246205,-0.0016136556
0.047990665,0.0023961307,0.14954272,0.24440348,-0.14823979,-0.17529193,0.22109257,-0.02123206,0.002351843,-0.04659136,0.29326734,0.13341856,-0.16460744,-0.0026455233,-0.08910801,0.17269364,-0.0026501063,-0.22542956,0.20116277,-0.06150378,0.09703407,0.19205856,-0.0753322,0.0025440457,0.002347761,0.060494956,-0.00067538663,-5.8862403e-05,0.0121986745,-0.21478868
-0.025145106,-2.5743566e-05,0.20838992,0.24613047,-0.00594151,-0.026151521,0.03265163,-0.019581122,-0.0031400288,0.022249434,0.16528298,0.15412647,0.038021736,-0.00030636857,-0.020947248,0.13042772,0.001973885,0.018269612,0.24839367,-0.0058417236,-0.02512776,0.11844895,-0.012889854,-0.0007753697,-0.00012330689,0.16736619,0.002167917,0.0014219395,0.10080406,-0.069682926
-0.05082651,0.001972184,0.1008566,0.19883911,0.09496241,0.10215754,0.07329563,0.13969082,-0.0010065212,-0.076666765,0.11870465,0.099092685,0.052325204,1.7300912e-05,-0.088111624,0.2925785,-0.00017996767,0.03675203,0.13039716,-0.06720731,0.014312502,0.101923786,-0.067450024,0.0017019672,0.00201221,0.04987313,-0.0014950938,-0.0009076227,0.24334963,0.057077374
-0.00063581107,-0.0009583676,0.23527852,0.2541055,-0.010542681,-0.052355167,0.04039054,-0.05747184,-0.0029414687,0.11008237,0.2663427,0.22037387,-0.039763708,0.0004902031,-0.053114902,0.062085394,0.0035058835,-0.03317764,0.25932455,0.04758505,-0.013197922,0.19812176,-0.010152243,-0.0025447102,-0.0011782361,0.22972113,0.0041996897,0.003605011,0.15183511,0.020259505
0.11382812,-0.00026771458,0.10123043,0.077292964,-0.108986266,-0.07709665,0.06916567,-0.1625333,0.002107765,0.19753887,0.0914201,0.079652086,-0.14106467,-0.00029248526,0.12200036,-0.057707198,-0.0012494206,-0.07790581,0.08437142,0.15741552,0.046963062,0.05894588,0.13420278,0.001225633,-0.00026957295,0.16836491,-0.000103291604,-0.00010452416,-0.009047793,-0.14578184
0.05272466,0.003683478,0.11544643,0.1973748,-0.15066831,-0.20661357,0.33280432,-0.014263719,0.003063177,-0.07859776,0.28102294,0.2246857,-0.21622923,-0.0035520368,-0.12071474,0.18446693,-0.0028139644,-0.28363624,0.26361552,-0.09141074,0.1242932,0.21800216,-0.10552366,0.0027689317,0.0036298262,0.0672265,-0.002116244,-0.0011176659,0.19934015,-0.24448651
-0.0002787008,-1.4056608e-06,-0.0009140872,-0.0019920648,-0.007604955,-0.0072619324,0.00033302358,-0.0048024254,5.1460214e-05,-0.0028703988,0.0004959748,-0.0010825063,-0.0083740465,9.993694e-05,-0.0040528285,-0.0044840924,-1.6818851e-06,-0.007764569,-0.0015648918,-0.0035635685,-0.00027374233,0.0003414694,-0.0038013402,0.00025585716,-8.267766e-07,-0.00031088383,-1.2463596e-06,1.4241416e-06,-0.004368231,-0.008391585
-0.052535973,0.0001852508,0.21476716,0.27789575,0.012242277,0.01112646,-0.008107798,0.032684054,-0.00428944,0.0016532696,0.19895793,0.1659778,0.03256224,-0.0002709733,-0.03167723,0.12591676,0.002173231,-0.008880083,0.259247,-0.019138472,-0.054932155,0.14427742,-0.03035051,-0.0010175044,9.112987e-05,0.16744645,0.0017441834,0.0009306193,0.18927638,0.087283336
