-0.051130794,-0.053904776,-0.07637541,-0.06916084,0.03371025,-0.022725921,-0.040352758,0.013161073,0.007623876,0.111298114,-0.005596091,-0.09225807,-0.098039754,0.0046715937,0.013636663,0.052025653,0.052532464,-0.0036895704,-0.02194735,0.114394136,-0.051989727,0.005010821,-0.10785139,-0.0832221,0.09550331,-0.054665584,0.06840631,-0.021245806,-0.07560153,-0.05248046,-0.04641844,-0.066457175,-0.065769054,0.042169433,0.03390248,-0.018680718,-0.056565672,0.008895874,-0.06001039,-0.029600278,-0.084750466,-0.046253216,0.041846953,-0.034091845,0.0059442525,0.052397814,0.017051289,3.7771417e-05,-0.05071674,-0.03594974,-0.1573455,-0.07606315,-0.03221687,-0.12119141,-0.11166372,-0.15690045,-0.013307038,-0.026644757,0.04320627,-0.040612556,-0.0018090124,0.11215911,-0.0562929,-0.059037637,-0.066553906,-0.080748804,-0.006296068,-0.057954263,-0.04119305,-0.12545522,-0.076647826,-0.078337856,-0.0043121893,0.001554186,0.00014812898,0.0722374,-0.0072089494,-0.05722979,-0.08164183,0.0091513395,-0.07677297,0.0035963214,-0.05536773,0.016406251,-0.016623756,-0.097906865,0.050921842,-0.0044937893,0.025623504,-0.013823874,-0.053044874,0.060191944,-0.05782571,0.05073545,-0.07863289,0.03256935,-0.036949772,-0.044620242,-0.04177354,-0.116877094,0.0114801815,-0.03334438,0.08314742,-0.10764272,-0.030345984,-0.06542529,0.024132663,0.09329609,-0.014808656,0.022775384,-0.07726549,-0.08835677,-0.08656358,0.091953695,-0.076908134,-0.05407688,-0.016989022,-0.07886951,-0.045477886,-0.024820624,-0.07114618,-0.024625061,-0.099994436,-0.0964581,-0.007254276,0.045783553,0.014127713,-0.0692721,-0.09599739,-0.015948128,0.013367564,-0.03696407,-0.012684711,0.007036465,0.051649857,0.05105233,-0.01479503,-0.0027558883,-0.034386113,-0.0684182,0.013595029,-0.034529626,-0.009366238,0.028317777,0.05186181,0.1788942,-0.08405296,-0.06746406,-0.11436615,0.08692237,0.0020533393,-0.079925045,-0.07471454,0.007391953,-0.14047407,0.088784985,0.120022506,-0.07099784,0.03142182,-0.086439945,-0.062746644,-0.101609446,-0.07274392,-0.09092189,-0.04260201,-0.024818623,-0.10020493,0.08801293,-0.023981867,-0.025030889,-0.08373986,-0.061546408,0.041719925,-0.05734528,-0.08839211,-0.07392447,0.05566619,-0.034619734,0.055453435,-0.04569898,-0.17053406,-0.077986136,-0.005987899,-0.011373415,0.054631695,-0.07810002,-0.06459881,-0.059872523,-0.07912387,-0.08968633,0.0613148,-0.053224307,-0.041366853,-0.0046356753,-0.06891215,-0.00822014,0.08219425,-0.080405325,0.025258686,-0.03673963,0.014481621,0.012821971,-0.06502778,-0.05556527,-0.058997773,-0.088199854,-0.026392642,-0.08381669,0.04369029,-0.0824084,-0.03426192,-0.020338949,0.032291338,-0.06500403,-0.07198944,-0.04390666,0.0873412,-0.0734086,-0.060828447,-0.03158954,-0.053145956,-0.061816465,-0.03823161,0.04548324,-0.06891551,-0.013938237,-0.04459978,-0.05348966,-0.08671216,-0.116012745,-0.053116895,-0.0913836,0.024365107,0.11766171,-0.09319606,-0.12969951,-0.01128676,0.012027686,-0.08015412,-0.080442645,0.07879663,-0.071298316,-0.035096966,-0.0027079328,0.09552246,-0.0021088736,0.09930157,-0.012943776,-0.03198192,0.128056,0.02009519,-0.0842064,-0.023054663,0.07102127,-0.06424936,-0.06647048,-0.08331042,-0.062126677,-0.036264967,-0.10742001,0.05992767,-0.024783654,-0.11424645,-0.08721757,-0.14001812,-0.057653893,0.06414757,0.003162433,-0.023524173,0.0025759055,0.116407916,-0.097138,-0.09343275,0.09262639,-0.07483645,-0.016136967,-0.0687456,-0.04480723,-0.08121313,-0.07621656,-0.08258272,-0.0744514,0.062931195,0.10241622,0.0061338595,-0.027681679,0.059174508,0.08462657,0.10757909,-0.06769337,-0.066992916,-0.05901653,-0.05459155,-0.052298296,-0.11563046,-0.02278482,-0.021919617,0.05610386,-0.0531771,-0.09952449,-0.006485816,-0.03583766,0.024363039,0.0661763,0.045247007,-0.07194128,-0.108567975,-0.07839149,-0.1055988,0.015061683,0.043639675,0.10122386,-0.08292186,-0.046772808,-0.019521443,-0.06613198,0.1301728,-0.052611224,-0.030457484,-0.044567965,-0.09083825,0.105097644,-0.059202727,-0.0638292,-0.003390439,-0.057198815,-0.089569665,-0.045795128,0.0018320628,0.040200397,-0.03554706,-0.09614094,-0.08244735,-0.046459686,-0.012437855,-0.03973968,-0.06307365,0.012769912,-0.06902266,-0.09273441,0.03146017,0.026824629,-0.053312723,-0.0953787,0.064020306,-0.0648901,-0.07725085,0.047180865,0.09876982,-0.09403908,0.012839783,0.016847672,0.059308127,0.04692261,-0.084083594,-0.044531517,-0.010564859,0.0156063065,0.080315,0.041117247,0.009109761,-0.095942214,-0.12492789,-0.039746195,0.12000349,-0.06332545,0.10665282,-0.02687192,-0.10302901,-0.0032459623,-0.022000577,-0.156725,0.15005426,0.069334775,0.026504563,-0.077060446,0.035022993,0.064500935,-0.016980708,-0.04772535,-0.07805461,-0.069042265,-0.023069037,0.009307081,0.034797195,-0.068710625,0.029613828,0.14947817,0.055190057,0.11395134,-0.0298098,-0.09081536,-0.071112804,-0.08579543,-0.07089811,0.054922618,0.004309396,-0.1151637,-0.030848972,-0.12019243,-0.047780655,-0.025777323,-0.13266428,0.023473326,-0.01789541,-0.01561056,-0.13627873,-0.07109456,-0.045410503,-0.09576951,-0.043259222,0.030688327,-0.016181258,0.004932169,-0.09546712,-0.07261353,0.15013574,-0.098192126,-0.052373547,0.061992537,0.12147714,0.07083984,-0.11363141,0.049781177,-0.05135325,0.031997114,-0.019477637,-0.03823169,0.070568465,-0.036149945,0.08357886,-0.106741466,-0.022316454,0.0025233377,0.02525118,-0.0549839,0.058075044,-0.16885954,-0.109436154,-0.031883962,-0.060190868,-0.106809795,-0.03511036,0.0531312,-0.04432497,-0.05705771,-0.070900686,0.01447364,-0.04359355,-0.023121025,-0.07665316,0.043402646,0.06639592,-0.15598541,-0.03174478,0.011337966,-0.07822368,0.07971682,-0.015066656,-0.08088078,-0.029050604,-0.11111018,-0.11470914,-0.07681544,-0.060165774,-0.04084129,-0.050966337,0.06953549,0.016430447,0.018882751,-0.043150324,-0.03740794,-0.106846936,-0.015750106,0.04458533,0.11157663,-0.032429807,-0.10322942,-0.051212773,0.087186575,0.028374083,-0.051273108,-0.08693487,-0.014573338,-0.08964092,-0.027271288,0.023513447,-0.03904364,-0.08385047,-0.026192842,-0.08249295,-0.0046269116,0.04074341,-0.034958802,-0.013492196,0.014930065,-0.049377512,-0.05354072,-0.10917225,-0.0061663333,0.0022252318,0.129994,-0.08275587,-0.07398654,0.11251596,-0.023586677,0.047582358,0.0023644841,0.02469735,-0.086445615,-0.09962843,0.008556704,-0.047573347,-0.021704199,0.013837683,-0.118970364,0.047135666,-0.097997405,-0.05122387,0.03190991,-0.09075692,-0.06442574,-0.050920356,-0.09456929,-0.09697346,0.04236138,0.050651263,-0.029956445,0.0047574434,-0.04220013,-0.10928294,-0.12640639,-0.097023405,0.15139662,-0.053563006,0.075105645,-0.040417813,0.05086691,0.05383768,-0.022056924,0.12705456,-0.11152476,-0.093073905,-0.091802455,0.07933811,-0.06457011,-0.033067178,-0.100733496,-0.024392111,0.021599596,-0.03890397,0.0048752106,-0.0840572,-0.0010778443,-0.104007766,-0.03143987,-0.092262834,0.1424442,-0.04910349,-0.04145354,-0.11597527,0.053372737,-0.052378707,0.12544411,-0.08735074,-0.05520024,-0.082969055,-0.07988203,0.07724698,-0.062548436,-0.018844504,-0.05347559,-0.061132234,-0.08114574,-0.05579612,-0.07174466,-0.085715264,-0.026949327,-0.026077408,0.14131458,-0.07495289,-0.02403377,-0.04890403,-0.016973633,0.00821969,0.034836244,-0.091968946,-0.07911982,0.04381553,-0.038680688,0.058831412,-0.024625009,-0.14137001,-0.0609896,0.006287679,-0.042960856,-0.0959132,-0.016477367,0.011283494,-0.06576222,-0.050430305,-0.055517856,0.05910648,0.06888654,-0.012860363,0.0015958484,-0.04713842,-0.019242428,0.009387624,-0.0605365,0.052288894,-0.037633963,0.07647307,-0.08479199,-0.05139706,-0.044822592,-0.027947372,0.08516707,-0.14108406,0.12814282,-0.031859115,-0.13270587,-0.106517315,-0.09604999,-0.057420373,0.05501689,-0.10567647,0.040286154,-0.025016483,-0.0061589447,-0.06698716,-0.07062282,0.17775913,-0.033807434,0.012371192,-0.08297665,-0.025898915,-0.08002218,-0.061604615,0.03257399,0.16943893,-0.08741835,-0.08784973,-0.02679729,-0.07718788,-0.008063837,-0.07972562,-0.109735325,-0.053214602,-0.020354077,0.09351906,-0.0627115,-0.099312805,-0.14613235,-0.06790298,0.078932576,-0.046965502,0.0006848443,0.0912522,0.053710677,-0.079645015,-0.07000194,-0.07360472,-0.044276707,-0.21992077,-0.037672654,-0.022031048,-0.013150225,-0.11482691,0.03644008,-0.061758038,-0.0036836849,0.11418805,-0.06761619,0.042563632,-0.07731124,-0.046174284,-0.038598593,-0.05098719,-0.0044639125,-0.06456601,0.037361167,-0.07352477,0.1154817,-0.053745136,-0.035384912,-0.12212706,-0.048336703,-0.022435509,-0.032815326,-0.032420177,0.069545776,-0.08248517,0.024989251,-0.04252646,-0.03891574,-0.065606266,-0.066107005,-0.08304438,-0.055820316,0.14191835,0.06861911,0.08289921,-0.14994557,0.038666125,-0.031628966,-0.06002281,-0.0042996015,-0.028707046,-0.0545527,0.088564724,0.09892858,-0.083287,-0.09969245,-0.15574571,0.032878485,-0.03759188,-0.002228614,-0.020150652,-0.055271924,-0.061398037,-0.105392344,-0.07323269,-0.02296228,0.035568487,-0.02660842,-0.021683684,-0.057487056,-0.0815335,-0.057537977,0.025841132,-0.021633696,-0.019547895,-0.066294305,0.0050129187,-0.002890051,-0.008781611,-0.076424755,0.014699295,0.0014465794,-0.06770418,-0.10345139,-0.098285764,-0.04710602,-0.09152853,0.08105447,-0.070656,-0.12839425,-0.04185899,0.050199293,-0.09625195,0.021462861,-0.12174022,-0.08799966,0.03551959,-0.055877514,-0.05972321,0.0032516476,-0.08987737,-0.035557725,-0.070852645,-0.11344517,-0.033421822,-0.025704557,0.15296915,-0.064038694,0.019435544,-0.039047893,-0.020106304,-0.028601412,-0.028473353,-0.06838545,-0.10194226,-0.10187035,-0.04376024,-0.039622255,0.17109208,-0.0551987,-0.0011528281,-0.08336138,-0.07396774,0.057314124,0.016435932,-0.022725796,0.066895,-0.09906553,0.047988318,0.001788758,-0.06252117,0.058883455,-0.03667328,-0.18048891,-0.068165824,-0.003751291,0.030647896,-0.120890185,-0.072783515,0.010264449,-0.11872316,-0.050189584,-0.061426573,-0.05499337,0.05606472,-0.045013655,-0.033923384,-0.14757127,-0.01786624,0.033895824,-0.08899408,-0.08033154,-0.054651454,-0.08266133,-0.06461777,-0.08292658,0.04767634,-0.021412643,-0.05693049,-0.1429531,-0.07982608,-0.07578885,-0.042497076,-0.1296053,0.010126436,0.014478782,0.09145841,-0.04136757,-0.041428257,-0.09366828,-0.051518675,-0.012844928,0.049951617,-0.13632092,-0.0689759,-0.06062127,-0.08448388,-0.040849574,-0.005863171,-0.09918884,0.011035909,-0.11300774,0.097725324,-0.039541364,-0.045813445,0.028017087,0.024837276,-0.0996169,-0.083497725,-0.048957277,0.13238488,-0.095173,-0.08145864,-0.06619972,-0.009324858,0.10110302,-0.07471214,-0.008177664,-0.009442425,-0.056375105,0.09708931,0.03162012,-0.0059775086,-0.03012792,-0.07319639,-0.047747612,0.011811624,-0.1401775,-0.08231027,-0.019584918,0.14028014,0.0060750153,-0.065991424,-0.023540027,0.016574945,-0.032287896,-0.09605174,-0.036753155,-0.009451938,0.06259437,0.11722784,-0.051925763,0.058170725,-0.07813895,0.028423235,-0.110269904,-0.025448749,-0.11182127,-0.055090696,0.08630102,0.08597841,-0.05620506,0.057103284,0.09286747,-0.064828165,-0.07973272,-0.06542438,-0.07385657,0.025114818,-0.06975647,-0.049889226,-0.04242528,0.0915407,-0.0021253123,-0.11913277,-0.04831404,-0.04574887,-0.052820396,-0.0042441026,-0.0056443578,-0.03655623,-0.14473777,0.12100594,0.12161426,0.115801856,-0.123334385,-0.036670033,-0.1021584,0.021661928,-0.06389249,-0.08189597,-0.051137354,-0.042361714,0.048715778,-0.05294292,0.053569157,-0.031203166,-0.14345935,-0.057859074,0.033452183,-0.06839995,-0.0056432663,-0.049295977,-0.06428239,-0.08650942,-0.03882307,-0.031285908,-0.025879532,-0.13697727,0.03797906,-0.04942037,-0.005644091,-0.034253847,-0.13994446,-0.07167834,-0.016946532,-0.009333657,-0.0019820724,-0.06927867,-0.06918146,-0.034372754,0.020173995,-0.08803238,-0.055033643,-0.11493089,0.118660435,-0.074615635,0.029694436,0.1166118,-0.030590558,-0.02444876,-0.085901216,-0.0313671,0.060627203,-0.11446682,-0.076433055,-0.021598268,0.0051453286,-0.030719822,-0.015448908,-0.036290247,0.12590918,-0.07819118,-0.048440594,0.020431606,-0.003782719,-0.081573114,-0.08355389,-0.082475245,-0.060830083,-0.06693036,0.09622865,-0.09992356,-0.051326174,-0.028867811,-0.095622554,-0.043414604,0.013417466,0.014325275,-0.06444306,-0.047023892,-0.062240843,-0.09570246,-0.07569559,-0.047256246,-0.12124263,-0.038477562,0.06410194,0.033027414,-0.07034271,0.06063979,-0.0428305,0.00043517578,-0.044839166,-0.059756007,-0.10074623,-0.105033234,0.05221397,-0.11046026,0.11544311,-0.08104187,-0.035076767,-0.06505479,-0.045324296,-0.071191564,-0.057154626,-0.06134674,-0.08615827,-0.07552305,0.004568738,-0.07980417,-0.04211427,-0.011599036,0.055105373,-0.066822864,0.01528817
