-0.023148267,0.035917107,-0.07382758,0.12875126,-0.0968461,0.07585619,-0.0057833795,-0.020828905,0.09227841,-0.01163765,-0.031499054,0.09769966,-0.087410554,0.009072022,-0.013362317,0.0012192755,0.033225235,0.056910954,0.10902544,-0.017852617,0.0034064194,0.0063149827,0.03237448,0.0016833213,0.029419988,-0.051189438,-0.0022963583,-0.031125847,0.1137996,-0.0420512,-0.062255125,-0.051681627,-0.0769108,0.06686484,0.06967947,0.074851565,0.11672892,-0.00062357885,-0.063783824,-0.0522173,-0.0086487625,0.15377349,-0.025124641,-0.0027182123,-0.08738834,0.043380376,-0.024490219,-0.030461837,0.010488491,0.09804388,0.0033752897,0.056065507,-0.017335873,-0.016023122,0.0006363809,-0.00060406403,-0.05285928,0.07555819,0.07400048,0.14508072,-0.074870065,0.09469428,0.12541877,0.036807682,0.06466659,0.0142628765,0.029612638,0.046973873,0.025750106,0.015742538,-0.12617253,-0.10391557,0.11064335,-0.017740306,-0.02097638,0.060959693,0.038160555,-0.044058986,0.08902122,-0.022541557,0.006504054,0.16861126,0.058626454,-0.05561095,-0.08366649,0.09918821,0.025454326,0.11191692,0.09628599,0.13759083,0.035661783,-0.014356595,-0.040818725,0.09761817,-0.057912573,-0.0059269858,0.11887118,0.075776845,0.016033845,0.1918884,0.017395617,0.020162046,-0.0033725975,-0.14077382,-0.008854268,-0.122965544,0.05207776,0.04881765,-0.08393386,0.073964246,0.21237811,0.01640129,-0.029609721,-0.026918711,0.045756597,-0.07409421,0.16610867,0.10097709,-0.009897525,-0.025406102,0.16379122,0.05643311,-0.06446474,0.12053144,0.011206744,0.026216615,-0.034449756,-0.01184944,0.012909768,0.06575996,-0.046429615,-0.024337385,0.09824532,0.06980166,0.11990598,-0.09998007,-0.034840167,0.08053745,0.0022169342,-0.015364637,-0.023156391,-0.017608032,-0.08108025,0.06561431,-0.055626605,-0.0044636307,0.10885071,0.028609654,0.0547953,-0.041810315,0.13173908,-0.12497941,-0.060779117,0.13264748,0.1978552,-0.048523884,-0.056856796,0.0325269,0.1463097,-0.074055046,0.082696214,-0.0050503723,0.029364167,0.040951308,0.05847397,0.07890995,-0.03630346,-0.10346947,-0.06914766,0.058631312,0.06769589,-0.10025751,-0.02424749,-0.09695295,0.060698833,-0.0028725413,0.12640762,0.030489879,0.04670232,0.023566203,0.12645377,0.027835013,0.047455505,-0.00946114,-0.06941114,-0.044186193,-0.0014239711,-0.009305601,-0.0036777265,0.10048233,0.040583532,0.14884739,-0.005602307,0.16263722,-0.010698772,0.01735995,-0.038121432,-0.08792029,-0.025364054,0.14371482,0.045713205,0.05417331,0.18741257,-0.14944027,0.06834974,-0.076465406,-0.041175228,0.05536678,-0.005706124,-0.016449781,0.012893565,-0.020002194,0.07160052,0.14059292,0.06825457,-0.011120574,-0.00802137,-0.010217619,0.14034516,-0.042157233,-0.013429336,0.011225823,0.11237548,-0.056597564,0.032555677,0.08387198,-0.04009064,0.01911631,-0.021132918,0.09475223,-0.0059427596,0.11145306,0.09094191,-0.057313606,-0.10546642,0.10718276,0.09855623,-0.021741582,0.016641866,0.2028259,-0.063298896,-0.02391529,-0.015019373,-0.044707775,0.1731401,-0.011640494,0.027586585,0.17707604,0.15157814,0.110417224,0.03611706,0.10274408,0.061734308,0.02579818,0.051812112,0.14235501,-0.013811136,0.05156587,0.11607879,0.0787814,0.03318821,-0.05910865,-0.031226005,0.12419408,0.025297761,0.044599675,0.12645693,0.10875804,0.028258165,0.060563155,0.0789967,0.007386684,0.06187624,-0.06037513,-0.0341423,0.014304203,0.042819697,-0.04987225,0.03237751,-0.038227502,-0.057386197,-0.07510411,-0.038243536,0.107687786,-0.00750028,-0.037092395,0.012833796,0.18489452,0.12887526,0.11314379,0.106716536,0.062012706,-0.06699053,-0.027903443,-0.0006790117,0.033533946,-0.0146784615,0.096381985,0.10987342,0.005527892,-0.034458645,0.08332865,0.15501615,0.12765883,-0.00393559,0.06502187,0.06417105,0.09463762,-0.014046115,-0.08259933,0.00244591,0.025303083,0.117108576,0.014786875,0.017815065,-0.060193587,0.11294157,0.00032723648,-0.028146809,0.054568943,0.014411283,0.0075795488,-0.09466962,-0.1024562,0.01822738,-0.10315506,0.12966964,0.008993877,0.026624838,-0.018061846,0.20262906,0.14742099,-0.047423344,0.10931222,0.008362053,0.0747642,-0.004701031,0.056451336,-0.08191873,-0.034719,0.031102853,0.023276595,0.049322188,-0.00086030306,0.044815097,0.113336764,0.08092546,0.067098506,-0.0050858455,0.09607572,-0.039614953,-0.006177609,-0.028545545,-0.021661932,0.04973432,0.024162205,-0.0292579,0.08107262,0.12103766,-0.066827096,-0.09110026,0.04512533,-0.031195093,0.031369172,-0.02380574,0.030548818,0.048902,0.0016299303,0.05045083,-0.029528191,0.012685745,-0.06965825,0.00028858235,0.0044765426,0.07664263,-0.0664107,-0.028645905,0.08222327,0.13519529,-0.0577777,-0.036634587,0.008143792,0.037413564,0.033494864,-0.0030835248,0.09672855,0.021827811,0.0014784461,0.19207345,0.110758916,0.1918375,0.10224746,-0.10324997,-0.04826288,0.09026104,-0.06167428,-0.046730593,-0.089368895,-0.07915999,-0.025573034,-0.004238557,-0.01710665,-0.02758331,0.066381685,0.006892352,0.15487301,0.0011871933,0.029420415,0.037699066,0.07074255,0.06324632,0.062425524,-0.038106117,-0.043122325,-0.0083718095,-0.028905364,-0.14496021,0.055346914,0.041028,0.022406122,0.038474258,0.0031554692,0.07932209,-0.071903825,0.13852659,-0.025793279,0.06830673,0.02104452,0.015475931,0.16714448,-0.061519597,-0.06860956,-0.09734844,-0.07258396,-0.045593176,-0.037747096,0.07657961,-0.028477568,0.0075598233,0.13614413,0.033289205,0.0413562,-0.05593765,0.019547515,0.16226941,0.010294803,0.056881603,-0.0025236097,-0.049794517,0.02694967,0.027854372,0.10611451,-0.045280322,0.010563714,-0.09313415,-0.0025170927,-0.01432456,-0.039544556,0.06469256,-0.0050121024,0.005294595,0.011153997,0.02407873,0.07503872,0.0753457,0.08609998,0.10704411,0.012716563,-0.012320726,0.14657229,-0.079000905,0.055959646,-0.06012288,0.16547339,0.017200265,0.050372567,0.058515187,0.0064121825,0.036897495,-0.0040613837,0.11252395,0.02586271,0.045948345,-0.02877767,-0.015376056,0.049762364,0.012840743,0.0475277,-0.062129397,-0.10556313,0.07290748,0.04409127,-0.08163081,0.09380913,0.03311195,-0.026865695,0.012087023,0.13736637,0.09630363,0.114732854,0.14382909,0.11603281,0.020553406,-0.05277162,-0.043051563,0.06540459,-0.061565533,0.07750506,-0.021124272,-0.005341138,0.08964074,-0.08180373
