0.045333356,-0.053723846,0.07074045,0.025724234,0.054713346,0.019959362,0.0021385301,-0.012134648,-0.00047600735,-0.013471479,0.011583979,0.018130971,-0.048242964,0.014582712,0.030707797,-0.018307112,0.007904479,-0.02120494,0.028990287,0.000592006,0.0098504145,-0.019183021,0.02313206,-0.0009545607,-0.012480986,0.005067437,0.026649708,0.020210557,-0.056802183,0.032046597,0.034459498,-0.032315806,-0.00027275513,-0.043430883,-0.024262741,-0.04189041,-0.002671384,0.051923472,0.020645097,-0.01667597,-0.005818618,0.00418121,-0.04036406,0.02895703,0.025216876,-0.00532998,-0.040504068,0.028865907,0.03134091,0.06646356,0.023225319,0.041969642,-0.06420173,0.015043597,-0.06619499,0.0068826154,0.054089934,-0.043921288,0.027811535,-0.11168873,-0.052088503,0.046093386,-0.018544672,0.031462226,0.009504105,-0.04625561,-0.02334601,0.09017417,-0.028857714,0.029187405,-0.030170973,-0.0026485452,-0.032897215,0.05179522,-0.004048404,0.018969156,-0.048565358,0.03704898,-0.023026416,0.04116526,0.055549502,-0.007759682,-0.04562668,-0.025169862,-0.016175916,0.017461497,0.046187542,0.013281336,-0.023557901,-0.027417893,-0.004975243,-0.0004532294,0.015721932,-0.051167037,0.04090256,-0.0312811,0.05401563,-0.06428232,-0.026206926,-0.02442572,-0.060869135,0.012916664,0.054918632,-0.05318024,-0.014341366,0.04851929,0.0019435055,-0.07187526,0.032548975,-0.03370535,-0.034768894,-0.05748027,-0.045034967,0.05177019,0.059032455,0.022137325,-0.035044506,-0.019069517,0.03144237,-0.0537532,-0.0040712445,0.0026001309,-0.022164827,0.03062985,0.036427572,-0.058462445,-0.0134010725,0.00019236148,0.046904173,-0.023607062,0.050001457,0.021279337,0.03272148,-0.0014692126,0.026539594,-0.032089517,0.035800446,0.016218837,-0.013857899,0.02085303,-0.005428093,-0.04125612,0.041451577,-0.044678707,-0.07971963,-0.03900631,-0.0686805,0.039027344,-0.02390175,-0.02437218,-0.012691645,0.040536426,-0.006067838,-0.012283087,-0.02271689,-0.010651437,-0.009149266,0.018889137,-0.08889627,0.014826974,-0.043950044,0.056823157,0.0071591455,-0.00014558206,-0.036577426,0.07619593,-0.026488941,0.032698683,-0.04072103,0.049165793,-0.06841423,-0.017596586,-0.043080706,0.0063212155,-0.042916957,-0.021231422,0.014152745,0.044020653,-0.022369679,-0.041428216,-0.057296846,-0.007158997,0.040563494,0.012539689,-0.024664735,-0.03225418,-0.042771395,-0.011228978,-0.08627102,0.0008452862,-0.0008165253,0.036018666,0.0036411707,0.011986544,-0.043701824,0.0015584257,0.019254692,0.043567102,-0.004171149,0.019623905,0.04553659,-0.022193395,0.068238564,0.0138131315,-0.028484724,0.021971785,-0.08593332,-0.02939855,-0.035624564,-0.023205021,-0.047004037,-0.025639242,-0.07628765,-0.03806593,0.033168375,0.0212534,0.015770942,-0.040143967,-0.04878215,-0.0454635,0.013095053,0.0059168017,-0.0070607183,0.0041727284,-0.018127179,-0.016985599,-0.07136016,0.049625173,0.011424857,0.035353303,0.021135367,0.024465831,0.032664396,-0.0204838,-0.025267892,-0.012598236,0.028646551,-0.00835393,-0.037778653,0.025542552,-0.043549504,0.020881081,0.017560748,0.023708163,-0.01088223,0.13563454,-0.03445075,-0.024264019,-0.019230394,-0.10114962,-0.030428076,0.025673706,0.040228277,0.0045844815,-0.07798379,-0.028591825,0.02364021,0.027267937,0.008579249,0.034631304,-0.0026821585,0.00068416685,-0.014697535,0.07440322,0.04894705,0.047043186,0.00053986267,0.03941943,0.049066246,-0.01743039,0.011204245,0.009351568,0.068458945,0.025210451,0.03144139,-0.05468169,-0.033699054,0.02936559,-0.03552558,0.03252044,-0.028847074,-0.069520555,0.032805644,0.03210198,0.0186043,-0.00863865,-0.030795787,-0.04151374,-0.02003078,-0.028594628,-0.013346467,0.0013010373,0.0907654,-0.0024625352,-0.0048591625,0.035096154,-0.016764263,-0.008997964,-0.0066208653,0.03747715,0.0040854644,0.048772864,0.02056324,-0.0013967139,0.030426046,0.050144307,0.011590973,0.0052617122,-0.0045301975,0.055247705,-0.009654361,-0.053963974,0.024513768,-0.037462227,-0.04176384,-0.047439028,0.043384846,0.025501197,0.03372322,-0.0065946574,0.024164075,-0.039706275,0.01689051,0.00038446992,0.0050538187,0.018752363,-0.005289212,0.0162088,0.036190435,0.030997634,0.02792863,-0.018032217,-0.047268983,0.032035444,-0.026262429,-0.03343688,-0.0101326415,0.049650032,0.00467995,-0.02521309,0.024942989,0.017807268,0.03590267,-0.021904506,-0.022078414,0.00037375488,0.06001561,0.0011351362,0.023194043,-0.018339988,-0.030964885,-0.03279671,-0.007021393,0.0053157816,-0.06089931,0.03439997,0.016170003,-0.06917271,-0.021000553,0.039245013,0.040089186,0.02249961,0.037147332,-0.0031569086,0.012986906,-0.012575496,-0.054174587,0.017400859,-0.014123758,-0.08715346,-0.04479311,0.01360288,0.024254194,0.009366426,-0.027523257,-0.012685615,0.0266156,-0.0010992605,0.0156882,0.010526926,0.020084033,-0.062139552,0.045461528,0.0138073675,-0.04865217,0.017327199,0.053937335,0.043411057,0.062375676,-0.014285234,-0.006498717,-0.02965155,-0.016010262,0.0004368337,-0.07576729,0.008264502,0.056223672,0.02083935,0.07202632,-0.037872966,0.042148363,0.00041840854,0.033546153,0.030977525,0.039976634,-0.09668501,-0.013669262,0.082745284,0.031292513,-0.0021586844,0.019562898,0.06575014,-0.009011105,-0.0010222372,0.061540373,8.810432e-06,-0.04747973,0.045776162,-0.011027602,-0.003443489,0.04378979,-0.014641863,0.007390623,0.035044264,0.07359488,0.026389912,-0.021236503,0.03213879,-0.03197944,-0.018718453,0.0024115532,0.026349815,0.023110187,0.03254176,0.0028828098,-0.066390365,-0.014125651,-0.026173811,-0.00814855,0.009410899,-0.014030534,-0.017460877,-0.035809558,0.0018997298,0.014711052,-0.076800115,-0.015321856,0.0068516927,0.04361734,-0.0008283366,-0.03214783,-0.018747354,0.021381797,-0.02193823,-0.0076109297,-0.017353026,0.03523952,0.030096717,-0.029154537,-0.0108239,-0.05265935,0.0782972,-0.012970966,-0.017118726,0.03749063,-0.0495402,0.017820135,0.056435432,0.01191015,0.010514772,0.035960667,0.061433163,0.013879591,-0.012138846,0.0016756566,-0.025486339,0.030206617,-0.024223365,0.0348866,0.02503841,0.051767044,0.030569673,-0.010357403,0.03986451,0.008456283,0.04366415,0.00037414063,-0.025196714,-0.047161058,0.015451819,-0.0009669077,-0.010283348,-0.054931235,-0.07764177,0.03911386,0.002813029,0.0049006757,0.01900302,-0.023477873,0.05871065,0.023552977,0.01644607,-0.0040110326,0.051348243,0.02291658,-0.07559548,0.008963982,0.011684159,0.023569908,-0.04321798,0.01528989,0.030592017
-0.03712416,-0.00796433,-0.13438949,0.06369092,-0.0235486,-0.040733755,0.05128357,-0.028694818,-0.005865354,0.033892773,-0.0025589752,0.039605077,-0.05136144,0.006007511,0.021636123,0.038170658,0.027539346,0.042885456,-0.040513728,-0.06070063,0.023552567,-0.005737858,0.030796673,-0.05282343,-0.03208068,-0.041602656,-0.02628671,-0.036587268,0.062306058,0.03823607,0.0369362,0.01077419,-0.034524906,-0.03107153,0.058838982,-0.009132288,0.045469306,-0.0020315251,-0.033646,-0.06887089,0.012517099,0.06272722,-0.027150461,0.016075207,0.04166968,-0.010606251,-0.07053227,0.023053654,0.022182794,0.07253014,-0.05414099,0.009374866,-0.0015304724,-0.0015392433,-0.026883783,-0.013043275,-0.005485687,0.033046328,0.06589633,0.01431765,-0.049463127,-0.0016118349,0.0039653867,0.064523086,0.0006691311,0.02895087,0.052833475,-0.04028655,-0.034110714,-0.08347523,-0.015949573,0.022506876,0.0013223608,0.009924782,-0.03279391,0.06867456,0.04351172,-0.0022498306,-0.023435038,-0.006976077,0.082309514,0.10241358,-0.016791787,-0.01882199,-0.14535858,0.04998781,0.017216131,0.014471863,0.026241431,0.01663604,-0.004664786,-0.007416746,0.025194094,0.05887971,-0.020168846,-0.015675236,-0.022944137,0.027571196,-0.023529073,0.064563274,-0.044630352,0.0024108042,0.030883946,-0.08220822,-0.015369761,-0.040382516,0.06265217,0.0036531114,0.029176248,-0.04754114,0.081089884,-0.029271964,0.011813314,0.027011529,-0.05534157,-0.022200791,-0.049154066,0.045631293,-0.018400066,-0.028140381,-0.018827885,0.04140354,-0.016693167,-0.06485571,0.039214287,-0.060176086,0.0060218284,0.0382558,-0.020534331,-0.03613009,0.01293201,0.015858907,0.017114116,0.047926243,0.045619424,-0.031048529,0.03214476,-0.01243904,-0.026134137,-0.08678109,-0.041531827,0.008326408,0.016256515,0.052091584,-0.03546696,0.052229457,-0.010444722,0.043502063,0.017834362,0.009011469,0.049977586,0.029067144,-0.0270284,0.08885558,0.041062776,-0.02878827,-0.0553835,-0.00092911755,0.013519794,-0.017470159,0.02824046,0.0114432005,-0.076390944,-0.009036245,0.0947217,0.043242555,-0.061791778,0.0019238545,0.02474871,0.02488427,-0.00069012516,-0.018507136,0.022783976,-0.07688983,0.004897874,0.0011368684,-0.06959924,0.06261298,-0.012522946,0.03850203,0.01936192,-0.05761637,0.059050262,-0.00043897,-0.0049686786,0.018128375,0.033667695,0.025800807,-0.0022719637,0.06911114,0.08262733,-0.028592814,0.023179332,0.07183642,0.043428294,-0.021348974,0.015835311,0.03536798,-0.042054944,-0.027562626,0.024584956,0.03923079,-0.00024494666,0.030872287,0.0091477325,0.04312552,-0.07391737,-0.011766301,0.028562339,0.015700335,0.050705582,-0.002136433,0.002260142,0.02378407,0.00995362,0.004274803,-0.03990637,-0.08577154,0.037822563,-0.0031792403,-0.046201244,0.04530102,-0.06724269,-0.06282934,0.013298188,0.026401341,-0.03935619,0.05165667,0.005949999,0.07531451,0.024666598,0.046902716,0.039644837,-0.040463474,0.029497435,-0.021145416,0.062055014,-0.026124272,-0.013923648,0.026385084,0.032532077,0.010215791,-0.008970258,0.0013914685,0.044682622,-0.06381406,-0.03196592,0.038159844,0.033398136,0.0791789,0.00046937342,0.03410148,0.015637187,-0.022241754,-0.03766123,-0.022949494,-0.04936515,0.02258914,0.06775625,-0.034106072,0.06892431,0.093558274,0.033572666,-0.016084723,-0.053909216,0.067038655,0.06585268,0.040784117,-0.044285677,-0.044300962,0.003146058,-0.011263328,-0.040482357,-0.026120579,0.0037311376,-0.020170102,-0.010741738,-0.014338497,0.015895281,-0.010638679,-0.06461884,-0.03137212,-0.039877918,-0.033198114,-0.05914528,-0.016296182,-0.0017757108,0.023771247,-0.029175427,-0.002268441,0.04406823,-0.019682262,-0.0139297,0.008953635,0.037057206,-0.034165982,0.046825822,0.056652356,0.058711298,-0.014933693,0.009690079,-0.017048314,0.026173571,0.009963141,0.011552151,0.020847093,-0.0019511225,0.014810355,-0.009878278,-0.001045301,-0.012610002,-0.043942943,0.05574238,-0.032776017,0.04193025,0.026639024,-0.018218447,-0.03831747,0.05312974,0.081209406,0.035365745,0.025697956,-0.052002497,-0.0033543415,-0.011039572,-0.04919276,0.011239813,0.034786716,-0.016475474,-0.041724164,0.10169967,-0.0045999344,0.00018741623,-0.007714926,-0.0070580733,0.024905108,-0.008466571,-0.014616569,-0.036833115,0.010814907,0.019728452,0.042062186,-0.01665698,0.008084418,-0.024199154,-0.0091828015,0.026527872,0.0031610543,-0.051601507,-0.09314602,0.028211359,0.029422507,0.009012905,0.011047364,0.02228143,0.0022686855,0.04219018,0.0032185637,0.05256494,-0.103346415,0.020705782,0.04708518,-0.013075994,-0.05715367,0.002673019,0.00471502,0.026141552,0.0017505831,-0.014994212,-0.008324801,0.007894517,-0.024556004,-0.040396415,0.08251569,0.011399913,-0.022907756,-0.0050086216,0.055968158,-0.00044778702,0.014625838,-0.07396221,0.052950665,0.03958099,0.038333558,0.055327777,0.065986164,-0.013434788,0.05122488,0.031293575,0.065234244,0.023444107,-0.030779267,-0.0657121,-0.055602696,-0.04781117,0.046234854,0.037324864,0.010443137,-0.058013894,-0.0152806565,-0.029764032,0.02888531,-0.023785513,0.009574278,0.052235495,0.10512298,-0.0038294692,0.022590054,-0.04194845,-0.002394384,-0.019117557,-0.029190445,0.054576054,0.050642557,-0.026836948,-0.040644124,-0.08177725,0.054410465,-0.009715135,0.007918279,0.05623904,-0.01965875,0.016550831,0.019448955,-0.016061261,0.04310847,0.049361072,0.01752344,-0.007986284,0.035579335,0.01647693,0.037663102,-0.024374936,0.026622374,-0.03404645,0.038244933,0.06704903,0.007811808,-0.03502561,-0.0010325249,0.031489562,0.062118318,-0.05380943,0.027703745,0.024585336,0.04305,-0.016406115,-0.022911819,0.06503903,-0.0097995205,0.0062751025,0.007679935,-0.024099706,-0.027879054,-0.03944763,-0.026852189,0.031079402,-0.004510234,-0.043819822,0.025474316,-0.030214565,0.0070547224,-0.012864173,-0.015065691,0.028606074,0.072843686,-0.041913055,0.026254598,0.014532721,0.09471649,-0.03351572,0.0052418294,-0.030482097,-0.06497069,-0.003841048,-0.019971184,0.047795907,-0.05392917,0.009120943,-0.002419358,0.023160245,0.026330067,-0.05649113,-0.017181953,0.03329301,-0.0828098,0.05969238,0.048476152,-0.011667535,0.015166106,-0.02537872,0.05442718,-0.025128722,-0.04303348,-0.0030055195,0.04751255,-0.0018948945,0.047257066,-0.064317755,0.053414047,0.09701649,-0.0055961795,-0.013102691,-0.072671324,0.07512184,-0.033256914,-0.08936806,0.0070050205,0.012311296,-0.039299898,-0.031078536,-0.04041944
-0.016824223,-0.049147155,-0.005238614,-0.016930582,0.029276589,0.04428408,0.015417101,0.039908167,0.026463084,-0.0069230525,-0.053660683,0.05186926,-0.020610442,-0.019043379,-0.002482987,0.003423376,-0.051410742,0.05597836,-0.05291796,0.01439105,-0.049715158,-0.054398008,-0.044650935,0.005107793,0.028965827,-0.07402231,0.014292133,0.0012855511,0.014402855,-0.011560536,0.006028491,0.09756283,-0.02497215,0.016272847,0.025848873,0.037316762,0.025037168,0.055940688,-0.003357052,-0.016457051,-0.012736896,0.039140195,0.02954827,-0.06747926,-0.009317699,0.032670103,-0.017733946,0.0007567905,0.045314886,0.02814528,-0.0011095544,-0.010563297,0.031040823,0.030588293,-0.022379847,-0.01151024,-0.048117854,-0.021310432,-0.050882768,0.039118513,0.022783354,-0.037044406,-0.0600081,0.016587045,-0.015620633,-0.08877155,0.0364576,-0.0019526646,-0.053317003,0.0020293656,0.0037299814,-0.0011888321,0.013639361,0.0050204257,-0.050534535,-0.049097702,-0.044151638,-0.0071840715,-0.011329417,-0.08658179,0.016284661,-0.026444582,0.072160706,-0.008367335,-0.05656698,0.006840606,0.0703274,0.057501443,-0.051940233,0.030246364,-0.04672311,-0.012607386,0.080507435,0.05655146,-0.004702376,0.0069093187,0.027086781,-0.042312436,-0.04818297,0.014031103,-0.03500568,0.01803034,-0.060447644,0.010191115,-0.07611229,0.03482686,-0.048616774,-0.008727522,-0.015918057,0.023285186,0.054013282,0.06273337,0.019939685,0.06268085,-0.023020182,-0.03387279,0.026282856,0.023861818,-0.038641345,-0.014189189,-0.008387249,0.013612573,-0.11022681,0.0026280717,-0.07873191,0.078926325,-0.017206311,-0.00047468673,0.007901327,0.050532393,-0.08932605,0.02474273,0.029965691,0.039474,0.012082997,-0.005631958,-0.027682003,0.014839894,-0.02610324,-0.020526385,-0.033999957,-0.09971762,-0.062081,-0.0022640636,-0.02888863,0.021006377,0.04050403,0.014609872,-0.013783111,-0.07799496,0.021865219,-0.02420502,-0.011523231,0.058872085,0.095277965,-0.015532213,-0.05221326,-0.008262167,0.020692153,0.020231484,0.056493733,-0.026495285,-0.084163845,0.06572234,0.019940373,-0.041337237,-0.0708179,-0.072811164,-0.08358518,0.015014555,-0.006840208,-0.011424986,0.092276804,-0.08068394,-0.028243953,0.07028433,0.059321426,0.05555942,0.022072082,0.023856983,0.018268928,-0.061680723,-0.019947782,0.034909073,0.09501458,-0.03577872,0.013174727,0.10050826,-0.015364634,0.01633879,0.03154979,0.050156936,-0.009733497,0.0244821,0.07231132,-0.057858627,-0.061987612,-0.08612986,0.04625131,-0.014033602,0.011993544,0.020289425,0.057540026,-0.006579941,-0.09720432,-0.095618024,0.0044432743,-0.02289784,0.005811445,-0.098966,-0.070154876,-0.085473314,0.028443288,0.027582377,0.050742228,0.05591364,-0.00079435704,-0.14097309,0.056472342,-0.035363268,-0.062084325,-0.06403805,0.07323808,-0.042981964,-0.022505011,0.044471577,-0.07505326,0.007611535,0.045599423,0.06801711,0.005807867,0.055798166,0.017897429,0.00479119,0.016275577,-0.017054228,-0.03854392,0.029657653,0.0019186921,0.039395954,-0.026360914,0.018406434,0.029659584,-0.07346563,0.0018762004,-0.0602386,-0.014968105,0.035032194,0.034625527,-0.03339114,0.010937499,-0.019001491,0.021033539,0.054889094,0.089433305,-0.00030646546,-0.024449375,0.09141925,0.070097,2.507169e-06,-0.0064600985,-0.018455753,-0.022774646,0.058765706,-0.004252911,-0.02132245,-0.05552253,0.017572675,-0.03363566,0.01523898,0.02936597,-0.05938766,0.02734026,-0.048805833,-0.04949806,-0.053438436,-0.06862646,-0.08435553,8.0947306e-05,-0.104283616,-0.035430707,0.062409844,0.06195211,0.014186639,-0.011694077,0.03814484,-0.07756078,0.026586441,0.012071181,-0.029117009,0.05445454,-0.057419606,-0.0134524265,0.0125557,-0.1228555,0.006443953,-0.010855888,0.05703089,-0.092449665,-0.063010044,0.01694858,0.013517122,0.005718857,0.0014493458,-0.10580429,0.014921189,0.01696931,0.054076854,0.07858445,0.0012973694,-0.014180381,-0.024616387,-0.024659034,0.013968853,-0.0055168318,-0.061621923,-0.036356155,0.0018299452,-0.050986096,0.07867467,0.09354255,0.047564548,0.023009535,-0.0021563459,-0.0144122075,0.040978715,-0.10814724,-0.054690048,-0.075663224,-0.09015568,0.02921798,0.0012059887,-0.048220843,-0.009879999,-0.05880324,-0.018503994,0.052130602,0.006395587,0.049787972,-0.09801522,0.022573369,0.018304802,0.006274213,0.0065396065,-0.022876708,0.087303825,0.028892847,0.083440214,-0.015316458,-0.02072411,0.03223085,-0.009737351,-0.021858662,0.031008784,-0.0247451,-0.011270427,-0.070206195,0.022437287,0.07472697,0.091689914,-0.0016669605,-0.12850459,-0.016436692,0.0092991665,-0.030983109,-0.01051562,0.030287156,-0.109380685,-0.08367126,0.016089745,0.040637042,-0.06715708,-0.03293184,-0.083653934,0.013646627,-0.010794214,0.033222523,-0.070314445,0.0089455675,-0.025317766,-0.037177198,-0.011350204,0.018966839,-0.014743808,-0.14263868,-0.01465412,0.037354313,-0.027621131,-0.008348884,-0.027309844,-0.040673837,0.002475713,-0.12211081,-0.064528644,0.0077284933,0.015470572,-0.045565046,-0.019870037,-0.08850626,0.02522611,0.011511561,-0.05674939,0.032028455,0.046250723,-0.13715453,0.059808366,-0.0058332873,-0.0027977966,0.013791377,-0.010343423,-0.005429376,0.0049047894,-0.055742815,-0.051727295,0.04482982,-0.0453356,0.052383877,0.041140817,-0.059349693,0.051838815,0.042733487,-0.053413495,-0.016134996,0.045483872,-0.028175857,-0.04177341,0.0145373475,-0.08197955,0.029042525,0.05397611,0.020766074,-0.011900138,-0.041820526,-0.06281228,0.026863255,0.023076303,0.058592133,-0.056578647,-0.049269427,-0.03497556,-0.0040471544,-0.05454799,-0.057771955,-0.077308975,0.006186504,-0.03394501,0.016403247,2.7210597e-05,0.07109799,-0.0022873161,-0.029288236,-0.021335095,-0.004105335,-0.010751482,-0.110072084,0.005739797,-0.07932208,-0.014909483,0.04303252,0.00016825486,0.061424993,0.0042981496,-0.046534777,0.019360187,0.0061488133,-0.05542961,-0.0020746677,0.03645373,0.07504671,-0.06553433,-0.017322468,-0.044251487,-0.027375571,0.0066427784,-0.08058561,-0.022500955,-0.007295156,0.011795058,-0.099966794,0.038330693,-0.050387964,0.004736336,-0.02831217,-0.009525874,0.029601352,-0.01966597,-0.12129531,-0.0018479622,0.029972207,-0.055624664,-0.016912576,-0.021813242,-0.012105241,0.013318821,0.028805695,-0.051848125,0.02327058,0.041213125,0.02529709,0.011647467,-0.06618109,-0.031680737,-0.0012332831,-0.061839744,-0.004991968,0.009750139,-0.06620688,0.030392697,-0.12895168,-0.020373669,0.07580354,0.0011153984
0.05272503,-0.046739176,0.075053245,0.008936808,0.031525645,0.01851861,-0.031089863,0.025690794,-0.06100446,-0.0197161,0.00799645,0.032640994,-0.061806574,0.048779674,-2.061205e-06,-0.015478691,0.028336277,0.05335614,-0.050224304,0.031862494,0.038862877,0.015680356,0.0056909495,0.030952336,0.014654512,-0.058947414,-0.019672045,-0.06333863,0.0323848,0.056585208,0.054458033,-0.06033874,-0.0042952914,0.0273959,-0.09007246,-0.09404858,0.01956501,-0.049676295,-0.023284907,0.018752337,0.05419315,0.040843833,-0.023297718,-0.06678578,0.023002869,-0.012692593,0.03432607,0.05608551,-0.010331688,-0.019343048,-0.004221863,0.029815037,0.02301673,0.009066318,0.0075475043,0.04184011,-0.013318397,0.06973981,0.10421918,0.041992437,-0.057512205,-0.01322119,0.07159186,0.006041453,0.03326147,-0.05300041,0.015654862,-0.00744198,0.033168077,-0.010182028,-0.06437282,-0.0011676447,-0.024239052,0.047159933,0.019294314,0.036143143,0.006842072,-0.02697362,0.03489135,-0.016539337,-0.011683641,-0.024540385,-0.006517757,-0.030059017,0.0041621155,-0.018666653,-0.019883279,0.035183966,0.017072646,0.001921032,0.058874063,-0.0156315,0.01104572,0.06414496,0.026291478,0.053272005,0.05312306,0.0057665934,0.0037476192,0.02553974,-0.023192933,0.09764779,0.03720199,-0.00559718,0.061819673,0.01272387,0.019283153,0.035073236,-0.043507345,0.01499291,0.02069014,0.018323269,-0.01215216,-0.080731645,-0.07447909,-0.027071996,-0.013378279,-0.01523685,-0.013454501,-0.051650558,-0.00013621517,0.06775075,0.005326018,-0.044246677,0.00580029,-0.08055726,-0.043202396,0.027124899,-0.022248417,-0.050712474,-0.01699453,-0.034159675,0.013315089,-0.0018286824,-0.0044565545,0.041776996,0.032064945,0.016637268,-0.027486933,-0.022108827,0.046959616,-0.0009814932,0.008148655,0.055599175,-0.060203843,-0.021321604,-0.033602815,0.07137634,0.049983967,0.06001221,0.028517107,-0.03020624,-0.032951247,0.024356252,-0.03454964,0.00711411,0.05122459,-0.012429757,0.0031295153,0.0695987,-0.038401235,0.0001661393,-0.019963648,0.065615736,0.027249532,0.04645101,-0.04789344,-0.07039138,-0.029658563,0.056617804,0.025651896,-0.06199243,-0.0770278,0.030724114,0.032832988,0.049523015,0.04647624,0.0029722766,-0.04230403,0.01695631,-0.04189343,-0.097530544,0.04687068,0.013804992,-0.04115217,0.050156966,0.022891149,0.06476801,0.04526137,-0.025158042,-0.02342315,-0.01428323,-0.06838295,-0.011379564,-0.015024353,-0.069152825,0.04793672,-0.008277513,0.030838894,0.017543718,0.045339826,0.03699414,0.025078882,0.037248597,0.008110951,-0.039994895,-0.058328673,-0.03872227,-0.024400596,0.031914186,0.015708571,-0.02409278,0.07414473,-0.00085605774,-0.07941739,0.02187669,0.0014219641,-0.029320227,-0.00012251579,0.0015118459,-0.025490224,0.007352308,-0.04624259,0.024698522,-0.0098379785,0.044118516,-0.0747079,0.040267766,-0.07959252,0.056687135,0.0040424177,0.018638857,0.00949727,-0.061322227,-0.012074972,-0.091965005,-0.006001241,0.000708359,-0.048477735,-0.030407296,-0.024344057,-0.0094506955,0.045400538,-0.027625507,-0.0051422534,0.0818497,-0.046446234,0.036700413,-0.05913931,-0.022118794,-0.012807518,0.021195408,0.031500418,0.048605252,-0.057577625,-0.022667747,-0.04922497,0.038438633,-0.0530449,0.044977125,0.036123786,0.042152822,0.029404385,-0.0157414,0.0738294,0.047425695,0.06673568,-0.013736745,-0.018819585,0.05683977,0.057362776,-0.034825917,-0.039000098,-0.0060059046,-0.06496533,0.00612884,0.023438336,0.05569465,-0.045646533,0.015655547,0.0058174767,-0.029111933,-0.023824895,-0.0158068,-0.04282925,-0.0039591165,0.042406574,0.03646608,0.03834004,0.0052364715,0.04333047,0.024949001,0.04591719,0.024301175,0.037335645,0.0010421512,-0.015339078,0.03230974,0.054526526,0.051696774,-0.02478493,0.0028785355,-0.01067104,-0.048227433,-0.017036822,0.04532849,0.062463924,0.0049068644,0.017644772,0.045033496,0.021387266,-0.038124524,0.014833265,0.008399426,0.0070079453,0.047463432,0.049221333,0.047004215,0.013898866,0.029328339,0.012084093,-0.038521286,0.019248458,0.0182406,0.00219812,-0.0044827643,0.048285842,0.04333692,-0.0074618696,-0.006616451,-0.013533235,-0.029713241,0.014155256,0.033083238,0.02862526,0.009434562,0.015034582,0.027922874,0.021557938,-0.033078574,0.08287509,-0.025858903,-0.025354747,0.01644083,-0.020846276,-0.004549067,-0.0013638969,0.079272896,0.046319924,-0.045548048,-0.07591865,0.0023328103,-0.06398316,0.06650948,0.019488715,0.03107756,0.06773111,-0.028157644,0.024128476,-0.031028865,-0.031237587,0.017091606,-0.01855634,-0.0067315768,-0.049982805,0.0047656144,0.052894067,-0.0036358375,-0.029646698,0.00091711537,0.03103801,0.033946317,0.031212071,0.05743246,-0.032811392,-0.073991604,-0.034056906,-0.044728376,0.026420508,0.042636167,0.015773797,0.03248266,-0.01562586,0.05421887,-0.016250217,0.13143845,0.025182009,0.0487085,-0.006027713,0.005016409,-0.0040568886,0.0038165692,0.04558354,0.026754213,0.010600334,-0.024151724,0.06202267,-0.014327705,0.003937907,0.018445548,0.030714216,-0.026640225,-0.030590374,0.057016425,0.069220185,-0.0045294403,-0.011530645,0.03569844,-0.031930562,-0.01392485,0.09492562,0.07099641,-0.09941532,-0.020426743,0.016068408,-0.05209307,-0.0028490026,-0.00040300578,0.019659908,0.038653594,-0.010905447,-0.042149104,0.03138709,0.06799559,-0.0072036097,0.00430818,-0.027206805,0.026481265,-0.007875098,-0.008759781,0.02060529,0.05705132,-0.02718308,0.0085271,-0.033911508,-0.058696557,0.023613447,0.026010748,0.05022514,-0.051307112,0.08415996,0.035701476,0.06088104,-0.057206783,-0.034036692,0.013658234,-0.06612629,-0.026517307,-0.00447439,0.0039182357,-0.010557951,0.019336523,-0.042256806,0.004019571,-0.04958589,-0.021830425,0.0046924837,-0.060766526,-0.040956378,0.014950338,0.027461752,0.017102815,0.022258813,0.028896531,-0.023563571,0.1050006,-0.001236172,-0.029781803,-0.04631822,-0.003961351,0.065602906,-0.007085682,-0.040735792,-0.030003523,-0.0066307583,-0.0051557287,0.0430987,-0.025580425,0.066973574,0.039062534,-0.044897813,0.047425564,-0.052801237,-0.060424965,-0.012353071,-0.07779908,-0.01740741,0.012649947,-0.051626455,0.0656503,-0.024461132,-0.0052099265,0.019504856,-0.06015986,0.04189558,-0.010897672,-0.0028987143,0.038505293,0.011799559,0.05051224,0.079629496,-0.038738377,-0.026455007,-0.025969658,-0.0064224647,0.0042301915,-0.008949737,0.03317966,-0.012600874,0.0043374132,-0.06487005,0.056743786
0.004942611,0.016912118,-0.011931271,-0.027733367,-0.19917755,0.01544571,0.01402203,-0.039899033,-0.015887247,-0.022310512,-0.04683399,0.021136342,0.035438128,0.038609784,0.021030769,0.036687046,-0.001289329,-0.018181235,0.020407794,-0.028185368,-0.021857861,0.016503617,0.03266667,-0.03236511,0.023393098,0.0026481056,0.05311436,-0.05860431,-0.054221846,-0.0072593535,-0.026700145,0.05154495,0.010344338,-0.02805642,-0.03615699,0.048214823,0.030284518,-0.023094032,-0.0013758753,-0.0062253573,0.031638257,-0.02204877,-0.009625474,-0.01481029,-0.0022646484,0.011082054,0.007955521,-0.048260905,0.020305539,-0.07913103,0.046123885,-0.002831637,0.058024786,-0.028260011,-0.00754079,-0.047570456,0.012213255,0.034367204,0.007650479,0.03610127,0.06699885,-0.021989476,-0.0043025557,0.019357033,0.013934225,0.020689325,-0.0001776617,0.02598922,0.04640132,-0.03550205,-0.024488732,-0.040687367,-0.022757752,0.008461333,-0.007910804,0.0051808325,0.060761333,0.044932082,-0.06223879,0.010086437,0.063792564,-0.03175242,-0.019761715,0.034968607,0.042622317,-0.020969916,0.024164734,-0.09240162,0.016024582,0.05434728,0.038967658,0.10399505,0.03927354,0.031145647,0.045838695,-0.0038647247,0.021866372,0.021918857,0.051701438,0.05687404,-0.010934823,0.06664677,-0.041096568,-0.04466103,0.008503661,0.0017211499,-0.078438476,-0.019127494,0.028495012,-0.024724796,0.017322225,0.02109641,0.036765773,-0.020447595,-0.059461486,-0.0115927365,0.014006506,-0.014501425,-0.008698399,0.05004494,0.047123406,-0.0011707954,0.044071876,0.012199189,0.0041316324,0.0070029283,0.047070786,-0.02381691,-0.02867491,-0.0012604368,-0.04564109,0.026077008,0.030835796,0.027962841,0.0730252,0.0030817082,-0.019358024,0.052608673,0.0007371418,0.013446599,-0.0030570752,-0.051026613,-0.044831786,0.012891291,-0.040573064,0.06710098,-0.03000998,-0.021997401,-0.032129064,-0.021744616,0.0140397195,0.0014785667,-0.09194772,0.036004595,-0.037332047,0.043896664,-0.010638186,-0.03120431,-0.01951939,-0.043005187,-0.024907745,0.05595863,0.021379467,0.016587988,-0.03713813,0.0026868184,-0.04313798,0.01260936,0.00041289162,0.03045167,0.006957859,0.008194665,-0.009598681,-0.008055143,-0.0012124372,-0.07054515,0.03585876,-0.01689524,-0.04305468,0.026156211,-0.07140889,-0.064816184,0.008480708,0.05208551,0.027323058,-0.0423581,-0.016597487,0.07204153,-0.052353762,-0.049101528,0.0055372063,0.06937867,-0.05785602,0.038120624,0.02168422,-0.019646736,-0.005797023,-0.02252691,0.00804297,0.010906233,0.04771917,0.00496286,-0.02546828,-0.007280614,-0.015377055,-0.059916873,0.05335865,0.008414365,0.002828813,-0.071681954,0.01667661,-0.022612888,-0.007492147,0.04026223,0.059686482,-0.049788464,0.041722354,-0.010065891,0.009432461,0.026869515,0.018027648,-0.02561839,0.049258538,0.06079713,0.0042660735,-0.021138173,-0.05465013,0.0041563944,0.07006603,0.019398876,0.025539694,-0.01264369,0.054499462,-0.02084067,-0.027936287,0.040992282,0.011673545,-0.005540501,-0.041512735,-0.003101372,0.01353659,0.02989193,0.030102756,-0.031933185,0.08574489,0.008333203,-0.07282085,0.035504837,0.049305003,-0.029984485,0.022036018,0.014422902,0.0028833013,-0.004689363,0.07461779,0.03480681,-0.10675515,-0.034243025,0.049140938,-0.013040172,0.035546694,0.00702456,0.03173867,-0.012796283,-0.007040566,0.0017647153,0.0012793458,-0.014915111,0.02164819,-0.08038392,0.02585456,-0.029599464,0.060439013,-0.00043426093,0.060983695,-0.024247285,-0.09877618,-0.09773025,0.07216547,-0.066722915,-0.016636986,-0.034321416,0.008051739,-0.025922319,0.03193717,0.0016397507,-0.064857274,-0.041982163,0.0041681877,0.0660763,-0.07416067,0.011116653,0.0022221021,-0.009561838,0.040220298,0.0043961084,0.016662337,0.044226047,0.055366553,0.04489662,-0.038418632,-0.04963156,0.02009613,-0.0019235361,-0.035340313,0.02055933,-0.00018981392,0.029677883,0.010279818,0.010472439,-0.006715803,-0.009538466,-0.00063033827,0.08472351,0.0703793,-0.016810574,0.015117014,-0.05468044,-0.10564214,0.02288577,0.027460268,-0.0047551556,-0.004790473,0.0080465935,0.028990418,-0.002079808,-0.02982888,0.05327284,0.024931028,0.05127472,0.03106705,0.036121465,0.057553053,-0.017836818,0.022756267,0.05732323,-0.041273475,-0.02533884,0.028203923,-0.0023382613,-0.06204573,0.036418345,-0.019107508,-0.02898787,0.008746855,0.006088125,-0.021836223,0.04654155,0.022122998,-0.0010171842,-0.061576623,-0.044487506,0.0027822293,0.07735659,-0.035597462,-0.025648512,0.012774543,-0.045732122,0.10356266,0.025732055,0.007164475,0.03500072,-0.053391118,0.02056247,-0.008294038,0.04609078,-0.039883777,-0.067695275,-0.03739973,0.005559877,0.043230213,-0.007775906,-0.013331835,-0.011800723,-0.02511831,0.03709117,-0.0063934005,-0.029010493,0.07245374,0.055652667,0.006272956,-0.0011467683,-0.03743356,-0.0036682216,0.0055556693,-0.008423291,0.00010355373,-0.0061021047,0.0012212422,-0.070118636,-0.0518273,0.011324149,0.041778278,-0.036458988,-0.06466385,-0.028521918,-0.070085034,-0.067280404,-0.01876026,-0.049038466,0.041470464,0.028406398,0.057854988,0.08863806,0.031975336,-0.03336595,-0.0019514338,-0.045182455,-0.011787679,-0.052642696,0.05196105,0.021302499,0.03705019,0.023624862,-0.043172438,-0.030060705,0.0005624599,0.048000928,0.0031062996,0.05148086,-0.014004277,-0.06268316,0.041024406,-0.00014504246,0.030943168,-0.046956174,0.00030459126,0.0392363,-0.012239254,0.011464708,-0.027937328,-0.004169981,0.014787674,0.03126111,0.0347658,-0.06371682,-0.028004196,-0.014709057,-0.01047597,-0.059538387,-0.015269669,0.007407621,0.014515017,-0.044396125,0.056875672,0.00746224,-0.027155701,-0.017533278,0.0711787,0.003373004,0.04004673,-0.0057750954,0.047507063,0.0060627754,0.016987586,0.040198024,0.010654745,0.07634682,-0.032433987,0.005658961,-0.048512097,0.051875103,-0.023184806,0.04280179,-0.0026806956,-0.0069991364,-0.06862313,-0.023137098,-0.06909582,-0.03416049,0.009715234,0.02378819,0.023354487,-0.013655138,0.06341197,0.0035495656,0.04041385,0.00946401,-0.05673095,0.00012020202,-0.023625843,0.06296237,-0.09326068,0.055674788,-0.031828817,0.022690792,0.056227308,0.033360053,0.021468926,0.042893995,0.06482431,-0.02153867,-0.018885793,0.02660437,-0.0064407475,0.0045396998,-0.058850877,0.100557365,0.04949228,-0.043765333,-0.001104363,0.039390434,0.007878409,0.028211668,0.04513843,-0.040520806,0.01015156,-0.039986994,-0.006548905,0.012229534,-0.08521217,-0.067295544
0.012123516,-0.012850139,0.047222402,0.01716491,0.013522609,-0.068015054,-0.018003281,-0.040027115,0.019502943,-0.01361096,0.052667487,0.014730664,0.008145397,0.028164933,0.0792742,-0.016340496,0.0075310585,0.018355554,-0.0079723485,0.0053526484,0.011914413,0.029645182,-0.010234394,-0.032633938,-0.00441027,-0.025962181,-0.041403707,-0.07896255,0.055041257,0.041887417,0.02049158,-0.064174086,-0.03994479,0.00450461,-0.035645057,-0.040532555,-0.04051146,0.0076145395,-0.09127011,0.031811632,0.0025541647,-0.031260476,-0.043134417,-0.010335195,-0.018771252,0.028395068,-0.029536204,0.04403414,0.012821268,0.045495346,-0.032532845,0.01866007,-0.045428157,0.02949154,0.026842834,0.031941574,-0.02791332,-0.012888987,0.015152224,-0.005318969,-0.0602716,-0.022008462,-0.047318008,0.031613354,0.095291406,0.014108578,-0.0039165025,0.028285459,-0.006554016,-0.034679607,-0.039977334,0.049517848,0.008194021,0.017242357,-0.017568735,0.03686321,-0.040769964,0.054936264,0.07406225,-0.00034713058,0.003722103,0.08388893,-0.011872935,-0.026538782,0.035787348,0.007871573,0.035451856,0.037100248,0.0034621116,0.03808575,0.033114165,-0.044959933,0.050756406,0.027859407,0.012927723,-0.014328617,0.038232334,0.0100358855,0.036457274,0.00671951,0.004138611,0.06582971,-0.01936046,-0.047552705,-0.04306105,-0.0130119575,0.02134113,0.04518385,-0.009773868,-0.06596626,0.05850883,-0.06391681,0.004912794,0.005202744,-0.084432624,-0.021205384,0.012221634,0.061361697,0.030234016,0.008681789,0.009979843,0.011522162,-0.00672418,0.01448339,0.018793462,0.01620749,0.03525577,0.04298434,0.015665574,-0.03921309,0.020844888,0.0041953563,-0.036211673,-0.027765429,-0.0020107552,-0.048002917,0.049461782,-0.052132916,-0.040618174,-0.027471667,-0.03860847,0.027325384,-0.026120044,0.07201449,0.019754857,-0.03384429,-0.04004677,0.038994413,0.049811594,0.032201584,-0.0026855625,-0.047359172,0.03754247,0.03837267,-0.00037475777,-0.042135373,-0.03876599,-0.06536729,-0.028843133,-0.026580634,0.020718647,-0.0034419803,-0.0032968123,0.015196021,0.092839636,-0.009924817,-0.055457197,0.03144228,0.01818408,0.05050805,0.011648879,-0.002006547,0.039134294,0.021828631,-0.028714098,0.034978908,-0.024061443,0.03359685,-0.013867886,-0.025484065,0.016321449,-0.050929014,-0.01676791,0.033498798,0.004234189,0.0015044123,0.008966181,0.016300699,-0.03607398,0.0059340848,0.039668735,-0.0071792663,0.012711945,0.029588072,-0.0016196716,0.026689125,0.018463982,-0.0007562046,0.007467905,-0.008022441,-0.014700127,0.003951912,0.0055435444,-0.07261645,-0.004490639,-0.005265191,-0.04550032,-0.020502895,-0.0043658623,-0.010969385,-0.028881857,-0.019115819,0.008564547,-0.021907456,0.053629886,-0.025047753,-0.024909236,-0.059250206,-0.043587375,-0.051029682,-0.031146202,-0.02144166,-0.06345196,0.0006336225,-0.03290978,0.049173094,-0.09575316,0.030370306,0.001434929,0.022320135,-0.0054358966,-0.03872588,0.073139705,0.025080966,-0.036335964,-0.105312124,-0.0051291906,-0.015972491,-0.0015249623,0.03438864,0.004352667,0.038743664,-0.0088910945,0.0005079445,0.07675708,0.010355897,0.051506586,0.017592423,-0.026997218,9.509885e-05,-0.010357382,-0.011487358,-0.0022982415,-0.01798247,-0.10160999,-0.055963762,0.026160019,0.037228048,-0.08608213,0.054717053,0.0045743547,0.040498957,0.010086305,-0.04063134,-0.039137617,0.06515642,-0.01118969,-0.0016237312,-0.009653347,0.024705652,0.023413237,0.030728431,0.03129306,0.022593867,-0.045184698,0.020970305,0.033575747,0.050694466,0.013673636,0.010075627,-0.03305175,0.0040158043,-0.021016203,-0.08343573,-0.011673431,-0.06807405,0.019326152,-0.037780628,-0.015596187,0.0026730248,0.012623985,0.0028088938,0.04046839,-0.023468712,0.004380653,0.009963734,0.0067554265,0.050912518,0.028332798,0.06071023,-0.042582046,0.03139619,0.055889443,0.049345877,0.03041826,0.059816983,0.013254763,0.0440871,0.005240803,0.00764677,-0.018390758,0.022857638,0.024308953,0.008078475,0.03221817,-0.01299362,0.008844053,-0.0021459092,0.0250741,-0.011403707,0.03063361,-0.03579495,-0.020581303,-0.010102026,0.021457177,0.032084536,-0.022631,-0.012478957,0.008364358,0.021440396,0.025034273,-0.010691271,-0.044176698,-0.007087423,0.05122696,-0.020669447,0.020321907,-0.006729912,-0.05103833,-0.052812215,0.05551269,0.050457094,-0.004403532,0.011244609,0.04063616,0.021698242,0.06093484,0.051475633,0.042901322,-0.023017587,-0.0017129437,-0.007647277,0.010438612,-0.039043233,-0.016465852,0.001634855,0.060729086,-0.07241325,-0.002526184,-0.052540917,0.020705368,-0.018249366,-0.028243728,0.020549472,0.024813743,0.001383938,0.02116803,0.047049355,0.023775324,-0.012214854,0.014062224,-0.05913198,-0.018712826,0.044530857,0.055428185,-0.00609085,0.019804683,0.01327636,0.0025646565,-0.042730417,-0.06708365,-9.761611e-05,0.05088695,-0.023796445,0.046910424,0.033964004,-0.0019181409,0.011024582,-0.023809621,0.0076467195,-0.017489687,-0.049430337,-0.008853604,0.025355387,-0.05900773,-0.052864946,0.048637096,-0.0074974583,0.042066358,-0.019505486,0.03651768,0.032737494,-0.020657284,0.09636931,0.039259367,-0.03601432,-0.012224819,-0.037040826,0.046722423,-0.016462162,0.019410083,-0.042146705,-0.062667586,0.026351457,0.05640512,0.015377799,-0.04433743,-0.022561962,0.033381656,0.009648246,-0.02288853,-0.021337233,0.06698719,0.00025052167,0.0455236,0.080347285,0.011544697,-0.014724021,-0.014012888,0.011803932,-0.044312153,-0.06436705,-0.06307934,-0.0006226776,-0.015154693,0.024201501,-0.04182107,0.027853057,0.030579923,-0.030211683,-0.012385336,0.037865236,0.0050979564,0.017106181,-0.00068643526,-0.019364223,0.058988538,-0.021965027,0.018532792,-0.016485639,0.0035090956,-0.013580151,-0.046765335,-0.08878176,0.031591527,-0.0018696387,0.0023100409,-0.026482308,0.034951504,0.022498105,-0.046037238,0.03985334,-0.012193301,-0.0072638094,-0.022722399,0.012161663,0.0037299194,-0.0307554,-0.008688715,0.03354964,0.008281904,0.026823936,-0.0051709493,-0.047197588,-0.05784731,-0.010484211,0.03516957,0.035856947,0.056797944,0.012638306,0.04043773,0.007238647,-0.068542704,0.010374182,-0.008130601,-0.0467265,0.058728825,0.04347379,0.02664439,0.06075865,0.048081934,0.056187328,-0.007649013,-0.07277359,-0.013322398,-0.017574405,-0.040033784,-0.021406453,0.010903548,0.007975019,0.047080524,-0.02157746,0.0106396815,-0.048847787,0.024577506,0.035237245,0.017367987,0.05500843,-0.0014417561,-0.009559031,-0.037814304,0.045849994
0.04319355,0.00680652,-0.0015805584,0.029871479,-0.10407601,0.009553585,0.0735701,-0.02973904,0.0260008,-0.023741458,0.0006529793,0.0061968756,-0.022985265,-0.0032696927,0.033500258,0.02382388,0.0125984065,0.07526429,-0.03631368,0.03236128,0.00015018425,0.074969634,0.0013944284,0.043391515,-0.026228068,-0.011153104,-0.005276369,0.041602183,0.06672437,0.017883973,-0.06199812,-0.01014666,0.030405443,0.042170897,0.005439046,0.028792208,-0.0065057604,0.0301527,-0.014346982,0.0055821342,0.008953451,0.030074243,-0.010416366,0.05315728,-0.0006401324,0.0038009018,-0.02086939,0.004846241,-0.00848005,0.11311855,-0.0022903348,-0.061969936,0.05337986,0.025473367,0.030886818,0.028166384,-0.019514916,-0.0075542,-0.03928037,0.058712617,0.040694203,-0.011301955,-0.015397125,-0.011071702,-0.035316568,-0.008266282,0.015045161,0.01747836,-0.05882489,0.020204762,-0.07039681,-0.07541335,-0.00827399,-0.049436484,-0.026099619,0.03145218,-0.06807151,0.061598297,0.057141908,-0.011302056,0.020254506,0.049775176,0.049422797,-0.02491039,0.04628383,-0.03191196,0.03904639,0.082059786,0.06543544,0.040035326,0.044508696,0.035598177,-0.05902962,0.04235702,0.022306763,0.056911767,-0.061532196,0.009820288,0.010348265,0.024169508,0.0062341993,-0.015100114,0.029991256,0.02764436,-0.09037048,0.06649232,0.047412533,-0.019267293,-0.028384726,-0.0063577374,0.011924156,-0.039871477,-0.006487854,6.275797e-05,-0.038902216,0.0327369,0.01963507,0.033559386,0.048969846,0.055512805,0.045836616,0.0271704,-0.032008875,0.019679459,0.017898645,0.030898564,0.038279925,0.02616067,0.013499575,0.070271954,-0.048544765,-0.0036641913,-0.08628438,0.0074046752,0.053605933,-0.026971625,-0.06362036,0.017221516,-0.02310513,0.0064864648,-0.005799234,-0.00621047,0.014253795,0.06644668,-0.0043575154,-0.040586162,-0.018449739,0.016959652,0.020324886,0.0035633023,0.05338248,-0.00036134565,0.01641451,0.027557151,0.06616441,-0.07334606,-0.036060948,-0.027676985,0.02465417,-0.044307884,0.034345742,-0.025885602,0.014592692,0.039877117,-0.016664976,0.04264236,-0.042071953,0.006212253,0.039797053,0.019102234,-0.045572508,0.05480479,0.058084235,0.05093819,0.015413979,0.0214381,0.03199318,-0.029511658,-0.013077246,-0.037028875,0.03618847,0.017898455,0.034648117,-0.0011276818,-0.034022827,-0.006776132,-0.04184992,0.039323844,0.010502407,-0.044827342,-0.028134972,-0.004866116,-0.017365204,0.067633346,-0.06358023,-0.0024518298,0.067730494,-0.03205085,-0.026587859,-0.016256224,0.044225242,0.032693133,0.028302832,-0.05430581,-0.041260798,0.006683674,-0.09553755,-0.01532747,0.021891844,-0.055919077,0.008022496,0.003510612,-0.0491353,0.042867277,0.047655255,0.027573172,-0.029467423,-0.041681085,0.01421361,-0.0038544266,0.07118564,0.028451111,0.093174435,-0.04249564,-0.019654501,0.04277055,0.062361322,-0.02957638,-0.03611195,0.020778764,-0.04863423,0.030678881,0.028580273,0.01513354,-0.029746456,0.009385453,0.06910101,0.02952305,-0.011508493,0.08421594,0.0023346478,0.050234724,-0.073063314,0.041933622,0.009685162,-0.062289704,0.022107877,0.0497463,0.07594096,0.08739424,0.016765047,-0.0047374656,-0.01719928,-0.018756635,-0.012944725,-0.028197592,0.08777769,-0.009149118,0.030669354,0.061515052,0.03243423,0.023589175,-0.021222917,-0.0070835887,-0.02469796,-0.037353653,0.022595981,0.021709109,0.024445994,-0.007463144,0.030808879,-0.058561303,-0.031060778,-0.05072308,-0.017721755,-0.011253888,-0.021132842,-0.028629003,0.04683933,0.022827867,0.057063233,-0.0012530964,-0.029520353,-0.0010988767,0.038463168,0.017231561,-0.023625202,0.0418177,-0.012727216,-0.027826117,-0.0017094584,0.014133781,0.02392234,0.014650246,0.050132647,-0.03610922,-0.027988952,0.020149883,-0.03303734,-0.045588836,-0.048316672,0.03129966,-0.008851977,0.015061865,0.036750015,-0.06911853,-0.011561987,0.047393326,-0.0027479655,-0.04958643,0.007884585,-0.05824589,-0.033184428,-0.02125118,-0.0069773775,-0.009608312,-0.06609473,0.08167921,-0.019493893,0.017268736,0.074555226,0.024544934,0.0048380406,-0.017452138,0.056226943,0.0052679717,0.062115468,0.01339938,0.043970883,0.02005494,-0.002217702,-0.007939985,-0.01313947,0.053760953,0.021091333,0.055923965,-0.011427087,0.037416276,-0.09904068,0.013736325,-0.036083408,-0.037977777,0.04894657,0.03523934,-0.027055234,0.041730676,0.025170641,-0.014904815,0.055707455,0.014093821,0.034670915,-0.03289049,-0.0044728434,-0.07903866,-0.021754196,0.08564593,0.0047440897,0.016171904,0.029999489,-0.044799753,0.04450218,0.029053174,-0.004814519,-0.022691887,-0.051339917,0.024054894,-0.00010047237,-0.014910004,-0.015678618,-0.041148912,0.029642908,0.008418977,-0.04963212,-0.03946505,-0.036684554,0.03735577,0.0082057705,0.03116871,-0.0065657264,-0.007228265,0.016998565,-0.060768817,0.028002294,-0.036363076,0.013302906,0.016153444,-0.020207962,0.0026635167,0.049736645,0.10684539,0.034938022,0.033049613,-0.07869457,0.024294594,-0.020986551,-0.009600799,-0.009454902,0.014403377,-0.021784894,0.02158167,-0.03745713,0.01195209,0.0042456915,-0.06777528,-0.04136681,0.06633981,-0.018518237,0.024975883,0.006178078,-0.0062215626,-0.015139432,0.02303054,-0.103683986,0.06680755,0.011761543,-0.06850058,0.010204009,0.019936102,0.054646056,-0.038980167,-0.051090274,-0.018681906,0.0068770046,-0.03773465,0.024388906,-0.027189268,-0.027363468,-0.013299864,0.0051544816,-0.007546047,0.06318471,-0.05207407,-0.0077285464,-0.034052785,-0.001058552,-0.073463425,0.03637869,-0.058261517,0.009609107,0.0568428,-0.03473368,0.06487649,-0.023560688,-0.017481694,0.0036818702,0.026086003,0.05739395,-0.011002529,-0.030469147,-0.011332495,0.028478254,-0.009348548,-0.07884987,-0.09416835,-0.040987197,-0.072236605,0.005082486,-0.030045748,0.04815695,-0.07035603,0.00802459,-0.024486288,-0.0065783327,-0.026852429,0.06419032,0.067212895,0.007251536,-0.02632276,0.0041317786,0.01909015,-0.034006488,0.059295468,-0.04758675,0.014405157,0.01655984,-0.0064733634,0.018400714,0.009110219,-0.064112134,0.059815694,0.082667835,-0.05485145,0.046024382,-0.048935544,0.041089933,0.052830685,-0.039761934,-0.01945765,0.011195888,-0.0009080511,0.008693327,0.012213642,0.0016072013,0.054526262,0.0544159,-0.032131195,0.013257287,-0.016570264,0.045994077,0.003534097,-0.014089319,-0.008030134,-0.03784898,-0.06163656,-0.03364825,0.013708444,-0.0011136078,0.07517275,-0.022163833,0.055609904,-0.015892563,0.04274075
0.0025598896,-0.043508578,0.0029433926,0.035341207,-0.0647707,-0.017726004,0.012638197,0.018019328,-0.071838036,-0.029463222,-0.06782864,-0.032012418,-0.10440124,-0.037958115,0.0033863552,-0.07051181,-0.087741815,0.054642133,-0.021063745,0.007529139,0.008212135,0.03815925,-0.049518455,0.055645496,-0.015276722,0.037310865,0.0038842638,-0.09637013,-0.04974213,0.054073617,0.009474983,0.02796901,-0.03213834,0.043762825,0.006581112,0.0027643638,0.0028891684,0.042945318,0.047785677,0.059880372,0.025496976,-0.045545083,0.017857596,-0.005277977,0.004004642,0.033080164,-0.03284622,0.018459558,0.069576636,-0.0076931384,-0.06378014,0.011834171,0.029215772,0.010026164,-0.058298554,-0.004394126,0.021659693,0.031319443,0.070653275,0.021537706,0.017679516,0.0054575475,0.02409386,-0.011213333,0.0050259815,0.024912322,0.017356282,0.05303339,-0.013051782,0.05167619,0.06458261,0.009497963,-0.017485987,-0.0035733788,0.010464299,-0.011046496,0.023652095,0.0043509193,0.020925729,-0.025300203,-0.067391604,-0.046886507,-0.0017939936,0.0035860082,0.0015051153,-0.07718516,0.017220443,0.061350424,0.04682007,-0.038153656,-0.0597921,-0.10431882,0.065935485,0.09305575,0.00862861,0.030129703,-0.062981494,-0.016604554,-0.023152571,-0.011742696,-0.049615283,0.058147103,0.0026011758,0.072726965,0.036262315,-0.03800008,-0.06806466,0.022324635,-0.0117198955,-0.01991804,0.074890114,0.047883607,0.02924152,-0.029321317,-0.06384342,0.02950593,0.017204532,-0.021342695,-0.025062177,-0.026176155,0.061040975,-0.10174751,-0.009003216,-0.010630768,0.0101967,-0.04419245,0.00075568067,0.018438648,-0.0144634675,0.045328185,0.001950274,0.0114096645,-0.0755443,-0.023977067,0.04681736,0.043107186,-0.0151561955,-0.07548774,0.003321721,-0.04197392,0.005449283,-0.055138394,0.029954378,0.031455863,0.07977356,0.029972339,0.016217439,-0.02383495,0.053915393,-0.05620952,0.017733518,0.03712749,-0.01433226,-0.0033311974,0.039063085,0.012606635,-0.066882946,-0.04923867,0.062069718,0.055487625,0.054271046,0.037176587,-0.06635733,0.0056084376,0.008853785,-0.06781325,-0.022572305,-0.028128255,-0.012395917,0.0075639375,0.016161954,0.016648797,0.075270444,0.024868608,-0.005436402,0.03335085,-0.0094448095,-0.061322987,0.011187686,-0.01448446,-0.06336539,-0.019437468,-0.0160953,-0.03007945,-0.0038595132,0.0038467776,-0.049758878,0.06117793,0.029612511,0.036646087,-0.006015562,-0.07497087,0.038954403,0.007943461,-0.051773604,-0.03140178,0.01598138,-0.0055134967,-0.030931763,0.026617102,-0.024629524,0.047187757,0.025535759,-0.03465789,-0.015007924,0.057560895,-0.0027406388,-0.036238145,-0.0060388874,-0.014146605,-0.048053753,0.014317782,0.0791803,-0.0130530475,-0.019659154,-0.03260052,-0.03043006,-0.035188258,0.016503867,0.06238523,-0.04332169,-0.011837921,-0.027749253,0.058297273,-0.056679048,-0.0067812707,-0.011461473,-0.0021887303,0.057927653,0.012329761,0.06774474,0.07301074,0.01658544,-0.011985248,0.0025315827,-0.0024384565,-0.061970588,0.0434519,-0.031055095,0.011108752,0.055919796,0.00485452,0.021793323,-0.09554122,0.028534234,0.00047882396,-0.011818743,-0.001791615,-0.03215438,-0.015220943,-0.11198121,-0.0004383262,-0.04294883,0.041661847,-0.042708613,-0.027765524,0.039542682,0.05476697,0.060618427,-0.0017707926,0.01265151,-0.05656236,0.007819136,0.0006062518,0.030077254,0.011767765,-0.035969976,0.05081365,0.04226855,0.014725049,0.048395894,0.03334074,-0.059879236,0.034036234,-0.037987303,0.03838914,-0.0535262,-0.06806926,0.052406494,-0.026539007,0.070649505,0.090102114,0.017519718,-0.059888497,-0.06460315,0.006317877,0.077152275,-0.013830638,-0.010288739,-0.053157605,0.009466606,-0.055869073,0.0022978797,-0.011454975,-0.026859295,-0.05990733,0.033077646,0.008516846,-0.016433038,0.023648247,-0.004960485,-0.014950803,-0.007893914,0.044713534,-0.036522478,0.01541385,0.05424351,-0.01692735,-0.014481448,0.033289254,0.01220623,-0.073426284,0.0259575,-0.022974158,-0.040696304,-0.031218883,0.03839379,0.009710119,0.047023483,-0.028999552,0.07390823,-0.007068463,-0.03917451,0.017873457,0.031579368,0.0030223925,-0.016078852,-0.05685372,-0.059056308,0.058592014,0.040095642,0.007747353,0.039855003,-0.04123802,0.064455904,0.04508,0.035643768,0.036983628,-0.0065905126,-0.035117444,0.013594332,0.028414853,-0.008982724,-0.094324164,-0.030100433,0.027746955,0.09648642,-0.013722216,0.029460054,-0.050084986,-0.0073688887,-0.042448618,-0.0577733,-0.024913909,0.005276121,0.01923471,0.06659632,-0.04265245,-0.038519062,0.019991154,0.009340096,-0.041637033,0.0234408,-0.013705307,-0.02902061,-0.05474503,0.014273188,-0.025581589,-0.040187415,0.036772117,0.05267955,-0.080832236,-0.031712923,0.03450713,-0.0572227,-0.057012685,0.010529334,-0.045359567,0.00037412767,-0.0074661747,0.013658234,0.028512837,-0.07188181,0.048192244,-0.014825351,-0.058428016,0.032325145,0.024401125,-0.0527406,-0.056775134,0.035448465,0.009145867,0.056045104,0.032879155,-0.019097168,-0.017038599,0.00078183116,-0.06055654,-0.018045878,-0.025919845,0.024970124,-0.043368764,-0.036854465,-0.045013025,0.0049559427,0.029430375,0.060024835,-0.026817437,-0.09130952,-0.0071803485,0.07569109,0.009065657,-0.062512524,-0.053482074,0.033060454,-0.034043405,-0.02952524,-0.020001192,0.011941877,0.05147913,0.007512458,-0.07769089,0.031889785,-0.014116305,-0.037590005,-0.06440829,-0.027038176,0.008324585,-0.040463664,-0.020393325,-0.017511457,-0.003295502,-0.03324414,-0.015169786,0.024378838,0.04770825,-0.058779147,0.047532167,0.034598682,0.040034927,0.004480842,-0.020344783,0.069319084,-0.10629419,-0.062928066,0.014362399,-0.041725274,-0.0062117544,0.021167599,-0.01615771,-0.007813728,0.039809268,0.025142578,0.032423254,-0.032933094,-0.043915235,0.047874913,-0.068414465,-0.03381612,-0.027707875,-0.05061225,-0.018589169,-0.013652604,-0.040282715,-0.020733869,0.033737242,-0.0004494873,-0.02993361,-0.057701603,0.008301764,0.030661987,0.011515332,0.016161855,-0.060039666,-0.037368562,-0.017190477,-0.05008514,0.01473455,-0.01401275,-0.014670827,-0.006176188,0.04830547,-0.078705825,0.05334415,-0.061090596,0.0055799107,-0.024665656,0.047692727,0.06970868,0.036586236,-0.033868477,0.087545484,0.044589218,0.018267514,0.009645128,-0.019755948,-0.05476923,-0.03144332,0.035945594,-0.032010857,-0.050651368,-0.046381723,0.023109306,-0.057072032,0.050566964,0.061646238,-0.0021562865,0.0033053698,-0.03961497,0.058834836,0.03672558,-0.020414822
-0.01721571,-0.11299772,-0.006682478,-0.072899565,0.08923648,0.026719391,0.018731073,0.11237824,-0.12840052,0.033885557,-0.005512618,-0.0041833916,-0.015123669,-0.011321939,-0.058576334,-0.053378817,-0.07056171,0.036169376,0.03197874,-0.013819117,0.08250829,0.03494723,-0.041417763,0.00560225,-0.06525256,0.015457365,0.01803066,0.041181594,-0.07712187,-0.016109606,0.042959005,-0.033312168,0.029118132,0.030648999,-0.06417183,-0.023628587,-0.037420604,0.02999827,0.007825851,-0.018445412,0.010993018,0.070012346,0.044412844,-0.035006177,0.035791088,0.04398052,-0.014827653,0.029005693,0.069578625,-0.036715265,0.0074417945,0.036078837,-0.08048461,0.0466467,0.029577447,-0.025815053,-0.0035036057,0.03160985,0.040524255,-0.0114409635,0.0029868807,-0.007821439,-0.015723046,0.020587103,-0.0023753864,0.03877125,-0.03850641,0.083364256,0.00457376,-0.04956651,0.0569703,-0.018519834,-0.011862567,0.023350082,0.019665617,-0.04544658,-0.010996596,0.026097752,-0.042766374,0.10088676,-0.012828716,-0.020269046,0.025480788,-0.00050723297,0.05559368,0.012433457,0.021023601,0.024912242,0.03896318,0.006327306,0.024851466,0.069957905,0.016753752,0.040062804,0.015084656,0.02296133,-0.01779932,-0.03425596,-0.020098928,-0.030109294,-0.0138391415,0.024300717,-0.006860575,-0.013088405,0.03963065,0.060191385,0.05990745,0.00014083867,0.018139994,-0.016333228,-0.029929766,-0.0047661136,0.0014025457,-0.060184132,0.042026494,-0.042276796,-0.0373862,-0.07129201,-0.01295232,-0.02346884,-0.06827458,0.043565713,-0.017359497,-0.047877733,0.042269915,0.008392734,0.01280728,-0.045181632,-0.004065703,0.0009156647,-0.009268202,-0.044240933,-0.07926294,0.015274223,0.03754657,-0.060586937,0.010865577,-0.064247586,-0.0010673228,-0.008660744,-0.07164633,0.025612313,0.022875033,-0.050836135,-0.07744109,-0.04435957,0.016403977,-0.015290517,-0.0024876387,0.0018399084,-0.002919455,0.031349204,-0.003167106,-0.0471259,0.020311171,0.019352859,0.028491795,-0.011522284,0.030207705,0.037453536,-0.09126321,0.01968231,0.05342201,-0.046733934,0.035292804,-0.05003615,0.0025649967,-0.013437842,-0.036539234,0.014393454,-0.075968914,-0.007072587,-0.049041238,0.022773497,-0.111933194,-0.06676445,-0.043854333,-0.06711808,-0.04075814,-0.01656676,-0.028284976,0.00016119484,0.031620894,0.0016735645,0.046569716,0.026632873,0.025611103,0.007143893,-0.056751736,0.06490562,-0.013701561,-0.025905654,0.028153816,-0.009998342,-0.022484671,0.06419501,-0.002312097,-0.024561964,-0.012206636,-0.034425307,-0.047526825,0.02128532,0.015408711,-0.048881255,-0.025438512,-0.019002514,0.092062436,0.018338524,-0.037053827,0.030463062,0.025233096,-0.047215946,-0.057612542,-0.00673075,-0.015449911,0.028723227,-0.00084494066,-0.037346438,-0.028087402,-0.024065277,0.033613157,-0.003148435,-0.072310686,-0.008422201,0.07309519,0.04475609,-0.03156414,-0.09403103,-0.013620732,0.05616195,-0.0023358893,0.051388707,-0.0631797,-0.0014232283,0.041908402,-0.032213237,0.043230336,-0.002340924,0.044081867,-0.033678684,0.022180337,0.02495332,-0.05000834,0.055028606,-0.08448699,0.0717692,0.04109034,0.0058392454,-0.021189094,-0.013177135,0.02017794,-0.004106694,-0.008338705,-0.025118152,-0.0571224,0.034866158,0.050738692,0.009677206,0.014131439,0.019252056,-0.042561945,-0.038750555,-0.03775602,-0.0745886,-0.027461633,-0.0007826275,0.024850665,-0.06772281,6.3831762e-06,0.031719614,-0.0636428,0.027500447,0.013461366,-0.049559496,-0.04098511,0.05383399,0.048060693,0.02674878,-0.024706298,0.03317524,0.0053382227,0.048035093,0.03154731,-0.008966776,-0.025956234,-0.02810371,-0.028158862,0.0655977,0.009801541,0.03531989,0.03739222,-0.008862556,-0.042503033,0.008238946,0.029484041,-0.009479582,0.015893077,-0.017755127,0.017198943,-0.0022581706,0.052834246,0.041838914,-0.047959607,-0.035823498,-0.019179981,-0.07690466,0.07445825,-0.07492439,-0.039392523,0.0102441115,-0.06511186,0.00010680666,0.0077429432,-0.02460131,-0.059748966,-0.02422777,-0.012478728,0.02500275,0.02915977,-0.016752265,0.024721986,0.03540166,0.055072196,0.036780935,-0.1037633,0.0061440724,0.017549358,-0.07787437,0.03990124,-0.025680976,0.055176277,0.052871905,0.070721865,-0.007715054,-0.11645516,0.017907623,-0.03287363,0.01324988,0.0009515738,-0.00834739,0.0704655,-0.0018069093,-0.032250207,-0.014401558,0.009018738,-0.04521397,-0.11406364,0.0316921,0.012203267,0.0027211455,0.027990274,-0.08624435,0.07039482,0.059383087,0.04637683,-0.0043031843,-0.036958456,0.033110116,0.032060474,0.045596596,-0.07569333,-0.009072337,0.070697464,-0.075727284,0.045687437,-0.012394213,0.00089011947,-0.034476742,-0.015206198,-0.01140631,-0.028370034,0.07734771,-0.039790228,0.010524788,-0.01751806,-0.023981428,-0.030448703,0.029267747,0.045099035,-0.0017961479,-0.034317095,0.01797585,0.043165896,0.0061903764,0.014123738,0.024693,0.07548011,-0.032875482,-0.048615497,0.050389264,0.01843008,0.028237918,0.003447812,-0.044801395,0.010947014,0.039018814,0.021201696,-0.035126913,0.0051493086,-0.010025257,0.027129015,-0.060010266,0.07429566,0.05182063,0.055421162,-0.059899967,0.036136627,-0.025829425,-0.061418615,-0.01733519,-0.05011863,0.0033150273,0.08448943,-0.06853033,-0.08078277,0.007515873,0.015154636,-0.028100684,0.029339213,-0.054168366,0.032562263,0.053779237,-0.088045135,0.078538224,0.042923212,-0.0041268277,0.016324067,-0.0056685926,0.014500177,-0.100907445,0.039483692,-0.04861389,-0.037374325,0.0111060785,-0.03000813,0.024962679,0.04346075,-0.032704644,-0.017607959,-0.006488124,0.025155641,-0.020675346,0.040056333,-0.045307584,0.035353176,-0.07585785,-0.03903389,0.007939733,0.0018978807,-0.004304749,-0.017172774,0.006296503,0.0014391856,0.011074658,-0.002206455,0.006236491,0.0006477848,0.0003924382,-0.016780525,0.028426947,-0.01237059,-0.00068991503,0.02879187,-0.030745741,-0.029156951,0.017582223,0.017459126,0.045196738,-0.029677283,0.018174855,0.02990834,-0.064221844,0.036466885,-0.020264432,-0.07306346,0.067022465,-0.03978987,-0.044914197,0.078139834,-0.008280375,-0.078351274,-0.020303113,0.035787,0.04900854,0.03809316,0.01555379,0.013081989,-0.060830597,-0.011113629,-0.025755975,-0.0029020708,-0.04820914,-0.039527383,0.040515613,-0.053439118,0.0053091757,-0.00922847,-0.010514098,-0.030782653,0.058747318,0.014441434,0.008235414,-0.022363663,0.0144740855,-0.0094766775,-0.00803038,-0.008244999,-0.08999251,0.043781012,-0.0108745,0.009255815,0.026104545
-0.090261646,-0.018142978,-0.01391305,-0.038694356,0.14401482,-0.007863878,0.032918133,0.06051557,-0.06816053,0.031899054,0.06284845,0.023942769,-0.0116086025,0.009916528,-5.8832677e-05,-0.049111407,-0.023483884,-0.009351185,0.067997456,0.010621843,-0.039332464,0.025971534,-0.034210376,-0.0037192944,0.024532368,0.047116987,0.013282536,0.0627398,-0.03361259,-0.029797515,0.07193784,0.0021199058,0.05165125,-0.030445203,-0.040738966,-0.017535387,-0.058398493,0.045876972,-0.016158389,-0.056790326,0.033051986,-0.027940562,0.030044641,0.0074063265,0.0008419954,0.03702003,-0.03611625,-0.047226924,0.073443495,-0.059048474,0.005706457,0.040654063,0.02773481,0.0046780636,-0.02290245,-0.083621174,0.04770748,-0.036887277,-0.034549236,-0.012397733,0.017625235,0.024841342,-0.055453952,-0.011862361,0.024519172,-0.06027097,-0.024879785,0.030612573,-0.0048808074,-0.03957804,0.026862195,0.009184593,0.062014513,0.06302994,0.009473141,-0.042561207,-0.020986352,0.040902678,0.031714056,0.02350108,-0.08987908,-0.044064768,0.04091004,-0.022694727,0.0034341821,-0.043079875,0.058019374,0.03165782,0.007993773,-0.015565041,-0.051697336,-0.021859197,0.06233904,0.040833067,0.0005524217,0.037307285,0.05738245,-0.047395848,-0.0026562468,-0.0009378409,-0.04482772,0.0015708815,-0.03127279,-0.009976996,-0.055648606,0.02256614,0.014676679,0.01940983,0.039935704,-0.0078138,0.011693374,-0.008165446,0.003781316,0.04332983,0.023826234,-0.026099281,-0.024514114,-0.007647581,-0.07434453,-0.035667926,-0.053303428,0.00847043,0.0042627747,-0.039825708,0.010846373,0.04111655,0.031873684,-0.024867466,0.05189737,-0.010200645,-0.033044692,-0.014158091,0.0036655648,-0.020107118,-0.03093202,-0.009679023,0.033223912,-0.0018553896,0.040353373,0.056734428,0.028142227,-0.033968717,0.021527031,0.03962213,-0.017100466,6.664875e-05,0.029837752,0.052403998,-0.041297946,0.039881196,-0.004129361,-0.014596282,-0.026919693,0.006098338,-0.043047573,0.018213887,0.046029694,-0.04780693,0.01086098,-0.0076842946,0.01151036,-0.017444367,0.03176867,0.03625215,0.011420332,-0.03076726,-0.041033123,-0.035625923,0.04376234,-0.0014143079,0.008054423,-0.012287169,-0.012899144,0.03665946,-0.019613653,-0.04027895,0.038552206,-0.048142046,0.017373366,-0.028087234,0.025845353,-0.030556638,0.05144361,0.032257985,-0.028739804,-0.0075517767,0.026188875,0.0498412,-0.0372933,-0.043537922,-0.017786985,0.031807236,0.07576141,-0.04297307,-0.04486295,-0.024439778,-0.03640538,-0.0043771733,-0.0076749534,0.029717436,-0.025558537,-0.0038338508,-0.010811715,-0.018888548,-0.044297263,-0.0035910797,-0.06940229,-0.055759653,-0.035190396,-0.06766471,0.02458301,-0.03146868,0.012270209,-0.017624177,-0.0049436716,-0.007840902,-0.039316155,0.016689388,0.037818827,-0.022496516,-0.039514177,-0.014001208,0.040707774,0.074333265,0.0025913494,0.007144872,-0.012505403,-0.05520811,-0.00897121,0.003995591,0.024468182,0.01144688,-0.029994434,0.033789616,-0.06549678,0.0016576584,0.009653903,-0.006299525,-0.0072172657,-0.0127023095,-0.039578356,-0.02940071,-0.008397506,0.011996137,-0.06442094,0.062465347,-0.035809062,0.0091052735,-0.06038314,0.01335605,-0.017409207,-0.011086967,0.00012352834,0.03758309,-0.048855994,0.011475344,0.025360199,0.015914006,0.018456424,-0.029549148,0.011504715,-0.055007435,0.019019887,0.02173184,-0.007001825,0.035279915,-0.015374405,0.027834581,0.06647164,0.028655332,0.013454146,-0.014125777,0.02537369,0.03298181,-0.04917822,0.0033087342,0.06059064,0.049940396,-0.06742068,-0.06688817,-0.026745867,-0.006811933,0.0021951206,-0.026984915,0.0077759065,-0.0109592965,0.04275633,-0.037039008,-0.005758801,-0.055953026,0.038949847,0.02252684,0.022107322,-0.012463392,0.047180567,-0.004024356,0.034996163,0.08026554,0.03741732,0.044039622,0.07494699,0.01975202,-0.034917578,0.009523025,0.03489256,0.04215973,-0.03574826,0.004035608,0.025168408,0.041885227,-0.00816868,-0.02545364,0.06527979,-0.0003403844,0.0021701772,-0.030426206,-0.051689953,-0.03397408,0.007487171,-0.070254646,0.008050075,-0.023756409,0.028121408,0.01150444,-0.07184157,0.07969927,-0.03572951,-0.00063421734,0.024574447,0.07361378,-0.057275496,0.0018313954,-0.024638979,0.037013046,-0.024871193,0.008120029,-0.082940586,0.039657246,0.001259302,-0.025152663,-0.0105732465,-0.019667245,-0.01868227,-0.042192362,-0.03982628,0.052223913,-0.039836854,0.067499764,0.029511843,-0.02565119,0.014157069,0.035513822,0.022174066,-0.004861336,-0.047864765,-0.0073518693,-0.0084970165,-0.043647267,-0.032395374,0.035814982,-0.012892307,-0.059597388,0.09401951,-0.0024936656,-0.037354857,-0.004027247,0.002234761,0.025372706,0.051276308,0.04288033,0.01340101,0.020466805,-0.040451594,-0.030181633,0.043901645,-0.03607274,0.045534946,-0.047656942,-0.017197585,0.036467947,-0.009567274,0.031978022,0.04824076,-0.037793074,0.010926305,-0.048403732,0.03020072,0.0027822198,0.014855643,-0.007305641,0.022441404,-0.021738686,-0.031344343,0.078721546,-0.055838834,0.01035457,0.017545316,-0.030337354,0.046646897,0.019163229,-0.0063425275,-0.011750023,0.0134891765,0.024976805,-0.002774393,-0.03813603,0.026948655,-0.058408763,0.097350106,0.0036488087,-0.046510264,0.005410962,-0.026426313,0.003473983,-0.0094758915,0.009097567,-0.004434569,0.039979573,0.039846685,-0.0034524938,0.0372839,-0.050018046,0.02750549,0.06755939,0.03891811,-0.0052808165,-0.06043752,0.007726196,0.015424902,-0.04141729,0.004870209,0.050496202,-0.03491163,-0.032998554,-0.04427865,0.0024933093,-0.024582226,0.027953222,0.038151156,0.0033397665,-0.057343516,-0.014251752,-0.01659752,0.04219033,0.022744851,-0.018295333,-0.05359608,-0.02634471,-0.040930264,-0.04632954,0.023084017,-0.032262612,-0.0010909879,-0.054945208,0.026612708,-0.027932249,-0.017632889,-0.013724558,-0.0018802556,0.054003324,0.0042698393,0.031845637,0.057000346,0.021078378,-0.01156077,-0.009298849,0.008210988,0.03538358,0.015331411,0.0013613899,0.0069626165,-0.0030666492,-0.01313525,-0.040481437,-0.03357186,0.010991869,0.062366538,0.07485699,0.049360637,0.06701676,0.009685669,0.04016357,0.048577186,-0.051725693,0.043970417,-0.04331505,-0.010273648,-0.043110378,-0.09328147,-0.019972984,0.034008034,-0.0008903578,-0.0044534295,-0.047334146,0.05057237,-0.042647637,0.024447564,0.04331362,0.051320333,0.035857126,-0.008073984,0.034160618,-0.01873399,-0.016623978,-0.0041990336,0.029918572,0.033081755,-0.034858763,0.018386422,-0.009882215,0.004144821,0.025269132
0.04309661,-0.03778442,-0.024400273,0.041962925,0.0010644856,-0.035359975,-0.0028628698,-0.03686297,0.034809582,0.011376472,0.031377308,0.013386871,-0.028475937,-0.024056388,0.007863526,-0.05347152,-0.030114686,0.009870721,-0.027041977,0.023582246,0.05145224,0.009468039,-0.021913985,0.012367692,0.0025619713,0.05180866,0.013892733,-0.00039094148,0.06873228,-0.00832183,0.011865629,-0.0070567527,0.064291134,-0.03697416,0.016925322,0.07437525,0.021171112,-0.060358725,-0.012000814,-0.025584668,-0.0078784665,-0.019905964,0.010500687,0.026162097,-0.001334021,0.015317644,-0.0053111673,0.023292778,-0.0029286852,0.06686634,-0.028530847,0.04957165,0.048792295,-0.027652064,0.06409942,0.022701956,0.0085714515,-0.016925015,-0.0029757046,0.013114668,0.04607665,-0.02307811,0.054989986,-0.0069381474,-0.0011188072,0.040020972,0.049243093,0.054220688,0.028186068,0.019296806,-0.02899439,0.03174904,-0.020218445,0.018854862,0.02460873,0.013531194,0.0027499234,0.07442988,-0.0014111487,0.053552162,-0.045833014,0.03253282,0.031336755,-0.02044755,0.032070916,0.030088589,0.02670726,-0.06464919,0.028301422,0.02115001,0.0057242704,-0.033530273,-0.018723166,0.028224077,-0.023537625,0.050121058,0.013503625,0.022792354,0.033308268,0.011715583,0.0046620667,0.0016187036,0.036975242,0.025517635,0.035759218,0.0122320205,-0.007120563,-0.00080767967,0.046019357,-0.035534542,0.037194654,0.01679346,-0.011974764,0.033244085,-0.030815728,0.06719098,-0.06424425,0.07330602,0.05838116,0.047485273,0.056758758,-0.0022189945,-0.020075869,-0.080213405,0.023522688,-0.0028791004,0.012229839,0.007933161,-0.00070514623,0.0408265,0.06374026,-0.016984398,-0.035072777,-0.023982923,-0.0009642234,0.05593994,-0.008718878,0.02108353,0.058388513,-0.069835454,-0.018779907,-0.051457014,0.007969648,0.035345033,0.019401126,0.0075347265,-0.028313516,-0.007920842,0.025025757,0.0017107178,-0.005162836,0.013657723,0.0068994574,0.0042678337,-0.019443378,0.014592292,0.06370696,0.026975498,-0.007628888,0.019639738,0.034234278,-0.011346759,-0.019268699,-0.035251282,0.019205406,0.020767989,-0.08681059,-0.030243015,0.030967427,0.012875228,0.016650146,0.03363653,-0.026367372,-0.0012333777,0.033812936,0.0905826,0.0005774033,0.0266617,0.04387113,-0.030926427,-0.034828227,0.039513364,-0.016867332,-0.041846123,0.04149418,0.037209596,0.04164631,-0.013110314,0.040384725,-0.04903365,-0.023833893,-0.029224157,0.06606913,0.07001439,0.012575892,-0.02155668,0.01181515,-0.017634949,-0.035475757,0.0026967006,0.028892793,-0.005397756,-0.049823813,0.084886216,-0.0038207783,0.039743766,-0.05145121,-0.012917899,-0.009381082,0.058652606,0.02223442,0.038728397,-0.0015843511,-0.078742154,-0.020607024,-0.009917197,0.057331804,0.006753478,0.011762075,0.07866147,0.027048862,3.5771256e-05,-0.010763196,-0.007992752,0.010376613,0.0774182,0.0006777464,0.021462763,4.895847e-05,-0.019213177,0.039904553,0.0047278763,0.04804274,-0.063018724,-0.049142297,-0.075547636,0.027380442,-0.0027231956,0.0020289165,-0.02563993,0.05026864,0.008531141,0.056263346,0.030940302,-0.023124775,0.02675115,-0.051400613,-0.007904412,0.014217612,0.022316124,-0.006345672,0.014784516,0.07171998,-0.046738435,-0.10925074,-0.06526444,0.027200751,-0.025934953,-0.019309467,0.041917425,-0.046529833,0.07478938,-0.025746882,-0.008341578,0.033002254,-0.026222995,0.034644123,-0.058038395,0.04517439,0.051267352,-0.013720572,-0.014984388,-0.032189082,-0.021043858,-0.018111587,-0.02373356,0.06082324,0.0058856676,-0.037196726,-0.0036146971,0.03378583,-0.06693111,-0.0025899776,-0.024179017,-0.03193686,0.032584455,0.037936956,-0.05538395,-0.0346036,-0.007874404,0.08197227,0.082567714,-0.022822194,-0.0062161717,0.05205787,-0.016256245,-0.041042298,-0.006003374,0.03483621,0.037738115,0.034887362,-0.0024875947,0.009791443,-0.008210991,0.016743403,-0.040130753,-0.01853448,0.00909559,-0.079833664,0.041810077,0.04709594,-0.050590303,-0.006391833,-0.023549259,0.046315126,-0.03605908,-0.069485925,0.018847086,0.031680018,-0.011326341,0.05556104,-0.03611558,0.016876705,0.04976525,0.018633869,0.0038003584,0.0019678632,0.06966727,0.008280939,0.029865807,-0.036068823,-0.041886713,-0.0033807477,0.042022128,0.030706277,0.0075014587,0.021202851,-0.04902119,-0.017385101,0.018212676,0.05700076,0.025251813,0.021405522,-0.00031468348,-0.027008494,-0.05464132,0.057199467,-0.018206252,0.039143823,-0.079178885,-0.034832917,0.015328615,-0.00074819184,-0.005416542,-0.037284557,0.027853228,-0.017930362,0.015353409,-0.03863052,-0.04625484,0.014831183,0.07989836,0.011569156,0.069263116,-0.026792794,0.034114867,0.0384426,0.0648988,-0.01806046,-0.034340218,-0.017769823,0.035538424,-0.057824872,-0.0031232594,0.02750626,-0.032974012,0.0316541,-0.06824867,0.060750674,0.028038068,0.0734285,-0.0099989725,0.029856106,0.024346802,0.032341324,0.01973931,0.033019647,0.06798553,-0.01757217,0.028647456,0.004325132,-0.033219818,0.034645643,0.015334469,-0.011691395,0.015169588,-0.0129913045,0.027430866,0.09814245,0.016577799,-0.019820018,0.0065955594,0.0030370604,-0.059751254,0.050085735,0.0038127194,0.050221197,0.0712125,0.007951871,0.004707315,-0.007333712,-0.028717319,-0.06625024,0.031135647,0.009151406,0.0064597814,-0.02433496,-0.009386488,0.013420207,-0.020794813,0.005539095,0.024928529,0.025534328,-0.07993005,-0.045463502,0.04545174,-0.0021260155,-0.028704854,-0.03897626,0.060377758,0.0052569504,0.045093253,-0.01233587,0.03281692,-0.013557706,-0.06332628,0.02836126,0.029383846,0.051673986,-0.059147608,-0.01041224,-0.014307194,-0.02320985,0.014279667,-0.02035125,0.029018423,-0.040827863,0.015394061,-0.02145674,0.033678472,-0.0004683292,-0.018228585,-0.06411769,0.009334233,0.04139544,-0.037424326,-0.0038350844,-0.015406096,-0.035028357,-0.030166509,-0.013282603,0.0035468086,-0.030968172,-0.037785,0.054150067,0.025541099,0.009560277,-0.018883908,0.06555041,-0.017219953,0.0040701344,0.019714527,0.003414354,-0.049117066,0.068422236,-0.051194888,0.035847966,-0.005922057,-0.038715076,0.024899451,0.005256484,-0.0015311725,-0.030550139,0.0069254013,0.018094728,0.018337836,-0.018404065,-0.013113937,-0.070981845,0.035250664,-0.0047944435,0.014640449,0.070495576,0.010313711,0.030424403,0.031239493,0.021320395,0.05860739,-0.0290427,0.02298869,-0.024651768,0.02123685,-0.0270305,-0.05335606,-0.031503603,0.01838161,-0.043979958,0.0055137025,-0.0268806,-0.0435083,-0.017365746,0.0077856695
0.05214008,-0.004346337,0.050130166,-0.032764867,-0.1067102,-0.0330904,-0.05437311,0.030398225,0.0007784554,-0.014592106,0.017240418,-0.038805977,0.015791496,-0.026870359,-0.0063901045,0.017822823,-0.040818907,-0.066565946,0.027220605,-0.02022808,0.035507623,0.010028435,-0.008995728,-0.023453007,-0.043669257,-0.038308218,0.058383703,-0.039877113,-0.011931839,0.003638156,-0.07121242,0.012200856,0.003668359,-0.032884896,0.033090543,-0.009049263,-0.054416854,0.0069980915,-0.022610007,0.024073994,-0.014307963,0.020204572,-0.0038255432,-0.05490627,-0.058813613,0.017310416,0.041357,0.03919254,0.0075419284,-0.042044945,0.0223005,-0.02863814,-0.026573816,0.039167818,0.0737645,-0.00411145,-0.084893465,0.0538605,-0.0109693855,-0.05176283,0.0129036205,-0.04536843,-0.011984161,-0.0092348745,-0.00043219712,0.05342653,-0.076854356,-0.011528225,0.021845762,-0.017524326,-0.050898317,-0.028616717,0.0061267805,-0.049261093,0.019691188,-0.034229394,0.01579854,0.036395084,0.022981437,-0.045804508,-0.06906808,-0.04520194,-0.021907145,-0.02248657,0.03803033,0.021015778,-0.020549092,-0.011192283,0.06973502,0.009695518,0.014506219,0.043902032,-0.09241276,-0.07321788,-0.009350728,-0.04295336,-0.039486412,-0.0014731406,-0.017363708,0.0076564453,-0.008722777,0.024622243,-0.001857116,0.070613466,0.01436495,0.072147846,-0.037186865,0.004445933,-0.014491744,0.045712743,-0.019054579,-0.0665773,-0.007867456,0.042818967,-0.039649624,0.033209424,0.0049017603,-0.02511949,0.020894358,0.01007335,0.0016708635,0.007964353,0.015956992,-0.0023437333,-0.057268992,0.005402777,0.03422521,0.054114297,0.010330826,0.009686431,-0.02687715,0.011205484,-0.081994765,-0.056174826,-0.05260507,0.008021632,0.029754503,-0.03795046,0.03579665,-0.025574217,0.087016,0.05220464,0.111678444,0.03325131,0.003708717,0.0023688462,0.024133062,-0.010709886,0.017189005,-0.023768084,-0.022755295,0.0200796,0.0174051,0.0049353703,-0.057825025,0.03332907,0.06345924,0.0570826,-0.10033318,0.016273307,-0.0038947824,0.0012110326,0.04338402,-0.11136353,0.04018515,0.014113092,0.061922953,0.029955782,0.05131568,-0.013994248,-0.001190876,0.022723418,0.026126483,0.058661327,0.056107417,0.011358165,-0.017552577,-0.047089018,-0.031781133,0.053955298,-0.03493372,0.052223854,-0.009774473,-0.000107274805,-0.018255511,0.0049918005,-0.0040110853,-0.007707383,0.009214961,0.02467076,0.024470694,0.00069015136,-0.07760232,-0.08821133,-0.05300603,0.026415894,0.01052342,-0.027685894,-0.0068143476,0.037425674,-0.013828942,-0.043990266,-0.068227515,-0.07450419,-0.020064965,-0.021880968,0.014313079,-0.015127751,-0.046010718,0.029282644,-0.05835763,-0.047375012,-0.05566042,0.022522766,-0.0288644,0.025579838,-0.0054834564,0.05597894,0.022877526,0.074019715,-0.018306995,0.023726385,0.042592917,-0.050679766,0.019556358,0.006502073,-0.06140509,0.002918466,-0.033917915,0.017200435,-0.011931188,-0.0225241,-0.103834525,0.017126063,-0.03236009,-0.03191466,-0.043161944,0.04291083,-0.017331913,0.0024675035,0.006324131,0.009235225,0.008826461,-0.066284396,-0.011893875,0.052239034,-0.009227647,-0.042432833,-0.01581407,0.017771857,0.039770342,0.012933638,0.046538956,-0.08021198,-0.026274372,-0.01760103,0.06639061,-0.037303388,-0.032774158,0.024661263,-0.06492832,0.02712774,0.023090806,-0.0095274225,0.03431217,-0.08065318,0.004588595,0.0016017753,0.061817955,-0.036238827,-0.006938285,-0.035338562,0.049081497,-0.035017554,0.03856164,-0.024657879,-0.018146425,-0.02942583,-0.06589101,0.05171371,-0.033677462,-0.01092711,0.049046233,0.047947552,0.014589621,0.01867788,0.060488973,0.03767245,0.006869893,0.016735392,-0.0064408323,-0.06239552,-0.05313659,0.025557436,0.048390325,0.046643857,-0.009438331,-0.013125273,0.016161019,0.056957748,0.055629976,0.047179732,-0.0031146535,0.058720425,0.055917326,-0.0250433,0.0058690757,-0.038609747,-0.0018046234,0.09298433,-0.03632663,0.020624341,0.01641534,-0.025421515,-0.04674863,0.014738667,0.012106775,-0.040970847,-0.05790773,-0.014256996,-0.047809366,0.038869075,0.0348534,0.015075768,0.05128302,0.04685912,-0.026003046,0.007592391,-0.03146535,-0.0027283486,-0.002381592,0.0694665,-0.08662544,0.044576444,0.05957109,-0.031849697,0.066703506,-0.049055677,-0.0017185475,-0.03241582,0.08059917,-0.049795378,0.036795035,-0.07499743,0.04749686,0.03977572,0.05808654,-0.07079147,0.054773916,-0.0048037376,-0.007039657,-0.018775059,-0.008820472,-0.027221689,-0.033300348,0.045266323,0.10228809,0.031131726,-0.022058202,-0.0072705047,-0.0027085757,-0.00031100033,-0.0042594657,-0.026328335,0.030024434,0.041196935,-0.044267863,0.04665041,-0.02766428,-0.039134957,-0.0123015335,-0.004503045,0.05678618,0.03945341,-0.014882654,0.054830596,0.01827063,0.002801041,-0.10327353,0.034595188,0.07051171,-0.027317232,-0.0069567463,-0.017796025,0.02312066,-0.025667831,-0.032294255,0.0011071367,0.020690314,-0.023586389,-0.04536382,-0.005405492,-0.031974785,-0.056352306,-0.06868486,-0.018500399,-0.07569126,0.08743921,0.068334475,0.061186776,0.04185376,-0.02811948,0.018034616,-0.008065532,0.022078756,0.026401207,0.051938877,0.020840578,0.027104722,-0.028722417,-0.046866987,-0.07320962,0.007378709,0.0067931274,0.041105,-0.00214423,0.07289003,-0.050912008,-0.04404874,-0.06864718,-0.0086271,-0.034239266,-0.007905854,0.015789408,0.006885416,0.012672779,0.04445839,-0.040649712,0.023676043,0.0051923464,-0.06482606,-0.0014884636,0.032029193,0.013163957,-0.036733177,0.002257048,0.024069725,-0.07457873,0.046034418,-0.021854233,0.033457793,-0.042232182,0.025164008,-0.019280877,0.0062108417,0.046302374,0.050808538,-0.011874247,0.007946772,-0.00056830177,0.033352938,0.046925247,0.015214132,0.046339005,0.055373013,0.02575509,0.004525453,-0.034024928,0.110372104,0.04854391,0.049842928,-0.0069628367,-0.007913153,-0.008144619,0.008859495,0.007958808,0.01660304,-0.0682819,-0.020031117,0.014776694,0.038797252,0.027219001,0.027061736,0.030607676,0.03293086,-0.0052960347,-0.07377706,-0.028487002,-0.051168703,0.009911173,0.06961749,-0.07003354,0.019975657,-0.02692196,0.029841656,-0.011541074,-0.030685969,0.027031474,0.030996261,-0.031122308,0.013238465,0.022012666,0.021063237,0.03853805,-0.009841944,-0.0042722733,0.017397223,-0.08205046,0.012722224,0.0033234446,-0.009111303,-0.01689177,0.022996733,-0.011586631,-0.013997316,0.015837278,0.04163463,-0.09511032,0.028023407,0.06750381,-0.04472331,0.0537962
-0.042769313,0.06621913,0.029378645,0.056069784,-0.06973745,0.020764893,0.02367581,0.017715095,-0.01090643,-0.035508815,0.03304983,0.03567175,-0.022731172,-0.039720975,-0.05251228,-0.017391786,0.040956985,-0.09457294,0.009698979,-0.010152097,-0.010921196,0.018180106,-0.055882066,0.012335473,0.05124829,-0.044201296,-0.005866692,-0.08435669,0.054933455,0.0076996977,-0.020343406,-0.033350144,0.07497826,0.020912604,0.029387543,0.013751116,-0.046517856,0.06023271,-0.028650098,-0.0019014238,0.018903341,-0.005690413,0.01027197,0.02923635,-0.043776076,-0.04927521,-0.020711683,0.03263323,0.027059207,0.0053266003,0.05267017,-0.02589498,0.04342056,-0.024962964,0.0013347676,0.010230846,-0.020684319,0.029370448,0.04033196,-0.0022926598,-0.08057663,-0.08264907,0.055470597,0.010620295,0.0390864,0.004481141,0.023484377,-0.040472355,-0.016864484,-0.0145945875,-0.04238408,0.0017019683,-0.046804897,0.064786404,-0.027090222,0.026409853,0.009351469,0.041647695,0.04072678,-0.064955994,-0.034056835,0.020741308,0.018132204,-0.026301887,-0.008231567,0.030855408,-0.03975997,0.05584847,-0.008313522,0.034105428,0.03080713,-0.16836417,0.03671485,0.027286043,-0.015418205,-0.03182938,-0.008205182,0.054736916,-0.0607358,0.045715485,0.04694993,-0.07256334,-0.017074822,-0.03284462,-0.00011220663,0.04058257,0.0027160414,0.06236038,-0.007829263,0.054803662,-0.040704112,0.041148055,-0.023432385,-0.049481433,0.0629765,0.064442456,-0.005221823,0.02619482,0.00765636,-0.031373065,0.024597418,-0.00092970097,0.015389843,0.009492831,-0.012306808,-0.025602888,-0.0005622008,-0.0073704366,-0.026502818,0.033404686,0.024192447,-0.023646394,-0.014871217,-0.03069855,-0.030579215,-0.012886478,-0.029573511,-0.037952542,-0.03548145,-0.017434733,-0.06868756,-0.023332372,0.041472554,-0.0010143236,0.026860338,-0.09558716,0.05576988,-0.07403254,0.014922869,0.01054456,0.018228842,-0.087572284,0.0054938323,0.030051908,0.030143857,0.043009143,-0.0046284436,-0.064367294,0.070937276,-0.008171783,0.05952476,-0.04994079,-0.006415207,-0.044657286,0.0014803751,-0.01806888,-0.009299389,-0.036707684,-0.03880603,-0.041610446,0.0499299,-0.023620129,0.026191685,0.003146976,-0.005418352,0.013121679,-0.07614423,-0.018515268,0.029377842,-0.052270014,-0.003609752,-0.0031787236,-0.0066008572,0.011555493,0.04807002,0.02239018,-0.0703827,0.022077084,-0.002720913,0.011370227,-0.05867534,-0.0423309,-0.04051221,0.07418621,-0.013395263,0.040431242,0.03663518,-0.07216592,-0.011302599,0.0071556736,-0.01469313,0.022309901,-0.002220305,-0.06528978,0.05131105,0.012006889,-0.011835489,-0.07175769,-0.033687174,-0.038246095,-0.014316609,0.043684315,0.030766195,0.01975422,0.016198743,0.034320686,-0.008739942,0.00060948066,-0.020251554,-0.086228624,0.050004464,-0.022195958,-0.021914175,-0.087471396,-0.014786676,0.062510855,0.011717041,0.00016835822,-0.10736364,0.034753345,0.03337434,-0.0077583347,0.02585943,-0.043885127,-0.040191345,-0.041679394,0.008593186,0.008487399,0.041839387,0.015973788,-0.028417168,-0.05465614,-0.0025106377,-0.020717347,0.074871585,0.026445493,0.041369814,-0.0007752438,0.017582728,0.023087192,-0.023946181,-0.03440491,-0.029512858,0.04588585,0.020715252,0.035565976,0.06250319,0.0014817425,0.0054797023,0.07614141,0.08120474,0.0061236112,-0.0174713,0.010185495,0.030150302,0.015941413,0.010479919,-0.03982385,0.04777496,0.00929606,-0.019398093,0.026932465,0.0021591126,-0.03535787,-0.011843193,0.039607093,-0.07554443,-0.057672486,-0.041201856,-0.043935526,0.018472563,-0.042729367,-0.05880539,0.013640362,-0.03415493,-0.030565768,-0.030459484,0.018411942,0.049497377,0.06974916,0.0631987,-0.1047515,0.004774612,0.03485394,0.00033492004,-0.02985678,0.052891765,0.06417537,0.027961094,-0.031432725,-0.052816026,-0.013730359,-0.070220746,0.00075665064,-0.00024457191,0.043081477,0.049187142,-0.06715751,-0.016110174,-0.063783586,-0.031183708,-0.0051689898,0.04878455,-0.03495412,0.028673043,-0.03195514,-0.03853446,0.08212176,0.025242079,-0.01782117,0.038159534,-0.028094139,0.03458279,-0.0054643005,0.019753596,-0.006969959,-0.023795746,0.016742004,-0.010576416,-0.055020485,0.07709197,-0.03781349,-0.02138409,-0.012302788,-0.032836493,-0.005652845,0.011112834,0.047742225,0.026568068,-0.0717393,0.023172237,-0.008988492,-0.06183163,-0.0031017042,-0.0061972826,0.018216718,0.045567364,-0.010928571,0.061604947,-0.022378404,-0.06624989,0.0022138383,0.001110105,-0.03135367,0.0013694601,0.0009858748,-0.049421255,0.01914353,-0.022831973,-0.042184412,-0.032063376,-0.0026888675,-0.057661545,-0.005068305,0.05485876,0.013832948,-0.0033816677,-0.008575693,-0.02405764,0.046941582,-0.02218252,-0.124838665,0.0244434,0.03372344,0.020165011,-0.024063902,-0.03001396,0.05839977,0.030671107,-0.026670698,0.0071066376,0.032413255,-0.006935448,0.077767044,-0.033677742,-0.020828798,0.045419443,-0.038833678,-0.036139525,0.07441305,0.01604063,-0.03522752,0.015345682,-0.08736765,0.06436988,-0.004214956,0.093497,-0.042071164,0.03879684,0.016740562,-0.028107204,-0.046827365,-0.08151831,0.051517718,-0.036709834,0.053941518,0.047606993,-0.030352129,0.0030453752,0.04926985,0.067726836,-0.042722423,-0.07081396,0.019299338,-0.003946177,-0.048132405,0.00565397,-0.002601736,0.010388355,0.021783069,-0.010522803,-0.02448117,0.034617763,-0.042436354,0.04848167,0.006756495,-0.0149397,-0.00078674866,-0.012963883,0.012045765,-0.01106232,0.010949269,-0.023736626,0.017998006,0.024100551,0.008521852,0.07252362,0.0058741416,-0.030832827,-0.04183059,0.045488458,0.080407664,0.0046418966,-0.01918287,0.058341935,-0.014448403,-0.015062917,0.007262424,-0.0074552223,-0.03358824,-0.018998621,-0.074475214,-0.09992458,-0.08696528,0.046620373,0.03136469,0.027357923,-0.07085832,-0.0022295483,0.073141985,0.023642683,-0.049045183,-0.02801229,-0.024594551,-0.012439127,0.024794048,0.016163303,-0.039503526,0.0445729,0.05946491,-0.0033217769,0.0041556167,0.016048677,0.018771494,-0.09000061,0.014129597,-0.00109704,-0.0021621753,0.049827505,0.008455341,-0.02801483,-0.03303738,-0.014133768,0.0049575176,-0.005832983,0.0294577,0.052898575,0.01452797,-0.060054753,-0.00021508805,-0.01808316,-0.016931068,-0.07888189,-0.026933659,0.01144424,-0.011093397,0.058463134,0.004532705,0.0485703,0.037209287,0.009815351,-0.07092059,0.07106485,-0.020500068,0.023989478,-0.014836897,0.045391,-0.047457512,0.0582794,0.0287346,0.08657562,0.06689016
0.02890897,0.0065198713,0.026180241,0.019636367,0.020654205,-0.015792046,-0.032015234,0.034649238,-0.005781258,-0.030055672,0.025485389,0.008177797,-0.04008608,0.022575868,0.010008857,0.035889745,-0.03465246,-0.0035790307,-0.00070775155,0.03383165,-0.067314446,-0.055414505,-0.062067352,0.023048038,-0.03616646,0.016370224,0.04877858,0.010004225,0.002653369,-0.0008418216,-0.0044538127,0.07158718,0.0028434154,-0.032387704,-0.068563044,0.006318748,-0.017979,-0.05728816,0.05251808,-0.04111306,0.05122891,0.011685837,0.009581293,0.026270585,0.053736553,0.038289227,0.013025791,0.024440289,0.066320784,-0.03336187,-0.012469298,-0.022393864,0.036252182,0.029659705,0.03852009,-0.006847498,0.0021148946,0.05239043,0.031332877,0.047538724,0.03017797,-0.07671233,0.062791884,0.013467592,-0.07492382,0.01843065,-0.023018653,-0.044823714,-0.039794117,-0.027092515,-0.04082338,-0.0094371345,0.019909455,0.044643853,-0.036751967,0.03479185,0.049173053,0.005653672,0.061141398,-0.012734442,0.008005353,0.012384573,0.051890004,-0.017009487,0.019119198,-0.061337702,0.030133002,-0.011879638,0.024077589,-0.006539579,0.015085313,0.011550124,0.022154648,0.01766034,-0.045361947,0.021084512,-0.028437074,-0.0043862,-0.060087267,0.03875506,-0.0704326,0.0026943672,-0.007765522,-0.034007236,-0.012670444,-0.05728865,-0.031667635,0.013692863,3.8981445e-05,-0.0026870533,0.0263402,0.098938875,-0.038979225,0.031151129,-0.07709315,0.052242573,0.014417329,-0.018204534,-0.012505669,0.036753293,-0.031186618,-0.045682203,0.035399783,-0.06722412,0.0096914675,0.037094817,-0.036277294,0.05665003,0.051431265,-0.06664415,-0.04639414,0.033767197,0.047387715,0.0060892412,0.06322335,-0.04086458,-0.019201867,-0.017782168,-0.00774787,-0.040872604,-0.027410336,-0.117335826,-0.0059058736,0.04687538,-0.024577092,-0.026487907,-0.06563244,0.06700266,-0.047430545,-0.025558364,-0.040717654,-0.043288678,-0.04654333,0.013624848,0.046371803,-0.054958235,0.048499722,-0.021990739,0.051280312,0.0001711965,0.036596764,0.05122554,-0.061708063,-0.043683413,-0.016764402,-0.035639104,-0.02258754,-0.014948824,-0.032097608,0.030021517,0.012138444,-0.04926085,-0.028533172,0.047822457,0.023219261,-0.0028472326,-0.013767343,-0.038395148,-0.061766166,-0.008530791,0.025647178,-0.06580613,0.041423827,0.0055322,-0.004149739,-0.0347588,0.030604044,0.1288714,0.0009669721,-0.027400468,-0.023760082,0.030839555,0.0027065333,0.011993034,-0.03772266,-0.023942862,-0.0068417573,-0.041043025,0.03270994,0.029849468,0.010388182,0.044627305,-0.0032213593,0.05142792,-0.02183027,-0.014442973,-0.1581757,-0.044598468,-0.005792477,-0.010850354,-0.022844482,-0.0498641,0.084176995,-0.017501578,-0.0038680532,0.04632806,0.016237002,-0.019984663,0.05060966,0.016517403,-0.031016514,-0.0009322312,0.043997,0.058019996,-0.04066744,0.023921918,-0.02879467,-0.004670802,0.019157402,0.057035163,0.05681597,0.02145305,0.04598465,-0.04441558,-0.020403855,0.040704258,-0.0011717386,0.0051945383,-0.029637288,0.037168745,0.008668017,0.022595698,0.079986095,-0.02700102,0.03141207,-0.017534899,-0.016259335,0.06170589,0.041608606,-0.027673962,-0.053994164,-0.03565091,0.09987182,0.028760375,-0.059684016,0.022666736,-0.012100975,0.04423673,0.07552689,0.02055928,0.08853533,0.073361225,0.051797215,0.015544487,0.020360585,-0.007708514,-0.027599027,-0.036969073,-0.04862236,0.036522243,-0.018396093,0.042827222,-0.04467991,-0.034547523,-0.034851547,-0.016792912,-0.031085132,0.052742794,-0.01780968,-0.061874423,0.03271458,0.042677578,-0.04640774,-0.01882217,-0.026919654,-0.011060864,-0.008736783,-0.011337102,0.066537246,0.01984312,0.087963,0.0031226878,0.03226758,-0.03546251,0.042532254,-0.041612282,-0.011685197,-0.0011574557,0.029159259,-0.0043506986,0.04612036,0.045556586,0.0064234175,0.011792675,-0.07344893,0.059600502,0.07687192,0.03854774,-0.021839727,-0.008087224,-0.034619886,-0.09501357,0.04349568,-0.036693893,-0.0146084055,-0.030912863,-0.01506066,0.009448312,0.0051193004,0.031691086,0.0238491,-0.029160267,0.059580497,-0.006333577,0.034861483,0.03379013,-0.043603763,0.04087994,-0.030617071,0.011679984,0.0013891152,-0.0054574655,0.022676667,0.007862641,0.008884373,-0.056395605,0.0025011112,-0.01471244,0.07422771,0.009155702,0.03553387,-0.03973646,-0.048982058,-0.07745579,0.013744321,-0.013439656,-0.004368196,0.013672507,0.0023289411,-0.040859446,0.015818287,-0.040374666,-0.044153884,0.015664259,-0.077328,-0.009738329,0.0151873585,0.015835566,0.011332573,-0.036056597,0.024659256,-0.054453064,-0.045200516,0.048818637,0.02049474,0.04961125,0.0065537267,0.02467072,-0.06691407,-0.034254372,0.020325813,-0.005265246,-0.03208171,0.037867755,-0.010804333,0.021672107,-0.021994596,-0.007810538,0.03600365,-0.012592598,0.03130828,0.038701493,-0.014212087,0.006705206,0.034859348,-0.038947713,-0.035512194,0.040543452,0.0037082063,-0.031147957,0.050783176,0.0021037655,0.010172592,0.021463681,0.022111276,-0.07373667,0.00037999294,0.09482597,0.031255953,-0.014875972,-0.039899897,-0.05645155,0.06010862,0.0017460191,0.07477463,0.0005879003,0.021093642,-0.04240112,0.06485734,0.027578786,-0.005772489,0.07032454,-0.096216515,-0.03283107,-0.06133185,0.012716706,0.020784128,-0.071767025,-0.07456848,0.0058896607,0.038556393,-0.027062228,-0.048666116,0.03962252,0.022277819,-0.0196395,0.030712182,-0.010371055,-0.018045627,0.016371252,0.07732424,0.038471412,-0.047227453,0.025532782,0.015645077,-0.020688007,0.031535327,0.050069153,0.0051024854,0.046461634,0.07562967,-0.009677531,0.017911019,0.009742412,-8.085358e-05,-0.035565633,-0.0046182345,-0.07254192,0.0351651,0.045360982,0.019765265,0.045725174,-0.047756936,0.0053374777,-0.047371853,-0.03162761,-0.036669023,-0.041717228,-0.03558699,0.02958538,-0.025191586,0.03628274,-0.019735185,-0.0036610654,-0.016619528,-0.0110201975,-0.044321623,0.02442061,0.058097746,-0.0068960125,-0.029952044,0.013819221,-0.022458004,-0.051609483,0.013162522,-0.09028471,0.061783824,-0.03575496,0.021606304,0.013224574,0.0033353015,-0.011574907,0.007281684,0.015440308,0.03811552,-0.0030925304,-0.0039036747,0.0044587785,0.020227948,0.016624661,0.009054962,0.01676241,0.030328047,-0.00023493546,0.028983437,0.036856543,-0.046199568,0.07846965,0.039066274,0.047335315,0.062564924,0.029822648,0.06587154,0.041776016,0.034490053,0.008618384,0.030198459,0.03377907,0.02661912,-0.017622393,-0.06181617,0.005812541
0.0064585316,0.08621809,0.07145232,0.0024188533,-0.11324572,0.00067331555,-0.06445989,-0.055070013,-0.020516843,0.041627754,-0.014734837,0.020335108,-0.021289384,0.0076511092,0.0039222646,0.019594125,-0.070535176,7.054122e-05,-0.044321164,0.005897806,-0.050860975,0.031748455,0.046270538,0.06842746,0.038955227,0.0060135457,0.02957653,-0.058728725,-0.046380676,0.042822212,0.0113882115,0.013154701,-0.055601466,-0.04700104,-0.026231596,0.042798813,-0.003121874,0.029431239,0.028442215,0.010617823,-0.011817602,0.010638766,-0.0063702203,0.05760968,0.034390964,0.006672695,-0.026426263,0.0071624327,0.015497326,0.054691304,-0.009640709,-0.018614536,-0.047845546,-0.05637711,-0.074895486,-0.024283009,0.010441979,-0.016603788,0.06328185,-0.04144122,0.023576437,-0.0012522929,0.051000737,0.017254014,0.062022854,0.078699045,0.0143273985,-0.020243902,0.007899036,-0.02020759,-0.013987455,0.05127554,-0.0809558,-0.014043406,-0.038151056,0.009792516,0.046638127,0.038994335,0.026040865,-0.024759386,0.029960366,0.08895038,0.023368446,0.016128369,0.042926237,-0.0023239767,-0.0036508439,0.0337568,-0.021043185,0.037232075,0.020101214,0.036632936,-0.012251689,0.04795591,-0.07109002,-0.019141443,-0.03253022,-0.058135588,-0.059763197,-0.002035945,-0.0067258724,0.027652305,-0.021964151,-0.02149732,-0.008181849,-0.009359576,0.038472936,0.043042842,0.05614254,-0.05474925,0.039846838,0.019149907,0.01624365,0.057221342,0.046784893,0.046384312,-0.027266834,0.0502181,0.025425874,-0.00735406,7.902117e-06,-0.02925184,-0.009817813,-0.053750947,0.022042248,0.048084106,-0.011978363,-0.013627248,0.041666884,0.031266008,-0.0070557944,-0.018703485,0.011230168,0.0017412823,0.015098516,0.043498956,-0.042860348,0.016008629,-0.0574042,-0.040090334,-0.0050441013,-0.013379006,-0.037995737,-0.010396462,0.071315534,0.013745393,-0.025622414,-0.08015973,-0.009408482,-0.019603057,0.045556083,0.022690214,0.009399313,-0.049186673,-0.04275754,-0.058186945,0.06703204,-0.012727853,-0.04118615,0.01030003,0.016430048,-0.02958378,0.010817908,-0.045394383,-0.007151339,-0.063445486,-0.02321595,-0.06280905,0.028237656,-0.013834959,-0.010270557,-0.008446522,0.029626247,0.06027587,-0.012008077,0.016699234,-0.042780515,0.019781405,0.021248288,-0.02653337,-0.03395912,-0.020019216,0.025459873,-0.009050602,-0.03363687,0.0052185045,-0.066475525,0.07925387,-0.027696313,0.0036315296,0.02217865,0.04187136,-0.03468305,0.055356037,-0.021442464,-0.011554365,0.003266152,-0.0016079362,0.043611594,0.06665842,0.06624986,-0.03865458,0.0534366,-0.008973483,0.032577638,0.020198988,-0.058614284,-0.03596099,-0.035899494,-0.04322781,-0.036599297,0.0053347433,0.028414235,-0.04649977,-0.025431698,0.0042216834,-0.024076693,0.042643633,-0.02912113,0.025687046,-0.033299953,-0.019407906,0.007101386,-0.03002411,0.045795865,-0.05268816,0.027122796,0.013062305,-0.00061533327,0.0072334525,0.024689652,0.03581432,-0.0089887,-0.0063332166,-0.09866988,-0.00800545,-0.02633989,0.016141197,-0.013508847,0.05598147,-0.029178763,0.011578773,0.043935455,-0.042343073,0.040028095,-0.014398584,0.009905291,-0.0068072206,0.025162429,0.026208704,0.0065539517,-0.0054818783,-0.023451071,-0.043739352,-0.0039563486,0.018991804,0.035986304,-0.00418996,0.046636518,-0.016968781,0.004967223,-0.07729319,-0.05932048,0.008409031,0.049913824,0.030817611,0.023509158,0.03623036,-0.026426876,0.027397435,-0.030268397,0.018221037,0.024510417,0.07467406,0.008567206,-0.06583205,0.029571714,-0.09060385,0.035016157,-0.014799149,-0.01227553,0.045026053,-0.019578397,0.044588257,0.018108485,0.01787795,0.020659588,0.019582935,-0.00867759,-0.054343577,0.0021646048,-0.08859505,-0.0071199783,0.023588559,-0.008354103,-0.03702917,0.00522066,0.017807173,0.005481532,0.0269071,0.015976215,-0.008633875,0.007955618,0.008483623,-0.08305676,-0.005504576,-0.0038882312,-0.01135539,-0.06903532,0.014870315,0.0365621,-0.0027423587,0.026178494,0.026840325,0.014689332,-0.04297599,0.038588148,-0.0034057875,0.04952862,-0.028288139,-0.0098639345,-0.02511959,0.059076507,-0.0038861209,0.018056123,0.020214185,0.044089872,0.022623172,0.03967651,0.015070908,0.03857569,0.02501458,0.026496748,0.030582229,-0.009895627,-0.10448828,-0.052793924,0.022939987,-0.020075956,-0.03739479,-0.04746234,0.021572325,-0.06232862,-0.019115288,-0.09594326,-0.03688628,0.07357974,-0.06939685,-0.008971388,-0.010274483,-0.026310902,0.020445177,-0.045576416,-0.07944758,0.021703642,0.012244829,0.007197148,-0.09378383,0.014294226,0.038255334,0.07074001,0.029895484,0.0050149006,-0.012048051,-0.07998241,0.05895729,-0.0083256215,-0.05221868,0.0070942217,-0.02582199,-0.06709292,-0.08567073,0.032167017,0.018064493,-0.024485365,0.03058457,0.006234637,-0.05607481,0.028160207,-0.007940837,0.023472153,0.012609541,0.0056772903,-0.01261404,-0.009940977,-0.038556777,-0.0013285736,0.04052494,0.037116032,0.040927548,0.08762331,-0.035570104,-0.017877655,-0.017533109,0.018957406,-0.046360675,0.014105174,-0.028598355,-0.04623927,-0.0055310815,0.031751737,-0.017360207,0.052935448,-0.0042029633,-0.035639387,-0.04361065,-0.015882883,-0.0033216244,0.06647084,-0.02414461,0.014372517,0.03057974,-0.014647724,0.0738082,-0.0130132595,0.012362735,0.001988956,0.056704108,0.08013501,-0.037216347,-0.008577906,-0.05165444,0.050395466,0.05026026,0.021073312,-0.047518443,0.02245588,0.030747635,0.035844844,0.034084696,0.053932052,-0.012007842,0.00797137,0.03733848,0.026527941,-0.043138407,0.06354013,-0.002520192,-0.017452909,-0.0020364611,0.020359702,-0.023397725,-0.0013826176,0.004639997,0.03566064,0.019078702,0.056600727,0.025603006,0.026870236,0.00932161,0.0873249,0.078855485,-0.04254082,0.02246062,0.039932724,-0.031218296,-0.0051301224,-0.00035997026,0.03611712,-0.059840403,-0.043941014,-0.031405117,-0.07573966,0.0094754025,-0.0011970899,0.018290278,-0.01225832,-0.056597542,0.055434417,0.10873158,0.013720888,0.08355878,-0.027238758,0.05981514,0.023731453,-0.08143084,-0.009091871,-0.024915209,-0.011321309,-0.026743978,0.0056691156,0.022804823,0.027166016,0.030135006,-0.025997352,-0.007975834,-0.022185735,-0.037567195,-0.008320073,0.025568396,-0.07083478,-0.03750427,-0.061579503,-0.016580144,0.05129314,-0.0037258933,-0.03296104,-0.0039467546,0.041382916,0.03862127,-0.013315247,0.044066753,-0.026295867,-0.006341521,0.0041242125,0.053660125,-0.019290403,0.008630544,-0.055197313,0.0225142,-0.0057381834,0.011505463
