-0.053518005,0.073654495,0.07894561,0.007908717,0.037762027,0.05443501,0.17335929,0.0654901,0.006345745,-0.02036164,-0.0039003512,-0.0897733,0.15411538,0.033145547,0.1077697,0.20260254,0.044179607,0.1284055,0.107823975,-0.02970005,-0.0073888726,-0.14007618,-0.051892575,0.09208755,-0.025442788,-0.042675402,0.11249659,-0.022903569,0.047859583,0.060853474,0.07321479,0.023353077,0.072312236,0.06077556,0.03315188,0.002153592,0.016706035,0.045611758,0.027549263,0.0585598,-0.076539226,0.09973511,-0.03272751,-0.021791387,0.08508659,0.019837942,-0.024780905,-0.078729436,0.11219453,-0.091791116,-0.07148824,-0.12802844,0.12262481,-0.028275244,-0.034662444,-0.011951948,0.09479153,0.09795722,-0.0037697032,0.06271831,-0.03601876,0.0030662476,-0.04877645,0.034794055,0.007385968,0.022016345,0.08103456,0.12432801,-0.040170047,-0.0760049,0.032752495,0.03556738,-0.09697003,0.012968657,0.03156099,-0.08368378,0.020397134,0.052481424,-0.09736689,-0.02727142,0.05618897,0.060586933,-0.044694997,0.054570753,0.0684862,0.057349164,-0.09677532,0.040692072,0.048603173,0.019786099,0.09371631,0.015117742,0.030682929,0.03415449,0.006491726,0.054380354,0.11201069,0.15075558,-0.013394366,0.14630373,-0.1480463,0.10351513,-0.0294563,-0.043907255,0.06910747,-0.013741793,0.063769236,0.15187255,0.04342113,-0.04093315,-0.009377873,0.042883236,0.065543704,-0.053660814,-0.053895142,-0.046461914,0.19209573,-0.116205335,-0.09444418,0.14840405,0.012418691,0.1306496,0.049562927,-0.030074622,0.010512299,0.013416657,0.20805556,0.1585162,-0.035353195,0.053891394,-0.022245806,0.021748694,-0.086127445,-0.04296145,-0.06992556,0.082606375,-0.0059663006,0.11999643,-0.02718286,0.017651517,-0.04396777,0.033801604,-0.11167825,-0.14091139,0.05965993,-0.08015461,0.014508639,-0.060960203,-0.081046425,0.026493983,0.12128255,0.011818165,0.03126982,0.09224877,0.03758184,-0.08996032,0.09689736,-0.04677895,0.11181807,0.028083926,0.085758574,-0.026047966,0.08144196,0.060057443,0.019166907,-0.031270392,0.0036543757,0.0915973,-0.074724294,0.06504338,0.080386065,0.039531626,-0.020959135,0.18106519,0.13345993,-0.07271091,-0.066507675,0.10948172,0.036535878,-0.08750216,-0.036136825,0.16804731,0.05019382,-0.11107991,-0.022991028,0.03914173,-0.09387933,0.05412347,0.100443594,-0.03117122,-0.0030655803,-0.030858478,0.13194978,-0.049428698,0.13823438,-0.032367226,0.17407651,-0.013745054,0.056839366,0.045565452,0.11022422,0.049022242,0.08390375,0.04586512,0.06919808,-0.04025474,-0.012470793,-0.04283279,0.08493363,-0.01626371,-0.003646027,-0.06338168,0.013911643,0.11441951,0.11288112,0.014123439,0.10751279,0.054831903,-0.0027846266,-0.0828479,0.20481522,0.049032167,0.16324064,-0.015992232,-0.073231645,0.07456924,0.14648452,-0.14108057,-0.047171168,0.07687742,0.042712323,0.17797881,-0.017497549,-0.07019566,0.0046463218,-0.018661892,-0.032805055,-0.019893603,-0.054020546,0.079720795,-0.02688481,-0.057157893,0.09749666,0.030936543,0.007883204,0.06348948,0.03777083,0.21958067,0.12304729,0.071546875,-0.04676429,0.07354757,0.09069469,0.24596453,0.12228166,-0.011148415
