-0.06862666,0.00763649,0.13020189,-0.08432227,0.06378926,0.029290356,0.043258715,0.09027931,0.06797977,0.08689575,-0.09710845,0.0024018015,0.02535692,0.011466738,0.012275066,-0.022048062,-0.015996704,-0.008793657,0.031140523,-0.05253077,-0.045800835,0.05796245,0.00881459,-0.022758234,-0.09117211,0.049013175,0.073392846,0.09363437,0.07205977,-0.022628343,-0.03555547,0.043085273,0.092754714,0.04787651,-0.07472997,0.04502649,0.06168556,-0.045618545,-0.050988577,0.09115248,0.013140758,0.065167286,0.002220774,0.0015907298,0.014106648,-0.052581925,-0.05644708,0.031236108,-0.025482854,-0.0580724,0.055356488,-0.043605253,0.12487302,-0.01920882,0.013055179,0.049287066,-0.003709438,0.032665722,-0.025654493,0.003827729,-0.047767516,-0.030042471,0.0003140725,0.05294791,-0.02752237,-0.061629925,-0.03150928,-0.04530879,-0.036275677,-0.0043854504,0.05583165,-0.043503433,-0.05435222,-0.033613246,0.005161572,0.0100301,-0.019562848,0.050358903,0.05722227,-0.018446747,0.06070914,-0.06797961,-0.062292438,0.039419413,-0.034260713,-0.012639561,0.062274437,0.050386023,0.007928627,-0.049197,-0.04451211,0.028605908,0.02374423,-0.0275735,-0.032420285,-0.0055134757,0.012151805,0.005373462,-0.026154723,-0.042624775,-0.0024449069,0.024555422,-0.028700879,0.016637512,0.023720177,-0.08872418,0.14230633,0.054709464,0.02428817,0.009165231,0.0701012,0.061569583,0.03777842,-0.027114637,-0.02092102,0.0625145,-0.019265912,0.047842234,0.022495212,6.13939e-05,0.035498045,0.020109901,-0.05391746,-0.007867151,-0.072143264,0.0018672964,0.10348936,0.003624129,-0.010556561,0.0408234,-0.00044006834,0.042452376,0.08320499,0.0041681146,-0.05524894,0.04291058,0.04622407,0.082542725,0.005955271,-0.026807789,0.06154174,0.01922257,-0.04542569,-0.014826066,-0.032307338,0.030755142,0.017028002,-0.037248593,-0.10652826,-0.06364207,-0.0034035356,0.001769136,-0.047672685,0.051248975,0.028949369,-0.061934713,-0.01101738,0.06278208,-0.01769173,-0.037643228,0.07176703,-0.035942715,0.06571718,0.052084163,-0.012415304,-0.027883423,-0.029907536,-0.032722063,0.08736165,-0.08164679,-0.00059169036,-0.037344735,0.03895649,-0.016889464,0.050955903,-0.0013325239,-0.035152152,0.0808537,-0.02103455,-0.01730151,0.041226637,-0.06919715,0.007999346,-0.0059655346,0.050013803,-0.04919042,-0.12010006,0.07652373,-0.05113184,-0.060239803,-0.00911345,-0.031677313,0.1312505,0.0545973,0.0015938334,0.03107936,0.097865194,-0.09353208,-0.046586614,0.0063926806,-0.006505326,0.072092235,-0.06585446,-0.067610085,0.06369916,-0.02381493,0.09743072,0.05027697,0.10109452,-0.14152522,0.00057045254,-0.04506752,0.0017710993,0.021243183,-0.034542408,-0.018280352,-0.018975936,-0.06496217,-0.04034615,0.017105594,-0.039012257,0.04862193,0.047844518,-0.010902116,-0.06483468,0.017336164,-0.00825457,0.019471467,0.02751819,-0.047028948,0.076383196,-0.030747345,-0.003418651,-0.05395033,-0.055087913,-0.08497613,0.009295163,-0.021124586,-0.009227616,0.028451828,-0.07102546,-0.037271157,-0.032802697,0.04017818,0.044796243,0.107751325,0.047633443,0.03579976,-0.014768356,0.013112999,-0.017462702,0.084442474,0.053186323,0.065753944,0.032120034,-0.09164501
0.009154146,0.09011628,-0.0045034774,0.049147308,0.034595832,0.070773795,0.014921065,0.028912071,-0.06958061,-0.054192234,-0.04508818,0.04077613,0.070547394,-0.009952342,-0.044162735,0.036395382,0.032548606,-0.04045987,0.048661467,-0.07079188,-0.025668373,0.076897025,0.051119313,-0.047512732,0.109884724,-0.009186514,0.08263225,0.007137038,-0.04620224,0.09304902,-0.021958573,-0.014514078,-0.0068736817,0.014175749,0.06642443,-0.09186515,-0.045745555,-0.039292086,-0.05037229,-0.018627327,0.046935093,-0.0024181039,0.03992705,-0.083390735,0.09655476,-0.0477152,0.037218716,0.050168596,0.007941033,-0.038491815,0.0028181183,-0.023013832,-0.03256773,-0.10384751,0.09282746,0.044835534,-0.028925441,0.086008824,-0.08348229,0.00012375346,0.030502314,-0.01602667,-0.04966083,0.027621275,0.020957729,-0.0375023,-0.048688132,0.038411636,-0.07344702,0.05778204,0.0709041,0.03351626,-0.055767786,-0.0014989087,0.06324406,-0.016358234,-0.121677324,0.029268278,0.018306488,-0.081704386,-0.062259734,-0.0052102464,0.120966695,-0.074773766,-0.027095782,0.06408187,0.0014864285,-0.0043790177,0.04627041,-0.045135465,0.11389782,-0.01836617,0.02284704,-0.035638653,-0.04967134,0.043302678,0.020474548,-0.041498177,0.050958507,-0.0110312,0.007332251,-0.021062745,-0.056809958,0.05693495,-0.008455439,0.016029969,0.025982846,0.054846484,0.0829051,-0.030599441,0.0023174111,-0.008298501,0.033326622,0.01127603,-0.013022745,-0.060578864,0.009953476,-0.002954638,0.038089763,0.005651075,0.135637,0.0051356107,0.051080186,0.17298311,0.015390721,0.07068077,-0.030355692,0.07954175,-0.0035220552,0.054898564,-0.06603653,0.01565709,0.023773717,0.022019621,0.039989542,-0.04247089,-0.054524265,0.040674824,-0.004011849,-0.019723084,0.059549242,0.028483875,-0.039749403,0.0047362917,-0.044370364,-0.030743739,-0.009232938,0.024367092,-0.052692376,-0.058580715,0.05353953,0.02032415,0.035199624,-0.047830805,0.0065620537,0.004305771,-0.07175998,-0.045119092,0.0064216587,0.11935372,-0.05135902,-0.048618153,0.0018294265,0.030005401,-0.049753603,0.045627616,-0.05108711,0.022801308,0.045074575,-0.024252385,0.036258407,0.006488467,-0.08044769,0.06900492,0.09021204,-0.030403567,0.052773837,0.011160904,-0.05365778,0.04499386,0.06134685,-0.041100454,0.036134142,-0.061012883,-0.04925538,0.10455263,-0.10608823,0.0586444,0.035528723,-0.03690193,-0.011802618,0.019457066,0.08222965,0.012072164,0.019401021,-0.031284645,0.023337167,0.12409239,0.036624607,0.014170895,0.031181552,-0.039443523,-0.06589321,0.009882167,0.08592276,0.07479821,0.035531048,-0.058946542,0.04133056,0.058652017,0.005288456,0.050068587,-0.003936172,0.08231111,0.021817015,-0.026020868,-0.03380903,-0.064837106,0.063776925,0.051769447,0.02074124,-0.05402601,-0.026317073,0.091778986,-0.042639453,-0.057025738,0.054034024,0.027408887,-0.0020020534,-0.04163778,0.0010726083,0.01962335,-0.017706277,0.032054864,-0.004337449,0.011241089,-0.015022319,-0.048378546,-0.05555162,0.0032173418,0.049698185,0.048966423,0.12807904,-0.13610755,0.054523077,0.005847242,-0.03930767,-0.011880425,0.06959943,0.12556204,-0.024185179,0.013991474,-0.06264005,0.058591824,0.0048205825,-0.020875767
0.0040948447,0.017592968,0.095869586,-0.041898433,0.033279818,0.0863112,0.014247253,0.034552947,0.02501706,0.026373792,0.060103912,-0.089271255,0.0818813,-0.0119761545,-0.0010910943,0.051570438,0.006344398,0.017666599,-0.050269965,0.030945057,0.002484367,0.015300443,-0.038255688,0.05011874,0.058947973,-0.005718281,-0.02255399,-0.08421147,-0.08437581,0.033366736,-0.038728,-0.059417553,-0.03964515,-0.061800215,-0.07121356,-0.007897388,0.0037394906,0.054628544,0.08725683,-0.045662787,-0.043836206,-0.027485024,-0.08163763,-0.04931042,0.062423993,0.024890061,2.5747213e-05,-0.00402653,-0.02442893,-0.0032217028,0.06294824,-0.04961808,0.06183693,0.097753115,-0.027599934,0.017699473,0.09072656,-0.047361303,0.039241806,0.031408064,0.02981619,0.009020603,-0.044176143,-0.024611881,0.10099524,0.043120705,-0.021319844,0.047403697,0.018258035,-0.003189882,-0.108198896,0.022443324,-0.00806957,0.0012966269,-0.08951499,-0.06095494,-0.030713627,0.053138975,0.00025921638,-0.02623648,-0.0251309,0.06951382,-0.06221027,0.1120816,-0.07123089,0.042436156,-0.041499738,-0.075030036,0.015313547,0.006907556,-0.028885264,-0.06011949,-0.03421477,0.006655528,0.021724178,-0.04621359,-0.007823505,0.0036127164,0.009270743,-0.04431802,-0.07555247,-0.057113826,-0.10929767,-0.064690806,-0.013378936,-0.008629851,0.06005933,0.015320291,-0.018484188,0.070095904,-0.048712533,0.009406429,-0.045125056,0.016504249,0.055409864,-0.074695006,0.04240891,-0.031515777,-0.081682116,-0.021033933,0.020696154,-0.0010388385,0.059146482,0.010805311,-0.022057172,-0.02428937,-0.04122615,-0.0091383355,-0.030803934,0.05536169,-0.03921592,0.066852115,0.065919206,0.013307459,0.05788464,-0.03679865,-0.037962455,0.026620712,0.008234516,-0.008994857,-0.026645612,0.054157183,0.0080128405,-0.0068199183,0.065590054,0.05226904,-0.020385176,-0.06834558,0.027844692,-0.0138702635,0.04832847,-0.03267864,0.07482052,0.06211721,-0.04354912,-0.028007008,0.07845774,0.044282034,0.032937728,-0.036648422,0.0110757705,-0.06991251,-0.108471416,-0.04462933,0.08796945,-0.023552967,0.06151563,0.0091566965,-0.096014656,0.07502617,0.020713326,-0.07047224,0.011702359,0.005220759,-0.02110836,0.0004813636,-0.12607346,-0.03265959,0.04672634,-0.06379504,-0.039737754,0.047144465,0.047594167,-0.09586337,-0.09487833,0.031505343,0.031796344,-0.029709017,-0.07111548,0.018581852,-0.028184881,0.025939608,0.03078163,0.04505826,0.07195568,0.036057025,0.014118024,-0.005996497,0.032782782,0.016336054,0.050337624,-0.056784045,0.007044463,0.06035956,0.026132878,-0.058305167,-0.0066857226,0.050806828,-0.021836655,0.012015709,-0.05142532,-0.024331132,0.022602184,0.13310798,0.03324019,-0.043476842,-0.051461097,-0.08730294,0.021253373,0.01215457,0.057943456,-0.14062993,0.08634116,0.07800121,0.04355022,0.014121198,-0.037078205,-0.034392674,-0.013883892,0.013456469,0.02678608,-0.043511577,0.017919777,-0.004809221,0.058735263,0.057564672,-0.06783473,0.0074584875,0.026235925,0.08024747,0.04102547,0.034690123,0.10689268,-0.030775612,-0.011467656,-0.04106254,0.040057134,0.06667733,-0.017595313,-0.0488056,-0.103991486,-0.051471677,-0.072591625,0.046025246,0.06645337,-0.0012699775
0.057605166,0.027778186,-0.12296621,0.0048551587,-0.04377409,0.016710615,0.03901083,0.029488424,-0.03916263,-0.060616605,0.010272142,-0.034365643,0.10370059,-0.034106977,-0.0057002828,0.073305316,0.024692746,0.04784194,0.07276501,0.0135022,0.04226382,0.0738211,0.050972577,-0.017069956,0.072672285,-0.07933373,0.04094515,-0.054872457,-0.043829467,0.03061831,-0.08293317,0.07166343,-0.021059386,-0.06453079,0.046724677,0.02707977,-0.13137303,0.07756013,0.06247791,-0.011280442,-0.04568775,-0.06798292,-0.023604894,-0.031972326,-0.00971157,0.043844037,-0.030105775,0.03174032,0.06086362,-0.08680821,0.059276607,0.049765624,-0.049935643,-0.0705721,0.065902725,-0.044213165,0.08706871,0.046349235,-0.05972719,-0.04705529,0.03342223,0.04203,0.017570172,-0.042481948,-0.040281232,0.07654614,0.008157492,0.07839437,-0.02272862,0.064108044,0.033168763,-0.015645692,-0.0047059953,0.034992952,0.05088236,-0.0039081,-0.002308901,-0.0311741,0.0007607522,-0.06442262,0.07642568,-0.007026346,-0.038659062,-0.034608994,0.12790795,0.056080177,0.040695418,0.066126905,-0.022293657,0.0031305098,0.017976478,0.018092385,-0.04942884,0.0021187842,-0.025382834,-0.0359148,0.027628569,0.0662607,-0.008825196,-0.01968591,-0.022114182,0.010040911,-0.0024152733,-0.01738793,0.0044113128,-0.019566868,-0.011463474,-0.048131317,0.04052653,0.023182996,-0.020252468,0.023150364,-0.0012694339,0.0618726,-0.045295194,-0.053020637,-0.041317098,-0.06590022,-0.029363403,-0.05066644,0.10762727,0.054292426,0.09369428,0.06904193,-0.04401095,-0.0010883089,0.05345871,0.0695488,-0.05723625,0.026651267,0.048061628,0.07160968,-0.0031998304,-0.049197324,0.058138885,0.0073536835,-0.010835353,-0.020016901,-0.036226127,0.021297649,0.05938931,-0.04098491,0.05907023,0.033407696,0.034179695,0.021703586,-0.0381725,0.01977092,0.07032352,-0.050340474,0.006052165,-0.076187484,-0.05159852,-0.009429409,-0.03624271,0.03432353,-0.02318553,-0.058124915,0.045246076,0.055422697,0.02034841,-0.0012296303,0.040725615,-0.000113477196,-0.051471774,0.02190109,-0.021596158,-0.009060173,-0.017758764,-0.052226808,-0.036697008,-0.051547647,0.012851159,0.03524127,0.11669315,-0.053791955,0.053243756,-0.02745106,0.02961176,0.035842936,0.031027561,-0.04775358,0.017557766,-0.0513156,-0.033387642,0.060354117,0.042308934,0.01453349,0.112455994,-0.04238243,0.061981373,-0.07801034,-0.018468345,-0.022372695,-0.02698954,-0.0040276796,0.023071827,0.14271413,0.06217547,0.03798753,-0.09555594,-0.03598052,-0.05352375,0.055601064,0.042917006,0.04978191,-0.006880483,-0.009073656,-0.011854319,0.026164709,0.088268675,0.036232717,0.101924516,0.0835177,0.05997518,0.03566874,0.068486154,0.07940091,0.04211732,0.09362521,0.023736127,-0.006861981,0.052415773,0.0077947574,0.04733483,0.059761625,0.00512718,-0.011431474,-0.013594075,-0.018310815,-0.026690977,0.04728196,0.054469384,-0.06847492,0.065398365,0.06191593,-0.033845294,-0.049750082,0.004725564,-0.023157507,0.032918368,-0.14200146,0.06866227,-0.11957293,0.009939173,0.06074289,0.067999974,0.07828642,0.022589628,0.13030426,0.048923973,-0.010278076,0.029753467,-0.022241775,0.05606575,0.011655586
-0.0040509077,-0.040843017,0.031033725,0.0029141637,0.011098334,0.024852159,0.0002270873,-0.020746354,0.05157009,-0.02964766,-0.014351711,-0.047167208,0.035810385,0.00093959237,0.034451403,-0.0358121,-0.006684678,0.05372939,0.023037642,-0.02363471,0.024799002,0.03667168,0.0044613588,0.0013643806,-0.0036162888,0.020132858,-0.043502834,0.023557896,0.037040737,-0.034538932,-0.037042893,-0.041605115,0.01892416,0.03964975,0.04214829,-0.041327417,0.014188692,-0.06541542,0.010432346,0.02583705,-0.07434027,-0.03901609,-0.041159328,-0.016020104,0.047191914,0.042051926,-0.03986651,0.044415347,0.044499867,0.0116103515,0.0044052587,0.038150888,-0.04884158,0.018342055,-0.063172296,-0.042055212,-0.041166473,-0.06539981,0.049615055,0.03632906,-0.0050497623,0.0066403165,0.010040333,-0.013706234,-0.005158449,-0.005112394,-0.016297033,-0.04597121,-0.034389995,0.0021927515,0.012026082,-0.04207562,0.044354334,0.02124673,0.048172496,-0.053927302,0.0013455705,-0.06519694,-0.079354785,-0.015305044,0.014160205,-0.041731022,0.0507774,0.048653033,-0.047884557,-0.07181177,0.0022030447,-0.022410503,0.015609997,-0.036472477,-0.025465967,-0.022803513,0.006198373,-0.004558458,-0.0035282222,0.04118188,0.022403635,-0.035846412,-0.04212229,0.000286377,-0.023152296,-0.03708621,-0.054599125,0.032285344,-0.05616776,0.020842945,-0.05053436,-0.002156165,-0.04745441,0.039924853,-0.04629765,-0.06621549,-0.010869384,-0.049018495,-0.00397348,-0.044269618,0.002261699,-0.00016132643,-0.020749947,-0.059484947,-0.03443753,-0.042004324,-0.026338343,0.0067102034,-0.030536784,-0.047585893,0.00095934235,0.015589163,-0.07152454,0.01219409,0.033672325,0.0014073343,-0.028399115,0.04038757,0.024931438,0.05466451,0.01231254,-0.047296677,-0.031376973,0.0423717,-0.024690341,-0.04633263,-0.07449163,0.018364737,0.0067217615,-0.0035717892,-0.016959505,0.051588632,0.030811211,-0.05256822,0.017218357,0.02105112,-0.05214168,-0.027639963,-0.04768028,0.037258536,-0.0021984172,-0.015810534,0.02637079,0.014556857,-0.0036730047,0.014704049,-0.046632133,-0.03327388,-0.0015114808,-0.03743025,-0.03662468,0.015949361,-0.0009861478,0.004773544,0.0017195434,0.022764644,-0.019516904,-0.036710534,0.03549367,-0.03511887,-0.002311509,-0.056686837,0.008383487,-0.0067961407,0.014382976,-0.028278684,-0.051119167,-0.062256474,0.016434396,-0.02659623,-0.010625809,-0.04705817,-0.03623743,-0.06311564,-0.0015876001,-0.010456107,-0.005628462,-0.0021624775,-0.021465346,0.051422346,-0.025390878,0.007994247,0.03378762,-0.019593736,0.035406493,-0.0698121,-0.044003226,-0.04405891,-0.07195468,-0.034050893,-0.045477737,0.036032896,-0.065473534,0.0040503033,-0.0036562965,-0.04452077,-0.020396275,0.013949521,0.05931688,-0.009482257,-0.008431643,0.034252964,0.0067236726,0.0062191077,0.0100919185,-0.03612052,-0.06594132,-0.0036353844,-0.044491153,0.0173566,-0.049666062,-0.016836688,-0.0292126,0.016733592,0.028467452,-0.025499713,-0.05721009,0.019601684,-0.052363567,0.007962161,-0.053302776,-0.05245491,-0.014720717,0.03043185,-0.032369506,0.049414914,0.04436764,0.034639023,-0.021350494,-0.01823256,0.028944585,-0.06925105,-0.0063238046,0.029238341,-0.035929352,-0.049940966,-0.013023997,-0.041627247,0.022238895,0.021564957
-0.020500038,0.025868157,0.038280603,0.059987847,0.054584812,0.07581283,-0.05236121,0.016770568,0.026853055,0.0339977,-0.00558323,0.02850216,-0.027871765,0.009153652,-0.04340954,0.0227052,-0.008769662,0.014133348,-0.01537126,0.07259358,0.026358863,0.006451822,0.017845305,0.044448685,-0.005539941,-0.10247368,0.04634109,-0.07604053,-0.051940426,-0.050974153,-0.03684098,0.037203062,0.06433083,-0.10585814,0.03463245,0.03768012,0.006905226,-0.042956874,-0.016992781,-0.050948508,0.06639784,0.0362277,-0.017909985,0.101573914,0.007528202,-0.003734715,-0.04731369,0.0037578465,0.025387181,-0.0088791875,0.0077595524,0.021985114,0.00038685606,0.017608888,-0.06538074,-0.014100945,-0.031524613,0.03443804,-0.017016063,-0.030967154,-0.001367537,-0.04440359,-0.025591273,-0.04198583,-0.033139646,-0.012347521,-0.042930752,0.018334696,-0.00615809,-0.0880453,-0.060093373,-0.0067478637,0.052950263,-0.0035903894,-0.009265715,-0.06663022,0.027680842,0.062129546,0.064825416,0.063504525,-0.036038324,-0.014784839,0.10442116,0.005888948,-0.10093089,-0.049846344,0.0034397426,-0.08923461,-0.043169275,-0.055745468,-0.07528495,0.036085192,-0.032997224,0.002936981,0.0030724944,0.0003039098,0.03029499,0.0744453,-0.12350713,-0.09965189,-0.04639738,-0.0150500545,-0.03682915,-0.05162342,0.010004794,0.015928078,0.09687826,-0.01561848,-0.06928956,-0.069849804,0.03911263,-0.046365608,0.041433524,-0.06818474,-0.013467722,-0.03238669,0.03921044,0.007287291,0.043958504,-0.034122173,-0.15280622,0.047120962,-0.0069451053,-0.06210672,-0.0076324134,0.101765506,-0.076223664,0.071316965,0.054473277,-0.057302233,0.06970657,0.025232663,-0.013287027,0.03660188,-0.035246834,0.0786297,0.054890774,0.027137032,-0.08180635,0.07509844,-0.07365044,0.0036984293,-0.00037952073,0.0047615864,0.10472611,-0.0126074115,0.0034295984,0.023727538,0.03347627,0.0018646214,0.07231017,0.02054059,0.0064542997,0.0763302,0.038446933,-0.032427985,0.00022804047,0.06829645,-0.08416252,-0.07170277,0.01964083,0.034790486,-0.104016244,0.03103054,0.09354543,0.045880146,0.074427344,0.05577494,-0.055399854,0.06714374,0.085023545,-0.09438686,0.054832824,-0.0019006869,0.092842095,0.051490247,-0.00057127187,-0.04700518,0.029311892,0.04232885,0.06296831,0.043312468,0.0017056868,-0.009934064,-0.044990037,0.089972936,0.003530724,-0.032932702,-0.06873434,-0.0366609,0.05196713,-0.053669076,0.10684853,0.02282784,-0.06478292,-0.039583974,0.034404714,-0.031334024,-0.07895566,-0.01789455,-0.012740014,0.056328654,0.035958424,0.026386399,-0.01645948,-0.039003957,-0.04920362,0.060444355,-0.0032752086,-0.01999219,0.006668374,0.030501228,-0.023915578,0.092393965,0.030639585,0.01788504,0.020966453,0.034078695,-0.06519158,0.028859878,0.045209173,-0.02928866,0.07617379,0.014780388,0.041787237,0.061515145,-0.0057011223,-0.03461736,0.016039569,0.015494511,-0.008452674,0.08331202,0.06258412,0.030274056,-0.03152763,0.015020675,-0.08945861,-0.010760081,-0.0063003995,0.0114190215,0.048256084,0.1170921,-0.11928888,-0.005868763,0.028321654,0.07447572,-0.018507376,0.0033067167,-0.007977975,0.018351682,-0.088351,-0.072291374,-0.056261066,-0.0333314,-0.00865137,0.0060140365
-0.02829349,-0.044224147,-0.05199679,0.001548407,-0.015710277,0.034723803,6.783476e-05,-0.027085073,0.11245268,-0.022423714,-0.028502818,0.033943582,-0.12496595,0.033441845,-0.0266789,-0.09132957,0.031279434,-0.03936596,-0.082015805,0.016878095,0.063858405,0.0847377,-0.03913959,-0.033742327,0.019036267,-0.03275966,-0.00351259,0.0053814687,-0.064114936,0.038730577,0.059809767,0.035068467,0.041483432,0.069740385,-0.0055512404,0.0715946,-0.014489516,0.06371167,0.038308952,0.02995513,0.0055322447,-0.07368272,-0.0033726394,0.05123774,-0.03141514,0.05310714,0.07358558,0.05612524,0.031951804,0.08175752,0.07063953,-0.0007137393,-0.074109375,0.06995932,-0.06661969,-0.020112082,-0.012397938,-0.0039058374,0.0036434396,0.045874003,0.057159092,0.08703778,-0.00055841485,0.0046811206,-0.092118725,0.08526922,0.06494606,0.06259248,0.031603638,-0.031260233,0.019492421,-0.008709772,0.082544595,0.05249763,-0.0056046615,-0.010751687,0.07197064,0.016448969,0.054837175,0.0009773499,-0.042622767,0.040159687,-0.02101451,-0.022905068,-0.07668488,0.042971227,0.02847009,-0.033672526,0.0017074861,-0.0029771265,-0.053362448,0.059135135,0.038386405,0.069550216,0.07641541,0.03156935,-0.042551707,0.005406069,0.038065076,-0.06723696,0.0876726,-0.007529095,0.018866146,-0.0005701205,-0.030489562,0.04122462,-0.10725928,0.017233646,-0.030418426,-0.045263883,-0.024208196,0.060041055,0.07613,0.004966923,0.08866185,0.077002026,-0.069338426,-0.009143341,0.11852021,-0.04958125,0.1078598,0.09399041,-0.01771374,0.0125756115,0.0069697644,0.006485875,-0.076334305,-0.07061477,0.05197845,0.035348695,0.09018545,-0.0068881516,-0.046952248,0.009745819,0.026314715,-0.016089873,0.047529537,-0.042209305,-0.033515446,0.07634131,-0.014096879,-0.1168868,0.02444252,0.016701832,-0.05652889,-0.03427274,-0.029156901,0.07487348,-0.008858969,-0.008553916,0.036268853,0.016672004,0.069568805,-0.05011555,0.055138685,0.044725575,0.055902697,0.026792428,-0.017902922,-0.0017778825,0.04216706,0.05472504,-0.003946056,0.048944313,0.10563939,0.002492813,0.078662835,-0.032173567,0.052139513,-0.04535355,-0.04209141,-0.016827982,-0.03797074,0.012546942,-0.09240051,-0.016853265,-0.013788519,-0.03343595,0.07749898,-0.0029873217,0.05221144,-0.043276526,0.036663685,-0.01266453,0.059325695,0.055038515,0.074208595,-0.050774608,-0.06527016,0.043281723,-0.03538235,0.12154739,-0.046579998,-0.039909776,-0.07993933,0.03545813,0.047817215,-0.0014111713,-0.07967132,0.019074773,0.08217806,0.043090448,0.0128795,0.07400162,7.275976e-05,-0.025171965,0.0463902,0.06724248,0.03517489,-0.021238033,-0.04743185,0.1175887,-0.08032207,-0.06775137,-0.078946486,0.025446407,0.019967645,-0.013740521,-0.04173889,0.072256856,-0.06288814,0.066998534,-0.0586836,0.006433284,0.04495414,-0.011456054,0.0016844467,0.08818812,0.018699044,0.030586753,-0.100299776,-0.06322736,0.106460504,0.04144164,0.055578902,0.010202514,0.050336532,-0.0050750505,0.03526235,-0.10213138,0.0014483168,0.09722031,0.010711247,0.0676946,0.01564948,0.049031522,0.059018746,0.029706981,0.045592815,0.005563026,0.032717157,0.03994514,-0.046789322,-0.0047197556,-0.004782315,0.015915275
0.044924676,-0.071860954,-0.05279341,0.028932847,0.04145209,0.029104996,0.010203518,-0.014309934,0.09195884,0.058315992,0.006088852,0.014433733,-0.028568765,-0.007927751,0.02146394,-0.049367618,-0.03215886,-0.11519325,-0.03440944,0.042392246,0.078552485,0.06691534,0.0076553454,0.061008755,-0.019841382,0.041676614,0.023018409,0.0019993307,-0.009131142,-0.045206238,-0.0033650217,-0.05805217,0.010046124,0.07686044,-0.072039284,0.038011327,0.05834286,-0.041543085,0.03307373,0.03528471,-0.008484023,-0.017423598,0.09995517,0.043939985,-0.010846633,0.03584666,0.033051655,0.045382764,0.05422604,-0.0022690718,-0.017502923,0.010446321,-0.066088796,-0.031194065,0.013287379,0.073983505,-0.015492794,-0.002515584,-0.009788768,0.066695064,0.051513497,0.04161924,-0.08055517,0.024043635,-0.042208474,-0.032961123,-0.06493579,-0.022376705,-0.05372009,-0.05402669,0.036752,-0.07176221,0.050779957,0.04741298,0.07342482,-0.022275485,-0.039466906,0.06117087,0.086300045,0.041763425,0.046436537,-0.016505908,0.082658894,0.051216137,0.016170412,-0.008167334,0.03012352,-0.03697562,-0.014256244,0.087513894,-0.040687833,-0.024201933,0.06514953,0.0621901,0.07151929,-0.043763135,-0.06780525,0.006706674,-0.03325764,0.006675005,-0.021604322,0.07708944,0.08944543,-0.013285744,0.014839894,0.044563733,-0.0423234,-0.016235804,-0.0435664,-0.06193742,-0.012682292,-0.027890814,0.060749523,0.054585572,-0.0045647784,0.0656307,0.03978473,-0.008725764,0.14085145,0.004141894,0.009286724,0.010891447,-0.100859314,0.032002334,-0.051453754,0.06379902,0.029697094,-0.0142835695,0.013325613,0.038046636,0.053083144,-0.007161695,-0.0572323,0.0015187719,0.049748592,0.03185998,-0.07148814,0.02122096,-0.04803745,-0.06062878,0.020897275,0.010113388,-0.00015027953,0.093580775,-0.00048885494,0.06802282,0.058151603,-0.0066517876,0.009569286,-0.02835152,-0.010183487,0.034665752,0.036116786,-0.010206082,0.073575824,0.03046738,-0.047815304,0.054665674,-0.075502545,-0.033474997,-0.026414305,-0.0041693966,-0.015343389,0.004068427,-0.014251992,-0.024559055,0.069622934,-0.058798164,-0.023541177,-0.031517424,-0.018210394,0.08814244,0.044290666,-0.03725953,0.004005018,0.052762844,0.015643002,-0.010706712,0.012896003,-0.014183365,0.0066579925,-0.023054836,-0.05001433,0.04817498,0.015149099,-0.0015980041,-0.031812463,0.0071736607,-0.04388815,0.026614083,0.030737318,0.059497852,0.06308103,0.030057164,-0.10733483,0.03930854,0.053493522,-0.04536615,-0.1242746,0.040116016,0.045496296,0.08082276,0.03653348,0.042728372,-0.010248468,-0.015365491,0.07304253,-0.008214449,0.037556674,-0.040223885,-0.073850095,0.10737403,0.014279527,-0.04871685,-0.07424224,0.08802569,-0.017134925,-0.037955005,-0.029759573,0.018533133,-2.2555332e-05,0.05819891,0.07715142,0.03305108,-0.05999473,-0.008152055,-0.025964534,0.053181786,-0.0024705692,-0.019302526,-0.062055588,-0.07618746,0.058445107,-0.0778978,-0.023739943,-0.058860775,0.058884446,-0.042965256,0.03171162,-0.012448993,0.055984147,0.020908924,0.0050002183,-0.04041414,0.05583452,0.069746986,0.006740679,-0.011585522,-0.051718254,0.07000615,0.00031179373,0.050646514,0.045660835,0.038844462,0.049699277,0.048692882
-0.0035548517,0.092533454,0.070208475,-0.052766394,0.010684005,0.0027135366,-0.026469026,-0.007130367,-0.09244956,0.07333008,-0.067043684,-0.020646589,0.05034352,0.071752995,-0.026670022,-0.0016501079,-0.090459265,-0.06940119,-0.0083285775,0.039337557,0.007073652,-0.049857926,0.021802897,-0.003504121,0.016888818,0.05375269,0.028196225,-0.042833373,0.026060794,0.0025099795,0.0547821,0.0018088892,-0.0096189305,0.03023372,-0.08758307,0.026217194,0.05700007,0.04301054,-0.012824181,-0.0015483797,-0.049205042,0.075978324,0.050773364,0.028875541,-0.017372012,-0.037229538,0.090177506,-0.116484605,0.039031487,-0.04046129,-0.041132458,0.035726324,-0.018998342,0.00014997587,-0.16633037,-0.028515693,-0.0028656893,0.032144595,-0.027694084,0.048849966,0.039635476,-0.024961201,0.098531984,0.0519417,-0.005462233,-0.053885784,0.050661042,-0.019378277,0.016294189,0.091118924,0.0033870854,0.0012959302,0.014361584,0.036524806,-0.028400859,0.028634291,0.04602841,-0.043363027,-0.039826803,-0.0407612,-0.046440728,0.06857591,0.061680455,-0.048457094,-0.0059894547,0.041203607,0.010765825,-0.05994495,-0.015337943,-0.04331245,0.055101674,-0.013496188,-0.020028036,0.09347986,-0.0306212,-0.029048761,0.038680963,-0.010760878,0.008699315,-0.0042988323,-0.051734786,-0.04376908,0.060053732,-0.05947587,-0.04416449,0.065869264,-0.04750337,0.051750172,0.04544307,0.005816135,0.059261333,-0.026033968,0.03367286,-0.0057808063,0.073583424,0.005250096,0.053561017,5.3362797e-05,0.08889325,-0.052133236,0.1386873,0.031388685,0.099833265,-0.065727115,-0.046540093,-0.033886302,-0.041353505,0.035349783,-0.009834993,-0.054572422,0.050449453,-0.0004736122,0.02267068,0.10193453,0.023512268,-0.096270025,-0.012291662,0.03476263,-0.023565814,0.00043329963,0.100644775,-0.041467786,0.004372661,0.03302748,0.0029087693,-0.024527319,-0.081984796,0.07254658,0.06414581,0.052277356,-0.020150939,0.052855525,0.0034579977,0.08697097,0.0070979414,-0.03459841,0.03963753,-0.0075652925,0.078837216,-0.020171106,-0.07423419,0.0430576,-0.06980399,0.041802183,0.17807633,0.04992284,-0.013706626,-0.0020449115,-0.0014444165,0.013675872,0.056516055,-0.004667473,-0.07731834,-0.0009461918,-0.06633422,0.07109532,0.05621062,0.0009753823,-0.0144983325,0.050495878,-0.052050404,-0.05496556,0.05014206,-0.017391454,0.058545075,0.03438312,0.13805524,-0.057943594,0.0030775222,0.035509977,-0.025592351,-0.05544572,-0.034440354,0.09008872,0.00756404,-0.042673364,-0.07392415,-0.019756515,0.010006822,-0.0044232374,0.037163854,0.020296723,-0.0437093,-0.07373734,-0.115175165,-0.062521644,0.0024432822,0.09308323,0.08742753,-0.018376457,-0.055551406,0.07818486,0.0599534,-0.05778511,0.08307359,0.035574187,-0.036798883,0.07500989,-0.0714459,0.0202581,-0.03109395,0.052609563,0.011463034,0.0007231553,0.06915962,0.0032471053,0.052929446,0.041711975,0.050871823,-0.012272396,0.026965912,0.0072277193,-0.011376334,0.015381674,0.040619858,0.017495714,0.059295963,0.08208481,0.0028836604,0.035143945,-0.09961069,0.024042413,0.10808386,-0.028694365,-0.020095121,-0.05164734,0.019130534,0.041457497,-0.02071804,-0.08082855,0.0039747953,-0.011733507,0.03552606,-0.037400182,-0.009374096,-0.008472919
-0.007561863,-0.06970533,-0.03733292,0.05538316,-0.0083112,0.008434049,-0.043970257,0.042340226,0.08849623,0.057147942,0.073821485,0.057707697,-0.034129288,-0.04435603,0.035126846,0.003510702,-0.020230124,-0.005604173,-0.07500573,-0.029621381,0.012898646,0.058398154,0.030352328,-0.019885825,-0.009102385,-0.009443738,0.0781889,-0.08170299,-0.035801027,-0.031712092,0.05937445,0.041077193,-0.039538797,-0.032213822,-0.06275913,0.05552713,0.0848328,0.0741432,-0.04706179,-0.047049385,0.08347061,-0.03649372,0.08588831,0.058020182,0.094753906,0.055093355,0.047698226,-0.011862208,0.037793845,0.050198793,0.045404248,-0.00017104355,-0.13481474,0.004011609,0.0021366524,-0.05020755,0.025220443,0.011395506,-0.030259725,-0.009499301,0.022893067,-0.021702593,-0.04412425,-0.010051634,0.043343484,0.05486668,-0.024381774,-0.0327219,-0.016406916,-0.014634095,0.05647096,-0.028103705,0.06594124,-0.012241762,0.065982275,0.08953786,0.015867889,-0.037478447,-0.043457404,0.03661936,0.03965894,0.04533046,0.015019497,-0.0029938223,-0.00094402203,-0.033307295,0.0393846,-0.001118499,0.08385732,0.038209476,-0.07178131,-0.018749868,-0.071425095,0.036401693,0.039352514,-0.012229609,-0.06095195,-0.028083112,0.046958998,-0.046454374,0.019965013,-0.041162934,-0.011853851,0.0968233,-0.018373083,0.09269591,-0.03682581,0.047280002,0.01290167,-0.039417412,0.07691173,0.06053223,0.0033567077,0.0760594,0.011071468,0.057131756,0.020689733,0.03168165,0.050066397,-0.0061805844,-0.03504791,-0.018556219,-0.061612055,0.013374389,0.04560585,0.040136464,0.071633816,0.062248275,0.026962087,0.042558044,0.06349006,0.062940165,0.035427038,0.01454876,-0.055107612,0.04933869,-0.044064846,-0.03920061,0.015394299,0.026175128,-0.034424093,0.027976455,0.047913875,0.04855439,0.06770727,-0.0037248996,0.061494585,-0.009102967,0.016379964,-0.047423754,-0.066927426,0.0013174972,0.05236706,-0.014337026,0.08847536,0.062604785,0.025370402,0.07707024,0.014866623,-0.10112055,0.03491472,0.018940803,-0.025539348,0.028680786,0.018148921,-0.02668349,-0.0115811145,0.059961263,-0.01984513,-0.053084068,0.01935172,0.09126486,0.061875243,-0.08420277,-0.060854133,-0.032451443,-0.018777374,0.02239162,-0.021395542,0.06826927,0.014921195,0.012763541,0.011738255,0.07477833,0.060921088,0.060293213,0.08891552,0.012831666,0.05350755,0.06189897,0.056556113,0.085743874,0.035827834,-0.08924173,-0.07432352,-0.008044446,-0.0062278183,0.01009802,-0.11041949,0.049120408,0.019496264,0.02220182,0.08710544,0.07165973,-0.040092144,-0.015451289,-0.06445166,0.053772364,0.030894473,0.039938405,-0.032885827,0.037841626,-0.057491552,-0.01263437,-0.0019023126,0.02226535,-0.035347473,0.080759265,0.050500747,-0.027086081,-0.04328256,-0.02480427,-0.027234461,-0.0026799818,0.0746239,0.046171926,-0.047520064,0.036029823,-0.05736949,0.03492842,-0.07989945,0.0028166992,0.084185824,-0.060433835,-0.06707396,-0.011275019,0.026934052,0.017392011,0.049037617,-0.10008688,0.05024246,-0.0396312,-0.054376893,0.0324933,0.029252006,0.008688056,0.02508107,-0.026469298,-0.02927864,-0.025777629,0.005998308,0.01582179,0.035299703,-0.011388819,0.035998266,0.03090955
-0.0071385168,0.043708142,-0.055024058,0.06651508,0.06999221,0.026775705,0.0519196,0.011445637,-0.04297719,0.014049064,-0.043526113,0.009838391,-0.039159086,-0.005225721,0.026582876,-0.003823533,-0.022323912,-0.08219467,0.09359799,-0.007213175,0.06858658,-0.04801514,0.0021546702,-0.010364048,-0.0592645,0.031887688,-0.011360994,-0.058626525,-0.07454481,-0.05535412,0.09648716,-0.013681154,0.0478043,0.011196259,0.035240743,0.03984344,-0.041260336,-0.016241537,0.10248482,0.0058444683,-0.0046684626,0.0011086576,0.06760239,0.036812454,0.005679378,0.05791474,0.049171537,0.00036004328,-0.028641175,-0.042980358,0.07196678,0.047504973,-0.09055425,0.1178001,-0.049447637,0.029202051,-0.04980845,0.029403387,-0.048543394,0.09906898,-0.02773229,0.025650606,0.04227934,-0.014480107,0.0136762,0.05535631,0.086923294,0.04851762,-0.05764507,0.035718497,0.056852076,0.020784559,-0.014763845,0.064199,-0.01602266,0.0016480347,-0.006232294,0.031740345,0.08696355,-0.048947874,-0.045838922,0.07045817,0.0011753062,0.00995848,-0.09204582,0.08525101,0.024885783,-0.018778354,0.07009389,-0.010084701,-0.005505248,-0.11740567,0.013401678,0.15006159,-0.031783476,0.05466534,0.030816358,-0.0007377846,0.04986777,0.030668376,0.06262564,0.061654866,0.0177001,-0.061324853,-0.012303406,0.035508133,-0.06342207,0.085369825,0.01167775,0.039587785,0.001045089,0.06081999,0.035953578,-0.09248636,-0.03779466,0.04716644,0.020035937,0.015991263,-0.025442548,0.022196714,-0.117062844,-0.06521248,-0.028514856,-0.115057476,0.009871734,-0.07596031,-0.050788164,-0.032280415,-0.050497726,0.099544644,0.03221194,-0.036157176,0.04283496,0.12082571,0.032880478,-0.08814062,0.02475689,0.024829414,-0.013958884,0.07889102,-0.020241579,0.03181893,0.011659263,-0.03871851,-0.039227128,0.031111976,-0.082905486,-0.02350796,0.027070798,-0.05428102,-0.017310452,0.062454496,0.029398197,0.024058465,0.01581714,0.047404226,0.0613602,0.05108584,0.011145076,-0.027788512,0.026184648,-0.01846832,-0.018824913,0.040771186,0.043451317,0.052328218,0.07485667,0.09357238,-0.040720254,0.0695237,0.07111926,0.06883745,0.04747223,0.040483233,0.01013108,0.0786813,0.051557697,0.02541777,-0.08692274,0.00797707,-0.028253373,0.07668846,-0.02436768,0.048734535,-0.061922535,-0.017083041,0.05718634,0.06918149,0.009955478,0.04709662,-0.0038364285,0.09038955,-0.032038793,0.07155432,0.0412248,-0.014143134,-0.007463448,-0.052738924,0.023178997,0.032810528,0.06229615,0.025708579,-0.030097023,-0.012976961,-0.084612735,0.021274647,0.06937574,0.02301005,-0.075042315,-0.051983193,-0.010315235,0.009063811,-0.043891616,-0.069846325,-0.067581594,-0.08764318,0.05517584,0.015100618,-0.025032312,-0.033582628,-0.018893512,-0.07224201,0.06512581,0.09334916,-0.0048811804,0.06955571,-0.0007562018,-0.019590728,0.06297068,-0.050120987,0.030186862,0.004135139,-0.004113646,0.010424283,-0.011273318,-0.0036775067,0.03633035,0.05233769,-0.02686187,0.023849588,-0.054609083,-0.014134834,0.12377568,0.029390605,-0.09157346,-0.059079908,-0.028773954,0.08852711,0.0034931663,-0.035517912,0.01616237,-0.017032783,0.065542154,0.063908234,-0.033113386,0.05881525
0.07526592,-0.024508106,-0.019538783,0.0019240505,-0.06866051,-0.015224193,0.037183877,-0.019144429,0.05853041,0.07028698,0.069077075,0.013313327,-0.063501716,-0.012408338,0.029531771,0.0113135595,-0.01506097,-0.059046667,-0.033590674,0.017888475,0.02773453,-0.0075820107,0.0023850116,-0.056557186,0.058246892,-0.013769542,-0.027024241,-0.06043919,-0.028106045,-0.008338443,0.044557877,0.04834256,0.004495011,-0.060413897,0.04127377,-0.02968114,-0.014800045,-0.007989156,0.037849702,-0.0011381807,0.01604821,-0.005000706,-0.013040859,0.058327958,0.048816998,0.03673659,0.017627709,-0.028263224,0.02341556,-0.003982353,0.081029594,-0.0071293977,-0.05323823,-0.048773274,-0.07148777,-0.047570113,0.072256215,0.0055115856,-0.06535247,0.013656237,0.054105043,0.056784138,0.027806688,0.035825167,0.08926465,0.096954785,-0.008337229,0.03985523,0.054675642,0.058812603,0.020537267,0.027687004,0.013844553,0.017143968,-0.010197003,-0.014118228,-0.028400367,-0.052334946,0.027079485,0.06352484,0.06884407,0.069399446,-0.0727249,-0.09222241,0.043569982,0.046627387,-0.013173874,0.12223629,-0.06728806,-0.06634452,0.05476082,0.04087308,-0.08133289,0.051753394,0.037704535,-0.028929994,-0.023087054,-0.06558874,0.04155255,-0.013122169,0.065624796,0.032410778,0.0657251,-0.022939155,-0.053124994,-0.024298485,-0.059764735,-0.06597005,0.007507723,-0.042184334,0.013435833,0.05784349,0.0029560435,0.10259993,-0.011324336,0.015196762,0.005522893,-0.040771298,0.077947736,0.036644142,0.09325792,0.07816064,0.009240912,0.06301764,0.00976688,-0.13900091,0.003510069,-0.020054687,0.06601722,-0.018155739,0.08112214,-0.0063632554,0.006916408,0.100272804,0.043378264,-0.07114333,0.052528158,-0.0041785766,0.011922187,-0.13244808,0.12618554,-0.027011575,0.01268441,0.12601076,-0.06017517,0.045062255,0.04066446,0.019558426,0.044317905,0.032152988,-0.08610313,-0.07239715,0.035757948,0.04761208,0.024447931,0.057238776,-0.084318735,0.043632604,-0.0059221126,0.08863272,-0.06968288,0.05114648,0.056412414,0.055981167,0.019752953,-0.031555206,0.07620645,0.035360873,0.07647261,-0.06108003,0.012344367,0.03218526,-0.01725076,-0.056305636,-0.007689072,0.007197875,0.056244217,0.051962916,0.014451307,0.033010446,0.02354915,0.014282649,-0.07024989,-0.04193022,-0.03706253,0.070956536,0.040659156,-0.023359893,-0.02644481,0.042613246,0.020068042,0.102180466,0.017462257,0.05187957,-0.07311657,-0.042608686,-0.01452331,0.08816496,-0.04339386,-0.048007492,-0.0038131773,-0.008602335,0.0661384,0.07150068,0.07896566,-0.056950923,0.00018992422,0.013158383,-0.035390005,0.07397063,0.02051831,0.0880744,0.02710943,0.042618003,0.032096975,0.05424178,-0.034464948,-0.019263107,0.047450867,0.10430334,-0.046050094,0.05144873,0.061033018,0.013503594,0.0743658,0.03336298,-0.019139392,0.01359351,0.008550846,-0.05160181,-0.025797496,-0.054823503,0.039629776,0.016551849,-0.00022137006,0.069494925,-0.03892347,-0.0016414999,-0.011850905,0.0065088854,0.03954601,-0.059284557,0.027203275,-0.051948078,0.09327709,0.0361178,0.08208151,0.010626183,0.0032827125,0.014788669,0.071813546,-0.051411446,-0.05406681,-0.05282749,0.010685726,-0.058511917
-0.03378455,0.05393039,0.08762486,0.0675331,0.020681575,0.08171992,0.038506363,-0.0041301027,0.053281773,0.008994306,0.010776437,0.0129380645,0.092814796,0.05418599,0.08068894,0.035853475,-0.025244672,0.12292252,-0.018676966,0.012994623,-0.021369677,-0.048135143,0.022819826,0.065315746,-0.09679123,-0.038900074,0.07406732,-0.1000495,-0.01621855,0.048272274,0.09229804,-0.037436042,0.05222964,-0.036011312,-0.03369243,0.04534235,0.11660991,0.023993874,-0.0038620627,0.05000581,0.023597158,-0.016509827,-0.048785068,0.03773109,-0.04725418,0.05015777,0.100617014,-0.018479917,-0.0059404103,-0.017767558,0.06839758,0.013027694,-0.05500498,0.05650593,-0.08454866,-0.02238669,0.09915796,0.061279528,-0.071055435,-0.010584521,0.022766208,-0.030891424,-0.11249613,-0.022990393,0.047089014,0.066195376,-0.008813598,0.061947107,-0.084806755,-0.13383281,-0.030282538,0.041009925,0.049094215,-0.03264432,-0.042923637,-0.025176963,0.009064615,0.08821585,-0.035930566,0.07569196,0.052520506,0.04902675,-0.07811461,-0.05250805,-0.05463957,0.017703105,0.017350856,-0.04086243,-0.072204,0.018770508,0.08279308,-0.0074057076,-0.10407895,0.07515457,0.00036420324,-0.017345866,-0.01151386,-0.040282313,0.023908664,0.026812768,0.074963294,0.0064077848,0.04628161,0.01064252,0.029552313,0.05223756,-0.062237594,0.060323894,0.03496163,0.0776184,0.09884104,0.09054667,0.06825829,-0.03961477,0.017684536,-0.026042135,0.0651089,-0.12552872,-0.065620005,-0.0033388014,-0.03017988,0.1334309,0.010675126,-0.004855,0.023678286,-0.016299939,0.0040841894,0.035942607,-0.002027724,0.10869911,0.07453323,-0.0330736,-0.05008512,-0.041515816,0.048956532,0.03259687,0.0021612216,0.04955611,-0.1194082,0.038201366,-0.032133043,0.03589105,0.014973401,-0.05067313,0.02946977,0.058285587,-0.01213142,0.03477512,0.061580513,0.02289105,0.06207923,0.029025132,0.1227765,0.06278261,0.03971726,0.024344927,0.03695815,0.058217417,-0.009685176,-0.07490685,0.061799724,0.0871466,-0.047814894,0.010852647,0.06263274,0.004652831,0.06221884,0.09372975,-0.07587254,0.108990766,0.03338177,0.014105247,0.012380959,0.09202121,-0.056010764,-0.013623299,-0.04234342,0.0076348595,0.031988252,-0.050585598,0.01731379,0.07535209,0.13249296,-0.0812863,-0.0053592743,0.06478453,0.15811722,-0.04783094,0.027092757,0.07199856,-0.05401137,0.015023657,0.031129451,0.021547256,0.0035993573,-0.0048265452,0.012156993,-0.096260235,-0.008724222,0.04874238,0.10130805,0.002552574,0.013964103,0.06956123,-0.03902175,-0.072213955,-0.034688823,0.016831664,0.010303756,0.027706668,0.020115573,0.06908639,-0.06003068,-0.104682714,0.069265634,0.107079,0.060811266,0.083838776,0.01157956,0.05497678,0.04576036,0.037506044,0.063171454,-0.07030155,0.09000048,0.036928114,0.065141596,-0.02541088,-0.03380295,-0.014579038,0.00017310418,0.078430824,0.057081167,-0.030413415,0.0536046,-0.030627841,-0.073265426,0.019672,0.042266853,0.01840976,-0.0010703085,-0.055773426,-0.07369603,0.12464573,0.014262294,0.026804818,0.004785337,0.07033813,-0.043871175,-0.013591495,-0.042939935,-0.07444119,0.08640653,0.08031344,0.047625937,0.032721397
0.047642745,0.024323694,0.10825428,-0.03676104,0.03537141,-0.05842094,0.05596926,0.07920299,0.019338157,0.002800419,-0.0029248993,0.04943437,-0.06819835,-0.025968272,0.012834764,0.075398654,0.051237654,0.093771935,-0.0068855383,-0.0249978,0.050750077,-0.029993273,-0.044128176,0.08292763,-0.027940564,-0.060854014,-0.041903377,-0.0707825,0.0017750881,-0.13419315,0.013155383,-0.061099056,0.055541478,-0.0101609845,-0.07520569,0.083049536,0.037603237,-0.08551837,0.043562956,0.040942933,0.011876743,0.017327331,-0.105218,0.0075328304,-0.0035742677,-0.06678757,0.07070918,0.013494271,0.023539461,0.0713037,0.04808172,-0.0030808996,0.06765684,0.079392485,-0.07227246,0.028510386,-0.059475075,-0.06259078,0.078842625,-0.008559217,-0.046147943,0.028532917,-0.08835298,0.05915016,-0.10250166,-0.007373021,0.0067067132,0.024009176,0.0015211068,-0.06860082,-0.045207564,-0.01435123,0.051554557,-0.0614191,-0.039018385,0.05842586,-0.07245402,0.032187816,-0.0031089094,0.042169914,0.0260235,0.023358071,-0.096509896,-0.06829405,-0.0016688369,-0.035114076,-0.038282398,0.0021280716,-0.0625996,0.1112415,0.060812276,0.041382026,-0.03554494,0.021290608,0.003436677,-0.029148873,-0.076091215,-0.05254435,-0.054724127,0.014464859,0.06366975,-0.027616506,0.0070592347,-0.09038118,0.06761616,-0.020807944,-0.027252525,0.094896555,-0.00034547024,0.009684077,0.00034175444,0.02018466,-0.054227192,-0.032187626,0.042352118,0.09306678,0.079139814,-0.100655235,-0.0749361,0.0065159863,-0.13177969,0.009996234,-0.005836073,0.009841802,0.07614103,-0.032099657,-0.0068008304,0.07575014,-0.034577757,-0.02664223,-0.035829075,-0.07048819,-0.0587556,0.022749802,-0.008777082,0.027269775,-0.026053267,0.00014532293,0.052587368,-0.1135029,0.010261209,0.049474612,0.00060651184,-0.06813168,-0.030560799,0.07595528,0.08076672,0.088016145,0.03183772,0.05194096,-0.07130935,-0.03325992,0.024849895,0.031382374,0.075518265,-0.029834231,0.05870028,0.010604024,0.052705385,0.0041175717,0.024371563,0.04513873,-0.07872944,-0.0037080583,0.12209649,0.07496381,0.05080538,0.06529646,-0.058172382,0.007114155,0.04992783,-0.012932403,0.059837606,0.09661384,-0.106687546,-0.0061009005,-0.09911673,-0.047667414,-0.06280881,-0.060466442,-0.022941956,-0.02865927,0.04505461,-0.09822486,0.0015245625,-0.055814635,0.075932086,0.056085307,-0.045740467,0.07486417,0.072647765,-0.022447044,-0.040564492,-0.10340953,0.03622864,0.028957522,0.09389447,-0.05292501,-0.052567016,-0.025064511,0.05966116,-0.0011818606,0.05016216,0.030392801,0.011446903,0.0030390446,0.0031109045,0.043059926,0.08392333,-0.03040756,-0.0016124649,0.067307666,-0.022635976,-0.071329795,0.008060331,0.074611016,0.023384228,0.0456556,-0.06941047,0.016345643,0.0783629,0.07524222,0.02526952,0.039514787,-0.0009118514,0.076768,-0.024785941,-0.03588648,-0.028950438,-0.046264723,-0.0061386186,-0.025385464,0.053328156,-0.0094487965,-0.03965917,0.001816751,0.03803732,0.05971056,0.022904295,-0.02423712,-0.038669173,-0.057351775,-0.10772898,0.16347484,0.019889738,-0.059497934,0.04103854,0.013788097,-0.01923306,-0.114308506,0.0027071205,0.036115926,0.046616606,-0.031041695,-0.014627316,0.05716853
-0.041222245,-0.06268038,0.066956416,-0.02937898,-0.025404217,-0.043473803,0.0032349795,-0.00588364,-0.0075160996,0.07073469,-0.048715778,0.021208644,-0.02228094,-0.022265445,0.065871395,0.027061706,0.05609414,-0.033165798,-0.039966974,0.00080465863,0.009061855,0.019203635,-0.03305505,-0.01438667,-0.108514376,0.090863116,-0.05289523,0.064880855,-0.040230345,-0.03874595,0.027851092,-0.01788615,-0.023011288,0.024728669,-0.10774247,-0.0011112826,-0.014865413,0.004876183,0.026304655,0.046240095,0.020260572,0.11787465,-0.061565205,0.0215351,-0.04500516,-0.052073468,0.0030620315,-0.00807704,0.027847076,-0.081796125,0.05786147,0.05866241,-0.081560366,-0.008932191,-0.093600325,-0.03258142,-0.012083859,-0.08417557,-0.038796183,0.007718144,0.036068253,-0.07564222,0.04817765,0.06552401,-0.1688514,0.029589698,0.05986542,0.017080605,-0.028710531,0.08662752,0.0639447,-0.06559331,0.0014832824,0.048441622,0.08710218,0.03910277,-0.08072973,-0.03312241,-0.0519686,-0.087883554,0.030815579,-0.079712756,-0.031468432,-0.007066164,0.021326032,0.02759959,0.04319421,-0.09227904,-0.047766138,-0.0866824,0.009835519,0.022883164,0.0032787104,0.018834386,0.037404273,-0.066075854,-0.052577313,-0.03600515,-0.1097423,-0.014260575,-0.010015819,0.026830815,0.023266345,-0.0007945764,-0.07121707,0.05426647,0.053829018,-0.05159469,-0.028885888,-0.010019889,0.01183688,0.08269723,0.021836879,0.105707824,-0.032107916,0.024497773,-0.09395693,-0.050209127,-0.028744219,-0.0686982,0.09582749,0.004803293,0.005902525,0.036938652,-0.13950221,-0.0068171574,-0.02110241,-0.07691707,0.02533548,0.05361055,0.08588292,-0.10354602,0.03558055,0.013078072,0.030092033,-0.082059786,-0.00061496726,0.07773682,0.020699367,-0.010505417,-0.011576305,0.04012677,-0.023201436,-0.021977201,-0.03696866,-0.04900487,0.06147895,-0.04866632,0.07681439,0.013872389,-0.09578647,0.018423388,-0.030970657,-0.007152464,-0.028597184,-0.052313443,0.05468128,0.05132652,0.011975531,0.10392916,-0.090996005,0.011922885,-0.011423056,-0.02463223,-0.01789762,0.012790034,-0.022539387,0.022934483,0.013625994,0.026779024,0.044610895,0.023544252,0.013080286,-0.006621236,-0.0012694915,-0.039530933,0.074323855,-0.038126722,0.032721587,0.003381163,-0.010841346,-0.10523097,-0.053067625,0.041005235,0.0056259744,-0.02507226,0.10107412,0.029118614,0.0019458047,-0.075871244,-0.04995413,-0.027845891,0.017163027,0.06530505,-0.058528565,0.016324826,0.010609444,0.14256844,-0.07523301,-0.036719296,-0.0034061468,0.054835755,-0.12273309,0.014980731,-0.08648301,-0.022405578,0.06933864,-0.021921951,0.00042433746,0.023119997,0.082053125,-0.03965841,0.0510536,-0.060887106,0.041528203,-0.051586136,-0.008293217,0.039051685,-0.02728235,-0.06074205,-0.00561423,-0.09534473,-0.047035772,-0.0918285,-0.027426593,0.023245323,0.070164464,-0.051880326,0.03269683,-0.016934147,0.0009622932,0.06355525,-0.0016420506,0.059357792,-0.11599038,-0.03778228,0.023531724,-0.10988213,0.057998773,0.00029604085,-0.08453711,0.07317081,-0.05578515,-0.09622748,0.04003876,-0.07188365,-0.021564815,0.09643771,-0.0629346,-0.08993424,-0.019340824,0.051100835,-0.020351132,0.006372454,-0.05459715,0.011480546
-0.037188634,0.013136862,0.019105965,-0.056800004,-0.053593207,0.018973993,-0.010230814,-0.06429978,-0.043016642,0.048689086,-0.02805207,0.058390707,0.050366092,-0.03699458,-0.04959954,0.018093016,0.050180305,0.005649289,-0.025127534,-0.038526688,-0.04284254,-0.010717559,0.034378104,-0.007926156,-0.021090925,-0.045746613,-0.039522246,-0.012685542,0.02317799,-0.032167993,0.027384719,-0.043546848,-0.055405423,-0.038792204,-0.006657761,0.015330536,0.015962,-0.062402762,-0.023156147,0.047492594,-0.028500592,-0.053062517,0.011436118,-0.04829513,-0.036855545,-0.06244334,-0.054171346,-0.052029766,0.0010995393,0.04294126,0.0016846582,-0.04791317,-0.026850767,-0.014516607,0.004631763,0.0020662174,-0.017898317,0.027926916,-0.029276274,0.054931972,0.009003265,-0.063573815,0.03540203,0.03175349,-0.03584417,-0.039854545,0.0062201573,-0.031098964,0.049013473,-0.05082138,-0.04440483,0.014962243,-0.052931726,0.041264392,-0.044591144,-0.021035766,0.058498904,-0.03348484,-0.0011312385,-0.060108297,-0.007977309,0.026467452,-0.053416513,0.04113334,-0.06824471,0.04605479,-0.059303336,0.050593555,-0.004769752,-0.029896446,0.041411962,0.051123347,-0.059708312,0.0023131743,0.017892143,0.037319615,-0.0064134225,0.03380349,0.010096997,0.04986004,-0.044698294,-0.030581716,-0.05872336,-0.025797809,0.0028106365,-0.05880428,0.017616102,0.043965768,-0.047094088,-0.04447079,-0.06432917,-0.011708864,-0.01836192,-0.04732836,-0.020758035,0.01908844,0.023644758,0.007525426,0.014944779,0.030180844,-0.014666915,0.003959276,-0.014762116,-0.034311242,-0.010584215,0.038912483,0.0104934415,0.019941434,-0.006903817,-0.059704516,0.039073676,-0.04857744,-0.064296275,-0.014104948,-0.014111486,0.050154783,-0.049921803,-0.011046336,-0.008335925,-0.0065850755,-0.022585422,0.062248103,-0.060288377,0.02392529,-0.007050896,-0.038316686,0.04711347,-0.007294266,-0.0448118,0.03847699,-0.029779581,-0.04190396,0.019333662,0.018776337,0.023806553,-0.05469862,0.02312417,-0.045343287,-0.050270386,-0.035189707,-0.032725394,-0.0086439,-0.024161572,-0.025024597,-0.050598145,0.0026985034,-0.06000352,-0.022161452,-0.03890603,-0.03363218,-0.009747511,-0.07271235,0.03585292,-0.014853666,0.0033842474,-0.029380022,-0.011640843,-0.040297214,-0.05794577,0.025703115,0.046919584,0.03402857,-0.027763925,-0.052847415,-0.050956402,-0.036926392,0.02916835,-0.043576077,-0.022162307,-0.021106508,-0.048715673,-0.043552533,-0.0014343633,-0.03361269,0.022011155,0.05477885,-0.004092433,0.052681576,-0.040990695,-0.064927325,-0.046120446,-0.04246706,0.054156456,-0.06285823,-0.0007381888,-0.022759518,0.05758515,-0.03973663,0.05060118,0.0069888756,0.052749213,-0.007442139,0.034046154,0.024255348,0.010604336,-0.06490266,-0.027097804,0.03527494,0.051253647,-0.041057788,-0.03169125,-0.061306093,-0.06352532,-0.05077587,0.019067364,-0.03678439,0.047967087,-0.011542835,0.0137244435,-0.027106684,-0.011347628,-0.06567109,0.008618139,-0.050928704,-0.027810177,-0.010077782,-0.031407025,-0.052094832,0.047180794,-0.06401954,0.055256017,-0.011783378,0.013542002,-0.019475436,0.026915146,-0.018439574,0.017605016,-0.023896342,-0.069953255,0.049855664,0.0080573335,0.04295739,-0.038366407,-0.06382814,0.026980931,0.039212547
0.029718515,0.008257206,-0.11728783,0.063244306,-0.051843323,-0.014708556,0.015447754,-0.06692382,-0.035963435,0.0061509735,-0.043965977,-0.14754273,0.026840212,0.051810198,0.0024696894,-0.013528604,-0.054011904,0.07964191,0.042416178,0.005139969,0.02936367,0.031522993,0.003470128,0.0073799407,-0.07873232,-0.011093382,0.022373859,-0.03761731,0.0019750341,0.05352844,-0.045684595,-0.043614406,0.009157146,-0.043573964,0.061640732,0.03245195,-0.07276826,0.009253724,0.051091,0.03289067,-0.06963649,0.032599397,-0.03741268,0.029344233,-0.009556979,-0.024290252,0.06373303,0.050762743,-0.015027519,-0.06136388,0.064582735,-0.016027495,-0.04524076,-0.086646,0.070397325,-0.011310887,-0.04901304,-0.006238782,-0.12414615,0.029541885,-0.031111175,0.055991434,0.014072033,0.032155182,9.990973e-05,0.060665328,-0.035027094,0.08446037,0.046706393,0.050176322,-0.019024821,0.020630179,-0.063010946,0.042556047,0.004125453,-0.048190378,-0.0076729013,0.036379512,0.073985666,0.020077458,-0.0106106885,0.07942341,0.09185734,-0.029953439,0.06986482,0.054505464,0.023250768,-0.054066513,-0.022181412,-0.029823354,-0.034692176,-0.07543836,-0.030584313,0.047301076,-0.02292175,-0.06519659,-0.061482925,-0.065867916,0.011853669,-0.060869828,-0.023094648,-0.0060297796,-0.013515903,-0.07046781,-0.019186007,0.058262665,-0.012720598,-0.026907358,-0.009268735,0.07816003,-0.068769455,0.016796747,0.041661546,0.015529533,0.013951589,0.03350695,-0.011546971,-0.0075521353,0.0142912045,-0.016430756,0.008410603,-0.0069414135,0.048068848,0.0039535603,-0.021349626,-0.06908919,0.043917317,0.07128502,0.05689262,0.069235936,0.0622861,-0.06333072,0.037738882,0.09138653,0.040831935,-0.001990896,-0.020487387,-0.017939592,-0.057865284,-0.053387083,-0.025366519,-0.053122748,0.026696526,0.075984396,-0.041384213,-0.025496846,-0.009371947,-0.062264454,-0.023738556,0.0059182313,-0.07811104,0.0010116228,-0.062120885,-0.03065604,-0.020533316,0.030454991,-0.0026304896,0.048113454,-0.025653586,-0.011689183,-0.0056651607,0.056573164,-0.0033852416,0.020342005,-0.015605405,-0.016690215,-0.02941331,0.04298298,-0.07636623,-0.085534975,-0.06820732,0.003222088,-0.0028529295,0.026411101,-0.0016016138,-0.017654542,-0.080457315,0.052898884,0.016153945,0.0911336,-0.003355107,0.06241332,0.0045006974,0.08233231,-0.022392686,0.06589802,0.051989228,-0.06238624,0.08841305,0.010943346,-0.09055553,0.09263541,0.070389874,-0.07417315,-0.0365356,-0.022393253,0.0109782275,-0.053070683,0.032684684,0.014765622,0.03568765,0.010498043,-0.052983012,-0.021404264,-0.06521984,-0.020599106,0.044329766,0.023698838,-0.07253878,0.05772304,-0.029012777,-0.031456005,-0.020803502,-0.09672878,0.0694201,0.16096854,0.041897237,0.13267241,-0.021001354,0.05763677,-0.03111507,0.058988154,-0.06532383,0.059950784,0.078707114,-0.05676751,0.078849666,0.040342797,0.06386573,0.0327487,0.020885095,-0.008670086,-0.015869696,0.036772005,0.06936104,0.007813495,0.034568362,-0.11246542,-0.026783606,-0.06884212,-0.027260965,-0.0077622067,-0.023551647,-0.06659683,-0.01105313,-0.06630155,-0.027789664,0.04144486,0.081386134,0.061696637,-0.06279625,0.004330665,-0.031443737,0.030192986,0.019317202,0.011448898
-0.050099533,-0.021405905,-0.030835632,0.06741286,0.030591315,0.059049126,-0.07687282,-0.020131508,0.017409762,0.058475576,-0.03164785,-0.024427876,-0.014035954,0.062722355,0.03808144,-0.024059491,-0.0064434437,-0.02466058,0.013817665,0.061919294,0.046316527,-0.00042326894,-0.039387885,0.040835816,-0.06578871,-0.019120863,-0.08995268,0.094821185,0.0689721,0.014872423,0.041220743,-0.039730255,-0.027866948,0.07412193,-0.026208116,-0.0637716,0.026747303,0.0633528,0.0032021587,0.06933875,0.06061312,0.005720359,0.077787094,0.029981164,-0.10470334,-0.047816556,0.012314065,0.03914619,0.025817778,0.05536153,0.039088372,-0.0006046212,-0.022379186,0.06808735,0.020296462,-0.043047037,0.00094973174,0.046389617,0.09258223,0.08838367,0.048838645,0.020886784,-0.010157998,-0.014121365,-0.0707903,-0.05821982,0.06290745,0.004079565,-0.013375178,0.0747813,0.04806741,0.027492942,-0.007964317,0.03487775,0.021298906,-0.02130418,-0.06378023,0.051433127,-0.0011649985,0.027357744,-0.059323147,-0.06127814,0.062381547,0.105720595,-0.07960291,0.018467374,-0.0009788941,-0.045334373,0.069174744,-0.017415302,-0.093125656,-0.046533976,0.1638206,0.027357055,-0.024271099,0.06479351,0.045510646,0.0459373,0.014591315,0.030185224,0.04584138,0.022376625,0.030327829,-0.06173877,0.07502446,0.021112405,-0.050029162,-0.026014227,-0.028708711,0.06649878,0.010415196,-0.019127892,-0.025271293,-0.06266076,-0.028291564,0.019729583,-0.030786082,0.055406213,-0.04201491,0.03018045,-0.12132867,0.02444464,-0.014781797,-0.007484429,-0.043246336,0.022995705,-0.052858803,-0.0709719,0.0003905378,-0.03311373,-0.037458107,0.03284011,0.01731099,-0.039216664,-0.006228492,-0.06363612,0.034651827,0.07256651,-0.032866392,0.014207497,-0.08986463,0.032487784,0.052956376,-0.10020082,-0.061256174,-0.029342884,0.01796927,0.036808945,-0.011481724,0.016888103,-0.010018627,0.081789866,0.048028193,-0.079100296,0.05067355,-0.072276585,0.055175006,-0.021086043,0.05650374,-0.01394577,0.0062016575,0.0055645388,-0.029518614,-0.048248485,-0.12434431,-0.026165692,-0.040999327,0.035550456,0.055671148,0.026894094,0.013404764,0.011191123,-0.027058633,-0.0036010277,-0.01988816,-0.039812274,0.029527841,-0.02489887,-0.03480547,-0.041932523,0.06450603,-0.011057711,-0.026187114,0.055067196,-0.033230845,0.07206782,0.048322562,0.0016476492,0.021147612,0.020541126,-0.019570991,-0.023440132,0.011156571,-0.039436445,-0.018133659,0.027950728,-0.037016034,-0.09704952,0.07165668,0.039478388,0.040023908,0.021706227,0.031873953,-0.038147163,-0.05567324,0.029832017,-0.034355666,-0.02955934,-0.080673784,-0.0657931,-0.08248274,0.02573543,-0.032372285,-0.021396354,-0.030592706,-0.031033132,-0.044392504,-0.0476414,0.04067689,0.04003094,0.073082715,-0.09302341,-0.046032935,0.08802185,0.031271376,-0.052604627,0.022320924,-0.08354339,0.026093148,-0.03502746,-0.054831784,0.003456789,0.07070219,0.0492801,-0.0016517738,-0.056712896,0.05019192,0.08667393,-0.0081087565,-0.074734464,-0.048221845,0.08880385,0.021676501,0.06195216,-0.09930663,-0.06273578,-0.0013507815,-0.08249093,0.02363219,-0.02568852,0.016066926,-0.031613674,0.013462573,0.015711071,0.02410606,0.035418674
0.05660511,0.06021448,-0.016150651,-0.022169124,-4.2496424e-05,-0.0061205765,0.00460908,0.015091188,-0.08389109,0.01907293,-0.042799603,-0.08251602,0.033818416,-0.050321747,0.031043345,0.078133196,0.12913726,-0.01849525,0.07750274,0.027171258,0.047742266,-0.014240328,-0.030727189,0.058957234,-0.07167801,-0.062000588,0.080622286,-0.030501539,0.0150447255,-0.010181548,0.053553157,-0.043908674,0.064285606,0.036860455,-0.054963373,0.03521916,-0.053544324,-0.03247561,-0.049812958,0.0029835987,-0.01869145,0.06695613,-0.01850116,-0.025410445,0.06595994,0.0076282304,-0.0016366269,-0.0413505,-0.062128454,0.097276725,-0.06464136,0.013749679,0.056286342,0.084184065,-0.06870079,0.04765362,-0.068203084,0.009492431,0.0046088966,0.042512607,-0.06449227,0.029171482,-0.01803796,0.017052343,-0.03267628,0.0052875443,-0.00626173,-0.048213378,0.04107767,-0.097627275,-0.00350504,0.06950677,-0.009576783,0.016912002,0.11064936,-0.072434194,-0.12151546,0.035396423,-0.023815406,0.049994998,-0.0005679395,-0.008564151,0.09397248,-0.017343834,-0.04754996,0.066930965,-0.03358435,-0.008440724,-0.004925007,-0.012386043,0.02659922,-0.02636766,0.008043509,0.06734276,0.052328125,0.044662375,0.028405944,0.044504736,0.02258927,-0.03341857,-0.024784476,-0.008053164,0.0265268,-0.029800214,0.055568464,-0.0024541279,0.11265551,0.06470158,-0.008043762,0.013988726,0.013791682,0.07417249,0.018807495,0.08906242,-0.089648165,0.06677826,-0.0059113526,-0.014136967,0.07982525,0.051232573,-0.03477094,-0.026798677,-0.076409735,0.03938365,0.01394759,-0.041968495,0.117847234,0.059987195,0.03850817,0.0060943463,-0.005751116,-0.050672773,0.02168816,0.025238715,-0.005566902,0.0182558,0.018164694,-0.024098717,-0.013808175,-0.016853873,0.024442645,0.11776764,-0.016588947,0.07962213,0.0033215263,0.068153076,0.02368107,-0.013714361,-0.0103401365,-0.04348407,0.01324656,-0.05710254,-0.04229333,0.084561475,-0.017699143,-0.080500446,-0.018272758,0.063845605,0.055693693,0.035308145,0.02313079,-0.03414126,0.027109379,0.06100039,-0.10351169,-0.015335993,0.029670976,0.047832187,0.075559214,-0.028762281,0.02597619,0.058438502,0.020699207,0.06318416,-0.02727602,0.034215342,-0.11694271,0.054377533,-0.017718753,-0.005825938,-0.061145008,0.003930743,-0.019871568,0.009256629,-0.10084709,-0.06505939,-0.18928649,0.020091902,0.03448152,-0.0062010186,-0.014547393,-0.01485407,-0.024586752,-0.09015319,0.003773366,0.01600616,0.08190348,-0.10806924,-0.01901805,0.033895712,0.07901294,-0.05651705,-0.039037175,-0.0680448,0.118199095,-0.027610952,0.027652424,0.029000118,0.08175033,-0.07739735,-0.04053729,-0.043425154,-0.08826859,-0.06438638,-0.06582382,-0.013842837,0.031150255,-0.15736541,-0.037433997,-0.09600333,0.0118689425,-0.07510281,0.09185484,0.05594992,-0.07078868,0.0092701465,-0.038619787,-0.03228816,-0.060497448,0.05805301,0.031281866,0.07827416,-0.01851859,0.031403285,0.025736274,-0.08790562,-0.06445125,0.056994874,-0.081938855,0.025735417,0.064348824,-0.112577036,0.00484075,0.049436666,-0.03654205,0.050051667,0.035541095,0.026550515,0.04079675,-0.06868276,-0.0155351665,0.056820076,0.04972678,0.057322863,-0.02962623,0.027311942
0.015555055,0.07207977,-0.12959002,-0.04010933,-0.017725645,-0.011542502,0.04728519,-0.04804424,-0.11579794,-0.027582958,-0.06856235,0.05059319,0.09296401,-0.06569234,0.029752174,0.033002242,0.008940771,0.0133857,-0.034968503,0.017419979,0.06308394,-0.025061248,-0.04121518,0.013320349,-0.13471276,0.01669533,0.02784023,0.04049515,0.0011496063,0.013655058,-0.021100976,0.022174668,0.050310057,0.020097436,-0.018960442,-0.099988624,-0.032357913,0.055745766,0.03290519,-0.040604528,-0.040169474,0.0614053,0.0660877,-0.048197918,0.04280236,-0.051452395,0.06449469,-0.023650015,-0.05180481,-0.023848373,-0.008374711,0.044760723,-0.033990655,-0.020093665,-0.036425024,-0.044232886,0.03298012,-0.030261995,-0.071180396,0.05519292,0.06430357,-0.03220468,-0.017701715,-0.018888876,-0.011822208,0.024900291,0.051116195,0.077997684,-0.009075076,-0.0006792906,0.004594911,-0.06574296,0.0015010498,0.047336705,0.071395114,-0.073959686,0.014763917,-0.017688708,0.066901244,-0.092530444,-0.055750713,0.022237787,0.105803765,0.050006945,0.059170455,-0.042783182,0.03515325,-0.06583727,0.026936287,-0.10942448,0.013171923,-0.08347407,0.06274683,0.061100587,0.023483189,-0.025323408,0.04098422,-0.008166892,-0.026369944,0.011235411,-0.0023846743,-0.044513136,0.09583475,-0.03058495,-0.062087514,-0.04426088,-0.08238521,0.017337907,0.010231555,0.03425864,-0.005792274,-0.03550578,0.049074497,-0.05771669,0.057898447,0.017306704,0.06836932,-0.00032182154,0.066730134,-0.053731862,0.013169098,-0.012810006,-0.026468433,0.074059986,-0.046243444,-0.06332239,0.0059098983,0.028630393,0.025578879,-0.024447097,0.0130854035,-0.08525872,0.03727628,0.06377883,-0.0100511685,-0.05920143,-0.040910393,0.061094377,-0.075468436,0.12274725,0.021226585,0.029558599,0.025067247,0.0073043923,0.015901217,0.016486559,-0.017638663,-0.034489423,0.004539811,-0.022965612,0.03557117,0.06919769,-0.013414487,0.061349016,-0.019362958,-0.042566273,-0.015962688,-0.051946297,0.05993642,0.015985034,-0.03252241,-0.057809282,0.046883162,-0.05449291,-0.06883559,0.00026641463,0.08523673,0.02691498,0.015828276,-0.04636274,0.03228767,-0.039216094,-0.072458714,0.087484024,0.078623556,-0.00085423747,0.040551312,0.06590692,0.020111028,-0.113816805,0.028283533,0.026573002,-0.04270486,0.07614422,0.0012550517,0.005430712,0.03967125,0.0041621453,0.08908252,-0.09232587,-0.007724742,-0.0028858283,-0.06579182,-0.026543584,-0.022304008,-0.04638449,-0.05075427,0.06724265,0.07424648,-0.0216337,0.051919132,0.06912789,-0.08811906,-0.051808048,-0.033293553,0.08303027,-0.025410673,0.01884349,0.0493525,0.08002405,-0.029449858,0.074163765,0.02578879,-0.04422942,0.03428215,0.050474543,0.044458635,-0.021139467,0.0664345,-0.07183803,-0.066869095,0.031170215,0.02444107,0.017438516,0.011187082,-0.021504814,-0.025972137,-0.01616258,0.04645544,0.020176055,0.050667506,-0.013221545,-0.065177545,-0.016711928,0.081252806,0.01950628,0.029288782,-0.05578685,0.08573908,0.077682644,-0.01005345,-0.05508614,0.06380731,-0.06284009,-0.04130815,-0.08959334,-0.09103878,0.02784555,0.06297451,-0.034768164,0.013337767,-0.030065546,0.03829612,-0.003066788,-0.041991938,0.01422363
-0.05903769,0.01083222,-0.026004184,0.018167226,-0.029269475,0.032836337,-0.009635616,-0.10900177,0.08740573,-0.06604298,0.0126473475,-0.053480998,-0.0050446014,0.0047879633,-0.0026356168,0.034680583,0.064029634,-0.054432947,-0.03889778,-0.056525882,0.027363269,-0.06346873,-0.010624402,-0.08010382,0.004658273,0.046114426,-0.12532671,-0.036928352,-0.051319316,-0.089307934,-0.05791624,-0.11523168,-0.0006904728,-0.03310338,0.09117745,-0.04053797,-0.08638717,0.015809944,-0.030480219,-0.013289687,-0.04996591,-0.038811356,0.08727956,-0.0033090024,-0.030325176,-0.004306939,-0.09603584,0.03470237,0.056018747,0.0123843085,-0.088261195,-0.08693397,-0.036754455,0.059937324,0.02530436,0.006841667,0.05292534,-0.0009791832,-0.025724072,-0.0078779925,0.06277224,-0.05581277,-0.06992363,0.056280296,-0.00031411683,-0.021684896,0.041148763,0.0035755695,0.035074264,-0.04818163,-0.016929403,-0.045477755,0.008048293,0.054795954,-0.002850677,0.026477607,0.047882475,-0.051936958,0.005232335,-0.073590696,0.03929647,0.009071722,0.0692042,0.005932403,0.08586322,-0.031535365,0.047312047,-0.051057078,0.039593063,-0.013099257,0.045148965,-0.052190773,0.03455951,0.03716553,0.0015543362,-0.044307265,0.056054037,0.05680481,-0.11507083,0.042994983,-0.10972411,0.05198863,-0.024423128,-0.05084657,-0.048191354,-0.086670615,-0.040839974,-0.08823638,0.011345113,0.043197293,0.028091285,-0.0036759763,-0.06013336,-0.1130962,-0.072761975,-0.10801634,0.034328993,-0.030416531,0.052199338,0.028162088,-0.11210716,-0.13544677,-0.024663223,-0.069009915,-0.02640774,-0.06559,-0.048888233,-0.06616548,-0.1426033,0.056379903,-0.021519557,-0.043300726,-0.0120924385,0.054451432,0.01945324,0.038364217,0.015117142,0.03845766,-0.010612739,0.06920909,0.018698055,0.040167965,-0.059797615,-0.06550428,0.042115033,0.014941912,-0.07602938,-0.0079360325,-0.041459415,-0.0058608837,-0.018180296,0.041435856,-0.043815456,-0.0014913547,-0.011908228,-0.0024611573,0.062417507,0.046626065,0.038556766,-0.0675692,-0.014288778,0.043273136,0.0014207512,-0.042021483,-0.07052673,0.0021100023,-0.031825714,-0.02091145,-0.06393165,-0.016074114,0.039735816,-0.0006541287,-0.012561861,-0.052706998,0.083489545,0.055659324,0.014447122,-0.0050565675,0.0012322238,-0.113459885,-0.0767181,0.036955334,0.04141127,0.013907006,-0.019669876,-0.030785209,0.05358865,0.020711435,0.014854852,-0.055548485,0.0353158,0.05006785,-0.06414197,-0.005364191,0.020075746,0.03720753,-0.04414406,-0.0408401,0.007538034,-0.038456563,0.030894665,-0.0029571052,0.025068514,0.08219787,-0.04467609,-0.09880946,0.016202498,-0.067157954,0.018171951,-0.073051296,-0.03758311,-0.02052489,0.078124814,-0.036061943,-0.10895671,0.0226934,-0.066680044,-0.13381226,0.033220414,-0.111153744,0.038204383,0.017396156,0.08700509,-0.027001038,-0.023021128,0.023877751,-0.024997776,-0.08154724,0.01923606,-0.018836087,0.0089131035,0.053512055,-0.112672254,-0.04785202,-0.02528877,-0.011457339,0.020159397,0.04692405,0.026923006,0.02878879,-0.030507773,0.015503562,0.06729094,0.0762782,-0.061102506,-0.045431606,-0.09130601,0.052644722,0.05483466,0.027317917,0.055054102,-0.028409773,0.00075779425,0.038512625,0.059512123,-0.02854367
0.05716737,-0.058303814,0.020441512,0.0443806,0.08081684,0.073947795,-0.057943214,-0.00024382459,0.056998763,-0.0019269346,0.03947497,0.0066235084,0.01562664,0.052640352,-0.041260276,-0.043033224,-0.047485296,-0.017236965,-0.050395895,0.085974716,0.044067215,-0.0037595355,0.05725048,0.049237512,-0.0041482965,-0.08307173,-0.04312246,-0.09784025,-0.050563592,-0.08457252,-0.024079077,-0.0014325575,0.0019582696,0.042526107,-0.021840941,0.08439108,0.11554187,0.034300983,-0.00383399,0.008389834,0.07901504,0.011002882,-0.0333619,0.049162373,-0.06553241,-0.033035073,0.00476461,-0.05668701,-0.032381464,0.0773295,0.013560387,0.027393479,-0.05628111,0.0262837,0.008856696,0.034786846,-0.005155153,0.014407669,0.054263968,0.019829568,0.063403815,-0.048655514,-0.0929802,0.028633999,0.0675447,0.06637028,0.017782988,-0.056635525,0.044730734,0.005907629,0.049044225,0.046433154,0.0143740885,-0.03835148,-0.0041704867,0.01603528,-0.054964323,0.06462113,0.06565526,0.07999055,-0.008403815,0.030720888,-0.07645944,-0.030457648,-0.005703171,0.02516252,0.0027274864,0.024379108,0.011304628,0.059956007,-0.014142786,0.015064996,-0.015691172,0.061633565,0.002998596,-0.027263524,-0.057727076,-0.07814495,-0.030431045,-0.014041069,0.03092355,-0.038495153,0.006068965,-0.016263282,-0.005773514,0.053862404,-0.060063936,-0.02649337,-0.04071729,0.060233567,0.04461161,0.043275386,0.00888554,0.017928587,0.07486602,0.08869479,-0.0393269,0.031897604,0.075825974,-0.06130426,-0.05062387,0.0025975672,-0.07701504,-0.0024608795,0.09058452,0.023380945,0.04668467,-0.026542416,0.042947274,0.032013725,0.009292524,-0.000501267,0.020773409,0.030746883,0.064897746,0.043389857,0.017734481,-0.06689673,0.007916758,-0.0018087107,-0.023652429,-0.024809826,0.0658622,0.05634345,0.0791626,0.07751579,0.034535315,-0.015653595,0.07007628,-0.020212352,-0.005731633,0.027878538,0.08869883,0.061305936,0.05907485,0.027458321,-0.055769883,-0.00035663653,0.052244976,-0.011712719,-0.009456638,-0.021081103,-0.0050891996,-0.02889754,0.116949305,-0.008576793,0.05574844,-0.04167624,-0.064891934,0.034531478,0.03317331,0.080215655,0.056315362,0.002452373,0.01798067,0.009868167,0.03672972,0.036686134,-0.06737339,-0.056025937,-0.0488647,0.028025197,0.04683097,0.036594074,-0.012221378,0.038076844,0.19738364,0.08182731,-0.015675519,0.030290775,0.03591363,0.039153147,-0.10472111,-0.053229608,-0.091411754,-0.04597952,0.032305416,-0.028513256,0.018553099,-0.03436238,0.015560001,0.041935414,0.009273386,-0.056005064,0.07605241,0.005125194,-0.077888384,0.08161929,0.042782385,-0.053771105,-0.034220044,0.0960142,0.0130933765,0.023111127,-0.040729024,-0.056218326,0.0082036145,-0.03667769,-0.036485896,0.0028168561,-0.042404603,-0.04514825,-0.009414236,0.025391797,0.069801174,0.025845442,-0.047939047,0.06178124,-0.058406986,0.027120432,0.106440276,0.018241268,0.023519803,-0.034086347,-0.08108306,0.030563926,0.04853589,0.12785502,0.027020039,-0.01243699,-0.052401416,-0.014809642,-0.061630398,0.08069884,-0.031220002,-0.026815243,-0.0061964365,0.006829461,-0.028621713,0.03667182,-0.032238603,-0.024105022,-0.0431652,0.020849919,-0.06720946,-0.030930525
0.0740633,0.004252393,0.026396882,-0.020438442,0.013309398,0.06532911,0.01815782,-0.07549142,0.012794866,0.046626188,-0.026418692,-0.03239588,0.032589383,-0.030364528,-0.05669949,-0.038203493,-0.05508213,0.03533589,-0.028175779,-0.042425495,-0.031097757,0.09091207,-0.01807543,0.036640972,0.009671128,0.06389989,0.0715006,-0.039276347,-0.07793516,0.034278512,0.018847318,0.017451113,0.066892676,-0.046960775,0.014348105,0.051292244,0.015334335,0.079588704,0.057207733,0.073793076,0.01255241,-0.023864847,0.06140069,-0.06483421,0.027476724,0.051839624,0.0150668,0.04975322,0.07200384,0.06302292,0.041841432,0.03509789,-0.06454174,-0.0979643,0.104594566,0.051130954,0.084527075,0.020044496,-0.056246214,-0.019180436,0.024494678,0.086314335,0.01786254,-0.043317564,0.019868143,-0.026243478,0.03836143,0.04285509,-0.020952202,0.10374466,0.068503715,-0.03689386,0.033724494,-0.017310673,-0.009248525,0.058639288,0.021898737,0.052764487,0.006072646,0.05425908,0.07574863,0.06357272,0.042003464,0.04756381,-0.031348776,0.030233921,0.058006316,-0.005999911,-0.066295296,0.0452952,-0.040879786,0.046885267,0.07958355,-0.028831575,-0.047525488,-0.04557532,0.0508022,-0.07863786,-0.004876768,-0.0111065,-0.036060628,-0.030613435,-0.03556544,0.118232474,-0.01196038,-0.0038505055,-0.07595088,-0.060507298,0.014034004,-0.05233873,0.070645034,0.022554852,0.095752515,0.039022263,0.08972167,-0.041786373,-0.024915807,-0.002322763,0.030007934,0.0036384752,0.03393319,0.07118963,0.062015105,0.046349224,-0.013610998,0.018996356,-0.018098045,0.05272093,0.06578277,-0.018162604,-0.0060751736,0.07418976,-0.013278121,0.04395891,0.058563165,0.083302684,-0.048546042,-0.030717773,0.026820747,-0.05778688,0.023939481,-0.05755811,0.05265232,0.03212365,-0.03924577,-0.027833166,0.017001145,-0.034265853,0.007768759,0.03425069,-0.04354209,0.012176673,0.041671485,-0.020558085,-0.04852863,0.052806154,-0.009282251,0.032699436,0.04539261,0.035382576,0.06505334,0.06558223,-0.0074126427,0.054542217,-0.015659537,-0.009737925,0.055140626,-0.022086518,0.040483072,0.048853476,-0.11014609,-0.04897855,0.07180559,0.016470136,-0.04037954,-0.008602503,-0.03008678,0.012177808,0.030516615,0.050180603,-0.007813828,0.021981427,0.063517824,-0.025208239,0.118296325,0.069975466,0.0032998028,0.034931563,0.063525066,0.053840976,-0.052111253,0.060783308,-0.040708005,-0.01188012,0.01278994,-0.056157287,-0.052719466,0.055122346,-0.041348003,0.011774484,0.06995748,-0.036989395,0.0854321,0.011058197,-0.067794845,0.03948047,0.063056566,0.064533606,0.047544483,-0.029487366,-0.01870553,-0.021585409,-0.10197964,-0.041376356,0.034311827,0.16606498,0.066646285,0.0322074,-0.07213929,0.037272874,0.016648924,0.064617105,-0.02352665,0.026490012,-0.02277933,-0.070093274,-0.0064439587,0.0437013,-0.03368567,0.02260976,-0.099332504,-0.05650526,-0.03488582,-0.025647426,0.021033755,0.014508577,0.0056188246,-0.049765736,0.058835845,-0.10217535,-0.06901447,-0.003236429,-0.0022955127,0.001735231,-0.027161798,0.019163484,0.08919103,-0.040814888,0.025925197,0.042749453,0.059948795,0.07443675,0.013779481,0.01826763,-0.05353004,-0.0075231176
-0.065286145,0.022965753,0.020737145,-0.05446003,-0.037570987,-0.066070214,-0.08115049,0.0011266425,-0.04745837,-0.009529752,-0.02717846,-0.04143177,-0.011619242,-0.07940265,0.051413607,-0.022477852,0.040059023,0.074643,0.012956957,0.01840408,0.004591608,0.0038874657,0.042194143,0.052251544,0.004204013,0.08568025,0.020762317,0.046928316,0.06157833,0.0048277914,0.07700547,0.06508598,0.036502674,0.02553848,0.014648108,0.029665716,0.0111320615,-0.009470969,-0.020319464,0.057113625,0.015265577,0.08048057,-0.017275115,0.04000877,-0.03879541,0.0071740877,-0.026293004,-0.0014499371,0.062592186,0.007406918,-0.08597232,-0.045054927,0.07716354,-0.052759167,0.012308125,0.015526137,0.06217594,-0.03681135,0.0005897811,-0.045214117,0.038319115,0.0597863,0.025422968,0.074967176,0.06669238,0.046005514,0.07313949,0.00054913625,-0.025838295,-0.0642666,0.04034109,0.02344488,-0.023590935,0.038358744,0.112892345,-0.00012971899,0.08893367,0.07957454,-0.020604266,0.0419016,0.037635732,0.038774583,-0.015839728,-0.08647946,0.058189835,0.027612006,0.052659597,0.019463249,-0.04693077,0.06059885,0.03071511,0.005251231,-0.11467191,0.020166185,0.026215557,0.046484113,-0.030924045,0.01790967,-0.038397294,0.038451627,0.05746796,0.041114204,0.099756464,-0.088593945,0.026209535,-0.07427246,0.061615437,0.04414192,-0.046184342,-0.073450975,0.0047328547,-0.030972509,-0.04676704,-0.017298128,-0.00761437,-0.040922627,-0.042139698,-0.033855777,0.0098818,0.07383822,0.08125565,0.041030787,-0.004379757,0.03888814,0.058193963,0.025042392,-0.029673235,0.013052532,0.0070723873,-0.04567497,0.060000837,0.043172665,-0.04963966,-0.09578075,-0.023993516,0.039239515,0.046714842,0.06355734,-0.042828474,0.05291204,0.067751676,0.018080179,0.012034621,0.012259165,0.06394348,-0.0029228712,-0.05900262,0.048303213,-0.023669336,-0.050376415,0.03163416,0.04272517,-0.05699655,-0.039319444,-0.02525682,0.02091006,0.04671065,0.07663021,0.042780183,0.058756072,0.04290037,0.06269506,0.05327854,0.03259935,0.08001211,-0.016059108,-5.224049e-05,-0.036926843,0.07960954,-0.04681603,0.016598865,-0.020473799,-0.015285737,0.054654088,-0.023749398,0.0040786862,-0.0581115,0.049135108,-0.0028719718,-0.0052202106,0.009483873,-0.05241376,-0.061102916,0.012929632,-0.0023836175,-0.054708913,-0.057436083,-0.010388142,0.010469159,-0.009889192,0.0790376,-0.022386452,0.084256016,0.020976389,0.059383012,-0.0037166926,0.04206081,0.047597148,-0.008690525,0.018061688,0.083501324,0.09224614,-0.006904347,0.003184531,0.00947901,-0.054220855,0.09146911,-0.039679743,0.115919314,-0.026592629,0.00045109616,0.038370565,0.057279542,-0.048144236,0.06104822,0.011705154,0.06312329,0.01911695,-0.0258173,-0.06724125,0.048693627,0.106538095,-0.040259615,-0.0789918,0.008818933,-0.046603974,-0.039577354,0.045980524,-0.0012168995,0.044719994,0.020989863,0.002112807,0.039511696,0.03060008,-0.009208727,-0.0518825,0.022784116,-0.02165278,-0.025549488,0.0036471416,0.060997956,-0.11130855,0.042013228,-0.024922552,0.04317052,0.10128643,-0.035200812,0.014465538,0.019047614,-0.0153830405,-0.05025873,0.045233585,-0.019304795,-0.05119827,0.08268116,-0.054050542
0.03291082,-0.055883616,0.019410778,-0.024545921,0.081205584,-0.04842751,0.018995542,0.07207919,0.0018450808,-0.016428623,0.06373917,0.0024294364,0.023501452,0.07253664,0.025212422,-0.008196407,-0.01011544,-0.009360415,-0.04500646,-0.06273667,-0.02851047,0.031855606,0.033468354,0.034962744,-0.037442308,0.077530146,-0.007021062,0.11268384,-0.0033163712,-0.034538165,0.014098933,-0.031916022,0.074827254,-0.035563603,0.03472895,0.0686945,-0.008677894,0.07045308,0.090078846,0.040228017,0.027195666,-0.1055067,0.092618,0.0015755412,0.08943608,-0.020073857,0.034004897,0.009151339,-0.018428855,0.032543503,0.10556772,0.062374335,-0.03673202,-0.025527744,0.12508194,-0.016767114,0.07711309,0.073215395,0.014503484,0.042894714,-0.011171571,0.027514292,0.03799334,-0.07062434,-0.071550794,0.0042837313,-0.019118674,0.014543154,-0.0519289,0.07731902,0.012131689,0.07115402,-0.015180991,0.026071465,0.008300715,-0.035485554,-0.0071416814,-0.029452529,-0.04281707,-0.02630035,-0.03198831,0.03607281,0.10702576,0.12073084,0.037558228,0.072921276,-0.00035174526,0.0413434,0.061408605,0.066188075,-0.14109029,-0.08702653,0.072303526,0.028818062,-0.030481352,0.008847451,0.044648904,0.019567175,-0.03307892,-0.013651323,-0.04867096,0.078542694,-0.045517664,0.062772624,0.035032146,-0.048711803,-0.059063908,0.07741747,0.014404521,0.0026296559,0.022961663,0.058522575,-0.014828905,0.038571745,-0.014255266,-0.039297372,0.077132076,0.074430674,-0.027912116,0.05719883,-0.098568365,0.011541798,-0.08168565,-0.005835929,-0.043767486,0.0020559884,-0.03603736,-0.0076602367,-0.000111130044,0.06851691,0.015282188,0.05516286,0.08442195,0.019976906,-0.043268137,0.09640596,0.019023085,-0.01438534,0.025970737,-0.055466775,-0.07378197,-0.033461906,0.06361825,-0.0002425455,-0.025029404,0.031808205,0.040879715,0.06070773,-0.07417112,0.047367614,0.03980174,-0.055977926,0.072096564,-0.0750694,-0.036555752,-0.02730133,-0.005669329,0.0018811284,-0.018906552,-0.025857791,0.032695033,0.066113435,0.018280039,-0.031625904,-0.12073622,0.04796735,-0.0037461852,0.02079489,0.049050212,0.032101303,-0.073932394,-0.044636417,-0.009317487,-0.0660271,0.017612416,-0.012856139,-0.0583336,0.025034852,-0.010766783,-0.06076393,-0.02317793,0.035744872,-0.025918528,0.032986328,-0.032063756,0.0061305985,-0.113659956,-0.0070147645,0.07173449,-0.022646429,-0.06517137,0.040096115,0.08403467,-0.02601437,-0.03767547,-0.0078303525,-0.027645456,-0.10441343,-0.052605756,0.08207201,-0.003761212,-0.07338845,-0.03571526,0.04044807,-0.0748937,0.113925785,0.036407504,0.010645357,-0.034024738,-0.04644856,-0.07811469,-0.021698013,-0.029205015,-0.05879354,-0.07900506,-0.018449744,-0.0059423046,0.07832006,-0.07293356,0.036630828,-0.012725908,-0.023930116,-0.06978458,0.09848258,0.050454583,0.013649238,0.09569026,-0.00053828966,0.06713069,0.058938533,-0.064902395,-0.038279165,0.05435001,-0.030285338,0.026537225,-0.08636665,0.0848944,-0.035523474,0.0019004891,0.026572527,-0.04789706,0.048863124,-0.09152274,-0.0016174904,0.027133416,-0.08711957,0.031875826,-0.045928583,0.07929608,0.006698196,0.07773192,0.06634666,0.04350012,-0.008818484,0.004951881,-0.025602827
-0.04036488,-0.046994552,0.023386661,-0.09276106,-0.044197403,0.029347796,0.027793715,-0.014594807,0.05023828,0.043505866,-0.015960604,0.031309802,-0.029555684,-0.013391238,0.066381104,0.0104749715,-0.114340596,0.029900335,0.06843783,0.057927992,-0.049647395,-0.05724958,0.014361728,-0.0543363,-0.021323506,-0.014888196,-0.02583473,-0.050357334,0.024237242,0.07037434,-0.069920555,0.020336578,-0.0051615788,0.037822098,-0.012370218,-0.01672674,-0.1034624,0.00595511,0.02370857,0.025002705,-0.04842332,-0.0027585851,0.061038565,0.036164336,0.05033299,0.025137074,-0.0010629398,-0.08185225,0.002268734,-0.054920297,-0.032264277,-0.10364097,0.021829173,0.037415482,0.033609357,0.049143806,0.078691676,0.088411085,-0.021570988,0.019320885,-0.030569324,0.04304402,0.092447944,0.00657396,-0.088795505,-0.041309234,-0.04251201,0.035330523,-0.023746626,0.063031666,-0.009299985,0.029558701,0.03215582,-0.021591939,-0.013402164,0.020487187,0.003351375,-0.027004972,0.019250538,-0.021490328,-0.03437419,-0.021383228,-0.06415699,-0.09011472,0.050912544,0.015400568,0.07679004,-0.013929301,-0.017415017,-0.017408604,0.017076386,0.08528872,-0.07794307,-0.0076807747,0.01451039,-0.056801166,-0.043084875,-0.1165578,-0.05614785,0.05520474,0.071465746,0.06981411,-0.073399775,-0.10439646,0.058532566,0.031461366,-0.02221232,-0.00090363267,0.039631397,0.04945434,-0.0063394587,-0.055269167,0.027493957,-0.025814623,0.078314856,-0.07577089,-0.026960056,-0.11508213,-0.09517941,-0.02478457,0.06643609,-0.015464972,-0.008539889,-0.049923234,0.047060777,0.03467384,-0.011323866,-0.03624754,-0.0028495488,-0.02502741,0.0043564234,0.019933838,-0.0544977,-0.027953265,0.060942702,0.037437607,-0.018195806,0.0035551519,0.005032165,-0.0731908,0.017347593,0.00635256,-0.01168435,0.0019186174,-0.049201746,-0.06739179,0.037895896,0.03175909,-0.012103918,0.0176444,-0.09415518,-0.012534339,-0.06383356,-0.024090955,0.05054338,0.0039701033,-0.02543009,0.024299715,0.040548153,-0.03338745,-0.01449658,0.0520339,0.07634141,-0.038929805,0.0010969965,-0.05430782,-0.03486961,-0.007840131,0.00874391,0.016483923,-0.04760461,-0.03723114,-0.048011426,-0.011814956,-0.040502664,0.063395225,0.05594333,-0.029594906,0.022854088,-0.057017703,-0.022727717,-0.04328401,-0.0025033664,0.019445281,0.067158826,-0.05175692,0.01156243,0.043553088,-0.007819006,0.016805392,-0.013862485,-0.041503277,0.043946695,-0.07665668,0.03332777,-0.010888316,-0.027762836,0.0455449,0.07673222,-0.022284327,-0.08281137,0.034835644,0.03775185,0.01083632,-0.001671193,0.105958804,0.012187109,-0.08556321,-0.06357383,-0.05475832,-0.0016877387,0.07519687,0.03608736,0.020765739,-0.033260845,0.100161105,-0.009511542,0.0247035,0.012777753,0.0052944454,-0.07524993,-0.039117876,-0.048614606,0.024547046,-0.0038836563,0.046632905,-0.051272158,0.022512434,0.011972323,0.020016178,0.024218218,0.035426587,-0.0029691143,0.06728953,0.048056774,0.04318973,-0.05796385,-0.04505806,-0.0034814856,-0.0050201514,0.017515786,0.06712796,0.008596951,0.028802767,-0.0049576033,0.041480422,-0.005067699,-0.03190669,-0.09377163,0.016811805,0.05388486,0.01873884,-0.03111184,-0.040231515,0.0159453,0.040794685
0.046348043,-0.00745707,0.012542344,-0.035882153,-0.0277473,0.004530392,-0.035750266,-0.006664361,-0.009975624,-0.005302757,-0.024469664,-0.00288056,0.059076652,0.011169192,0.031065658,-0.060109425,-0.026535418,-0.002891666,0.0015074621,0.037891496,-0.043310568,0.02288131,-0.038739078,-0.043604843,0.01750861,-0.013288561,0.026190082,-0.054637,-0.023392458,-0.061453372,-0.024258105,0.011372215,0.0305064,-0.038025737,-0.014061462,0.022112904,-0.04947068,-0.0150498,-0.01834447,-0.060675856,-0.012923396,-0.028241603,0.024034971,-0.0066598696,0.02458104,0.033340234,0.011935287,-0.06270635,0.0416664,0.025389139,0.036584705,0.0074165207,-0.062073328,-0.009138927,-0.0144144725,0.00345245,0.0065790387,-0.046947364,0.005463037,0.04123677,-0.011483687,-0.079883285,0.005076208,0.0027844585,0.041121636,-0.04004143,0.016620196,0.016448805,-0.03714106,0.04489131,-0.00055586494,0.04656552,-0.044499677,-0.04170374,-0.06992221,-0.061337862,0.05025814,0.04648257,-0.015196091,-0.037879255,-0.038609557,-0.009635369,0.055947717,0.047182452,-0.05601483,-0.0016370624,0.017197834,0.02165511,-0.012155633,0.00019433486,-0.026548998,-0.06617292,0.058062397,0.03636756,-0.05542272,0.032592144,0.0013380927,-0.00043323106,-0.057917036,-0.05857768,-0.011019312,0.0073412326,-0.0025676421,-0.016782057,0.038387414,0.040127393,-0.0631884,0.04695934,-0.014196446,-0.00934548,-0.01945366,0.025756735,-0.053537395,-0.031269062,0.041671034,-0.032670718,0.026664138,-0.037613183,0.045614135,-0.053845845,0.0060084104,-0.059412457,-0.007122461,0.026885226,-0.033386122,0.0112478435,0.0012715758,-0.059107207,0.027474537,0.040718727,0.014402202,-0.07769272,-0.04893786,-0.028634118,0.023983646,0.025238864,-0.012953989,0.03319399,0.04508345,0.0023575958,-0.056779303,0.010750936,-0.061025206,-0.03718329,-0.048757587,-0.05582869,0.028662134,-0.011356459,-0.0571152,0.019273734,-0.014672343,0.037437186,0.006941551,0.04591873,0.053076193,-0.070796065,-0.040264,-0.06276482,0.000896481,-0.035858564,-0.019068237,0.015123497,0.013941619,-0.0356368,-0.032106794,0.056533583,-0.053412963,0.026477352,0.040595658,-0.023973202,-0.03629058,0.014411754,-0.035136234,-0.01142049,-0.01676654,0.015818492,0.006420672,-0.029830242,0.018718679,-0.049123045,0.031333905,-0.021886626,0.016495364,0.059500184,-0.05823373,-0.0070892293,0.028000932,-0.051333744,-0.03059045,-0.052007783,0.041539304,0.04577858,-0.0017545627,0.004966533,-0.011535657,-0.05338572,0.020206854,-0.028360907,-0.064099126,-0.029183112,-0.055392746,-0.01566772,-0.055182707,0.043533113,0.0053329817,-0.05434419,0.04940213,-0.053441294,-0.0007597804,-0.028422354,0.050143443,0.016368138,0.049107935,-0.06660186,0.050204,-0.048224192,-0.06649734,-0.001608697,0.027358389,0.0175695,0.05048796,-0.03552798,0.017809974,0.00089597906,0.0002930052,0.017636891,-0.025419941,-0.07792026,-0.057030246,-0.02528414,0.023243625,0.0057482244,0.062274534,-0.0064659617,-0.014484721,0.033299826,-0.028769637,0.013511237,-0.0020110598,-0.01729462,-0.040490054,-0.059397094,-0.0004032189,-0.0037693148,-0.028043302,-0.0003971108,-0.0183087,-0.011939848,0.0077347886,-0.06174887,0.010237648,0.028062358,0.019078882,0.019182373,-0.015070119,-0.033996772
0.012988379,-0.08093359,-0.10498031,-0.04124672,-0.031033318,0.096073784,0.093493685,-0.042453963,0.03183612,0.06497486,-0.066455096,-0.07815805,-0.0031454717,0.064237036,0.042054337,-0.026153019,-0.017032655,0.060929902,0.040683,-0.016204553,-0.004083703,0.05107486,0.004799309,0.033449728,-0.007272722,0.0069191596,-0.08301662,-0.04250032,-0.013281985,0.009720597,-0.013186581,0.002355106,0.10086886,-0.009791669,-0.0126355,0.055338535,0.014146309,0.036629666,-0.07158576,-0.07073628,-0.017964851,0.09455487,0.023745477,-0.043088585,-0.011436471,-0.048458487,0.06644697,-0.09493318,0.057380125,-0.058662504,0.024902692,-0.015619473,0.031192312,-0.0748845,-0.11966177,-0.016949708,0.037747342,-0.07165594,0.01439366,-0.027950613,0.052891757,0.058115013,0.031845357,0.039686512,-0.032237794,-0.01211567,0.105443686,0.07484077,-0.04520675,-0.06721364,0.058011416,-0.116144225,0.04042367,0.048011072,0.053920668,0.028819887,-0.086959295,0.046999022,-0.00518968,0.050887108,0.029909857,0.058188234,-0.049183328,-0.077174775,0.10427909,-0.04813912,0.019933423,0.05157966,-0.04941121,0.059653513,-0.0520076,0.00934784,-0.06750163,0.011311804,-0.049289797,0.009219285,-0.062706456,-0.082303226,0.06334009,0.009094879,-0.019198122,0.040037785,0.053468183,-0.04513438,-0.049587224,-0.101854086,0.015879229,0.02224103,0.012244385,0.057491552,0.00031648352,0.030570777,0.07523635,-0.0030145166,-0.06508734,-0.015810115,0.054818865,-0.016115505,0.075481325,-0.06722517,0.100019425,0.067642495,0.008235352,0.04802431,0.018983487,0.0022609204,0.03143137,-0.013580645,-0.02487846,0.019195164,0.07614057,-0.041166246,0.017057868,-0.08311672,-0.0168328,-0.065237656,-0.0067269136,0.0011877724,0.0017462894,-0.059520848,-0.058292314,-0.013005982,0.044230346,0.027749954,0.015621116,-0.07225762,-0.030787155,0.023011629,0.00035664206,-0.03180121,-0.051159747,-0.06513596,-0.0021069206,0.0077481945,0.020458259,0.013392685,-0.0015319681,0.043708522,0.0097315665,0.11161604,0.038500376,0.08754234,0.012051152,0.067641616,0.021157134,0.01857702,0.01898398,0.053360377,-0.038202547,-0.069670305,0.043649256,0.032855116,-0.01527475,-0.04724917,-0.026358629,0.03093677,0.0073740194,0.088517174,0.0030073372,-0.045700844,0.027107244,-0.005217327,-0.049006708,-0.009085511,0.08288813,-0.04233518,0.010982998,0.030443009,-0.03479137,-0.04665972,-0.059374657,0.07355897,0.013194598,-0.07885114,0.043325547,-0.031866264,0.055148754,-0.043210655,-0.0032437877,-0.057679866,0.06393093,0.06342617,-0.025088115,-0.016263358,-0.048962954,0.022119582,-0.012184975,-0.048222445,0.049566083,0.038030114,0.019318407,-0.0048823287,-0.08343482,-0.08633955,0.01645813,0.03694469,-0.013572716,0.06411462,-0.055336565,0.011562711,0.027244156,-0.022549948,0.018837113,0.050908074,-0.010528035,0.06904695,0.02395457,0.050645724,-0.016936129,0.047704995,-0.06599283,0.057715625,-0.029803563,-0.027302565,-0.043771755,0.04534063,0.039226692,-0.081857175,0.049093924,-0.06865935,-0.013858045,-0.10535138,0.031356864,-0.06688761,0.04733902,-0.055744886,0.09123446,0.012372806,0.023801737,0.034700997,0.033399172,0.050288342,0.036172092,0.09079171,0.055977814,-0.048033047
0.045931377,0.060971007,0.019760478,0.010754287,0.07391193,0.078471504,-0.012918168,0.08501563,-0.045738015,0.03853516,-0.013358075,0.008284537,0.053654727,0.058617458,0.011044172,-0.01568226,-0.040217772,-0.041760683,4.077863e-05,0.015422144,0.0259565,-0.08328427,0.042631943,0.044245034,-0.008548035,0.09353683,0.05028264,-0.00022180029,-0.018867834,0.012164188,0.06893889,0.071442135,-0.02569291,0.04863603,0.018073274,0.035069413,0.08903312,0.05891849,0.053636402,-0.05740142,-0.030856125,-0.07011096,0.005258956,-0.04826751,0.046014823,-0.015292238,-0.016601969,-0.094198324,-0.042222433,-0.07927852,0.07378726,0.05832285,0.06924009,0.08708973,-0.074111745,-0.053086746,0.053755865,0.018964356,-0.011461001,-0.005341706,-0.012040688,-0.0053780964,0.12431655,0.052329447,0.07977912,-0.03250087,-0.007870904,-0.0053296858,-0.025488555,0.13662837,-0.032067727,0.026077924,0.0612086,-0.045118228,-0.033226617,0.02543325,0.014264817,0.0012930158,-0.05974942,0.041875515,0.05093456,-0.005371792,-0.08122181,-0.024858098,-0.05649034,0.058720082,-0.053707555,-0.039017495,-0.00040594657,-0.015915602,0.0054663145,-0.013555283,-0.020295732,0.09093176,0.07129275,-0.033896707,-0.014421297,-0.026212154,-0.01750032,0.01637985,-0.025348216,0.039407104,-0.068508685,0.022309374,-0.06651253,0.081381865,-0.09020443,0.07457537,0.038896106,0.052782156,0.049325567,0.029868707,0.014153108,-0.06486011,0.014202022,-0.019613424,-0.015825152,0.10098039,-0.07989922,-0.0038975547,-0.018181646,-0.0011524823,-0.034863196,0.02214991,-0.002644749,-0.009240883,0.007952385,-0.02217449,0.051753093,0.03911101,-0.017090177,-0.030714395,-0.016623888,0.14890116,-0.0103269955,0.06130823,-0.00096649234,-0.01942373,-0.061847556,0.042922642,0.06794386,-0.03290401,0.015616903,-0.032784827,0.08218146,0.005502792,0.0040452136,0.019821828,0.036726486,-0.011360306,-0.0396915,-0.07569035,0.042999074,-0.013823211,-0.012637063,0.065098986,-0.055737123,-0.048568014,0.055497903,-0.07186986,0.015206608,-0.03189536,-0.021571334,0.029110918,0.17378357,0.050992332,0.06329183,-0.029675277,0.09321004,-0.061479278,-0.07405015,-0.009136693,0.023241647,-0.017445354,-0.013464819,0.023850558,-0.031127447,-0.056745507,-0.037412096,-0.029355368,0.025550557,0.11365409,0.09165992,-0.077711895,0.104161926,0.043066364,0.015322685,-0.05197351,-0.08503382,0.05149249,0.025107747,0.09320425,0.03587494,0.0039007633,0.013646982,-0.02414408,0.053347144,-0.08049272,-0.07236672,0.06659973,0.04296535,-0.042014666,0.08253171,-0.02424709,-0.07446242,-0.003901163,-0.05035494,0.069797546,-0.022159422,0.043190543,0.036897283,0.046402473,-0.06324217,0.13976215,0.0433631,0.019077484,-0.0034186256,0.06417844,-0.03006923,0.03179518,0.0055817515,0.026388194,-0.0036761856,0.026248872,0.045725834,0.007700358,0.023151254,0.02968671,-0.008156007,0.08107502,0.06952555,0.004942847,0.05827449,-0.03965457,0.038597513,0.06533319,-0.03564593,0.08365876,-0.010370236,0.03907975,0.042056013,0.09837832,-0.023014873,0.009269821,0.0031899877,0.021563401,0.058181163,0.056941956,-0.026132267,-0.0047309385,0.0102546,-0.033150036,-0.025773883,-0.023710191,0.023007583,0.09274855
0.026108658,0.04916899,-0.19986755,0.0070972447,-0.02139319,0.08670713,0.05815853,0.07671268,-0.12192007,-0.042060785,-0.04126604,-0.005096048,0.07154877,-0.029045597,0.065559566,-0.031742103,0.03004293,-0.061302394,0.07052529,0.059137736,0.055682078,-0.032707203,0.022842206,-0.024322186,-0.046600744,-0.052254185,0.019831626,0.035521973,-0.017602183,-0.015372028,0.07298454,0.05938176,0.05539861,-0.061813306,-0.017317817,-0.08073869,-0.06910939,-0.002218766,0.042743694,-0.064182535,0.0042073526,0.09932984,-0.04468821,-0.03718009,0.057462983,-0.022798475,0.068907715,0.069412306,0.044490505,-0.08551322,-0.09126071,0.023662541,-0.036680277,0.0006558291,-0.026054284,-0.042781617,0.011041276,0.00908151,-0.06183009,0.004849448,0.01199601,-0.05835254,-0.061412096,0.05933516,0.008473847,0.06440692,0.057660773,-0.0039551533,-0.071773514,-0.072069265,-0.005887627,0.0081038885,0.045861214,-0.037478868,0.065431766,0.03086196,-0.0530997,0.06515234,0.105166696,-0.05233463,0.07169401,-0.02152594,0.043208092,-0.04391878,0.098265864,0.06109672,-0.04053165,-0.01792421,0.029343918,-0.0519202,0.07223344,-0.01572759,-0.03316189,-0.06333806,0.051773045,0.037911702,-0.06142096,-0.0543463,-0.03221145,0.0394245,-0.056960646,0.06737835,0.012461025,0.007010236,-0.04518055,0.022649227,0.0053981524,-0.0260355,0.07658595,-0.023435604,-0.020329148,-0.044625472,-0.03791182,0.09365919,-0.0055231834,-0.03968842,0.070493795,-0.14077184,0.03137176,0.009720299,0.064220764,-0.037046175,-0.059905972,0.0363809,-0.085158296,-0.15283772,0.0066266237,0.068939,0.036749758,0.050795414,0.070326276,-0.014436639,0.01770904,0.015973195,-0.041233927,-0.10756056,-0.049184922,0.01899288,0.044877842,-0.015913337,0.08817442,-0.008332329,-0.08150819,-0.004291619,0.00018179658,0.040941995,-0.049330752,-0.058642656,0.02798815,-0.00044164955,0.042330083,0.03511998,-0.032902125,0.07990986,-0.017425222,-0.00031534943,-0.05973593,0.007686224,0.00010169441,0.16693752,0.03768917,-0.037360102,0.07401653,-0.012729617,-0.062256247,0.032525893,0.0048258808,-0.0020092963,0.030451365,-0.00078317476,0.016087262,0.0074573574,-0.041284904,0.079006754,0.056395907,0.057389136,0.05275463,0.074864164,-0.07120075,0.024377393,-0.05512834,-0.04049149,-0.059246488,0.018505571,-0.089114875,0.06716936,-0.037784416,-0.0073357453,0.07916923,-0.05436001,-0.004641942,-0.0038590063,-0.037945643,0.028376391,-0.0043488517,-0.016890466,0.045833457,0.08227828,0.009238127,0.009383176,-0.05418016,-0.059747633,-0.04180162,0.0037860323,0.08367042,-0.10402764,0.012986606,-0.067596346,-0.032759152,0.114750415,-0.008716418,-0.01779781,0.082112655,0.066138424,0.025968673,-0.05412156,0.08573401,-0.037392803,0.06806158,-0.044434905,-0.025409704,0.026394991,0.0997694,0.04611576,0.031620372,0.079215094,0.052554566,-0.01340419,0.0673435,0.0521493,0.029553793,-0.024745654,0.05795482,-0.010080815,0.0048701717,-0.026392348,-0.046525132,-0.009043627,0.03267247,-0.051763132,0.014391823,-0.120197795,0.16582026,0.0042100223,0.028361278,0.05746593,0.012985412,0.034349363,-0.024900384,0.10789071,0.03204333,-0.007260215,-0.059453517,0.056196336,-0.014423428,0.055287078
-0.036671646,-0.020567006,0.030113665,0.05374412,0.042399574,0.0003878157,-0.045060657,0.035053506,-0.049493164,0.06732087,-0.04673587,0.06558783,-0.01267612,0.072188854,0.06453599,0.028604982,0.041201655,0.024123121,0.079812475,0.01757471,0.012826517,0.054167822,0.051363654,0.05540466,-0.039709177,0.044078577,-0.013987689,-0.022187656,0.0056379368,-0.012169053,0.0061257374,-0.066786975,-0.0060294736,0.099859305,0.009437896,0.02007314,-0.050519437,-0.0006375525,0.05112635,0.09069634,0.031340856,0.04897423,0.10335285,0.037602328,0.013519425,0.019399004,0.03783113,0.022999441,-0.06605223,0.04511634,0.029241815,0.03562831,-0.022330672,0.08900244,0.061603524,0.0026700182,-0.010228398,0.0053889207,-0.029396499,0.03632377,-0.03329064,-0.046153247,0.050058555,0.023787592,0.026605487,-0.01947215,-0.0039442293,0.04884561,0.07713769,0.009170847,0.05926131,-0.004492751,-0.0100405505,-0.04602702,-0.06789499,0.03618346,-0.09087082,-0.045300957,0.052933205,-0.06406242,0.010373988,0.045271717,0.0013001602,0.0034938566,-0.07188984,0.06213064,0.076862514,-0.08406223,0.118331455,0.053980634,0.051551502,0.0114920065,0.14276543,0.058439717,0.039813604,0.08728645,0.052784447,0.06100236,0.037626944,0.06188692,-0.023903143,-0.02551694,0.077888384,-0.045701794,-0.037026703,-0.03600629,-0.10111131,0.013521061,0.08333798,0.080006056,-0.058521666,-0.026967434,0.07506887,-0.0043384074,-0.050685216,0.056633208,0.012819082,0.035548683,0.0194093,0.07770228,-0.100781165,-0.00719797,0.06975221,-0.018669525,-0.06282522,-0.07860572,0.0581173,-0.04474806,-0.011857706,0.023847884,0.027668081,0.049885094,0.10866591,-0.023868205,0.042707264,-0.0701909,0.021915501,-0.008098053,0.03475552,0.06449123,0.04614787,0.03622827,0.053766962,-0.05319992,-0.0736074,-0.014625579,-0.055364087,0.03177106,-0.055793542,-0.058134336,0.05260098,0.085944116,0.0015064316,-0.028728958,0.010443827,0.067250535,0.015984036,-0.018121075,0.038907856,-0.056434147,-0.049288,0.019613788,0.042157307,0.05153843,-0.06580917,-0.05834735,-0.010362456,-0.027799865,-0.010228578,0.04956813,-0.039658375,0.07909057,0.04544386,0.059736975,-0.02661327,0.07132275,-0.038787473,0.08849914,-0.091401815,-0.059148233,0.059078008,-0.056907367,-0.02564312,-0.013211711,-0.03971779,-0.09406777,-0.050775334,-0.049313582,0.0034303851,-0.052119598,-0.018175215,-0.010320576,-0.015469209,0.038123086,0.019199988,-0.010254165,-0.007854614,-0.05846887,0.040533338,0.05883428,0.065898485,0.03242208,-0.025477704,-0.05916852,-0.03962786,0.07810209,0.080757804,0.06985078,-0.028023206,-0.047975577,-0.09071493,-0.016290503,-0.0049609183,-0.060733285,-0.04722222,-0.06296898,0.039129745,-0.029805,0.054618973,0.03787894,0.033654522,0.03256926,-0.112564,0.04224349,0.032980174,-0.0115642585,0.039370526,-0.054986462,0.04166672,0.018565463,0.085244074,0.034699716,-0.06634563,-0.004314678,-0.0075445366,0.012125589,0.06594496,0.07332135,0.0036189314,-0.042474683,-0.0533467,0.0013251822,-0.018966204,0.12197109,-0.059857428,-0.10304972,-0.06375382,-0.052259967,-0.0066096033,0.025460104,-0.0058700377,0.026482446,0.07097399,0.07846005,-0.008914546,0.05901421
-0.031946607,-0.054970726,-0.005749757,-0.003509307,-0.050927825,0.012405527,-0.009885634,0.04949247,0.027998134,0.053038407,0.0441057,-0.060130317,-0.019243693,-0.030439388,0.08002844,0.023990124,0.08569991,0.033834863,-0.0439963,0.03237788,-0.04331432,-0.040326066,-0.03681783,-0.01821988,0.0012515835,-0.08719325,-0.034375068,-0.082356565,-0.04963299,-0.04628723,-0.03897493,-0.057340797,-0.029251887,-0.0981949,-0.0028144696,-0.025823923,-0.010364338,0.015018385,0.08143022,-0.033984173,-0.00017215851,0.062480893,-0.015663655,0.053230513,0.0147388475,-0.021308893,-0.056268185,0.04537562,0.028528728,0.026092116,0.025788859,-0.064846285,0.03417458,0.003208213,-0.087615006,0.002040251,0.10479243,-0.017021928,0.022819743,0.0119481785,0.0033970748,-0.053676173,-0.092042,0.05838437,0.030029602,-0.01543699,0.0821912,0.03695114,-0.058506545,-0.02672451,-0.04734204,-0.030810677,0.07646501,0.028220443,-0.044684544,-0.023761908,-0.009129026,0.064547144,-0.03028027,-0.0395261,-0.035505738,0.013614316,-0.10178811,-0.004587888,0.09113438,0.025876567,-0.042621244,-0.05964605,-0.042010095,-0.05193304,0.06519744,-0.035452656,-0.085677914,0.02799774,0.017569225,-0.028015967,0.026629858,0.032403883,-0.012861305,0.028158203,-0.050226353,0.07952484,-0.0452056,0.0033589255,-0.04155624,-0.04243693,0.09669374,0.048127633,0.03192081,0.020286942,0.026151042,0.06484917,0.01448367,0.05667468,-0.057294145,0.04944224,0.028359,-0.0679601,-0.07592723,0.07128627,-0.0025908293,0.06621589,0.015413474,0.054722127,-0.006569163,-0.06302845,0.04966249,0.07832781,-0.045672946,0.05311334,0.019865938,-0.0023674634,-0.015060004,0.002384779,-0.07572969,0.03336019,-0.02929804,0.037558742,-0.025270501,-0.10638614,-0.001430634,0.00869426,-0.05003306,0.05851866,0.033481967,0.0129444925,0.07502669,0.03348047,-0.06466667,0.03473078,-0.031200554,-0.060741134,0.010364851,0.10093893,0.077624016,0.0591284,0.0044145584,0.04309275,-0.009043778,0.06989271,0.07842101,0.0031079035,-0.023555875,-0.022503516,-0.013477201,-0.00978758,0.053755783,0.034174286,-0.046873137,0.007067023,0.08355918,-0.032966368,-0.0006445589,0.0881665,0.015129822,-0.020602869,-0.023624888,0.06948273,-0.024572035,-0.050798096,-0.046754222,0.048845794,-0.08009568,-0.013742005,0.010234575,-0.019147301,-2.6519416e-05,0.06796662,-0.006330435,-0.026908277,-0.017539036,0.0471825,0.057958502,-0.016927276,-0.0407638,0.06682103,0.08899939,-0.0007199228,-0.013247478,0.0090321405,0.020115,-0.047483172,0.07776431,0.043798,0.12635382,-0.08480441,-0.11035923,-0.074443,0.03993632,-0.026018491,-0.021014534,-0.0058423826,-0.010374949,0.010553992,0.051851597,-0.070521355,-0.0021321683,-0.11938345,0.06149314,-0.002708452,0.078465454,-0.029945245,0.07597394,0.026221488,-0.02712351,0.07357369,0.045999113,-0.034059133,-0.009373425,-0.009183434,0.017383771,-0.0065094675,0.049119435,-0.04585983,0.02774597,-0.072381005,0.06303121,-0.09733723,0.020541131,-0.016482456,0.10294562,-0.007228664,0.048442956,0.013325707,0.079113014,-0.020181661,0.014915726,0.014120265,0.0015806068,-0.010712416,-0.025609653,0.055701222,-0.03888409,-0.001994834,0.083666936,-0.037636153
