0.039216362,0.06556013,0.044069353,0.059359837,0.01988556,0.049226183,-0.16201755,-0.11297948,-0.0632579,-0.09954509,-0.0012817832,-0.12340953,0.08504811,0.07051214,-0.0068103326,0.013951341,0.01031742,0.025496503,0.13943882,0.015446351,-0.030019665,-0.10891687,-0.026033346,0.04644904,0.02197261,-0.01569219,-0.05549967,0.14809304,0.01252592,0.04571802,0.07158057,0.19451633,0.061727908,0.07913209,-0.012368774,0.110292174,0.0020740537,0.017487649,0.062324964,-0.09246745,0.05844439,0.021844124,0.128672,0.14484069,0.19336459,0.061569337,-0.10730275,0.2148173,0.03232378,0.1356743,0.0146698365,0.04760891,0.0853399,0.0056698252,0.066617034,0.09912035,0.01060393,-0.046731494,0.025221795,0.050818156,0.029267779,0.018093022,0.031911023,0.07214096,0.04060978,0.13687055,0.10868408,0.06755172,-0.0631244,-0.012408053,-0.008043637,-0.023783349,0.07947062,-0.083129734,0.013826909,0.08346248,-0.05152178,-0.03920881,0.08620012,0.107196294,0.09493173,0.12151429,-0.011693898,0.033400398,0.120758876,0.035414927,0.09325373,0.05078661,-0.033348456,0.0337225,-0.06034019,0.03346068,0.06769987,0.08630868,0.079089835,-0.029894618,-0.0077188923,0.11276507,-0.064533934,-0.004143413,0.023389662,0.12794797,0.049567707,-0.02449257,-0.018962948,0.0578155,0.11100701,0.031308055,0.007475237,0.029801708,-0.05667035,0.046058092,-0.038347792,0.10776137,0.057683118,0.036691185,-0.0046740845,0.05064391,0.050945494,-0.023266934,0.0772586,-0.06039873,0.16106597,0.18243314,0.015102998,0.004572998,0.15339161,0.17734571
