-0.013579672,-0.050501518,0.06132018,0.05906389,-0.041148156,-0.05004322,0.03697292,-0.02191661,0.072000936,-0.084602706,-0.01733372,0.02504132,-0.061991554,-0.05556089,-0.0075003137,0.070406966,-0.07760131,-0.096925385,-0.09406715,0.07220974,-0.038272105,-0.050168168,-0.0035221418,0.015564172,-0.009846458,0.07562811,0.054000206,-0.0074341907,0.0057555665,-0.06630859,0.04782747,-0.07400553,-0.025472628,-0.075612925,-0.018005982,-0.07720305,-0.03722671,-0.04559798,-0.07384053,0.024124255,-0.056952026,-0.049743365,0.078209825,0.06495298,0.0746982,-0.059520487,0.049921613,0.030570742,0.08412205,0.013675308,-0.030790431,-0.04953929,-0.01936621,-0.003144485,-0.046052445,0.018018702,0.038043335,0.077311024,0.03875808,0.060942926,-0.05816296,0.02044374,0.06542937,0.0529231,-0.03580887,-0.083872385,-0.024366003,0.028147904,-0.058637287,-0.045427643,0.03686159,0.025637494,-0.0065612346,-0.08438978,-0.026410336,0.050048392,0.0012053928,0.039316818,0.040627405,0.03640359,0.052136235,-0.09423001,-0.047215763,0.08146322,-0.07181556,-0.02497227,-0.053768948,-0.038155746,-0.0579071,0.01981496,0.031076385,0.017039092,-0.054161068,0.09279372,-0.025942767,-0.0351607,-0.027603442,-0.05571658,0.015669767,0.06444323,-0.04142882,-0.004720311,-0.089591645,0.044062443,0.0775027,-0.043540493,0.022259315,0.0560249,0.062241264,0.05745905,-0.012326736,-0.09539938,-0.032207914,0.049481954,-0.07473748,0.016279345,0.005050664,0.057794437,0.032797713,-0.090012856,-0.07294377,0.015581321,0.0021986673,0.040473033,-0.047229942,0.03909812,-0.059129298,0.0080490485
0.050643586,-0.045884088,0.09402869,0.09021589,0.000666476,-0.015411271,0.114093386,0.082325585,0.008162449,-0.012966957,0.09777659,-0.06011481,-0.07237586,-0.020171905,-0.07091195,-0.031356808,-0.029046677,0.08857001,0.025667867,0.045400374,0.10691248,0.06024982,-0.030323606,0.0787867,0.11363729,0.012345521,0.06670053,0.0009738438,-0.078876115,0.07410902,0.05647462,0.023380041,-0.05657035,-0.02967072,-0.036299754,0.0310766,0.091791905,0.056460764,-0.00996337,-0.045639303,0.04318198,-0.03932245,0.10892784,0.019384664,-0.09132557,0.04414946,-0.006666791,-0.0133415945,-0.0106662465,-0.06425414,0.05276254,-0.029046495,-0.05835745,0.07703565,0.011823993,-0.025084367,-0.04867676,0.11275815,0.10606931,0.07875747,0.099592134,0.021229025,0.06637005,-0.10292845,-0.049523752,-0.077369444,-0.012381433,0.008816017,0.09189564,-0.06000624,0.0032034158,0.07329582,-0.019288538,0.0035190098,-0.0015138015,0.0252859,0.045420613,-0.016479807,-0.068873584,-0.07494206,0.009381037,0.016565118,-0.006327673,0.013836671,-0.041512087,-0.052520387,0.06707778,-0.08583059,0.06878841,-0.078195535,0.010509605,0.012427011,0.02488796,-0.0163784,-0.01629302,0.07201664,-0.08022336,-0.05895564,0.05901036,0.051296197,0.103404954,0.040441085,0.038670048,0.03516517,-0.010607249,-0.053712167,-0.09282291,-0.003439222,0.005950206,-0.0040106345,0.09302846,-0.02018002,-0.030132398,0.08162424,0.09568911,-0.036159948,-0.10025235,-0.053639088,0.07085714,0.032409754,0.04286498,-0.08191337,-0.050499216,-0.022885745,-0.046740808,0.09083991,-0.0727957,0.058848865
-0.08136461,0.055947915,0.07856005,-0.05739572,0.023421874,0.059718825,0.052705847,0.008290938,0.018110873,-0.0074499147,-0.079402156,-0.017515598,0.06887974,-0.07821972,0.07519435,-0.0729124,-0.018980043,0.024071237,0.042016454,0.07890504,0.00048779263,0.015100153,-0.030217214,-0.005874572,-0.001629879,0.057324003,-0.08652473,-0.06433121,-0.08320942,0.08513801,-0.0752053,-0.03579291,0.035418324,0.025843227,-0.15281542,0.047789257,-0.0069491365,-0.020633595,0.025123673,-0.061087742,0.0078031207,0.095853314,-0.07102633,0.007334619,0.03257797,-0.0926309,-0.062413603,0.04319637,-0.017464017,-0.074483626,0.09396912,0.0824347,-0.089150675,-0.061983317,-0.05209723,0.12551446,0.022163814,-0.06792783,0.07760677,0.019289153,-0.019346371,-0.03980936,-0.058700874,-0.063552156,-0.005023568,-0.045500685,-0.10037261,0.08467865,-0.020420257,0.05616852,0.07828428,-0.06702056,0.06922896,0.044724807,0.138599,0.11658713,0.05515443,0.07432206,0.07164274,0.08376784,0.0777543,-0.020583583,0.0013787908,-0.08344615,0.05025868,0.042247117,-0.049124107,0.06790314,-0.09092437,-0.0006208274,-0.0023239749,0.067323886,0.060654525,0.07093337,0.11872759,-0.03984453,0.0076581053,0.0793925,-0.0027241756,-0.026596988,-0.07333043,-0.0621506,0.009154473,-0.07209488,0.11022874,-0.120327115,0.05072761,-0.013931577,0.111343674,-0.0017097935,0.04820758,-0.0485752,0.046049684,-0.030280584,-0.1404752,-0.077257276,0.035411783,0.16456348,-0.071706794,0.02095848,-0.012199543,-0.02550428,-0.028322246,-0.05512044,0.0857919,-0.030277181,0.051346745,0.04013016
0.09204618,0.13146964,0.037308935,0.03245062,-0.00042408812,-0.019824535,-0.073076606,0.09817435,-0.02053387,-0.0815838,-0.017124481,-0.04835646,0.03323159,-0.09211188,-0.07327484,-0.072058745,-0.027540345,-0.048837654,0.046019692,-0.032985207,0.004300035,-0.04955873,-0.030249482,0.09759343,0.060008816,-0.0009743868,0.031198312,0.0063084476,0.058309417,0.031461053,-0.07358064,0.08979017,-0.018320154,0.07220744,-0.047052402,0.05252234,-0.06553217,-0.015208057,-0.08428086,-0.055500343,0.06646728,0.0112305945,-0.060301878,-0.036328286,-0.0003426091,0.03309498,-0.096169606,0.11766411,0.036844317,0.009095546,-0.0337283,-0.070846535,0.053565547,-0.06925112,-0.010252913,0.10708217,-0.06231839,-0.051577043,0.04435856,0.027297957,0.07739684,0.015287346,0.052167464,-0.054057196,0.07817577,0.06835029,-0.063523196,0.10651492,-0.006245974,0.035461172,0.07276126,-0.07889661,0.052864652,-0.013061319,0.030767022,0.059378747,0.08752371,-0.052408215,0.093014814,0.049525417,0.042007897,0.013070411,0.06973416,-0.10604057,0.10237436,0.074279144,-0.0046429504,0.011428794,0.048654176,0.046176706,-0.08208992,0.07780683,0.12112634,-0.09069607,-0.032822993,0.054081477,-0.03996876,0.097037636,0.023863904,-0.013113381,0.070776336,0.13326459,-0.07107111,0.04203738,0.099657655,0.031458404,0.026594967,-0.012536235,-0.024073187,0.0036108748,-0.09142265,-0.0987188,0.09675821,0.01023213,0.045937743,-0.069195464,-0.03691439,-0.0076421686,0.07308018,-0.047477268,0.111162275,0.069844164,0.10378271,0.10417093,0.027435055,-0.06225186,0.12866731,0.091421396
-0.027567938,-0.07965067,-0.08943677,0.01741845,-0.08205882,0.043713856,0.01635628,0.04409774,0.05826835,0.039387137,-0.053622205,0.045172367,0.0075173588,-0.07868115,0.053878643,0.08664117,0.059777,0.06576539,0.05334054,0.021303913,-0.008073562,0.05432676,-0.016785696,-0.01767844,0.06072635,0.023281598,0.007911759,0.08813191,0.00452115,-0.05252133,-0.081477664,-0.021474151,-0.021558182,-0.01522545,0.02475087,0.014931183,0.0634061,0.08523614,-0.036707666,0.024728637,-0.06525988,0.055527784,0.071920365,0.02159256,-0.060594358,-0.027151018,-0.051387437,-0.032723445,0.0005911022,-0.001360101,-0.02951322,-0.048748277,-0.08910182,-0.015036432,0.09179219,0.022228168,-0.041678354,0.041989762,-0.047268502,-0.09342901,0.062053077,-0.046585955,0.032704607,0.045376427,0.036783677,-0.040339913,0.056518815,0.02101154,0.09084865,-0.065328084,0.050505117,0.048018306,0.07602859,-0.07693649,-0.0499687,-0.034814034,-0.04184534,0.038499646,0.06257934,-0.07585789,-0.01303731,0.01707012,-0.102985516,-0.0461114,0.09923229,-0.110616244,0.09565838,-0.039322335,-0.0331493,-0.016759979,0.08863737,-0.10666039,0.0046224357,0.07887064,0.05526549,-0.08366976,-0.11403554,-0.11079141,0.11732322,-0.005515951,0.026960969,0.015597177,-0.039405625,0.07665749,0.018860508,0.027472423,0.043324243,0.0021079918,0.007290563,0.009660932,-0.027065158,0.017653927,-0.006419837,-0.123308,-0.13343096,0.028113453,-0.028992753,-0.09526891,-0.040218398,-0.08653088,-0.0075051673,0.025262117,0.022334345,-0.0716941,-0.02272546,0.02161602,-0.018454442,-0.10894868
0.0043418026,-0.09382762,-0.08807067,0.065811865,-0.071256675,0.018957587,-0.0044794367,0.085795775,-0.10519434,0.072910346,0.042913552,0.040272195,0.03996897,0.11217868,-0.09112194,-0.0011397665,-0.032765046,-0.044977505,0.080569915,0.081544496,0.06669799,0.03905242,-0.07648578,-0.043544635,-0.031714465,-0.049073957,0.084552325,0.049596924,-0.06563516,0.1063169,0.032036718,0.0187223,0.042739015,0.022926511,0.12313811,0.07979902,0.05389925,0.10234899,-0.015458981,0.09469365,-0.030592294,0.022871295,0.009279102,0.10270119,0.030360969,0.09531393,0.03475566,0.00968422,0.024072144,-0.07488698,0.07504911,0.01531721,-0.022770608,0.07901087,0.11247127,-0.09289167,0.061771847,0.11108743,-0.02618747,0.052085426,-0.08758931,-0.045177586,0.07054856,-0.07616079,0.11454646,-0.0051114787,0.10010644,-0.116728485,-0.027298782,0.020703869,-0.007920073,0.099380754,-0.060308862,-0.10781738,-0.0016724096,-0.10726931,0.006850901,-0.14537272,0.03703546,-0.11138571,0.03282041,-0.09394611,0.11516078,0.012113994,-0.08452521,0.032816038,0.07031458,0.09659767,0.09874394,-0.045118477,-0.06667639,-0.05424786,0.079339266,-0.047060676,-0.050080676,0.08915335,0.086101286,0.07160687,-0.060954273,0.105094105,0.08012281,0.032200497,-0.014035939,0.06891933,0.1297301,0.086731024,-0.05097239,-0.06625964,0.0018405132,-0.047713786,0.104409374,-0.005474218,-0.048730094,0.033684116,-0.033223998,-0.0005430266,0.12355669,0.033355914,-0.07160817,-0.0326254,-0.09119798,0.047694437,0.09611068,-0.0032785905,0.07798105,0.029981056,0.0839728,0.025651446
0.048960086,0.114766754,0.039608598,0.025908766,0.088107966,0.0074360096,-0.059920695,0.08461741,0.037157092,0.070015214,0.03165935,-0.027457746,0.026746642,-0.03818733,-0.04226106,0.05306387,-0.027172532,-0.013958276,0.065714575,0.087429285,0.09467283,0.06468722,-0.016409846,0.006418094,-0.09843046,-0.01934823,0.043481365,-0.049003996,-0.020036295,0.043226164,0.0705541,0.05864436,-0.04240061,-0.061990295,0.07232195,0.020428302,-0.052065164,0.089738645,0.014631397,-0.07580707,0.08566594,0.08122663,-0.024077386,-0.059073776,0.0002632343,0.031813573,-0.09787461,0.11194751,0.03386665,-0.049283642,-0.12977242,0.07144967,0.0172229,-0.06978067,0.0973527,-0.005909502,-0.05100176,0.09130067,-0.028719045,-0.047958266,0.091965154,-0.02456046,0.043712948,0.05126489,0.07402132,0.08651353,0.040830076,0.09261385,0.06663918,0.040295213,-0.027348747,0.085485436,0.06493753,-0.06641296,0.054127507,0.06711194,0.08768679,-0.03590811,-0.09250766,0.054120474,-0.06257101,0.003993097,-0.05136884,0.03562963,-0.033551134,0.0048636813,0.050889112,0.1055071,-0.0032899296,0.010147053,0.06399786,0.051347107,-0.057546474,0.013106883,-0.06337306,-0.06139519,-0.09626693,-0.016692402,-0.118942715,0.09725794,0.037721667,0.060942464,-0.06911983,-0.049248256,-0.16426119,-0.0044006077,0.07355789,-0.086091526,-0.00039784313,0.0096862,0.090661205,0.08072192,-0.023348352,0.049380705,0.12044589,-0.06858013,0.071275674,0.032412644,-0.11852882,-0.06552131,-0.03910018,0.041216537,-0.0226965,-0.061279565,-0.05313271,-0.029098282,0.0862685,-0.079772644
-0.09451147,0.09117889,0.054889742,0.082578614,0.010470508,-0.04845765,0.10680907,-0.016396744,-0.0022791566,-0.024760818,0.03658389,0.06641089,-0.054832228,-0.11906718,0.17412834,-0.04309683,0.037287515,-0.0577217,-0.13466792,-0.0149927335,0.08478283,-0.09651694,0.06490505,-0.063569866,-0.05172352,0.11544928,-0.056561835,0.117963076,-0.058341634,0.09945701,-0.091934085,0.08422856,0.023921462,-0.08388392,-0.024626445,0.06412666,-0.044418726,0.06945162,-0.044546954,-0.039996095,0.078473896,-0.067764476,0.08367119,0.012582571,-0.09853848,0.031277366,0.00053034414,0.032824248,0.011396799,-0.09715412,-0.08637233,0.015907275,-0.037911158,-0.09246002,-0.12552337,-0.016848898,0.08276466,-0.032800432,0.10135438,-0.100471295,0.04505608,-0.010129357,0.11017658,0.044116747,-0.009766373,-0.05602287,-0.05900138,-0.029873187,0.007650262,-0.07781078,0.04651705,0.121393114,0.079467095,0.04562414,0.045778256,0.08448654,0.075351484,0.018623235,-0.072401606,-0.112130135,-0.0017255268,-0.02769863,0.0014499596,0.045706995,0.054660283,-0.0139341215,-0.032665294,0.083036624,-0.034414757,-0.06027916,-0.02017809,0.12390241,0.12025161,-0.0063205245,-0.0028200888,-0.059603397,0.0065668877,0.0682195,0.08022574,-0.06744932,-0.11697751,-0.041853637,-0.079260804,-0.029603241,0.073188595,-0.16528127,0.08752398,0.007898331,-0.034886267,0.025955306,-0.087476276,0.011798587,-0.036751796,-0.12409356,0.009901698,0.08526749,0.0021650102,-0.07976222,0.08959676,-0.0042687594,0.0313003,-0.06952518,-0.025695497,-0.08821338,0.09156478,-0.07084141,0.00075439736,0.016710555
-0.014306132,-0.10716527,0.025643237,-0.034918696,0.014070194,0.100276075,0.067713834,-0.07594113,-0.00775206,0.07849072,0.08154818,0.005050924,0.06667169,-0.052522752,0.068821125,-0.020039171,-0.10575716,0.046590768,-0.069724776,-0.014273165,0.06034869,0.01232565,0.012464357,-0.047251873,0.076470524,0.06927936,-0.03820418,-0.01223842,0.054482993,-0.10607251,0.028422136,-0.004935843,-0.026099049,-0.02533453,-0.0017266328,-0.001084055,0.0026509997,-0.009834784,0.016508717,-0.009940517,-0.012895154,-0.00509705,0.053058755,0.034436468,0.100772,-0.040830057,0.07101245,-0.063533,-0.03634668,-0.04794967,-0.12474847,0.100295685,-0.017002378,0.00030831504,0.08007874,-0.11295434,-0.048407435,-0.05858456,-0.14020768,-0.038460713,0.026249545,0.08836719,0.10331984,0.04246684,0.06079675,0.014837272,0.11798088,0.04772901,-0.011656604,-0.031768076,0.048079316,0.06298969,0.045135636,-0.03609054,0.008626578,0.0909562,0.09025,0.07363783,0.09659438,0.14610344,0.009771067,0.028343016,-0.09015153,-0.04354945,-0.061252076,0.10499541,0.048625704,0.099031925,-0.047048163,0.041042913,0.097922675,0.03673168,0.011021798,0.11627094,-0.082449235,0.04165839,0.08032747,0.014896036,0.034489326,-0.042921524,-0.025484221,-0.060612433,-0.01995326,-0.0583123,-0.09946312,-0.081419475,-0.023351477,-0.027084988,-0.0059006754,-0.10775408,-0.07840856,0.116817825,0.04615097,0.03296938,-0.01260525,0.031373065,-0.106160305,0.020818835,-0.003871804,0.018789107,-0.03188622,-0.04295379,0.03039321,0.09128719,-0.034403235,-0.10656188,-0.116699554,0.02429083
-0.07869401,0.07072731,-0.0975272,0.047484923,-0.021015538,0.05036401,0.07199184,-0.0649499,0.07292126,0.096658334,0.061896186,0.083453156,0.09213217,0.019705549,0.09821309,0.060770135,0.043378655,-0.055360653,-0.061581895,-0.03997627,-0.040893447,0.077126175,0.09228893,-0.046948392,-0.027366893,-0.13059756,0.020803832,-0.064585194,0.037055288,0.01693044,0.042702198,-0.009965475,-0.0020242538,-0.08041347,0.04546685,0.07804771,0.017771086,0.049696412,-0.03615695,0.049717553,-0.047240324,0.032291733,-0.11121865,0.07158051,-0.07999192,0.04963587,0.099565096,-0.102327526,-0.079628386,-0.060420465,0.04045597,0.008683923,-0.069666624,0.076028205,-0.0017538181,-0.08708604,0.03233027,0.09772926,0.117887296,0.07083135,0.069026865,-0.029428955,0.06319888,-0.09025907,0.0677453,-0.077107236,0.0067893923,-0.09430603,-0.068608515,0.09137855,0.054068238,-0.07705744,-0.008434568,0.04041571,-0.0026407854,0.06072108,0.030480843,0.0038840442,0.071488485,-0.048925355,0.06249912,0.010979258,0.107779905,0.015494453,0.064664096,0.04062272,0.021398718,0.10173096,0.097644314,0.016519235,-0.04545117,0.122851565,0.020240828,-0.04503703,0.11457773,0.07414428,0.11086228,0.038066704,0.09048263,-0.10645757,-0.07889122,-0.07977577,0.10838916,-0.061250247,0.03636767,-0.072208375,0.06840632,-0.029522296,-0.010963513,0.07690987,-0.043649305,-0.009580813,0.056393348,-0.07276582,-0.06465668,0.1013023,0.0043534134,0.06571213,-0.006674326,-0.04672923,-0.064998165,0.003452392,0.013554298,0.03517426,-0.02061204,0.07565784,-0.08168029,0.060518365
0.024496235,-0.052809976,-0.033669297,0.061377198,-0.0007089704,-0.014547959,-0.017144252,0.10425123,-0.027509475,0.057525147,0.06411236,-0.08328291,0.029566633,0.11340633,-0.074238256,-0.0352038,0.0835306,-0.07681464,-0.0631979,0.0864351,-0.01431081,-0.032236006,0.08660145,0.029208135,0.0336054,0.09608998,0.057014246,-0.0083618015,0.045544323,-0.07976931,-0.08072505,-0.010547982,0.062338352,0.08114335,0.022376232,-0.009367282,0.058393322,0.04574029,-0.05917095,-0.05969453,0.019261168,-0.031798422,0.01893384,0.07867753,0.13227764,0.02565496,0.058671657,-0.044269927,-0.03354099,0.10757919,-0.06893945,-0.0060469867,0.0547898,0.08091552,0.055495586,-0.0033511382,0.031736,0.052120537,0.091701314,0.066815525,0.0646121,0.070166625,-0.09334692,-0.09763204,0.09572834,0.018123664,-0.015862962,0.05894809,-0.060018267,0.029270407,-0.0032768918,0.041436132,-0.08230984,-0.10218994,0.022655796,-0.052708115,-0.0035235158,-0.083655775,-0.012564988,-0.07372514,-0.10195845,-0.10370687,0.07379406,0.047689445,-0.12872565,-0.08003734,0.096970946,0.04611382,-0.06105439,-0.086792104,-0.037843045,-0.0152146425,0.0766094,-0.046954855,-0.021070907,-0.00018173354,0.024223184,-0.016045617,-0.08158764,0.029000066,0.071223386,0.029614432,-0.0437218,-0.08735522,-0.1363142,0.08242916,-0.05138037,-0.05848627,-0.032578185,-0.022187777,0.007876634,0.08800599,-0.081778206,-0.031957638,0.13408981,0.09121928,0.028406568,0.010945686,0.023250425,-0.07751321,0.011998266,0.012885047,-0.05227035,0.102265246,0.07242323,0.019161317,-0.013726911,-0.037348345
0.1030105,-0.000993192,0.04863819,0.017994536,0.0068041366,0.05990559,0.05012923,0.09725128,-0.10645189,-0.011965033,-0.087624826,0.008774579,0.0863173,0.12573415,-0.039327983,-0.03377311,-0.014943286,-0.021366015,0.11743711,0.032017678,-0.14547008,-0.055260964,-0.012402367,-0.00071842683,0.03400115,0.14200892,0.05255315,0.035862166,0.07737966,-0.07665927,-0.041521773,0.12128107,0.08824966,0.05871062,-0.0631252,0.112596,0.091735534,0.042521343,0.09830746,-0.10395808,-0.026161417,0.06169383,0.11388912,-0.022005448,0.14185311,-0.005856375,-0.052754674,0.12311112,-0.030263627,0.07832171,0.03263017,-0.0214493,0.018340176,0.026169704,0.011472562,-0.01831017,-0.044848807,0.08339258,0.036919292,-0.07931774,-0.012382182,-0.06341415,-0.07482637,0.089302875,0.001997277,0.1214962,0.07434992,0.13100742,0.04342395,-0.07243461,0.010095014,0.08955027,0.10384618,-0.075094685,0.014674391,-0.06042186,-0.03931403,-0.10562615,0.058419272,-0.08195625,0.0562294,0.082457155,-0.017891657,0.0069099707,0.016384164,-0.05824902,0.11442946,-0.03108421,0.011663361,0.050363798,-0.06759411,-0.068385184,-0.050564785,0.04892989,0.08206193,0.061966423,0.04834439,0.016783284,-0.015975539,0.044608742,0.014614381,-0.011920304,0.10768928,-0.04894948,-0.10032684,-0.006493548,0.096118495,0.028324628,0.063253686,-0.04719842,-0.0028840804,0.009277007,0.058114946,0.045522884,-0.052312814,0.06285746,-0.010860509,0.14283954,-0.011806819,0.1276333,-0.0067345896,0.031023787,0.117185146,0.11902762,0.108715475,0.071456976,-0.014655289,0.09267251
-0.06948491,0.024696263,0.037068915,-0.03756755,-0.027090436,0.036348518,-0.005618879,0.037899826,-0.07746601,-0.025537767,0.099775344,-0.0947765,0.0841251,-0.046999764,0.028129555,0.0532761,-0.08826548,0.036247212,0.0022737212,-0.014770272,-0.06679776,0.020337226,-0.015399695,-0.08667475,-0.016757717,-0.09954419,-0.031882983,-0.036703743,-0.015729606,0.106465645,-0.053101346,-0.028106458,-0.09018923,-0.0133755,-0.05406189,-0.0488479,0.0125360675,-0.07180462,0.04969055,-0.027427733,0.09255274,0.081629544,-0.016857767,0.023456676,-0.020892072,0.096794605,-0.0923944,-0.0062163007,-0.02008166,0.09195588,-0.056598283,0.049334764,-0.0075307884,0.03836058,0.05075606,0.010765532,-0.051410213,-0.017846048,-0.08128505,-0.030060893,-0.051997617,-0.078307934,0.04802562,0.087383114,0.000844561,0.07225064,0.031861242,0.098956324,-0.017079907,0.029937465,-0.109757036,0.009870429,0.010531901,-0.064785376,0.038938336,-0.054375496,-0.04164632,0.031143336,-0.036263604,0.081199184,0.073302776,0.0011964004,-0.13402857,0.09021816,-0.010484789,-0.019639574,0.043677162,0.015455932,-0.032358333,0.010283551,-0.012138256,-0.043112054,0.04028691,0.04196699,0.051063713,0.01665349,0.027435176,0.08311853,0.040403135,-0.107541114,0.033436324,0.08961321,-0.07076154,-0.07041314,0.01814066,0.08447927,-0.0634398,0.0001206606,0.02984017,-0.015959041,-0.12104241,-0.063233,-0.07736842,-0.104962446,0.0050287563,-0.0044000624,-0.0624098,-0.028905254,0.03041682,0.04429846,0.07891869,-0.0350948,0.08652237,0.054822218,0.08012443,-0.12870105,0.012770931,0.018533835
0.07235564,-0.063092954,-0.03550615,-0.0945029,-0.011505458,-0.027272793,0.079163074,0.03963174,0.05545568,-0.05436649,0.026702693,0.106707714,-0.069231115,-0.013477549,-0.08295219,0.0717391,0.11463385,-0.05720825,0.03871711,-0.015901426,-0.03194903,-0.009017407,-0.059732117,0.045692492,0.0035877272,0.049901925,-0.032530453,-0.0055151037,-0.020006508,0.050998762,-0.08668843,0.114921995,-0.059118684,0.08401246,0.058072478,-0.102819495,-0.048773646,0.04875753,-0.020214748,-0.09774185,0.02241326,-0.08833486,-0.04800644,-0.01238666,0.032724675,-0.018397328,-0.035284333,-0.060891926,-0.042141825,0.044865422,-0.033302877,-0.06465241,-0.03682445,0.045934647,0.03608526,0.054624353,-0.0017752253,-0.021360526,-0.098223165,-0.13243169,0.065716416,0.018617447,0.078846954,0.1009565,0.03472043,0.014370625,-0.07951422,-0.016550764,-0.042457,-0.03021735,0.098252065,0.10174002,0.081960365,-0.012916114,-0.0098976875,0.035566438,0.0689328,-0.018493464,0.03957394,0.051881295,-0.06659071,-0.09830353,0.06592376,0.06849665,-0.0040898216,-0.08384713,0.016620083,-0.070484534,-0.054458592,-0.03907605,-0.0013815842,0.024745196,0.02310946,0.086666286,0.027105853,-0.026550367,-0.06343661,-0.13864353,0.05811535,0.12165241,-0.07923387,0.034556992,-0.01867694,-0.013965165,-0.020463077,0.0029251291,-0.02378948,0.053382955,0.0774593,0.04364852,-0.019126168,-0.0014357966,-0.061057806,-0.016673455,0.08724652,0.028575396,-0.03731338,0.058292337,-0.0026099223,-0.106971696,0.044880033,0.065022714,-0.068050444,0.0884548,0.08937208,0.014313219,-0.08574925,-0.01346445
0.12122203,0.04704146,-0.1161119,0.063665956,-0.0059459587,0.03963243,0.045875397,0.09065526,-0.016287904,-0.0037303932,-0.0024107667,0.005855336,0.013951978,-0.020382732,-0.0212738,0.07033312,0.049464464,0.020288398,0.0977783,0.09560128,-0.054762512,0.03143896,0.053514775,0.07748792,-0.078194834,-0.057130948,-0.01565089,0.1471643,-0.028389016,-0.041701987,0.050510567,-0.04077975,-0.044633355,0.047102574,-0.10767085,-0.07343514,0.06300731,0.042585354,0.024328755,0.11341494,0.093133315,-0.00713672,0.022397777,0.07633135,-0.052404907,0.05739141,-0.055526067,-0.020483546,-0.0658314,0.06369905,0.08158942,0.038888153,0.09747203,0.02366,-0.07870569,0.08496839,-0.058934137,0.07230889,0.11506541,-0.04082281,0.028059827,-0.097084075,-0.07436511,-0.0669886,-0.04220617,-0.079849735,-0.02830971,0.03553729,-0.026646286,0.04542251,0.03369179,0.10331488,-0.077201165,0.07784917,0.0064299083,-0.016506048,-0.107366726,-0.049039725,0.08797659,-0.047151223,-0.049265105,-0.0909699,0.06441847,-0.09851263,0.029249985,0.021700153,0.07452492,0.08024682,0.0035925263,0.03931449,-0.043100767,0.04035052,-0.044060703,-0.066035494,0.07789947,-0.033543322,-0.093160816,-0.015800832,-0.092337936,0.05430325,0.03062781,0.037715238,0.033859197,-0.03687561,-0.01490466,0.102266334,0.041524787,0.07242413,0.04507665,0.111867726,0.069243565,-0.0057004252,0.055474073,0.06991413,0.073295526,0.069181606,0.078094,-0.08850911,-0.101996906,0.043980032,-0.0074933316,-0.08159605,-0.020731289,-0.0637256,-0.020893246,0.061495893,0.07716367,-0.026185183
0.023588074,0.076402016,0.010220642,0.059167646,-0.004259705,-0.0762025,-0.031015461,-0.07846984,0.07565831,-0.060842074,-0.03206565,0.04061167,0.04238122,0.010979416,-0.027227676,0.007343382,0.038843084,0.027630793,-0.081599556,-0.03287083,0.01872208,0.06227238,-0.059117604,-0.011007362,0.08528986,-0.020758692,-0.02585564,0.08184923,-0.01973954,0.030570472,-0.0378137,0.029760947,-0.03259097,-0.08864227,0.08133775,-0.072128385,0.020946398,-0.07743501,0.01904164,0.043135136,0.06512857,-0.056959126,-0.03994952,-0.04691889,-0.031449165,-0.03397618,0.0031535302,0.042285834,-0.053965062,0.00988527,-0.03126667,0.02097053,-0.011202365,-0.0102741495,0.00864127,0.033005033,0.08229497,-0.05210409,0.0552372,0.022334572,-0.08007453,0.050357066,-0.087737,-0.03171742,0.06317971,-0.079926684,0.07106362,0.053732235,0.04611328,-0.082984805,0.0470114,-0.061464854,-0.08719826,-0.08439298,-0.05367399,0.058883663,-0.06047845,-0.05768978,-0.022373792,-0.08498752,-0.024501842,0.0041977987,-0.07215017,-0.036950808,-0.05424154,0.009209902,-0.07660804,-0.020488873,-0.021065507,0.06791226,0.032254964,0.049100034,-0.06060695,0.06544128,0.051616598,0.0048911055,-0.08424238,-0.047491234,-0.020137217,-0.064290136,-0.07972998,-0.033726268,-0.067633204,0.084853224,-0.022655802,0.038297493,-0.083896846,-0.055328052,-0.009124972,-0.04852966,0.0065690205,0.042588513,0.014021958,0.0079458235,-0.08469019,0.016102867,-0.06440935,-0.07206235,0.023690676,0.023705073,0.009271092,-0.082631014,-0.06828844,0.020028893,-0.08972478,-0.030603405,0.009246481,0.06483759
-0.060243633,-0.072386436,-0.0020167336,-0.06848477,0.012631126,-0.015616853,0.027815536,-0.0136985425,-0.09818185,0.106278054,0.08262677,0.016291259,0.005999642,-0.0007416911,0.00368974,-0.04535507,-0.019853111,0.0010797376,0.12347772,-0.036837164,0.009985029,-0.045894817,0.08925519,-0.009425442,0.108751394,-0.046991058,0.042324588,0.026113784,0.04761715,0.07530802,0.10890567,0.07388514,0.033021227,0.039872322,-0.037362456,0.031313166,-0.034155022,-0.02780464,0.026019441,-0.101149134,0.027345462,-0.057768818,0.045992173,0.07073765,0.001557149,-0.055919472,-0.01564142,0.080862366,0.10484438,0.058919694,0.17729682,0.049720883,0.067181155,-0.08539753,-0.00020640035,0.012490564,-0.052049503,0.06560929,-0.07269491,0.013930814,-0.09454129,0.039557412,-0.016705692,0.009701469,0.025284367,0.092772014,0.011487974,-0.030814357,0.057272583,-0.048620574,0.012471699,-0.038205773,0.10143743,-0.057864007,0.019872025,-0.09961981,0.047825016,0.007445753,-0.0011979766,0.10163831,0.05467327,-0.10451352,0.08267793,-0.053880822,-0.036268413,-0.11942863,0.07759814,0.024396393,-0.02319978,-0.017954078,0.09299221,-0.060776144,-0.001384891,0.13022746,-0.07084101,0.076056845,-0.015185219,-0.0298283,-0.07229833,0.020195732,-0.09173957,0.11177253,0.024973571,-0.078357324,0.06721018,-0.05422879,-0.10703533,0.052577313,0.052576773,-0.09185532,0.02167716,-0.058866974,-0.06377826,0.054307893,-0.061277155,0.05534131,-0.020025807,0.029469354,-0.11873959,-0.076918,-0.026981987,0.08243545,-0.0045718406,0.08072265,-0.06567345,0.106306724,7.750414e-05,0.11789981
0.011296899,-0.007726099,0.05875635,-0.04898456,-0.03187026,-0.042627096,0.03668101,0.031272423,0.05139028,-0.021904986,0.12499503,0.025915125,0.07638319,0.06123942,-0.05731662,0.07174001,0.13220316,0.09704356,0.06764525,0.03876639,0.010293646,-0.048311025,0.068096004,0.045914758,0.083907664,0.033939432,0.033149015,0.11473444,0.03452318,-0.003926236,0.11901548,-0.03521108,0.039389048,-0.10273552,0.07254981,-0.11155429,0.005727093,0.08787517,-0.0490597,-0.06768152,0.057355523,0.12173357,0.11175763,-0.012434921,-0.10338423,0.11508562,0.073362336,0.09920725,-0.08481163,-0.05404175,0.03857699,0.014337385,0.10990586,-0.05063727,-0.045243442,0.038444195,-0.012740246,0.043177214,-0.018079882,0.04402802,0.033539534,-0.04400763,-0.02578754,-0.030968051,0.004635651,-0.022492448,-0.005242486,0.1036553,0.008025207,-0.064937845,0.047712136,0.12236656,0.071419224,0.1214486,-0.056112245,-0.08701199,-0.066735424,-0.025896508,-0.09960064,-0.051984984,0.063341886,-0.09241498,-0.03543786,-0.03438822,-0.10712037,-0.0461174,0.069702044,0.0948193,0.009090512,-0.028138509,-0.07496249,0.12269994,-0.10922385,-0.008343327,-0.044724498,-0.032945413,0.08219068,0.02843388,-0.09806865,0.027238939,0.024803463,-0.047304206,0.053069144,0.07473598,-0.023616279,-0.08763889,-0.082960315,-0.0684454,-0.017988794,0.077807315,0.04061907,0.079420455,-0.06532023,0.023735432,-0.057491846,-0.0030391254,0.048506156,-0.021183694,-0.04055035,-0.06751209,-0.04552758,0.05378037,0.096452005,-0.044268657,0.057139292,0.08324079,0.010002882,0.08037173
0.034461536,0.05090856,-0.056566704,0.11246893,-0.019258564,0.005595016,-0.07935971,-0.031977348,-0.09172393,0.05037982,-0.03653355,-0.08450317,0.031392884,-0.06799497,-0.028194308,0.06153526,0.062849656,-0.11519115,-0.036048163,-0.032389008,0.0710369,-0.08342667,-0.08042826,0.06418622,0.026002683,-0.072402105,0.046990473,0.051125526,0.04797561,0.08290222,-0.041781764,-0.023265045,0.0042875577,0.034193292,0.09136598,0.069874324,-0.042643227,-0.06537507,0.06893991,-0.0017946791,0.035896327,0.019855963,-0.021025956,-0.06604195,-0.0388462,0.068521954,0.020432852,0.059691314,-0.03073592,0.0013780453,0.014925103,0.008159963,-0.025905814,0.086779386,0.07337588,0.025601145,-0.01709426,-0.09199362,-0.11612322,-0.104293466,0.0019155779,0.0006807732,0.050198276,0.06441252,-0.09337419,-0.017161027,-0.042174432,0.033031315,-0.04045828,-0.08291786,0.06792162,0.030106913,0.08990475,-0.1089056,0.046526372,-0.06503156,-0.070229515,-0.07621717,0.027087195,-0.014291737,0.004947808,-0.024543924,0.039956145,-0.05475,-0.09547699,-0.089068405,-0.055101093,0.017359052,-0.048369803,0.021130586,-0.09299569,0.091412045,0.077732846,-0.048789397,0.06427393,0.05040707,0.09013613,0.08407729,-0.052699726,-0.014474772,-0.01085449,-0.015342302,0.032344725,0.08776235,0.19149421,-0.028673097,-0.00285527,0.06577867,0.042737156,-0.11302459,-0.025692116,-0.04679335,0.07601746,0.0043377457,-0.1351119,0.009729069,0.06410357,-0.06599259,-0.085989885,-0.06369284,-0.00950569,-0.030070521,0.07967926,-0.072028235,0.025626572,-0.06913297,-0.0055663222,0.07163097
0.11011942,-0.0056666937,0.011447925,-0.04496706,-0.07521523,0.0062257973,0.04949694,0.102584444,-0.023315566,0.10897829,0.03848917,-0.0070672384,-0.07659571,-0.038129583,-0.0356858,0.010247251,-0.04848547,-0.024827342,-0.04399344,0.012717304,-0.020959184,-0.017752137,0.05427209,0.07310772,0.103496745,0.038263876,-0.06671137,-0.06025445,0.017787738,-0.07034431,0.080628075,0.0016508009,0.0633371,-0.0661787,-0.071847044,-0.07335439,-0.022531701,-0.00074340455,0.023273036,0.026080681,-0.0673894,-0.07350368,0.11993587,-0.10651274,-0.023091897,0.050162267,0.0885308,-0.011839921,0.009456369,0.06958596,-0.03215999,-0.013074559,-0.03780758,0.057339642,0.09290708,0.019474873,0.022304567,0.10305423,-0.017612128,0.05269426,-0.011950632,0.03292476,0.07917439,-0.033643454,0.09110581,-0.007605003,-0.013558638,0.118225835,0.01444502,0.072462715,0.07954655,0.06848794,0.08435315,0.040461168,-0.054988474,-0.07624814,-0.05831175,0.011821582,0.05617929,-0.11101936,-0.044038363,-0.046170708,-0.008593512,-0.059202418,-0.072652146,0.106415115,-0.052096836,0.04857303,-0.0052853194,0.0008216401,0.03669238,0.003928611,-0.075199366,0.08146751,-0.05674386,-0.016310219,-0.021800198,-0.06924727,-0.058218427,0.013361242,0.006793721,0.07618829,0.0054259747,0.0062577045,-0.059124503,0.0513086,0.013825402,0.0719429,0.003667286,-0.020151254,0.04999209,-0.0005904951,0.058739964,0.1090015,0.05590307,0.08374023,-0.057965625,-0.00089935726,-0.10031212,-0.04524872,0.06539493,-0.03230275,-0.042757407,0.046043403,0.058654528,0.12676312,0.08379516,0.12853123
-0.07995551,-0.025430217,0.103467524,0.03633381,-0.004782748,-0.006651212,0.08495142,0.06516619,0.111717425,-0.04497199,0.01776945,-0.0049110604,0.05373289,-0.06309803,0.14025804,-0.023534965,-0.080219984,0.037972454,-0.06376293,0.051824972,0.06293491,0.062096506,0.010194179,-0.02856999,-0.06567495,-0.07048307,0.067746654,-0.05040432,0.07793094,-0.07113956,-0.008631889,-0.0741047,-0.019793203,-0.046577446,0.037825916,0.10228432,0.08621967,0.11190775,-0.033271868,0.056268852,0.07100198,0.0851024,-0.06900656,-0.013693884,-0.01018049,-0.039552756,0.08895491,-0.039002627,-0.092586316,-0.07400282,-0.084711544,-0.024387948,0.018532779,-0.024149334,0.07314949,-0.0998862,-0.040344104,0.081090316,-0.025211181,-0.052596897,-0.027803004,-0.07027885,-0.0470954,0.019754978,0.04074574,-0.07284114,0.05444312,0.080737,-0.083504215,-0.030081557,-0.04100735,0.0020790817,0.034905113,0.08299091,0.0138877,0.0019554466,0.046663914,0.00025306712,-0.08427664,-0.011623172,0.09230301,0.10642526,0.08526692,0.02722762,0.060720596,0.12305622,-0.020703653,-0.0051526767,0.06985779,-0.043132596,0.08392047,-0.012586706,0.03435239,0.06363996,-0.05627342,0.080737524,0.053280238,0.018053612,0.050077453,-0.024821363,-0.017989289,0.046527427,-0.010646583,-0.04598795,-0.1365681,-0.06220801,0.05236091,0.09514373,0.085145965,-0.0002299596,-0.049064826,0.071727,0.074830614,-0.06794719,0.07573548,0.013718054,-0.09012122,-0.11464686,0.116589755,0.022333369,0.020699663,-0.0012568241,0.07444279,0.07079192,0.059177022,-0.08253265,0.07050092,-0.078420416
-0.02363754,0.04558653,0.119110286,0.0060671084,0.0074946783,-0.08222142,-0.08092322,-0.059967365,0.011778401,-0.067769624,0.119924515,-0.0633598,0.062435675,0.09663925,-0.016085552,0.08674866,-0.025498891,0.034888957,0.10009968,-0.032281082,-0.009405249,0.0775923,0.038103666,-0.023531264,0.11803727,0.09464221,0.013697538,0.09495369,-0.0028868772,0.06433828,0.12401315,0.05037667,0.045764502,0.064590916,0.1310676,0.009126714,0.07499073,0.07447792,0.04634721,-0.017606629,0.0818569,0.105687305,0.11525432,0.04802021,0.13883893,0.0046884124,-0.038999457,0.050541237,0.053979106,0.11877146,-0.060838416,0.13218617,0.06811724,-0.07095893,0.09531119,0.08427986,-0.07339427,0.08256317,-0.038435258,0.03790691,0.016395593,0.0055633234,0.030195512,0.12362837,-0.0030570722,0.07739202,0.1179074,-0.07468588,-0.0063998634,-0.033220902,-0.08085434,0.013575533,0.006213867,0.06546603,0.0011304498,0.062877074,0.08019633,-0.044433005,0.010302683,0.028948132,0.06570841,0.036947124,0.020409027,-0.025448322,0.054740228,-0.11395983,-0.012437282,-0.039767995,0.05590861,0.0065756203,0.04010505,-0.084115036,-0.045936823,0.017271698,0.08640307,0.03887827,-0.078571014,0.089446895,-0.116402216,0.16525072,-0.021844419,0.007443198,0.10850011,0.046274375,0.00023017597,0.102626964,0.06529913,0.09250644,-0.04006944,-0.04749353,-0.028103989,0.15452749,-0.11405949,0.11104618,-0.07543326,0.053451244,0.0073823305,-0.10969848,-0.052311074,-0.020213665,-0.045924824,0.04028315,0.091343045,0.088516705,-0.06591302,-0.012935017,-0.015804121,0.11263234
0.075007014,0.07792368,0.021344716,0.09477876,-0.09221556,0.07998347,-0.087915175,-0.057929676,-0.0971285,-0.036679607,0.017851783,0.081378646,-0.070382714,0.021658562,-0.1156171,0.0019903851,-0.035796102,0.09461082,0.047868866,-0.021755472,0.09986311,0.068013735,-0.074014395,-0.089937255,-0.00040543315,-0.02989863,0.054489896,-0.030584034,0.07331136,0.03394652,-0.010120907,0.10268874,0.047280252,0.06552578,0.12037581,0.0026970063,0.018585224,-0.08234767,-0.022860786,-0.04529061,0.06930988,-0.0054172236,0.11101592,-0.018124811,0.08198934,0.010030747,0.011630609,-0.033358615,0.05946895,0.029509513,0.04142656,-0.054323487,-0.018568896,-0.04894929,0.1719946,-0.06182396,-0.081799775,-0.072020784,-0.018298117,0.07614976,-0.028297693,-0.056440584,-0.054654002,0.014470824,-0.0005504963,0.05922757,-0.004731145,0.098859616,-0.00095303747,0.038932316,0.01696666,0.076826125,0.102656454,-0.06260913,-0.07796714,0.028604364,0.02746526,-0.024280353,0.048277196,-0.08244197,0.015715113,-0.049260695,-0.114727646,0.05224966,0.0841473,0.020646488,0.017223023,0.043196775,-0.048946593,-0.053504843,-0.09199511,-0.021909572,0.00015621122,-0.034107145,-0.05980966,0.0651963,-0.09595772,-0.00097633305,0.045870773,-0.07057422,0.087730296,0.07673918,0.0010041561,-0.06273893,-0.10301339,-0.03642284,0.06933168,-0.0064429366,-0.08581855,0.011345129,0.056346823,0.059183642,-0.02354194,-0.05913426,-0.030408302,0.025865216,0.029949166,0.13896807,-0.08154432,0.09220896,-0.057597667,-0.07599531,0.03671922,0.04054373,0.08263961,0.07764643,0.121840365,0.047903083
0.011298191,0.016425803,0.088256285,-0.028512485,0.069139436,0.1079135,-0.019511908,-0.014001091,0.033263806,-0.0015790482,0.021435345,-0.023571681,0.07587817,0.110156626,-0.023420665,0.0110516185,-0.15730919,-0.023182139,0.076977886,0.09068707,0.056649674,0.063486785,0.032257043,0.07599816,-0.087851256,0.069673605,0.05242617,-0.020463776,-0.012336303,0.11535521,-0.06270893,0.0074093626,0.020805795,0.023639822,0.0016437612,0.012001011,0.06788973,0.039674606,0.056957792,0.08021187,0.09574303,0.07215506,0.10313288,0.00036171777,-0.082332395,0.10076914,-0.05916337,0.08047351,-0.023344286,-0.07789134,-0.056471664,-0.07224302,0.03670371,0.01549664,0.030078776,0.07430274,-0.071699314,-0.07977071,0.080997095,0.011212,-0.07540959,0.011609101,0.03537874,0.0008333137,0.1629666,-0.010395677,0.12800609,-0.0689326,-0.041687015,0.06524994,0.10244529,-0.0063677626,0.01847213,-0.008413002,0.10207804,0.061007924,0.06258565,0.0063019963,-0.03853383,0.08592759,0.10624399,-9.665853e-05,-0.08095809,0.099325195,-0.015100122,0.013427136,0.04698032,0.10412486,0.10957284,-0.05214413,0.015105742,-0.046924368,0.016868519,0.057839572,-0.002091641,-0.093262225,0.070796676,0.1392959,-0.017606666,-0.07061739,-0.07383048,0.10921276,0.012223131,0.07548193,0.037386034,-0.024742322,0.09860971,0.029094327,0.07104425,-0.13441516,-0.08737419,-0.04290137,0.03446918,-0.105979204,0.044617377,-0.101916336,0.02046234,0.02977035,-0.031819925,-0.020202607,0.12607022,0.049289934,0.031558912,-0.045577884,0.01223619,-0.051907673,-0.04064568,0.03418304
0.09550947,0.050604988,0.05550733,0.08631503,0.020267144,0.02857251,-0.03959567,-0.06514483,0.07816209,0.021065949,-0.031557836,0.02249218,0.08368546,-0.045411773,0.15157732,-0.07264896,-0.06892636,-0.061807077,-0.028147709,-0.016301313,-0.101295695,-0.081328556,0.040814906,0.115413666,0.040112246,0.06352749,-0.035721987,-0.03055729,0.024879185,-0.041832693,0.07169355,0.08353947,-0.020148128,0.09344741,-0.10708862,0.12307328,0.1264342,0.017646689,0.10161926,0.024676127,0.08678706,0.040936187,-0.0058659106,0.13775498,-0.044068042,-0.062394504,0.037966337,0.01158,0.013790122,0.02806106,5.6512712e-05,0.05996181,0.040508218,-0.045295335,-0.121283315,0.04928837,-0.054863203,0.07945352,-0.054720767,0.01440715,0.046743624,6.262557e-05,0.009928934,0.05522717,-0.08954101,-0.03990323,-0.072566874,0.06836104,0.024171617,0.07609768,0.0110015,-0.015248812,0.02928499,-0.011670758,0.013215695,0.11989959,-0.07522488,-0.022548169,0.1328696,0.044001576,-0.04983235,0.12959631,-0.0031249237,0.037728995,0.07756455,0.0052290065,0.0967951,-0.0011258532,-0.035846666,-0.08633808,0.052658197,-0.058268476,-0.0018289336,0.039198827,0.11828731,-0.022594294,0.032386437,0.05185043,-0.06928559,-0.0117259715,0.005841319,0.11548632,0.030969921,-0.006837923,0.0017282952,0.1060414,0.13308139,0.077807344,-0.043130968,0.071692,-0.08262455,-0.0027585493,-0.015828667,0.054340012,-0.09001493,0.08273069,0.05463071,-0.041355383,0.08947524,-0.029843803,0.047498565,-0.010450315,-0.058779463,0.11409136,-0.056127127,0.08733469,0.052549988,0.014835643
-0.047522847,0.12317582,0.027550554,0.086289845,0.020337503,-0.04415563,0.023848696,0.062519625,-0.030601338,0.04742678,0.07674986,-0.054659445,-0.04038765,-0.072601676,-0.121767685,0.046528574,0.05974571,0.10394244,-0.09241865,-0.06436416,0.1374714,0.055747222,0.02676077,-0.09674834,0.082470186,-0.07757522,-0.072850205,-0.028512739,0.09132839,-0.053656463,0.05214246,-0.06157019,0.05557344,0.011281299,0.050750714,0.1138159,0.11703562,-0.08529498,0.117848456,0.031870946,0.051671654,0.07818468,-0.07616983,-0.0056823716,0.03407213,0.07228939,0.1219341,-0.097424865,-0.087087475,-0.017813414,0.08119305,0.083603226,0.083847985,0.036296126,-0.09577518,-0.06564591,0.039920267,0.04243518,-0.07620416,-0.008371771,0.11160206,-0.0503095,0.060144775,0.01340943,-0.07307128,0.06675955,0.056723874,0.00021929119,-0.04933181,0.034750126,0.021807654,0.02644915,0.0045921095,0.07677409,-0.0037564656,0.09271654,0.05014059,0.1197267,0.00669413,0.08973138,0.10994082,0.10904434,-0.051687278,0.0110534895,0.06646008,0.044950027,-0.07712478,0.12020414,0.040610734,-0.015535304,0.1250298,-0.015165092,0.062889814,-0.045047075,0.012248951,0.11649119,0.08274857,-0.030007202,0.046065763,-0.16779369,0.049938045,-0.11263169,-0.03823462,-0.059398025,0.05076536,-0.012196454,-0.024949946,0.026842749,-0.08153985,0.011557812,-0.07106343,0.023305763,0.056670208,-0.06947296,-0.13155213,0.08004696,0.08906128,0.14230226,0.061313055,0.11974489,0.023125242,-0.063005745,-0.09329502,-0.04683841,0.07621642,-0.11359412,-0.011102605,0.035835415
0.03222785,0.09645301,0.030353965,0.048865862,0.022328382,0.051831856,-0.015603745,-0.06606679,-0.07365526,-0.04189788,-0.011532489,-0.07643702,-0.030645946,-0.05532185,-0.08067875,0.053749103,-0.003738075,0.09301389,0.019586839,-0.056603346,0.10808112,-0.0991219,0.016466301,-0.028774481,0.050917055,0.09160569,-0.020109542,-0.04848322,0.079205565,-0.0637283,0.07385554,-0.09296368,0.024170699,0.1345098,-0.043585237,0.07699391,0.11018254,0.11069405,0.03697042,-0.038892865,-0.0027801571,0.004904108,-0.035630174,-0.049230658,0.078214005,0.07325073,0.037057012,-0.012173204,-0.057728764,-0.06296716,0.028555505,0.08146367,0.017872905,0.023080241,0.06702376,-0.10127979,-0.086319774,0.044306442,-0.06702412,0.0330279,0.09268351,-0.07500902,0.06596509,0.042915452,-0.0769303,0.09172343,-0.0034381787,-0.048478674,0.090487316,0.0098691685,0.05250626,-0.043140702,0.0069338637,-0.05760994,-0.10117608,0.048067465,-0.05436587,-0.068845905,0.058122184,0.006410737,0.03725539,0.010088035,-0.085893415,-0.014122151,0.026236182,0.014357138,-0.04432646,0.018149605,-0.013225633,-0.018222334,-0.06757765,0.02067965,0.040970214,0.008661179,-0.04472299,0.10476601,-0.05859145,0.010792368,0.06158034,-0.063173234,0.06696794,-0.11427524,0.031052278,0.017803526,0.016501606,0.07218376,0.030836314,0.07074369,-0.053943224,-0.04088464,-0.04641851,0.05901208,0.042627994,0.086943194,0.08930308,-0.0046150344,-0.0060037626,0.022396768,-0.033844702,0.06505402,-0.08604815,0.025716418,0.06768298,0.026053358,0.05537978,-0.08733409,-0.026831103,0.06171979
-0.07178856,0.1069645,-0.029769525,-0.067459166,-0.04221967,0.055018228,-0.09807724,0.04111721,-0.04801264,-0.03942413,-0.014846895,0.08060287,-0.026592331,0.02022308,-0.15440111,0.01943117,0.028706877,-0.038340654,0.03446539,0.021046987,0.12205342,0.033598106,0.018119885,-0.029277958,-0.061029613,-0.10817204,-0.017688999,-0.09584963,-0.052643146,0.055867616,-0.008387713,-0.052270096,0.07105965,-0.0132792,-0.00020602775,0.023460468,0.0045289895,0.074552886,-0.009258627,-0.016096588,0.051717076,0.0155096175,0.027298488,0.023669926,-0.05648496,-0.02507858,-0.073059194,0.0329567,0.03498868,-0.0771983,0.17620738,0.08306336,-0.06083988,0.0018081429,0.07699394,-0.08619406,-0.0039396114,-0.06585071,-0.017725622,-0.026272181,0.028004706,-0.08313142,-0.022474667,-0.029970337,0.05337385,0.14381956,-0.09693915,0.076418266,-0.043836582,0.009002364,0.041665245,-0.05500796,0.09141509,0.044257496,0.061259225,0.10149064,0.0023486584,0.10377065,-0.042969123,-0.056352604,0.12369658,0.02374944,0.1020592,-0.118682906,-0.010068869,0.075124726,0.05388233,0.033667207,-0.0783452,0.011862946,-0.07831544,0.11750552,0.04444721,-0.04669475,0.1208883,0.036912378,0.07563303,0.0013357991,0.07577905,-0.099336326,-0.035368126,-0.08157663,-0.0858058,-0.019326169,0.16264671,-0.029613413,-0.06332663,-0.024450338,-0.059084285,0.0028669194,0.09600725,0.034522615,0.08807011,0.0028307524,-0.18960905,-0.013199413,0.103773065,0.13568489,-0.09002498,0.09184844,-0.05486839,0.095987834,-0.014225518,0.05497343,-0.07062965,-0.03509068,-0.015427559,0.01923337
-0.028203873,0.022182794,0.040981904,-0.010654666,-0.05327586,0.009108569,-0.004335274,0.026882956,-0.08241874,-0.04701159,-0.014427185,0.074242555,0.051722847,-0.054956045,-0.072612725,0.053417694,-0.086681925,0.020395394,-0.0041414383,0.06665247,-0.045058846,-0.046850394,-0.078179605,-0.083618656,0.073351376,-0.04922809,0.05156201,0.011194485,0.05726524,-0.09316971,-0.09373272,-0.00095156,-0.042890362,-0.031378474,-0.037379876,0.01908326,-0.06148243,-0.017593008,-0.006713856,0.026254358,-0.08340211,0.036088344,-0.08434256,0.07402072,-0.06796064,-0.07803358,-0.057876825,-0.04738026,-0.03356073,0.0015103852,-0.034792054,-0.07442826,0.054889333,-0.0037099342,0.013394166,0.05471752,-0.057391174,0.03586516,-0.087463126,0.027220856,0.07614447,0.04674389,-0.061832648,-0.07042826,-0.023899619,-0.0006734413,0.060791083,0.06684474,-0.010012652,-0.0024484158,-0.086684525,-0.025007805,-0.05898218,0.07250904,0.013535568,-0.0072330143,-0.00981717,-0.0708695,0.04266194,0.017619867,0.068809316,-0.015364408,0.010622127,-0.035060275,-0.06511987,-0.07696372,0.06782777,0.03400397,0.06004161,0.033419564,0.02702068,-0.05527467,0.045252766,0.029176557,-0.0007113783,-0.079651214,-0.002133918,-0.04368174,0.04395028,-0.056494854,-0.0062778844,-0.046366084,0.0051815314,-0.07102491,0.058658604,0.017885974,-0.08171299,-0.016461056,-0.027530553,-0.06958163,0.012041017,-0.048955,-0.07205572,0.07466627,0.019603988,0.057529088,0.03025591,0.07192087,-0.039334133,-0.07041303,0.057794556,-0.050177656,-0.07402244,0.070021525,-0.047640346,-0.012728652,-0.013450837,0.013835247
-0.0049166237,0.10695766,-0.11801217,-0.026320191,0.039555434,-0.05960028,0.07106793,-0.067765035,-0.07872067,-0.032978915,0.03374324,-0.08228029,0.02073648,-0.059929203,-0.13459417,-0.009552943,0.0470216,0.08742264,0.08236155,0.083461985,0.09185468,-0.031737592,0.03739321,0.068547726,0.054337878,-0.019837061,0.05533144,-0.009388748,-0.061967157,0.037518714,-0.022323743,-0.06569575,0.08305603,0.102317385,0.082254566,0.07732186,0.08544399,0.05152217,-0.061873,0.08228413,0.052582037,0.004828657,-0.015124719,0.032978073,0.009612222,0.10624048,0.07264115,0.09040945,-0.016897881,-0.033366222,0.045079187,0.09613331,0.07651515,-0.0011118805,-0.0018151909,-0.065695055,-0.0017108002,0.08441543,-0.018231517,0.09633596,0.00542257,-0.08714004,-0.0055128275,-0.0607328,-0.0218857,0.10987539,0.118683554,0.0021814222,-0.08772742,-0.052775647,-0.046609003,0.0003531342,-0.10645735,-0.07000204,-0.113671154,-0.05170563,0.004013693,-0.11869009,-0.07250546,-0.07495291,-0.016106859,0.056689534,0.09006851,-0.067139804,-0.1087044,0.08663809,0.091301754,0.0277959,-0.052813247,0.021735823,-0.05260595,0.11801294,0.04546102,-0.13070561,0.095711574,0.009108303,0.107443415,0.023326652,-0.027414449,-0.030616486,0.1263365,0.14214595,0.044933826,-0.045731664,-0.006444503,-0.062148735,-0.011219755,-0.016676243,0.04548669,0.0662359,-0.048828706,-0.06838579,0.022651926,-0.045510616,0.108770914,-0.012070682,0.0052746413,0.04262269,-0.0558997,0.041698556,0.034074984,-0.07428707,0.09369581,0.0402317,0.023475248,0.08281674,-0.0024829428,0.07732914
-0.023382436,0.020695461,-0.04720457,-0.042313397,0.068854935,-0.02180807,0.059864197,0.01303233,-0.048336525,-0.084259704,0.045498185,0.02255379,0.030535053,0.037279427,-0.028699886,0.011125977,-0.047134288,-0.025045937,0.052346356,-0.029464565,0.02833598,-0.066740796,-0.024887076,-0.042782143,0.03225292,-0.037923552,-0.07051266,0.03376728,-0.08821892,0.07048899,-0.048985884,-0.06616834,-0.07623702,-0.021764165,0.019244634,-0.083008096,-0.063922875,-0.015477905,0.0013631409,-0.09041921,-0.076137304,0.00949947,0.057897463,0.028121678,-0.027368067,0.002760776,-0.088365965,-0.007972092,0.045670714,0.0067483047,0.072814666,-0.048501592,-0.026148804,-0.052738994,-0.055896398,-0.030259803,0.026754282,-0.0054560862,-0.057116006,0.07369849,-0.038867723,-0.08325775,-0.06010974,0.0320565,-0.08966052,0.023542304,-0.021171654,0.01754059,0.03189743,-0.060823474,-0.07304529,0.025398646,0.017763237,-0.07801205,0.069238886,0.03297719,-0.061409697,-0.016151052,0.06364016,0.009456298,-0.042853765,-0.030056499,-0.08785725,-0.060923427,0.08025502,0.06358776,0.080079444,0.011941464,0.059162084,0.06790974,0.047060385,-0.029178903,0.018076679,0.04399485,-0.027523316,0.0035738493,0.052822098,-0.05866624,-0.05628525,-0.051932514,-0.039991744,-0.059857357,-0.038207926,-0.048070714,0.015517163,0.06468199,0.07886661,0.0038626487,0.007114841,0.073306404,-0.06299578,-0.08341572,0.08316621,0.08646293,-0.014357482,-0.055300903,-0.026250815,-0.06646275,0.051071197,0.00937572,-0.04594492,-0.065652415,-0.0014636886,-0.04154505,0.02949128,-0.074060746,-0.07424685,-0.013384722
-0.032550763,-0.11524513,0.05925931,0.036538288,-0.033086143,0.13763063,0.09331137,0.108051375,0.06786825,0.105278775,0.056205496,-0.013827802,0.067556754,0.060798537,0.07945579,0.041366946,0.10606365,-0.02491074,-0.06875544,-0.079604805,0.025188524,0.11713226,0.10179225,0.0033894565,0.06874651,-0.021442581,-0.02917217,0.094720036,0.08676911,-0.12307357,-0.035523217,-0.056510814,0.113188125,0.036680665,0.06842418,0.051884856,-0.057119533,0.092582986,-0.043100033,0.002618675,0.021064537,-0.07401668,-0.032623567,-0.080774754,0.00063224573,0.06559139,0.055610463,-0.059248667,0.037611846,0.096059024,0.020199858,-0.08847128,-0.0290426,-0.033887625,-0.045533724,-0.039551932,-0.05568036,-0.02187432,-0.03396687,-0.073015176,-0.07554986,0.061614435,0.03780004,-0.061510816,0.12297511,0.05021672,-0.029718222,-0.007261526,0.059904706,0.0005416756,-0.0014814476,0.1291683,-0.005271718,0.08113449,-0.001948734,0.02856271,-0.036018245,0.0032688563,0.1385122,-0.048429113,-0.091679506,-0.09736563,0.019799089,0.06692417,0.069751576,-0.0071416614,-0.021867963,-0.010485194,0.10037887,-0.0071467976,-0.06702165,0.019477762,-0.06350372,0.10060335,-0.033422958,-0.047529243,0.02664789,0.032953907,-0.0044057705,0.039665002,0.08283705,-0.120618664,0.104149275,-0.06322728,-0.06256087,0.12572446,-0.0062879412,0.057557214,0.055359304,-0.068521425,-0.030209089,0.13014169,0.09904469,0.008741502,0.04335169,-0.035170104,-0.07335186,-0.13685745,-0.03268868,-0.020556895,0.07248064,0.03621331,0.0699238,0.07618257,-0.010443872,0.033301894,0.07121158,0.03220911
-0.066852674,-0.0089184325,0.025130544,-0.04984554,0.026382262,-0.04475784,0.087323405,0.071431585,-0.036086008,-0.032493006,-0.092260055,-0.057967808,-0.06315847,0.08662598,0.004383182,0.021392798,0.0054151686,-0.04224947,-0.03902115,0.041766465,0.0706505,-0.0038617393,-0.061546147,-0.048869047,-0.040211953,0.079213046,0.01852746,0.030033788,-0.029946111,-0.020555086,-0.005915557,-0.040919792,-0.043116648,-0.07909774,-0.040401943,0.0570882,0.026144316,0.04955465,-0.005385541,-0.050734848,0.034804378,0.043876845,-0.08835204,-0.044446964,-0.12459317,-0.055915534,0.04582163,-0.035175607,0.079676494,-0.06035123,0.09716611,-0.0683664,0.05163001,-0.028445054,0.010396292,-0.01970481,0.031634856,0.083903134,-0.023585185,0.025192361,-0.08395764,-0.02207144,-0.04929426,-0.069275804,-0.06199419,0.02899646,0.09054187,0.046467166,0.039433196,-0.011144977,-0.035769947,0.077653944,-0.03890895,0.04622577,0.09736958,-0.020633029,0.023498075,-0.045679394,-0.04749396,0.004187261,-0.02716136,-0.116918996,0.087638624,-0.101174854,0.036642652,0.04664412,0.04588208,0.04410484,0.008343442,0.05836004,-0.09614908,-0.052228242,-0.046517633,0.04798143,0.10404681,0.04864795,0.06407572,-0.014569196,-0.0011294164,0.03247627,0.057790622,-0.019535158,0.0746734,-0.0008771352,-0.06467926,-0.02274182,-0.022188097,0.082925566,-0.08802908,0.037561223,0.07908812,-0.08165827,-0.017096778,0.06600626,-0.1340433,-0.05709611,0.029995432,0.1416139,-0.09582438,0.033071492,0.0033860616,-0.09067517,0.0063760746,0.047297526,-0.06228598,0.10320172,-0.024064789,0.039150797
-0.0075662783,0.0711221,0.042022806,0.08452711,-0.025433842,-0.07041169,0.06736883,-0.017305862,-0.017978279,-0.024261368,-0.037606608,-0.030536769,-0.06602945,0.021517318,-0.023413675,0.020622086,0.07897866,0.0092492215,0.033471953,0.03243337,-0.0883718,-0.05839274,-0.013138623,0.06299817,-0.01665527,-0.12891278,-0.05274976,-0.016902478,0.06305476,0.04192919,-0.00941147,-0.015956676,-0.05047201,-0.094231166,-0.042861868,0.09321982,0.028003488,-0.02019748,0.0071883798,0.01604404,0.009790033,0.026209861,-0.06018022,-0.023732262,-0.072759755,0.085246086,-0.009224151,0.060882013,0.015069951,0.02896625,-0.02365871,-0.075656325,-0.0706111,-0.08200645,0.039295167,0.027477337,-0.048094008,0.028501213,0.03687686,0.06721045,-0.038604595,-0.01623164,-0.03854012,0.042390645,-0.017690677,-0.031741016,-0.05674091,0.04351347,-0.058308646,0.022703886,-0.05732833,0.015254978,-0.058795918,-0.025366055,-0.026748277,0.025998803,0.07485627,-0.0067057665,-0.049845412,0.09933248,0.05723045,0.020468242,-0.026945906,0.021471124,-0.04284201,-0.089382015,0.09179391,-0.06341395,-0.037702996,-0.09032324,0.0987002,-0.027354104,-0.048771743,0.055627055,0.06863215,-0.070230946,-0.094412535,-0.041231845,0.007671786,0.03251836,0.06282133,0.062047876,-0.04354754,-0.08678069,0.003707464,0.031376112,-0.062192567,0.059507187,0.041667026,-0.0152280945,-0.042442326,-0.053398665,0.055727165,-0.12373965,0.03325475,0.027649134,-0.050539058,0.07906898,-0.012079639,0.005305132,0.077906564,0.03720085,-0.010413979,-0.058699824,-0.029981464,-0.036178946,0.04848484,0.027303206
-0.023825245,0.022148874,0.0819846,0.0056528626,-0.03606726,-0.0749243,-0.03542858,-0.08978641,0.07987018,0.02847425,0.011285944,-0.08844372,-0.08567473,-0.016955545,0.04717244,0.054429103,-0.06374476,0.035358958,-0.06320835,0.024806328,-0.03596498,0.044662748,0.024252916,0.037812512,0.07572043,-0.033909034,0.011140781,-0.07248839,0.035762887,-0.08445791,-0.005339871,-0.017575786,-0.034230124,0.03691811,-0.08533275,0.02120845,0.07339771,-0.007444193,0.024718855,-0.08831499,-0.032777283,-0.014101932,-0.07331837,-0.07826421,0.01713388,-0.082219705,-0.049586933,0.021861205,0.069608666,-0.085234836,-0.077405594,-0.06371036,0.056221165,-0.009839835,-0.044078317,-0.030217929,0.0675853,0.068515524,0.07760362,0.050531413,-0.089508325,0.02940635,0.026551416,0.002462742,0.06604914,0.06648875,0.080005735,-0.04651398,-0.05471014,-0.035008468,0.009042887,-0.08253756,-0.027679881,-0.035185225,0.028727518,-0.03863125,-0.014151384,0.014012452,-0.059585538,0.03424227,-0.07180068,0.043323196,-0.030523874,-0.037583712,0.060829807,0.0108950315,-0.089604534,-0.011148751,-0.0059728213,0.079675645,-0.07235939,0.03244475,-0.07444894,-0.030809779,0.0066455184,-0.043847725,-0.07747716,0.021929,-0.04471949,0.00035177867,0.083105244,-0.08708946,-0.05969439,-0.0075116116,0.034260765,0.07659814,-0.034761243,0.07619616,-0.035922073,-0.029881345,-0.0548507,0.026898399,-0.06545214,-0.038322017,-0.05459238,0.007921258,0.07358177,0.055868585,-0.014686859,0.040697064,-0.0738138,-0.07982131,-0.060497582,-0.025596643,0.016085058,-0.06592694,0.023865052,0.04245135
-0.017448386,-0.084367014,-0.027118143,-0.063421264,-0.07190556,0.054281656,-0.05289053,-0.094020225,-0.035810072,0.048132006,-0.036764182,0.06704912,-0.017240454,-0.06901087,0.06189467,-0.066516675,-0.060562328,0.01116263,-0.032019187,0.027220467,0.07405648,0.046049427,-0.04811494,-0.10039815,-0.032507207,0.06215558,0.031286363,-0.071290344,0.065545484,0.032333747,-0.101646475,-0.03285325,-0.038036752,-0.034404375,-0.053835597,-0.02103784,-0.012261605,0.06357868,-0.06512303,-0.013009776,-0.05889199,0.00043425875,0.035061274,0.013720478,-0.075412154,-0.02249542,0.0018788346,0.030302402,0.064880066,-0.02797155,0.055156484,-0.08911938,0.01489688,-0.06380943,0.04055836,0.03928913,-0.076498605,-0.0061567,-0.008675167,0.029112445,0.040894523,-0.074680716,0.03580084,-0.033285182,-0.07157928,-0.06411241,0.031406827,-0.041196775,0.06312333,0.03268385,-0.0097292485,0.010145785,-0.023465097,-0.050476994,-0.054602686,-0.0014764117,-0.08198866,0.041527018,0.016240539,0.019167572,0.057352062,-0.04114584,0.039831147,0.05249849,-0.08731181,0.06143077,0.035245925,0.037062276,0.026344862,0.05462051,-0.045587894,-0.095394455,-0.09011992,-0.05888585,0.0731785,-0.05716375,-0.04805426,0.07075059,-0.006209906,-0.0073851235,0.0030634413,-0.0022047416,-0.06237207,-0.085228786,-0.03213521,-0.0073181703,-0.07736365,-0.09419941,0.010714584,0.07291515,-0.018640423,-0.0008902178,-0.055125114,-0.090503454,-0.04054008,-0.028567053,0.026748892,-0.08279877,-0.016837904,-0.065476745,-0.07355673,-0.08289802,0.0077218283,0.057880756,0.06656815,0.062446594,-0.062931225,0.04632582
-0.06966092,0.00378367,-0.075466864,-0.058648326,0.07896942,-0.011761887,0.055812027,-0.07289278,-0.023965035,-0.07416452,0.02844261,-0.07895381,0.042879067,0.00021113304,0.047884185,0.03240026,-0.007027717,-0.022467745,-0.010213752,-0.0023498875,0.05610568,0.016460204,-0.01412673,0.0060366183,-0.014987019,-0.016735228,-0.017813576,-0.057372954,0.061453562,-0.08661954,-0.026669951,-0.043762468,-0.008991576,-0.07716394,0.038630757,0.025789373,-0.008062597,0.033354547,-0.064458944,0.0020168235,-0.00651611,-0.016205491,-0.08601416,0.08473572,-0.05043619,0.05472407,-0.032657288,-0.019606583,-0.041076668,0.01405041,0.027709246,-0.07470349,-0.036799677,0.025917046,-0.0325227,-0.03063124,-0.0074872505,0.0118355155,-0.08417849,-0.056848146,0.07983609,-0.022585578,-0.04479588,-0.058110096,-0.028237842,-0.08565719,0.07918598,-0.08238152,0.039259125,0.012030133,0.010293707,0.011665334,0.049801167,0.0046211374,-0.089869566,0.0056981887,0.030409371,-0.061467677,-0.035974618,0.08159989,-0.029705768,-0.05995965,0.07046875,-0.062951826,0.075454354,0.027449938,0.013026083,0.00016976874,0.037993357,-0.044700347,0.06729899,-0.003183138,0.04010008,-0.028018378,0.049530253,-0.0261915,-0.0419649,0.03060381,0.03498156,-0.015837386,-0.08374996,0.040038016,-0.028736511,0.042894997,-0.012665699,-0.04913589,-0.08283608,0.037977383,-0.03571834,-0.061808456,0.011463754,-0.051999908,-0.0054739784,-0.020776335,-0.04143491,-0.07733306,-0.06497464,0.006661427,-0.017703572,0.0035591053,0.051031534,-0.005210657,0.026359057,-0.01296752,0.004326642,-0.0032071534,0.067556135,-0.0053324583
0.10848096,0.06886865,-0.012790065,0.07040682,-0.08687536,-0.09180367,-0.024035748,0.00034909678,-0.069644034,0.06072997,0.08215302,-0.043831006,0.0068635885,0.1104476,0.028471211,-0.06095677,0.03832243,0.0105046425,-0.009306755,-0.039102875,0.08737351,-0.013831647,0.08244718,-0.06743277,0.055118088,0.08502848,0.07802252,-0.023304837,0.031155432,-0.037710343,0.06798559,-0.06083854,0.039165657,-0.04621688,0.09246781,-0.0640439,0.07436238,-0.0071346974,0.047776554,-0.096305855,0.034973852,0.023057163,0.08962262,0.0760801,0.014299321,0.020100197,-0.017195009,0.06416891,0.060784336,0.039066713,-0.10100858,-0.034318864,0.053678863,-0.0411089,-0.019075911,-0.0025040333,-0.042252358,-0.08545888,0.016591664,-0.0324689,0.0063303146,-0.07085521,0.08740132,-0.07033716,0.035305627,0.036311854,0.10122316,-0.05356385,-0.06711598,0.014509145,-0.00051940547,0.022574326,-0.014491928,0.08738677,0.05034028,0.14018099,0.05784594,0.047166392,0.024122521,-0.040561125,-0.04657563,-0.08673355,-0.031718463,0.042205457,-0.048319645,-0.0855805,0.06610496,-0.053034347,0.088890634,0.027253706,-0.012972497,-0.082922496,0.008204516,0.07078326,0.02442955,0.045878477,-0.07837054,0.09115701,-0.1008781,0.122950844,-0.00053102477,-0.059016645,-0.034149725,0.014851742,0.060891334,0.053011317,-0.019302186,0.057471298,0.09960906,-0.08441596,-0.04543342,0.04040008,-0.06758626,0.113178186,-0.040602837,0.028768498,-0.014641216,-0.010872225,-0.11384004,0.04009219,0.010074044,-0.04884275,-0.061746646,0.098435864,0.032637317,0.017246382,0.044520274,-0.029016057
-0.101976186,-0.043056168,-0.02394824,0.08667871,0.061010577,-0.081655614,-0.012413859,0.037147127,0.06741279,-0.025865017,0.0014765775,-0.04652132,-0.003913744,0.017750286,0.12282383,-0.06391891,0.03535362,-0.103807904,-0.07484287,0.05303295,0.0494318,0.04956654,-0.014373917,0.060037773,-0.08628013,0.13382499,0.093087725,-0.0039094533,-0.020594906,0.11817565,-0.07010767,0.019010277,0.013426671,0.07638961,0.028365912,0.061449815,0.01950732,-0.03819064,0.031998638,-0.023289697,-0.056032922,-0.08209058,-0.0043133767,0.044253536,0.056358445,0.06530321,-0.08654267,-0.06352831,-0.05137807,0.05604313,0.024652118,0.05421801,0.00088502304,-0.055888362,-0.06096721,0.026137486,-0.024203755,-0.01151242,0.15474805,-0.07992176,0.0424019,0.07101823,-0.044027045,-0.010122985,-0.006224318,0.010286774,-0.050444882,0.012745211,-0.031165767,-0.043896973,-0.0903383,0.012806549,-0.042940214,-0.030118907,-0.064669535,-0.029965857,-0.01998123,0.024707269,0.03145338,0.00717714,-0.063226715,-0.044039648,0.042358477,0.025714817,0.002560483,-0.009920872,-0.083202004,0.03929978,-0.07995849,0.05328541,0.04189678,0.07151164,0.12721227,-0.0045649866,0.037447322,0.00061559136,0.040794708,-0.015886705,-0.012868583,-0.06961495,0.014483148,0.014554358,0.07147417,-0.00217969,0.032958116,0.08822795,-0.003060441,-0.10489333,0.10038841,0.10698109,-0.007749296,-0.030799067,0.06338234,-0.02453952,0.0661922,0.020697411,0.06485932,-0.10305473,-0.07473256,-0.0068074167,0.017967626,0.0033617998,0.03353867,-0.06536946,-0.08171383,-0.08146304,0.024162455,-0.033739034
-0.048018347,0.030440057,0.033198133,0.02966852,-0.020414947,0.10679753,0.11943852,-0.0033993935,0.065535694,0.02586754,0.07471762,0.117598675,0.07584758,-0.06179087,0.032190204,-0.08557238,0.064726934,-0.042365484,0.006137178,0.051731344,-0.025249192,0.041001227,0.0073974472,0.045784943,-0.007423358,0.015688244,-0.06591949,0.07492319,0.058377266,0.096757986,-0.036193527,0.04134758,0.02211387,-0.010315013,-0.068684965,0.07291288,0.017665636,-0.08424708,0.053270094,0.06935537,-0.07674608,-0.10015565,-0.0535055,0.08334416,-0.10945287,-0.058120336,-0.032717813,0.072963096,0.06089945,0.056797028,-0.037948795,0.0070500653,-0.010578074,0.030580383,-0.010904906,0.026208814,-0.074138544,0.02927487,-0.055686463,-0.018892929,0.11972244,-0.089306034,-0.061982095,-0.07382035,-0.04202506,0.051252604,0.006541767,0.07944578,-0.04958513,0.09456285,0.09754719,0.011379732,0.0330142,-0.03724367,-0.025381472,0.0142419,-0.014168996,0.095330715,0.0020881067,0.023181992,0.024984583,-0.013347337,-0.013509431,-0.061096355,0.08541933,0.0058719674,0.058234196,-0.08497324,0.055179615,0.048734292,0.07838703,-0.0057497285,0.046296824,-0.08164716,-0.033032503,0.117372185,-0.045703962,-0.008540824,-0.004642684,-0.07647745,-0.10634643,-0.060155712,-0.06417577,0.032321192,0.010419274,0.082195126,0.07174026,-0.002035644,0.010623056,-0.0041584685,-0.05368735,-0.077657916,0.0100334715,-0.12925836,0.0028690663,-0.05476104,0.037402,0.042204376,0.015883084,-0.0040490855,0.07079056,-0.06845131,-0.040021814,0.058762114,0.11053273,-0.0024183702,0.02392389,0.018677108
0.05293572,-0.061214823,0.015621871,-0.07161324,-0.07700907,0.07244316,-0.0332613,0.022855971,0.031372238,0.058029775,0.09180887,-0.13258888,0.08842851,0.04197191,0.10452264,-0.015658032,-0.11136127,-0.012570554,-0.019447397,0.07674842,0.10232146,-0.029576357,-0.09117376,-0.056329504,-0.0363955,0.0209676,0.07068126,0.071564086,0.09318728,-0.05718329,0.08969849,-0.04304532,-0.06404784,-0.0909849,0.15250464,-0.021331657,-0.08267808,0.09905133,0.04143458,-0.114433624,0.004506782,0.033234537,0.13564153,-0.1041569,-0.0010562508,-0.04763892,0.063584216,0.046643768,0.048800983,0.0044880663,-0.05500614,0.021319047,0.048036844,0.07610682,0.0034956653,0.081639074,-0.03063481,-0.029785091,0.084810786,0.00303017,0.03405123,-0.011113738,0.06662717,-0.05842125,0.017902434,-0.08377236,0.04435217,0.11360627,0.044677462,-0.044931225,-0.08518598,0.09823553,0.06401653,0.11953725,-0.032744933,-0.084946856,0.09456963,-0.06714697,-0.08684237,0.11723174,0.07036961,0.026638933,-0.032860093,-0.04044836,0.084962495,-0.008264768,-0.08390142,0.11347544,0.019443879,-0.02508697,-0.06246226,0.069454715,-0.031935327,-0.046583727,-0.09803663,0.027771574,-0.06316066,0.07968869,-0.07661488,-0.009211483,0.13314623,0.05542105,-0.07533235,0.03455514,-0.039668735,0.093190864,-0.012987317,0.04379025,-0.042466696,-0.039573006,-0.014598949,0.0096696485,-0.091320254,0.060330085,0.049604252,-0.040044118,0.0416866,0.030891228,0.06249576,0.037200578,-0.009253169,-0.055336125,0.023228703,0.0013401798,-0.10422587,0.107918516,-0.012999425,0.0921135
0.09020466,0.08418496,0.15114005,0.087970965,0.0029859927,0.08960013,0.07382829,-0.036494114,0.00812985,0.0075346697,0.05159848,0.05983147,0.010578232,0.032250185,0.045979418,-0.06789509,0.028483624,-0.11935164,-0.025230188,0.05135927,0.06270087,0.03336238,0.0318988,-0.019052932,-0.0466528,0.033074565,0.0798291,0.08560413,-0.01820857,0.1261811,-0.08864808,0.1461914,0.039048493,-0.028552076,0.07835083,0.015529793,0.07574016,0.045368742,-0.016727366,0.02013714,-0.0012051556,0.036336083,-0.04725831,0.064014405,-0.036039066,0.056906227,-0.099177815,0.078048766,0.11960105,0.10338274,-0.018724322,-0.05161231,0.106136054,0.12238682,0.0075424295,0.067621715,-0.05544798,-0.021747665,0.043513734,-0.023358334,0.0047842986,-0.043834545,-0.04379187,0.051002424,0.07750441,0.067361906,-0.003748708,-0.07791802,0.06884864,0.022495516,-0.066253684,0.04280093,0.08964635,-0.029422138,-0.019066999,-0.052364033,0.04694999,0.05392274,0.03949536,-0.035235744,0.08564701,-0.016474541,-0.024396822,-0.061827164,0.1253187,0.03354166,-0.040286988,-0.06430121,-0.040492527,-0.12206187,-0.007201147,0.03208522,0.01720933,-0.002768839,-0.004528928,0.063485645,-0.07718931,-0.06496179,0.11316526,-0.058566146,0.05448179,0.07932332,-0.040282175,0.012876177,-0.029398637,-0.016221045,-0.011754552,-0.07881931,0.023938118,0.08482334,-0.07208753,0.07910052,0.033182945,-0.03695232,-0.010659171,0.06317777,0.07320181,-0.07956366,0.07604865,-0.019416442,0.13765614,0.025039732,0.047072303,0.027185284,-0.038866404,-0.101323575,0.08792546,-0.04903155
-0.09287719,-0.007729144,-0.029246617,0.09682226,-0.059340924,-0.09207013,0.0499914,0.12649468,-0.0017886146,0.06119683,-0.08022516,0.05703017,0.05038312,-0.021218851,-0.008697611,-0.049131453,0.05574555,-0.08454144,-0.039198093,-0.03760033,0.047065634,0.080343165,0.118015,-0.019521644,0.07877039,-0.027095336,0.08327894,0.029856581,0.08880134,-0.008217128,-0.050908435,0.027403478,0.013455487,-0.046313953,0.024183454,0.010926751,0.103833325,0.05709064,0.12384623,0.09234382,-0.06564536,0.07091247,-0.07964889,0.00896262,0.08269869,-0.057352223,0.05456458,-0.046839375,0.11113599,-0.046750583,0.00590596,0.058345813,0.09015241,-0.07766659,0.054395586,-0.08138779,-0.019271905,0.08180475,-0.059535626,-0.06503981,0.008473945,-0.022831274,0.0740281,-0.0853027,-0.07285933,0.046662375,-0.009192592,0.035689425,-0.042106964,-0.07051051,0.10151964,0.0012168096,0.10801744,-0.0826637,0.07972868,-0.10105097,0.07542352,-0.0053446074,0.02339754,-0.06699341,-0.008893793,-0.02160001,0.08536777,0.0035525174,0.09527783,-0.039880935,0.029488154,-0.028802788,-0.07611861,0.100165926,0.1034834,0.049561705,-0.02828594,-0.0015080235,-0.031619996,-0.045918807,-0.02962457,-0.034243017,-0.027829453,-0.12930982,-0.071017854,-0.13264214,0.101201385,0.0022862698,0.15310062,-0.08849191,-0.014345808,0.0071496135,-0.084183626,-0.0043240013,-0.004445968,-0.051074952,0.07024852,-0.05569585,-0.14925276,-0.02843386,0.10172503,0.030132227,0.031380143,0.09047847,-0.10008968,-0.040420227,-0.08439623,0.02121023,0.10165342,0.07570733,-0.08417846,-0.060285844
0.021776127,-0.04192899,-0.1151118,-0.017143594,-0.06492759,-0.0002935199,0.043434884,0.062109996,0.011988793,-0.047461364,-0.009772378,0.100321166,-0.06704838,0.0915865,-0.02476598,-0.037929993,-0.056258198,0.031022565,0.011195047,0.08788827,-0.078480005,0.08423278,-0.085225925,0.0643586,-0.053199694,-0.08621705,-0.015115433,0.08894958,-0.07804068,0.1064827,0.0117077045,0.07468029,-0.04352616,0.04065834,-0.008760312,0.058290623,-0.05525408,-0.06812832,0.09800687,0.108786784,0.069111414,0.100974046,0.077857874,-0.018559434,-0.08942009,0.05440015,-0.110396385,0.030694209,-0.05860067,0.068043076,0.030151384,-0.05250715,0.053639278,-0.011846139,-0.10368881,0.13049102,0.074617326,0.08210225,0.13919635,-0.016960213,-0.08378479,-0.05955393,-0.057578944,0.054025825,0.044059772,0.006582866,-0.056189,0.0015762588,0.057136882,0.025284758,-0.006199926,-0.086770564,-0.08113902,0.032677986,0.020240743,0.008289743,-0.018838821,-0.049627125,0.023425734,0.12721443,-0.03193408,-0.034670103,0.116045274,0.065423846,-0.058876142,-0.03841571,-0.009082682,0.06282726,0.010303921,0.0501409,0.062125545,0.07361985,0.06398787,-0.06133225,0.10393863,0.03288861,-0.026936296,0.039142147,0.03287983,-0.0388432,0.0623756,-0.011312382,0.0128747765,0.0145866815,-0.06818176,-0.020385085,0.0065024653,0.10135964,0.04024981,0.0019484209,0.008093119,-0.0031136957,0.11013797,-0.046984065,-0.04848575,0.087550096,-0.06103082,0.0146547565,-0.024669213,0.029011182,0.08563993,0.07127111,-0.03958875,0.03638627,0.056447685,-0.11317131,0.05010932,-0.037406325
0.04238126,0.08038648,0.05078501,-0.039516397,-0.011542134,-0.11253221,-0.08282031,0.03812361,-0.08389278,-0.06368927,0.025568703,-0.08078166,0.017960979,-0.081661664,0.053559653,0.057457414,-0.08838702,0.14550488,-0.039303858,-0.056654893,0.052634504,-0.051205166,-0.019518387,-0.04901936,0.0671784,-0.036416546,0.033872537,0.045832872,0.02186587,0.024439871,0.04243612,0.09806692,-0.086684294,-0.006075106,0.028218808,0.011971902,-0.01940669,-0.007742246,-0.03857646,-0.07095187,0.058945436,0.040411588,0.12231208,0.0494926,0.054300066,0.04698992,0.03867295,0.052849818,-0.0422839,-0.032452047,-0.0806516,0.023591826,0.037826017,0.11400178,0.055604685,-0.0081360815,-0.088093825,-0.09831994,-0.09804473,-0.0043785125,0.0058875745,-0.038216583,0.009237285,-0.0835887,0.04224873,0.10745181,0.02991506,-0.020862965,0.02961702,0.069734335,-0.005461938,-0.016106008,-0.05134489,-0.011915873,0.08225575,-0.0677078,0.0857962,0.0044186823,0.08724216,0.027511464,0.06770548,0.032873828,0.048517182,-0.07913749,0.0725707,0.046675052,0.082107484,0.08887094,-0.1098036,0.04509602,0.0111009935,-0.08770302,-0.007905447,0.016154744,0.036074694,0.020160785,0.0064978153,-0.07342363,-0.032514945,0.0067843758,0.008519222,-0.03788701,-0.011151359,0.04520578,0.06449243,0.04688107,-0.034779113,0.08074474,-0.04230728,-0.017072257,0.037154824,-0.047871552,-0.03572633,0.08898552,0.14045335,-0.04849057,-0.06561237,0.09140122,-0.02747009,-0.008066033,0.0067637893,0.08274308,0.05363229,0.05000005,-0.09582889,-0.04465569,0.033476308,0.10431792
-0.0095464345,-0.038963992,0.013962078,0.07613543,-0.06362936,0.07003721,-0.033688597,-0.023037905,-0.012157085,0.058737,-0.032198194,-0.09297845,-0.05221102,0.058090612,0.0036262043,0.015486642,-0.03779874,-0.06828142,0.050694354,-0.07306432,0.061620057,-0.07858102,0.010176936,-0.054846346,0.043347213,0.08605669,0.021990424,0.06357466,0.01714053,-0.09787965,0.0136409905,-0.0010566263,0.067234434,-0.053032134,0.0858266,-0.013890829,0.0371919,0.058874473,0.044935115,-0.0012077037,-0.066792384,0.016168032,0.026836688,0.059619684,0.08598412,-0.039748665,0.009589589,0.026755337,0.09637716,-0.028606433,-0.06358204,0.073649295,-0.0601161,0.009130912,-0.036695715,-0.077628665,0.0048532938,0.09931564,-0.05655939,-0.02706198,-0.06558978,-0.021275183,-0.071515694,0.0072213295,0.041513734,-0.08604586,0.006211396,-0.009418958,0.05662484,-0.045309134,-0.0039803525,0.06677771,-0.08452014,-0.10226413,-0.030198704,0.05130608,-0.0055279643,-0.107256144,0.007870715,-0.022256326,0.05665871,-0.04158148,0.0030483706,0.07797695,-0.08539873,-0.08258639,-0.06360657,-0.06669724,0.046125162,0.040166747,-0.0069023846,-0.015980545,0.028839862,-0.10003029,0.02856305,-0.09154541,-0.043950103,0.0702802,-0.1001399,0.032024562,0.019197192,-0.045403738,-0.038306035,0.042436656,-0.13301413,0.0069449875,-0.07627641,-0.015184526,-0.07835842,0.040986765,0.016253216,-0.051250305,0.047500134,0.06702702,0.057053093,-0.018559359,-0.05646543,0.0045465026,0.058015894,0.090679385,0.014049667,0.08887207,-0.018496674,-0.0011178125,-0.022794578,0.06594581,-0.09010261,0.046667073
-0.046450544,0.045448057,0.047201797,-0.03600706,-0.008136094,0.06700848,0.042567343,0.0015027282,0.018858675,0.039833866,0.02177111,-0.051501874,0.06871795,-0.07098994,-0.04540275,-0.08395649,-0.051491123,-0.090665065,0.07098563,0.04853562,0.008175768,-0.09417849,-0.0033522046,-0.04025823,-0.06396872,0.032437235,0.016533341,0.059185695,0.054230466,-0.06754187,-0.025731748,0.03219475,-0.023142345,0.02506923,-0.009241278,-0.05731759,-0.0903956,0.0200372,0.040465098,-0.062403098,-0.03344911,-0.0078281555,-0.026147947,0.011917004,0.034622207,-0.033674967,0.017523585,0.07461751,0.019711677,0.07785416,0.028225059,-0.010635683,-0.0895413,0.070254,-0.0956425,-0.07881529,-0.020109976,-0.07294148,0.0038591553,-0.06474531,-0.024349447,-0.020249369,0.07534527,0.053027283,-0.07688408,-0.08330901,0.03019358,-0.09659635,0.03105775,-0.054316908,-0.033343285,-0.09554972,-0.069692284,0.062039625,0.057810802,-0.06814806,-0.078614436,0.01284834,-0.06301101,0.058727194,-0.08605274,-0.060237378,-0.09669669,-0.08434091,0.039211567,0.07282277,0.0014931537,-0.07547792,-0.049816027,-0.028346313,0.07007767,-0.09206232,0.01995827,0.008509892,0.04189963,0.065203436,-0.029133802,-0.02430837,0.030059153,-0.053922,0.039759632,-0.008141201,0.015174234,0.06166407,0.06681277,0.01715388,-0.074429296,0.002032881,-0.03876019,0.046944823,0.0064014425,-0.05986813,-0.030824816,0.02579653,0.07929974,0.07607478,0.03536092,-0.059316944,0.032177962,-0.0136103695,0.0061063054,0.005011126,-0.011172519,0.0016507992,-0.009064828,0.07679914,0.020570826,-0.055520885
0.037296534,0.11435639,0.020148817,0.103139795,0.018944114,-0.064130515,-0.010930319,-0.053337544,0.111800335,0.007702394,0.10160091,0.08495593,-0.025226073,0.0041704522,0.13373525,-0.025614176,-0.03389925,-0.0714088,0.03782661,0.014874914,0.008985909,-0.067192465,0.046505194,0.03178665,0.039356116,0.07628382,-0.04754638,-0.05091825,0.090415776,0.064742774,0.029473346,-0.09212004,0.09182648,-0.022205587,-0.1155044,-0.04627574,0.10640993,0.0047324803,0.064499676,-0.020734292,0.09213967,0.053227216,-0.017058222,0.027386434,0.08771252,0.02756805,-0.05303492,0.07962987,-0.0022609588,0.0742972,0.062364887,0.050262284,-0.027465055,-0.09011903,-0.10079449,-0.041350838,0.04561184,-0.058268353,0.010766786,0.04375971,-0.0291893,0.040291715,-0.07997054,0.08597016,-0.06070339,-0.049895726,0.0033221645,0.09068791,-0.05011242,-0.01605915,0.004641188,-0.034339823,0.027759375,0.114540875,-0.027950728,-0.03672373,-0.06425196,0.08961578,-0.07338865,0.035413828,0.007405053,0.042312186,-0.015461739,-0.03993137,-0.014574425,-0.086587444,0.055602454,0.018836949,-0.035058998,0.0571601,0.08176389,0.079468444,-0.07916472,-0.039955474,0.14140543,0.08495264,0.00814495,-0.035765953,-0.031026866,0.07515306,0.018983157,-0.05567181,0.08947996,-0.051421884,-0.016512334,-0.02544771,0.023537537,-0.0765528,-0.05435852,0.04925956,0.08178132,-0.0643551,-0.019830864,0.071480535,-0.021602208,-0.043383893,0.11923888,0.030865824,0.02499649,-0.064367875,-0.049702838,0.017883005,0.008476925,0.026397528,-0.070451714,0.13320933,-0.08453724,-0.023557844
-0.108815424,-0.0275396,0.020935344,0.029353589,-0.06795849,-8.6171174e-05,0.048532832,0.03811326,-0.004932733,0.028812813,0.054306537,0.075542785,0.08742405,0.009232359,-0.14602491,0.065046236,0.05371846,0.033754833,0.01769338,0.049028452,0.062617294,0.10671221,-0.04140211,-0.08966417,-0.0050287554,-0.037108585,-0.027472345,0.0845694,0.015493767,-0.036010843,-0.0007833918,-0.063245535,-0.037589006,-0.0022644969,0.024728805,-0.02214327,0.005455853,-0.07951231,0.10085173,-0.0748412,-0.036268443,0.03756109,0.07015396,0.06938294,0.014210127,0.03074352,-0.069415666,-0.025021633,-0.10165879,-0.07318483,0.15813689,-0.010197878,0.08042325,-0.017834904,-0.08817107,0.050292864,-0.06090601,0.09999968,-0.012015833,0.0031552266,0.023568286,-0.0035074325,0.004282245,-0.1098134,0.09752227,0.05457365,-0.13324217,-0.07122993,0.006371174,-0.005882342,0.033212632,0.07392992,-0.03151396,-0.10733527,0.11598971,-0.15336657,-0.05152912,0.03860869,0.0880744,-0.10673827,-0.04357471,0.07075474,0.03351616,-0.054467946,-0.013359211,-0.011438784,-0.025764419,-0.04940589,-0.11666763,-0.04723436,-0.025228694,0.055844747,-0.05123959,0.09957915,0.0318407,-0.054687053,-0.016277764,-0.12298466,0.041140255,-0.07308647,-0.1257459,-0.08762851,0.05788813,-0.07085231,-0.030658871,-0.014594894,-0.05251247,0.040491913,-0.074198015,0.021183949,0.02954643,0.0021932216,-0.03243339,-0.020652745,0.057171915,0.0012728947,-0.082809195,0.08156636,0.012695632,0.074990004,0.05194159,-0.029391635,-0.1295154,0.05450177,0.1211099,0.07702801,0.02694985,-0.011151558
-0.04203741,0.018069131,-0.05016975,0.011417058,-0.056918614,0.014811423,0.003981308,0.069381125,0.06394978,0.06768396,-0.05642594,-0.024881788,-0.048868306,0.01849163,0.011571291,0.020126624,0.04935355,0.027156433,-0.056130875,0.09102004,-0.09118612,0.0042390646,0.061188217,-0.045593485,-0.07470576,0.013110398,0.04280103,-0.019365525,0.105674624,-0.07162527,-0.046518624,-0.061031174,0.07220304,0.034357168,-0.08950196,-0.02520628,0.11008019,0.07783595,0.02588777,0.044045843,0.01723899,0.08894754,0.05609083,-0.035321597,-0.007868502,0.084143505,0.014147086,0.050360963,-0.0037471135,0.07201711,-0.028040709,0.061073158,-0.05337688,-0.05025426,-0.08775686,0.041604403,0.05367101,-0.014809467,0.023202984,-0.05366437,-0.02138406,-0.08836721,0.051153712,0.0059999432,-0.046437696,0.023288794,0.03964048,-0.030578831,-0.052843954,0.027298227,-0.022509437,0.09634773,-0.03893883,0.104668416,0.05051945,-0.026172377,-0.012733835,0.07573501,0.03702191,-0.014330985,0.009876338,-0.058187403,0.063402295,0.048045333,0.052979913,-0.051692374,0.041826166,-0.06250555,-0.03884379,0.0044324505,0.08071566,0.041484047,0.026273686,-0.020885944,0.059421465,0.027306564,0.08732469,0.04468799,0.066186205,-0.05701813,-0.031600125,-0.10841275,0.04660704,-0.027043737,-0.070783526,0.09944836,0.09414929,0.0161925,0.091935895,0.12718284,0.07584085,-0.0068689957,-0.033927277,-0.05210388,-0.05479096,0.023017913,0.01910668,-0.12321358,0.16532446,-0.028059304,0.011810917,0.005341389,-0.05945187,-0.025329014,0.043070905,0.0644688,0.0067786197,-0.07971246
-0.0070571247,0.010668395,0.116503604,0.08879109,-0.04449542,0.06576722,0.0074570277,0.02700219,0.073741116,-0.02867103,0.078831844,0.048659004,0.045680508,0.06607601,0.16284692,0.041012134,0.0852638,-0.0013261986,0.034403026,0.06275867,-0.041416805,-0.015321108,-0.07399595,0.044294085,-0.11790952,-0.10680306,-0.0042020003,0.09369982,0.07594008,0.15504482,0.02565234,0.14601968,-0.014050044,-0.109985,-0.03803618,-0.057012092,-0.08779363,-0.038527094,0.004665531,0.00091704197,0.074003614,0.110962965,0.08049617,0.040467553,-0.050215192,-0.0029300218,-0.0058740843,-0.047645923,-0.0573497,-0.008684715,0.038038064,0.048807055,-0.06670297,0.026972614,0.07802749,0.05749887,-0.025739128,0.056689627,0.013039042,0.033717945,-0.061271645,-0.059939936,0.07013769,0.13819647,0.121207595,0.10186648,-0.069843926,0.006681616,-0.063718684,-0.05652974,0.044848077,0.05457009,0.08197018,-0.08169498,0.13558353,0.07861175,-0.014563156,0.06503093,0.028206283,0.14471282,0.058629896,0.06805161,-0.033016246,0.0014960475,0.067650706,-0.033023298,-0.016329806,0.026417458,0.10834112,-0.020113232,0.07653436,0.08132927,0.023299295,0.055408686,-0.00055028056,0.026277214,-0.06391541,0.07253041,0.06521919,-0.08040556,-0.057712737,0.13739744,-0.00056862197,0.017568665,0.09870236,-0.113956876,-0.07875464,0.01760932,0.05816163,0.1081786,-0.019300815,0.11823211,-0.020563774,-0.17799543,-0.06256243,-0.04557688,-0.0063303937,-0.058188517,-0.059281606,0.0416102,0.0013540753,-0.01348351,-0.061531983,-0.08488649,-0.018333618,0.010104861,0.077703975,0.08007461
0.07256904,0.033419617,0.046338357,0.038713064,-0.048071492,0.09369499,0.046206735,0.045198962,-0.05919618,0.02074382,0.047904592,-0.04401128,-0.05349271,-0.029624293,-0.060149517,-0.031250775,-0.04656868,-0.034308713,0.0780584,-0.061875418,-0.05486627,0.018387176,-0.054456096,0.06913148,-0.04334153,0.00044978043,-0.0029570584,-0.039091226,-0.044645034,0.09437722,-0.02172517,-0.045566835,0.038721863,-0.08519684,0.09960645,0.05325232,-0.055758525,0.059938602,-0.054488912,0.012213043,-0.05011478,-0.013570688,0.103050105,0.09210001,0.1102418,-0.05231249,-0.042292442,-0.06414157,0.017700529,-0.06589751,0.065228544,-0.08993625,-0.08013896,0.023832643,0.11848762,0.041343704,0.056266144,-0.044016946,-0.0146519635,-0.045799125,-0.026804887,0.06869048,-0.07183757,0.068593785,0.017643152,0.019944426,0.0034545206,-0.018593743,0.009862617,0.023539059,0.0006646731,0.03558963,0.044629674,-0.018978413,0.11032022,0.062381674,-0.099476986,0.05710769,0.052897286,-0.061988894,0.03121158,0.034636997,-0.011745214,-0.04992518,-0.07103097,0.062431928,0.0075935414,0.033637863,0.0500685,-0.07143942,0.03789093,0.05387934,0.0007434953,0.094891354,-0.06608651,-0.059330776,-0.0818514,0.051831625,0.07536455,0.062017642,-0.096804656,0.023711776,-0.09698436,-0.062875874,-0.09717973,0.029771497,-0.03264196,-0.07645212,0.03249674,-0.042592555,0.024864621,-0.056152873,-0.05551783,0.016043276,0.04901951,0.06319432,-0.121696405,-0.01966172,0.012729607,-0.026189845,0.022920221,-0.023369845,0.03673054,-0.07038255,0.09820923,-0.055139244,0.023304857,0.12223161
0.061547026,-0.10943622,-0.06938143,-0.1155276,0.04323075,-0.015946127,0.02199055,0.08272006,0.01079015,0.053577874,0.0061549884,-0.07611773,0.031188872,0.040704254,0.12141667,-0.072647184,-0.11245846,0.024093073,0.016474772,-0.09721121,-0.06913508,0.10906008,-0.07150623,0.048678987,-0.053133734,0.07327333,0.029520763,-0.095082924,0.0765542,-0.1302047,-0.012072398,-0.06172208,-0.084672436,0.020080786,-0.07659226,-0.0043194364,0.07333701,-0.013643707,0.02940745,-0.009593305,0.049980607,0.105541915,0.046948235,-0.06296033,-0.03427903,0.07027155,0.008253621,0.099810734,-0.13251637,-0.067298524,-0.07797131,0.024874112,-0.06447294,-0.0029314598,-0.081995726,-0.027661553,-0.013985879,-0.025853308,-0.03759021,0.07188163,0.019379089,-0.0032902574,0.07180007,-0.047028676,0.025243483,0.00548482,0.035421375,0.081940144,0.034895025,0.061536994,0.08294237,0.033774626,-0.04542219,0.099104874,0.059336454,-0.0010017537,-0.0676276,0.0022001846,0.054634597,0.04456698,-0.018048998,-0.09331931,0.10380503,0.09013343,0.00085818616,-0.0031797318,-0.068570875,0.0632355,-0.04201359,0.11943415,0.079141185,4.0811414e-05,-0.026365364,0.04048428,-0.044448856,-0.030966813,0.044622224,0.0854776,-0.005382124,0.04014055,-0.001947678,0.062464204,0.036616694,0.07890251,-0.08392468,-0.02052586,0.06789862,-0.018485256,0.104304135,-0.01166631,-0.0029199475,-0.010963578,-0.081353374,0.11239498,0.034191668,0.05638213,-0.045045488,0.083867274,-0.12079037,0.092977636,-0.058353532,0.014048114,-0.013784588,-0.019521333,0.012842915,0.090949506,-0.058847826,0.08542749
-0.054862976,-0.053146757,0.025119314,-0.063436545,-0.02265108,-0.0036312963,-0.040946484,0.02103267,0.0043305354,-0.09550581,-0.0066142255,-0.047470953,-0.08321257,0.029625533,0.029841227,-0.0011412428,-0.004199415,0.0061581363,0.06004798,0.049374335,0.1439224,-0.11563162,0.039830633,-0.06192162,0.031833276,0.024334496,-0.028023275,0.017931687,-0.053528376,-0.056474708,-0.07767601,-0.026269214,0.056170337,-0.010416722,0.113432415,-0.0808307,0.03337862,-0.06279373,-0.042412277,0.06474514,-0.05041943,0.062674746,-0.017592616,0.07468009,-0.098046646,0.013965536,0.05234963,0.075617135,0.12173635,0.044632673,-0.0007603207,-0.08716227,0.08184838,-0.083306484,0.06961726,-0.032749586,0.047117133,0.042970043,0.031739857,0.012747167,-0.021607095,-0.08650318,0.03270176,-0.018531991,-0.06706615,-0.08835083,-0.0005709684,0.0823745,0.052664343,0.047248516,0.07028669,0.0749355,0.02011717,-0.018135712,0.015991237,-0.03074864,-0.061788883,-0.052644104,-0.0903096,-0.014908431,-0.094168745,-0.026147192,0.041087378,0.041881405,0.04049496,0.07302133,0.029475579,0.058319855,-0.06930763,-0.01271248,-0.08762475,-0.043067537,-0.01274168,-0.10418019,0.042269,0.020202527,0.09501396,-0.07050709,0.107606195,0.07939437,0.104426116,-0.0112658655,-0.021309545,-0.09320324,0.049269866,0.09666193,-0.07289513,-0.03568936,-0.07922218,0.094834484,0.043468017,0.02431733,0.07147751,0.035596777,0.06968806,0.03274306,-0.06671206,0.09378397,0.1263015,-0.037722114,0.03931417,0.095647484,0.021353075,-0.07963672,0.0005103542,0.030996263,-0.06576492,0.0418111
0.0706482,-0.08409371,0.0750073,-0.0019673533,-0.007881505,0.007812353,0.08519786,0.10879338,0.11019293,0.059263777,0.104075566,0.09429648,0.0972508,0.058832835,-0.059294403,0.048722487,-0.0034251628,0.012157345,-4.00974e-05,0.010614669,-0.049868256,0.0791732,-0.021314878,-0.004301849,-0.027443817,0.024370762,0.016241398,-0.055764895,0.09513294,0.044532426,0.053291973,-0.025781417,0.06362505,-0.030657023,-0.03368861,0.04050803,-0.03121986,-0.03177853,0.025977537,0.011477184,0.073708706,-0.04025166,0.074246794,-0.09087273,-0.062614195,-0.011972843,0.05928883,-0.014044107,-0.054973226,0.07341833,-0.116951905,-0.07170893,0.017051334,0.014096325,0.008099663,0.110350214,0.078185715,-0.053921793,0.031433064,-0.057420954,-0.038677596,0.027247606,0.078849405,0.0024350863,0.048932213,-0.037276503,-0.062530115,-0.039165605,-0.05145206,-0.050767276,0.04531054,0.0062097446,0.033920396,0.090321094,0.09154607,0.09802805,0.031710025,0.019135814,-0.05858379,0.11637935,0.038821574,-0.06661716,0.09033666,0.078604676,-0.054336917,0.06295892,0.068730325,0.07542084,-0.07321176,0.074093804,0.10492538,-0.07861439,-0.088772506,0.055834685,-0.020614339,0.043864362,0.0430857,0.004648386,0.03939893,-0.11684997,-0.08661572,0.020317618,-0.041457906,0.06945893,-0.012465072,-0.1061897,0.037476227,-0.009058122,-0.009073605,-0.03541646,0.089494966,-0.054499734,0.018380353,-0.099327035,0.067842506,-0.07035883,0.0014424752,0.014141299,-0.057627343,0.022580981,0.022677286,-0.017427986,-0.08530256,-0.085559,0.10509294,-0.08223834,0.013533394,0.0009828196
-0.009978346,-0.022377804,0.01415333,0.060691632,-0.076076604,0.13539462,-0.011754864,0.05301676,-0.0067606447,0.06465891,-0.08836638,0.11919933,0.097156264,0.05563434,0.026739238,-0.014663252,-0.004552516,-0.08120377,-0.03046932,0.09997835,0.015589425,-0.037777387,0.015042324,0.12144801,-0.1034995,0.044040404,-0.07497545,-0.040487286,0.06460977,0.09128964,-0.04128176,0.1263133,0.01937182,0.041123267,0.0025133956,0.029215405,-0.025007574,-0.07302725,0.093545854,0.13234507,-0.045949645,0.029084457,-0.03968424,0.16740914,-0.017482506,-0.03194831,-0.06321415,0.05998662,-0.110326484,0.015020246,0.015349679,0.0097870575,0.0027300082,-0.06190993,-0.011305577,0.09397273,-0.009838229,-0.027167205,0.123516135,0.094230644,-0.073448665,-0.03252519,0.09270779,0.1399975,0.08744342,-0.046957657,0.09655088,-0.057861716,-0.02995734,-0.026860323,0.055698477,0.01496954,-0.04159585,0.038252626,0.018564677,-0.026045362,-0.08410941,-0.014249907,0.05009487,-0.032841217,0.08624571,0.07352123,0.09646347,0.09951077,0.12605852,-0.012303696,0.12337559,0.028792677,0.1414882,-0.04523369,0.08670863,0.03603634,0.08996677,0.06533114,0.051817473,-0.08691626,0.09117326,0.10609198,0.013780488,-0.04228037,0.0046351543,-0.06385713,0.034431268,0.05420254,0.0010518853,0.09871275,0.14198902,0.14052238,0.03071832,0.087431066,0.039894167,0.09922691,-0.05203504,0.09465166,-0.037748825,-0.06796342,-0.010110935,0.0076239128,-0.005710668,0.024118068,0.124175906,-0.01751538,-0.003155336,-0.03354237,0.045315206,-0.05235232,-0.003933375,-0.06825485
-0.086891375,0.036652856,0.01092386,-0.08081227,0.07824718,-0.07451625,-0.035861433,-0.06581833,-0.011970771,-0.07823429,-0.058469318,-0.014486421,-0.07190055,-0.053231392,0.07127904,-0.039145682,-0.09715937,-0.08898694,-0.083265,-0.009594277,0.053487334,-0.052147195,-0.01873185,0.070869304,-0.03758754,0.03711919,-0.0014599264,0.0037003378,0.0637897,-0.07725798,0.008395547,0.0971849,-0.009764647,0.041526407,-0.032155097,0.08941074,-0.034503773,0.02172462,0.043755837,-0.046497516,-0.010345043,0.0026957588,-0.01259122,-0.016731123,-0.016995128,-0.0105944825,-0.047622044,-0.064359106,-0.03991834,-0.022372186,-0.06790279,0.075065225,-0.0044552637,-0.03902954,-0.03588461,-0.03305522,-0.045281745,-0.029375944,-0.051856484,0.039670255,-0.072101094,0.0014498115,-0.09298167,-0.0361453,-0.04769722,0.087024316,0.035509918,-0.029265996,0.05329085,0.03839777,-0.07960263,-0.10211858,-0.07916281,0.007830956,-0.07349541,0.06656217,-0.04668904,0.018285574,0.024073998,0.013392098,0.02064866,0.053469438,-0.021231424,-0.021515654,-0.050875794,0.08452992,-0.06595036,-0.0513696,0.07128605,0.050461575,-0.038766146,0.056553885,0.03606226,-0.0149547625,0.061845712,0.052062202,0.025032356,0.0057466296,0.05008321,0.008814532,-0.054814372,-0.018769078,-0.1157185,0.059471264,-0.032143988,-0.059977297,0.027679631,0.038790468,-0.07338535,-0.023189852,0.080717735,-0.027168809,0.04477931,0.12933286,-0.025284939,-0.063601725,-0.010104849,0.013735406,-0.047613773,0.0025931362,-0.04628274,-0.009372334,0.00451374,0.06388312,-0.08176259,-0.08185342,-0.056397133,-0.08916017
0.0054716896,0.03215015,0.065463655,0.056905482,-0.037879914,0.07016333,-0.046302438,-0.064578444,0.08243276,-0.08284846,0.072346926,-0.023989862,-0.08431308,-0.01563985,-0.043092836,0.025325166,-0.015848367,0.0081651965,-0.023810457,0.030861799,-0.06140121,-0.008503025,0.023508707,0.0059928624,-0.02478623,-0.079490565,-0.01730516,-0.054973286,-0.005918144,0.06666606,0.0952362,0.035466105,-0.03217506,-0.06981558,0.087187886,-0.003912912,-0.05363029,0.065572,0.0048883194,0.059435014,-0.022225397,0.051464964,-0.062136706,-0.072644524,-0.04682531,0.08748735,0.10033566,0.07493776,-0.082451776,-0.008263175,-0.057119194,-0.001100177,-0.077864796,-0.07912681,-0.060148615,-0.018103935,-0.042850275,-0.04451251,-0.07481418,-0.0266306,0.053380795,-0.08359448,0.086442895,0.023688955,0.019034054,-0.09477338,-0.030596446,0.12476172,-0.07367621,-0.052340303,-0.0036905268,-0.032048777,0.024524797,0.10943482,0.043840095,0.0034999365,-0.079392366,0.12539859,-0.045990158,0.011678806,-0.05127383,-0.04071867,-0.055140495,-0.04091288,-0.064679764,0.10624414,-0.07830873,-0.05935881,0.013495322,0.10141779,0.06814662,-0.043342054,-0.070108175,-0.0007022673,0.07344659,0.058721308,-0.03257613,0.006330542,-0.008319256,-0.01381074,0.06992903,-0.08224619,0.056478538,0.04407435,-0.025364947,-0.05277204,-0.03458908,0.027193032,0.07789734,-0.057609167,0.094191715,-0.054528546,0.009784146,0.0123173995,0.056416027,-0.08406457,-0.02363751,-0.0078861425,0.04591667,0.042454857,0.042603794,-0.039050434,-0.08185666,-0.05343354,0.08738275,0.060733773,-0.1147631,-0.062597066
-0.08351933,0.03989455,0.061182693,0.059620768,0.032226473,0.12232169,-0.030003984,-0.011731206,-0.08631396,0.08481108,0.0011475093,0.005482451,0.0058001084,0.06471986,-0.13161875,-0.020861778,-0.103053965,0.021110592,0.079204544,-0.05693875,-0.080490835,0.03567241,0.021610731,0.056345902,0.057433367,0.039859287,-0.027738446,-0.13664263,-0.021010796,-0.053349044,0.054272626,-0.041464202,-0.05819833,-0.047899265,0.03888896,0.11740808,-0.052264314,-0.069276616,0.042111512,-0.039101858,-0.051408507,0.02483213,-0.05305503,-0.061996527,-0.0546351,-0.02131275,0.030470127,-0.028922899,-0.019311756,-0.08401382,-0.037447106,0.07561755,-0.032015596,0.023161003,-0.01660698,-0.11727706,-0.053357717,-0.052531213,-0.073236756,0.070721604,0.09130902,-0.07587829,0.006985582,-0.04191099,0.021857087,0.025505828,-0.065381795,0.12681736,0.074834,0.0032934411,-0.0037738911,-0.09318045,-0.06142681,-0.031480968,0.06836206,-0.07084808,-0.006663174,-0.06901426,0.023802206,-0.10628598,0.09192998,0.11896594,0.018265689,-0.033842023,0.07700647,0.036709182,0.057509664,0.08801088,0.0017884775,-0.05232239,-0.015136932,-0.0064348183,0.10317539,-0.10173181,-0.006731721,0.05205657,0.017062679,0.11145239,-0.035927556,0.019123577,0.04139032,0.017466681,0.030433886,0.0780498,-0.076621994,0.04659169,0.10089009,0.10136957,-0.02686497,-0.050723694,0.06295236,-0.106047876,0.098676294,0.054704696,0.06695192,0.029569702,0.022840435,0.12267497,0.0777035,0.12299811,0.12362862,-0.036096115,0.093210995,0.027066194,-0.04907188,0.0025502385,-0.03527548,0.07478152
0.055006362,0.04724953,-0.06105531,-0.023146484,0.03736742,0.083234675,0.09572571,0.049547657,-0.021159789,-0.04896479,0.012307453,0.07943127,0.07089416,0.029002836,-0.09024279,0.008666924,0.068899006,0.10931577,0.027047997,-0.027166784,0.055598207,0.0069689024,0.05131055,-0.09527972,0.079555675,-0.012257439,0.05824817,-0.036392715,-0.04796263,-0.065369174,-0.080542706,-0.066668384,0.041905075,-0.006237721,0.02618595,0.013914712,0.019550456,0.02253021,0.07887412,-0.07311122,-0.060832717,0.078674965,0.035282876,-0.014575487,0.0071456684,-0.051055003,0.080202796,-0.044434913,0.028419638,0.041796274,-0.1120738,0.013333022,0.07582207,-0.061285038,0.060689155,-0.019941729,0.06474313,-0.06807247,0.053008407,-0.052040625,0.09400185,0.0057124556,-0.08105739,-0.021248331,-0.008919922,-0.03747228,-0.059769925,0.05876549,-0.020148586,0.08839187,0.024985908,-0.052187476,0.013925795,-0.07734789,-0.025671797,-0.07506514,0.06172797,0.009202398,-0.06756487,0.023033863,-0.08431206,0.088287696,-0.04750985,-0.047579594,-0.06440328,-0.05040093,0.072814286,0.033400103,-0.07764214,0.031460952,-0.048834417,-0.031238025,-0.025736257,-0.076303184,-0.13509047,0.094996095,-0.024360046,-0.0031176112,0.062246982,-0.06868267,0.009134664,0.032602422,-0.027017646,-0.08424759,-0.08227195,0.06717109,-0.024918374,0.05316621,0.041889165,-0.069620855,0.004473096,0.0018562305,0.04940871,-0.095948614,0.043858748,-0.018242508,-0.05327153,-0.0769004,0.07219548,0.05810384,0.0791264,-0.04635981,0.01532051,-0.03799752,0.053791948,0.008364004,0.09392737,-0.00647905
-0.083900884,0.039764807,-0.03829686,-0.081025034,0.05425199,0.04789495,0.06526165,0.01964461,-0.02866332,0.090901375,-0.039491504,0.02733267,0.10897564,0.059489176,-0.06604192,-0.014890387,0.09885158,0.03711996,0.044690605,-0.020251285,-0.08728253,4.3525142e-05,0.09686449,-0.08112633,0.04159153,0.0055803624,-0.035316814,0.05094502,-0.005080814,0.044410415,-0.046508916,0.069694385,0.05188331,-0.088275835,-0.03311791,0.002755782,-0.045099203,0.005419322,-0.027093193,0.0015016686,-0.0900342,6.986123e-05,0.03009561,-0.08411233,-0.11251038,0.02969363,0.09097875,-0.016391406,0.008437554,-0.027927402,-0.07571027,0.0014381552,0.084855124,0.084393464,0.016805502,0.021201486,0.0018658827,0.035350982,0.08575811,-0.111039236,0.11169977,0.050708,0.071857944,-0.08188079,0.031042382,0.0056511206,0.0033104522,0.07374008,-0.03969187,0.05996425,0.03621426,0.029880127,-0.069824345,-0.06744667,-0.085601926,-0.079827815,0.002852897,0.033962183,0.076711975,-0.08296964,-0.06349276,0.032083243,-0.06184649,0.05757866,0.0035704777,0.05926962,0.08233922,-0.050464824,0.013117645,-0.02064634,0.007351574,-0.022484029,-0.0891067,-0.043875985,-0.14759445,0.10155826,0.020220585,-0.06941313,0.11548338,-0.12786478,-0.029860333,0.05701542,0.051954992,-0.059218463,0.03285894,0.06029736,0.08315098,0.030450705,0.07646566,0.086584315,-0.060092736,-0.011608034,-0.02392352,0.005739145,0.08299939,-0.049987525,-0.09819598,-0.10173524,0.031830736,-0.05107683,0.0040514707,0.060915403,0.019842837,0.02810175,0.103774466,-0.04130844,0.035455093,0.046216786
-0.024304807,0.06929745,0.0832374,-0.059824634,0.07772232,0.066623785,-0.0369882,-0.058788564,-0.040558703,0.020253612,0.027844753,-0.021077115,-0.07429767,-0.076176904,0.012080376,0.03296494,-0.016710889,0.006670309,0.0877664,-0.025390007,-0.048847184,-0.031475697,0.007864755,0.080696136,0.057794377,-0.01238635,0.051556185,0.06338146,0.051967174,-0.10034655,-0.044202495,-0.034795802,-0.018016927,-0.052940115,0.08056176,0.09324285,0.031872906,-0.09382551,-0.07534182,-0.06263814,-0.044800907,-0.05623189,-0.009814044,-0.095979676,0.105465986,0.07006022,-0.05963093,-0.030014852,0.14057994,0.041793104,-0.033888258,-0.0700511,-0.08004061,0.060888674,0.062340423,-0.07841776,0.0010349355,-0.04593654,0.07303508,0.036756434,-0.058679167,-0.017438304,-0.0073621264,-0.09393171,0.09453508,0.052317765,-0.09348893,-0.0059684794,0.070956096,0.058636215,0.013751533,0.031181326,-0.07617714,-0.016714292,0.09846696,-0.04054439,-0.0967194,-0.058171112,0.058139056,-0.031232338,0.019052207,0.047104415,-0.11797942,-0.0024447427,0.048589367,0.06628481,0.07359532,0.046129335,-0.063769266,-0.06244103,-0.10154361,0.01412636,0.0134154055,-0.01702372,-0.012702066,-0.06847628,-0.02092816,0.075916864,0.044780366,0.10817869,0.07178754,0.11715279,-0.021501107,-0.07470212,-0.038619366,0.046493266,-0.05113552,0.036443405,0.043526694,-0.11981305,-0.012353091,-0.014352039,0.06330312,-0.020345267,0.043042023,0.05800278,0.02123622,0.10502023,0.010025293,0.051598124,0.003762568,-0.030438956,-0.030744378,-0.039999444,-0.03631617,-0.040936343,-0.0060424497,0.10075105
-0.06893129,-0.019516846,0.04760788,0.04821151,0.070465274,0.098120816,-0.0572082,-0.03918976,-0.013984071,-0.084521405,-0.041804466,-0.102359176,0.055058666,0.06599922,0.07337752,0.05940873,0.09806537,-0.078021765,-0.07780938,-0.04946463,0.0004181989,-0.08702436,-0.023521764,0.10340643,-0.014851298,-0.04986684,0.0015813445,-0.05096491,-0.076358214,-0.031650152,0.08145265,0.020423958,0.019783027,0.083708346,0.023056163,-0.028217655,0.048722997,0.052673757,-0.039794806,-0.036185473,-0.11570364,0.030161878,-0.07571577,0.14415006,0.03848185,0.08799291,0.068525225,0.06811071,-0.004594928,-0.02719181,-0.10972724,-0.0634,0.060750492,-0.036288537,-0.0016216029,0.010030283,-0.011204495,0.041273437,0.0039901547,0.0078784,0.031020058,0.039325524,0.07021581,0.049456622,-0.045522206,0.009336683,0.049883362,0.037426356,0.07089903,-0.024564302,-0.10951881,-0.008121688,-0.084708154,-0.051347096,-0.11488873,0.08063603,0.04619196,0.11261521,0.009692478,-0.103543326,-0.08998375,0.0004013921,0.0360698,-0.07285408,0.068236835,0.103649415,-0.078582995,-0.03014721,-0.044191074,-0.047076553,0.011662854,0.0029904018,-0.06991417,-0.024949646,0.0792516,0.0028980856,-0.06513335,-0.015253694,-0.09937892,-0.023704449,0.11320893,0.0818635,0.06925132,-0.00550477,0.093818896,0.115673915,0.043958943,-0.03200226,0.08106486,0.079010256,-0.082576394,0.046472453,-0.02340984,0.06552931,-0.0046645617,0.025826175,0.030205868,-0.06535549,0.09495652,-0.10518306,0.08189897,-0.0026724648,0.08881269,0.10927929,-0.012817082,0.07421409,0.10681021,-0.020453962
-0.09719399,-0.1414493,0.08361033,-0.043753956,0.07780253,0.029255306,-0.05050177,-0.043843806,0.012312025,-0.05620539,0.09756537,0.07845065,0.051927373,0.044737224,0.029321123,0.017086523,-0.08756403,-0.036920357,0.07856358,0.023121329,0.14919347,0.08143961,-0.036522754,0.06764668,-0.0071765617,0.084198505,0.051314175,0.058560662,0.07643582,-0.067141995,-0.011271363,0.078374855,0.09903137,0.013441405,0.09472902,-0.072679535,0.017309446,0.07551737,0.049363844,-0.084116966,0.035692323,-0.005920953,-0.079108976,0.02056257,0.03552411,0.11134874,0.039127428,0.04496985,-0.0013519134,-0.06913779,-0.106367566,0.09269248,0.096056044,-0.04545873,0.032107793,0.032068178,-0.017855236,-0.062533684,-0.062120292,0.024371281,0.022326289,0.118481256,0.08318232,-0.025293505,0.10135057,-0.084832996,0.11213912,-0.018207628,-0.08311524,0.09060634,-0.021227138,-0.08963452,0.08072902,-0.022397377,0.10295472,0.12048937,0.09348302,0.06052151,0.044118933,0.06552089,0.004526983,0.017731888,-0.06976494,-0.043730665,0.026245171,-0.08081269,-0.046322737,0.08642405,0.07724787,-0.05761264,0.013362468,-0.006558937,0.03521543,0.045271765,0.07613091,-0.0576223,0.0738087,0.013744743,-0.038152065,0.05321291,0.037318103,-0.09088849,0.07640849,0.03730911,0.052847505,0.04512488,0.018847786,0.0004401,0.03994852,0.005458826,0.043894377,0.14308698,-0.07808344,0.042100508,0.02157565,-0.013087446,0.0580736,0.09962076,0.0030500419,0.0054524713,-0.008952184,0.026780833,-0.01394496,-0.07601468,-0.037694864,0.029154386,-0.048356008,-0.036484584
