-0.00072810164,0.016597575,-0.04481073,-0.024205135,-0.008569727,0.002272827,0.004035444,-0.03738391,-0.05091117,-0.01488826,0.0034192454,-0.008420499,0.009746617,-0.000418013,-0.008288777,0.033458583,0.0017063078,0.012666408,0.028723365,0.009020898,-0.016156092,-0.0044033206,-0.057891555,0.0012979079,0.012085303,-0.0022560072,-0.027596276,-0.0198386,0.02652775,0.01873557,-0.0035631729,-0.008650657,-0.003941264,0.012571018,-0.027507626,0.0057173814,0.023871183,-0.05719256,0.029528366,0.01937084,-0.005952768,-0.0026410017,0.004692314,0.033062372,-0.0041803257,0.013983392,-0.00435737,0.0035801267,-0.07517683,-0.021360021,-0.026941149,-0.00060898054,0.021128481,-0.017268484,-0.020899037,-0.007857197,-0.012952368,-0.019966982,-0.0025267848,0.015909974,-0.018503737,-0.019390311,0.026216542,0.0051890104,0.0017487997,0.0065117576,-0.002660496,0.017016936,-0.02677896,0.03215989,-0.016295657,0.009895648,-0.01302187,-0.015671965,0.023653144,0.020868951,-0.013926369,0.0039143413,-0.0043976963,0.014540228,0.007963443,0.024724476,-0.011026155,-0.028790405,0.016178489,-0.011390988,-0.01697527,0.0058763116,-0.0019079424,-0.016483206,0.0009511444,0.008560071,0.008150347,-0.021744538,0.027786503,0.0024991753,0.029137215,0.016687458,0.0040704133,0.0070119756,0.038179062,-0.007651782,-0.0068681063,-0.008378289,-0.0015150286,-0.011767158,-0.012954126,0.008165161,-0.012333947,-0.058175337,-0.031138642,-0.0027760628,0.011007111,-0.014088432,0.0027831846,-0.01778344,-0.007180384,0.030126318,0.02437672,0.030657623,0.0037411184,-0.006859887,0.004640183,-0.015943855,-0.0076999636,0.029303933,-0.021041984,0.003424145,-0.016926387,0.021394826,-0.0060612164,0.01234197,-0.007318649,0.008837205,0.013925384,-0.011175187,-0.0105276825,0.033735674,-0.016804729,-0.018023062,-0.0269004,0.0074823815,0.0005214524,-0.021448726,0.0030233636,0.0005599362,-0.0032005927,0.0041740374,-0.036811877,0.040693723,0.011816581,-0.02392302,-0.0015957147,-0.020968203,-0.0065233414,0.0026415568,-0.0093522575,-0.018015785,0.0041214735,-0.0038898063,0.01550364,-0.03081192,0.0030957193,-0.017579678,-0.019689968,0.018381191,0.01182167,0.011878942,0.028306905,0.022734348,-0.010010525,-0.012013828,-0.0151393805,-0.021544283,0.032454375,-0.020763442,-0.002322387,-0.019072833,0.0007689279,-0.01893145,-0.006304583,0.0061558913,-0.013149906,0.016222155,-0.027106766,0.008881169,-0.035324093,-0.01737156,-0.0009598722,-0.018714124,0.0053860177,-0.019200671,-0.015349745,-0.00075891684,-0.027642643,0.0213966,-0.009775293,-0.051914502,-0.009779208,0.004213416,-0.02385363,0.016663367,0.0021510017,0.032250855,0.0046209805,0.011669946,-0.020738613,-0.009601605,0.013190897,-0.010134906,3.826175e-05,-0.015831895,0.03038696,-0.015066786,-0.034213427,-0.013924738,-0.01214817,-0.006182562,-0.019635554,0.033038907,0.010470092,-0.000735556,0.0167378,0.010556313,0.007151383,0.011702277,-0.006005215,0.013014127,0.0117655955,0.004196518,0.03227284,-0.0015292866,-0.038286377,0.013686324,0.013870277,-0.006220756,-0.009664111,0.003472159,-0.014322709,-0.00040294384,-0.008968516,-0.007655472,-0.033834,-0.0014172961,-0.010039519,0.0013344733,0.007789418,0.002634226,-0.0030089032,0.021889756,-0.005073526,-0.013967547,-0.018503109,-0.01802289,0.024607461,-0.001500555,0.0067294,-0.019634,0.016064877,-0.0104842335,0.01004325,0.011601849,0.00506373,0.01236045,0.035041317,-0.019548496,0.0088745225,0.0068745734,-0.01382489,-0.050990462,0.0069668167,0.010198856,-0.0035092211,0.0062450184,0.023533076,-0.010771069,-0.0058537475,-0.009120336,-0.010116714,-0.020765675,0.00613584,-0.033222634,0.010467517,-0.03430551,0.027090136,0.0003418383,-0.049449116,-0.014989371,0.006359529,-0.020933654,-0.013039201,0.004865804,0.0029241156,0.012354329,-0.0015300714,-0.0010440752,0.014692962,0.017671987,0.0036855561,-0.017211577,-0.021232788,-0.032337327,0.015092555,-0.019004764,0.00752917,-0.017722338,0.027795218,0.018472118,-0.022305364,-0.02735733,-0.030979047,0.0029130245,-0.0046446654,0.01689102,0.0015708385,0.01311196,-0.022464521,0.014001657,-0.011995716,-0.02552599,0.031854227,0.01273084,-0.0043658353,-0.021959674,-0.0052048806,-0.009780619,-0.0051414934,-0.0015187043,-0.013771094,0.027978519,-0.037358258,0.0022845212,-0.019289153,-0.04131224,0.005378106,-0.011549179,0.0082757,0.05094054,-0.014690673,0.019287242,-0.06366313,-0.0042058984,-0.014293677,0.009587538,-0.011247131,-0.015675798,-0.0049652644,0.01565288,-0.020776069,-0.028339686,-0.039711405,0.0076488294,-0.010153325,-0.03223405,0.020046635,0.019161977,-0.002016088,-0.0062157675,0.0037129787,0.010427387,0.0009950126,-0.019793589,-0.0003481943,-0.0045123906,-0.022634313,0.012719584,0.0035307815,0.015125775,-0.013846912,-0.017208947,0.005648436,-0.0037067514,0.0012802436,0.004805648,0.003639889,0.012494874,0.012005234,0.004336806,0.010062796,-0.011469288,0.00035123268,-0.015596324,-0.038155746,-0.019995512,0.003954406,-0.011517373,0.011574328,0.010464537,-0.0020587384,0.002670909,-0.016380694,0.006605297,-0.0013088402,-0.0021982086,0.005554002,-0.0018807187,-0.003409767,0.0021002672,0.021190261,-0.018178102,0.012012964,-0.031088473,-0.00535619,-0.0068479273,-0.009696477,0.029924704,-0.012175345,-0.021067413,0.0091521265,-0.026978534,0.017209366,-0.048323303,-0.021528486,0.0035385168,-0.017485142,-0.012470779,-0.0035078414,-0.022963421,-0.00067073776,-0.03083896,0.013736635,-0.016514294,-0.014497789,0.014373991,-0.010011195,-0.022862053,0.001455022,-0.009165905,0.039036874,0.022240812,-0.011007644,-0.0005643378,-0.021499317,0.026943635,0.008853755,-0.069715895,-0.000863952,0.0017667869,0.029494496,-0.007420549,-0.028800458,-0.05093368,0.0014989339,-0.004336801,-0.058478728,0.035679128,-0.014824592,0.014012979,0.008437318,0.028732914,0.0025561107,0.015653683,0.010205929,-0.005015244,-0.027448516,-0.015502399,0.029174605,-0.014300783,0.010692744,-0.012343526,-0.0028393867,-0.007042576,0.0060216975,-0.01281062,-0.01636409,-0.046821494,-0.03271683,0.0077950726,-0.008009417,-0.008508794,-0.016883526,0.009506179,0.03289635,0.04283686,0.001263096,0.015471953,-0.028553518,0.021702172,-0.02960414,0.027418386,0.014400564,-0.0072664754,0.002791002,0.0093990415,-0.0029126063,0.048201438,-0.008385299,-0.014272805,0.0043459004,0.008729831,-0.002949593,-0.008916742,-0.017181102,-0.0053025642,0.033782315,-0.0055312132,-0.023061913,-0.005551437,-0.022669949,0.017597243,-0.021556212,0.0019297721,-0.017813293,-0.009707677,0.009552912,-0.014888115,-0.0013432165,-0.010201896,-0.004612456,-0.0153279975,0.038288034,0.00375367
