-0.0017847719,0.040926173,0.019119127,0.029406156,0.024650192,-0.01875223,-0.03997516,-0.0010675123,0.061702084,-0.007352225,-0.024231462,-0.060755067,-0.036000017,0.05570123,-0.04045654,0.015604837,-0.09684164,0.020741966,0.011778169,-0.09669733,-0.004171884,-0.11138106,-0.049615487,0.008094115,-0.081308514,-0.018312326,0.05114885,-0.09016393,-0.036320258,-0.045105223,-0.054031823,0.042030975,0.023746096,-0.034033448,-0.051686168,-0.011465374,0.05194376,-0.0021435795,0.047306143,-0.014908629,0.016554533,-0.03005042,0.0011421863,0.03818711,0.026413392,-0.050188724,0.038472354,-0.016317578,-0.010492923,0.029768819,-0.05220589,-0.0023418386,-0.04697274,-0.047427412,-0.004380244,-0.023560418,-0.07387979,0.04406819,-0.013596559,-0.090390444,0.039889872,0.02903708,0.05297917,-0.004603202,-0.032045797,0.001370132,0.008444906,-0.07788216,-0.012902319,-0.020285804,0.013172334,-0.09520685,0.0083740745,-0.039397653,-0.053233087,-0.017942281,0.019590478,-0.090670034,-0.04620199,-0.050286233,-0.0731097,-0.04952915,0.0017362048,0.025347074,-0.055660244,-0.0030099405,-0.043310467,0.019374412,-0.023388198,-0.10400771,-0.008229818,-0.049840625,0.032097377,-0.04904143,-0.042010702,0.009801445,0.0004739442,-0.054369587,0.029191362,0.05178285,-0.05685785,0.01021609,-0.016470397,-0.14645596,0.032315135,0.0309204,-0.033805814,-0.029935667,-0.06983752,0.009102047,0.054072678,0.055635642,-0.039296396,0.03850503,0.024063725,-0.026719488,-0.04529973,-0.033717755,-0.03153644,-0.044517968,0.022578575,0.03664363,0.043481622,-0.035191838,-0.0717596,-0.023634415,-0.004084562,0.016289055,0.04300159,-0.022741713,0.04902035,-0.099778175,-0.020139167,0.04662467,-0.07167262,-0.012508362,-0.03150896,-0.07100703,-0.0395199,-0.0540314,0.043055065,0.034816466,0.027867893,-0.09561171,-0.02961775,-0.037987363,-0.13256373,-0.09266904,0.059208892,0.012694348,0.0356061,0.03932274,-0.12355296,0.011589948,-0.055031326,-0.06621554,-0.009645754,0.010977242,-0.074549295,0.049393274,0.042006187,0.04364834,-0.06256374,0.050015032,-0.0053845863,-0.041516174,-0.03997148,-0.022811411,0.029590089,-0.018130707,0.013179354,-0.0067772646,0.011998431,0.03725726,-0.050952747,0.013691897,-0.062147822,0.06805488,-0.052428924,-0.05608599,0.041382127,0.0131222615,0.03478508,-0.046051264,-0.030631559,-0.0039901724,0.010771687,0.10395334,-0.07484633,0.028234752,-0.021177003,-0.05617029,0.003507989,-0.02514873,0.01378955,0.047287814,0.026631022,0.028370023,-0.050499488,-0.0238315,-0.055053454,-0.07818324,0.014317386,-0.04050483,0.02665804,-0.0439728,0.09133319,-0.0001814812,0.023428742,-0.047488943,0.039923057,0.058663856,0.0068047354,-0.080818444,-0.118602924,-0.004549518,0.0029121072,-0.001681091,-0.017593598,0.065937206,0.021530079,0.019593956,0.0029198,0.020936541,0.029256677,0.005731681,-0.05670457,0.011450729,-0.0009644725,-0.11410419,-0.0004984509,-0.049647994,0.028949533,-0.06386876,0.08365976,0.03286072,0.019826407,-0.08054377,0.016711837,0.03650897,0.017034044,-0.05431985,0.016319375,-0.06549647,-0.042418525,-0.050804626,-0.0053135576,0.008631853,0.009550153,0.0137897935,-0.0055876276,-0.075231336,0.008490788,0.0361549,0.04740594,0.016328864,0.027935412,0.004555838,-0.05145748,0.01946986,-0.07054336,-0.05493405,-0.10600623,0.008315281,-0.018104808,-0.08465329,0.0052875527,0.004599005,-0.025036527,-0.0874259,-0.12843944,0.029953232,0.008823008,0.054377597,0.021705877,0.013191544,0.03800392,0.008960843,-0.0088037085,-0.03308592,0.014789973,0.009688971,-0.05589348,-0.06454235,0.033401698,-0.036381193,-0.040640052,-6.365282e-05,-0.010517223,-0.07541125,-0.16806492,-0.057468295,0.04067337,0.047190316,-0.048863336,-0.035541687,-0.019496955,0.019302253,-0.03215862,-0.025118897,-0.06776889,-0.023254428,-0.014255284,-0.09749819,0.07239199,0.018871361,-0.06752956,0.004186915,-0.027598714,-0.070301905,0.032271154,0.047510754,-0.07619605,0.05875807,-0.08564397,0.063835,-0.046103112,-0.019897772,-0.0067600147,0.027838644,-0.05720218,-0.0704347,-0.09741679,0.024224194,-0.014760774,-0.019680249,-0.087798245,0.035048455,-0.063694455,0.027351143,0.03297309,-0.060927413,0.00015723574,-0.015074247,-0.11400895,-0.013559129,0.03872971,0.016068103,-0.029163692,0.012078408,-0.04882647,0.013711757,-0.022862365,-0.08393313,-0.069847666,0.06944693,0.031743117,0.059369154,-0.02115732,-0.015811745,0.04791559,0.025966855,-0.11129617,0.038524777,0.00501389,0.012478961,-0.015179689,-0.118982434,-0.13626394,0.046048597,0.014983881,0.016431162,-0.044335797,-0.058771268,-0.05846146,-0.0019941677,-0.030234804,-0.029461974,-0.05733408,-0.059183292,0.011436675,-0.033820096,-0.03402512,0.015248641,-0.05723633,0.043617323,-0.025949154,-0.0441971,-0.009288842,0.022073058,-0.0057134377,-0.049009375,0.040708188,0.027723433,-0.008413141,-0.0042608045,0.013027806,0.0058470313,-0.05895583,-0.033723164,-0.071747474,0.04446222,0.04275634,0.014437565,-0.046690855,0.016029762,-0.030001894,-0.067227915,-0.015692532,-0.0032626071,0.014491673,-0.032150645,0.0018819512,0.007246602,-0.01283131,-0.09345317,-0.056451797,0.053456012,-0.10754378,0.019411072,0.026883557,0.009802349,-0.06564509,-0.081823505,0.01310211,-0.013195152,-0.008400928,-0.064027645,0.04034241,0.02172204,0.053257044,-0.00096156,-0.03374879,0.00943318,-0.04434367,0.02451259,-0.014933811,0.0048892885,-0.016577473,-0.017858267,-0.02709318,-0.033722196,0.05172344,0.04321483,-0.0059059444,-0.021213802,-0.02824901,-0.02312477,-0.083591886,0.04918411,0.020801116,-0.032889303,0.019186864,0.021952718,-0.042377662,0.04172693,0.04698444,-0.05201493,-0.04129213,-0.007516743,0.061082378,0.026823808,0.022206564,0.0709047,-0.017943216,-0.058267213,-0.013584962,-0.080172226,-0.0920989,-0.02417146,0.030234508,-0.0035902965,-0.01711301,-0.026546057,-0.01778979,-0.07862614,0.035038847,-0.05047264,0.0077866307,0.028211689,0.045967218,0.0037411908,-0.049680848,0.06859075,-0.015603361,0.027051613,-0.05881269,-0.031761084,-0.03131362,-0.022696208,-0.0029039206,-0.009588012,-0.040370718,-0.03580711,0.06714821,0.0036586036,-0.021741638,0.05398911,-0.0058704168,-0.07469356,0.024347372,-0.05582628,0.0053996337,0.007099132,0.032378376,0.03217569,0.030319566,-0.0726666,-0.05106835,0.015125982,0.06391883,-0.00070037827,-0.061127543,-0.02205999,-0.048423912,0.02410163,-0.04800028,-0.065500714,0.017521609,-0.02351117,-0.09534428,-0.062370338
-0.0042088474,-0.020036431,-0.043258093,-0.038548745,-0.020579113,0.04664707,-0.06519233,-0.055786677,-0.00426493,-0.05549839,0.03189513,0.0042532436,-0.034835476,0.05289845,-0.07761435,-0.007976147,-0.04859581,-0.037933152,-0.0016800681,-0.015500448,-0.048831385,0.08379163,0.043899126,-0.03941356,0.046383187,0.023303619,0.07204261,0.017851809,0.0050458605,0.02610637,0.021748153,-0.0019281686,0.06430915,0.051362876,0.011975542,-0.04808338,0.014322534,-0.07073168,-0.062382706,-0.0073042633,-0.06792031,-0.044492718,0.028030058,-0.04840282,0.037449095,0.049347896,-0.013785223,0.04122552,0.0121771945,-0.014276198,0.027295101,0.0027175916,-0.08239369,-0.04931543,-0.0484914,0.049315043,0.030356875,-0.03393491,0.04595716,0.07243799,0.0063624876,0.025654357,0.05132848,0.041396648,0.027939599,-0.072514474,0.008273024,0.021061076,-0.04852513,-0.04892828,0.011333021,0.0008995309,0.0031512084,0.15902652,-0.025347678,-0.017595949,0.028083703,0.056245208,0.031835083,0.05111184,-0.05723968,-0.0692099,-0.057005446,-0.019579925,-0.025792995,-0.06761775,-0.034376007,-0.08344349,-0.026365353,0.06888768,0.0026771503,-0.0045163156,-0.0037607055,-0.05170832,0.015543198,0.0056402236,-0.052973527,0.011534149,0.0099814655,-0.011291871,0.0049776784,0.029120078,-0.02844087,0.03887858,-0.0126581,0.030661583,0.0005140969,-0.021155305,-0.054117326,-0.040237583,-0.038202252,0.045577396,-0.059332233,-0.0048316233,-0.013474486,-0.0017129282,-0.020733578,0.00044416456,0.051353157,-0.015893092,0.052772798,-0.05392209,0.037576664,-0.03309913,0.03292055,-0.0130678,-0.011050653,-0.053778853,0.04226612,0.007282052,0.021759562,0.026884317,-0.0073374743,-0.057036325,-0.0058675893,-0.013436811,-0.13616456,-0.02078803,0.0040717493,0.14473228,-0.07060994,-0.03974409,-0.0064896126,0.05239854,0.0038167506,-0.045933347,-0.19224514,0.02620825,-0.038549438,0.019618373,-0.02868956,0.041752428,0.022596909,-0.038484454,0.024826992,-0.044217125,0.0061803637,-0.031273708,-0.00526147,0.033701144,-0.063398495,-0.03900443,0.0016369359,0.0488116,0.036379326,-0.026151048,0.029739909,0.0042411415,0.04980892,0.016487084,-0.036597796,0.003303538,0.024860004,-0.034802154,0.05420308,0.040607136,-0.0601445,0.03724947,-0.024568003,0.041959375,-0.08505783,-0.022353403,0.029556723,-0.05217877,0.016585995,-0.047406808,-0.007417638,-0.060042005,0.008004819,-0.050762072,0.0043383827,0.02780089,-0.008337029,-0.08058886,-0.07659641,-0.058110096,0.006747585,-0.05215751,-0.008549769,-0.04603619,-0.048071105,0.028942041,-0.010331868,-0.039327595,-0.04376208,0.019054716,0.033939783,0.035165925,-0.084383674,0.060046155,-0.012244537,0.02992182,0.03554902,-0.03277292,0.05237366,-0.023345323,0.014672824,0.030667977,0.044922404,-0.052856047,-0.011454286,-0.002223834,-0.113235556,-0.0129301455,-0.06259844,-0.07289417,0.025283923,-0.07059556,-0.02988919,0.06172463,-0.026585171,0.014931754,-0.044991735,0.027224392,-0.092600204,-0.023914045,0.034626927,-0.016084038,0.027901094,0.04741388,0.014818722,0.022839887,0.031100556,0.05131215,-0.041833576,-0.05279958,0.0002073515,0.023664419,-0.06085982,0.027092362,-0.053763583,0.06890457,-0.019723756,0.0015772334,0.0011039517,-0.04097036,-0.024264025,-0.033768576,0.014466333,-0.00022016627,-0.03402471,-0.052155014,-0.05499784,-0.055831674,-0.064819075,-0.08640358,0.018168196,0.030578248,-0.052899625,0.009030782,0.0038509192,-0.003456746,0.040480126,-0.02167131,0.019403147,0.015994143,-0.085807174,0.033348024,-0.04707642,0.024671463,-0.050531622,0.03646857,-0.024004385,-0.05967845,0.018883217,-0.110319674,0.010441913,-0.06254729,0.001838406,0.07666108,0.03448493,-0.040829156,-0.023433411,-0.023241945,0.001026134,0.016182652,-0.0036492874,-0.0083874175,0.021752257,-0.006265125,-0.09733677,-0.03936193,-0.0036452704,0.017699162,-0.10546264,-0.007297762,0.036527943,-0.0883607,0.0309816,-0.045803897,-0.061963517,0.009316667,-0.025265133,-0.024348572,-0.012761141,-0.06680775,0.02992757,-0.005695763,-0.0442533,-0.029449165,-0.07865893,0.0026761526,0.032298796,0.032217935,0.0007418544,-0.041545972,0.06329587,0.0034780067,0.026239352,-0.07830642,0.011455305,0.024321292,0.026779804,-0.044570103,0.04090565,0.026431423,0.0038205544,-0.061296586,0.00922306,-0.028826205,-0.06564791,-0.00506875,-0.013007955,0.060383473,0.007102215,-0.032320585,-0.02795647,0.0068888343,0.044124223,0.035536632,-0.08234569,-0.005651104,0.013082454,0.011692034,0.09807976,0.0077397027,0.014695262,0.04667059,0.006370036,0.006353163,-0.020838372,-0.07462362,-0.04875055,0.031421747,0.044747192,0.022530973,-0.051962815,-0.073635325,-0.039010454,0.050256606,-0.0093795145,-0.052376483,0.015470473,0.019899236,-0.014292402,-0.003838945,0.023875175,-0.05225861,-0.0017966684,0.04088413,0.024241595,-0.007968213,0.041019753,0.039598353,-0.084750496,0.0016323566,-0.06929164,-0.020841237,-0.05050986,-0.029860307,0.010750516,-0.018938467,0.003965899,-0.0075081,-0.032446727,0.03752111,0.008141204,-0.018803595,-0.02535385,-0.022089705,-0.02414134,-0.016725283,0.029893948,0.035356693,0.0054575354,-0.018074678,0.037299875,0.0061515197,0.03168684,-0.05282414,0.031467665,0.03766482,0.054459564,0.066205755,-0.029503657,0.01678685,0.01499062,-0.031539474,0.06482054,0.022558818,-0.014597593,-0.06189409,-0.019780602,-0.03641321,-0.05061455,-0.066710785,-0.007196499,0.01473107,0.08373384,-0.03924878,-0.050103676,-0.053091593,-0.009459239,0.046307854,-0.04365036,0.008217235,0.038360853,-0.10440978,0.039715726,-0.0021782818,0.04969205,0.04467918,-0.012480481,0.01541284,-0.0348716,0.042788766,0.07246778,-0.037857383,0.051206775,-0.040576085,0.0055640754,0.04852131,0.05849951,-0.082526766,-0.017193012,0.007900721,-0.03947019,-0.10356147,0.0486721,-0.041602615,-0.025531575,0.00058364746,0.042812392,-0.027516492,-0.0010301527,0.00057678006,0.03518989,-0.008917898,0.017071193,0.06710855,-0.02171617,0.008007581,-0.03660777,-0.018047962,-0.0067626215,-0.045034703,0.0037832814,0.0060211644,0.00867482,-0.055179268,-0.06229214,-0.0310587,-0.00866683,-0.0013506417,-0.026247412,0.038370974,-0.057159342,-0.03990371,-0.15244363,0.025307668,-0.031107316,-0.007040978,0.010119867,-0.042208713,0.016298518,-0.027212046,-0.029095462,-0.019123305,0.039493043,0.04576649,0.005174766,0.017662311,0.01842476,-0.032063678,0.01798509,-0.04629843,-0.043150216,-0.05941529,0.043618552,0.034064244,0.0073004235,-0.08248915
-0.012933962,0.00026549064,-0.007932672,-0.027226556,-0.023415124,0.038806118,-0.017849946,0.04735951,-0.08577896,0.005576245,-0.04882847,0.025085658,0.04189706,0.044493362,-0.06768965,0.047126014,-0.005029855,0.05380363,0.002249475,-0.12098469,0.026708074,-0.012567608,-0.02784709,-0.023210796,0.039480086,0.008655938,-0.077613614,-0.16470447,0.06682533,-0.024334934,0.0333477,0.029177245,-0.022025771,-0.044385884,-0.007507582,-0.05853365,0.03695907,-0.019214734,-0.05261856,0.0070340307,0.025882397,-0.027967848,0.027402304,0.035647064,-0.011266858,-0.01123264,-0.0009921837,-0.053985592,-0.0732508,-0.01804139,-0.014691445,0.06054571,0.0012904314,0.05054898,0.013932719,0.046321984,0.044362597,-0.03483314,0.027761599,-0.057629887,-0.056443367,0.011518419,0.022695323,-0.0763344,0.018622635,0.030008668,-0.029544279,-0.043246366,0.04538625,0.061098255,-0.029419687,0.026872488,-0.0015518091,-0.09234087,0.014201251,0.048459247,0.028614257,0.042896863,0.07048089,-0.091468275,0.003084144,-0.028736522,-0.019103264,0.018967226,0.036274325,-6.1571285e-05,-0.014265938,0.014079497,0.00562896,0.07675098,-0.028016444,-0.03707249,0.021614939,-0.009772266,0.028709382,0.04614553,0.033082537,0.03380036,0.0019352922,0.0102499435,-0.018230893,-0.019920588,-0.0441841,0.00644339,-0.062345833,0.05885668,-0.019994047,-0.0011916454,-0.037591122,0.027102413,-0.03664092,-0.055087402,0.047187656,0.014722382,0.011087571,0.038252108,0.02122113,0.0103139235,0.009036336,-0.063348524,-0.06917546,0.05262709,-0.0065809707,0.04828748,-0.036452122,0.035793774,0.004084774,-0.032695103,-0.083907075,0.035056908,-0.06911961,0.031973504,0.039254498,-9.174123e-05,-0.0785204,0.04827762,-0.023530325,0.021006543,0.026980946,-0.111347795,0.014691407,0.04132172,-0.021386137,-0.061846357,-0.023147311,0.041139316,-0.11379793,-0.026815234,0.026631689,0.035456248,-0.04453398,0.030651819,0.034338597,-0.028370835,-0.011490928,-0.14488663,-0.10715794,-0.06460178,-0.016541893,0.028359866,-0.056871045,0.02572052,0.021596786,-0.04117542,0.024194334,0.04710344,0.029311363,-0.008178897,-0.04648242,-0.0142962355,-0.021125183,0.02445395,-0.01200887,0.03395981,-0.057068948,0.018303871,-0.081677236,-0.06827077,-0.055480313,0.038229663,-0.024398696,0.008609063,-0.021492474,0.0033721651,-0.003981117,0.05840196,-0.024529584,-0.027464226,-0.0410711,0.010654785,0.017715955,0.03242895,-0.022582084,-0.023170436,0.02432173,0.023397015,-0.010848605,-0.024511429,0.04347687,0.02888782,-0.035146303,-0.016529657,-0.06566761,0.011578444,-0.010080721,0.033908717,-0.046770077,0.059251145,-0.018461427,0.052806742,0.0131140165,-0.069174595,0.006589987,0.039978173,0.0070794476,0.02803741,0.0724027,0.025649339,-0.008815066,0.024940139,-0.034609824,-0.010200367,0.06390374,-0.011452573,0.03617561,0.033100042,0.047333848,0.021990512,-0.014804011,-0.11465375,-0.055430263,-0.018904129,-0.0044691362,-0.059832882,-0.065610886,-0.009700606,0.043949474,-0.036510568,-0.0018601822,-0.041204583,-0.028690476,-0.05300434,-0.02678226,0.019794118,-0.016187841,0.07110686,0.016697185,-0.045869432,-0.041053433,0.007770434,-0.033898935,-0.12531433,-0.01856021,0.0026486737,0.04123303,-0.09283559,0.034020986,-0.040411398,-0.05023478,-0.04088339,0.02763162,0.036222566,-0.0071431017,-0.0026505878,-0.03557902,0.049934555,0.017086878,-0.04392553,0.064148284,-0.037712805,0.022784196,0.056730445,0.0278498,0.0012648192,0.02644812,-0.034981158,-0.11724963,0.04106391,-0.015382465,-0.033351228,-0.1437529,-0.03533022,0.010016584,0.035181932,0.0502958,-0.041966554,-0.056590267,0.051152207,-0.017304538,0.024925716,-0.059861492,0.033866577,-0.028181732,0.0018947856,0.075656764,-0.029500982,0.0029757193,-2.033804e-05,-0.02412245,0.032211203,-0.04925882,-0.047505446,-0.0483986,0.016144197,0.03692866,0.03979952,-0.0194576,-0.04941168,-0.05393999,-0.046369497,-0.021860048,0.028793551,-0.06285515,-0.072804384,-0.13213697,-0.055518106,-0.01074704,0.115552686,-0.05584805,0.01977881,-0.068642646,-0.060770005,-0.0022813876,-0.008231744,-0.0018525784,0.014307259,-0.091004334,0.002685074,-0.027126081,0.009858025,-0.014802816,-0.15355352,0.0021687802,-0.0062641343,-0.084259674,0.03910569,0.039283913,0.0009903979,-0.045757495,-0.046101395,-0.048602346,0.00015538139,0.010626237,0.046840705,-0.035948984,0.0003213122,0.022594461,0.016412316,0.027800927,0.103877336,-0.05477697,-0.0020300497,0.0033741067,-0.05484865,-0.03718931,-0.051459536,0.021993672,0.024820954,0.07840801,0.030230798,-0.0035159243,0.06139227,-0.03176208,-0.036471423,-0.01020992,0.029251676,0.055999473,0.014099499,-0.020659197,0.03526407,0.012524586,-0.008629415,-0.0061131734,0.020655673,0.022197038,-0.027538126,-0.06286807,0.041328162,-0.035071626,0.06462889,-0.073585354,-0.05770184,0.05343406,-0.041239463,0.06019663,-0.0049266466,0.025619198,-0.013546828,-0.0009609922,0.006958394,0.03657151,-0.03650646,-0.05717824,0.035708148,-0.03496528,-0.024323663,-0.060374793,0.024700126,-0.06999823,-0.060250316,0.018811285,0.046249095,-0.006458897,-0.03223837,-0.039665297,0.023422305,-0.020634416,0.036435686,-0.055531826,0.009944117,-0.038480572,-0.029824372,-0.10403528,-0.03582882,-0.028278163,0.0018067383,0.0490174,0.016520007,0.001758142,0.023972003,0.026384046,-0.016442785,-0.007858342,0.022527132,-0.046717107,0.027475584,0.072603434,0.027525404,0.046233643,-0.026576292,0.027924597,-0.029509356,-0.038193535,0.011684492,-0.01861336,-0.04677623,0.006809497,-0.0051507847,-0.035028517,0.053255342,0.02499544,-0.02537759,0.05399326,-0.030641569,-0.018534439,0.01741914,0.0344809,-0.0129918875,-0.002832921,0.030063475,-0.02856008,0.0105024045,0.05434049,-0.0046742866,-0.046473663,-0.010065532,0.03975007,-0.011686706,-0.010135848,0.016982755,-0.019773878,-0.033011846,-0.056715466,-0.016929269,0.010425997,-0.027830986,0.017203083,0.014079169,0.020955011,0.0422423,-0.06041841,-0.010462679,-0.048980024,0.0673048,0.026672473,-0.061285496,0.035197843,-0.050387964,-0.049596474,-0.06552001,0.0458612,-0.024524515,-0.024613429,0.0159804,-0.11038385,0.07791171,-0.024219489,-0.09303551,0.09308333,0.038402334,-0.07561016,0.052625194,-0.025582802,-0.0059463074,0.01988563,-0.030511303,-0.017495258,0.0003593942,0.00096693536,0.033392116,-0.04435025,-0.050810374,-0.005165501,0.003230518,0.052170463,-0.014909786,-0.010206716,0.00521934,0.041371036,0.02444127,0.016669007,0.029580899
0.043275725,0.0061458773,-0.009297766,-0.06518635,0.018828029,0.038877215,-0.0067003015,-0.0516588,0.0036026356,-0.032665383,-0.053018656,0.024930632,-0.05357848,0.019943696,-0.044736978,0.027096119,0.035752665,0.0042175367,0.00452941,-0.0520913,0.004436217,-0.058313116,-0.010000824,-0.029272119,-0.0255649,-0.0653876,0.0005799349,-0.05713245,-0.089667805,0.034381393,-0.00080855924,0.047263395,0.013641462,-0.07114995,-0.037774965,-0.02310515,-0.038182057,-0.045251418,0.03658002,0.043617677,-0.0027124672,0.051923558,0.026990937,-0.032298274,0.0066879266,0.0026019195,-0.017713567,-0.03210827,-0.044545293,0.06972544,-0.08457683,0.05967974,0.052439146,0.012093168,-0.034108005,-0.021608913,0.015735317,0.028023608,-0.068617456,-0.0133206025,-0.031006882,0.045535885,-0.072561115,0.017886924,0.04998825,0.06379314,0.058579892,0.023076624,-0.011629895,0.044035085,-0.030855061,0.02621822,-0.03454901,0.0045925775,0.045823205,0.011810722,-0.0185067,-0.06190447,-0.032928236,0.07283409,-0.043956034,-0.007408067,-0.0077475538,-0.018459275,0.0400971,-0.04609271,0.019469654,0.04003913,-0.07433107,-0.030607916,-0.050958376,-0.030981157,-0.015199162,-0.05515579,0.003203093,0.027390301,0.014392502,0.021448512,0.0279369,-0.05167033,-0.0032958821,0.047492594,0.052576266,0.02574394,-0.05118012,-0.08723498,-0.009524749,0.03442038,0.008900706,-0.03439288,-0.048698053,-0.045863062,0.016041003,-0.07352769,-0.00120752,0.030142684,-0.031429686,0.005318092,-0.06164391,-0.025334239,-0.019060463,0.034660105,0.027507873,-0.036760062,-0.050448503,-0.0028853186,-0.064698264,-0.016520185,0.043461606,-0.08447098,-0.037183616,-0.015998404,0.0027770745,-0.00025577427,0.026371922,-0.041433085,0.064272925,-0.004873284,-0.011648741,0.026945084,-0.025486901,0.017020583,-0.02690936,-0.074167326,-0.07705861,0.043433987,-0.19974536,-0.05172398,-0.04676505,-0.01853596,0.02721679,-0.005485743,0.03990612,0.011321276,-0.008768331,0.03984281,0.0056637763,0.008769507,0.00449885,0.038187597,0.044484388,-0.02421111,0.038875565,-0.07575838,0.04295984,-0.019072875,0.028676264,0.04895187,-0.013201802,0.06464764,-0.053902503,-0.045566447,0.007142812,0.014076995,-0.1102701,-0.06710176,0.056554683,-0.0061312704,0.018401917,0.043728556,0.035253372,0.026741508,0.031692494,-0.054998383,-0.026781699,-0.06551358,0.024234252,0.0043053296,0.023887036,-0.03794298,0.013688536,0.019905122,-0.009628473,-0.17903146,0.0052883094,0.012886882,0.016258247,-0.038888566,0.058119383,-0.045081645,0.004903936,0.0071476083,-0.08106664,-0.01338302,-0.021015055,-0.06521508,0.042900257,0.04863165,0.0074682347,0.01986334,-0.023715757,0.01989198,-0.005698849,0.008040931,-0.040823027,-0.028923878,0.03500688,-0.030154593,-0.102816135,0.008790017,0.025458053,-0.022147538,-0.047498807,-0.04834179,-0.13830487,-0.015955081,-0.07593152,-0.058869388,-0.005370723,-0.24124132,0.037877083,0.044748463,0.026399847,0.018440053,0.02167724,-0.032301232,-0.05942846,-0.008917292,-0.043633964,-0.06687828,0.007173356,0.071850695,-0.011289627,0.023070583,-0.019557845,0.03524859,0.049411226,-0.055389978,0.00021529428,-0.018505637,0.037306335,0.019932803,-0.011717667,-0.056472506,-0.040408395,-0.04141933,0.035356358,0.058524046,0.0042960024,-0.018480763,-0.059886914,-0.03108395,0.035673533,0.015679298,0.025527773,-0.028859828,-0.050770033,-0.034968063,0.007383568,-0.061862353,-0.011145546,-0.026814032,0.019943716,-0.036374066,-0.13983922,-0.0022611425,-0.07117152,-0.058638662,0.0035878138,0.03732429,-0.12116573,-0.014904391,0.05365252,-0.12792571,-0.044319134,-0.03282993,0.0010923991,-0.027401015,0.029196084,-0.056078684,0.030288015,-0.024931926,-0.02110804,0.0052563245,-0.040025238,0.011687792,-0.017479144,-0.014670916,-0.018483136,-0.041860804,0.04231621,0.031368054,-0.046878796,0.04682366,-0.059624743,0.047616508,-0.0078454735,0.01405968,-0.080990665,0.03033766,-0.013141016,-0.041932207,0.058964156,0.049540896,0.08346901,-0.02197903,-0.06449535,-0.03934637,-0.041882675,0.029935906,0.01698444,0.056821488,0.032459173,-0.02405382,0.009199365,-0.008574476,0.012963591,-0.0017860518,-0.022359502,-0.0029737784,-0.0936761,-0.030005854,0.033842694,0.010276268,-0.014268623,0.029597167,0.013421419,0.030391427,0.038302213,-0.0071659433,-0.017110338,0.023647822,-0.009751637,0.018590396,0.049025424,-0.055649336,-0.076863684,-0.058285393,-0.013592245,-0.0243388,0.015252526,-0.04445161,-0.020664888,-0.0785104,0.0006382493,-0.004874815,-0.04113315,-0.03615461,-0.024187757,-0.031884853,-0.0151029555,-0.009212362,0.07229002,-0.07000588,-0.061123908,-0.07829653,-0.0307338,-0.0115048345,-0.041900028,0.0496186,0.007847694,0.021935914,-0.017080622,-0.0017231025,0.05572239,0.01732808,0.002745819,0.035413485,-0.016402157,-0.06980509,-0.016147012,0.0018346957,0.016449822,-0.0098937005,0.035997987,-0.085647166,-0.036918953,-0.040065806,0.04678527,0.03070692,-0.00815109,0.04167609,-0.0035484524,-0.03235296,0.013662318,0.023551308,0.014039134,-0.040967356,0.058146037,-0.0100210095,0.014686384,-0.0036905056,0.017060457,0.013260326,0.03900535,0.047432512,0.011107404,-0.03860044,-0.009376333,-0.02209952,-0.069135025,-0.013368259,0.008622804,-0.04059391,-0.023045434,-0.023396138,0.07056029,-0.057021465,-0.04937008,-0.06921417,-0.040627982,0.014377116,0.038382087,0.03785572,0.026836988,0.0383588,-0.012936277,0.0071861567,0.08466477,0.039343048,-0.063355274,0.023385026,0.025918461,-0.08849367,-0.016300581,-0.03163189,0.05367437,-0.045531277,-0.05694296,-0.021044677,-0.08947431,0.0045217643,-0.090067916,-0.04786011,0.038880207,0.004371762,-0.04544191,0.04103015,-0.056647334,-0.045040652,0.03360773,-0.095578186,-0.016616736,-0.04189492,0.012869308,-0.06489146,0.02002803,0.023960799,0.017480342,0.037518766,0.04785937,0.03347517,0.06305087,-0.025329614,-0.026673375,-0.021849658,-0.032466207,0.053366605,0.036175285,0.0298646,-0.07594287,-0.02843153,-0.07345087,-0.11100976,0.0317051,0.05999434,0.03520391,-0.08039306,-0.028681386,-0.015632223,-0.0019385152,-0.028622922,-0.016857382,0.0018125857,0.024469016,-0.035684995,-0.016623072,-0.08825403,0.039700326,-0.017373718,-0.021500498,-0.00828418,0.02515264,0.027234873,0.034375586,-0.087254725,-0.05553697,-0.0048184395,-0.061464053,0.0628417,-0.011749626,-0.012593645,0.029065639,-0.026194423,0.0061308737,0.019192642,-0.02013882,-0.05821341,-0.014096327,0.07845767,0.043944206,-0.01191604
-0.013346801,0.026477616,0.022373348,-0.04151175,-0.06004058,-0.0021595787,-0.025259284,-0.002068378,0.04187744,0.05262639,0.06623108,-0.0130023835,0.017610807,-0.02056172,0.03975009,0.029485678,-0.19032732,0.02548046,0.027246812,0.03141123,0.031419884,0.012843291,-0.030647844,0.0074738697,-0.047318317,-0.026682036,0.004344922,-0.035047676,0.00033794425,-0.061252356,0.05086008,-0.031021936,-0.014033776,0.06259191,0.0027196028,0.04952535,-0.028679544,0.030040426,0.028948007,-0.02531375,-0.041775506,-0.040982433,0.027271634,0.020306457,0.062788226,0.02934789,-0.021370217,0.038799006,0.04030727,-0.012117223,0.062527455,0.058667634,-0.056796897,0.03227104,-0.011437324,0.044451073,-0.016366465,0.0036687485,-0.009194143,-0.052924946,0.015702184,-0.047464438,0.0002799255,-0.0072673503,-0.01940631,0.019168735,-0.016126968,0.045076683,-0.019999813,0.00043139988,0.010097214,-0.0506345,0.04956615,-0.038961824,0.030365597,-0.012571952,0.01454858,-0.11818402,-0.09547094,0.011694223,-0.021905102,0.05188066,0.01897867,-0.03561528,-0.013780158,0.01616068,-0.0069451467,0.04009464,0.030429162,-0.023243707,0.0064266184,0.049840726,-0.0040782588,-0.0016297059,-0.05347466,-0.048373424,0.030382205,-0.025988495,-0.048799284,-0.037446808,-0.029748702,-0.05415826,-0.05605061,0.030754102,-0.056209706,-0.062440015,-0.056640558,-0.05662586,0.040832628,-0.02218752,-0.041084282,-0.031073486,-0.062037207,-0.040611867,0.013141461,-0.013299662,-0.020937432,-0.018696975,0.02320543,-0.021131981,0.028583942,0.019346675,-0.051090285,-0.02403645,-0.042671315,0.033647306,0.03238807,0.034802664,-0.02950925,0.061018474,0.03064363,-0.0020477755,0.008620914,-0.016059168,-0.04364964,0.01462448,0.020459695,-0.0145419305,-0.040272947,0.018648032,0.025069172,-0.023085337,-0.024960011,0.03129981,-0.019209683,-0.10009666,0.018117724,0.062492784,0.01619351,-0.028361827,0.040780593,-0.049853984,-0.0997324,-0.056410268,-0.0008393135,0.057284474,0.026831793,0.019497503,-0.01287536,-0.030742731,-0.10225252,0.047775853,0.025162844,-0.043634463,0.05579993,0.0051690214,0.0031658728,0.021689204,0.03891579,-0.02743598,0.032262616,-0.004594716,0.036890537,-0.018984,0.041450027,-0.016928153,0.063465714,-0.006711293,0.050038375,-0.047405165,-0.04459355,0.03069722,-0.062128462,0.033488713,0.005181436,0.046659686,-0.03238824,-0.013259639,0.018847268,-0.011251696,-0.024934886,0.012236784,0.01668044,0.092823796,0.0038905293,-0.038931996,0.020761374,-0.0046998262,0.015048505,-0.020311682,0.047427967,0.03930812,0.0033359448,0.006310421,-0.0109261125,0.011668174,-0.075774476,0.012436933,-0.04093609,0.016503328,-0.047756974,-0.07316448,-0.009708942,-0.047675885,-0.011277664,0.061680283,-0.012316708,0.022258433,0.07307532,0.039802328,-0.040250525,-0.012078093,-0.046696816,0.0062103732,-0.033701226,0.051310536,0.04748173,-0.02763111,0.012835917,0.050797418,-0.05435972,-0.035684776,0.06628667,-0.043263216,-0.020760812,0.002305058,-0.014659092,0.012202702,0.04204858,-0.030401206,-0.03210086,-0.0929819,-0.04889294,-0.0053519425,-0.008694073,-0.0905044,-0.042913705,0.021555148,0.03436954,0.05451978,0.031402294,0.030248027,-0.0056902235,-0.011009691,-0.015998196,-0.040506057,-0.04640159,0.023060448,-0.010623892,-0.011607286,-0.0009239218,-0.038425386,0.05176359,-0.00814806,0.008772176,0.02893227,-0.028475273,-0.10043524,-0.074811466,0.03737009,0.021810489,-0.0151755605,0.017925905,-0.04281677,0.025001097,-0.05257613,0.014993785,-0.06056149,0.0574489,0.028568277,-0.09026355,0.01186607,-0.029036624,-0.05318905,-0.05238682,0.07172349,0.054293897,-0.0119250845,0.04260001,0.02128236,0.056078527,-0.022344891,-0.01687658,0.08221471,-0.018717151,0.043610375,-0.0033345472,0.0038490018,0.0033453442,-0.029050702,0.060300056,-0.061917398,0.009831396,-0.02853818,-0.03553545,-0.009412153,0.013203101,-0.07203189,0.022662621,0.026924638,0.028459003,-0.026106177,0.009695328,-0.031208992,0.03700116,-0.05422229,0.06275062,0.021632731,0.0059779896,-0.018227506,-0.018910242,-0.016807657,-0.029831173,-0.06293648,0.0120696025,-0.00689359,-0.013827109,0.0034445042,-0.031077137,0.002084806,0.06633856,0.065435976,-0.04042898,-0.064922705,0.042763412,-0.072049074,0.037220508,-0.052336972,0.022132395,0.03480054,0.01007262,-0.062476363,0.007026073,-0.05897608,-0.0052955872,0.03930217,-0.026919862,-0.0018456249,-0.008261046,-0.056979176,0.04899883,0.028970625,0.011230438,-0.021402476,0.015245552,0.043602537,0.02844948,-0.0018519115,-0.10779065,-0.036045793,-0.03268814,0.042373218,-0.045765672,0.07906445,-0.011898373,0.03861375,0.019447464,-0.04780117,-0.026450898,0.02954519,-0.018379882,-0.019690355,0.02815694,-0.040209394,-0.041419234,-0.008675534,-0.019715823,-0.06506274,0.019438345,0.057996552,0.002279556,-0.033978615,0.0077861384,-0.01301441,0.03450024,0.023568342,-0.048949942,0.03621374,0.034913566,0.038915843,-0.090517126,-0.061352298,0.049117718,-0.006634118,-0.0033489375,-0.07264907,0.029214844,-0.01979271,0.06086879,-0.030609796,-0.0032442866,0.06582708,0.043378595,-0.024715248,0.0024458903,0.008430012,-0.036493536,0.02618291,0.032305524,0.0045564035,-0.023344755,0.029660603,-0.026300417,-0.021889878,0.024720114,-0.0056721456,-0.08966153,-0.006041133,0.040126123,-0.011617886,-0.0043324847,-0.012918274,-0.004745691,-0.046931274,-0.044215396,-0.010650001,0.032580405,-0.041232135,-0.13602851,0.028247211,0.03885528,-0.054736283,-0.06482964,0.029282758,-0.015219522,0.04811851,0.038263,-0.06685446,-0.040334728,0.016577419,0.031346034,-0.021050716,-0.010244965,-0.02136661,-0.0057684905,-0.07001232,-0.08002655,0.021976205,0.03126891,-0.04605006,-0.04049763,0.06142516,-0.019728746,-0.007262933,-0.018954154,0.003640585,-0.055325136,-0.018438198,-0.09823445,-0.04543444,0.022799723,-0.0052460497,-0.03289352,0.0013805813,0.048907977,-0.040093392,-0.015154896,0.0067214873,-0.039461136,-0.083660655,0.01756083,0.025648678,-0.01118636,0.023811914,-0.013851204,0.029320048,-0.01833965,0.028326876,0.001443075,0.004251354,0.0051888917,-0.044780724,0.07787765,-0.017965715,-0.033240635,0.017036714,0.030712461,-0.020701565,0.016933328,-0.0012146576,0.026772922,-0.022335218,-0.0032091215,-0.0423179,0.031227184,0.03843638,0.021000043,-0.032328725,0.011718423,-0.012635298,-0.07393294,0.0440349,0.019858794,0.025083791,0.024685882,0.00761909,0.012043927,0.03685551,-0.053733062,-0.103401005,-0.06474376,0.00085525325
0.04731281,-0.016211065,0.009545414,-0.027854145,-0.025124583,0.025870487,0.007311188,0.020154858,-0.006438213,0.0024020274,-0.035448607,-0.040351275,0.044760283,-0.053681687,-0.00684919,0.02795217,0.021464888,-0.08088382,0.031710096,-0.075374015,0.020546308,-0.01533012,0.000475232,0.03399993,-0.050353687,-0.057494424,0.0042356546,-0.08564815,-0.023708152,0.023933774,-0.061337445,-0.011318257,-0.033247277,0.027900599,0.024695212,-0.012342121,0.017379478,-0.06319489,-0.041847676,-0.05811054,0.028025594,0.030226167,-0.019263994,-0.042463936,-0.0126290675,-0.03346621,0.03549535,-0.061571423,0.0024140424,-0.060093198,-0.0019296398,0.058324005,0.029988803,-0.07330622,0.03519047,-0.0028782578,0.02196467,-0.018908879,-0.012294961,-0.03637465,0.049895193,0.05174343,0.0044307658,-0.0043212804,-0.047472216,0.05027014,0.052155785,0.03439034,-0.020572266,-0.049652126,-0.050697993,-0.019732958,0.022529894,-0.006800932,0.053825084,-0.028254217,-0.017566096,-0.1529259,-0.0756821,-0.08894305,0.027362209,0.025313243,0.009659243,-0.056850985,-0.04415825,-0.023927674,-0.012821644,-0.03184069,-0.027507063,-0.08066755,0.045335326,0.03161838,0.0069341986,-0.033743966,0.0254093,-0.03445087,0.024726324,-0.06941886,-0.040801443,-0.06469465,-0.026819889,-0.05404351,0.008174746,-0.04432006,0.050013375,-0.016125213,-0.013295137,0.042372253,-0.02505943,-0.03519833,0.04702318,-0.023662511,0.041482955,-0.021469282,0.04465929,-0.02217279,-0.036109343,0.0042426595,0.06058237,-0.02225509,-0.010580728,-0.030597534,0.0011545349,0.044972125,-0.0032392025,0.004454498,-0.0016704785,0.029938478,-0.02086787,-0.028196258,0.013270266,0.029457804,-0.023894746,0.02522312,0.042215075,-0.052453857,-0.016002085,-0.093335465,-0.08066227,0.029688314,-0.017987749,-0.024397504,-0.011217207,-0.09994879,-0.029838894,0.044676762,-0.08501397,0.062049385,-0.034197688,0.02581306,-0.023662,0.041420046,-0.018751876,0.03247863,-0.013100103,-0.03359873,0.04406848,-0.017226998,0.0134798875,0.0014421433,0.024986504,0.011980366,-0.003087086,0.0012056055,-0.04548759,0.008574469,-0.07705504,-0.028008858,-0.017915385,-0.06922865,-0.004429607,-0.025250359,0.045134135,-0.020805785,-0.049207635,-0.07344484,0.0065529128,-0.073020354,0.03987049,0.00915218,0.026942164,-0.0074461335,-0.037792202,0.013435231,-0.024645308,-0.027939675,0.060027383,-0.06206186,-0.03545925,-0.04683626,-0.06215295,-0.021001384,0.01651081,-0.028266858,0.007363269,0.010128152,-0.03582941,-0.023359224,0.036045156,0.056064617,-0.003158556,-0.038938828,0.017433843,0.0055750743,0.053399708,-0.01814403,-0.03949201,-0.03495209,-0.035429463,-0.08711902,-0.007660139,0.04285761,-0.025663149,-0.07065889,0.03941313,-0.09131544,0.042534888,-0.05716657,-0.018314268,0.011005394,0.0068500815,0.0021932013,-0.039838225,-0.020166757,-0.039187104,-0.00279458,-0.024204457,0.0044571203,-0.00087165425,-0.06385484,0.011338173,0.014409366,0.04635655,0.0013248534,0.055899814,-0.078109324,0.0438745,-0.08992475,-0.04348869,-0.013890737,0.0045991717,0.015521278,0.017979428,0.028115576,-0.036850855,0.03738933,0.023752198,0.045262996,0.019614868,-0.0549769,0.030381702,0.0696645,-0.005599678,0.020491505,0.03131008,0.02917304,0.01984848,0.024292685,-0.010772916,-0.02339879,-0.0033064403,-0.0052872426,-0.044852216,-0.026017759,0.0302681,-0.049149238,0.044657845,-0.031710338,-0.018109303,-0.01595875,-0.117959745,-0.043304037,0.010464142,-0.07260131,-0.047258105,0.014710753,0.011358196,0.030880587,-0.008996653,-0.02316404,0.08483379,-0.05342817,0.05361256,-0.017222576,-0.016555876,-0.037012283,0.006357881,-0.05750133,-0.021904076,0.021031711,-0.0068397983,-0.027393077,-0.041800026,-0.049339823,0.0108847,0.008044169,-0.007400426,-0.0077456264,0.011828038,0.001989337,0.09303472,0.01917259,0.017100368,0.042004164,0.06141891,-0.027347516,-0.0028836578,0.056083716,0.031678524,0.031960856,0.037241653,0.07079077,0.053158347,0.038187083,-0.03598929,0.0054287068,-0.04682119,-0.03441224,-0.09440299,0.00091207953,-0.023325967,-0.034457576,0.012005186,0.019841107,-0.016362378,0.08004441,-0.043496717,-0.0023868617,0.014449385,-0.074433744,-0.03562004,-0.03203389,-0.014280048,0.033225928,-0.05406523,-0.019677464,0.03401693,0.046800286,0.0069148964,0.044149775,0.044664163,0.049557075,-0.040767454,-0.03923949,0.023162453,-0.053191196,-0.023398267,-0.012451174,-0.11217718,-0.005552761,-0.036599334,0.014712299,0.052899323,0.013915622,-0.024490612,0.045070063,-0.057476517,-0.045332987,-0.021831367,-0.042346418,0.0047884905,0.014346627,0.07985443,0.0060719284,-0.050173104,-0.02175209,-0.019443242,0.030971177,0.013190781,-0.06448326,-0.034049727,-0.0015124029,-0.0013836137,0.025566014,-0.0805249,-0.018413767,0.044062883,0.047370177,-0.015722387,0.008041443,0.052285727,-0.0066506057,-0.04666708,-0.032274626,-0.052187853,-0.015489809,0.03339758,0.036908735,0.04222336,0.02947695,0.029945461,-0.011412488,-0.004266041,-0.034816466,-0.0286841,-0.030418066,-0.008349646,0.0007144623,-0.028029379,-0.04236331,-0.008325967,0.034289394,0.039399963,0.005463112,0.0051851626,0.08529584,-0.054525178,0.0026765214,-0.06483511,0.024117377,0.009518924,-0.06702351,0.030197179,-0.096034005,0.032946695,0.033353798,-0.031847913,-0.06300595,-0.06814614,0.023002284,-0.040904365,0.04488833,-0.014683896,-0.018748745,0.02040639,-0.02708466,-0.112592734,-0.028636592,0.06413132,-0.00029461057,-0.034531515,0.019403817,-0.02214121,-0.0150829125,-0.019941023,0.019912641,0.03862186,0.047833297,0.012707929,-0.052099194,-0.034877915,-0.011177569,-0.0906871,-0.015185528,0.0034533415,0.012577727,0.01415923,-0.021620257,-0.05346629,0.009915135,0.048601817,-0.042386763,0.00831291,-0.023126451,0.023187276,0.06439066,-0.029030621,0.068966985,-0.00049333746,-0.014223251,0.033378713,-0.033589408,0.064137675,0.004995297,0.013643702,-0.029991414,-0.057352554,0.047058105,0.034434352,0.030785227,0.016719645,-0.020772716,0.010301807,-0.117313586,-0.005874628,0.020638714,0.041408964,0.011282022,-0.036234528,-0.03012587,0.043945737,-0.08074055,0.035259433,0.009271323,-0.026270656,-0.05591811,-0.013209225,0.031306807,0.010573647,0.04941858,-0.011647226,-0.059332915,-0.03951995,0.011067542,-0.051452532,-0.0038659612,-0.0045156,-0.032283332,-0.059059273,-0.053283513,0.027491117,0.004413798,0.044427775,-0.025789589,-0.061431408,0.05629228,-0.00021678457,0.020389408,-0.019290447,-0.0013265912,0.029268643,0.04156764
-0.076343946,0.03601753,-0.070825376,-0.0046387273,-0.061217587,-0.019257354,-0.007743074,0.033368066,-0.048616488,-0.023255214,0.06356308,-0.0029659804,-0.03112035,0.058880515,0.07343923,-0.031840887,0.0030941665,0.00836099,0.032661524,0.03767781,-0.029684408,1.882602e-05,0.04980444,0.06430202,0.01830969,-0.08532195,0.057470903,-0.08666871,0.01848595,0.01872238,-0.04681526,0.026207816,0.050804205,0.03774296,0.011322953,-0.00917224,0.010231397,0.034635738,0.037781227,-0.09298816,-0.022328578,-0.05099754,-0.0033137477,0.003822225,0.052753016,-0.0198226,-0.0045506163,-0.040303722,0.027915379,-0.06824076,-0.022561358,-0.0052399198,0.0063215424,-0.04249173,-0.08159135,0.011210811,0.00075009087,0.068683654,0.020966401,-0.015501597,-0.041133042,0.042769987,0.06235363,-0.07087788,-0.036290504,-0.047888733,-0.04461451,0.0576625,-0.0034398981,-0.07107453,0.016325107,-0.057005472,-0.036013342,-0.03814213,-0.052826576,0.043939713,0.0075607263,-0.041163847,-0.037505817,0.024532527,0.06106272,0.060415577,0.024162875,0.012066902,0.022285646,0.014901582,0.017830199,0.049784057,0.05063818,-0.01387563,0.019472068,0.0273323,0.030483112,0.011364439,0.051310863,0.042984217,0.004129719,0.012856776,0.015127391,-0.026403531,-0.038922273,-0.027489921,-0.07699995,-0.040933307,0.0639607,-0.051576678,-0.031742714,-0.033884794,0.024720399,0.05176698,-0.018561594,0.016978443,-0.007243418,-0.13873181,0.05026773,-0.02617361,-0.0022927087,-0.030605625,0.029596055,-0.007590191,0.02499092,-0.009513326,0.022655478,0.045568157,-0.019696184,-0.03034118,0.025344046,0.0388714,-0.040331315,-0.06533973,-0.020988306,-0.043973435,-0.051824573,-0.023930373,0.03928291,-0.0025505484,0.06447399,0.041313086,0.010052262,-0.16666122,-0.03349757,-0.032609325,-0.07844438,-0.035565645,-0.048782397,0.022247108,-0.0070622857,-0.025545804,-0.001898116,-0.064537056,0.030064715,-0.009907149,0.009497547,-0.012193293,-0.016661964,-0.06458757,0.030446457,-0.018036015,0.028294366,0.02948757,0.049987312,0.016166272,0.0012215661,0.048137963,-0.055712935,0.08843854,-0.0069762263,-0.019532511,-0.019967804,0.034249473,-0.03935836,0.016417576,0.013183965,0.02263901,0.035072245,0.009629439,-0.06791499,0.03399928,0.038189888,0.029764822,0.011642353,-0.06053357,-0.063866094,-0.028504442,0.0054053823,0.039273065,-0.012081582,0.024330392,0.02925528,-0.06831805,-0.02846925,0.02931761,-0.038310234,-0.004873451,-0.00066268834,-0.07971468,0.017383227,0.05842755,-0.09386046,0.06737828,0.0060003954,-0.07046758,-0.058731124,0.016078334,0.04576818,-0.014154857,0.004687351,-0.08896269,-0.05525828,-0.09364787,0.016632365,0.04751804,0.009928896,0.046703033,-0.009197398,-0.08002557,-0.023671633,-0.01194818,0.009161445,-0.016320966,-0.04120447,-0.029510902,-0.113725565,-0.07211217,-0.05339786,-0.06607869,0.03608161,-0.015288753,-0.011473105,-0.04987306,0.025553105,-0.021509035,0.016613064,-0.022075158,0.03690788,0.02572951,-0.017193787,-0.04057239,-0.09045083,-0.047750864,-0.011917714,-0.061955255,0.05447209,-0.016207876,-0.0018448015,-0.00027108926,-0.0031500938,-0.05684008,-0.034412418,-0.015167036,0.010314515,-0.060280226,0.043066576,-0.037850652,-0.05969014,0.024293048,0.037810102,-0.00985325,0.064754024,0.057105687,0.012166519,-0.025526365,-0.04608245,-0.04916426,-0.022255916,-0.07583387,0.005448589,-0.04641415,-0.008156837,-0.042191558,-0.09924854,-0.037104446,0.013215727,0.05317706,0.0041929353,-0.025761643,0.047500897,0.022957556,0.04763493,0.030691763,0.09335684,0.007193549,-0.059695408,-0.009993943,-0.13298626,0.045796942,-0.078425094,-0.008717473,-0.04307896,-0.054321546,-0.031851888,-0.008456373,-0.008101188,0.064176306,-0.07307894,-0.04094898,-0.02135448,-0.020903178,-0.02683327,-0.030877464,-0.001627382,-0.022364127,-0.052449454,0.038693756,0.029388236,-0.052925736,-0.023051461,-0.099063635,0.05451182,-0.018532488,0.069180004,-0.0058843107,-0.021375777,0.012270571,-0.0638142,-0.046263177,-0.039755687,-0.02019606,-0.07389036,0.033647623,-0.07477156,0.017290985,-0.04703932,-0.09997977,0.0040241643,0.0063041397,-0.030029196,0.021363331,0.04669085,-0.03326462,-0.015272409,-0.0014049083,0.034350447,0.021476105,-0.027088584,0.008707148,-0.00068802066,0.04261531,0.012046687,-0.01873302,-0.03273898,-0.12710667,0.0074526947,0.05616675,-0.076080374,-0.013118836,0.013475931,-0.030624824,-0.027854828,-0.034906413,0.04276063,-0.039983544,-0.034478378,-0.013560931,-0.030674782,0.039064474,-0.056830965,-0.011834264,-0.004727584,0.0066373143,-0.05195794,-0.0065647913,-0.027773537,0.010727999,0.05409679,-0.0053447573,0.08490121,-0.008461199,0.007509404,0.006019782,-0.018704196,0.02442787,0.0038916578,-0.013572732,-0.0085507,-0.021182936,0.009896557,0.023261698,-0.03503273,0.029482521,0.0701746,0.012555256,-0.071081236,-0.0071125026,0.033522524,0.016102897,0.0011651765,0.03487957,-0.098946065,-0.039182063,-0.020104414,-0.03559862,0.017473036,-0.0067238663,0.0010810961,-0.0045700665,-0.04182638,-0.0022852626,-0.085412465,0.03247158,-0.00083429914,-0.015188958,0.039599333,0.000855229,-0.046442762,-0.10048002,-0.041660655,0.033546407,-0.014125246,0.015315457,0.050330613,-0.07044451,-0.030631376,0.07992517,0.002070048,0.0033913476,0.05638607,-0.042970985,0.0015634774,0.007415982,0.06087722,0.008642101,0.004996027,0.026860027,-0.114961736,-0.007994945,-0.08427472,-0.013877786,-0.060782384,0.020782312,0.009921118,-0.019156724,-0.072336234,-0.013639988,0.022835342,0.004875402,-0.03711465,0.058947712,-0.015471728,0.028124128,0.03869144,-0.0009937147,0.016303107,-0.035414506,0.091254525,-0.02587334,0.037546568,-0.047153845,0.028756618,0.05003,0.051100824,0.018179378,-0.033021607,0.021883363,0.0018524276,-0.007322611,-0.05048149,-0.02833346,-0.03705509,-0.010560944,-0.07072315,-0.005663742,-0.025246095,-0.03082748,0.0049447087,-0.016089266,0.0024933014,0.0017082677,-0.00086533313,-0.07382022,0.043791503,-0.0350088,0.015296633,-0.02411429,0.010952085,0.04932068,0.012903663,0.019815754,0.008837319,0.039889757,0.01451405,-0.054321446,0.059438866,-0.006650381,0.08351125,-0.038343374,0.019257095,0.03982142,-0.060083557,-0.040726233,0.023604782,0.026770053,-0.096998826,0.02590266,0.011154982,-0.029834103,0.035968058,0.0060765534,-0.02281795,0.034379266,-0.026527446,-0.048568536,-0.009252269,0.013963348,-0.14607863,0.020713137,-0.04453096,0.051215846,-0.037118964,0.06415624,0.009478739,-0.040048342
0.023596896,0.011577288,0.011061755,0.02578242,-0.004813629,-0.018471804,-0.03437257,0.0028653336,0.052183896,0.0018347838,-0.03468076,-0.008577785,0.056522757,-0.016399154,-0.077634335,-0.003188263,0.0007324048,0.01638852,-0.051650062,0.04442353,-0.0094497735,-0.031018807,-0.017801223,-0.023722235,0.029939627,0.046554342,0.036903985,-0.068972535,-0.024664449,-0.042920493,0.010834011,-0.019002086,-0.0043980507,-0.05789283,-0.021507075,-0.052484427,-0.0310488,0.12224965,-0.061629396,-0.015468512,-0.02841033,-0.040175565,-0.005946768,0.030427894,-0.12657183,-0.0040013012,-0.011146847,-0.028674848,-0.06551741,-0.035779566,0.04447024,-0.02140142,-0.0453935,-0.05743052,-0.031709243,-0.016516574,-0.0508613,-0.061935373,-0.09890341,-0.014715055,-0.012468048,-0.08402043,0.006792791,0.02927751,0.038333036,-0.08861952,-0.050862327,-0.03539609,-0.071807936,0.028696148,0.006001027,0.033659887,-0.044371914,0.103429265,-0.041470286,-0.017818011,-0.029991206,-0.19397657,0.01736149,0.02979226,-0.030534761,-0.043346714,0.027049964,-0.024204552,0.021136079,-0.040447764,-0.015471472,0.0066778483,0.016742248,0.0208916,-0.025776388,0.03732568,0.042308364,0.05192954,-0.03311526,-0.044739123,-0.009219134,0.05323413,-0.049621128,0.020589184,0.021247277,-0.004543836,-0.014405083,0.05945394,-0.037600413,0.04354822,-0.00014075963,0.019014351,0.046826232,-0.04523934,0.038254786,0.06944887,-0.023931857,0.0014997461,-0.08856176,-0.033611562,-0.023689965,-0.026046442,-0.020180507,-7.3802825e-05,0.012964494,0.010563905,0.0053841933,-0.0019542016,-0.028334182,-0.0035464151,-0.060384158,-0.007478804,0.006410871,0.038548496,0.007363494,0.05845159,0.02247154,0.02582626,-0.042441804,-0.008760727,-0.03729007,0.05367299,-0.011150059,-0.008640856,0.06721753,0.03521996,0.039722048,0.045885757,0.025700366,-0.0049274163,0.012695032,0.0007169063,-0.0036316544,-0.0048199664,0.02928741,-0.0075567407,0.022531947,-0.04735693,-0.005725527,-0.065148465,-0.0674041,0.057216663,-0.036905933,-0.090642564,-0.06554004,-0.09418395,-0.03611555,-0.06894309,0.0049664024,-0.0037432113,0.016195528,0.0085024,0.0024061399,0.022051902,-0.002115823,0.00046802673,-0.068080276,-0.03636586,-0.033200003,-0.019873044,0.054213624,-0.005300884,0.02476513,-0.06459444,-0.0028385478,-0.01817163,-0.038044926,-0.017401556,-0.031629894,0.048748754,0.031175561,-0.17013876,0.013641849,-0.01718953,-0.0060474146,-0.008006677,0.00030515582,-0.025805278,-0.08150142,-0.013837543,0.032593533,-0.0029900223,0.022612484,-0.10880812,0.047688607,0.03990782,0.04083386,0.023010436,0.020259842,0.00877019,0.03661907,0.056762468,0.04941071,0.069600046,-0.042477783,-0.066144355,0.013186235,0.029098682,0.03211755,0.010209828,-0.072063714,-0.004697618,-0.09111852,-0.05437647,-0.029073426,-0.030812599,0.023629779,-0.028368527,-0.029551847,0.03878098,0.028310832,0.010700017,0.038454678,-0.094074786,-0.017634073,-0.014354494,-0.05033098,0.012551666,-0.05082659,0.00941877,-0.017168343,0.022685144,0.0016580119,0.019841023,-0.0055859773,-0.03643325,-0.07419503,-0.051310856,-0.04135088,-0.057039857,-0.03513221,0.020134617,0.024585102,0.021813538,0.035191055,0.029189724,-0.058215834,-0.011891317,0.04135004,-0.042339694,-0.052360106,0.02196183,0.08019689,0.0034336492,-0.008571524,0.023985103,0.01118648,-0.033243608,0.0058681937,0.02629676,0.038603507,0.048706915,0.0632285,0.051413175,0.03752115,0.02640574,-0.044351973,-0.018351689,-0.014311792,-0.06655411,-0.043912705,0.030280659,0.039514266,0.061115377,-0.05158445,0.03720054,-0.055964485,-0.04176051,0.037904147,0.05637535,-0.011870858,0.0077878423,-0.044280645,0.08354144,0.044792056,-0.004200455,0.020050626,-0.00043084708,0.04932854,0.0048716166,0.031392597,0.02632819,0.031592015,0.031217078,0.030361969,0.059028316,-0.02127774,0.027273754,0.044165358,0.00884588,-0.02984241,0.016338767,0.051379688,0.035238955,0.031300284,-0.015179679,0.009313586,-0.048736844,-0.0008373742,0.030169835,-0.05435555,-0.06599524,0.010301556,-0.006586369,-0.006313245,-0.045337647,-0.024476223,0.032738008,0.03101328,0.02936778,0.034689415,-0.010302425,0.039089035,-0.09644547,0.048675314,-0.027932435,0.04198452,-0.041946366,-0.0019865897,0.033019636,0.013056224,-0.0646339,0.05597308,-0.027687501,0.036868718,0.049071234,0.03540769,0.0339656,0.028927403,-0.08406351,-0.014107911,-0.035669755,0.047634173,0.033476397,-0.09211474,-0.029311724,0.058725636,-0.043615106,0.006571119,-0.06268258,-0.01374621,0.029992722,-0.0047727674,-0.023831204,0.002640251,0.02524632,-0.108986564,-0.0056840507,-0.01814215,-0.05956628,-0.052734595,-0.016537238,-0.039838154,-0.019300234,0.031022403,-0.1084212,0.015123876,-0.019539539,-0.0004899914,-0.008508431,-0.045539275,-0.04480214,-0.006402099,-0.078183584,-0.050137017,-0.029211622,0.05444157,0.0019914496,0.034575284,-0.014483112,0.00207656,-0.052347254,0.03944277,-0.016453484,0.0035428694,-0.015654517,0.011696487,0.018899003,0.021781588,0.014285806,0.007724842,0.008398835,0.053243708,-0.0601201,0.02139055,-0.05473005,-0.08747625,0.025141576,-0.08353115,-0.056641266,0.029209256,0.0040157144,0.04688867,-0.090583056,-0.038660627,0.028208215,0.028155949,0.059563108,0.010424932,0.001959686,0.05435586,0.0027495404,-0.061551366,-0.004199941,-0.11500613,-0.013462241,-0.004070636,-0.017913906,-0.12190369,0.0052006133,0.03232409,-0.022075875,-0.00938661,-0.07567926,-0.043136466,-0.017512625,0.02664796,0.065045945,-0.08492578,-0.022553675,-0.007996754,-0.0528491,-0.012039121,-0.08367703,-0.05312276,-0.008896111,-0.042404898,0.041773535,-0.0036748983,0.018526116,-0.035792418,0.055302277,-0.07083404,-0.05796352,-0.06412186,-0.03517528,0.045815535,-0.0010792637,0.017364664,0.040973052,0.03976741,-0.06729515,-0.015369646,-0.006482424,0.033468593,0.008993792,0.05150261,-0.03325098,0.006566378,-0.016407916,0.04569232,-0.08894979,-0.056473065,0.02246548,0.0050799293,-0.015754089,-0.03749948,0.079287745,-0.003988008,0.02889373,0.01994777,-0.027394008,-0.027793797,0.026886355,0.016274678,0.025303936,-0.088616796,0.010197393,-0.010802417,0.026839243,-0.010286681,0.02019139,-0.059906945,-0.011193306,0.009695635,0.031682648,0.034002293,0.026189627,0.024179265,0.14539523,-0.036598314,0.027662873,0.02558446,0.053468067,-0.028879672,-0.022481415,0.0058038244,-0.033239223,-0.00727911,0.0026167003,-0.039537083,0.040677164,-0.007053829,0.04577117,-0.014772519,0.02979025
-0.036668576,0.037472047,0.017302018,-0.03608532,0.0054364493,-0.04751801,-0.011994254,-0.019986095,0.030737374,-0.023969067,-0.018621635,0.018988386,-0.0006773609,-0.058837917,-0.03758587,0.024208048,-0.027629739,-0.025989141,0.033028293,0.026968546,0.03191152,-0.012577171,-0.01694532,-0.007109725,-0.02374197,-0.0567918,0.028514946,-0.06599827,-0.11358282,0.024191424,0.02927547,0.031750314,-0.048138373,-0.010170522,0.065071,0.017389337,0.031611364,0.0014680198,-0.04179009,-0.007601732,-0.04186185,0.05246013,-0.00016846122,0.042482022,-0.023688488,-0.018669542,-0.035461552,0.05639211,0.039016508,-0.07948943,0.017598247,-0.02084549,0.009585188,-0.032189958,-0.04508288,-0.05982721,0.02002181,-0.05770592,-0.04178566,0.035856485,-0.057895515,0.041274168,0.010534795,-0.03355543,-0.033291943,-0.050996713,-0.0029645828,-0.06260996,-0.031168066,0.024222571,-0.006866638,-0.033921633,-0.023985915,-0.03370807,0.015548221,0.01581237,-0.0225597,-0.035579257,-0.022749605,-0.04173745,0.028009703,0.0011509358,0.037618313,-0.02539497,0.043650694,-0.00045373532,-0.016764933,-0.043846138,0.009641084,-0.12256257,-0.029334249,0.0037638862,-0.024581803,-0.06519896,-0.048635494,0.054884728,-0.007881274,-0.038548335,0.048087325,-0.016333897,-0.0004054673,0.06664214,0.048018776,0.01023157,-0.002205621,-0.058017295,-0.061346043,0.020492718,-0.035145864,0.033381894,0.042475905,-0.11920771,0.002266107,-0.0142621845,0.041007027,-0.040928774,-0.002783598,-0.04381198,0.032141753,0.07269081,0.008658204,-0.00017015824,0.020830581,-0.0053452053,-0.039089415,-0.026905704,0.047962327,0.019891467,0.058073193,-0.027596153,0.060130797,-0.11177722,0.054108143,-0.0016306415,0.04629914,-0.015823131,-0.0056984,-0.06630786,-0.010594516,-0.104688585,-0.030135421,-0.03796259,0.008585694,0.023498178,0.04041318,0.009912706,-0.013251661,-0.08657996,0.029042654,0.0032677772,-0.0104243085,-0.06439357,0.024495361,0.004305135,0.04443842,0.054104652,0.092389576,-0.012338352,-0.02979528,-0.036805507,-0.011810574,-0.025774784,0.03875831,0.0025154196,-0.058697835,-0.09374994,-0.004909203,0.005673025,0.020174608,-0.016524749,0.05589156,-0.06618971,0.035298128,0.007600915,-0.015147319,-0.01891235,0.02482028,-0.06172015,0.055606883,0.014190988,-0.011503042,-0.056010894,0.013611388,0.06401581,-0.012632447,0.008040716,-0.03052698,-0.08503369,0.056973655,0.005981869,0.035843354,-0.017456923,-0.043668233,-0.14006233,-0.033665035,-0.04364105,0.00635319,-0.050767615,0.01025161,0.00029273395,-0.012369344,0.048267595,-0.033473674,-0.003936557,0.03803274,0.027469398,-0.028018,-0.07706488,0.00055375585,-0.063724,0.03480179,-0.047255307,0.0066492897,0.004127397,-0.046979886,0.0661806,-0.029581351,-0.053312153,-0.017484013,-0.025425581,-0.050474033,-0.0238794,-0.05548643,0.0060719135,0.011337461,0.03811521,-0.064582855,0.038877845,-0.03886594,0.05299855,0.01103731,0.05822467,-0.053797513,-0.0014784664,0.032497708,0.021614095,0.025741898,0.114780866,-0.037247714,-0.020496909,-0.024118727,0.035999443,0.025634428,0.026325712,-0.018556328,-0.018074917,-0.0023646436,-0.045963507,-0.04311022,-0.06699426,-0.012971124,-0.0961924,0.00549098,-0.03254322,0.035805535,0.023948109,0.0378507,-0.08373814,-0.0383176,-0.0026054387,0.014989702,0.026661308,-0.08888562,-0.013355703,0.04069141,-0.019132862,-0.018296741,0.04965736,0.08028784,0.011364828,0.045089763,0.0010432127,0.043363664,-0.06995598,-0.04793972,-0.03997047,0.013877812,0.01370261,0.060466386,-0.10003373,-0.0037977984,-0.0646562,-0.014516156,-0.07710043,0.041785657,-0.0024227414,-0.06468894,0.042259082,0.037531033,-0.08840632,0.004249011,-0.016844751,0.023399878,-0.11772096,-0.06396793,-0.042717014,0.035070572,-0.030661121,0.003994398,-0.058028605,0.116979256,0.018637003,-0.017857296,0.03023744,-0.06166208,-0.046493422,0.03832383,-0.09212721,-0.05265362,0.012986838,-0.06656388,-0.1022636,0.047537245,-0.07365763,0.036953464,-0.026868254,-0.03797737,-0.007965381,-0.14140742,-0.0452577,-0.03303084,0.009653135,0.0026310848,-0.06577209,-0.03182459,-0.106986046,-0.053235654,-0.012305627,0.0022066447,-0.041701876,-0.059812553,0.009074628,0.010687704,0.04180028,0.0026275988,0.049080204,-0.016082374,0.020609248,0.014719211,-0.051411204,-0.02598266,0.06634061,0.0035077801,0.015099048,0.05174635,0.016749732,-0.003335328,-0.04128694,-0.0150245195,0.020950466,-0.083665244,-0.058290895,-0.10048792,0.0012984291,-0.034230206,0.04747577,-0.017203467,0.001679835,0.033999387,-0.058232166,-0.057197925,-0.104282156,-0.0077652056,0.03579012,0.04027551,0.049772713,-0.09100504,0.011870956,-0.08787019,0.016114086,0.027279463,0.033656508,0.029572623,-0.025934935,0.061794583,0.032614682,-0.005472247,-0.0045427796,0.01802878,0.049419284,0.002303048,0.039241903,0.014769034,0.00034618107,-0.017490394,0.018561937,0.0060794535,0.047954123,-0.039057605,0.0096275415,-0.0033979868,0.029666472,0.044840652,0.00778662,0.006716595,0.041546427,-0.0072406144,-0.09181165,-0.09201765,0.019720327,-0.006855727,0.0016145917,-0.0032843864,-0.038834468,0.04764797,-0.023832256,0.01402297,0.033377144,-0.037699584,-0.0122785065,-0.035648994,0.06484349,-0.051851038,-0.053465992,-0.061468523,0.030139077,-0.06937386,0.079022914,-0.0077625946,0.003838627,-0.039080907,-0.024867505,-0.056396827,0.01636974,-0.19936234,-0.022214856,0.020765675,-0.039378874,0.04164718,-0.058627807,0.04612308,-0.002658434,0.023345474,-0.05153816,0.053398278,0.03352445,-0.019148637,0.043908834,0.027515674,-0.049088363,-0.048913017,0.0026963442,0.01488128,0.051605657,-0.0797656,0.014447294,-0.034757596,-0.029081218,-0.00087505137,0.02048565,-0.047614995,-0.007891217,-0.037528444,-0.024054648,-0.018994758,-0.052992195,-0.014398897,-0.08285445,-0.025631497,0.027696664,-0.006209992,-0.031176992,-0.08872124,0.019727148,-0.0032395646,-0.05864575,0.037447833,0.028014714,0.032928117,-0.063570835,0.038194947,0.011393098,0.0019644415,-0.009343705,0.07224433,0.008930886,0.0139367785,0.004636259,0.0078056576,-0.07008107,-0.029197505,0.046335258,-0.06284734,-0.04346397,-0.011503407,-0.043059662,0.06373791,-0.020452138,-0.07718432,0.010266433,-0.05977891,0.009318574,0.02486965,0.04638952,-0.0128134,-0.00751244,0.009673081,0.009782378,-0.048796333,-0.07446086,0.022718985,-0.04948271,0.034194965,-0.036706537,0.024766637,-0.006928001,-0.066611744,0.019283043,-0.01408144,-0.1008509,-0.016849924,0.03724246
0.03671637,-0.01613634,0.050331257,0.047168884,0.017206378,0.011281446,0.018012334,0.03305618,-0.050489176,-0.0339912,-0.04935202,0.050575696,0.05455967,-0.019931534,-0.02917302,0.009003056,-0.051149577,-0.040271252,-0.04247521,0.03933877,0.031349562,-0.10999608,-0.081382334,0.014794582,0.0450221,-0.010520885,-0.020673322,0.024202397,0.039944377,-0.079983614,0.05373359,-0.040244244,0.0066143456,0.0035338947,-0.007901664,-0.017121263,0.0024686083,-0.04874476,0.040804215,0.0072685103,-0.011440221,0.043676607,0.021953622,-0.013286459,-0.027108338,0.001780177,-0.07052373,0.06505232,0.00015974615,0.018345654,-0.05601496,-0.14782406,-0.040410206,0.05646548,0.052476678,-0.013843017,3.2005133e-05,0.00997188,0.0012361977,-0.049150866,0.033443697,-0.03580377,-0.058621176,0.063924514,-0.0032972523,-0.001811791,0.0058169737,-0.018507505,-0.044264656,0.0043239156,-0.019174209,-0.013855202,0.05632659,0.109370306,0.04633173,-0.054952815,-0.031824946,-0.06636464,-0.0021081243,-0.061787933,-0.022491885,-0.037277732,0.03211323,-0.026735323,0.00018792157,0.040455792,-0.039658956,0.070379175,-0.040884838,-0.11567046,0.047242887,-0.04651093,0.017663844,0.0050845733,0.04760766,0.023304515,0.02838105,0.010623913,0.0066307336,-0.025993207,0.025078982,-0.025219953,0.0077972864,0.04725082,0.02644819,0.012555232,-0.008752079,0.0075108428,0.017933123,-0.06988331,-0.064965,0.017410465,-0.050572257,0.009329649,-0.035716783,0.012621887,0.03332978,0.0015138814,-0.09829246,0.035891034,-0.025684152,0.04092872,0.0005440863,0.02062852,0.0017347473,0.014142294,0.028260618,0.024261167,0.0007300626,0.028119514,0.035760783,-0.012799544,-0.023576038,0.041169837,-0.020437574,-0.06442415,-0.034162235,-0.009032378,-0.11925241,0.01263089,-0.0057790074,0.0061791656,0.04422545,-0.009085785,-0.005795666,0.0012679767,0.01843019,-0.038804553,0.029107032,0.022552278,0.027557574,-0.07066501,-0.062744945,-0.0072669974,-0.051934693,0.062429603,-0.06013642,-0.02260191,-0.052173425,-0.02702639,-0.047121774,-0.045428075,0.0077605234,-0.099630125,-0.06489968,0.08402554,-0.029973779,0.04788319,-0.012495889,0.03552209,0.037945423,0.044650357,0.02414616,-0.010509375,0.015533732,0.006172134,0.002912166,-0.031041935,0.040652826,-0.050119393,7.912075e-06,-0.019713538,0.027176714,-0.016535208,0.0050129686,0.0367457,0.008915303,-0.020774854,0.055426683,0.021835458,0.016982324,-0.019391116,-0.024573004,0.048022397,0.028874015,0.00328167,0.029254442,0.04367179,0.04380807,0.041777685,0.04503169,0.061822433,0.027234135,0.03319121,-0.046651527,0.041758765,-0.020159844,0.0199998,0.05706011,0.027327234,-0.029104346,0.028283391,0.05002153,-0.0065212306,-0.028861815,0.020065608,0.03414785,0.04333415,0.009353764,0.042768896,0.03759378,0.00525055,-0.038218066,-0.0053110905,-0.054959618,-0.038185187,-0.066106044,0.026720826,-0.024718935,-0.10131864,-0.0075275083,0.018299095,-0.030515185,-0.0069359136,0.007346231,-0.014380568,0.018692143,0.027880356,0.028407998,-0.095198415,-0.03332012,0.018708505,-0.04974328,-0.08120359,0.013770873,0.03349898,0.004247688,0.025908511,0.014753589,0.025856188,0.008745728,0.04626366,-0.038463026,-0.009346064,0.047265317,-0.015819447,0.026354857,0.03905944,-0.12504771,0.014633558,-0.02324336,-0.0012101968,0.028528487,0.02096288,0.040201433,0.026171498,-0.04894864,-0.10404675,-0.056113847,0.019552127,0.030830463,-0.013213393,0.0049327454,0.05131972,-0.042540193,-0.025825186,-0.046843756,-0.11302043,-0.07070563,-0.034881648,0.084012255,0.051316157,-0.040494803,-0.05560947,0.028626967,-0.025313681,0.032988437,0.041633416,0.008964188,-0.02535797,0.0592952,0.049936034,0.024830418,0.07570172,0.0065985853,0.019587895,0.0045668823,-0.042924255,-0.01565718,0.014763726,-0.06410534,-0.06977989,0.005451775,-0.06290945,0.0043211323,-0.06618669,0.043653876,0.06390286,0.04262056,0.048930857,0.04055467,-0.030701676,-0.016254408,0.047494758,0.09008656,0.015308131,-0.013529668,-0.097214594,0.0004788382,-0.0023901332,0.009646583,-0.022838317,-0.010477947,-0.03715956,-0.028883127,0.035071805,0.01937898,0.034520987,-0.01062683,-0.022458185,0.0644145,0.048127282,-0.13174488,-0.04054631,0.042570006,-0.0015517417,-0.069537856,0.047417924,0.0056881984,0.03945837,0.052560955,-0.06279758,0.008921041,-0.0007990226,-0.015443206,0.029768165,0.011663672,-0.049707826,-0.10083326,-0.088457905,0.027827658,0.03510636,0.0057383515,-0.05515616,0.025332132,-0.015012709,-0.009776725,0.030490808,0.058991652,-0.06884357,-0.005590965,-0.044069767,0.02795928,0.028549327,-0.060184132,0.007998655,0.0019995668,0.010487533,0.017816156,0.009366923,-0.005055737,0.04288473,-0.0666123,-0.061333824,0.046975136,-0.015442956,0.06215833,-0.021307286,0.0047498755,-0.010022117,-0.020971484,-0.0050451136,-0.074170925,-0.013562116,-0.06683138,0.01440483,0.02169858,0.00536898,-0.026070872,-0.008294292,-0.050594352,0.013786173,0.04869743,0.02223138,0.0141326105,0.012527421,0.039645556,-0.08063724,0.05901194,0.030843101,0.034479387,0.043013744,0.0013797204,-0.0069086826,-0.00022014638,0.06412221,0.045556396,-0.04370945,0.011921961,0.04064183,0.048207164,0.06476823,0.015744628,-0.023437709,-0.001928653,-0.033201516,-0.022727078,-0.00448037,-0.0503846,-0.05775248,0.031985957,-0.011915882,0.021132002,-0.033142295,-0.009127558,0.017617859,0.035689186,-0.023827272,0.004786909,0.017990764,0.018158324,-0.009978195,-0.0039106524,-0.031699855,0.004348274,0.019762276,-0.036661383,0.0050361427,-0.06559101,0.048158046,0.07198321,0.03285358,-0.035812397,0.050685015,-0.019480249,-0.068806954,-0.008561572,0.0022394813,0.039829023,0.01139291,0.04238392,-0.015096596,0.0033052212,0.010069321,-0.011774819,-0.065150246,0.021628976,0.059113536,-0.022037718,0.009391524,0.029039409,0.0016466174,0.033519965,-0.032182455,-0.020059567,-0.059188657,-0.07201094,0.0617784,-0.024938105,0.01300688,0.009852239,-0.034810085,-0.018797098,0.046491195,0.0014908513,-0.05149993,0.019817216,0.016179727,-0.026124349,0.06999527,0.019197533,-0.044360086,0.022135697,0.0039164727,-0.044079296,0.03368586,-0.04502291,-0.008247632,0.0764671,0.02760564,-0.029029109,-0.03921078,0.037350774,0.05304465,0.018915918,-0.09740355,0.05662074,0.020502662,-0.03388421,-0.047238193,-0.014306389,0.029960148,-0.01677093,-0.010780029,-0.010893308,-0.008083737,-0.06280784,-0.04781728,0.019743804,-0.11526506,-0.050360877,-0.04039308
