0.025172321,0.027544606,0.0016205106,-0.0037419135,-0.00028264,-0.00027026728,0.021873476,0.0014718618,0.063691154,0.037643075,0.007635511,-0.013567128,0.027985128,-0.006381103,0.029445808,-0.0052028946,-0.004072529,-0.009554801,0.0325268,0.01823856,0.0025024673,0.032588385,0.021281548,-0.018059602,0.037315078,0.012519577,-0.0020863446,0.055060163,-0.010427043,-0.056746915,-0.00860167,0.007905137,0.012010171,0.03760577,-0.01788619,0.04556616,0.015071435,0.02391055,-0.0065562483,-0.0015985618,0.0031922814,0.04185487,-0.012508907,0.0066952324,0.022551881,-0.023960566,0.008874375,0.0029976175,-0.007909566,-0.007962827,0.016357169,0.0063200505,-0.0024465206,0.0066299126,0.023212314,0.028450077,0.025928663,0.016141338,0.0035453488,-0.0049170777,-0.006273261,0.02493161,-0.044518083,-0.006190493,0.0018195304,0.029175663,-0.017519152,0.027708413,0.0237519,-0.018749753,-0.020519935,0.0050574243,0.026052214,0.013585901,0.036474284,0.03699259,0.0023499844,0.04668056,0.011662584,0.0077954903,0.037210457,0.0062900293,-0.030979691,0.042118445,-0.016849766,-0.0122852335,0.022839725,0.029876834,-0.013413192,-0.022688124,-0.0020196938,0.00082463934,0.004225087,-0.004821772,-0.0052252742,-0.007318043,0.038314693,0.052738417,-0.0035138612,0.029736929,0.01330661,-0.0037891413,0.022146579,0.030867577,0.008705695,0.017006999,-0.0056632683,0.007433534,-0.015944721,-0.004080703,0.025654307,-0.0009231653,-0.010054004,-0.0037377141,0.010647597,0.010706138,-0.006552324,0.033844665,-0.00911274,-0.009235683,0.02873635,0.068024844,0.03636686,0.007728919,-0.028788349,0.016205218,0.028483305,-0.0005809767,0.0010994788,0.04711973,0.00820306,-0.0079077855,0.030516861,0.02344724,0.009101136,-0.014661164,-0.025721923,-0.017509915,0.0034585265,-0.013001345,-0.013008488,0.020658955,-0.0011942106,-0.0063689393,0.0003307239,0.05442821,0.048708413,0.0058708168,0.0001719891,-0.0076028137,-0.036809947,-0.0026357719,-0.0023492994,-0.010909027,-0.012315557,0.011265397,-0.020393403,0.029080482,-0.012072457,0.021603849,-0.005986348,-0.014947906,-0.031222282,0.021496266,-0.045842186,-0.011047114,-0.0075036013,-0.003968915,-0.010146798,-0.0029981378,0.011288318,0.02167962,0.0036160888,-0.01573526,0.008081728,-0.0065610306,0.02121979,-0.004026531,-0.02428498,0.054300003,0.00013644641,-0.010681882,0.0037662897,-0.014119178,-0.009971076,0.029859608,0.021625739,-0.004643807,0.0026522132,0.013732147,0.0030480595,0.010604519,0.015647635,-0.0020005268,0.044306416,0.031198036,-0.010566247,-0.0109570045,-0.012846496,-0.00601379,0.010938284,0.013548263,-0.020854082,0.031013768,-0.0024004704,0.063789494,-0.012668382,-0.018207004,0.00983495,-0.012314897,0.0074647,0.0023710418,-0.0448662,-0.034758147,-0.008047877,-0.022644226,0.01927302,0.038157478,0.034955468,-0.011552985,-0.004096944,-0.017823955,-0.011379638,-0.015828975,0.02932879,-0.003275545,0.0173068,0.017022833,0.019703364,-0.006550774,0.08065205,0.0039439504,0.0107654715,0.014833889,0.024672436,-0.012500741,-0.008684913,0.009924283,-0.0023503487,0.00079417205,-0.020293927,0.009529254,-0.007215858,0.0026704194,-0.0021938141,0.0022104634,-0.013314016,-0.001323655,0.00046167054,0.012310136,0.018461943,-0.010064187,0.049983513,-0.0048794695,-0.008576998,0.01464885,-0.011444876,-0.014612693,-0.0010027137,-0.0040803407,-0.018443443,0.006167726,0.0017457602,0.0023671575,0.016165586,-0.012238247,-0.014197011,-0.004376228,-0.01390397,0.027512617,0.019496705,-0.04784486,-0.017386625,0.02336481,0.037536185,-0.01810478,0.0019242574,-0.014115453,-0.009784228,0.0011010347,0.014937519,0.007931714,0.013514047,0.014625159,0.018051602,-0.024976587,-0.023821246,0.02748494,0.019941052,-0.005865866,0.0018454804,0.012917037,0.022185808,0.0049427217,0.014327665,0.0076364693,0.020532925,-0.003989808,0.04482243,-0.017174933,0.027427025,0.013399858,-9.671259e-05,0.0007692325,-0.014165149,-0.014759217,0.0026847797,0.007949395,0.013125577,-0.0061929435,0.06164711,-0.03722475,-0.010051617,0.064838395,0.020711198,0.014602755,0.005461705,-0.01736018,0.01256812,-0.021843538,0.0009733032,-0.01623952,0.004413524,0.001715819,0.0112450905,-0.016037617,0.038466863,-0.0004146703,0.00875263,-0.016888907,0.011548155,-0.046427127,0.044396967,0.0043909126,-0.007883719,0.007845588,0.03737717,0.0031622252,0.023522774,-0.021141648,0.036604222,0.009682794,0.049059063,0.0012505946,-0.0012582227,-0.013341333,-0.01868996,-0.0056943065,0.006442805,0.04689812,0.006757309,-0.011008527,-0.002496235,0.015591522,0.0021246828,-0.012557898,0.046038564,-0.009433122,0.050249785,-0.017455744,0.015678745,-0.00035454842,-0.019061694,-0.012845358,0.007266678,0.04844937,-0.013563901,-0.038432054,0.0133510465,-0.018970931,0.00074028975,-0.0021815551,-0.0010319431,-0.0016208198,-0.024155557,0.03228371,-0.005696902,0.018950252,-0.004182363,-0.010221806,0.0066938796,0.022830062,0.002408198,0.014346187,0.013394039,0.017371442,-0.03264366,0.011017654,0.025264405,0.003028762,0.023531253,-0.00063065166,-0.0097443685,0.0038406681,-0.020205216,0.005520693,-0.016840462,-0.016744794,0.006541466,-0.016397163,0.013541233,0.019139504,0.05281243,0.012888841,0.01053037,0.011585213,0.0020463192,-0.015073235,-0.007110669,-0.0029848518,0.008934158,0.005124506,0.004977767,0.028130349,-0.008971507,0.026466342,-0.03238018,0.041424748,0.03454161,0.033766467,0.011299705,0.0024909023,0.0077244136,0.03730291,-0.019610526,0.0021613012,0.05776849,0.01263306,0.017898688,0.058021214,0.06134324,-0.011647093,0.03093358,-0.012938065,-0.01211658,0.01898098,0.006302594,0.012154853,-0.017340824,-0.013404232,-0.01968074,0.024196535,-0.0047502946,6.0546085e-05,0.015111538,0.007553334,0.048384663,-0.046958417,0.012071596,0.0021212993,0.014922353,0.023671756,-0.0049847765,0.0069302395,0.035992913,0.00052707776,0.047442764,0.028956411,-0.0010379119,0.0034159091,0.027795885,-0.008488622,-0.035503574,0.030997626,0.016039817,-0.009049001,-0.003973398,-0.0077233324,0.011886644,0.030797906,0.011950676,0.005738388,-0.0004394281,0.027486328,0.043868084,0.029080776,0.04763682,-0.015421774,0.025902646,-0.012880813,0.03465484,-0.026428668,-0.011630896,-0.023889374,0.0019547045,-0.013556346,0.040990766,0.03611323,0.0044455007,0.03623924,0.010289323,0.010844772,0.0073952987,0.010647877,-0.022716427,-0.014058195,0.0011975102,0.002535801,0.027030112,0.013615541,0.01629121,0.00064775115,0.027165752,-0.0018631896,0.013009256,-0.02336944,-0.0010185591,0.0037005448,-0.015214983,0.014957809,-0.03995807,-0.043304157
