-0.074214146,0.015372812,-0.04503553,-0.019332962,0.033897143,0.04478548,-0.1804724,-0.048142415,-0.082268216,0.029461015,-0.033361416,-0.1417249,-0.075006895,-0.043979067,0.083804786,-0.07996891,-0.052807745,-0.077266864,-0.014523764,0.07036274,0.004487065,-0.008419432,-0.018743992,0.12662655,0.044119123,0.00952691,0.07700091,-0.0515136,-0.0368501,-0.0022473016,-0.074631564,0.05345962,0.07007834,0.05129327,0.06898654,0.043870643,-0.10160559,-0.035545334,0.040674303,-0.17363504,0.021870742,-0.036929384,-0.065780334,-0.056446757,0.021592349,-0.06742867,-0.00032073076,-0.040371243,-0.06065521,0.00827469,-0.025007298,-0.12311078,0.03976515,0.061351866,-0.014724132,0.0029769707,-0.06594341,0.033791397,-0.08842533,-0.0049069077,-0.11319889,0.11854336,-0.10435709,-0.0076699336,0.048960615,0.08058821,0.035209246,0.07143521,0.038195025,-0.0042579332,0.11295017,0.017047092,-0.08212134,-0.0065765087,0.014345444,-0.036252044,-0.08837096,0.035962854,-0.0646761,-0.016348565,0.0755357,0.022099715,-0.037625544,0.05859116,0.017932117,-0.12295688,-0.040488195,-0.07957892,-0.028588649,0.058045078,0.0681769,-0.10490112,-0.032272898,0.011166994,0.044025853,-0.01153013,-0.022489898,0.092979416,0.051794738,0.027324151,-0.018988645,0.010968988,0.044926252,-0.021439552,0.012695626,-0.012661656,0.060965423,-0.11263003,-0.1144362,0.057519123,-0.10243951,-0.0042940252,0.11175428,0.0557508,0.022002826,-0.11438423,0.08295394,-0.099188246,-0.06063512,-0.051128224,0.084003106,-0.06819073,-0.040621974,-0.053949475,0.033787884,0.066847175,-0.1257719,0.022162976,0.035199057,0.051609594,0.0083291875,-0.083483845,0.075280644,-0.07522643,0.0048673498,0.061188977,0.044964354,-0.045656428,-0.03645437,-0.027269326,-0.08208359,-0.065883674,0.03829996,-0.11905643,0.028434727,0.04747346,-0.0067789434,-0.056423612,-0.088370435,0.012752696,0.04826687,-0.01669615,-0.049433414,0.06813411,0.08742926,-0.073144406,0.053127516,-0.05077912,-0.08208486,-0.11950478,0.0012947352,-0.12822567,-0.12816635,-0.08187941,0.06953145,0.03876007,0.042494938,-0.0007447473,0.040428456,-0.0014956752,-0.038231358,0.09372748,0.04502594,-0.09489774,0.09348026,0.075883016,0.06602078,0.100121625,0.07482613,-0.09704282,-0.10469037,-0.10777192,-0.044839285,0.012267162,0.06903163,0.06333689,0.0013820673,0.04913875,-0.14921744,0.014300592,-0.06900055,0.043919306,-0.0022938335,-0.014845233,-0.103381015,0.11794563,-0.048880775,-0.11857839,-0.04481057,-0.010832368,0.05361776,-0.13450517,0.014385747,0.007737321,0.08645188,0.051366832,0.12067468,0.058624968,-0.10283964,0.044227563,0.020347532,-0.04333954,0.095569186,0.032533396,0.0012581409,-0.08045135,-0.102692045,-0.035904408,0.02150426,-0.051650606,0.06936342,0.104728155,-0.008622597,0.06577849,0.04885844,0.059584286,-0.000681834,-0.045744754,-0.029839812,-0.106359,-0.02797366,0.011777211,-0.14471973,-0.0800959,0.07286826,-0.104027994,0.03660737,0.007001887,0.0007560158,0.033677418,0.036134098,-0.090980425,0.04210392,0.037128344,0.13077624,-0.03346644,-0.02884708,0.045186386,-0.020144977,0.011638985,-0.070514105,-0.10852825,0.022679297,-0.023726774,-0.16780657,-0.0085750725,0.07924689,0.100942805,0.03004793,0.05659425,0.033014078,-0.0040833834,0.043685593,0.059310008,-0.0061621405,0.06210772,-0.025628045,0.0818876,0.103642814,0.039622456,-0.046518136,-0.064181484,0.056060772,0.044096313,-0.08650142,-0.07825446,-0.0056096297,-0.09719,0.03575431,0.053404815,0.03729112,-0.010511424,-0.0031530259,0.04006748,0.056802314,0.053552844,0.05560766,0.02145495,-0.07043646,-0.03683296,-0.09330874,0.06488605,-0.094484985,-0.063361004,0.0031783008,0.04107407,-0.11288485,-0.03763079,0.08830743,0.04421741,0.019273126,0.038046967,0.07905306,-0.1314568,0.08441185,-0.027130697,-0.087237515,-0.12395036,0.007978696,-0.016203469,0.07976538,0.022322267,-0.03304464,-0.025765795,-0.034897745,-0.07888486,-0.025672603,-0.019967044,0.0077265436,-0.029879706,0.06371226,0.042761248,-0.1969952,-0.028807009,-0.08814512,0.051750243,0.06268492,0.08964899,0.03427107,0.14716856,-0.012932334,-0.054521795,-0.10693734,-0.09696624,0.013554508,0.010641229,-0.06558947,0.033155467,-0.031303924,0.10363562,0.03923078,-0.04740862,-0.03801123,0.060132638,0.10073655,0.05952233,0.062455274,-0.029010506,0.021097858,0.062045593,-0.06786272,-0.064465575,-0.015424365,0.061104797,-0.025185974,0.042266816,-0.098739274,-0.012671073,-0.09063486,0.012042158,0.08396636,-0.091977134,0.04915624,-0.07064731,-0.0025940968,0.04001559,-0.036387056,0.0065767914,0.051398885,0.028875798,-0.03850609,-0.040224522,-0.038066637,0.040029302,-0.07379552,-0.01848917,-0.062446747,-0.118061736,0.009739758,0.09395522,-0.046365313,0.029434606,0.01445636,0.02654719,-0.026199931,-0.041627005,-0.04144185,0.0045058993,-0.14869204,-0.040120278,0.124130905,0.043731928,0.038713608,-0.11111616,0.056116838,-0.084088095,0.06564253,-0.09794345,-0.09495903,0.044292253,0.012158498,-0.17269018,-0.08818143,0.025026385,-0.05300697,0.0067132404,0.03722325,-0.0127092255,0.09491593,-0.046172585,-0.09783369,0.048200402,0.044797964,0.042134453,-0.0152941905,-0.05769313,-0.13188235,0.09898619,0.0044845557,-0.09187394,0.014440649,-0.037654,-0.038979955,0.008302506,-0.1243491,-0.012792429,-0.05371924,0.045475427,-0.07839628,-0.062275823,0.028578928,-0.028947009,-0.019819612,-0.017382992,-0.049189962,0.018647337,-0.0479021,0.050310094,-0.07887668,-0.07556273,0.12854655,0.0019475193,0.004053685,0.013703981,-0.0069016963,-0.059121914,-0.053398654,-0.033503134,0.10184244,-0.062073335,0.048044696,-0.14450093,0.020228159,-0.05821036,0.04879219,-0.10047581,0.044029407,-0.089562364,-0.09889337,-0.03987127,0.10883486,0.041964035,0.006206035,-0.0060861562,-0.039500024,0.053480763,-0.013666817,-0.10224988,0.031283084,-0.005724445,-0.061256744,0.0012169563,-0.031930827,0.058791015,0.008626478,0.053761672,-0.020229395,0.02925054,-0.10687057,0.19883288,-0.010616209,-0.001689905,-0.060415886,0.0072291237,-0.12223825,-0.059196908,0.055190474,0.028330868,-0.030877622,-0.016118614,-0.024622016,0.009620164,0.026830431,-0.019014882,0.061306242,0.0032946481,0.009656954,0.034707636,-0.00018903625,0.049954284,-0.06758708,-0.1286979,-0.0939238,0.053233452,-0.11008395,0.046827063,0.046278786,-0.04449627,-0.08964526,-0.0046003615,0.049103603,-0.11120451
0.058209144,0.075218365,0.06099921,-0.031836722,0.050458055,0.04338249,0.06760441,-0.10543782,-0.061805636,0.04296667,0.095018536,-0.034738712,-0.10490845,0.042542543,0.12796701,-0.1110984,0.01664428,-0.013126894,0.059658088,-0.0064026765,-0.14930728,-0.08019163,0.053204507,0.011585546,-0.121171266,0.037185848,-0.11034313,-0.07468604,-0.043552626,0.030559901,0.053069293,0.0894197,-0.13102128,-0.09220731,-0.05055593,0.0076957955,-0.030533114,0.02308814,0.00919865,-0.03800675,0.042069856,-0.04951219,-0.023551665,-0.05727025,0.0037106664,0.10780094,-0.085245736,0.034834065,-0.07300524,0.055825032,-0.04793416,0.020741552,-0.026987031,0.033447374,-0.039206333,0.07151525,0.04397345,0.002990912,0.091421194,-0.022839308,0.047115,-0.10415635,0.06754658,0.054058217,0.04344775,-0.07425246,-0.16011316,0.11479217,-0.050301287,-0.08097493,-0.019420296,-0.027483119,-0.09020018,0.111443646,0.045564797,0.027672233,-0.019361021,-0.0675353,0.1218317,-0.09843119,-0.07666219,0.07560725,0.061375592,-0.07397691,0.057199333,0.060760684,-0.12647012,-0.07725064,-0.05797337,0.026763286,-0.031245891,0.08980666,0.039963968,-0.04001251,0.028351683,0.044853933,-0.08838261,-0.0711256,-0.041157916,-0.06942893,0.06637617,0.024881622,0.032679167,0.12831432,-0.031111099,0.011898559,-0.1659992,0.09183986,-0.029860388,0.05302271,0.036220443,0.042660974,-0.058082044,-0.06203933,-0.08947034,-0.00987388,0.021175994,0.037098903,-0.1102719,0.05443058,-0.07256545,-0.11645841,-0.16337085,0.0029447689,0.023874998,-0.054056622,-0.010117766,-0.05957584,-0.05101141,-0.0015660181,-0.10534796,-0.0051360526,-0.017902594,-0.11778705,0.011421681,-0.10498254,-0.072317235,0.060077246,-0.13063581,0.007458855,-0.006906401,0.06403714,-0.0139162745,0.10416912,0.051138252,0.07021983,0.033333603,-0.17415647,0.09314295,0.0075674183,-0.023755858,-0.029732302,0.10236672,-0.008023357,-0.039719,-0.022403521,-0.027110182,0.0511397,-0.036488473,-0.0009841068,0.018571384,-0.03717642,-0.0112248305,0.028258998,-0.10880053,0.07519995,-0.1313358,0.12831347,-0.036105458,-0.080435686,-0.10103117,0.07783423,0.029434472,0.08893801,-0.019572461,-0.069089286,-0.02563263,-0.10415003,-0.060341615,0.034469668,0.12053519,-0.020422135,0.0039711883,0.022967849,0.0043631643,-0.12582304,0.10063066,-0.012311754,-0.01724011,-0.036148794,-0.075378075,-0.08619592,0.025809506,-0.11696553,0.12287507,0.059363462,-0.104349725,0.021195615,-0.15322945,-0.022813657,-0.075811446,-0.010160139,-0.1087755,-0.110297576,-0.1294209,-0.058275405,-0.07408525,-0.09667544,-0.06713169,-0.025217678,0.016542187,-0.09807002,-0.16485316,-0.07010313,-0.041665845,0.018393403,0.0605583,0.05915559,-0.010821537,0.040562175,-0.0049179993,-0.011677091,0.05255763,-0.08807564,-0.055792462,-0.07930934,-0.025799798,0.06685936,-0.097509086,-0.014049315,-0.098447405,-0.0020170433,0.058459505,0.0003253714,-0.026140433,0.04945503,0.07491092,-0.025821691,0.071930446,0.044207733,0.094128266,0.022896564,-0.1293357,0.02228787,0.031605598,-0.11574638,-0.10928288,-0.012717307,-0.0147091895,0.013114776,-0.17414938,0.07238366,0.025447832,0.0120931445,-0.058546238,0.041059945,-0.16909625,-0.088517666,0.043248467,0.05908197,0.05892722,-0.032963295,-0.043269403,-0.087800056,0.034250595,0.06145485,0.070045084,0.009263156,-0.07404583,0.030131912,0.016340487,0.015312085,-0.029230868,-0.10547851,-0.09020447,0.04110047,0.06778333,0.059429742,-0.06090765,0.030509211,-0.046556015,0.027016448,-0.050944827,-0.058390517,-0.030745374,0.024561422,-0.105998226,0.004574838,0.05785622,-0.0387235,-0.06928838,-0.05481573,0.05943716,-0.07299391,-0.1489173,0.033786934,-0.079128176,-0.14030023,0.06584066,0.04657149,0.048113223,0.06733952,-0.06502685,-0.017591301,0.037852738,-0.023735628,-0.10121086,0.097393624,0.057205364,0.024458235,-0.1267739,-0.10003942,-0.030483108,-0.01452325,-0.06839109,-0.0133194355,0.043850616,0.023980632,0.026151191,0.064253554,0.058890752,-0.11080042,0.07074444,-0.04119964,0.014476229,-0.07676796,-0.0010332662,-0.053944565,-0.050859537,-0.042944603,0.02484232,-0.09289863,0.06420946,0.035635788,0.060663745,-0.07491321,-0.0143729625,0.03570495,-0.012004554,0.03796261,-0.08592546,-0.009083903,-0.03518678,-0.089124344,-0.15210102,0.021341747,-0.102857605,0.025415057,0.018762449,0.061432406,-0.054211892,0.07792982,0.061054137,0.019190604,0.08250146,-0.12401711,0.060002524,0.001814859,0.08930623,0.004916588,-0.11412073,-0.032832153,0.041412022,0.07926978,-0.083396114,0.071304135,0.03353845,-0.05016191,0.07421658,0.07989558,0.056070276,-0.032178327,-0.1006412,-0.091737814,0.014165494,-0.07590022,-0.068526976,-0.02770063,-0.08608889,0.035119057,-0.03283948,-0.06175849,0.05485726,0.03336672,0.057918224,0.08580776,-0.04157784,-0.11460271,0.053089123,0.04647155,-0.07670609,0.0049656453,-0.06889266,-0.03993558,-0.0076556173,0.03898763,-0.0892242,-0.017379642,-0.10663094,0.065010235,0.062652186,-0.07265122,0.061935585,-0.005490422,-0.0003799746,0.06184256,0.08702276,0.03938722,-0.046948005,-0.09690315,-0.0143561335,0.0028624798,-0.054031704,-0.07003484,0.057804942,-0.09744837,0.110856146,0.0034192964,-0.07812416,-0.15576382,-0.11966603,0.027595924,0.020209046,0.042508584,-0.0211502,-0.068981424,-0.0011225006,-0.003045767,-0.10513206,0.046315707,0.05064238,-0.036418308,-0.14809145,0.057223853,-0.12611982,0.028186016,-0.097841896,0.016778395,-0.005778005,-0.2013745,0.06219279,-0.088077754,-0.0064195297,0.0672578,-0.034335624,-0.09852089,0.024664005,-0.09541104,-0.11411406,-0.108240806,0.007828098,-0.0913285,0.060812343,0.05036123,-0.09047555,-0.04452801,-0.041625697,-0.027813194,0.024502207,-0.028603666,-0.036994655,-0.07798666,0.029306093,-0.077430524,-0.012225912,-0.043987602,0.013497135,-0.059910726,0.082173474,0.07220668,-0.015554162,0.036804594,-0.0842325,-0.06016773,-0.05004874,0.038591508,0.00045051437,-0.07318402,0.015312733,-0.11313743,-0.11239789,-0.09631696,9.1040965e-05,-0.044249907,0.057208825,0.045427166,0.029157946,-0.109179296,0.044521566,-0.13715559,0.0069092535,0.04006396,-0.09626952,0.035368722,-0.127916,0.032319978,0.06340505,0.02845679,0.06526402,0.051845923,0.07966087,-0.054656412,0.07136503,0.033499207,0.043288726,0.02537477,0.05752393,0.05445383,0.039884973,0.03652283,-0.064537816,0.005259048
-0.052600615,-0.02182686,0.05146579,0.029608991,-0.0384068,-0.009916319,0.04243355,0.024669884,0.050156884,0.0841853,0.2079939,-0.00027314518,-0.09816099,-0.06442646,-0.021928485,-0.057241995,0.032838363,0.029143427,-0.13690452,-0.021883499,0.0008207537,-0.01756529,0.08026158,-0.14717099,-0.04512353,-0.0067814696,0.03983267,0.10951852,-0.027723646,-0.087720595,-0.023194958,-0.10475447,0.040374,0.024983611,-0.02576886,-0.0071457643,0.02835551,0.069392405,-0.06748908,0.008049331,0.16942288,0.021735407,0.047382496,0.027076432,-0.0036403986,-0.049072746,-0.031157114,0.07513132,0.100191444,-0.025238626,0.010609607,0.04376249,-0.07426537,0.009737279,-0.035923854,-0.18254614,-0.02847829,0.030207846,0.049367137,-0.13275276,-0.015644433,0.080879,-0.08150305,-0.0985035,-0.010080814,-0.18331164,0.042015474,-0.08727093,-0.062017027,0.03389127,0.110573635,0.07316067,0.073333696,-0.037583306,0.051669158,0.081408106,0.13828917,0.05297299,-0.020190358,-0.070685744,-0.108428456,0.016495552,-0.084754914,-0.051114973,-0.04734121,0.09021694,0.056408364,0.05654761,-0.042096976,-0.03976465,0.040910006,-0.026417457,-0.09501707,-0.0066486555,0.055460006,-0.019620163,-0.05634279,0.003968824,0.08873488,0.05256166,0.115797,-0.111075155,-0.052402694,-0.0014923415,-0.046347305,-0.0032389301,-0.050088704,-0.07023047,-0.008481217,-0.099670775,0.0060438244,-0.11617153,-0.021485519,-0.044259556,0.0008632055,-0.0155765,0.070848376,0.0635584,0.030752541,-0.08506684,-0.057164747,-0.013063254,-0.029663522,-0.019214397,0.027732903,0.03324598,0.05797225,-0.031628307,-0.049404453,0.015442819,-0.0069199903,0.059685256,0.040172067,0.013730493,-0.06709045,0.053478878,-0.14317738,0.0022670296,0.07259922,-0.062622696,0.005225615,-0.00073036924,0.01127248,0.049157612,-0.026252598,0.1053405,-0.018563166,-0.007821978,-0.05998631,0.03713181,0.06592505,-0.022710878,-0.090622224,0.10959832,0.0009037128,0.03944471,0.09140139,0.10135508,-0.10032461,0.12986445,0.02386816,0.06699514,-0.05702617,-0.14860864,-0.047771107,0.05148429,0.004857433,-0.038982436,-0.006201073,0.043267217,0.046176746,-0.04654477,0.05370194,-0.03090662,-0.093509465,0.036480263,-0.109042525,-0.017207067,0.0070047514,0.09082092,-0.106554024,-0.04326078,0.085879125,-0.043852177,-0.108681865,0.041588407,0.050054114,0.040387534,0.08291105,-0.07100508,0.0057742316,0.035403147,-0.110098414,0.07318082,0.05515029,0.018833973,0.043425914,0.12445938,-0.0022544914,-0.0016269239,-0.01050599,0.00021213987,0.029357899,0.06626772,-0.03343552,-0.005351019,-0.1763377,0.0016818716,0.011655657,-0.06653113,0.06497939,-0.09959308,-0.016451927,-0.0631133,-0.0076400964,0.04191625,-0.083456986,0.15023662,0.04225488,0.025869291,0.028847944,0.068249434,-0.026265332,-0.090838455,0.0035547551,-0.0028799626,0.114077106,0.014370333,0.04436644,0.05955605,0.0008626041,0.05179167,0.012420166,0.0365233,0.03857006,0.06456215,0.058471672,-0.037374757,-0.040833313,0.013484357,-0.115617394,0.053830236,0.044213064,-0.053986363,0.064422965,0.018190188,0.038725454,-0.05096678,0.028747283,-0.008392014,0.03354632,-0.035291433,-0.018782815,-0.0753595,0.025567733,0.00886925,0.071122594,0.06825039,-0.027400052,-0.13023627,-0.09235682,0.03836917,0.011786508,0.06104631,-0.07729502,-0.052073658,-0.039995383,-0.036421265,-0.050406136,-0.06042966,0.08544775,-0.067512944,-0.013725389,0.115941234,0.063763276,0.012332156,0.0067535928,-0.018329848,0.017732495,-0.06795882,0.029660722,-0.017283838,0.029518116,0.063275166,-0.010980076,0.09053889,0.026538933,0.01938991,-0.036240708,-0.011970253,-0.04242656,-0.10110445,0.06636305,0.04951409,0.017480489,-0.0815598,-0.024242558,0.011539264,-0.070993714,0.15530492,0.0039432547,-0.066892415,0.0374852,-0.05063287,-0.13063644,0.063303575,-0.018509462,0.035562024,0.0014076867,-0.013468489,0.04107748,-0.036193054,0.13555835,-0.025264554,0.00032571543,0.007557062,-0.13958351,-0.02513491,-0.13277768,-0.0027571865,-0.1016703,0.09696652,0.035235953,0.017950347,-0.05460723,-0.04381198,0.05134638,-0.11823767,-0.021988403,-0.031194804,0.06140015,-0.0010089742,0.08007611,0.041660123,0.08185957,-0.026036205,-0.056724366,-0.054594703,0.08615638,-0.16763328,-0.0039425595,-0.09743516,0.005198353,-0.08442271,-0.11875436,-0.07244319,0.0209017,0.055423297,0.016392918,0.03772314,0.0768155,-0.06477603,-0.033279497,-0.04802372,-0.03338441,-0.048514877,-0.03800303,-0.015517083,-0.06921333,-0.022124918,-0.033912838,-0.051431123,-0.06074646,0.19304954,0.092118844,0.035377912,-0.026939908,-0.0586251,-0.03166494,0.008164328,-0.06729467,-0.0035652234,0.0647833,0.03133669,-0.0546049,-0.004557833,0.03195113,0.015172448,0.04201239,0.055209477,-0.11090419,-0.03095697,-0.08361784,0.057268813,0.1376129,-0.022782136,0.023771368,-0.096806884,0.049877938,-0.101126716,0.05569819,0.067526124,0.010350729,0.028605698,-0.012306074,-0.05836779,-0.009889999,0.0012167844,-0.014566225,-0.06495424,-0.0061914204,-0.14693962,-0.05045082,0.02467225,0.053707212,-0.15359862,-0.091118656,-0.040185556,-0.037461318,-0.009212305,0.1958777,-0.08358806,0.053897846,0.07200336,0.038066313,0.05120231,0.039827283,-0.039178953,-0.0056140367,-0.0030322839,0.030887928,0.065368354,0.021317141,0.0014441077,0.15983875,-0.026669467,-0.015603258,0.022373758,-0.088685356,0.009811833,-0.062104613,0.046598375,0.11458099,0.077362195,0.024130922,-0.010591795,0.0080824755,0.058580738,0.107278645,0.009224706,-0.0044210516,-0.007424297,-0.1160755,0.04266335,-0.12507604,-0.104714245,-0.029653156,0.0060902815,0.110842355,-0.06431673,-0.033863336,0.17816468,-0.065244965,0.052561224,0.055351365,0.06890928,0.031163838,-0.080333956,-0.053370107,-0.03455864,-0.06870191,0.09483977,0.016719773,0.01769985,-0.08283212,0.027138896,-0.05277877,0.096932195,0.020651607,0.040917512,-0.008857224,0.009539023,-0.09143619,-0.06650174,0.044078525,-0.01924985,-0.044444766,-0.03827764,-0.05060254,-0.08974584,0.03165963,0.08634025,-0.046742097,0.060149178,-0.051777776,-0.08494842,0.023426086,0.056006953,-0.0089865355,0.1270536,-0.069142744,-0.06979473,0.02126102,0.02418406,0.0247173,0.09789243,-0.043508463,0.04302437,0.042072557,-0.052930262,-0.11116473,-0.025485547,0.14473034,-0.032566495,0.041214474,0.06897823,-0.004524031,-0.0614858,-0.0834509,0.035738934,-0.04376502,0.040071923
0.01285093,-0.11856917,-0.04954379,-0.060892243,0.01905445,0.019351628,0.022025708,-0.039531473,0.02793233,0.0026920638,-0.076860055,0.03545931,-0.07575105,-0.10033668,0.090860225,0.025129816,0.07386041,0.02628923,0.06496435,-0.04592709,0.038671806,-0.023218969,0.034266174,0.025637554,0.051734805,0.07970536,-0.05005534,-0.042269625,0.04038584,0.052733917,-0.037011344,-0.13137446,-0.03828,0.03425311,-0.08986618,-0.08210611,-0.04060455,0.08619452,0.05806439,-0.055231422,-0.08517169,0.020204067,0.03238936,0.021826476,0.055576317,0.08223123,0.027601564,-0.106715724,0.06447982,0.05703919,0.04672136,-0.008955419,-0.042914715,-0.07169858,-0.05673939,-0.14560707,0.042667374,-0.14829364,-0.030978505,0.08099309,-0.06312105,-0.056925956,-0.085764974,-0.07780523,-0.09151406,0.08656932,0.0062527503,-0.044048574,-0.027366856,0.0056419885,0.011161235,0.024198765,-0.1260196,-0.029097699,-0.077200375,0.01288076,-0.019448051,0.12635496,-0.07935974,0.024053799,-0.11870998,-0.0053106765,0.06930084,-0.029031193,-0.033477288,-0.1323766,-0.018293414,0.0962133,0.050870553,0.06258433,0.028464774,-0.028200168,0.059514076,0.05299227,0.06519,0.011748941,0.04310709,0.07334033,-0.018977601,-0.02063067,-0.13962786,0.014732869,-0.032386687,-0.02941196,0.028492235,0.0032435409,-0.03196257,-0.036970805,0.049545567,-0.12584496,0.026112702,0.064132,-0.16906631,-0.06825285,-0.057182286,-0.09739338,-0.07793969,-0.05583408,-0.024006369,0.043988325,-0.0018580534,0.035568025,-0.11091247,0.06528311,0.00093927415,-0.06441896,-0.10992523,0.059719875,-0.08961786,-0.10215921,0.005587455,0.087618604,0.015164672,-0.113944456,-0.056974504,-0.054088064,-0.0063376324,0.034917902,-0.12864971,-0.032956574,-0.07113678,-0.037315864,-0.039591208,0.03211583,0.012467984,-0.082945704,0.122003004,0.041923095,-0.03957146,0.08682385,-0.039426472,0.06426498,0.032332566,-0.15702246,-0.078835964,-0.13675842,-0.032775447,0.118859604,-0.022699261,0.08596539,0.038164414,0.020652343,0.008756903,0.03143864,0.15121315,-0.004760322,-0.07214504,0.10776388,-0.052008897,-0.15285444,0.007823731,0.018135853,0.04855387,0.042963423,0.124249786,-0.0043964353,0.05059212,-0.08872206,-0.09475759,-0.13321625,0.09304325,0.11951561,-0.068707354,0.050764434,-0.030295419,0.007075032,-0.00211417,0.0062839715,-0.020017026,-0.014586858,-0.017118925,-0.02044208,-0.07570246,0.045182772,0.017856821,-0.17359306,0.041102417,-0.126339,-0.06745808,0.03919669,-0.092252634,-0.020017875,0.04802044,-0.004361976,-0.110634685,0.023787517,0.024095906,-0.04445206,0.050318226,-0.035632063,-0.052041523,-0.010252739,-0.104386844,-0.07665433,-0.059616804,-0.020961434,0.0057073846,-0.07235039,0.045077473,0.1154578,-0.08663852,-0.07243011,-0.0075428467,0.08492593,0.024082685,0.028252352,0.0054418435,-0.016489284,-0.097222015,0.012074043,0.03236684,0.015029562,-0.0046999375,-0.037738696,0.058506187,0.028685672,-0.019160373,0.040258046,-0.044268325,0.00039172499,0.04729799,-0.025776891,-0.079407625,0.04050559,-0.08222634,0.007627048,0.047013167,-0.10441687,0.040210593,0.0108244745,0.020871203,0.047283195,-0.14341468,0.008330708,0.043366592,-0.006062831,-0.06321811,-0.026283346,0.07420713,-0.05849652,-0.029730788,-0.030946333,-0.0062708133,0.0022070524,0.004421949,-0.031261522,0.023619287,0.0903222,0.10050795,0.03441105,-0.074902564,-0.035803437,-0.025936637,-0.012670143,0.02475218,0.041689582,-0.02307033,0.011358317,0.01167342,0.04303077,-0.045015134,0.08091799,0.05694246,-0.075312056,0.028701046,-0.03255015,-0.043591034,0.085652225,-0.024820786,-0.05049275,0.017995471,-0.06974492,-0.017044893,5.407265e-05,0.044523176,0.04391811,-0.10596008,0.04532476,-0.0645788,-0.16243124,0.017391475,0.04598969,0.037922524,-0.0010880149,-0.031171333,-0.04781037,-0.0046313363,0.018391544,0.08609682,-0.0139689585,0.022436025,0.040659864,-0.06604298,0.041625246,-0.018876681,-0.082273036,-0.055258274,0.013091286,0.066654414,0.014962761,-0.035318542,-0.09268317,0.023857638,-0.08612705,0.043028947,0.0266138,-0.043211702,0.05801501,-0.11925941,-0.21488112,-0.057199884,0.012215551,0.07418212,0.039121654,-0.04807181,0.025241466,0.018626273,0.0106325215,-0.11592348,-0.04472438,0.023744259,-0.0020394323,0.10418506,-0.08908732,-0.13679844,-0.06373778,0.006377579,-0.017630206,0.039421465,-0.09111995,-0.071778975,0.07846584,-0.06674471,0.032610413,0.041255847,-0.086877726,-0.16736066,0.012183462,0.08491464,-0.071953736,0.072992414,-0.0025667064,-0.056635536,-0.05005568,-0.099367335,-0.01041492,-0.06496245,-0.050552882,0.06251691,0.09184262,0.037083745,-0.08338474,0.08134147,-0.04621914,0.042443115,0.004809704,0.051683873,-0.1092425,-0.02117959,0.045374464,0.09446394,-0.0053557013,0.025320524,-0.0653944,0.079047605,0.008859494,-0.07927533,-0.07324488,-0.013545746,-0.17463966,0.027985973,0.0078930175,0.01638398,0.043925688,-0.025660524,-0.078879505,-0.11660801,0.0482694,0.046549417,-0.04950803,0.04768787,-0.02270246,-0.08505705,0.00911211,-0.053049725,-0.026187045,-0.016443295,-0.030072154,0.011348572,0.027109846,-0.11208444,0.051429324,0.015068506,-0.058511022,-0.0032829233,-0.016650649,0.024933612,-0.17048271,0.036304694,0.0680451,-0.022827087,-0.05219301,-0.014407114,-0.0006732548,0.04133153,0.05223985,0.02027838,-0.054966256,-0.052857257,-0.03254595,-0.019482672,0.055028707,-0.05294354,-0.08549728,-0.06871324,-0.0005275584,-0.050120085,0.0781954,0.01441694,-0.025817582,0.04886642,0.072721206,-0.057968006,-0.041395534,0.04984094,0.0066890125,0.040137053,0.03019642,-0.14274058,0.028598808,-0.11005706,0.11977106,0.08308966,-0.03503586,0.024326267,0.062421586,0.05690684,0.028084166,-0.061493173,-0.03914185,-0.0978462,0.051097654,0.028570151,0.055801313,0.041175064,0.008085161,-0.1264057,-0.09719393,-0.16613498,-0.021090187,0.06690402,0.034672506,-0.065211564,0.03650584,-0.048788514,-0.08145607,0.008833341,-0.030278405,0.027161922,-0.043426313,0.03835263,0.049584996,0.0057781,-0.05430036,-0.010801265,0.050630815,-0.027832145,0.099647366,-0.054023817,0.012504328,-0.05318655,-0.00052521174,-0.10634821,-0.09467203,0.07729454,-0.08782327,-0.08990904,0.006252135,-0.015738506,-0.06717824,0.04387495,0.049546476,0.060429662,-0.061372418,-0.041386865,-0.02535645,0.07738677,-0.122594245,0.019267099,0.045783296,0.00868073,-0.0012907364
-0.06454655,-0.054447737,-0.06618206,0.069885895,-0.111782804,-0.0114177205,-0.0112604,0.057635896,-0.04759871,0.06478977,-0.031215915,0.0008007574,-0.064475454,0.075013466,-0.03440871,0.043754797,-0.10168559,-0.11001885,0.04630813,0.12637185,-0.006166484,-0.016612591,-0.090578765,-0.13906804,0.042988524,-0.059816524,0.05476338,-0.10817553,-0.046213396,-0.051587902,-0.059046492,0.030291254,0.007365711,0.010400375,0.06593096,0.1160213,-0.061403297,0.08619608,0.062764235,0.07146416,-0.100254275,0.009989899,0.042478886,0.00811016,-0.18378584,0.0017388519,-0.07646458,-0.03480982,-0.061638944,0.07964589,0.053985517,0.07574028,0.034803387,0.0493464,0.005178041,-0.06191926,-0.04803847,-0.09080492,0.09595073,-0.11560859,-0.02573682,0.028170645,0.05542976,-0.03515775,-0.13495691,0.06157032,0.08723644,-0.07255385,-0.0008319298,0.045158062,-0.018363763,-0.045653697,0.041652292,-0.14647225,0.044887614,-0.16832954,-0.08578741,-0.117465995,-0.09106593,-0.0136064105,0.07065931,-0.06805613,0.10419966,0.07901502,0.004404561,0.03703393,0.050172508,-0.09794057,-0.036722522,0.069556676,0.017635241,0.10404494,-0.040047318,0.066617005,-0.02452395,-0.048586346,0.04441064,0.019903196,-0.10654289,-0.09527049,0.012286121,-0.120067835,0.031694915,0.060338706,-0.06396088,-0.06326258,0.08772473,-0.00010709316,0.050440606,0.16975412,0.024058862,0.052836243,-0.04679195,-0.08201915,0.10105029,-0.068321705,-0.11090616,0.03724981,-0.0064368085,0.0020915377,0.028312836,0.033943564,0.01583094,0.01492297,-0.00930809,-0.0034890696,-0.05615367,-0.015931282,0.056275353,-0.11666132,0.032558553,-0.06077,0.016094936,-0.051550064,-0.0082902135,-0.045676425,0.05229654,0.016966647,0.04527373,-0.13763393,0.007305916,0.066840544,0.03555476,0.034800526,0.00029530158,-0.11754537,-0.09620771,0.026992355,-0.12345354,-0.014150242,-0.07171443,-0.07452115,0.0008770339,-0.06908495,-0.060445067,-0.020048423,-0.029908733,-0.13284336,-0.04872718,0.00567842,0.053724088,0.025948294,0.007999495,0.01525224,0.0014245611,-0.019993838,0.01831087,-0.10892168,0.015644401,-0.042544536,-0.07511746,0.021073833,-0.017378777,-0.028200801,-0.18206458,-0.0031203462,0.07167653,0.13465653,-0.04983837,0.13055496,0.09163593,-0.06506081,-0.022074072,-0.11643994,0.019111915,0.0355432,-0.13340116,0.01130976,0.055730164,-0.10578294,0.0002572372,-0.040758844,0.018910108,0.037334234,0.073908515,0.01183673,0.051091857,0.05954622,0.056421723,0.00076846225,0.08282784,0.030505234,0.043486983,-0.07664553,0.043128226,-0.08567703,-0.12532562,0.071779184,0.03400706,-0.08751573,0.007468558,0.046920724,-0.029453132,-0.039772943,0.08458501,0.063617535,-0.06732274,-0.113407865,-0.098469436,-0.11431408,-0.12509628,0.0014975554,-0.048475828,-0.06010721,-0.15007825,-0.0068104384,0.06407582,0.041866284,0.10871493,0.029218629,0.010215848,0.050906867,-0.05955183,-0.045021974,0.017899586,-0.0012265631,0.029949402,-0.1308002,0.04824903,0.043128148,0.07602267,-0.040940166,0.06642173,0.016937278,-0.069923505,0.016413894,0.034065656,-0.12488055,0.026601661,0.012862132,0.046110895,-0.054561757,0.020246979,-0.008108155,0.055109214,-0.0907204,0.04699426,-0.037328944,-0.08845615,-0.17692664,-0.11612482,-0.15215956,0.013093998,0.037149776,0.011207583,0.074654475,0.048462708,-0.019036943,-0.11847445,-0.043671887,-0.0741755,0.061383355,0.04056967,-0.11897919,-0.111958824,0.034003768,0.059686057,0.05392438,0.021142092,-0.040144995,0.05019012,0.07289117,-0.017925268,0.10304694,-0.10871431,-0.045616552,0.029073985,-0.17579827,0.024280192,-0.043043036,-0.056943346,0.05965121,-0.04196927,0.064644955,-0.006701027,-0.034764018,-0.016584814,0.00035251587,0.03419203,-0.024550162,-0.02305113,0.08551361,0.04652865,0.08256385,-0.053565204,-0.03734504,0.03248508,-0.03246375,-0.003756301,0.0060714325,-0.067072466,0.055127945,-0.043360043,-0.06569638,-0.026840338,-0.00893182,-0.019597422,-0.0383031,-0.042347208,-0.0112857865,1.9785439e-05,-0.004916902,0.07130161,0.051452983,0.062205885,0.048397504,0.03406827,-0.05069397,0.042840548,0.011743299,0.09762011,0.00039963512,0.0052019325,-0.12842819,-0.050131083,0.009579241,0.038867567,-0.10263596,0.09339227,-0.021629477,0.032468013,-0.07340138,0.04155497,0.15677655,-0.1318008,-0.024396319,-0.029786045,-0.037007716,-0.07782746,0.052670676,-0.060714938,-0.027284693,-0.14286433,-0.013314673,-0.06056593,0.005501898,0.11966907,0.020824812,0.07850502,-0.0030143193,0.034017015,-0.0059582773,0.047398932,-0.13036293,-0.042466335,-0.102311485,0.021139156,0.059113663,-0.03132298,-0.08884852,-0.1465296,-0.20106561,-0.05487037,0.056769017,-0.022599777,-0.1398528,-0.026680907,-0.08564368,0.022377001,-0.1614292,-0.019179445,0.028399315,-0.07029692,0.010222488,-0.029579047,-0.024272995,-0.063337,0.041621964,0.009927609,-0.0016419708,-0.12775466,0.041037157,-0.062273774,0.0559764,-0.0055340845,-0.07670665,-0.012558773,0.038120553,0.008945465,0.12031526,-0.015292764,0.041088216,-0.035773434,0.02623478,-0.035154607,0.10089738,-0.0005317057,-0.017561784,-0.017026497,-0.027886521,-0.073737696,-0.004235184,-0.012631544,0.05533274,-0.07173868,0.06624179,0.07823036,-0.09691059,0.042859945,0.028580684,0.045487832,-0.012220514,-0.007933079,0.04123618,-0.11622479,0.010722966,-0.04158061,-0.037646912,-0.1423889,0.038420163,0.07655474,0.05636214,0.013902411,-0.09778645,0.030668302,-0.02217815,-0.120684795,0.0070368745,0.12378738,0.102122046,0.055790734,0.021721581,0.1552204,-0.053474516,-0.100294515,-0.004662836,0.0606893,0.043883134,-0.011006516,-0.06989481,-0.13447583,-0.17193927,-0.0014836221,-0.09551772,-0.12176897,0.04812003,-0.052673653,0.026414067,-0.14577968,-0.0012978696,0.028174436,-0.15065928,0.0056492337,0.02238888,-0.10335637,0.03514819,0.071295515,-0.08560009,-0.060667526,-0.067168936,-0.009549429,-0.00034554926,-0.0023820843,-0.20528282,-0.098098725,-0.014535622,0.0073734936,0.04223793,0.058392823,0.029441312,0.0056409137,-0.18224655,0.014206698,-0.11416372,-0.0026101235,-0.059813723,-0.068198964,-0.0043092924,0.06788629,0.064481646,0.046345998,0.032982677,-0.08781941,-0.016596124,0.016710034,-0.11370111,0.15811084,0.046478942,0.01793788,-0.044975355,0.019200161,-0.007900339,0.04389989,-0.038806677,-0.016173072,-0.09131235,-0.09348602,0.023503855,-0.009704377,0.07299972,0.04617434,-0.013586439
0.02644334,-0.013631643,-0.021179017,0.0703305,-0.14533232,-0.06855991,-0.10875579,0.027661463,-0.054517385,-0.11682899,-0.0050163427,0.020131236,0.13839029,0.026828004,-0.009665447,0.0067818253,-0.0767365,0.074122146,0.01589788,-0.017101927,-0.0064199213,0.01487073,0.045715228,0.082369484,0.03728681,-0.071942136,0.07064071,-0.078316495,0.06555224,-0.074834354,-0.13880855,0.07821092,0.009471443,0.04022706,0.0675399,-0.10293459,0.068131514,-0.14345704,-0.10587146,0.041753665,-0.02127988,0.0012021306,0.039645556,0.008920367,0.011860589,-0.13681725,0.018890318,0.02144737,-0.08116147,-0.08905557,0.045525137,0.02752471,-0.041451313,0.054728977,-0.030175414,0.08246735,-0.026810896,-0.000960613,-0.12831806,0.049181968,-0.039933786,-0.027384711,0.0729504,0.03915771,0.038267627,-0.06798405,-0.028225502,0.006126722,-0.035606958,0.033261657,-0.060322374,-0.12926649,0.020175077,-0.0056751864,-0.095690966,0.045729652,-0.11194461,-0.051088568,-0.060825665,-0.003420489,0.11131606,0.041233197,-0.05174588,-0.1264604,-0.05027385,0.0018767217,0.015579665,-0.032613266,-0.010616563,-0.10121846,0.024904316,0.070669524,0.0072498405,0.00974696,-0.1007828,-0.0067145186,0.06355831,-0.05304787,0.014862724,-0.03208138,-0.07878615,-0.01766591,0.019614162,0.07941702,-0.017977862,0.045295954,0.05682536,-0.019998282,0.055779092,-0.017290927,-0.086995445,-0.05782971,-0.04499681,0.008617471,-0.11608515,0.071844,-0.049573477,-0.086885534,0.06198841,0.028847244,0.050785914,0.057362933,0.01116324,-0.06492874,-0.046139967,0.008092132,0.07737567,0.060667016,-0.03190665,0.11655156,0.018405488,-0.1164677,0.026219884,-0.03744893,0.010422664,0.05483988,0.03621598,-0.17360523,-0.025422158,0.047707193,0.023625823,-0.1318386,-0.08772364,0.023285117,0.051551316,0.0069299727,0.02084657,-0.025701424,0.046220906,-0.05886667,0.0035744107,-0.1477216,0.07568911,0.035275303,0.011737336,0.11340258,0.06676317,-0.087394655,0.06686787,-0.021489272,-0.0073426226,-0.0273091,-0.015863366,0.0006407065,-0.12103554,-0.03999935,-0.036969848,-0.037445333,-0.034014035,-0.044544302,-0.043094307,0.035415296,0.012754218,0.043135293,0.027663132,0.037391823,-0.046944987,-0.12464034,-0.018911108,-0.04139538,-0.119876824,-0.09889588,0.029857889,0.08371434,-0.089783,-0.028837087,-0.05116123,-0.0006449463,-0.018596563,-0.095028035,0.050270546,-0.01482918,-0.18115337,-0.038119704,0.049057774,-0.039836444,0.011946467,0.0045405165,0.08098161,0.021400582,-0.057027556,0.050791062,0.03083235,0.030702284,0.102555305,-0.024936961,0.06348397,0.04873882,0.032693047,-0.012739787,-0.0064430004,-0.0354783,0.0755827,0.0162076,-0.006516751,0.029533567,0.013633889,0.006289249,-0.037060205,0.026713034,-0.0456283,-0.06946682,0.0048525142,-0.22030059,0.01900353,0.025826693,-0.1397491,-0.05356418,-0.071594216,0.046382863,-0.03848265,-0.088304594,0.061294153,0.021985529,-0.0915545,0.026675314,-0.16722696,0.0030071852,0.042343594,-0.061354958,0.06975422,-0.05537748,-0.011619646,-0.042668786,0.13053836,0.036590267,0.05327023,0.042895388,0.016808305,-0.039351095,0.015478369,-0.04564465,0.036266793,-0.027915768,-0.15051341,0.013745983,-0.09619366,-0.07282055,-0.062090658,0.023815492,-0.018420635,0.119027086,0.0716013,0.02599531,-0.030226663,-0.13862821,0.044732984,-0.026215516,-0.028665343,-0.009919619,-0.025855133,-0.0047433437,-0.01634617,0.055306178,0.01864843,-0.057587918,0.047568947,-0.037772555,0.05478054,0.054822948,-0.016480241,-0.1334087,0.0020570667,0.022339292,-0.11436164,0.035448875,-0.017109377,-0.026309237,-0.07055731,-0.026405567,0.04933298,0.006886823,-0.0052245776,0.02256881,0.0144283,0.03847205,0.021135345,0.031036882,0.017357297,-0.021069696,-0.06266136,-0.021310795,-0.038637865,0.019482253,-0.10178846,0.04130451,0.029148953,0.084775865,0.05626698,0.030984852,0.043231357,0.0013186956,0.040642373,0.05170658,0.040973213,-0.09095113,0.083659306,-0.034876943,-0.12956749,0.031711113,0.09266315,-0.081196874,0.018652132,-0.0016881722,0.07020679,-0.041359484,-0.1237274,-0.06299096,-0.01674396,0.07470519,0.0927785,0.04521094,-0.111716494,-0.018189335,-0.07501052,-0.09904577,0.010459654,0.10246335,0.038063884,-0.10886056,0.04341702,-0.060576852,0.0208832,-0.03328639,0.051832132,-0.06939061,-0.013944107,0.081074335,-0.005811543,-0.061231136,-0.032462083,0.06807113,0.03267429,-0.01424717,0.060235705,-0.055020537,0.054194227,-0.0061306492,-0.08602774,-0.12392078,-0.028378002,0.053742543,-0.084622905,-0.02126149,0.043829374,0.04714271,0.0064271404,0.07355751,0.009494601,-0.08042124,0.01916802,0.06560279,0.017006246,-0.04172006,0.0023560026,0.0722418,0.047600262,-0.034284405,-0.017539727,0.00067105197,-0.012692067,0.008688339,-0.048307344,-0.035112426,-0.018445114,0.06342935,-0.086156115,-0.051532503,0.016225543,0.05363157,0.02590489,-0.11314403,0.02087215,0.04253555,-0.06864228,0.047360364,0.011847162,0.050001666,0.014750041,0.024460867,-0.050093707,-0.0057807686,0.07327214,0.0064031305,-0.07714644,0.001292524,-0.04685881,-0.11258706,0.051841445,0.045899473,0.051311746,0.034879167,0.014560281,0.0016613242,-0.078297704,-0.09082086,0.017140172,0.011443606,-0.008938101,0.02051197,0.007878331,-0.087286636,-0.07113726,0.100061126,-0.15476567,-0.01704744,0.081521265,-0.05929087,0.012080318,-0.050931357,-0.07410043,-0.015893858,-0.077461675,0.10987664,0.040665317,0.043447196,0.07772323,0.004313017,-0.059836984,0.0061221253,0.06284813,0.051008247,0.017152179,0.052693933,0.062436692,0.07487346,0.04732854,0.016835386,-0.055159833,0.06381924,-0.036492143,-0.055259615,-0.15118429,0.08079036,-0.036704417,0.011297254,-0.06443666,-0.00073980057,0.04636628,0.027415687,0.03627931,-0.07177476,-0.021474224,0.05047319,0.05193395,-0.044394977,0.06494258,-0.03019441,-0.102816224,0.051814143,0.04383962,-0.023380442,0.014262413,0.045693487,-0.046959784,-0.07887641,-0.033334285,0.061226483,-0.022092465,-0.009083426,0.04978891,0.08800944,-0.06458921,-0.11474532,0.019493558,0.05492175,-0.12090065,-0.14376456,-0.04050428,-0.07412209,0.019656762,0.0104767,0.118041046,0.049486157,-0.04084527,-0.01924261,0.08908387,-0.08830555,-0.043431472,-0.067484,-0.01632862,0.05495538,-0.09628376,-0.02238646,-0.049596,-0.08979785,-0.043821327,-0.011807858,0.070935234,-0.10970548,0.019147627,0.027786428
-0.030991724,0.018292384,-0.0471208,-0.06604762,0.029230349,-0.07791131,-0.045527574,-0.024216866,0.0893703,-0.062087186,0.08131251,-0.06984141,-0.086738296,0.07996283,-0.060109936,0.054594006,0.018505692,-0.0020187253,-0.032058973,-0.12268459,0.0137625225,0.08005339,-0.019707358,0.037178878,-0.011937983,0.050211243,0.058029026,-0.007303887,-0.023882844,-0.05103271,-0.09156324,-0.001637686,-0.019030316,-0.044088162,-0.046626672,0.020991635,0.06817677,-0.055204976,-0.05156869,-0.052805856,-0.065410554,0.026457455,-0.09910054,0.038849667,0.08169507,-0.015533436,-0.043046348,0.048047226,0.047207724,0.06226181,-0.016196357,-0.09357398,0.057495847,0.06274883,0.006925605,-0.064127095,0.019288745,-0.014378252,-0.12079488,-0.052596774,0.10522781,0.026823264,0.017753841,-0.04426681,0.08031568,-0.0027306967,-0.07975073,-0.014104241,0.024190957,-0.06172966,-0.04705924,0.05094912,0.012826489,0.15713422,-0.044788122,0.06320357,0.045547727,-0.14347027,0.13645221,0.028430326,0.045655914,-0.00059243996,0.047006726,-0.055948466,-0.012684094,0.049902212,0.02887011,0.020219237,0.07378574,0.009455872,-0.025554521,-0.07290513,0.013401582,0.04198563,0.035714418,-0.05764684,-0.029771147,-0.07532813,-0.0481012,0.057270624,-0.03634224,-0.06750044,0.07242218,-0.063170694,-0.03464825,0.024176208,-0.03878626,0.0018424063,0.011606387,0.02398659,-0.011142505,-0.04905329,0.06165069,0.106012955,-0.025670867,-0.15529513,0.058470435,0.027263649,-0.037089586,-0.00803173,0.008090976,-0.053997345,-0.07578285,-0.16573972,-0.10866589,0.07819764,0.14397676,0.07118833,-0.06061372,-0.01971386,0.054694172,-0.005697873,0.020046651,0.042109076,-0.12546061,-0.018040635,-0.016323699,0.040172547,-0.0567004,0.05089753,-0.12606336,-0.049159948,0.054260843,-0.03303786,0.017070636,-0.08273387,-0.09475829,-0.0016913279,-0.010201071,-0.12537262,-0.10394281,0.12524192,-0.05493021,0.013705808,0.051750273,0.006083717,0.03978016,-0.085093945,-0.10739374,-0.09889062,-0.006556205,-0.008831643,0.054804355,0.008927192,-0.049682572,0.043888934,-0.109128624,-0.12340958,0.04483331,-0.12762758,-0.030909033,-0.09420184,-0.07096395,-0.09649544,-0.06811692,0.064208545,0.061335523,-0.046547554,0.07023929,0.010527653,-0.026436782,-0.0073251915,0.021605456,0.016930427,0.06782964,-4.1705574e-05,0.07999914,-0.027402118,-0.05814008,0.034243084,-0.056864887,0.075558886,-0.034381613,-0.04628747,-0.11556928,0.008665869,0.05230098,-0.08325784,-0.024881668,-0.018212294,-0.050483167,0.06548987,0.0003974997,-0.06799816,0.08394004,0.049468793,0.085996665,-0.114164315,0.031904973,-0.17413461,0.07716599,0.008077053,0.032221187,0.069804385,-0.13298929,-0.06590227,0.06486358,-0.06066682,-0.053116318,-0.09004974,-0.05441493,0.07893683,0.057602745,0.06997599,0.0031251295,-0.065388896,-0.054508463,-0.017053058,-0.107040204,-0.043234017,0.046700187,-0.1266199,0.01665245,0.030400127,0.06285007,-0.09878583,0.05686669,0.06016848,-0.14900255,-0.08274321,-0.013638517,0.034440078,0.01658221,0.016646966,-0.110841125,0.0005565512,0.05518542,0.075351804,0.03379799,-0.15768664,-0.0763463,0.02717478,-0.034293942,0.030999387,-0.044614,0.012245949,-0.024537524,0.05008668,-0.07171035,-0.00922094,-0.00385401,-0.070659675,-0.002332128,0.04515734,-0.03611429,0.039979417,0.026276454,0.027565222,0.12001257,0.046599936,0.015783917,-0.10560828,0.06870625,0.08507896,0.020627096,0.05433007,0.03420762,0.052644357,-0.08018887,-0.06546866,-0.080665626,-0.081360154,-0.06633432,-0.08253104,0.043113414,0.040513497,0.021408305,0.028085964,0.063178144,-0.07783669,-0.0922147,-0.17579223,0.012268246,0.06058229,-0.03122313,-0.10332002,0.13828143,-0.021891035,0.09197143,-0.077246435,-0.16935167,-0.10365291,0.008556984,-0.031524107,0.03690376,0.038780186,0.04983245,-0.082162134,-0.11136992,0.0040984554,-0.023936236,0.047520153,-0.17537816,-0.017541163,-0.12123208,-0.035179414,-0.07431164,0.0066507454,0.056565963,-0.11175228,-0.11444468,0.018706314,-0.029612483,-0.08499142,0.012271645,0.023429528,0.0075374693,-0.0023575786,-0.081638016,-0.029333016,-0.049030416,0.055462006,0.02623552,-0.013887994,-0.08278045,-0.058263566,0.033150245,-0.07660078,-0.052324396,0.04635137,0.022404104,0.018023375,-0.048768,-0.019270783,0.013292425,0.09056746,0.009528151,0.07645968,-0.059416838,-0.024565205,0.029343452,0.036405366,0.06566287,-0.06397508,-0.06132175,0.037270747,0.066889584,0.06080126,0.0077424236,0.0033742944,-0.07677641,-0.06560256,0.028920818,-0.06593769,0.0012602601,-0.08745099,-0.032994945,-0.0026534167,0.03367434,-0.015974887,-0.04360631,-0.04077192,-0.09040216,0.054173883,0.019609556,-0.03813089,0.010811347,0.028134413,0.08561686,0.059844386,-0.0352256,0.013556804,0.044083264,0.024168124,-0.20585558,-0.06576653,0.07280344,0.08148072,0.07439153,0.12674266,-0.074608296,-0.06293321,0.05101944,0.00989657,0.080722734,0.05057211,0.040756892,0.011571062,0.06400137,-0.1299311,-0.021975005,0.06304958,0.10784129,-0.0796729,-0.038002763,0.11770576,-0.033556476,0.10247365,0.033433035,-0.031072194,-0.043736115,0.075940326,0.041694358,-0.10910001,-0.0126689505,0.04587617,0.0012004323,-0.07490992,0.045344528,0.0012103955,0.045486446,-0.083994545,0.052686974,-0.016539445,-0.043583572,0.051571418,-0.082637385,-0.08242387,-0.06496979,0.0639229,-0.061490692,0.04008273,-0.019505585,0.04189261,0.01779448,-0.12013249,-0.051238924,0.0754599,-0.04578093,-0.069409944,-0.08526226,-0.053965345,-0.13357772,-0.050670505,-0.06236401,-0.08048224,0.05354837,0.04531876,-0.10904354,0.04067997,0.0194169,0.052477878,0.0020544718,0.022472525,0.011718203,0.010939013,-0.11978587,-0.045875225,0.08052992,-0.05116881,-0.011164147,8.7013104e-05,0.020774676,-0.04714492,-0.05764188,0.017660765,0.002101798,-0.023733502,0.13154733,-0.08670425,-0.13481398,-0.09106447,-0.046398252,-0.0881184,0.071256526,-0.06751336,0.036418922,-0.08179638,0.051495783,0.058481578,-0.05079111,-0.0046295784,0.04301118,0.06766684,0.008555433,-0.060828783,-0.024493143,-0.033835962,-0.0132916365,-0.01610839,-0.030129261,-0.07661533,0.076004304,-0.08930141,0.048411354,-0.05123216,-0.17292698,0.035930406,0.07429425,-0.102933064,0.051567107,-0.11432687,-0.108834915,-0.09548637,0.025819404,-0.10273956,-0.011725071,-0.038493454,0.10199407,-0.15653862,-0.07495108,0.015723497
0.046714447,-0.12137597,-0.025765184,0.004675278,0.027717434,-0.07999536,-0.11318339,0.007294799,-0.091598876,0.0036009643,-0.030900225,0.06490215,0.11795848,-0.07548439,-0.06578877,-0.026318857,0.121792175,-0.03076635,-0.015903704,-0.15755515,0.065105736,-0.14466354,-0.039819963,0.08975048,-0.02434069,-0.08099914,0.047578484,-0.026443856,-0.11750614,-0.0035045284,0.10950997,-0.09038794,0.0037806095,-0.082717635,-0.07028917,0.010167169,-0.111748785,-0.111807376,-0.13938516,0.07705847,-0.030011931,-0.0037754579,0.010190396,0.032876577,-0.099194355,0.030801026,0.06427415,-0.11266765,-0.005776231,-0.03315331,0.021939946,0.0566814,0.07045885,0.012312163,-0.021049166,-0.0005836591,-0.15079573,-0.002550299,0.08209229,-0.034976196,-0.09014767,-0.112839326,-0.01476532,-0.040510282,0.07329273,0.010256436,-0.04943679,0.07648156,0.07501464,0.034705773,-0.045663808,0.010524241,-0.0117080165,0.05768784,-0.0208132,0.059065353,-0.020191094,0.050272167,-0.03865662,0.010219923,-0.04174979,0.0071267616,-0.029643273,-0.076544054,-0.1172859,0.005448888,0.04855111,0.011127092,-0.029131647,0.037689272,0.034578614,-0.12853217,-0.023990095,-0.07452891,-0.10636523,-0.036195338,0.0036505524,-0.08382797,-0.061714977,-0.074934274,-0.03406561,-0.05957085,0.057913862,-0.18845077,0.035509918,-0.07722671,-0.07897768,0.08132714,0.043480087,0.12509853,0.0031122884,-0.012274478,0.02455584,0.043462154,-0.018890163,0.11176863,0.09593424,0.015138533,0.066189796,0.03751265,0.007642374,0.06627663,-0.04879237,0.1384526,0.018748317,-0.030868068,-0.06437848,0.022477118,0.07973416,-0.03508889,-0.059112664,-0.06321273,-0.014947919,0.039375264,0.07656493,0.024681376,0.047095258,-0.16812018,0.1213534,-0.048599966,-0.023451567,0.05955595,0.00022550445,0.047797207,0.045120828,-0.10275737,-0.0020710586,0.06421301,-0.038263228,0.067348406,0.065775566,-0.09416973,0.0052472176,-0.033466466,-0.06838621,-0.03620304,-0.10528493,-0.03760146,-0.026846824,-0.107546024,-0.051716447,-0.09121782,0.03413821,0.006569028,0.04513138,-0.08243725,0.056051698,0.06414418,0.007625838,0.064695746,0.1149864,0.021059314,-0.07735286,-0.007117133,0.010628659,-0.060239308,-0.06681653,-0.04447883,0.06421836,-0.05135263,-0.09301695,0.01062377,-0.02599622,-0.08659675,0.08944521,-0.008225857,-0.023427203,-0.16513237,-0.03327364,0.060201332,0.049191147,0.085299805,-0.0903683,-0.112676755,-0.033301372,-0.008490429,-0.123147026,-0.09052107,-0.05752456,-0.08865076,0.09131283,-0.017169544,0.0112414695,0.040722024,-0.06522995,-0.060885742,0.0037168676,-0.11439661,-0.0129701365,-0.08770553,0.056925416,0.019262986,-0.17368339,0.025132125,0.04986568,0.055882353,0.019647425,0.10437874,-0.08218929,-0.056685027,0.064498335,-0.016992046,0.07370484,0.06771658,-0.01952928,-0.12560242,-0.039637815,0.15874217,-0.053973567,-0.0036269184,0.05965754,-0.014378358,0.007532272,0.05102937,-0.117323145,0.05959263,-0.03951679,-0.07038357,0.071263246,-0.02583046,-0.04046731,0.03548027,-0.043433107,-0.06446097,-0.09774425,0.035773065,-0.009739341,0.039024927,0.041933436,-0.02563952,0.01860029,0.05948904,-0.110782765,0.052512735,0.09851276,-0.05617376,-0.02188254,0.008418551,0.06953869,0.030065667,0.034924064,0.08084605,-0.08130514,-0.100548744,0.037726864,-0.016626082,-0.00092514156,-0.12280436,-0.0140479915,-0.10958292,-0.019957464,-0.050724618,0.060248677,-0.044722926,-0.0032400654,-0.16240203,-0.0035054397,0.029777016,0.038845338,0.0070074704,-0.07493418,0.027446097,-0.07748168,-0.036556926,0.03063261,-0.1393178,0.063480645,-0.05539258,0.03267788,0.0029307841,-0.036687694,0.10815739,-0.01416993,0.029333085,0.042868074,-0.08408574,-0.006110682,0.047278717,-0.035226863,-0.004300858,0.07405875,-0.09170406,-0.11371177,-0.03630976,0.06382538,-0.009543871,0.036529675,0.035839614,0.009975585,-0.014623347,-0.10168942,0.05406212,-0.04025678,0.058659527,0.03098653,0.053363867,-0.028300555,-0.011640271,0.01641635,0.013826759,0.014971834,-0.06206668,-0.045074876,-0.109804936,0.017266465,0.02997845,0.07536383,0.07037694,0.0134055875,-0.028199598,-0.06235648,-0.0637644,-0.055734597,-0.04875763,0.0813124,-0.00039506448,-0.122473694,-0.0017797516,-0.14901552,0.08128077,-0.079892926,-0.044503372,-0.05832397,-0.08788313,0.06213473,-0.028224306,0.029110102,-0.14499767,0.012483128,-0.1042149,0.1489628,-0.04142667,0.0500051,7.155614e-05,-0.057583455,0.08725321,-0.029316138,-0.15003356,-0.00824014,0.103848584,0.021829689,-0.040811535,0.07370701,-0.05158638,0.040061396,-0.012558722,-0.12509069,0.03353335,-0.10442278,-0.05515704,0.051862292,0.08619098,-0.02006102,0.052354127,0.016083471,0.061219905,0.010825252,0.017726483,-0.02656888,-0.12869155,-0.058190312,0.03269746,-0.040763088,-0.018261751,0.053465612,-0.0197256,-0.039478794,0.13680339,-0.07161555,0.0035571775,-0.008581051,-0.12986133,-0.10039734,0.031534236,-0.10214147,-0.040809188,-0.110261165,0.01503596,0.014124597,-0.12520573,-0.098634996,0.056807768,-0.12377267,-0.007071455,-0.01170465,0.058236167,0.08010696,0.007849895,-0.0691331,0.0534589,-0.004431088,-0.13172448,0.0559399,-0.06928133,0.04179908,0.02435772,0.043352295,0.16718595,0.04084567,0.0011628878,0.022728076,-0.06473183,0.011726307,0.0636847,-0.029004043,0.0010494955,0.046762384,0.054371376,0.1252315,-0.04774228,-0.012886063,-0.061102174,-0.031710543,0.07059099,0.052839763,0.008995233,0.15508586,-0.16430698,-0.11963216,-0.11460813,-0.090065815,-0.091945,-0.09911457,-0.08555592,0.09158257,0.085659884,-0.0534817,0.0041142474,0.0550175,-0.036463257,-0.040998235,-0.022867056,-0.033783466,-0.00979145,0.06122649,-0.077989966,0.042476363,0.07529955,-0.003999361,-0.060610734,0.050446756,0.064467385,-0.09796375,0.033629198,0.009375424,0.032843888,-0.14322813,-0.039214272,-0.09591252,-0.1232129,0.044825066,0.046021488,0.09681301,0.073589236,0.071698494,0.036721237,0.05658911,-0.051591944,-0.032898016,-0.046343822,-0.0036156038,-0.08858888,-0.021077387,0.14828901,-0.04732869,0.00533845,-0.064713106,0.07546546,-0.04960067,-0.10817927,-0.060210407,-0.011832638,-0.11538915,-0.071773,-0.060838193,-0.10125431,-0.013231434,-0.04895687,-0.07632156,0.084189355,0.03662055,0.048023883,-0.10282439,0.01411466,0.099326834,-0.030608054,-0.05109877,0.076410845,-0.07153084,0.051240683,0.041200172,0.012188727
0.08349614,0.06348284,-0.07145005,-0.023784764,-0.04794503,0.043056995,-0.09803964,-0.07453568,-0.103726946,0.045543622,-0.17265345,-0.14831871,0.014173043,0.08340136,-0.050981868,0.08061473,0.04792594,0.017462019,-0.0452043,-0.12632746,0.021037536,-0.093631074,-0.09262083,-0.052626517,-0.08960173,0.05934967,-0.016411578,0.07478653,0.06329549,0.03082725,0.08663318,-0.02862499,-0.043222304,0.034097906,-0.022824118,0.025698904,0.059551902,0.0011076127,0.004299652,-0.05750205,-0.03720768,-0.1153763,-0.11936305,-0.13350645,0.012101541,0.065069675,-0.009903381,0.036767643,-0.03795029,-0.0591631,-0.11954792,-0.017210929,-0.11724611,0.04054372,-0.018926874,0.03777785,0.04922647,0.049700912,0.043082077,-0.036902692,0.06134349,-0.07246546,0.104491614,0.029964581,0.062479306,-0.09924048,-0.014495851,-0.07410182,-0.06018318,0.022868164,-0.065699354,0.059349984,-0.12884283,-0.13023692,0.05770726,0.002641311,-0.13395178,0.021559859,0.069257066,-0.027135668,-0.15489228,-0.053290613,0.0112390015,0.07506315,0.044563618,-0.053237155,-0.017432969,0.09490901,-0.046286836,0.056551006,-0.052292705,-0.023065735,0.03638525,-0.013305169,0.062288355,-0.07219136,-0.05765828,0.063197136,-0.05423461,0.07431807,-0.0069908258,0.081200406,-0.11832695,-0.061073843,0.023457162,0.026987176,0.010117109,0.041562382,-0.13750282,0.032743283,-0.0646452,-0.017445173,0.057357863,0.028017648,-0.009913982,0.026550045,-0.0633027,0.046619136,-0.019598316,-0.013744328,-0.091425575,-0.03206551,0.061784133,-0.010525335,-0.028112525,-0.13008206,3.8333576e-05,-0.029149309,0.06739049,-0.110883415,-0.02821307,0.13430017,-0.12701085,0.017920386,0.07405256,0.05829407,0.038191527,-0.040960535,-0.072821945,0.040703412,0.07483952,-0.024935013,0.06483894,-0.000653926,-0.13043523,0.045893367,0.054176744,0.06738216,-0.0094518475,0.030476833,0.0018043946,-0.084962435,-0.066647954,0.05030785,-0.09565092,0.0057016653,-0.022261042,-0.10759005,0.115839876,-0.0073453416,-0.0570768,-0.023349058,-0.07215985,0.05715737,-0.0011329037,-0.12182072,-0.00817153,-0.06282103,-0.15000027,-0.0540247,0.04343459,-0.02611279,-0.1181908,-0.050679505,0.0023172628,-0.12732211,-0.14404505,-0.026661385,-0.11726754,-0.05242969,-0.045549206,0.005603293,-0.09520669,-0.062076062,0.010156746,-0.07922757,-0.08575379,-0.09570889,-0.062131748,0.048721593,-0.056652594,0.018022956,0.042592067,-0.051265385,-0.0024971364,-0.020533036,0.082721576,0.1183509,-0.078075014,0.016244106,0.027888313,-0.07429432,0.036427327,0.067257434,-0.06557548,-0.08736016,0.03942325,0.04967413,-0.082276605,-0.11696324,-0.008677421,-0.018011414,-0.057131685,0.045491558,-0.11428882,-0.16118577,0.0053373063,-0.04948407,0.04250412,-0.038003266,0.05664508,-0.07611289,0.02024925,-0.05550617,-0.07242168,0.043635026,-0.022968194,-0.105688855,0.13426477,-0.1273653,-0.019555664,0.04224043,-0.0027872627,-0.08429416,0.10378481,-0.00027270333,0.05414625,-0.17607138,-0.10102583,0.0012099486,-0.12122516,-0.0527886,0.032961667,-0.01536009,-0.13911,-0.04791639,-0.066374,0.06709476,-0.1413535,-0.039231826,0.055279646,0.021018934,0.0250283,-0.09650386,-0.032718346,-0.051367365,-0.06325347,-0.057992227,-0.1042964,0.04835721,0.06304385,-0.03476021,-0.04634335,-0.13449143,0.03359634,-0.08672961,-0.19273715,0.091291934,-0.0049145976,0.0033374259,0.07054115,0.038564365,-0.105732016,-0.07843411,0.01262887,0.028251426,-0.13049054,0.036959767,-0.07504905,-0.025840553,0.0651974,0.09872074,-0.002569743,0.04800482,0.07228661,-0.03754605,-0.12930131,0.058277972,-0.08570274,-0.0030593036,0.047022313,-0.034529768,0.020124897,-0.08791657,0.06889941,0.054695066,0.0067914776,-0.030528681,-0.11132759,0.039609443,0.019060388,0.034313813,-0.08961126,0.072855115,0.028033964,-0.1502529,0.01635197,0.010526198,-0.10995266,-0.0052854377,-0.124978855,-0.10212737,-0.08554424,-0.11396758,0.033363078,0.07275469,0.028821204,0.032722153,0.00854645,0.03690272,0.042255666,-0.0050927885,-0.07659812,0.1306016,0.09659189,0.024806738,0.05948736,0.02428842,0.057533722,0.03671,-0.111288264,0.026476659,0.013037234,0.13267305,-0.026383055,0.039739635,-0.09552895,-0.053686317,0.0051984335,-0.03877553,0.019289114,0.07394476,0.11608894,0.02338037,0.08331525,-0.034034476,0.00027023433,0.079034396,-0.029097717,0.049641985,0.08959322,-0.09438411,0.04837278,-0.052976135,-0.00776865,0.11663302,0.033810172,0.059882596,-0.15831563,0.03622932,-0.0129289925,-0.057973098,-0.075402096,-0.05487694,-0.07325294,0.015014282,0.07363498,-0.13909522,-0.08305938,-0.09024656,0.037148997,0.016638638,0.037567392,-0.1116196,-0.009906107,0.048863567,-0.03604814,0.0133613385,-0.0920748,-0.03860378,0.020834984,-0.037902024,-0.030522382,-0.0866958,-0.07646656,0.004109564,0.051972933,0.018124381,0.0029705598,0.0013834531,-0.09209957,0.015831381,0.019813165,-0.02520987,-0.0046383985,-0.06726319,0.08898342,-0.15359063,-0.0829436,0.01763272,-0.017779127,0.049283784,0.094922446,0.060025834,-0.048141748,-0.024611883,-0.05650664,0.07856803,-0.050891228,0.008610688,0.015205598,-0.068925835,-0.20068161,-0.056656197,-0.016250825,0.05044529,-0.075955376,0.04245393,-0.03450468,0.042783815,-0.015557947,0.05580318,-0.1150973,-0.17948098,-0.010170337,0.11159398,-0.080480814,-0.0070681814,0.09776453,-0.020552339,-0.010330393,-0.13450682,-0.04668772,-0.106519334,0.0850591,-0.07346468,0.04214911,-0.092524655,0.045591243,0.015432316,-0.115288354,0.09257679,0.060067132,0.0027956355,-0.061455484,0.063105464,-0.1113404,0.05292605,-0.10173837,0.06160983,0.053094547,-0.10030652,0.0681439,-0.041341916,0.0065124542,0.02501182,-0.03841175,0.018478261,0.14324486,-0.012242692,-0.042408314,0.0509101,0.058698434,-0.03337072,0.010915702,-0.12299913,-0.011032866,0.031768262,0.03996068,0.034575656,0.08853607,0.0341045,0.043671075,0.07417896,0.08395495,0.062268145,-0.11143788,0.08747053,-0.077370286,0.072199054,-0.065507166,0.062659316,0.056264598,0.05633007,-0.006133512,-0.034776855,0.05977445,0.0026515336,0.002507645,-0.02650623,-0.054960184,0.026174054,0.003634913,0.044493027,0.039051127,0.040142555,-0.054766215,0.046106283,-0.14346945,0.033236366,0.031910233,-0.008775765,0.06443142,-0.009794315,-0.09035468,0.017165355,-0.020403817,-0.04976165,0.021081286,-0.0003506315,0.013409771,0.03774191
0.048964355,0.018001884,0.040563688,-0.16590935,0.07418704,0.0027304094,-0.04766273,-0.080806196,0.035580877,0.00023145498,0.019264292,0.10475447,-0.09415415,-0.032680467,-0.121822424,0.040277846,-0.06990944,0.032697834,0.06266546,0.044782642,-0.05513576,0.110641055,-0.07983194,-0.027995054,-0.0351013,0.03975659,-0.09429338,0.0007852148,0.062633924,0.055480458,0.07920725,-0.026905328,0.06374402,0.02534729,0.056397557,-0.032332834,0.026078042,-0.00988777,0.026318125,-0.13636263,-0.09201324,-0.084665366,0.046805426,-0.030518373,0.08263114,-0.102811895,0.06890748,0.06401496,0.00012430694,0.058020595,0.0029264782,0.047898386,0.049072906,-0.100249805,-0.018456802,-0.03116464,0.006177825,0.03575045,-0.05543687,-0.013385572,0.010090596,-0.0636731,-0.013957088,0.051136497,-0.0412287,-0.07726801,0.08366254,-0.08665278,0.013659349,0.0004640163,-0.13091913,0.05426247,0.05341304,-0.09764733,-0.020019688,-0.15847455,-0.009890929,-0.06940555,-0.1585738,0.08466599,-0.0527329,0.0600365,-0.018795345,0.047651246,0.012476335,-0.112489566,0.051244866,-0.07971211,-0.06391318,-0.009166581,-0.12254214,-0.024667831,-0.0051278775,-0.021816654,0.016607461,0.056131586,0.06509379,0.015634807,0.074145705,0.042768404,-0.12574844,-0.005344727,-0.1098303,0.03297528,0.04497276,-0.0040883836,0.050754227,-0.028881466,-0.018862976,-0.106400415,0.058322445,0.03509375,-0.08588183,-0.05620937,-0.06145431,0.05040247,-0.055441264,0.0059121647,-0.061238937,-0.020022737,0.06628973,-0.08451375,0.09443861,-0.09273117,-0.0023187306,-0.035960063,-0.0619164,-0.075332105,0.022767514,0.101992846,0.03205855,0.018815633,-0.1096535,-0.07973756,-0.01064834,-0.08790566,0.038377777,-0.09829419,-0.12671764,0.022599041,-0.0060722656,0.04618203,-0.058012266,-0.09726415,0.029090159,0.036516447,0.04946151,-0.04843639,0.0103642065,-0.05794702,0.071899146,-0.08471011,-0.09191431,-0.10840879,0.033714134,-0.022217764,-0.11044808,0.082682244,-0.0015314315,-0.09944898,-0.111215785,0.07691956,0.07216348,0.03875266,-0.052448507,-0.06968866,-0.05479856,-0.14185166,-0.09175117,-0.011110087,0.0892001,-0.11062573,-0.01159924,0.10599242,-0.00048500608,-0.11305289,-0.046280816,-0.011848457,0.108200416,0.029049998,-0.0198755,0.10233021,-0.059242055,-0.020856367,0.0008552732,-0.08396802,-0.04951287,0.065817945,0.079111926,-0.0015787228,0.03530874,-0.09963756,0.0600904,0.028665174,-0.053252563,-0.042557746,0.02520445,-0.060537558,0.059356738,0.022587026,-0.11818469,0.024248945,-0.0675545,-0.05765476,0.020242423,0.083512284,-0.046899635,-0.05247104,0.035633877,0.1263679,-0.14664926,0.103779614,0.07360465,-0.02517212,-0.012991805,0.04029456,0.023949157,-0.102211446,0.04283052,-0.0015993812,-0.087155774,-0.08547895,0.046950776,0.011788344,0.05898554,0.019596618,-0.026117379,-0.033863187,-0.007864757,0.005639478,-0.07773421,0.007760975,-0.007079522,0.03806165,-0.09642346,-0.063116886,-0.04822286,0.016324352,-0.06458298,0.06625509,-0.09000548,0.05995486,-0.004479549,0.054010846,-0.03654471,-0.007220778,-0.017905843,0.033291865,0.0075660166,-0.010482088,-0.008364015,-0.028790543,0.040546287,0.036133148,-0.024244456,0.06355495,0.041901764,-0.08092547,0.04306183,0.057464268,-0.0019977032,-0.06423924,0.041719776,0.017404187,0.030110735,-0.07393751,-0.03453873,-0.16403504,-0.05251558,0.09259229,0.0702294,0.07454,-0.106286645,-0.04761879,0.0601793,-0.1210914,-0.07424562,0.036692355,0.054577745,0.037743814,-0.031156162,0.05228749,0.07979566,-0.0967316,-0.057674736,-0.07481527,0.047810934,-0.105173744,0.01849637,0.029034862,-0.067141846,-0.0057507693,0.03714204,-0.18048824,-0.08993954,0.011153241,0.018724168,-0.02454372,-0.033584785,-0.13339785,-0.010059207,0.044272106,-0.11973288,-0.049121585,-0.15281418,-0.050022483,0.04601575,-0.07059181,0.04739751,-0.020374775,0.023911761,-0.0030253432,0.08373602,0.0455132,0.07678043,0.08483234,0.084266566,0.027036684,-0.019610763,-0.03731408,-0.04584391,-0.15610944,0.0028238646,0.07366135,-0.124617964,-0.054552346,-0.07512923,-0.0059940433,0.08332215,0.031028278,-0.08631757,-0.12571953,-0.0041257637,-0.055333443,0.042460542,0.032210164,0.060561534,-0.02275071,-0.008636299,0.021929527,-0.08092868,0.07616239,-0.032799117,0.031871434,0.04186564,0.051388543,-0.030783828,-0.12829888,0.050419338,-0.048036683,-0.07659849,-0.011808415,0.036312934,0.008533589,-0.050124075,0.007994157,-0.0657161,0.032866936,0.048257288,0.021798119,-0.04938313,0.029160334,0.06459221,-0.065960646,-0.048826393,-0.051059272,0.06372866,-0.11926586,-0.026792401,-0.03923656,0.040982496,0.07757129,0.017484931,-0.00834207,0.0469845,0.059765466,-0.060581397,0.08226716,0.00040624556,0.021092143,0.07237848,-0.16558668,0.037308484,-0.007260786,-0.030822314,-0.0661693,0.08299652,-0.08881274,-0.04878503,-0.0062514762,-0.09147187,0.032578666,-0.046284672,-0.06266827,0.030879874,0.044326898,-0.082518004,-0.05201899,-0.033731967,0.007497398,0.06858985,-0.00047121165,-0.006114003,-0.076608226,-0.044668008,-0.11682787,-0.068752386,-0.0820425,-0.11702991,-0.0052662506,-0.00494946,-0.086222984,0.05609296,-0.059326578,0.0272265,-0.07717716,-0.07465465,0.04017053,-0.078433886,-0.07781641,0.0022939611,0.04598218,0.07580071,-0.110555574,0.094824985,-0.11352511,-0.044086,0.052797712,-0.006497762,0.061917327,0.051832307,-0.05074578,-0.094662614,-0.106553465,-0.054977525,0.081236176,-0.074235804,-0.11777876,-0.072860114,-0.053345352,-0.003788289,-0.052097887,0.04528608,0.040324263,-0.013762952,-0.08865716,-0.008986916,-0.12162926,0.08092427,-0.0007676015,0.02471977,0.074837856,0.022461945,-0.04294665,0.041918702,-0.00398997,0.07521148,-0.10715683,-0.085481316,-0.0015785955,0.0422464,0.04767956,0.003539595,-0.085081235,-0.0045807566,-0.008734298,0.03735487,-0.026342386,-0.07503198,-0.0037881213,0.038589645,-0.005772371,0.076652914,0.04723965,0.033702914,0.035685893,-0.0025345187,-0.073461406,-0.0013865865,-0.109850846,-0.03600032,-0.010745219,0.015857255,-0.06079597,-0.034903705,0.024954397,0.026166989,-0.0807957,0.008064322,0.013116401,-0.035814244,0.0063241394,-0.071486026,0.013634497,-0.095702216,0.08791076,-0.07363311,-0.03869355,0.0040205643,0.037448082,-0.14572835,0.011520706,-0.048638366,0.015986439,-0.042884093,0.009787225,0.044151377,0.068827055,-0.05958961,0.038004536,0.026690133,-0.11287882
