0.13217174,-0.013459319,0.036799707,0.013754559
0.061086934,0.021235574,-0.062423024,0.016543653
0.021585627,-0.053746786,-0.051779665,-0.1093536
-0.0034383468,0.03649956,-0.0027445327,-0.050985634
0.06925062,0.036557004,0.03327492,0.023013491
0.080461755,0.0130892405,0.081499115,0.112299934
-0.025002195,0.08424521,0.11463143,0.119332075
-0.07072462,-0.046146877,0.02354583,-0.027339596
0.035597734,0.04267168,0.03503852,0.042976957
-0.028294884,-0.03989162,-0.007503731,-0.06529238
-0.043837924,-0.033866268,0.01176868,-0.06986883
-0.12234412,-0.007922762,-0.09333738,-0.12738885
0.084546305,0.122151814,0.089292675,0.12214603
0.116422385,0.07011723,0.09827233,0.09123492
0.11775905,0.050503433,0.006863493,0.05094349
0.066000864,-0.0044591553,-0.010291901,0.03458155
0.012239776,-0.019778173,-0.009867529,-0.050861157
-0.033053942,7.751545e-05,0.0042889435,0.043379135
0.054770812,0.057915874,0.061737105,0.04533998
-0.015735686,-0.05507538,-0.062075295,-0.038068324
-0.07644505,0.011268656,-0.041169763,0.008581164
-0.0020203323,-0.031905733,0.059104007,-0.004113007
-0.01862417,-0.021271266,0.047767483,0.06913543
0.03096931,-0.04628765,0.020365452,-0.041199174
0.062034063,-0.012191606,-0.054044038,0.063637
0.029123828,0.019053455,-0.020993803,0.014065045
-0.020460365,-0.031468906,-0.15293941,-0.03025071
-0.025642062,-0.019689089,-0.11692621,-0.12956142
0.090899564,0.045950815,0.049224574,0.042998444
-0.012581992,-0.019559031,-0.07010527,-0.07702698
-0.06515135,-0.06718235,-0.036028285,-0.07099243
0.026692085,-0.044075407,-0.041807517,0.044455256
0.011172033,0.020543987,-0.036327176,0.013241187
-0.0014732135,0.047823694,0.02345193,0.04587662
-0.0053492016,0.059275087,0.0649442,0.016561422
0.039586347,0.012499242,0.014521149,0.0124903405
-0.043382198,-0.07346565,-0.021272061,-0.042859297
-0.15842125,-0.09842378,-0.12253287,-0.09215771
-0.017593943,-0.036785588,0.004165783,0.08299992
0.03125269,-0.0017785128,0.02714511,0.03786825
0.0424128,0.043770134,0.098719545,0.037216395
0.18156755,0.08011011,0.13165039,0.093992636
0.18378648,0.12809919,0.08792624,0.056223907
0.020784553,-0.01344348,-0.0017212657,-0.045088273
0.027124302,0.010549821,0.038256753,0.061154887
0.115192905,0.08839839,0.097294174,0.046409335
-0.01084919,-0.0188579,0.03551735,0.08368434
-0.15908831,-0.1132193,-0.05308546,-0.13056472
-0.023280978,-0.087196805,0.009871605,-0.07398621
0.05264671,0.06325815,0.049065404,0.014817841
0.031013837,-0.012422408,-0.03499313,-0.011578017
0.038439535,-0.0062694857,-0.035682652,-0.0110190995
-0.1801055,-0.15247187,-0.20973699,-0.16183238
-0.3653074,-0.3065243,-0.3428929,-0.29062852
0.02641869,-0.02114817,0.020626625,-0.019208312
-0.017029284,-0.049208783,0.035200965,0.01143088
0.038074218,-0.06412942,-0.047700062,-0.060145568
-0.24902107,-0.2647183,-0.24471577,-0.27048656
-0.09703602,-0.024223281,-0.083036445,-0.084550746
-0.013116465,0.017178603,-0.079282686,-0.07930384
-0.079498686,-0.04940937,-0.0402893,-0.05995001
0.0142675815,0.010218869,0.05371122,-0.047212828
0.003811761,0.05197299,0.08208089,0.06268185
-0.03062249,-0.054986004,-0.0508404,-0.025647448
-0.08629257,-0.041992415,0.005440772,-0.059532143
0.024068827,-0.040680133,0.004116297,-0.019255817
0.018052315,0.054147787,0.023916282,0.080895714
0.053978555,0.054553222,0.06608007,0.021170098
-0.029227242,-0.030322347,0.024157431,-0.020176753
-0.03386442,0.028564949,0.0006607422,0.032083444
-0.021632647,-0.0077520083,-0.024262387,0.004970716
-0.016141424,-0.06760089,-0.003210143,0.030375581
-0.008858088,-0.05867493,-0.0469965,0.0312902
-0.01815776,-0.05687964,-0.08322327,-0.07952661
-0.010325182,-0.07676564,-0.007119088,-0.0478083
-0.01717814,-0.03695105,-0.09142522,0.039368108
0.012147247,0.057831306,0.029927503,-0.014232175
0.088069364,0.050345,0.0481442,0.034011323
0.027520213,0.029981028,-0.007845764,0.06706509
0.068419255,0.016567212,0.018127965,0.11971986
0.028967617,0.07678124,0.062209133,0.022393685
-0.046404697,0.024410278,0.032769218,0.049622014
-0.007951032,-0.051052477,0.016584486,-0.019217625
-0.012287033,-0.025496716,-0.08322372,-0.051077567
-0.028929451,0.08061105,0.038345862,0.061655995
0.0076063666,0.023304371,0.02658552,-0.013558677
-0.007530451,-0.0058651543,0.010727924,-0.01653572
-0.054772254,0.019744555,-0.02726921,-0.019889548
-0.05032845,-0.09295698,-0.0031735122,-0.063772835
-0.034663737,-0.023172107,0.056127388,0.013722814
0.021211417,-0.019249493,-0.008494753,0.024354028
0.040403638,-0.033924006,0.06524464,0.045895636
-0.0010936506,-0.008895776,-0.04109882,-0.07599089
0.07713203,-0.014526797,-0.06146642,-0.028254053
0.102308184,0.0047259005,0.034104843,-0.008036204
-0.02202329,-0.025716808,0.017091203,0.010090295
0.07354872,0.08857057,0.030276995,0.029158935
0.07639064,0.055352457,0.014490379,0.061749443
-0.019130116,-0.037375804,0.06475834,0.057103116
0.0065655457,0.03162545,-0.055564612,-0.056555483
0.008331405,0.06056417,0.0852207,0.018021349
0.03798787,0.07375838,0.077722125,0.067399874
0.048927885,0.08409114,0.007900345,-0.014323724
0.016946323,0.092591405,0.031342007,0.08816068
-0.08822577,-0.032817855,0.018062547,0.041847557
-0.027562143,0.029902838,0.048241638,-0.046250187
0.016293613,-0.013401362,-0.0076738396,0.03261108
0.09808222,0.00012700158,0.027259247,0.02159301
0.028898442,-0.015825363,-0.008925056,-0.004108825
-0.07381908,-0.08803876,-0.07201892,-0.088786654
0.039269757,-0.008521199,-0.05491554,-0.013278163
3.012069e-05,-0.044300944,0.0055666454,-0.03089238
0.053054687,0.07034295,0.06823119,-0.005791191
0.009968838,0.036086243,0.06381266,0.05531626
-0.020954514,-0.0019012667,-0.05701395,-0.04027069
-0.1019565,-0.030065207,-0.12983581,-0.039340977
0.09763596,0.08576083,0.10730576,0.079041936
0.10839587,0.09789553,0.10450544,0.0315052
0.12193932,0.0966279,0.17081712,0.120026834
0.17767228,0.13086891,0.21017453,0.17458151
-0.02724357,-0.068110645,-0.005807611,-0.0836293
-0.06723308,-0.08040955,0.0089550335,-0.106520556
-0.038333092,0.011014979,-0.0075227628,0.05748013
-0.04564763,0.04156402,0.09202227,0.07045967
0.025605863,-0.020462716,0.021386957,0.005037752
-0.04323637,-0.009048886,-0.027117483,-0.035022724
-0.018867671,-0.010280484,-0.07623568,0.023200074
-0.05211916,-0.113407806,-0.10416121,-0.15161423
-0.07388928,-0.054393336,-0.0012173463,-0.029688852
-0.079624996,-0.029380089,0.048682537,-0.0048797983
0.00017274219,0.045569707,0.04471949,-0.041829683
-0.03612857,0.020999264,-0.011175781,0.024516292
0.15330078,0.15583797,0.10796926,0.034771703
0.168592,0.123041786,0.1098495,0.09842308
0.14213234,0.06398371,0.049415417,0.11546793
0.054626238,0.1071808,0.10475131,0.098600514
-0.066000536,-0.0918167,-0.047638003,0.009476408
-0.023746902,-0.004968445,-0.06968362,0.012069962
-0.018865826,0.016845608,0.062283453,0.029124228
0.03338994,0.053818244,0.00067726953,0.048593
-0.13950564,-0.12230467,-0.09299705,-0.14484836
-0.07321138,-0.07591164,-0.13778734,-0.11520455
-0.106119305,-0.16211419,-0.058077175,-0.10990981
-0.18638052,-0.14006811,-0.14786865,-0.1471638
-0.021477567,-0.04477943,-0.007263012,0.009133776
-0.07473088,-0.038202323,-0.08413547,-0.030890677
-0.0075985556,-0.03187931,0.042076744,-0.06467957
-0.036075383,-0.010893807,-0.042539943,0.0322936
-0.077169545,-0.060913518,-0.044121522,-0.04235917
-0.011746642,-0.048890676,-0.07785137,-0.0686198
-0.02223681,-0.042500217,0.0574601,0.036208715
-0.060078666,0.022401659,-0.023922633,0.016696934
-0.075487524,-0.04347197,-0.09370534,-0.054878987
-0.053306527,-0.008622787,-0.0004069077,0.018886838
-0.015950516,-0.026928848,-0.022718392,0.04354037
0.004900524,0.034076203,0.05992063,0.010119111
0.10341957,0.06684944,0.0769826,0.06546762
0.08967769,0.047081348,0.050862446,0.02852667
0.03822436,0.02910583,0.1026291,0.10018767
0.08201168,0.05566518,0.006367085,0.026707472
-0.012778804,0.10097463,0.09130241,-0.030614043
0.02376853,0.10498299,0.006642887,0.07344076
0.033876214,0.04714871,0.041560654,0.103668414
0.05735556,0.10740582,0.0566428,0.03601741
0.03185536,0.06719174,0.022125969,0.05010123
0.041877706,0.004453758,0.032917574,0.015207138
0.05388968,0.03190845,0.03393538,0.06243191
0.06907985,0.09379133,0.026781986,0.079638146
-0.038038295,-0.004821293,-0.06633869,-0.03375688
-0.0582258,-0.069423385,-0.09269368,-0.008524481
-0.07741482,-0.077411115,-0.022404322,-0.061535217
-0.00089230726,-0.00084694085,-0.092109025,-0.01143393
-0.031668276,0.0066999453,-0.032925475,0.006298164
0.039964948,-0.048775744,-0.044797227,-0.027235279
0.046159163,-0.045348793,0.012656782,0.02085193
-0.057114147,0.010513604,-0.11326642,0.0027969861
0.06528654,0.06874596,0.008560183,0.010888572
0.043394066,0.057918638,-0.027302789,-0.0019732642
0.05799947,0.05347335,0.00525784,0.011271325
-0.015015951,-0.022077512,0.05971071,-0.009350877
0.06132502,0.032135505,0.03868366,0.0125638265
0.018859427,0.016884029,0.06409142,0.03655176
-0.009068536,0.042146582,0.0035134335,0.047642883
0.038342882,0.01886081,0.0408526,0.044620223
-0.0135213835,-0.046541326,-0.09326219,-0.04839345
-0.055846762,0.009494242,0.0355735,0.04537981
0.052721806,-0.03584037,0.042203832,0.07124657
0.051945526,0.008784895,0.07741963,0.078882396
-0.045643415,-0.060000524,-0.020994155,-0.041877914
0.012195689,-0.043158237,-0.021426497,0.042807482
0.041634887,-0.046559423,-0.047801826,-0.00824117
-0.015961083,0.058949687,0.053546842,0.003024769
0.046502147,-0.05170842,-0.056029525,-0.015394406
0.034278296,0.06296925,-0.005511292,-0.017714188
-0.05475102,0.033259343,-0.036423337,-0.059889145
0.026859203,-0.033462185,-0.0019069813,0.030467803
0.021559218,0.020889891,-0.017369526,0.0023106965
0.04743394,0.024861556,0.08003618,-0.04914454
0.06312457,0.042176258,-0.02155765,0.03240362
0.0019252574,0.024852723,0.051001597,-0.007293154
-0.041387614,-0.05597429,0.007028736,-0.029576432
0.033338793,0.007070094,-0.0260535,0.06870523
0.040599104,0.010972775,0.07375283,0.09057013
0.050225552,0.07042153,0.06421978,0.036782708
0.11802787,0.102733806,0.0633907,0.07548074
0.10501855,0.108217135,0.09923424,0.13190563
0.1337929,0.17965911,0.046848554,0.09990232
0.13407119,0.13505545,0.061724298,0.041594855
0.050346665,0.024572518,0.0017890559,-0.03986926
-0.001555442,-0.02420299,-0.00087654364,0.042303395
-0.006477368,0.06539298,0.06603563,0.028011283
0.09060221,-0.039027013,-0.0060217776,0.021200567
-0.0571131,-0.066275604,-0.021393344,0.0038647463
-0.03915479,0.020898271,-0.0034868044,-0.011041543
-0.08274635,-0.0558846,-0.037356906,-0.10061282
-0.024489941,-0.063574895,-0.073131435,0.026533956
-0.03599046,0.008503705,0.027435767,0.028024817
-0.024030797,0.024152918,0.07502309,-0.005301479
-0.008911664,0.012891841,-0.0018380503,0.043153603
0.06626355,0.03712358,0.0564921,0.010953953
-0.07456384,-0.07876378,-0.032696202,-0.013527657
-0.025478397,0.008538548,0.061255265,0.052797105
0.013860765,-0.03247792,0.056495883,-0.061677016
-0.044603433,-0.031237334,-0.05408459,-0.058664747
0.027613392,0.028536377,-0.0049762554,-0.0070337146
-0.045263626,0.068127915,0.09267893,0.03863306
-0.023507187,0.016520085,0.058208887,0.06487004
0.014424072,-0.019357339,0.061672736,-0.040671453
0.041579954,0.013123776,0.017591622,0.040379174
0.04319615,0.0132051185,0.09475493,0.07757256
0.05912348,0.043402445,0.04849841,0.053011976
-0.008455213,0.054409284,-0.051614523,-0.033158753
-0.007830382,0.07072944,0.060491674,-0.003760636
0.14753403,0.19189207,0.14234948,0.15439312
0.10551986,0.18219684,0.14951001,0.17446606
0.10495584,0.098602496,0.15401837,0.095283054
-0.06695108,-0.080447294,-0.041303694,-0.057165183
-0.00082017895,-0.03986219,0.015087637,0.034391183
0.042596307,-0.017637592,0.06826168,0.09192429
0.019253392,0.036131203,0.04454707,0.071004406
-0.041008163,-0.038014505,-0.04301319,-0.0021302947
-0.107172325,0.014835294,-0.12391778,-0.003959849
-0.054860804,-0.06955245,-0.026862578,-0.09833076
-0.09556341,-0.05642279,-0.077139996,-0.03356087
0.11195065,0.12444553,0.06575295,0.08307955
0.10769787,0.12578014,0.07434647,0.080689244
0.07834159,0.17528236,0.10319292,0.14511424
0.07856376,0.08005758,0.106394306,0.0350388
0.028802244,-0.04176638,-0.069145575,-0.0481232
-0.014933545,0.021149857,-0.0418509,-0.018837964
-0.00012875881,-0.021976737,0.009873491,-0.020483697
0.011799954,-0.008348681,0.05002424,0.017802244
-0.05215968,-0.033543702,-0.088069044,-0.04696606
-0.06255258,-0.076049216,-0.13076653,-0.07536714
-0.092774354,-0.08039844,-0.10733315,-0.066970274
0.023985507,-0.08383179,-0.030348623,-0.01873403
0.016424423,0.05787522,0.055020206,-0.020032767
-0.058203932,-0.038237087,0.014036331,0.024937537
0.022550082,-0.040555064,0.037566703,-0.021955753
-0.05078288,-0.08099718,0.010866925,0.008779068
-0.01991317,-0.035087813,0.02562507,-0.0011921604
-0.020511193,-0.060899854,-0.08989285,-0.0194428
-0.086611696,-0.043291524,-0.08640548,-0.04447364
0.0010952327,-0.07620154,-0.07393387,-0.060617752
0.029106721,-0.025500791,-0.0010383847,0.011142946
0.024452934,-0.017552262,-0.019934168,0.012491049
-0.0059647807,0.020412367,0.026995517,0.030218301
0.029995773,0.07369051,0.020810176,-0.04415778
-0.021995423,0.018858029,-0.057560593,-0.03512583
-0.0018195469,-0.0053618974,-0.028302766,-0.021990772
-0.043304767,-0.04395174,-0.0565539,-0.031049525
-0.052941516,-0.091395475,-0.05201424,-0.069937594
0.06865927,0.06178165,0.065113865,0.049849603
-0.025220653,0.014646606,0.026750967,-0.030327199
0.028083935,0.022189157,-0.029179307,-0.016417412
-0.040662162,-0.019851169,-0.005689539,0.0040081325
-0.08477487,-0.0030738038,0.011101779,0.0577679
0.019187607,-0.0064800316,0.001236324,0.08035978
0.016755097,0.019027496,-0.04831089,0.021932775
0.024484757,-0.029693443,0.028644688,0.012740069
-0.024364235,0.0445666,0.05750034,-0.04498292
-0.043487966,0.05663048,0.056855544,0.035184063
-0.0031852114,0.035509232,0.014378258,-0.022745432
-0.049716286,0.011265164,0.0017192212,0.048890147
0.021346029,0.016384654,-0.023528494,0.025405463
0.0053653196,0.07064758,0.035727594,0.046669535
0.06048517,0.07140904,0.06310798,0.054936193
-0.0047055753,-0.0010068081,-0.037626788,-0.042200956
-0.013310689,0.0020300068,0.07697175,0.0049080336
-0.094437316,-0.07124496,-0.084321395,-0.09170861
-0.046728753,-0.13391738,-0.024810642,-0.06290042
-0.056624763,-0.05015332,-0.03793372,-0.024818083
0.17283282,0.11560406,0.13133624,0.0882779
0.19524135,0.22692212,0.14113,0.10910392
0.10987286,0.086468294,0.03430569,0.11662247
-0.04356861,0.00809412,-0.01570865,0.057236772
0.07670964,0.05185503,0.12439224,0.051885787
0.008951319,0.013789175,0.013296118,0.032305554
-0.019401774,-0.039873507,-0.01949655,0.06319949
-0.05589423,-0.005494497,-0.011919523,-0.013913734
0.123809464,0.1026348,0.11740042,0.029229045
0.07140724,0.15676017,0.18147166,0.09850004
0.109337546,0.13070808,0.17317845,0.09960669
0.07094028,0.098329544,0.1042674,0.06618264
-0.060634576,-0.034683466,0.028947279,-0.0043700435
-0.021169111,-0.014532151,-0.01102291,0.052001286
-0.029272918,0.02618831,0.014118395,0.018155012
-0.077746235,0.016047036,-0.036327995,-0.03612156
0.037354466,0.11029849,0.11334384,0.0042116293
0.07306858,0.032964744,0.048104733,0.0014188567
-0.05073906,-0.05374547,-0.05826946,-0.017497754
-0.024785595,-0.019647827,0.02839567,-0.010070736
0.11257653,0.15171771,0.12193615,0.15840162
0.10917989,0.08667832,0.17289332,0.21186316
0.070480935,0.05714825,0.12519422,0.0037092874
0.040620293,-0.029816275,0.015707318,0.034403216
-0.029547425,-0.07502101,0.035241034,-0.048213698
-0.046733934,0.008579699,-0.032617692,0.06113205
0.012845545,-0.037487283,-0.02066013,0.0077036754
0.045558263,0.016331486,-0.05366009,0.0037853427
-0.052683238,0.053395182,-0.02890084,0.026118638
-0.04842894,0.009440424,-0.043239314,-0.04815077
-0.053056773,0.030061882,-0.0388847,0.008179334
-0.020662623,-0.01410217,0.06193168,0.031208433
-0.08562431,-0.016109299,-0.016186332,0.0061348365
-0.13537548,-0.12699947,-0.07741439,-0.07841379
-0.061017383,-0.03227423,-0.056886666,0.046555568
-0.09382388,-0.018377485,0.0009371228,0.021523096
-0.057323396,-0.0076393196,0.03945235,0.04628867
0.028664375,0.024758978,-0.0064766714,0.011013735
-0.045519624,0.015187424,0.011673277,0.07033218
-0.033873808,-0.017847955,0.033389937,-0.036045317
0.03982242,-0.0422735,-0.06512512,0.016869642
-0.062439036,0.038275033,0.055053845,0.018751314
-0.050212376,0.0747245,0.06398935,0.029158153
-0.020408168,0.07674101,-0.0108594755,0.008362366
0.011077455,-0.04693295,-0.053632647,-0.013400668
0.025320964,0.019901348,-0.00980619,0.03516679
-0.0046352874,-0.045264877,0.04907823,0.020112462
0.04679514,0.028343292,-0.015816286,-0.039282445
0.016550977,-0.03447937,-0.02290676,0.06519873
-0.005971028,-0.03250513,0.0036729479,0.017921621
-0.012902504,-0.034707673,0.017973894,0.05174636
0.042058233,0.030363409,-0.026747063,-0.023967432
-0.025589718,-0.050807584,-0.0034219674,-0.003859424
0.028379312,0.051415835,0.031399198,-0.032708764
0.007301751,-0.021455558,-0.038974732,0.016086934
-0.014524475,-0.023584085,0.041215982,0.056015242
0.0044187885,0.039271086,-0.016850527,0.025797974
-0.039260615,-0.047203228,0.015067972,0.0041593234
0.015083807,0.040865768,0.006809059,-0.034199797
0.007302173,0.04724673,-0.0044348137,0.03615983
0.05904443,0.07362983,-0.010136512,0.013028687
0.049212836,-0.022869403,0.07670802,0.011273643
0.002689408,-0.01047341,0.0014953384,-0.034388628
0.022309888,0.004203948,0.03136692,-0.034704562
-0.043210067,0.04275154,-0.06756033,-0.046772968
0.071623914,-0.056649536,-0.039376162,-0.014286103
0.08492356,0.02666698,0.009053839,0.029889809
-0.0028588744,0.037830923,0.01596427,0.02866975
-0.056578655,-0.052382242,-0.09316706,-0.14866664
-0.05970805,-0.15937516,-0.15999235,-0.13279161
-0.10375605,-0.1953067,-0.19024435,-0.13472156
-0.05155091,-0.0616214,-0.08569124,-0.040376782
0.14062107,0.046542544,0.12499715,0.11854017
0.10956136,0.12758918,0.19291332,0.10158634
0.067176476,0.14984892,0.06935745,0.115247615
0.0033404783,0.093310505,0.07792761,0.10655033
0.09650382,0.059134655,-0.03827397,0.03489058
0.054551616,-0.027150579,-0.06507757,-0.029866297
-0.006451241,-0.052529313,0.04085618,-0.04042598
-0.020401055,-0.030094137,0.043168258,-0.012189532
0.15617007,0.17460567,0.18814337,0.14538299
0.20545053,0.20199536,0.19991262,0.18414925
0.23731567,0.17963435,0.121722125,0.1612843
0.16009279,0.083539195,0.16348003,0.09921487
0.06787907,0.039769147,0.08285276,0.095750265
0.057827227,0.09469122,0.03588542,0.048272707
0.11177102,0.055651426,0.04305612,0.090443246
0.013989149,0.039615363,0.10560101,0.07164342
0.07029598,0.032334186,-0.0021832942,-0.04772927
0.041828275,0.04964417,0.052226648,0.023367872
0.05599651,-0.03872121,0.05474335,0.021548232
-0.033675134,0.0013323132,-0.0019570733,-0.036129717
0.07838841,-0.030526932,0.009049829,0.026856208
-0.03493315,0.023527194,-0.030792803,0.032701008
-0.002837018,-0.063633494,-0.06607546,-0.02457057
-0.013473097,-0.004220896,-0.042159244,-0.04673021
0.069303334,0.10874329,0.05735676,0.058334153
0.03826021,0.10899863,0.058663383,0.12577796
-0.005687439,0.039934468,0.11901253,0.03463641
0.014260235,0.02454666,0.023537138,0.10680808
-0.008211118,-0.011854123,0.03979075,-0.05602829
0.027503766,-0.059152566,0.019279268,-0.009583795
0.056514908,0.007993167,0.008419229,0.04670305
-0.012286174,-0.03289289,0.035194095,-0.020453492
0.015410961,-0.073772915,-0.07243504,-0.044979703
0.024799805,-0.06545506,-0.051675417,-0.06491482
-0.063942015,-0.053943902,-0.09207386,-0.1284302
-0.007919366,-0.08739905,-0.09205999,-0.11924477
-0.03174622,0.00095292885,0.07781188,0.0780202
0.045908276,0.011606231,0.0058046947,0.022655178
-0.06159673,-0.04748114,0.004140579,0.037633747
0.03322209,0.038295757,0.045544896,-0.03789432
-0.06678519,-0.010461755,0.043899693,0.028514976
0.0069679655,-0.03552438,0.00019883366,0.050698258
-0.087369,-0.06787915,0.02130042,0.03324657
-0.043761693,-0.021030113,-0.0057748966,-0.045644905
-0.0020809295,-0.06443662,-0.027845165,-0.042317636
-0.007568651,0.022183172,-0.07195866,-0.06342477
-0.040247414,-0.01907168,-0.085535124,-0.028651705
0.045295894,0.023348888,-0.033496536,-0.05419262
0.05839079,0.031940307,0.08874705,-0.011154962
-0.018226465,-0.0064336862,0.067304365,0.061212737
0.055024255,0.011347861,0.09881479,0.06517718
0.053204007,0.08976285,0.094996735,0.077485576
-0.024772156,-0.015364927,-0.058044963,0.04072021
0.056634814,-0.0050268024,0.003549516,0.034786854
-0.10080775,-0.07032425,-0.10226586,-0.04930982
-0.07036246,0.027189746,-0.07385232,-0.055362068
0.07035961,-0.00892413,0.028846666,-0.01624628
0.046655755,0.121694,0.04481581,0.044252664
0.029709414,0.083134696,0.10802169,0.103808135
0.050510995,0.035225317,0.039206762,0.09698839
0.049562138,0.060259797,-0.02952179,-0.02640909
-0.003942871,0.0656852,0.070980035,-0.04843723
0.02251497,0.080523305,0.043951996,-0.016298166
0.015791738,-0.03328881,-0.037716877,-0.06772408
0.080915965,0.095674306,0.011103761,0.07809118
0.07296099,0.09931727,0.08660932,0.07990623
0.062078357,0.11653899,0.0018396932,-0.007158092
0.0821275,0.022274341,0.0065745846,0.026407152
0.060995407,-0.040792197,-0.0037624082,-0.017620318
-0.013472978,0.06690968,0.022666108,0.010649199
-0.032975785,0.045648858,0.06939952,0.034001023
0.026212012,-0.039924394,-0.04705582,-0.035144918
0.0772917,0.084885634,0.02703866,0.08262623
0.042722657,0.044103414,0.099141434,-0.0275838
0.068076685,-0.034664102,0.00677424,-0.049610265
-0.07698514,0.036614805,-0.030997695,-0.06962602
0.056738596,0.1589151,0.14789335,0.1223473
0.05199375,0.0709258,0.09506796,0.08458339
0.1555546,0.09457102,0.11619075,0.1101918
0.04971234,0.11370345,0.06531985,0.06424501
-0.0101509085,-0.017427541,-0.08412036,-0.05341232
0.0083182175,-0.09868973,-0.07022435,-0.043583535
0.026813632,-0.012190092,-0.0113316905,-0.06492881
-0.016915144,0.045648314,0.040479872,-0.06023659
0.009386715,0.023221163,0.021090485,0.02985819
-0.00656643,-0.0304662,0.043923683,0.054921165
-0.059757475,-0.00744635,0.020166388,-0.029907444
0.0010302401,0.026259921,0.030835286,0.0022666913
-0.10084398,-0.1596018,-0.064829454,-0.019835616
-0.14714704,-0.21173322,-0.06791733,-0.076485164
-0.23292059,-0.3175241,-0.21295823,-0.21683763
-0.11387252,-0.2303562,-0.21210723,-0.2100062
0.04088481,0.008954309,-0.019579934,-0.06343091
-0.010096595,0.0154554285,-0.004192227,-0.037168693
-0.017120836,0.028919578,-0.017577963,0.019403074
-0.06289003,0.04437177,0.028360805,0.001008334
-0.0776958,-0.04150232,0.03633758,0.06608869
0.007624286,-0.0043801866,0.069029294,-0.005929885
0.056477062,0.0046230447,0.051033583,-0.04157392
0.09881638,0.027904462,0.10086191,0.053375594
-0.022060702,-0.071891636,-0.12852597,-0.08434754
-0.08922483,0.005581298,-0.12049311,-0.064223744
0.027853694,-0.015114883,-0.094831735,-0.016203083
-0.011498569,-0.017707786,-0.025061049,-0.0147823
0.08701138,0.02973478,0.023853846,0.0393811
0.08886597,0.082034014,0.06653541,-0.01150494
0.10153411,0.00887643,0.05493379,-0.011289419
0.04554167,0.03602217,0.07754766,-0.0114057595
0.050034404,0.034781065,0.10323549,0.055896264
0.03159268,0.012162829,0.054868158,0.009278481
0.008590552,-0.000810688,0.06831127,0.06176384
-0.028762449,0.07811219,0.09390875,0.06266442
0.07784325,0.03260614,0.031202111,0.058887668
0.042926706,0.05534153,-0.005913618,-0.0044452604
0.026613232,-0.02516059,0.011029196,-0.008146904
0.046515696,-0.03902803,0.0409792,-0.0141807925
0.030036481,-0.044867855,0.063683495,0.059625838
-0.016094517,0.0039264206,0.056962203,0.10091986
0.08035864,0.11496089,0.049184162,0.038688418
0.01203291,-0.028901218,0.062476274,0.013059548
-0.08198007,-0.029961048,0.03811789,-0.0131254485
-0.052903615,0.004738532,-0.03302607,-0.071043536
-0.06706399,-0.053154245,-0.07151021,-0.07490727
-0.029137481,-0.115101606,-0.034030195,-0.095697984
0.05718129,-0.044912193,-0.13135436,-0.11506937
-0.008945952,-0.16071345,-0.22076853,-0.1923821
-0.14095742,-0.25162512,-0.2088826,-0.22190817
-0.045836743,-0.22760776,-0.201014,-0.19633962
0.055783164,0.025527075,0.021038419,0.10555319
0.040928017,0.034365073,0.09739385,0.044714496
0.07071183,0.050068498,0.010898683,0.011407007
0.0573524,0.011658293,0.004198858,0.031240651
0.094443545,0.02067765,0.0013220499,-0.08949667
0.01451899,-0.008530243,0.04555172,-0.02972194
0.078937724,0.03917681,-0.012247281,0.03860141
0.06975571,0.04122123,0.060542863,-0.032995883
-0.042727195,0.04349666,0.051662967,0.01408291
-0.040415194,0.05604308,0.046435766,0.04665632
-0.027974846,0.0070968624,0.011302877,0.01587643
-0.07040601,-0.038277272,0.038145438,-0.024641117
0.085870914,0.029800424,0.010369209,-0.044966277
-0.005002875,-0.046037126,-0.028337825,-0.0023484381
0.06984115,-0.07290091,-0.049740974,-0.048072807
0.055625983,-0.016507752,-0.0028610162,-0.01687127
-0.0020653124,0.01650617,-0.035411935,0.03233164
0.008147999,0.037524585,-0.0063212886,0.0152712725
0.0618775,0.057504766,-0.01987469,0.033509262
0.08726212,0.09504315,-0.026012992,0.034394935
0.03848287,0.0026892067,0.0026462676,-0.0055077206
0.08486678,0.0034892969,0.023343394,-0.06282848
-0.0060967836,0.02833733,0.030658372,-0.06689562
-0.027352458,0.04688667,-0.043660287,-0.057588365
-0.038706783,0.04589637,0.027489856,0.03110101
0.021636598,0.021286352,0.029471382,-0.075942524
-0.015108682,-0.039278876,-0.04106493,-0.035233606
-0.003028913,0.010453423,0.0034056532,-0.000670702
0.007692847,0.039940707,0.06510187,-0.045527104
-0.014629102,0.03993647,-0.00701098,0.015903538
0.042291332,0.07718532,0.046359323,0.039065536
0.0133432895,0.04520228,0.057159342,0.0636078
-0.067451574,-0.030492602,-0.015951373,-0.036448594
-0.100005746,-0.05876246,-0.07931727,-0.11106553
0.019621475,-0.03964697,0.03900763,-0.012647268
-0.002043815,-0.041008595,-0.017101359,-0.11002476
-0.04022333,-0.046795484,0.007936966,-0.007170653
-0.04019975,0.012995514,-0.004416648,-0.029434722
-0.0005241767,0.03442705,0.030560197,0.075247616
0.020371908,0.034989696,-0.007264166,0.030717198
0.08427706,-0.009049298,0.1183576,-0.013134433
-0.017209135,0.0068622567,0.1111659,0.04842417
-0.018792938,0.011359669,0.007097635,0.023310764
0.046766665,0.045586452,0.07721603,0.03818309
-0.024464708,-0.057800986,-0.004511705,0.043213155
0.008817689,-0.04583532,-0.06528422,-0.02006424
-0.007453834,0.034872442,0.029869737,0.017200904
-0.045688324,-0.036491733,-0.06992558,-0.025539424
-0.04352735,0.018149998,0.0325924,0.042503748
-0.057024054,-0.044773377,0.007115274,-0.07333548
-0.01439715,-0.068644166,0.05936641,0.00057780795
-0.032340538,0.02805725,0.039834473,-0.024472617
0.066821344,0.087751925,0.11396267,0.03088146
0.112056315,0.08761522,0.13146086,0.045644946
0.09355759,0.11637453,0.107911415,0.108550124
-0.020755088,0.049148444,0.08322489,-0.057792764
-0.137424,-0.15620811,-0.09354287,0.016754443
-0.062337026,-0.05904103,-0.01865755,-0.048270714
-0.134466,-0.14507644,-0.09921926,-0.08560744
-0.16790396,-0.15136227,-0.072700575,-0.12719475
0.033494964,-0.026881337,0.018485602,-0.0075513353
-0.0128867,-0.009215393,0.057674125,0.0021568087
0.078432165,0.10873009,0.051310774,0.03925978
0.027520994,0.023087906,0.0017179485,0.021611853
-0.021604845,0.04813536,-0.015368422,0.07908341
0.01590825,0.028231949,0.021774216,0.009063913
-0.032115377,0.006555513,0.019657383,-0.0019397656
-0.018113041,-0.0056904904,-0.042901397,0.0007571188
-0.0061272085,-0.063377224,0.007729955,-0.03064101
-0.07141712,0.030556621,-0.015215878,0.05068752
-0.046615727,0.023966618,0.04863945,-0.041264284
-0.04977233,-0.067884095,0.023663433,-4.8758542e-05
-0.02487016,-0.017235527,0.016488437,0.048171252
-0.01942704,-0.010040296,0.0032182427,-0.055812676
-0.013321072,-0.090584345,-0.07477689,-0.01778105
-0.019192068,0.0037949427,-0.066547565,-0.045949657
0.04081565,0.03962498,0.099083185,-0.03786621
0.037111185,0.02747416,0.021818304,-0.06197662
0.016551211,0.112316,0.06092908,-0.052321423
0.08237263,0.045246184,0.040626816,0.06304426
-0.04334305,-0.027771827,-0.0019890456,0.07851381
0.011589979,-0.007914162,0.06486245,0.04555569
0.036145728,-0.04278602,0.037785858,0.010497571
0.03047421,-0.02376287,0.036168784,-0.028995937
0.004362642,0.014317323,-0.011508009,0.016372008
-0.021207191,0.0009801764,0.027443027,-0.021143762
-0.0013432631,0.047642518,0.03492893,-0.037139215
0.04986092,0.0060170735,0.00947016,0.052322406
-0.002340095,-0.034897026,-0.076527804,-0.053306412
-0.07348313,-0.053021725,-0.05213261,0.0011245197
0.020524465,-0.059489757,-0.04484917,-0.06959883
0.023978738,0.010324578,-0.027201448,-0.06414849
-0.023389539,0.043041073,0.008805358,0.030269481
0.039264742,0.042969756,0.01684833,-0.010409912
0.023453264,0.0135983685,0.055288978,0.0053886157
0.107376486,-0.03899903,-0.041272614,-0.027576396
0.10452953,0.054444462,0.06984667,0.03689638
0.13404974,0.04533323,0.049831804,0.15543959
0.13951418,0.1076026,0.1389384,0.062266897
0.092540026,0.12332313,0.109374225,0.09805617
0.08480454,0.027688032,0.079520226,0.023737542
0.006955034,0.04052815,-0.013159201,0.038380027
0.06402224,0.048881732,0.02765813,0.028695844
0.034244068,0.068180226,0.046178486,0.04525105
-0.077827245,0.004072702,-0.031290993,0.009483034
-0.039296776,0.05904259,0.02898303,0.04947965
-0.046507396,-0.024315972,0.020643404,0.020441486
-0.0704731,-0.044099357,0.0312464,0.014268974
-0.020677628,-0.05463465,-0.027718902,0.029803816
0.069461174,0.030536024,0.017628629,0.06834231
0.08002011,0.08335564,0.046826605,0.10218785
0.06321114,0.07989313,0.08883755,0.061367176
-0.020480221,0.0021807773,-0.04013354,-0.07276574
-0.008049927,-0.050898377,-0.010127078,0.0063564237
-0.087010965,-0.01513969,-0.034536365,-0.057725236
-0.0721213,-0.0801151,-0.035866152,-0.05983896
-0.014744898,-0.06148421,-0.10454982,-0.12239777
-0.052483853,-0.094218105,-0.113763645,-0.15002586
-0.05757333,-0.044882167,-0.10955739,-0.12856781
0.07535203,-0.087437004,0.0021275782,-0.06245521
-0.059880685,-0.086741135,-0.102384366,-0.0307658
-0.1080784,-0.07796903,-0.04778868,-0.079331994
-0.09639114,-0.11378833,-0.0891743,-0.045120396
-0.13472867,-0.1450923,-0.12369287,-0.06306616
0.011170324,0.03732265,0.05160439,0.03535028
-0.060930315,-0.049477115,0.031824365,0.047269665
-0.04327001,0.006547854,0.03335976,0.033115707
0.055554464,0.01257387,0.009986188,-0.01692969
-0.057816595,0.0046640253,0.057370547,0.04517945
-0.042175718,0.027485281,0.031166963,0.02786756
0.03980452,0.02172997,0.021368997,-0.010042213
0.0038797182,-0.10193643,0.024314743,-0.03641509
0.019539688,-0.021890054,0.033261035,-0.009348724
0.051129848,-0.03589733,-0.017077748,0.055753242
0.009068177,-0.0112063065,0.0010106284,-0.03091265
-0.046526637,0.04698605,0.065832764,-0.029826608
0.010808341,0.025901597,-0.00062172354,0.0965014
0.105906196,0.09478343,0.046792734,0.016852817
0.16313007,0.15262057,0.05538392,0.08428428
0.07372771,0.07641743,0.06959606,0.012066967
-0.019120404,-0.037108123,-0.023108162,0.0083809495
-0.032378834,0.012944628,0.058516257,0.0068311635
0.048490066,-0.015259487,0.052582357,-0.015912626
-0.08752953,-0.1156713,-0.05854331,-0.068368115
0.0262366,0.013214113,-0.025818095,-0.030057872
0.056185745,-0.022501703,-0.010094518,0.063603766
0.057187572,0.008250912,0.027687075,0.03924632
-0.04269757,0.0061005442,-0.015582822,-0.025664503
0.028809302,-0.008358805,0.03358062,0.09831928
-0.011129722,0.0028983026,-0.015022207,0.07490363
0.02063781,-0.04119793,0.041241925,-0.022764008
-0.00312327,-0.03164418,0.018257268,-0.00015168855
0.038788784,0.055783227,0.084607124,0.028012706
0.05999764,0.0750722,0.14273296,0.09691505
0.05782956,0.09656909,0.101863034,0.11354591
0.021172812,0.13144864,0.104312606,0.06492542
0.09369408,0.046458136,-0.017758394,0.037657395
0.11423426,0.07288418,-0.032285966,-0.04025999
0.10188005,-0.0047163395,0.012399433,-0.02355958
0.113662645,0.010346502,-0.038694564,-0.03516143
0.08461272,0.12238783,0.09177701,0.15355459
0.04424686,0.039350145,0.081736915,0.045359693
0.045987412,0.008963876,0.0025530607,0.029090503
0.016267566,0.012632547,0.072719194,0.0563269
-0.049752444,-0.015584292,-0.01915581,0.019742671
-0.026005818,0.008806094,0.047365967,0.045124702
-0.027336325,-0.045336213,0.0028800755,-0.037167408
0.050706986,0.042614024,0.0756347,0.0827819
0.046328425,0.025089268,0.06855555,0.055887505
0.042946078,-0.03832008,0.0038781886,-0.056872353
0.05866355,0.011744011,0.048384566,-0.03676756
0.017293274,0.044706043,-0.022013111,0.016190568
-0.011240919,-0.020034628,0.036720045,0.02123496
0.020233765,-0.004387476,-0.030309645,-0.019275902
0.014275247,-0.06315062,-0.014301559,0.0051366244
0.048825875,0.04003918,-0.058148034,-0.028787583
-0.0422464,-0.005916007,-0.01683622,0.050352387
0.027162079,-0.0072400686,0.013628469,0.0038957442
-0.042962227,-0.061590504,0.024597993,-0.021948967
-0.0532167,-0.059927396,0.03669874,-0.038083173
0.102018654,0.02911416,-0.022148965,-0.034165394
0.08721686,0.05424656,-0.013389126,-0.010849967
0.033976976,0.009077104,-0.025379533,-0.024320005
0.055332515,0.08168466,0.06650497,0.039695926
-0.043321684,-0.038957696,-0.084163055,-0.0993882
-0.10783514,-0.09319036,-0.12587401,-0.16570958
-0.13034455,-0.18359949,-0.21547763,-0.19369736
0.04950697,0.0125194695,-0.057662398,-0.05917673
0.05489437,0.05770273,0.022092268,0.0031762584
0.0031312013,0.010130849,0.06349762,0.050534133
0.06420214,0.02762646,-0.016067969,-0.023538679
0.026164757,0.033286836,-0.003015797,0.02981078
-0.038179073,-0.075767055,-0.062677614,0.02559605
-0.08752141,-0.1734233,-0.20089239,-0.094217375
-0.23726456,-0.37882683,-0.3592782,-0.19650348
-0.18650255,-0.21193072,-0.19828099,-0.1937486
0.034377445,-0.0008473844,-0.04841279,-0.022771133
0.048850838,0.016924188,-0.06270129,-0.07747858
0.04318119,0.05411807,-0.018375993,0.011111866
0.019853486,0.061345086,-0.031152206,-0.019832997
-0.022588708,0.010836646,-0.050976932,0.01040611
-0.19235194,-0.21601208,-0.26723507,-0.16578108
-0.13799338,-0.20421928,-0.26209393,-0.16524841
0.07099585,-0.031009937,-0.017607687,-0.02182196
-0.010751819,-0.11529522,-0.20290977,-0.21556757
-0.10432243,-0.21482933,-0.3114881,-0.27773964
-0.09406963,-0.27738184,-0.29685912,-0.32580027
-0.0024685482,-0.12062625,-0.1066542,-0.14033687
-0.043842945,0.029529339,-0.028662372,-0.04445183
-0.018178191,-0.008382172,0.023361234,0.05311296
0.046728022,0.018334163,0.05357477,-0.037411742
0.00167493,0.04042368,0.06928554,0.05491395
-0.0009629192,0.031148132,0.044523578,-0.032745436
0.024124784,0.025958281,-0.030369453,0.0063634682
-0.028303497,0.008548508,-0.038903233,-0.030547645
-0.003248412,0.011028416,-0.010434248,-0.027197246
-0.023577549,-0.051287636,-0.0075171087,-0.040758893
-0.0579066,-0.07209824,-0.032626957,-0.042878047
-0.15180877,-0.07957416,-0.05435392,-0.12395761
-0.07531478,-0.026398316,-0.0333946,-0.06667181
-0.016881738,-0.060546525,-0.0021821614,-0.049973875
0.013464382,0.018015072,-0.01678421,0.039666276
-0.043301217,0.05725923,0.040592786,0.063372955
-0.07358465,0.023900868,-0.044703048,-0.048584457
-0.010409682,0.12674586,0.019884596,0.17327447
0.08648777,0.10972162,0.093638435,0.13186939
-0.0030828542,0.013058368,0.09857002,0.105796784
-0.0043057133,0.08769562,0.11093597,0.12884182
-0.0068258243,-0.02711241,0.07147638,0.09790165
0.029536,0.09084984,0.028484534,0.028457446
0.018472813,0.039562356,0.012714428,0.007871316
0.019908492,0.019943673,0.10550413,0.031077152
-0.008344852,-0.0604565,-0.055337925,-0.03848195
-0.00838102,0.007097965,0.015283382,0.053930055
0.0068193274,-0.037068915,-0.053922676,0.047641125
-0.015917746,0.023358135,-0.059474252,0.041952796
0.022478623,0.029514173,0.07777269,0.09346897
0.052387115,0.048757516,-0.025056096,0.053580932
0.050395597,0.07273617,0.02980685,-0.04780971
7.5215503e-06,-0.028305773,-0.03197969,0.022357019
-0.035897158,0.013159766,-0.05991346,-0.07374907
-0.039573476,-0.09531408,-0.01366714,-0.03925894
-0.04157857,-0.061794594,-0.03318494,-0.08248866
-0.024392217,-0.063143626,-0.07927578,-0.024892295
-0.0048957076,0.08784112,0.108011715,-0.02170182
0.103859834,0.14768016,0.104476,0.08438201
0.143029,0.18452908,0.21247634,0.11788604
0.045249313,-0.00825087,0.08168469,-0.04969412
-0.1409345,-0.054837365,-0.045934547,-0.039919317
-0.07893995,-0.032504637,-0.050436452,-0.0054337014
-0.14025375,-0.13954401,-0.07932704,-0.10637305
-0.1675476,-0.13219802,-0.09391593,-0.06611418
0.03172037,0.09747014,0.07555674,0.065303944
0.039498236,0.08836066,0.10437183,0.007717733
-0.0068483353,0.038015567,0.110384904,0.0768718
-0.01632154,0.05212242,0.089834996,0.07518047
0.04377467,0.022286259,0.020875305,0.028339954
0.055522155,0.011876268,0.056597106,0.034489553
0.026937056,0.027460461,-0.043893415,0.030646257
0.0007956505,-0.05332046,-0.060919214,-0.0004916373
-0.06717117,-0.013683484,-0.07341159,-0.060515117
-0.040678706,0.010624757,0.018516306,-0.020168912
-0.03223664,0.0024700332,0.020254795,-0.06906718
-0.0087882625,-0.023046248,-0.05747819,-0.022764292
0.032062642,0.13263592,0.08419358,0.15042163
0.035285015,0.06602768,0.06875139,0.029664313
0.0048201117,0.07997754,0.086159915,0.07877022
0.005187751,-0.018148554,-0.022006145,0.0049469634
0.04086045,0.1130472,0.097532265,0.10389101
0.120297134,0.09664574,0.1079482,0.0874
0.103107266,0.11899456,0.17373481,0.12268633
0.03883183,0.052297555,0.11021027,0.06431511
-0.09094404,1.4336298e-06,-0.021408012,-0.03199186
0.013673032,-0.05855157,-0.04754012,-0.066514336
-0.0027585684,0.003222718,-0.028324246,-0.020854592
-0.051744267,-0.06466373,-0.0044046817,0.00800929
-0.003397733,-0.08576787,-0.0529251,-0.010904128
-0.03163128,-0.045024388,-0.016930904,0.043676876
0.056001563,0.02112438,0.0009348567,0.09269856
0.048272803,0.002454053,0.094513476,0.010971853
0.025123555,0.07664591,0.11143857,-0.046072822
0.12249985,0.17908205,-0.013500854,-0.105630346
0.125107,0.0720427,-0.07020417,0.03389699
0.0558797,-0.053531002,0.037231833,0.16254185
-0.015163845,0.09069852,0.059609063,-0.099327244
0.094315745,-0.0013716167,-0.08098568,-0.059843644
0.023072883,0.013686118,-0.07589633,-0.0066544428
0.038742114,-0.06705293,0.08082226,0.119722374
-0.0014402344,0.008178601,-0.027929544,-0.086844586
0.032420304,0.026791219,-0.047260612,-0.0103345895
0.05070497,-0.056965753,-0.12562253,0.034133956
-0.008491877,-0.066219114,-0.008617718,0.11494199
0.01584356,-0.0024029906,0.018731581,-0.046697196
-0.026082564,0.0303687,0.026801886,-0.11445901
0.052419364,0.025416939,-0.11095773,-0.042246055
0.024706593,-0.035161056,0.02333353,0.15451126
-0.014910395,0.058092084,0.12124794,0.14359348
-0.01735109,0.09933288,0.10238498,0.044070814
0.009355309,0.013900307,-0.0029993607,-0.083192244
0.027264267,-0.038954522,-0.07388662,-0.114189655
-0.04143651,-0.117424265,-0.10046491,0.01973373
-0.04159411,-0.12957323,0.0055823983,0.09936874
-0.04331966,-0.06921045,0.021953715,0.080114365
-0.042279635,0.021635614,0.054848608,-0.00010156349
0.053051908,-0.091457605,-0.10122938,0.0355769
-0.009493098,-0.08903373,-0.026926171,0.06685857
0.02884809,-0.04052854,0.11698617,0.031747635
-0.030764187,0.0061529954,0.051369276,0.051193815
0.022610702,0.062605664,0.054844983,0.008465404
0.01831619,0.068889394,-0.05183607,-0.04769119
0.009822539,-0.01275371,-0.022809766,-0.046044245
-0.00608161,-0.03520118,0.01573093,-0.07755465
-0.12740399,-0.19742826,-0.2059675,-0.1753994
-0.20236786,-0.22547464,-0.29800692,-0.2677253
-0.17802155,-0.1610237,-0.24495733,-0.24851033
-0.1461394,-0.09158639,-0.18413825,-0.14265378
-0.08760838,-0.17194584,-0.030071057,-0.053816967
-0.09328891,0.0113051785,0.018499218,0.051315304
0.019542752,0.15363935,0.05608365,0.0456735
0.028469289,0.11005327,0.10881147,0.079239406
0.035850193,0.09055034,-0.033500794,-0.1265712
0.08452273,-0.016669493,-0.3039707,-0.28353468
-0.048585717,-0.24575707,-0.18937914,0.096139796
0.03900471,0.03775618,0.1048286,0.12357433
-0.060384788,-9.3870485e-06,0.05355272,0.013468829
0.02494873,-0.010968651,0.04419051,-0.010675729
0.005482546,-0.065413356,-0.04253001,-0.026555832
-0.06024107,-0.07512336,-0.04885061,-0.035944734
0.002233858,-0.105206355,0.009221619,0.02664862
-0.08825828,-0.09546955,0.016810792,0.061295696
-0.0011612267,0.020443495,0.05030155,0.0494527
0.061881132,0.11314967,0.107498184,-0.011507215
0.048349984,-0.09445145,-0.08164938,0.032279503
-0.0625638,-0.16489598,-0.039671823,0.047522165
0.015852673,0.07453059,0.110545725,0.09167173
0.06307707,0.09402477,0.18919584,0.12759162
0.031826027,0.13388653,0.17177123,0.07282002
0.089163974,0.09544973,0.1559208,-0.006564964
0.023998287,0.042762365,-0.061287146,-0.1012883
-0.066232845,-0.07363983,-0.050866887,-0.07835846
0.0146396,-0.011078305,0.032654904,-0.044447485
-0.019225882,0.047867857,-0.04045374,-0.008059717
-0.027232379,0.00087343116,0.06191044,-0.04492121
0.07617404,0.0037494318,-0.05221943,-0.018083919
0.012302531,-0.008534093,-0.012510256,0.050255068
0.018126076,0.021581676,0.06976681,0.06724513
-0.032534335,0.055727683,0.055283654,0.08391688
0.03342217,0.0032724468,0.06740968,-0.0043716226
0.02371989,-0.11668118,-0.11093117,-0.08973137
0.013015728,-0.15643205,-0.14633822,-0.11384752
-0.056792863,-0.12091196,-0.10605923,-0.115173586
0.032631774,-0.07014233,-0.04508625,-0.072023116
-0.013643481,0.07551229,0.08351745,0.013477418
0.103603296,0.052780684,0.005775627,0.044732183
-0.010292573,0.09108781,0.07158671,0.046664417
0.05080822,-0.012270634,0.052569363,0.014005817
-0.06356888,-0.10811878,-0.07003074,-0.014667701
-0.08185961,-0.09910106,-0.043701485,-0.06312623
-0.07506494,-0.096411936,-0.03417137,0.028685823
-0.062858835,0.018642938,-0.023240095,-0.052512564
0.03377953,0.045207657,-0.025944652,0.021899858
-0.0016318513,0.042853754,-0.011894669,0.046482205
-0.02086427,-0.024113383,0.05690619,-0.019506648
0.020416344,-0.05787192,0.027108531,0.020374166
-0.02736152,0.04605733,-0.04510203,-0.004630836
-0.06178954,0.034569334,0.0049246238,0.059389193
0.0073119737,0.051348902,-0.0273431,-0.0045373337
-0.025339581,4.7473375e-05,-0.022683727,-0.012798752
0.01908039,-0.07569412,-0.04263454,-0.048896257
0.009508322,-0.0654698,0.0074053183,-0.04877557
-0.031177035,0.031358566,0.005073089,-0.049761638
-0.054470517,-0.016181305,-0.024828149,0.012528678
0.06377167,-0.028403578,-0.09284808,0.019727597
-0.0376631,-0.245649,-0.28591165,-0.17119738
-0.101684526,-0.23641136,-0.25598183,-0.059699554
-0.01676957,-0.17744522,-0.14204067,-0.0824569
0.022790536,0.0008055235,0.013560784,-0.09170304
0.06094881,-0.014773281,-0.055136696,-0.06960778
0.080429904,0.01538756,-0.0018310029,0.044642616
0.09640156,0.1175742,0.022054045,0.01748011
0.0053441115,0.00026155286,-0.014269719,-0.007551389
0.0017590023,0.029651713,0.10032308,0.012642573
0.05345103,0.08997165,0.07740629,0.05400979
0.05204623,0.07943881,0.063807696,-0.008712423
-0.0027075496,0.025422012,0.0360877,0.078332186
0.039973058,0.007940905,0.068481885,0.008843088
0.08450992,0.09039314,-0.006888422,0.05538786
0.039808456,0.02994563,-0.04801786,-0.027409337
-0.027732732,0.036248073,-0.012596297,-0.034279615
-0.017101737,0.02014098,0.0006637408,-0.02728882
-0.042423204,0.028423265,0.028042404,0.032171044
0.05766873,-0.006419045,-0.010277374,0.050751224
0.024528254,0.015092511,0.010808043,0.0242902
-0.027411578,0.033300336,0.02363504,-0.04288668
0.016809957,-0.0010825616,0.070275664,0.05678696
0.0023020536,-0.036510266,0.05215789,0.012302
0.071254626,0.050442703,0.018040113,0.06550015
0.024201775,0.07974202,0.05475576,0.0767949
0.14228603,0.08737193,0.0371961,0.10974981
0.11762862,0.08161523,0.08327075,0.057702344
0.0076382444,0.030514648,0.053697363,-0.028323306
0.045918036,0.027822282,0.08401898,0.06384371
0.008826349,-0.01286563,0.015495601,0.04432643
0.051436953,-0.0038623263,0.022147108,0.025792139
-0.040643666,0.054437496,0.0343402,0.026397362
0.03137079,0.057960644,0.032188445,0.070715584
-0.022625443,-0.023214191,-0.003152862,0.06718301
0.05066488,0.007025407,0.015882721,-0.017027948
-0.02168612,0.0021199596,-0.06954315,0.036042757
-0.009955159,-0.051877346,-0.018596243,-0.03785124
-0.04692524,-0.042934515,-0.107745804,-0.045873612
-0.06560761,0.018070767,-0.025288804,0.038650524
0.051532846,0.048030738,0.09933099,-0.015962532
0.0515513,-0.022683296,0.07884988,-0.014872405
-0.04024951,-0.02129947,0.05953602,0.07268528
0.052652694,0.036153182,-0.030066231,0.014430158
0.056947157,-0.034667164,-0.08016085,-0.05819394
-0.001805362,-0.0466529,-0.16807981,-0.13859494
0.1053323,0.042583436,-0.07038184,-0.09333437
-0.013162721,0.06235106,-0.10094902,-0.08083466
0.012707278,-0.112274446,-0.15404817,-0.099691086
0.00068864046,0.048132304,-0.092818014,-0.11292521
0.07139233,0.064253874,-0.029641464,-0.032212485
0.027768336,0.079846375,0.08266759,0.10321171
0.008942333,-0.05254307,-0.19862252,-0.16566287
-0.04489808,-0.086456746,-0.085121,-0.1300199
-0.012104148,-0.020739608,0.021717647,0.07213646
0.08298129,0.035016872,0.0013010068,0.084949195
-0.100740284,-0.009312519,-0.001755344,-0.057134416
0.055182457,0.06546141,0.026707109,0.02787266
0.015281539,0.0569282,0.065411106,0.059251286
-0.024774285,-0.019340562,-0.059228726,0.01633113
0.020488719,-0.034663077,0.02323348,-0.08754553
0.033406943,0.021497061,0.014896757,0.033437185
0.00034820833,-0.0059500784,0.04468853,-0.039197236
0.02045385,0.025079692,-0.06239972,0.004265844
0.05748523,-0.019300403,0.028045733,0.004920843
-0.0016755891,-0.0300243,-0.035031818,0.018333808
-0.020536149,0.03324709,-0.06120772,-0.029523784
-0.057433072,-0.073656574,-0.078567065,-0.03216251
-0.0059961253,-0.056750696,-0.060254294,-0.13616164
-0.008496837,-0.075680174,-0.04879466,-0.10247099
-0.0746891,-0.05303241,-0.07883445,-0.1413811
-0.10103017,-0.056671266,-0.04369875,-0.06521588
0.07611949,0.061749045,-0.012053279,0.009426222
0.10493248,0.05963305,-0.02126277,0.032335244
-0.022720419,-0.080452465,-0.040835477,-0.011097196
-0.14712274,-0.005369762,-0.054807797,-0.062608995
0.018807026,-0.041291863,-0.14913428,-0.19303837
0.0029015746,0.009185565,-0.030817313,0.021944389
0.009756833,0.10850066,0.03324281,0.07058299
0.05067658,0.119508676,0.03584008,0.10974351
0.03320574,0.014276857,-0.11969675,-0.14778833
-0.03181427,0.0067878845,-0.023615712,0.0029249808
0.101187155,0.11457217,0.08589306,0.0976415
-0.007966199,0.08784485,0.012060236,0.13001484
0.03685558,-0.066351414,-0.16248901,-0.13682373
-0.03837434,-0.06546859,-0.14117515,-0.106505364
-0.1231014,-0.17444046,-0.21996681,-0.22886944
-0.20770822,-0.29018027,-0.3080531,-0.3247545
-0.00062574685,0.02783572,-0.113414966,-0.07335824
0.053013183,-0.031364806,-0.04902756,0.0011778378
0.055706963,0.029507568,0.0069490243,-0.1099158
0.030494453,0.038155757,0.010736367,-0.027305868
-0.015884997,0.028121063,0.053802576,-0.0898924
0.029373141,0.0248402,0.01942232,0.040959522
0.07782935,-0.00181885,0.019469226,0.027599372
0.03912513,0.1045619,0.08509401,0.08174684
-0.0116170375,0.09749006,-0.029265124,-0.0801853
0.058906328,0.056077283,0.06877391,-0.11656346
0.037177403,0.08497324,0.05968261,-0.097948186
-0.005893828,0.037869595,0.036312044,-0.074015096
0.0320416,-0.020637495,-0.0008287868,0.058864426
0.025258372,0.098019324,0.031543445,0.05029248
0.05276899,0.0124657275,0.011702751,-0.012996169
0.004724588,0.03654028,-0.052964333,0.042221874
-0.05642364,-0.09468637,0.020917166,0.09609707
-0.1320514,-0.05960453,-0.02269389,0.18968955
-0.059376344,-0.017023785,-0.011281681,0.0465434
-0.061171215,-0.09370361,0.054543503,0.023271212
-0.075071186,0.07546387,0.09814446,0.050723042
-0.108790755,0.016448006,0.104102254,0.09235672
-0.036672063,-0.015072605,0.08211729,0.17808977
-0.07596198,-0.016129293,-0.0029525599,0.087503344
-0.0037711866,0.006573721,0.08815081,0.047508087
-0.095873885,-0.11321771,0.06377596,0.082182914
-0.073466495,-0.068580866,0.08477335,0.12887056
0.08523396,-0.04971299,-0.04639075,0.06530648
-0.05337583,0.016126713,-0.030979954,0.020566985
-0.12637366,-0.0064223385,0.059019662,0.061185896
-0.03178436,-0.08873351,0.045688774,0.08983137
0.015299514,-0.027714204,-0.015732162,0.040940482
0.061577212,-0.019304741,0.025615051,-0.02784895
0.092220455,0.063316524,-0.02953165,-0.11349953
-0.021304717,0.034072135,-0.056882642,-0.11194068
-0.024838796,-0.0059430897,-0.025073765,-0.004576917
0.06316991,-0.015820377,-0.092957325,-0.10840941
0.073063,0.060194798,-0.03134466,-0.1605681
0.024871426,0.07441747,-0.02838487,-0.09245869
-0.0011531396,0.036943283,0.053200297,-0.008868933
-0.042470757,-0.092210345,0.01330612,0.094556466
-0.19967003,-0.09760207,0.074097075,0.21894065
-0.19594415,-0.110374704,0.09253997,0.1900662
-0.1752205,-0.045882743,0.040690236,0.18145852
-0.068559185,-0.010498972,0.017648771,0.07849616
-0.1098746,-0.104312845,0.021003531,0.120873526
-0.09692259,-0.13129108,0.0009922251,0.10727172
-0.04256082,-0.049225226,-0.036587965,0.049640544
-0.1164619,-0.1784117,-0.03632411,0.11444961
-0.10251738,-0.1964218,-0.35496825,0.037448388
0.03244219,-0.07806915,-0.14782359,-0.004445881
-0.01758416,0.11642539,0.073121764,0.021861956
-0.0077857287,-0.06467875,0.0039046528,0.07344878
0.045105945,0.0012563491,-0.014649946,0.02416276
0.065008335,0.04037357,-0.035883196,-0.054333046
0.04701895,0.0153996395,0.033622563,-0.048430942
-0.044118136,-0.04475579,0.010385307,0.08948723
-0.07163535,-0.038844574,0.037358653,0.10136131
-0.03533495,-0.029768279,0.02803437,-0.01676809
-0.019652428,-0.02535744,-0.026024858,-0.011989248
0.028675951,-0.06053307,-0.05183888,-0.056092508
0.01934365,-0.035633057,0.024680356,-0.09297603
-0.0015579188,-0.04343649,-0.056841794,-0.033285514
0.0880309,0.057172924,-0.075214714,-0.07244815
-0.0069549046,0.0013138675,0.08547742,-0.022214169
-0.038808614,-0.016637778,-0.041628797,0.045381334
-0.065226436,-0.04353084,-0.037507817,0.025046594
0.04207564,-0.020769587,-0.03486848,-0.0048282174
0.02476999,-0.09355346,0.030363437,0.066173404
0.04614759,-0.072646774,-0.032671943,0.0077445456
-0.035380486,0.03201556,0.025319207,0.016076235
-0.012029206,-0.027877847,0.032896977,0.03395931
0.044646766,0.081128426,-0.014117076,0.064428054
-0.02241966,0.06404049,0.047590807,0.01122245
0.06483651,-0.024658747,0.04412605,0.04380414
0.036943767,-0.002958067,0.059030518,-0.03306921
0.027132709,0.01915218,0.049596906,0.033342943
-0.011751563,0.094082005,0.085808314,0.043148752
0.0412976,0.0746158,0.01610744,0.106611885
-0.018403996,0.018746663,0.01667823,0.07359684
-0.11040776,-0.13771906,-0.16143975,-0.14323805
-0.25554878,-0.2618243,-0.20757513,-0.29039815
-0.20628989,-0.18125445,-0.081576966,-0.17775957
-0.10317008,-0.12918386,-0.0907384,-0.11242126
-0.047478933,-0.05923012,-0.0142710805,-0.059897646
0.008583337,-0.012836521,-0.029472044,-0.07336867
-0.041844096,-0.015433918,0.013855179,-0.09634642
0.06259506,-0.015413387,-0.012828206,-0.06993433
-0.02881699,-0.037540648,0.016753852,-0.027872061
-0.033760525,-0.042868376,-0.06013273,-0.011624576
-0.0006206755,-0.017152019,-0.006676093,0.05104069
-0.03309585,0.07532401,0.043462753,-0.0070216386
0.037569504,-0.028370032,-0.041679706,0.021635693
-0.025602724,-0.008074898,-0.038727704,0.010044591
0.030364787,0.039085098,0.01821577,0.054348193
-0.026237793,-0.0051075276,0.0074928435,-0.012353555
-0.017966494,0.06209877,0.05408877,-0.011856212
-0.0045239013,0.022296043,0.07667076,0.029215794
0.033884075,0.08309312,0.04281544,-0.045798693
-0.042401183,0.013533009,0.033100203,-0.013786809
-0.01983596,0.03554575,0.04575414,0.017703561
-0.01650404,0.002786974,0.031938028,0.014298671
0.06847766,0.07267776,0.066023044,0.09443315
0.07620969,0.014989186,0.110740244,0.08375926
-0.049657676,-0.041422267,0.0049654925,-0.052598935
-0.14421174,-0.20153347,-0.25771242,-0.11875609
-0.13478677,-0.2321953,-0.26045877,-0.15775308
-0.20028281,-0.18791789,-0.13824219,-0.10408214
0.07868835,0.0015592028,-0.052891344,-0.06318978
0.025537714,0.095843025,0.0372947,-0.057736475
0.09520537,0.051069286,0.022863984,0.010593068
0.07131294,0.051359836,0.051999502,0.029698813
-0.026509145,-0.052015543,0.024444334,0.01998201
-0.04074465,0.0182567,-0.053223375,-0.062441565
0.023110835,-0.016219843,0.012734033,0.020759674
0.02008408,0.046574198,0.06074746,0.023427673
-0.02605042,0.018171897,-0.0414953,-0.049133204
0.012750405,-0.016568419,-0.0101892,0.02579023
-0.012664147,-0.021354174,-0.005339231,0.028610745
0.07028398,0.05636752,0.009981238,0.01853071
0.07319231,0.0006953939,-0.0066731176,-0.030766018
-0.008561097,0.062203106,0.032320917,0.05684833
-0.0071759876,0.023911417,0.033230856,0.0335067
0.007907539,0.068158485,0.060820855,0.0071280506
-0.050844856,-0.0738708,-0.115768224,0.0030812265
-0.078918055,-0.04394797,0.0017338705,-0.00904196
-0.12087126,-0.028830534,-0.016907742,-0.08221484
-0.062342923,-0.077309124,-0.02878578,-0.06770704
0.035197653,0.0500898,-0.042807918,0.07669899
-0.021811604,-0.056552734,-0.037114274,0.057148837
-0.021993646,-0.064137,-0.06375867,-0.009504207
-0.022915907,-0.004444811,-0.01357573,-0.030766338
-0.031547,0.04143212,0.008156434,0.022114458
0.039202776,0.013934092,0.027952798,-0.051776063
0.03801379,-0.012141958,-0.0047589336,0.01819348
-0.07169042,-0.0035470887,0.026812837,-0.026886143
-0.053217683,-0.06580536,0.023345713,0.01977984
-0.05200746,-0.020069964,0.058416367,0.047298174
0.049403567,0.05020375,0.05414808,0.043710727
0.009200627,0.023332868,0.026124354,0.040115234
-0.07036748,-0.05428631,-0.07390957,0.029307751
0.01754221,0.017122328,-0.011520952,0.058730695
-0.05004949,-0.08720763,-0.03265403,-0.051149756
-0.057291552,-0.07984522,-0.07976706,0.02047685
0.02278074,0.019553116,0.028530428,0.024616947
0.049046308,0.0013633241,0.021199703,-0.0117452005
-0.057552528,-0.040315643,-0.10289492,0.010489127
-0.06700957,-0.046278227,-0.059674885,-0.014234714
0.04468853,-0.008102466,-0.044302456,0.11944041
0.024894925,0.012509069,0.024116307,0.14041774
0.060491767,0.05962196,0.08285497,0.17422314
0.07514658,0.04995311,0.017846156,0.1401032
0.05085993,0.022224415,0.045665406,-0.045533452
0.034224305,0.04274373,0.06442632,-0.014151974
0.023219384,0.061904486,-0.03509577,0.06987695
0.022189993,-0.07393884,0.009803339,0.065413475
0.06185633,0.036954623,0.037009403,-0.015381502
0.07144011,0.056777745,-0.0032280849,0.0734283
-0.014331812,-0.05362427,0.042017087,0.01285798
-0.04197167,-0.053761728,-0.0348347,0.032643646
-0.02400446,0.0668432,0.02910912,-0.029013822
0.07101824,0.08630522,0.096866496,0.007009173
0.030786017,-0.0059946403,0.02705588,-0.026412003
-0.023052182,0.062261958,0.06914236,-0.031436037
-0.020770108,0.020402,-0.044432502,-0.0022449524
-0.058328982,0.03467824,-0.06097154,-0.117686674
-0.035461184,-0.06716148,0.006414823,-0.030118644
-0.046685547,-0.03233542,0.04501668,-0.017525557
0.055215687,-0.02926838,-0.0349342,-0.034611177
-0.008894996,-0.011710068,0.09072082,-0.012035693
0.045927245,0.002979341,0.007426821,0.08339547
-0.025373286,-0.0100646205,-0.02271104,0.028172402
0.040924247,0.06630353,0.05503454,0.07494069
-0.019322105,-0.05120014,-0.08614423,-0.033059563
-0.14416383,-0.1694654,-0.15508741,-0.09463052
-0.06299204,-0.077421516,-0.111717895,-0.07834492
0.10238694,0.053435653,-0.04816561,-0.008781397
0.024660585,0.09402431,0.06394166,0.04084024
0.090890616,0.08208303,0.10117611,-0.005958616
0.0058150426,0.09469244,0.055210605,0.04856126
0.089952625,0.102491096,0.10765203,0.08079934
0.1525595,0.027448086,-0.034087416,0.11606116
-0.18450974,-0.22163108,-0.16331688,-0.08826546
-0.17827615,-0.25853428,-0.2135309,-0.16702998
0.06805527,-0.018663172,0.01741468,0.039161846
0.0710369,0.029746484,0.08443658,0.06353324
-0.004326529,0.00561927,0.02229238,-0.07077658
-0.085608885,-0.06355191,-0.004473341,-0.07816731
0.015920393,0.035258293,0.033361085,0.005145745
-0.073378205,-0.09697267,-0.15494597,-0.057309374
-0.12145741,-0.097964935,-0.09310378,-0.100588776
0.050239425,0.0042102644,-0.042274855,-0.011788577
0.005973377,0.027944924,-0.056536086,-0.0326495
0.019939197,0.002757519,-0.051700458,-0.02745768
-0.03366369,-0.01862067,-0.09992597,-0.10521767
-0.043841552,-0.0012608707,-0.08670829,-0.020500612
0.050207905,0.0073365113,-0.0013633289,0.02518404
-0.006865715,0.0027125569,0.01577345,-0.046805725
-0.12476282,-0.12448693,-0.14645088,-0.07075632
-0.08565335,-0.073280826,-0.10162205,-0.03484426
0.004747362,0.07169629,0.09687911,0.036439475
0.037593167,0.050922588,0.053387154,0.01870272
0.07095473,0.023025248,-0.03368854,0.020167315
0.0025285978,-0.025900127,0.013045397,-0.06531837
-0.10215853,-0.116253085,0.03384511,0.039372522
-0.0076915324,-0.0567123,-0.0181933,0.0077624833
0.050301116,0.08928332,0.07655711,0.038002882
0.06611653,0.07666195,0.034002397,0.08020041
0.03857639,0.018353393,0.061327547,-0.04225832
0.07808407,0.08588679,-0.01190626,-0.030801218
0.052124184,0.01603557,-0.039431423,0.0029297809
-0.044006497,-0.008536919,-0.090545304,-0.027826112
0.021492233,0.046618983,-0.016214367,0.08846249
0.06023688,0.11648814,-0.0044956026,0.08090341
-0.008636421,0.07132097,-0.018068044,0.07413911
-0.07714529,-0.008957346,-0.05850712,-0.00076622114
-0.1361371,-0.1788838,-0.07956238,-0.0349478
-0.17450756,-0.18503271,-0.10126367,-0.0438834
-0.20419504,-0.24391623,-0.12618257,-0.07240522
-0.16500881,-0.16813369,-0.09409646,-0.08247228
-0.025846753,0.05923584,-0.01289548,-0.01361586
0.023484759,-0.01989417,-0.080605276,-0.023072625
-0.04504381,-0.04845538,-0.0802347,0.074822865
-0.025627265,-0.030853968,0.028813291,0.042273737
-0.029667247,0.049276292,0.055912565,-0.035109993
0.0186837,0.09445921,0.081734955,-0.0045661177
0.04077031,0.028975386,-0.069135875,-0.073735125
0.008671496,-0.011045461,-0.053165212,-0.13613926
-0.043566227,-0.04531274,0.014028174,-0.03465863
-0.017136766,-0.033425555,-0.055186108,-0.056087315
0.060012337,0.04200805,-0.08742677,-0.12545691
-0.0037452136,-0.06030123,-0.00022704151,-0.117810406
0.040452097,0.13284534,0.11885153,0.03879987
0.14204492,0.10845273,0.1292924,0.13068385
0.08877996,0.1172584,0.15949742,0.115709454
0.096794695,0.1330093,0.030193472,-0.014449483
-0.032877147,-0.007293034,0.0028189733,-0.028182387
0.018682305,-0.037829597,0.017329551,-0.08028967
0.06996874,-0.023070056,0.0024730444,-0.08883085
0.010483568,0.07270774,0.036410194,0.010276774
-0.08670551,-0.06297684,-0.21988241,-0.100003876
-0.051403582,-0.12493805,-0.16389953,-0.09876526
-0.13399826,-0.16771445,-0.20777592,-0.14267945
-0.21727005,-0.16331209,-0.28535533,-0.17155004
0.060978226,0.05502758,0.09437946,-0.028582212
0.04687355,0.09022796,0.04397141,0.024842797
-0.0060954657,-0.000694005,-0.018524475,-0.004440765
-0.0077976575,0.005990453,-0.06777068,-0.02855134
-0.08749461,-0.06566408,-0.05056579,-0.002703525
-0.04449676,-0.12460827,-0.16064572,-0.0074487342
-0.034836747,-0.081770085,0.025278116,0.080046155
0.037325572,-0.015481999,0.05560879,0.0973602
0.07554369,-0.029745877,0.009231777,-0.0043503493
0.047510795,0.12564085,0.104232505,0.060715344
0.09163689,0.12777127,0.07572913,0.026287759
0.0140316505,-0.07169267,0.0058846124,-0.061525766
0.01772527,-0.033329073,-0.018144447,0.023034167
0.016253667,0.02087511,0.050426997,-0.0550868
-0.064568266,-0.031490542,-0.0037865436,-0.08142557
0.011408081,-0.017333493,-0.10289366,-0.06804153
0.016557151,-0.024885276,0.08099131,0.017365485
0.0705435,-0.01986407,0.030219885,0.022285003
-0.011685037,0.043481212,0.04770193,0.05089521
0.036037743,-0.0022755812,0.002348347,0.14294493
0.03252874,0.021593103,-0.003205489,0.046363972
0.042664513,-0.050199907,0.034971505,-0.02948606
-0.00044389264,-0.03679596,0.05037708,0.046943422
0.03537611,-0.037283555,0.016945014,0.010845178
-0.13426553,-0.19532076,-0.105646014,-0.08196401
-0.15344492,-0.1552467,-0.22754228,-0.20919548
-0.15735814,-0.2291985,-0.21083143,-0.2177603
-0.1195294,-0.12800716,-0.15774404,-0.14053352
-0.022606041,0.008771844,-0.07556194,-0.06109791
0.0096281,-0.016545564,-0.07835164,-0.011703565
0.03619977,0.03888991,-0.027609525,-0.094834276
-0.055077475,-0.03321493,-0.022300512,-0.051336553
0.13969529,0.07338403,0.14131594,0.13364124
0.10465387,0.037839573,0.13939008,0.031404704
0.14600514,0.0892676,0.12872201,0.08852936
0.064697154,0.013050701,0.12804072,0.085550874
0.03971928,0.077485286,-0.028835533,0.012359198
0.013046792,0.04803619,0.03883243,0.009865714
0.07846818,0.06454572,-0.01925939,0.050878085
-0.0108862715,-0.030670946,0.00092441466,-0.07467253
-0.006037423,-0.07920829,-0.025391547,0.02232952
0.006139816,0.057788923,0.04919029,-0.04837824
0.024700744,0.08081603,0.043671936,-0.025305547
0.03944681,-0.010870771,0.06517544,0.008984707
-0.020855775,0.0036465568,-0.04443962,0.026147485
0.010473751,0.0040126066,0.0071214405,-0.03287213
0.057990864,0.055680677,-0.025593683,-0.042607833
-0.029928021,-0.027846808,0.052025065,0.0031753643
-0.041888606,-0.07408729,-0.009021818,-0.015273568
-0.043362133,-0.056803253,-0.02287898,-0.032376036
-0.07797511,-0.05719154,-0.06849752,-0.023778267
-0.04034782,-0.042499322,-0.08627376,-0.017129725
0.022875795,0.045535818,-0.023562565,0.04387536
0.07158276,0.10667835,0.041060846,0.06908507
0.071567886,0.11667288,0.06297236,-0.005149272
0.038394686,-0.0069216276,-0.040773075,-0.018568747
0.08932876,0.12806696,0.102771595,0.00047764357
0.13759327,0.1083586,0.037461784,0.044321295
0.108633295,0.08479012,0.1167815,0.06729412
0.0022274703,0.07211116,0.06585074,0.04958798
0.10651948,0.070370436,0.020838838,-0.02824646
0.03993556,0.01827426,-0.033008106,0.00066339306
0.06491529,0.03612652,0.0237999,-0.0037690895
0.053889785,0.010682271,-0.018783955,-0.0040047024
-0.005356336,-0.043583356,0.0008407138,0.015643245
0.0033600659,-0.048908018,-0.0024374407,-0.06711805
-0.030885585,0.06341322,0.051613472,-0.002340844
0.009609465,0.06918714,0.09215767,0.114135295
-0.081099145,-0.07236515,-0.028783858,0.0006039207
-0.057815555,-0.010662464,-0.0047294386,0.045220137
-0.0030281201,0.053265084,-0.008962334,0.026523389
-0.039279997,0.039258324,0.06356592,0.027686303
0.039706837,0.11393023,0.079569064,0.14823626
0.046956066,0.0004510919,0.048885442,0.097960174
0.039758664,0.0806478,0.054636378,0.0696661
0.015794992,0.0030654918,0.06520657,0.06047986
0.03300619,-0.016648114,-0.021444272,-0.046641726
-0.02158409,0.06099386,-0.035411328,0.017613793
0.05893267,0.060266186,0.058024917,0.05975533
-0.008698846,0.0077390173,0.07241211,0.039947875
0.009804294,0.0030470788,0.020521801,-0.06292644
0.019518007,-0.0045044576,0.035237085,-0.006248441
0.008423675,-0.00699597,-0.0090211835,0.0124496585
0.023486163,0.057632226,-0.0071992795,-0.038303178
-0.007822929,0.05285858,-0.046262957,0.041299146
-0.026840437,0.036699723,0.05440235,-0.052568983
-0.01615475,0.042748682,-0.024796795,0.0015121244
0.03942867,-0.01629032,-0.029580893,0.04075717
-0.019484468,-0.03175881,-0.027131492,0.051284365
0.05003486,0.036130942,0.022348149,0.06911576
-0.01575307,-0.014933916,-0.01795661,-0.037505012
-0.10178033,-0.07570683,-0.06029072,-0.022756465
-0.010761032,-0.069060124,0.010271213,0.015489575
-0.026148558,-0.06310255,0.016176814,0.023633642
0.026761886,0.010320189,0.06767673,0.07289638
-0.052430667,0.07176123,-0.01762971,0.033408355
-0.012724245,-0.026488882,-0.12144133,-0.04587892
-0.009774493,-0.00478834,-0.067724064,0.037258584
-0.014252654,0.006558666,-0.04921993,-0.008083148
-0.067555405,-0.008956206,-0.11501476,-0.071795896
0.031497084,0.05137222,0.033973046,-0.009461978
0.037752476,0.06927376,-0.0010825489,-0.014297464
0.0490071,0.0522048,0.090997495,0.06113371
0.07086704,0.009891236,-0.02445679,0.072186984
0.0010362583,0.027425155,-0.03087123,-0.061650883
0.033284474,0.025242304,-0.053154185,-0.08078116
0.007478649,0.00018718805,0.04974508,0.024742486
0.026985314,-0.017515391,-0.013876273,0.028208166
-0.038369484,0.011137386,0.022272695,0.0030297593
0.0625596,0.027214484,0.036058635,-0.009583209
0.06375195,0.01296889,0.022463113,-0.018146954
0.045391086,0.08233983,-0.048255853,-0.010271609
-0.059367344,-0.04144982,-0.0062469463,-0.003979938
0.0034956369,-0.009941481,-0.013186933,-0.03983184
-0.058727548,-0.051520802,0.006687404,0.036725406
-0.025537446,0.021077797,-0.015198781,-0.07041186
-0.022692187,0.029231187,0.0347795,-0.023960482
-0.049848747,0.00541789,0.083031684,-0.014960037
-0.031521566,-0.04100384,-0.0024026255,0.033938296
-0.031525094,0.0037422364,0.08205867,-0.040266786
-0.025402615,-0.017415693,0.03337564,0.10809219
-0.009874173,-0.028192692,0.019839607,0.08785885
-0.030317446,0.03718472,0.010782001,0.10040022
-0.0014322738,0.014452682,0.017742818,0.07805459
0.076580875,0.04736457,0.046998907,0.08320489
0.12166235,0.085716255,0.15293516,0.093508184
0.025432,0.088397935,0.13613959,0.114972286
0.06682686,0.085786305,0.012483729,0.07980501
-0.11197417,-0.11885102,-0.094256446,-0.047472753
-0.12890923,-0.036332842,-0.072936215,-0.07892256
-0.023493059,0.018907942,-0.037490968,-0.034033466
-0.00144608,-0.054538053,0.02006613,-0.039016396
0.0004953408,0.021349415,0.0073015485,-0.0505018
0.051174946,0.021486394,0.040007334,0.040140163
0.025332881,0.0025161263,0.008215609,0.004573738
0.03125406,-0.010529704,0.05270115,0.06786172
-0.04187965,0.0011579972,0.071484625,0.040107366
0.005364251,0.014018048,0.038805366,-0.03993094
-0.009124471,-0.052350402,-0.039617665,-0.034502123
-0.10473664,-0.038009707,-0.06595182,-0.010342914
-0.022037907,0.019547533,0.04323914,0.049398206
-0.03610708,-0.01982869,0.013238616,0.04683125
0.051133357,-0.048515763,-0.018100502,0.01482782
0.023826018,0.0013900549,0.017811162,0.02052501
0.02837654,0.022023233,0.014389013,0.0349212
-0.018533733,0.03286316,-0.050528727,0.010036909
0.013799668,0.047868796,-0.016934602,-0.058882553
0.042712927,0.029576132,-0.0031980274,-0.03179771
0.023108125,0.036485318,0.007055081,-0.028781686
-0.06794025,-0.03617403,-0.008400148,0.031849615
-0.064636886,0.023391053,0.024102543,0.07172768
-0.0962869,0.00856999,0.063767865,0.061587963
0.0797424,0.1947132,0.039958432,-0.08413774
0.09418743,-0.010547011,-0.2079389,-0.1501001
-0.04259854,-0.1617958,-0.10624149,0.08616537
-0.09389511,-0.052369162,0.09153211,0.12348776
-0.058499336,0.000587497,0.029890487,-0.05705565
0.0046243044,0.005818162,0.03373885,-0.026718318
0.06485975,0.0010233988,-0.013387423,0.013468106
-0.07446067,-0.03839533,0.0048879967,0.010709924
-0.14270659,-0.114895105,-0.12137105,-0.13554779
-0.1248736,-0.19205676,-0.1618582,-0.20834397
-0.08336884,-0.25723365,-0.21513943,-0.18159607
-0.05521645,-0.121729426,-0.10954082,-0.045308318
-0.015864952,0.04767958,0.07839141,0.017361265
0.07623348,0.026265882,-0.046619654,-0.11630174
0.022994649,0.02843332,-0.18214224,-0.15606216
-0.04321046,-0.0979176,-0.09586762,-0.0028033126
-0.10965578,0.03252941,0.12347116,0.1279746
0.069520235,0.08199953,0.081113525,-0.0442198
0.07994041,0.1298365,0.0017201907,-0.1421018
0.10480089,0.034362406,-0.067710295,-0.10761089
0.010096988,0.0063234074,-0.066207856,-0.023605604
-0.06092357,-0.005747595,0.016002387,-0.067313306
-0.08932249,0.050514955,0.06474698,0.022977822
-0.03593935,0.059611928,0.058145422,0.01446591
-0.06440698,-0.051947854,-0.01610588,0.050742336
-0.025642172,0.008663392,0.11721758,0.08650963
-0.033895347,0.044179544,0.053252753,-0.018166514
0.06651765,0.10313053,-0.0254948,-0.052491296
-0.07717842,-0.0013487723,0.00914376,0.082517914
-0.057421725,2.8483888e-05,0.03998274,-0.06676452
0.072723456,0.025173726,0.06330865,-0.06622546
0.065858044,0.055944458,-0.02034792,-0.107286744
-0.23610766,-0.16996011,-0.03576843,0.009555269
-0.12381852,-0.17978884,-0.2049768,-0.14861712
-0.096492074,-0.18379663,-0.17026298,-0.2572582
-0.08757638,-0.13595928,-0.13617288,-0.13183177
-0.03808604,0.010589882,-0.009464808,-0.029671967
-0.012965273,0.04540466,0.005921018,0.04995054
0.1649162,0.09487402,-0.03721995,-0.07254109
0.16557738,0.10363179,-0.059338063,-0.07976465
-0.002248922,0.019581616,0.036241,-0.081055254
0.18682621,-0.012662135,-0.05913488,-0.0820868
0.039496634,-0.09423038,-0.01092497,0.09217999
-0.085767075,-0.07373454,0.0046880203,0.070164375
-0.005516192,-0.013219097,0.025668208,-0.041618995
0.044651795,0.0619903,0.044767085,-0.058497097
0.07820629,0.013028764,0.0014591173,-0.14340355
0.044417914,-0.10161891,-0.09198936,-0.035209686
-0.09903279,-0.069116734,0.11881012,0.11099179
-0.034422833,0.049453493,0.004566033,-0.04317855
0.014759119,0.042934258,-0.05955513,-0.093429536
-0.02861592,-0.009260351,0.04058875,0.057830628
-0.04292596,-0.03075338,0.12585573,0.23095484
-0.12661442,0.09158511,0.14192984,0.19526032
0.039429966,0.193964,0.10870963,0.025810272
0.13205266,0.11512087,0.05854191,0.029906193
-0.038576663,0.030129688,0.12904319,-0.020260328
0.122961625,0.10863993,0.07039855,-0.09454581
0.08272766,0.04549399,-0.08316246,-0.046581224
0.011701293,-0.024174742,0.032462437,0.036410447
-0.009697203,-0.005590753,0.042892814,0.032550488
0.05203867,-0.028924149,-0.03863455,0.0076745274
0.07532039,0.060886234,0.022286277,-0.0015463078
-0.04287269,-0.0058660326,0.02797079,-0.03361658
0.089488484,0.058244113,0.08311105,0.033789355
0.0021435723,0.08033204,0.11500729,0.101092406
0.021788456,0.044964153,0.067448616,0.05238953
0.031466264,0.07010766,-0.039736193,-0.013785825
-0.0065623545,0.047598056,-0.0062048403,-0.017220924
-0.010254919,0.022339942,-0.037695535,-0.066669874
0.054353565,0.051757485,-0.026547259,0.014677889
0.08323726,-0.029167464,-0.013537272,0.013442098
-0.01044332,0.079484046,-0.016268747,0.08136042
-0.0364764,0.11404466,0.07332265,-0.022085933
-0.016361289,0.13078828,-0.00028248108,-0.018788537
-0.012748091,0.09850342,0.03671929,0.05682704
-0.039706953,0.0038356322,-0.034109756,0.0053659934
-0.009025184,-0.017696155,-0.028757604,0.018281085
-0.011835425,-0.0345506,0.034451094,-0.049987745
0.041788798,0.04342047,0.0047435756,0.003946355
-0.0032651173,0.039025374,0.026404994,0.04118907
0.005838676,-0.0027178389,-0.03455947,0.04342501
-0.013090006,-0.001333089,-0.042292755,-0.0030046494
-0.0599121,0.009846725,-0.030245023,0.019234331
0.026345199,0.017518708,-0.027751446,0.021262148
0.026079511,-0.028042834,-0.060848385,0.0056345314
-0.013757514,-0.047511805,0.0059249867,-0.05483522
-0.019766284,0.0043803616,-0.0173332,-0.03972502
0.042617302,0.026526455,-0.06217155,0.0022280838
0.062146626,0.053512562,0.021994572,-0.042470556
0.028745512,0.027695099,0.030487105,0.020799343
-0.0012826663,-0.046955142,-0.029489439,-0.08820003
0.0912511,0.08428308,0.013516008,-0.030477796
0.05794045,-0.0066269627,-0.06246424,0.039820317
0.025526583,-0.037773877,-0.026118007,-0.07608024
0.015977027,-0.00621734,-0.08273148,-0.07939947
0.057729565,-0.0056893406,0.041461837,0.07030128
0.08819273,0.008803787,0.078325205,-0.008441503
0.06129262,-0.017562388,0.02541723,0.009622551
0.019617587,-0.02611954,-0.032264285,0.022573723
0.032560173,0.10288978,0.11170173,0.072089
0.069800355,0.13932152,0.20358571,0.11086032
0.09610866,0.18516223,0.21886875,0.1879681
0.08254967,0.1871638,0.21024852,0.0996189
0.03647752,0.030119061,-0.07606916,-0.00999854
-0.0013717898,-0.08860206,-0.18330278,-0.066355266
-0.0013666938,-0.060547817,-0.023931427,-0.042119365
-0.055980157,-0.01864478,-0.0498324,-0.072213896
-0.016686397,-0.018524002,-0.023661869,-0.006144513
-0.0002505497,0.019751903,0.036393184,0.02259871
-0.045679133,0.031951975,0.025630075,-0.043087468
-0.01672759,-0.057809297,-0.020984605,-0.010495387
0.009891275,-0.0023526563,-0.068440914,-0.036068846
0.007390738,0.015361075,-0.08580752,-0.03642206
-0.07219674,-0.113929614,-0.15739655,-0.09022492
-0.059668425,-0.19081277,-0.12642309,-0.11611073
-0.023539312,-0.056117617,0.008128099,-0.07100216
-0.052506726,-0.0539979,-0.11071591,-0.0915553
-0.03402229,-0.045668136,-0.12469855,-0.027858095
-0.045115557,-0.007842143,-0.116096616,-0.13745841
0.007143931,-0.06366479,-0.012334132,-0.0054669036
-0.0933321,0.032357488,-0.0022244758,-0.088885956
-0.08909148,-0.08950618,0.034657367,-0.050743025
-0.006964605,0.009319517,-0.046516627,-0.03301112
-0.0044915597,0.037051704,0.026198678,-0.009386224
-0.010243243,0.07500419,-0.007946105,0.052032996
0.051597763,0.028621845,0.059395373,-0.06232197
0.03473098,-0.016520677,0.074254006,-0.033181436
0.013090114,0.0306284,-0.07646939,-0.053348403
-0.0035726759,-0.048869167,-0.015727079,-0.10116105
-0.066097856,-0.06866186,-0.091812745,-0.09114631
0.043169722,-0.0005597819,-0.044503268,-0.0581474
-0.058559064,0.016702123,-0.056602433,-0.10479805
-0.008493192,-0.06201718,-0.05242722,-0.09862358
0.016636653,0.0026531185,0.011649752,-0.038502097
0.123977154,0.097437635,0.02034744,0.06460299
-0.02649592,-0.024694018,-0.056064155,0.07286157
-0.020711962,0.041844875,-0.039253347,-0.018767834
-0.078821145,-0.007055261,0.00087176583,0.0013951444
0.0028936428,0.018105375,-0.06422395,0.015755989
-0.010004139,-0.017577622,-0.038433593,0.07185879
-0.039645396,-0.029544925,0.0030744905,0.04478452
-0.07273516,0.0018526608,-0.020933796,-0.040019754
0.016268084,-0.06700478,-0.06049622,0.0013309787
0.040444117,0.06621869,0.056672037,0.0037777475
0.0824425,0.0227246,0.049796227,0.1160899
0.033359233,0.09526779,0.104401626,0.0555555
-0.049393177,0.06037112,0.0012734577,0.05521929
-0.066710524,-0.01899436,0.0005273041,0.016794743
-0.06640783,-0.031138808,0.045789473,-0.0047262507
0.00828658,0.00064542226,0.046606734,-0.06923432
0.0019923875,-0.021869464,-0.05038321,-0.038164917
-0.038711146,-0.0054090503,0.028958566,-0.009917456
-0.012804475,-0.0024951757,-0.065328576,-0.10843598
0.023852123,-0.0073153116,-0.00020395537,-0.04548178
-0.0072646393,-0.07621975,-0.0062705725,-0.045220386
-0.013388069,-0.099720664,-0.12745851,-0.11103957
-0.081728026,-0.08589331,-0.077469386,-0.12584211
0.004400067,-0.01166371,-0.088435695,-0.11832658
0.034216598,0.06962091,0.00077136204,0.030134834
-0.046466865,-0.002929275,-0.05989915,-0.02212832
-0.021523973,-0.124174334,-0.04327269,-0.061012246
-0.0321092,-0.13244063,-0.050900124,-0.022364993
-0.06372878,-0.026485289,-0.0072767823,-0.05247515
0.029061427,0.0232307,0.073493406,0.024127593
0.051993225,-0.029372258,-0.050094165,-0.047236644
-0.0532454,0.022854028,0.03927054,0.0017848156
0.01602589,0.038344614,0.025970021,-0.0060030557
-0.008124483,-0.06836807,0.003771509,-0.0074396096
-0.046028465,-0.04774269,0.00947207,0.08917926
-0.037314214,-0.024029732,0.047507122,0.07755841
-0.040265705,0.0046854797,4.941128e-05,0.035165984
-0.049249656,-0.09861686,-0.06443317,0.05712873
-0.021547752,-0.02686123,0.012813872,0.0012545193
0.00027117244,-0.03497083,-0.011122531,-0.020585755
0.009260034,-0.084338255,-0.065580875,0.010963703
0.019298937,0.06721658,0.08334614,0.03747253
0.07504358,0.022002563,-0.012936922,0.049890175
-0.025133004,0.025336921,0.03213028,0.039611377
-0.043855447,-0.04385121,0.04759111,0.060136132
0.13643897,0.14129566,0.17153339,0.10757753
0.033603035,0.1137677,0.16915421,0.1584419
0.052681606,0.08660992,0.10059371,0.09583732
0.0068392307,0.12067045,0.12944187,0.07685625
0.075765915,0.11759667,0.13124335,0.097523056
0.10034343,0.07089566,0.06888385,0.11950298
0.07145651,0.03518321,0.03947171,0.051575158
-0.06683231,0.009008989,0.0140448995,-0.0018525943
0.020843742,-0.061540928,0.013680938,0.035583373
-0.024262082,0.01670304,0.06256784,0.049496606
-0.02617191,0.030997723,-0.00096148567,-0.015788356
0.0014673162,0.016222538,-0.045463864,-0.009528327
0.042117395,0.06249933,-0.029042635,0.037193913
0.08685661,0.070315704,0.0021386156,-0.039516695
0.08816917,0.052649103,0.034057777,-0.020932939
0.0477239,0.09348345,0.08217811,0.061065506
-0.07495073,-0.05865328,0.013816305,-0.0387188
-0.019960357,-0.08041201,-0.022502467,-0.046615608
0.007840824,-0.024236761,0.01659358,0.05536253
-0.028434278,-0.050272476,0.021096062,0.05239614
-0.0013821287,-0.038477693,0.030894322,0.020992473
-0.067646556,-0.06615448,0.016635913,-0.10573297
-0.060221214,-0.08632584,0.018779997,-0.08386639
-0.025388867,-0.072575934,-0.059316017,-0.05131814
-0.0035048304,0.024705209,0.07556949,0.001996642
-0.009931608,-0.009662637,0.015021951,0.0026045758
-0.011519242,-0.045056902,0.024931135,-0.048199166
-0.047000304,-0.0121079665,-0.0061560594,0.07522224
-0.026547892,0.090487204,0.096896544,0.030798437
-0.021288496,-0.039447334,0.036839657,0.04811789
-0.052217618,-0.029616714,0.017549166,0.021630587
-0.042470217,-0.041023772,-0.054715004,0.021600118
-0.046814978,-0.06652988,-0.03927423,0.009208266
0.0068960525,0.03104059,0.007055589,-0.06912616
-0.060914155,0.04045629,0.006245072,-0.040162206
-0.03225605,-0.0026023479,-0.0053626657,0.0032771623
0.03227352,0.029464947,0.03691708,-0.022016983
-0.0057384004,0.09037999,0.1049673,0.09963352
0.022315608,-0.010159675,0.10432203,0.068282045
0.036875267,0.046151165,0.09231819,0.07879471
-0.0038898445,0.025754225,0.03896341,0.066626474
0.05144914,0.028794149,0.08789271,0.07949303
0.07122109,0.093222216,0.018192852,0.11480027
0.01739517,-0.0320175,0.043600265,-0.021172918
-0.041040815,-0.016278923,-0.087163754,-0.07584679
0.057767533,-0.02545803,-0.065942414,-0.012440238
-0.0153164705,-0.030520858,-0.077986926,-0.11557568
-0.033177033,0.029690456,-0.03512619,-0.10143121
-0.026413124,0.016909594,-0.025352733,-0.012043548
0.014253801,-0.029274829,-0.061557952,-0.048545152
0.048030544,-0.05266143,-0.06711037,-0.056096505
0.04687298,0.035593282,0.011258214,0.03454541
-0.08507255,-0.12319922,-0.08798392,-0.13900831
-0.046712697,-0.11610037,-0.13729769,-0.16979882
-0.048777442,-0.050894246,-0.08659714,-0.1032705
0.03752614,0.013851653,-0.04883055,0.025555393
-0.024387142,0.0013409576,0.04183158,0.043323923
-0.011497557,0.007923638,-0.0037309108,0.04054649
0.0052143396,0.004579804,0.042225942,-0.055371106
-0.048614193,-0.004712905,0.008489199,0.041943595
-0.13642187,-0.15456083,-0.16634749,-0.11788123
-0.1972546,-0.17255144,-0.2435467,-0.16573317
-0.27456665,-0.34292284,-0.32095003,-0.25654292
-0.22670162,-0.23289749,-0.22721611,-0.23321053
0.028725356,0.016154032,-0.006519784,-0.01744648
-0.027209146,-0.056163773,-0.0550367,-0.014346741
-0.033357322,-0.13498564,-0.108147815,-0.06094928
-0.097552784,-0.10776085,-0.011773041,-0.023721581
-0.083762445,0.04363264,0.06404482,0.062385384
-0.13199605,-0.0696342,-0.017750353,-0.026349612
-0.021415617,-0.011818954,-0.0753391,-0.0049624
0.016438123,-0.07574752,-0.079000995,-0.014547752
0.06710978,-0.055870242,0.028563045,0.047077168
-0.03013852,-0.06401802,-0.02574204,0.031831566
0.019389946,-0.013872317,-0.024197577,-0.006253686
0.07987515,-0.033277422,-0.018308971,-0.0050367624
0.08005018,6.939527e-05,-0.087889306,0.051911514
0.034583163,-0.046719838,-0.02655474,0.117792904
0.01293788,0.018159028,-0.002039976,0.0971044
0.024895422,-0.04865676,0.043098353,0.05413283
0.00676185,0.08413468,0.046234924,0.0394535
-0.03977512,0.025809053,0.035884954,0.06705165
-0.005371758,0.014927723,0.028263852,-0.009652156
0.06508622,-0.0032499654,0.0943068,0.005240668
0.07179435,-0.026391536,0.05164574,0.19400895
0.09722006,-0.035803854,0.08985749,0.20777155
0.039959542,-0.016278215,0.07340377,0.05349486
-0.017016541,-0.066120006,-0.045328088,0.07617625
-0.042654607,0.014783686,-0.016893703,0.055885088
0.043851804,0.04456327,-0.06703216,0.06487719
0.027972907,0.05478204,0.023460306,-0.024356367
-0.020120976,0.01117583,-0.031573296,-0.05940491
0.0026861834,0.036641292,-0.0024114815,-0.122157276
0.07317987,0.09166921,0.019179735,-0.055251583
0.04594265,-0.02868112,0.0038507779,-0.028196745
-0.034223415,-0.05525488,-0.058303908,-0.05607357
-0.00821979,0.0050482005,0.031614825,0.0678698
-0.0785398,-0.036317505,0.084184036,0.021922633
-0.061398104,-0.0447839,0.0021237829,0.037350908
-0.049889445,-0.02783824,-0.005859001,0.049980223
0.03553533,0.01938382,0.057935707,0.048278507
0.03604091,-0.0067963363,-0.014582312,0.042537894
-0.02488491,0.0023538712,-0.0029854646,0.013476319
-0.034166325,-0.054797605,0.05407344,-0.0030164632
-0.021309664,0.067407794,0.03389089,-0.05708544
0.03462197,0.008858203,0.07021387,-0.03520163
-0.00978257,0.075080246,0.10107017,-0.011910915
0.026585447,0.052437503,0.010014008,0.043345496
0.009510436,0.012525533,0.050824616,0.029984675
-0.021063473,0.073660105,-0.0023962483,0.08359524
-0.07035553,0.050324403,0.023729892,0.053064592
0.011403211,0.04089754,-0.035694946,-0.06421049
-0.25034574,0.113525026,0.12441536,0.11843152
-0.30602485,0.047771793,0.17025472,0.16681209
-0.2806436,0.008267284,0.09484187,0.15340753
-0.24075106,-0.10753067,0.0017480924,0.04852742
-0.01735909,0.023221664,-0.021376124,0.010158458
0.06420818,0.075316,-0.0105745895,0.0396152
-0.21878172,-0.24466102,-0.27489302,-0.1716413
-0.16170903,-0.21922886,-0.17958175,-0.1169185
0.03774377,-0.008522145,0.017131643,-0.060353536
-0.020244397,-0.0044246786,-0.021358076,-0.049906995
-0.016284712,0.061547082,0.025723321,-0.06071377
-0.05032203,-0.020373244,-0.03344034,-0.051589064
-0.11423345,-0.06755936,-0.08958373,-0.015705837
-0.061786078,-0.08751287,-0.06429649,-0.030508015
-0.061926,-0.07517344,0.0046837823,-0.08396682
0.017363526,0.030858504,0.025310833,0.05230001
-0.09237016,-0.021084126,-0.01969377,-0.07147126
-0.16904873,-0.11708267,-0.07030107,-0.09123395
-0.09630223,-0.03858843,-0.03510859,-0.03770049
-0.12948258,-0.0038990856,-0.0037111414,-0.048583664
-0.035582162,0.024590066,0.0027438095,-0.0022427836
0.06806594,0.03679008,0.016602248,-0.07526025
0.06053145,-0.04069084,-0.04617629,-0.051744558
-0.06884721,-0.048404884,-0.051401902,-0.056288257
0.0791304,-0.022308452,-0.01054312,0.065080054
0.032074958,0.060842726,0.030897612,0.013343316
0.040332526,0.00090742775,-0.010007706,-0.0014912863
0.014846529,-0.013205253,0.015520598,0.027346265
-0.10437685,-0.120599225,-0.07080814,-0.03368354
-0.22958508,-0.23180714,-0.049104642,0.004717294
-0.266035,-0.3162557,-0.13959225,-0.085287
-0.18330716,-0.21433832,-0.14569013,-0.070842385
0.015245078,0.05793839,0.03248573,-0.014830002
0.0671774,0.10265213,-0.010397951,-0.015803415
0.09632391,0.06547493,0.055955686,0.07681755
-0.018921519,0.054978535,0.05451723,0.06242986
-0.011673328,0.07529312,0.0012932739,-0.04570613
-0.052619763,-0.06874389,0.07195798,-0.04087472
-0.08271213,-0.10798815,-0.031753603,-0.009212397
0.052238345,-0.07320276,-0.026996315,-0.05479799
-0.042974465,0.041844837,-0.018824434,-0.012884331
-0.078460656,-0.08670717,0.0062216586,0.014491805
-0.04632914,-0.032302953,-0.10122352,0.04352276
-0.02153889,0.007933072,-0.09045488,-0.013879543
-0.044765264,0.07573069,-0.008725313,0.017599974
0.023196276,-0.033899724,0.046178143,0.00821357
0.011752801,0.010303084,-0.018493753,0.063644096
0.08017496,0.002746781,0.0017189987,-0.029520817
0.014677715,0.009542108,0.005629592,-0.05287761
0.018672395,0.0019715566,-0.05277901,-0.08525751
0.0181243,-0.030091137,0.006091544,-0.0060346946
-0.051597763,0.029993784,-0.04602289,-0.04775623
0.01659078,-0.017299872,-0.0010336302,0.036353666
-0.031605076,-0.014842681,-0.009759136,-0.0017899866
0.009301752,-0.007883601,-0.008683682,0.022050878
0.030413294,0.043368027,-0.03735775,0.03619795
-0.015591498,0.02966894,-0.060935363,-0.04782476
-0.056682408,-0.026632862,0.036995195,0.0030280987
0.014138604,-0.01161978,-0.04828848,0.024129877
-0.0531632,-0.0075666355,-0.021085033,-0.06264238
0.099680334,0.11022443,0.10313062,-0.00972582
0.005901698,0.08977755,0.05832092,0.11143594
-0.03057565,0.038129058,0.099229075,0.065944985
-0.021944694,0.052075393,0.097170465,0.023373283
0.017302873,0.019817678,0.031119427,0.055666853
0.006290174,-0.0059970613,-0.012335939,0.009478642
0.040440716,0.04315946,0.015674409,-0.024945764
-0.074768014,-0.0069356854,0.048935294,-0.03826001
-0.04784445,-0.035816092,0.03942009,0.0049525267
-0.018261133,0.027115671,-0.043754946,0.0709042
0.06299725,0.017013209,-0.0033965919,-0.022442881
0.10835941,0.103900306,0.017182443,0.053065803
-0.011082249,-0.05473464,0.039942943,0.002159487
0.017369334,-0.0433025,-0.01034241,-0.058909718
0.036995754,0.06488354,-0.05018498,-0.06273197
0.06684771,-0.022535674,0.08565957,0.048628572
0.1566434,0.06541904,0.06901284,0.032638736
0.10079564,0.078568004,0.11816594,0.0032680575
-0.028594442,0.02072448,-0.04989955,0.0017328591
-0.052812405,-0.13371156,-0.090289734,-0.02308121
0.035156358,0.00434188,0.016957263,0.0409427
0.05718311,0.09107401,0.04394929,0.12964293
0.09826894,0.08985981,0.11190896,0.1456815
0.017143473,-0.013971337,0.07000865,0.018465454
-0.039909087,-0.06497288,0.014973089,-0.045912582
0.050291684,-0.057047267,-0.030657336,-0.04031538
0.0015152076,0.014957327,0.019587772,0.007893106
0.042841036,0.05725525,-0.03855417,-0.011062559
-0.0190154,0.023124358,0.054215956,0.015346827
-0.06689822,-0.035733767,-0.008746449,0.092743635
-0.07405633,-0.041026637,0.05476535,0.07967384
-0.10823695,-0.08368192,0.009567028,-0.028596936
-0.06112413,-0.13231468,-0.06863775,0.10394236
-0.02697853,-0.13215663,-0.20034543,-0.031849004
-0.069945246,-0.14095344,-0.13667466,-0.040319767
0.028069966,-0.05594411,-0.1198381,-0.035100296
0.07624928,-0.014964904,-0.05811087,0.026778225
-0.023028709,0.04123663,-0.033856988,-0.041423853
-0.0040018624,0.012698076,0.006663484,0.029349754
0.0010091026,0.032855034,-0.024615122,0.05559842
-0.046268344,0.00055798446,0.053682968,0.1254487
0.0032998836,-0.12408104,-0.045582328,0.009610868
0.017392687,-0.066366374,-0.13273329,-0.00041031168
-0.04826184,0.021899706,-0.0700717,-0.046902817
0.024503674,-0.04918771,-0.012630487,0.09067872
0.024904586,0.034010608,-0.06142566,0.039547965
0.0038535686,0.07173792,0.013646355,-0.0032568318
-0.023779485,0.034186814,-0.007858581,-0.064008944
-0.035821952,-0.07218507,-0.07120149,-0.010380042
0.091679364,0.043424908,-0.11629488,-0.10442294
0.0451469,0.078380466,-0.010947307,-0.09086653
0.03919135,0.05050855,-0.049155325,-0.055927534
-0.009354616,0.068180166,0.029859407,-0.048651334
0.016387084,0.04668518,0.055671334,-0.00052606995
0.02153897,0.07368968,0.07812489,0.09528395
-0.0641652,0.011073296,0.029057676,0.07487038
0.04348953,0.07712903,0.031468157,0.019798785
-0.049369328,0.011528612,0.035074696,0.0702503
-0.011067367,-0.0041220915,0.08646086,0.098423414
-0.057146765,0.012427323,-0.032609895,0.014121869
0.045473695,-0.041845668,-0.05211725,-0.037544932
0.023776459,-0.09216055,-0.139363,-0.046351578
0.06447517,0.020505875,-0.13098447,-0.022118634
0.043961454,0.040537983,-0.040714897,-0.010866748
-0.105274774,-0.022351889,-0.045376144,-0.005727957
-0.020027962,-0.041157,-0.10786283,-0.0588306
0.09920113,0.0027567728,-0.08639439,-0.17282313
0.023756374,0.04173639,0.06275023,0.043722052
0.17639974,0.09004069,-0.053552575,-0.015262184
0.19172144,0.11872174,0.041305695,0.02794277
0.12842475,0.114956744,0.112561435,0.094553575
0.04269726,0.0981228,0.11133248,0.07202781
0.05391683,-0.038836394,-0.07624564,-0.12630989
-0.03117812,0.04868859,-0.032609984,-0.10395987
0.0023299516,-0.0066354824,0.02579793,-0.062115733
-0.055188812,-0.050550885,0.047810994,0.01836691
0.026973495,-0.06413468,-0.073793806,-0.021301324
0.013821931,0.07570326,-0.01022026,-0.038604844
0.067832716,0.017141374,0.06275917,-0.07808469
0.023011602,0.013988539,0.0114913685,0.023631157
-0.015407035,-0.015300801,-0.06560033,-0.10811118
0.02123173,-0.043908376,-0.034386653,-0.11086345
0.036592275,-0.0004390106,0.019039897,-0.02403831
-0.07342609,-0.017143263,0.035432316,0.023661846
-0.08393384,-0.06997073,-0.0066927364,0.020310951
-0.05081733,-0.119236566,-0.0014235318,0.028012354
0.024112443,0.036072005,-0.0990049,-0.13126284
-0.01061135,0.04671115,-0.060223255,-0.020869346
0.103790194,0.08585534,0.026391208,-0.07965292
0.05890911,0.09652068,0.039808724,-0.06689175
0.040627267,0.007566801,0.018640086,0.026858248
-0.01151066,-0.03566726,-0.062354807,-0.04745734
0.0073957397,0.018249134,-0.05606706,-0.0271446
-0.01599054,0.02977674,0.0039061464,-0.033686657
-0.01873874,-0.0018665952,-0.02747948,0.0043269093
0.034878958,-0.026583754,0.027767647,0.064840995
-0.03393974,-0.03632556,-0.031545106,0.0024495174
0.04707611,0.062813364,0.028150352,-0.04171352
0.09001656,-0.002321723,-0.016773755,0.03428075
0.039043285,0.045008067,-0.010376969,-0.010629927
0.0033424743,0.013631443,0.06403362,0.05280195
0.011050664,-0.060779374,-0.02216995,-0.034923248
-0.084206365,-0.05667752,-0.10174864,-0.09365402
-0.05897035,0.00695567,-0.0309211,-0.013005297
0.015470628,0.036339622,0.026777139,0.053122837
0.06805961,0.11194162,0.0052226703,0.089283854
0.095908344,0.052345295,0.121210515,0.11794008
0.12832083,0.100351475,0.056668192,0.041853137
0.051060688,-0.001301543,-0.017741384,-0.048738234
-0.006192317,0.032839134,-0.023238413,0.013548161
-0.027336953,-0.020559361,0.07402244,-0.034223754
-0.021272624,-0.0470867,-0.042225394,0.015771467
0.012267734,0.006002482,0.030161645,0.020367267
0.036723953,-0.01689713,0.07177721,-0.039850134
-0.033660706,0.028710298,0.060137566,-0.04709874
-0.06389393,-0.06873786,-0.086365834,-0.04706518
0.0065965233,-0.08357759,-0.037072342,-0.034802627
-0.019605922,0.019999435,-0.05277251,0.05260942
0.055339452,0.016381284,-0.0034814235,0.031962253
0.07603756,0.082244456,0.10046273,0.07059716
0.023566116,-0.015835613,-0.005516391,-0.007478109
-0.052076127,0.026002891,-0.013412047,-0.004702196
-0.034974243,-0.03267976,-0.034053233,-0.024167841
0.043001678,-0.05144067,-0.036140908,0.03725579
0.040309392,0.07358288,0.0888377,0.0740266
0.089599,0.004398557,0.0104737645,0.08846962
0.06582132,-0.0026392841,0.047868356,-0.0159796
-0.051870715,-0.05317453,0.051826205,-0.050686084
-0.017073192,0.016761336,0.0058095003,0.002002488
0.051441874,0.07277926,0.029337805,0.122531444
0.0025738266,0.084199235,0.039242625,0.117221385
0.06523235,-0.015818678,0.029741384,0.015872736
0.017406404,0.006142265,-0.015695589,-0.051450882
-0.00565844,0.010901918,0.05475831,0.05453396
0.060949013,-0.01914147,0.024605252,-0.019677075
0.078843735,0.08241681,0.017598845,0.018652346
0.026911965,-0.01176642,-0.021563586,-0.01830964
0.057933178,-0.017697005,0.023185004,-0.014185528
-0.0594079,-0.08642515,-0.061872434,0.003247606
0.09395257,0.09601618,0.10935091,-0.00112773
0.059538424,-0.032100916,-0.004966677,-0.029162172
0.076212876,-0.0069994177,0.06772517,0.05716493
-0.013020097,0.0063390485,-0.029880723,0.012238727
-0.04845651,-0.072857514,0.023986941,-0.031418737
0.07538431,0.1290417,0.11769759,0.098698065
0.104946114,0.13500047,0.18513042,0.15541087
0.12925223,0.2063291,0.16537848,0.17722756
0.13117547,0.07785719,0.13611814,0.19093259
0.03773666,-0.03708032,-0.06423658,0.009094897
-0.017740209,0.035336915,0.01836439,0.010062447
-0.04130528,0.03148282,-0.029487174,-0.031580243
-0.052568477,-0.009434721,0.042930346,0.012830996
-0.029696293,0.014036385,-0.06178275,0.036802933
0.030397523,0.0074828933,-0.050103385,0.05349169
-0.03544387,0.044230003,-0.020143598,0.027998148
-0.044010464,0.0032208364,-0.019545328,0.050873116
-0.041329462,-0.06152597,0.011547203,-0.0013420486
-0.008420579,0.020156212,0.05002653,-0.052869122
0.032813348,0.014901007,0.06944701,0.027851157
0.034470756,-0.017765258,0.053918313,-0.031849883
-0.0094604185,0.03282606,0.061692175,0.059310813
-0.002892735,-0.01881376,-0.020871103,0.0009290354
0.0071409037,-0.043552447,-0.022586402,-0.017090483
0.02820751,0.04349446,0.006057553,0.015010991
0.0019683328,-0.06048247,0.019121319,-0.013234141
0.018830242,-0.081720665,-0.020530378,0.008928688
-0.051748663,0.021653773,-0.0018846558,-0.031013228
0.06414138,0.04125643,0.06633144,0.06448657
0.054346085,-0.008368436,-0.012575218,0.017868958
-0.030135626,-0.049733654,0.02899532,-0.0070413295
-0.014106663,-0.028652148,-0.025276694,-0.055709556
-0.014542473,0.008537248,0.010969488,-0.029625338
-0.0047489265,0.047663417,-0.023524968,0.011542867
0.011310786,-0.00501357,-0.03635575,-0.045919735
0.05211848,0.017662471,-0.0261074,-0.06701459
-0.04603031,-0.007208818,-0.10916173,-0.06550105
-0.0075944387,0.071369566,0.009328073,0.077159494
0.06612502,0.009389616,0.075749226,0.022313828
0.033500466,0.045296345,-0.025397303,0.005964149
0.05169691,-0.0018875384,-0.0009230433,-0.008389778
-0.08307843,-0.027786337,-0.10760403,-0.051591698
0.01434352,-0.038750343,0.012798649,-0.0378417
-0.052033383,0.03363602,-0.0012014492,-0.024234844
-0.07079415,-0.025308963,0.031948272,0.02969178
-0.006357168,-0.017489253,0.042480033,0.055142656
-0.0013512906,-0.05032094,0.03911733,0.048462726
-0.0327179,0.0200477,0.005585817,0.079775825
-0.0063365675,-0.012260987,0.0757101,0.019581527
-0.006136612,0.062063325,-0.0180881,0.05424565
0.05683953,-0.023270186,0.028908158,0.028512023
-0.048225235,-0.017454965,0.005881556,0.018675463
-0.042840894,-0.0018973538,-0.065868296,-0.032241292
-0.0015497975,-0.016611924,-0.03115288,-0.06550624
-0.030344523,-0.06383051,0.021141142,-0.01685755
-0.048001327,-0.033645246,-0.024845174,-0.03121219
0.031182587,-0.07585746,-0.0040653655,-0.036616743
-0.14525755,-0.21913216,-0.09422993,-0.038977027
-0.3190049,-0.35369688,-0.23442198,-0.06486768
-0.33816794,-0.46324798,-0.32376903,-0.16058418
-0.17828198,-0.3571434,-0.34940612,-0.13823253
0.052910905,0.06112493,0.08185,0.08973246
0.0703881,0.12342799,0.14850779,0.14778532
0.03447364,0.14730863,0.07617104,0.18985878
-0.016553048,0.040966853,0.10820066,0.0666753
0.028302323,0.0067012557,0.00014197809,0.0009694237
0.055295356,0.085314,0.05750523,-0.03493476
-0.019323558,-0.013606239,-0.04794446,-0.036197383
-0.027509963,0.018839853,0.029850196,-0.07122715
0.14572932,0.13730718,0.22629987,0.1390663
0.14497034,0.2111657,0.21897142,0.22037673
0.13269944,0.11413748,0.16350004,0.08850084
0.06631909,0.11481527,0.07748571,0.11142021
-0.0043019825,-0.059166573,-0.016114686,0.027873037
0.007951524,0.010657832,0.017911877,0.1010476
-0.010428663,0.06355222,0.0045418213,0.07592986
0.0037765985,-0.019509288,0.0003563061,0.0036831568
0.073491156,-0.027320953,0.028835211,-0.03722246
0.035177913,0.047939595,0.09917999,0.044717107
-0.0037905946,0.06293331,0.047810525,0.05029249
0.022320578,0.009629341,-0.024857827,-0.0053609693
0.052419994,0.016506774,-0.049916163,0.043404374
-0.02652143,-0.013379559,-0.021785045,-0.020680571
-0.0140103325,-0.034730274,0.047665805,0.0019836896
0.027681686,0.035645586,-0.0066335546,-0.040205527
-0.013335041,-0.053172115,0.024621239,0.06650664
-0.035696577,-0.076768965,-0.0061745285,0.039883982
-0.023950918,-0.100694925,0.025219576,0.042086177
-0.013736519,-0.10401904,-0.06623523,0.01575514
-0.067091264,-0.018384516,-0.037327517,0.07566218
-0.067609124,-0.10308118,-0.049731508,0.046878964
-0.10381909,-0.063528106,0.0070811566,-0.028611047
-0.020527918,-0.039030556,0.0072898148,0.03217754
0.04950533,-0.018293073,0.0467407,-0.025924107
0.015610039,0.0767377,0.059414987,-0.0021892649
0.034336638,-0.047002926,-0.037150186,-0.0092584975
0.04441105,-0.05181765,0.043277554,0.024833187
-0.017065313,0.06120111,0.08331561,0.048137758
0.05067423,-0.009309924,-0.0050731897,0.06827799
0.031016685,0.0758102,0.024445284,0.011963385
0.017779652,0.056249414,0.027683808,-0.015012137
-0.03346974,0.049836718,0.046229444,-0.02105163
-0.00052626716,0.0004852988,0.0225103,-0.026300188
0.07145022,0.06973497,0.013453485,0.061483342
0.056052975,-0.030552682,-0.028426116,0.040339805
-0.029951205,0.06248381,-0.022581179,0.036815718
0.025448931,0.0047268197,0.026397085,0.003513543
0.082022786,0.06184855,0.023047723,0.011453437
0.07721176,0.015921421,0.049690504,0.04104843
-0.08328104,-0.058795597,-0.016174471,-0.0650612
-0.06338282,-0.0474748,0.025330199,-0.0050931913
-0.05538526,-0.0050972453,0.021901846,-0.00826719
0.015542488,0.04581632,0.046667665,0.05553059
5.7904697e-05,-0.0639289,0.0024190578,-0.0061349613
-0.06229975,-0.06888582,-0.04177737,-0.006542908
-0.07070056,-0.13350458,-0.06515375,0.05495174
-0.064466424,-0.101628564,-0.016438324,-0.01456835
-0.113411084,-0.07051311,-0.071272545,0.043891646
0.002397882,0.011856113,-0.028197996,0.09244162
0.007184335,0.046897635,0.063362546,-0.006931667
-0.020562278,0.05574302,-0.041210707,0.006731808
0.09041621,0.13200834,0.029122055,0.031303015
0.107806854,0.09600842,0.07868861,0.080649495
0.04190507,0.09284056,0.12524146,0.06441447
0.071269505,0.0316732,0.04885808,0.036464904
-0.03132969,0.00967919,-0.019152468,0.10503708
0.024341268,-0.020078642,-0.04212935,0.04353539
-0.03859198,-0.018759256,0.019782666,0.056265254
-0.03181808,-0.031686727,-0.004109609,0.094452046
0.017954374,-0.015300294,0.042035315,0.086245365
0.037936974,0.08572266,0.088667035,0.050245427
0.050228078,-0.016331572,-0.02835818,0.014050291
-0.016766272,-0.041318264,-0.025883311,-0.017573344
-0.05355424,-0.14323072,-0.1443093,-0.14211808
-0.026615333,-0.086880155,-0.025897902,0.014765089
-0.009653048,-0.061286785,0.034807842,0.019687511
-0.028393649,0.003891238,-0.014442911,-0.026884336
-0.13001566,-0.16583082,-0.19747138,-0.120445065
-0.01437554,-0.057478044,-0.14771779,-0.10025737
-0.061416328,-0.02302998,-0.11609888,-0.08857831
-0.09244235,-0.08881636,-0.028146157,-0.076008566
-0.0106770685,-0.0069644693,-0.016534852,0.006929542
-0.035423815,0.07277835,0.05455621,0.008892812
-0.04780434,0.06866571,0.036216512,-0.001965437
0.01705387,0.023147397,0.02545266,0.015037942
-0.011662796,0.07104292,-0.020319456,0.04338778
0.026918389,0.064576246,0.0050922693,-0.028443357
0.07503903,0.0113528855,0.052784417,0.07263748
-0.048361965,0.008796347,-0.071709305,0.010131046
-0.010507503,-0.025904959,0.03770315,0.0010282294
0.04860159,0.060702913,-0.0031126568,0.02087415
0.0116492985,-0.011139517,0.043931607,0.04601057
-0.041349016,0.050423924,-0.023562174,0.0065428964
0.015197248,-0.021950532,-0.062037446,-0.018584525
0.013233458,-0.032787584,-0.000571784,0.068776384
-0.036153655,-0.030636981,0.030635165,0.07477961
-0.026743589,0.040672354,0.071099594,0.102021724
0.058647774,0.04752997,-0.0006132916,0.07485153
-0.040595796,0.004054778,-0.024066465,-0.015093367
-0.032000016,-0.0485413,-0.017484613,0.019311832
-0.03427263,-0.070571914,-0.046947986,0.0008896214
-0.004042125,-0.030795751,0.0102324765,0.032791313
-0.1044445,-0.06990279,0.061875477,-0.015078106
-0.021636061,0.060295306,-0.03623246,-0.0061118854
0.037095893,-0.026854455,0.015849195,0.030526936
0.0045943656,-0.028527925,-0.01049513,0.103284225
0.020750025,0.042527568,0.07262531,0.061641812
0.047505777,-0.020392349,0.10585991,0.099472485
-0.041430123,0.0008857602,0.047210604,0.10168226
0.027790587,0.023182867,-0.016763065,0.011812616
0.02828487,0.07454059,0.074621834,-0.017730411
0.037573334,-0.022453967,-0.0040901364,0.018673284
0.01251715,0.015938845,0.044894665,-0.0196964
0.0036789633,-0.06424383,-0.07106783,-0.0021680342
0.023709917,-0.010538808,-0.071635835,0.017891292
-0.01040101,-0.0781199,-0.056764312,0.035810564
-0.0675639,-0.0143271135,-0.05988975,-0.040140364
-0.043439046,-0.075512014,-0.0373723,-0.051180508
-0.06701254,-0.087571315,-0.06968736,-0.0983474
-0.052093856,-0.111730576,-0.11601162,-0.03463001
-0.100117475,-0.038381238,-0.0814935,0.05994373
-0.07722054,-0.07006801,-0.16518535,-0.09010514
-0.14976253,-0.17077953,-0.19839914,-0.12569484
-0.1856969,-0.24591704,-0.25912043,-0.17738642
-0.20501843,-0.2956454,-0.22563305,-0.1300499
