-0.07722545,0.13026518,0.07239944,0.014869346,0.034751102,-0.040102523,-0.050539974,0.10894317,0.026496077,-0.029064938,0.032477494,0.046280153,-0.006704163,-0.005618118,-0.12251955,0.12077831,0.011674854,0.06917018,0.06957935,-0.057225414,0.04458503,-0.004213076,0.05336148,0.052182186,-0.02251686,0.068995826,0.0051574083,0.06707714,-0.017371707,0.029218914,0.02516259,0.0813102,-0.004251938,0.061151396,-0.008605969,0.06546699,0.1008864,0.06697112,0.06762905,-0.08639545,0.037087027,-0.012002584,0.08860316,-0.0670444,-0.02380983,0.09748239,0.072725534,-0.008041293,0.006422778,0.049389966,0.0041283523,0.07137235,0.14402959,0.0053880387,-0.034512274,-0.009781163,-0.03360472,0.012408179,0.06010317,-0.054565486,0.09250483,-0.014689055,0.14557306,-0.022122832,-0.004045893,-0.08000823,0.018348908,0.055779565,0.02146872,0.016267734,0.028982548,0.03904392,0.010333519,-0.01942374,0.114207596,0.0063182516,0.031453323,0.02026126,-0.054901805,0.118405595,0.06800409,-0.049769547,0.066266,-0.025425179,-0.10827492,0.018959982,0.073790774,0.05553926,0.09567753,0.04238701,-0.07332057,0.08977254,0.0077594193,0.0045898,0.058855984,-0.03396709,0.059361603,0.15589634,-0.009824085,0.027527483
